SVM-light Version V6.02
0 # kernel type
3 # kernel parameter -d 
1 # kernel parameter -g 
1 # kernel parameter -s 
1 # kernel parameter -r 
empty# kernel parameter -u 
9999 # highest feature index 
1124 # number of training documents 
776 # number of support vectors plus 1 
0.088808392 # threshold b, each following line is a SV (starting with alpha*y)
0.012868127119159569402007115002107 4:5 6:2 7:2 29:2 40:1 42:2 47:1 48:1 54:1 63:1 67:1 83:1 114:1 116:1 118:1 119:1 120:1 121:1 125:1 139:1 156:1 182:2 203:1 242:5 252:1 258:1 264:1 266:1 270:1 324:1 350:1 351:1 414:1 454:1 487:1 526:1 539:1 546:1 547:1 548:1 568:1 580:1 601:2 623:1 658:1 672:1 686:1 730:1 759:1 760:1 790:1 798:1 830:1 849:1 895:1 898:1 913:1 922:1 933:1 943:1 973:3 975:3 992:1 1002:1 1010:2 1068:1 1111:1 1130:1 1158:2 1201:1 1204:1 1243:1 1260:1 1321:1 1348:1 1369:1 1372:1 1464:1 1483:1 1485:1 1509:1 1666:1 1692:1 1703:2 1705:1 1718:1 1736:1 1776:1 1933:1 1979:1 1987:2 1992:1 2002:1 2053:1 2197:1 2200:1 2230:1 2377:1 2380:1 2446:1 2450:1 2462:1 2489:1 2522:1 2544:1 2575:1 2580:1 2589:1 2593:1 2646:1 2652:1 2667:1 2679:1 2744:1 2830:1 2834:1 2855:1 2931:1 3053:1 3077:1 3085:1 3193:1 3344:1 3422:1 3494:1 3504:1 3564:1 3585:1 3679:1 3890:1 4589:1 4625:1 4632:1 4771:1 4889:1 5005:1 5124:1 5150:1 5191:1 5282:1 5319:1 5321:1 5322:1 5323:1 5324:1 5325:1 5326:1 #
0.0058934315338106443155075098161433 19:1 33:1 63:1 66:1 73:1 74:2 98:1 104:1 118:1 119:1 204:1 256:1 266:1 306:1 318:1 320:1 321:1 331:2 355:1 356:2 357:1 369:1 398:1 412:2 414:1 436:1 448:1 470:1 478:1 487:1 488:1 496:1 505:4 512:1 532:1 568:1 573:1 576:1 582:1 623:1 636:1 669:1 678:1 692:1 728:1 732:1 758:1 795:1 796:1 797:1 799:1 808:1 812:1 823:2 879:1 895:1 917:1 987:1 988:1 1012:1 1065:1 1077:1 1093:2 1129:1 1164:1 1184:1 1194:1 1266:1 1324:1 1327:1 1340:1 1390:1 1443:1 1447:1 1462:1 1493:1 1542:1 1577:1 1579:1 1593:1 1604:1 1628:1 1666:1 1732:1 1736:1 1748:1 1774:1 1779:1 1784:1 1842:1 1887:1 1906:1 2008:1 2172:1 2190:1 2216:1 2217:1 2278:1 2309:1 2330:1 2624:1 2648:1 2697:1 2785:1 2788:1 2789:1 2790:1 2791:1 2792:1 2793:1 2794:1 2795:1 2796:1 2797:1 2798:1 2799:2 2800:1 2801:1 2802:1 2803:1 2804:1 2805:1 2806:1 2807:1 2808:1 2809:1 2810:1 2811:1 2812:1 2813:1 2814:1 2815:1 2816:1 2817:1 2818:1 2819:1 2820:1 2821:1 2822:1 2823:1 2824:1 2825:1 2826:1 2827:1 #
0.0065033706820865379294449581948356 2:1 4:3 41:1 42:2 56:1 58:1 59:1 66:2 67:1 73:1 87:1 100:1 101:1 121:1 131:1 133:1 157:1 175:1 182:1 184:1 188:1 231:1 237:1 238:1 242:2 264:2 266:3 270:1 293:1 294:1 295:1 297:1 298:1 315:1 326:1 357:1 363:1 383:1 394:1 399:1 426:1 430:1 434:1 436:2 437:1 447:1 452:1 456:1 477:1 502:1 505:3 522:1 523:1 526:1 527:1 558:1 601:1 605:1 615:1 623:1 629:1 655:1 669:1 679:1 727:1 728:1 734:1 735:1 781:1 791:1 792:1 801:1 837:1 861:1 880:1 895:1 920:1 923:1 973:1 988:1 1032:1 1080:1 1084:1 1136:1 1144:1 1169:1 1178:1 1182:1 1225:1 1255:1 1256:1 1285:1 1330:1 1338:1 1364:1 1376:1 1396:1 1410:1 1426:1 1437:1 1442:1 1483:1 1505:1 1513:1 1535:3 1555:1 1580:1 1590:1 1625:1 1707:1 1715:1 1804:1 1884:1 1904:1 1920:1 2050:1 2056:1 2076:1 2124:1 2176:1 2177:1 2189:1 2230:1 2237:1 2240:1 2283:1 2356:1 2431:1 2437:1 2480:1 2549:1 2606:1 2635:1 2638:1 2648:1 2725:1 2766:1 2916:1 2920:1 2959:1 3165:1 3180:1 3204:1 3239:1 3272:1 3452:1 3675:1 3680:1 3716:1 3819:1 3872:1 3916:1 3937:1 4091:1 4096:1 4107:1 4145:1 4168:1 4201:1 4234:1 4439:1 4456:1 4726:1 4780:1 4781:1 4782:1 4783:1 4784:1 4785:1 4786:1 4787:1 4788:1 4789:1 4790:1 4791:1 4792:1 4793:1 4794:1 #
-0.0097539733213949826595712266907867 11:1 17:1 26:1 40:1 42:2 48:1 66:1 309:1 332:1 333:1 365:1 387:1 388:1 444:1 475:1 594:1 601:1 602:1 658:1 799:1 949:1 958:1 975:1 998:1 1011:1 1021:1 1025:1 1055:1 1077:2 1083:1 1158:1 1178:1 1268:1 1305:1 1436:1 1466:1 1477:1 1570:1 1668:1 1711:1 1732:1 1751:1 1786:2 1787:2 1788:1 1841:1 1842:1 1846:1 2023:1 2068:1 2224:1 2249:1 2294:1 2356:1 2362:1 2370:1 2374:1 2384:1 2542:1 2838:1 2913:1 2927:1 2931:1 2974:1 3054:1 3161:1 3200:1 3209:1 3210:1 3303:1 3390:1 3455:1 3490:1 3707:1 4011:1 4012:1 4013:1 4014:1 4015:1 4016:1 4017:1 4018:1 4019:1 4020:1 4021:1 #
-0.0042521787793184974424409716675655 4:1 14:2 15:1 22:1 26:1 40:2 41:1 42:1 52:2 53:2 54:1 55:1 58:1 63:1 66:3 69:1 72:1 75:1 83:1 84:1 85:1 98:2 99:1 100:3 104:1 110:1 111:2 115:1 121:1 128:1 155:1 156:1 159:1 163:1 165:1 170:1 178:1 194:1 197:1 198:1 212:1 251:1 258:2 259:1 267:1 274:1 297:1 308:1 315:1 316:1 325:1 331:1 332:1 349:1 353:1 358:1 368:1 390:1 414:1 421:1 426:1 459:1 522:1 538:1 539:1 546:1 547:1 548:1 570:1 618:1 623:2 626:1 637:1 653:1 654:1 683:1 686:1 702:1 752:1 768:1 778:1 783:1 826:1 828:1 832:1 839:1 840:1 848:1 886:1 898:1 900:1 946:1 957:1 998:1 1101:1 1102:1 1127:1 1140:1 1177:1 1178:1 1179:2 1191:1 1196:1 1197:1 1307:1 1308:1 1324:1 1341:1 1351:1 1407:1 1430:1 1479:1 1513:1 1524:1 1529:1 1535:1 1556:1 1564:1 1638:1 1709:1 1710:1 1762:1 1783:1 1864:1 1918:1 1992:1 2012:1 2030:1 2046:1 2048:1 2049:1 2096:2 2242:1 2301:1 2411:1 2477:1 2495:1 2532:1 2544:1 2581:1 2673:1 2674:1 2675:1 2676:1 2677:1 2678:1 2679:1 2680:1 2681:1 2682:1 2683:1 2684:1 2685:1 2686:1 2687:1 2688:1 2689:1 2690:1 2691:1 2692:1 2693:1 2694:1 2695:1 2696:1 2697:1 2698:1 2699:1 2700:1 2701:1 2702:1 2703:1 2704:1 2705:1 2706:1 2707:1 2708:1 2709:1 2710:1 2711:1 2712:1 #
-0.0094816200586835350933023747188599 19:1 30:1 33:1 35:1 41:1 42:1 58:3 60:1 61:1 69:1 72:2 74:1 84:1 85:1 97:1 98:1 99:1 116:1 121:2 201:1 211:1 224:2 237:1 244:2 252:1 266:2 275:1 277:1 290:1 297:1 312:1 319:1 320:1 321:1 324:1 325:1 330:1 339:1 347:1 348:1 365:1 386:1 387:1 388:1 394:2 395:1 406:1 412:1 425:1 426:1 436:2 437:1 447:1 448:1 452:1 470:1 476:1 505:2 536:1 542:2 571:2 579:1 601:1 652:1 665:1 677:1 683:1 700:1 709:1 712:1 749:1 754:1 759:1 765:1 776:1 782:1 791:1 808:1 846:1 855:1 861:1 877:2 895:1 901:1 902:1 912:1 923:1 939:1 957:1 958:1 965:1 1017:1 1036:1 1137:1 1144:1 1149:1 1155:2 1164:1 1166:1 1188:1 1192:1 1243:1 1269:1 1323:1 1326:1 1374:2 1387:1 1396:1 1408:1 1413:1 1437:1 1438:1 1477:1 1488:1 1509:1 1535:1 1537:2 1576:1 1578:1 1585:1 1736:1 1765:1 1774:1 1778:1 1779:1 1794:2 1807:1 2046:1 2060:1 2061:1 2127:1 2131:1 2136:1 2192:2 2193:2 2198:1 2249:1 2250:1 2251:1 2252:1 2253:1 2254:1 2255:4 2256:1 2257:1 2258:1 2259:1 2260:2 2261:1 2262:1 2263:1 2264:1 2265:1 2266:1 2267:1 2268:1 2269:1 2270:1 2271:1 2272:1 2273:1 2274:1 2275:1 2276:1 2277:1 2278:1 2279:1 2280:1 2281:2 2282:1 2283:1 2284:1 2285:1 2286:1 2287:1 2288:1 2289:1 2290:1 2291:1 2292:1 2293:1 2294:1 2295:1 2296:1 2297:1 2298:1 2299:1 2300:1 2301:1 2302:1 2303:1 2304:1 2305:1 2306:1 2307:1 2308:1 2309:1 #
-0.0053901523458856981721454282308059 4:1 9:1 40:1 48:1 66:2 72:1 84:1 85:1 95:1 104:2 126:1 166:1 175:1 223:1 224:1 225:1 242:1 266:1 283:1 297:1 318:1 330:1 331:2 412:1 413:1 474:1 487:1 538:1 539:1 561:1 568:1 573:1 580:1 586:1 620:1 637:1 640:1 665:1 685:1 691:1 694:1 762:1 787:1 823:1 828:1 869:1 900:1 969:1 970:1 971:1 1065:1 1156:1 1172:1 1174:1 1175:1 1227:1 1233:1 1243:2 1326:1 1408:1 1485:1 1492:1 1539:1 1655:1 1708:1 1736:2 1901:1 2010:1 2041:1 2061:1 2062:1 2169:1 2201:1 2446:1 2453:1 2507:1 2643:1 2895:1 3035:1 3129:1 3157:1 3227:1 3386:1 3399:1 3410:1 3561:1 3762:1 3806:1 3888:1 3915:1 4085:1 4483:1 4537:1 4717:1 4718:1 4719:1 4720:1 4721:1 4722:1 4723:1 4724:1 4725:1 4726:1 4727:1 4728:1 #
-0.016424791988697420158649364907433 4:1 42:1 49:1 59:1 63:1 66:2 94:1 95:1 116:1 128:1 167:1 195:1 197:1 198:1 210:1 219:1 251:1 252:1 258:2 268:1 289:1 290:1 291:1 309:1 326:1 353:1 421:1 475:1 477:1 486:1 505:1 507:1 517:1 524:1 568:1 617:2 658:1 711:1 743:1 752:1 765:1 768:1 806:1 834:1 922:1 1006:1 1007:1 1015:1 1036:1 1057:1 1060:1 1107:2 1108:2 1237:1 1249:1 1468:1 1479:1 1480:1 1481:1 1482:1 1483:1 1484:1 1485:1 1486:1 1487:1 1488:1 1489:1 1490:1 1491:1 1492:1 1493:1 1494:1 1495:1 1496:1 1497:1 1498:1 1499:1 1500:1 1501:1 1502:1 1503:1 1504:1 1505:1 1506:1 1507:1 1508:1 1509:1 1510:1 1511:1 1512:1 1513:1 1514:1 1515:1 1516:1 1517:1 1518:1 1519:1 1520:1 1521:1 1522:1 1523:1 1524:1 1525:1 1526:1 1527:1 1528:1 1529:1 #
0.0094691329828635630028177416761537 2:1 3:1 17:2 21:1 40:4 41:1 48:1 55:2 58:2 63:1 72:1 95:1 100:1 104:2 172:1 173:1 194:2 251:1 253:1 258:2 266:4 274:1 288:1 312:1 318:1 330:1 342:1 357:2 358:1 369:1 387:1 394:1 404:1 405:1 413:1 426:1 436:1 437:1 501:1 539:1 543:1 564:1 578:1 589:1 590:1 593:1 594:1 599:1 601:1 615:1 616:1 617:1 620:1 632:1 654:1 660:1 682:1 689:1 691:1 692:1 693:1 694:1 723:1 727:1 728:1 758:1 773:1 778:1 779:1 821:1 828:1 863:1 895:1 900:2 914:1 981:1 992:1 1011:1 1030:1 1077:2 1154:1 1178:1 1190:1 1207:1 1212:1 1215:1 1324:1 1327:1 1330:1 1346:1 1371:1 1372:1 1389:1 1396:1 1421:1 1456:1 1485:1 1489:1 1531:1 1605:1 1655:1 1668:1 1670:1 1684:1 1706:1 1707:1 1774:1 1788:1 1803:1 1829:2 1858:1 1914:1 1979:1 1991:1 2010:1 2057:1 2058:1 2067:1 2069:1 2096:1 2199:1 2229:1 2288:1 2305:1 2441:1 2464:1 2522:1 2607:1 2635:1 2704:1 2716:1 2763:1 2812:1 2906:1 3105:1 3250:1 3277:1 3319:1 3331:1 3345:1 3430:1 3464:1 3514:1 3515:1 3516:1 3517:1 3518:1 3519:1 3520:1 3521:1 3522:1 3523:1 3524:1 3525:1 3526:1 3527:1 3528:1 3529:1 3530:1 3531:1 3532:1 3533:1 3534:1 3535:1 3536:1 3537:1 3538:1 3539:1 3540:1 3541:1 3542:1 3543:1 3544:1 #
0.01513344588888608510668376538888 11:2 17:1 42:2 49:1 58:1 66:1 67:1 94:1 108:1 111:1 121:1 189:1 194:1 224:1 266:2 287:1 288:1 318:1 324:1 347:1 436:1 459:1 498:1 505:1 540:1 546:1 547:1 548:1 549:1 559:1 589:1 617:1 637:2 661:1 681:1 700:2 702:1 795:1 801:1 815:1 823:1 831:1 907:1 908:1 957:1 969:2 1041:2 1042:2 1060:1 1063:1 1077:1 1087:1 1111:1 1185:2 1194:1 1204:1 1217:1 1254:1 1291:1 1313:1 1374:1 1410:1 1420:1 1421:1 1452:1 1763:1 1803:1 1849:1 1883:1 2008:1 2062:1 2069:1 2115:1 2136:1 2168:2 2201:1 2204:1 2230:1 2259:1 2409:1 2427:1 2431:1 2457:1 2839:1 2874:1 2931:1 3147:1 3204:1 3278:1 3281:1 3290:1 3329:1 3661:1 3857:1 4365:1 4366:1 4367:1 4368:1 4369:1 4370:1 4371:1 4372:1 #
0.011030477902925467370565115743375 4:2 27:2 30:2 40:1 45:1 63:1 65:1 66:2 72:1 73:1 77:1 84:1 85:1 95:1 104:1 105:1 128:1 129:1 141:1 145:1 151:1 156:1 157:1 159:1 165:1 176:1 178:1 181:1 194:1 198:1 208:1 211:1 212:1 223:1 251:1 254:1 256:1 258:1 264:1 268:1 274:1 283:1 291:1 308:1 312:1 318:1 323:1 324:1 330:1 332:2 334:1 349:1 358:1 369:1 387:1 394:1 395:1 413:1 420:1 436:1 444:1 472:1 473:1 474:1 488:1 496:1 505:2 553:1 555:1 572:1 573:1 589:1 590:1 593:1 597:1 614:1 617:1 621:2 656:1 669:1 680:1 683:1 686:1 715:1 738:1 758:1 789:1 791:1 795:1 801:1 809:1 828:1 835:1 849:1 861:1 895:1 898:1 923:1 960:1 967:2 992:1 997:1 1002:1 1011:1 1021:1 1032:1 1044:1 1070:1 1077:2 1078:1 1106:1 1108:1 1133:1 1151:1 1178:1 1194:1 1233:1 1243:2 1248:1 1249:1 1270:1 1322:1 1328:1 1374:1 1376:1 1381:1 1407:1 1430:1 1439:1 1445:1 1446:1 1466:1 1471:1 1508:1 1512:1 1545:1 1658:1 1668:2 1707:1 1708:1 1755:1 1787:1 1802:1 1843:1 1877:1 1878:1 1897:1 1904:1 1934:1 1974:1 2008:1 2048:1 2049:1 2076:1 2110:1 2156:1 2252:1 2272:1 2329:1 2331:1 2333:1 2372:2 2384:1 2409:1 2597:1 2615:1 2655:1 2701:1 2702:1 2754:1 2802:1 2873:1 2996:1 2997:1 3012:1 3018:1 3091:1 3099:1 3110:2 3194:1 3244:1 3410:1 3479:1 3500:1 3890:1 3900:1 3950:1 3960:1 4047:1 4125:1 4143:1 4512:1 4537:1 4695:1 5086:1 5484:1 5607:1 6034:1 6106:1 6304:1 6441:1 6469:1 6475:1 6625:1 6739:1 7690:1 8392:1 #
-0.0032561860279931697376154531298198 16:1 21:1 29:1 55:1 56:1 58:1 66:3 67:1 72:1 84:1 85:1 91:1 104:1 113:1 116:1 123:1 124:4 145:1 157:1 208:1 224:2 256:1 266:2 268:1 269:1 275:1 289:2 306:1 309:1 318:1 349:1 425:1 426:1 436:1 444:1 449:1 477:1 505:1 525:1 527:1 561:1 580:2 605:1 661:1 665:1 689:1 698:1 700:1 732:1 743:1 787:1 788:1 892:1 900:1 911:1 926:1 946:1 960:1 984:1 997:2 1044:2 1058:1 1081:1 1089:1 1124:1 1125:1 1172:1 1174:1 1242:1 1243:1 1275:1 1276:2 1304:1 1328:1 1332:1 1333:1 1334:1 1335:1 1336:1 1446:1 1458:1 1466:1 1471:1 1513:1 1524:2 1557:1 1607:1 1608:1 1638:1 1703:1 1765:1 1787:1 1802:1 1816:1 1839:1 1957:1 2068:1 2069:1 2094:1 2102:1 2176:1 2201:1 2284:1 2356:1 2606:1 2607:1 2618:1 2648:1 2738:1 2772:1 2912:1 3015:1 3148:1 3161:1 3175:1 3179:1 3315:1 3528:1 3530:1 3561:1 4373:1 4374:1 4375:1 4376:1 4377:1 4378:1 4379:1 4380:1 4381:1 4382:1 4383:1 4384:1 #
-0.0091338058264988711276721744525275 4:1 5:1 6:2 7:2 17:1 37:1 41:1 42:1 45:1 68:1 69:1 74:1 82:1 83:1 98:1 139:1 178:1 196:1 201:1 224:2 227:1 242:1 244:1 277:1 312:1 452:1 570:1 580:1 601:1 620:1 656:1 759:2 822:1 880:1 950:1 975:1 1011:1 1017:1 1036:1 1071:1 1252:1 1255:1 1270:1 1321:1 1341:1 1374:1 1375:1 1463:1 1563:1 1569:1 1576:1 1597:1 1606:1 1795:1 1857:1 1951:1 2060:1 2061:1 2075:1 2081:1 2197:1 2231:1 2255:1 2399:1 2508:1 2588:1 2601:1 2856:1 2857:1 2858:1 3711:1 3905:1 3991:1 4469:1 4580:1 4671:1 5191:1 5658:1 9164:1 9165:1 9166:1 9167:1 #
0.03355982425497584797913219745169 4:1 11:1 12:1 35:1 48:1 49:1 52:1 53:1 54:2 62:1 63:1 66:1 128:1 159:2 168:1 242:1 300:1 308:1 309:1 357:1 369:1 387:1 388:1 396:1 448:1 458:1 511:1 559:1 561:1 580:2 599:1 640:1 758:1 776:1 810:1 949:1 958:1 1178:1 1401:1 1535:1 1553:1 1585:1 1668:1 1742:1 1823:1 1984:1 2362:1 2458:1 2480:1 2505:1 2558:1 2957:1 3136:1 3328:1 3984:1 5507:1 5691:1 6971:1 7923:1 7924:1 #
-0.0055284110152043069996707913560385 11:2 17:1 20:1 23:1 24:1 30:1 33:1 40:1 42:2 48:1 66:2 72:1 84:1 85:1 98:1 121:2 127:1 128:1 155:1 167:2 182:1 191:1 199:1 223:2 224:1 225:1 247:1 256:1 266:1 275:1 277:1 278:1 297:1 300:1 306:1 320:1 369:1 405:1 414:1 444:1 496:1 505:1 536:1 537:1 538:1 555:1 558:1 576:1 602:1 665:1 705:2 714:1 736:1 747:1 785:2 796:1 805:1 808:3 820:1 821:1 823:1 831:1 869:1 886:1 895:2 908:1 925:1 939:1 946:1 970:1 971:1 973:1 975:1 976:1 997:2 1012:1 1014:1 1044:2 1048:1 1055:1 1064:1 1084:1 1155:1 1170:1 1176:1 1198:1 1209:1 1227:1 1287:1 1296:1 1302:1 1308:1 1327:1 1338:1 1354:1 1356:1 1381:1 1449:1 1468:1 1482:1 1490:2 1527:1 1603:1 1691:1 1707:1 1786:1 1787:1 1814:1 1819:2 1829:1 1878:2 1884:1 1887:1 1888:1 1944:1 1945:1 2012:1 2062:1 2074:1 2120:1 2121:1 2160:1 2161:1 2172:1 2176:1 2247:1 2249:1 2267:1 2356:2 2484:1 2526:1 2531:1 2538:1 2560:1 2574:1 2597:1 2667:1 2681:1 2751:1 2928:2 3047:1 3110:1 3115:1 3378:1 3555:1 3564:1 4142:1 4487:1 4583:1 4628:1 4815:1 4867:1 5101:1 5145:1 5216:1 5249:1 5599:1 5603:1 5847:1 5971:1 6082:2 6770:1 7019:1 8658:1 9119:1 9981:1 9982:1 9983:1 9984:1 9985:1 #
-0.0095972484438580623472558883690908 12:1 16:1 17:3 21:4 30:1 35:1 37:2 42:2 43:1 54:1 63:2 66:1 67:1 68:1 69:1 72:1 84:1 85:1 91:1 93:1 98:2 99:1 100:1 104:2 105:1 106:1 111:1 114:1 116:1 123:1 125:1 127:1 128:3 129:1 159:1 163:2 167:1 173:1 178:1 192:1 210:1 225:1 227:1 231:1 237:1 256:1 258:2 266:3 270:1 275:1 277:1 278:1 279:1 291:1 296:1 297:3 309:2 312:5 318:1 339:1 349:1 356:1 374:1 383:2 388:1 393:1 394:2 396:1 399:1 405:1 409:1 410:1 411:1 412:2 414:1 415:1 416:1 417:1 436:2 437:1 452:1 456:2 468:1 470:1 475:2 484:1 485:2 504:1 505:7 529:1 531:1 538:1 539:2 558:1 559:1 583:1 590:1 601:1 615:1 623:2 637:2 640:1 649:1 654:2 661:1 665:1 669:2 676:1 677:1 679:1 693:1 700:1 701:1 702:1 714:1 715:2 740:1 748:1 752:2 755:1 769:1 773:1 776:1 787:1 788:1 798:1 799:2 805:1 817:1 823:2 832:1 837:1 866:1 877:1 895:2 897:1 898:1 900:1 915:1 939:1 944:1 963:1 967:1 975:1 976:1 984:1 1003:1 1004:1 1012:1 1013:1 1017:1 1030:1 1058:1 1070:1 1081:1 1085:1 1093:1 1102:1 1113:1 1119:1 1129:1 1170:1 1178:1 1180:1 1208:1 1212:1 1234:1 1253:1 1267:1 1310:1 1323:1 1340:1 1351:1 1356:1 1365:1 1374:1 1375:1 1381:2 1407:1 1429:1 1437:1 1441:1 1442:1 1443:1 1501:1 1512:1 1525:1 1535:2 1540:1 1553:1 1563:1 1568:1 1569:1 1585:1 1613:1 1617:1 1618:1 1630:1 1655:1 1662:2 1669:1 1689:1 1692:1 1703:2 1709:1 1727:1 1742:1 1758:1 1762:1 1773:1 1774:1 1776:1 1794:2 1795:1 1800:1 1802:1 1846:1 1849:1 1878:1 1894:1 1898:1 1911:1 1928:1 1966:1 1973:1 1978:1 1988:1 2002:1 2017:1 2057:1 2058:2 2060:1 2086:1 2096:1 2141:1 2198:1 2201:1 2230:1 2278:1 2294:1 2302:1 2333:1 2336:1 2351:1 2358:1 2403:1 2445:2 2460:1 2461:1 2462:1 2491:1 2499:1 2508:1 2522:1 2532:1 2570:1 2571:1 2573:1 2604:1 2607:1 2616:1 2621:1 2664:1 2680:1 2692:1 2699:1 2723:1 2725:1 2730:1 2761:1 2798:1 2824:1 2829:1 2895:1 2940:1 2950:1 2987:1 2998:1 3008:1 3029:1 3039:1 3054:1 3058:1 3059:1 3062:1 3088:1 3089:1 3105:1 3124:1 3129:1 3147:1 3155:1 3162:1 3191:1 3252:1 3256:1 3274:1 3302:1 3306:1 3312:1 3344:1 3368:1 3375:1 3378:2 3385:1 3435:1 3585:1 3618:1 3640:1 3664:1 3665:1 3689:1 3690:1 3789:1 3861:1 3864:1 3925:1 3937:1 3996:1 4005:1 4008:1 4036:1 4044:1 4153:1 4189:1 4283:1 4311:1 4329:1 4373:1 4509:1 4523:1 4541:1 4605:1 4694:1 4868:1 4876:1 4889:1 4891:1 5107:1 5133:1 5143:1 5326:1 5481:1 5592:1 5752:1 5912:1 6042:1 6056:1 6057:1 6103:1 6157:1 6304:1 6470:1 6515:1 6707:1 6760:1 6772:1 6784:1 7249:1 7465:1 7543:1 7565:1 7610:1 7615:1 8193:1 8194:1 8195:1 8196:1 8197:1 8198:1 8199:1 8200:1 8201:1 8202:1 8203:1 #
0.016599938601285949696384491858225 63:1 66:1 75:1 110:1 111:1 117:1 150:1 156:1 158:1 159:1 163:2 196:1 232:1 249:1 289:2 334:1 346:1 349:1 420:1 447:1 556:1 578:1 587:1 616:1 656:1 671:1 700:1 734:1 735:1 748:1 749:1 769:1 846:1 861:1 880:1 895:1 1012:1 1161:1 1207:1 1226:1 1305:1 1372:1 1381:1 1386:1 1430:1 1448:1 1513:1 1570:1 1952:1 2023:1 2129:1 2139:1 2242:1 2393:1 2545:1 2546:1 2623:1 2655:1 2673:1 2696:1 2824:1 2985:1 3331:1 3352:1 3638:1 3653:1 4510:1 4531:1 4549:1 4656:1 4778:1 4984:1 5004:1 5015:1 5016:1 5017:1 5018:1 5019:1 5020:1 5021:1 5022:1 #
-0.033732149774485277460289722739617 29:1 30:1 40:1 42:1 47:1 72:1 84:1 85:1 139:1 182:1 249:1 264:1 266:2 320:1 351:1 436:1 495:1 510:1 556:1 589:1 590:1 601:1 606:1 830:1 836:1 920:1 964:1 1021:1 1023:1 1147:1 1154:1 1166:1 1374:1 1375:1 1376:1 1421:1 1436:1 1654:1 1952:1 2060:1 2139:1 2217:1 2390:1 2403:1 2601:1 2838:1 3006:1 3074:1 3149:1 3628:1 3693:1 3715:1 4237:1 5032:1 8090:1 #
0.03463678094996480716361020313343 42:1 74:1 95:1 104:1 111:1 366:1 383:1 387:1 452:1 485:1 503:1 505:1 506:1 564:1 576:1 649:1 702:1 762:1 837:1 838:1 849:1 899:1 922:1 926:2 971:1 981:1 1090:1 1178:1 1270:1 1341:1 1347:1 1535:1 1668:1 1720:1 1788:1 2046:1 2076:1 2124:1 2480:1 2648:1 2675:1 3164:1 3723:1 4155:1 4481:1 6314:1 8669:1 #
0.035467391414996482512655973096116 4:2 19:1 24:1 32:1 33:1 42:1 45:1 60:1 61:1 63:1 82:1 111:1 167:1 176:1 242:2 244:1 282:1 322:1 332:1 333:2 365:1 369:1 408:1 441:1 559:1 588:1 652:1 656:1 680:1 702:1 790:1 806:1 808:1 815:1 918:1 960:1 983:1 1021:1 1022:1 1045:2 1077:1 1085:1 1101:1 1164:1 1194:1 1201:1 1220:1 1270:1 1347:1 1374:1 1613:1 1774:1 1823:1 1841:1 1842:1 1922:1 2134:1 2444:1 2446:1 2644:1 2938:1 3308:1 3431:1 3679:1 3916:2 4146:1 4239:1 4304:1 4541:1 7175:1 7659:1 #
-0.019305720001142705893881768020037 4:1 16:1 26:1 35:1 40:1 66:3 67:1 72:1 84:1 85:1 94:1 100:1 104:1 116:1 124:1 167:1 208:1 242:1 243:1 264:1 266:2 272:1 296:1 297:3 309:1 349:1 365:1 387:1 388:1 420:1 470:1 484:1 485:1 505:2 528:1 533:1 538:2 561:1 580:1 623:1 631:1 637:1 649:1 669:1 715:1 720:1 752:1 776:1 789:1 790:1 795:1 815:1 823:1 826:1 868:1 914:1 915:1 946:1 962:1 980:1 981:1 986:1 1012:1 1017:1 1025:1 1039:1 1058:1 1060:1 1064:1 1067:1 1075:1 1077:1 1089:1 1124:1 1170:1 1178:1 1197:1 1206:1 1215:1 1251:1 1272:1 1291:1 1308:1 1329:1 1350:1 1352:1 1372:1 1381:1 1390:1 1408:1 1414:1 1468:1 1477:1 1485:1 1522:1 1658:1 1670:1 1709:1 1721:1 1746:1 1747:1 1800:1 1816:1 1887:1 1914:1 1916:1 1919:1 1932:1 2050:1 2057:1 2066:1 2071:1 2073:1 2084:1 2086:1 2196:1 2247:2 2248:1 2354:1 2460:1 2461:1 2480:1 2623:1 2648:2 2701:1 2726:1 2727:1 2738:1 2758:1 2759:1 2982:1 3063:1 3119:1 3279:1 3295:1 3306:1 3541:1 3561:1 3585:1 3762:1 3836:1 4315:1 4329:1 4355:1 4681:1 5047:1 5123:1 5341:1 5879:1 6025:1 6331:1 6772:1 7052:1 8474:1 8830:1 8831:1 #
-0.008528855827519747287435158966673 4:1 14:1 17:1 29:1 37:1 41:1 42:3 47:1 48:1 60:1 61:1 104:1 105:1 106:1 131:1 139:1 156:1 185:1 219:1 224:1 242:1 250:1 264:1 266:4 270:1 289:1 318:1 320:1 356:1 358:1 436:1 444:2 452:1 456:1 497:1 505:1 512:1 520:1 524:1 570:1 576:1 580:1 638:1 653:1 700:1 790:1 810:1 815:1 836:1 897:1 920:2 938:1 965:1 973:1 975:1 1012:1 1029:1 1064:1 1255:1 1275:1 1304:1 1378:1 1401:1 1402:1 1446:1 1471:1 1525:1 1550:1 1576:1 1606:1 1629:1 1655:1 1689:1 1703:2 1754:1 1755:1 1859:1 1880:1 1884:2 1889:1 1962:1 2066:1 2143:1 2160:1 2230:1 2297:1 2427:1 2451:1 2581:1 2607:1 2726:1 2788:1 2918:1 2938:1 3024:1 3066:1 3123:1 3221:1 3864:1 4041:1 4164:1 4198:1 4200:2 4303:1 4394:1 4745:1 4751:1 4794:1 4905:1 5176:1 5507:1 5681:1 6080:1 7419:1 7739:1 7910:1 #
-0.0014385255547890907126123982706645 4:3 5:1 11:2 16:3 17:1 21:2 30:1 32:1 33:1 40:2 41:1 42:3 45:1 58:2 63:2 66:1 68:1 85:1 91:1 92:1 95:1 98:1 115:1 116:1 125:1 129:1 156:1 171:1 178:3 182:1 198:1 224:3 227:1 239:1 242:2 247:1 253:1 254:1 255:1 256:1 258:1 261:1 266:1 273:1 274:1 284:1 297:1 300:1 303:1 309:1 316:1 318:1 324:1 325:1 346:1 352:1 358:1 383:1 394:1 401:1 412:1 422:1 449:1 452:1 459:1 485:1 496:1 497:1 540:1 557:1 578:1 580:2 596:1 605:1 608:2 617:1 625:1 637:2 671:1 681:1 691:1 705:1 713:1 722:1 752:1 755:1 765:1 766:1 773:1 778:1 787:1 788:2 796:1 808:1 835:1 837:1 839:1 844:1 853:1 859:1 892:1 902:1 912:1 916:1 918:1 922:1 925:1 946:1 948:1 994:1 1012:1 1035:1 1036:1 1045:1 1058:1 1064:1 1067:1 1074:1 1080:1 1097:1 1144:1 1158:1 1189:1 1191:1 1201:1 1217:1 1236:1 1263:1 1267:2 1272:1 1301:1 1331:1 1339:1 1341:1 1349:1 1406:1 1410:1 1421:1 1426:2 1461:1 1472:1 1483:1 1505:1 1513:2 1522:2 1528:1 1561:1 1566:1 1570:1 1580:1 1627:1 1628:1 1631:2 1639:1 1708:1 1785:1 1787:1 1808:1 1871:1 1874:1 1875:1 1917:1 1918:1 1952:2 1985:1 2033:1 2037:1 2049:1 2060:1 2082:1 2083:1 2137:2 2138:1 2168:1 2172:1 2173:1 2213:1 2228:1 2281:1 2322:1 2326:1 2366:1 2372:1 2379:1 2417:1 2431:1 2485:1 2489:1 2522:1 2537:1 2549:1 2597:1 2601:3 2638:1 2643:1 2670:1 2723:1 2759:1 2768:1 2784:1 2925:1 2946:1 2985:2 3127:1 3213:1 3218:1 3221:1 3244:1 3272:1 3290:1 3301:1 3337:1 3353:2 3371:1 3508:1 3548:1 3564:2 3594:1 3599:1 3638:1 3734:1 3849:1 3923:1 3954:1 4062:1 4080:1 4097:1 4156:1 4203:1 4428:1 4509:1 4574:1 4792:1 4856:1 4876:1 4886:1 5037:1 5082:1 5247:1 5257:1 5377:2 5378:1 5379:1 5380:1 5381:1 5382:2 5383:1 5384:1 5385:1 5386:1 5387:1 5388:1 5389:1 5390:1 5391:1 5392:1 5393:1 5394:1 5395:1 5396:1 5397:1 5398:1 5399:1 5400:1 5401:1 5402:1 5403:1 5404:1 5405:1 5406:1 5407:1 5408:1 5409:2 5410:1 5411:1 5412:1 5413:1 5414:1 5415:1 5416:1 5417:1 5418:1 5419:1 5420:1 5421:3 5422:1 5423:2 5424:2 5425:1 5426:2 5427:1 5428:2 5429:1 5430:1 5431:2 5432:1 5433:1 5434:2 5435:1 5436:1 5437:1 5438:1 5439:2 5440:1 5441:1 5442:1 5443:1 5444:1 5445:1 5446:1 5447:1 5448:1 5449:1 5450:1 5451:1 5474:1 5666:1 5880:1 5906:1 5981:1 6742:1 6847:1 7084:1 7118:1 7161:1 7645:2 8141:1 8672:1 8673:1 8674:1 8675:1 8676:1 8677:1 8678:1 8679:1 8680:1 8681:1 8682:1 8683:1 #
-0.0017847056791444578308092339113955 4:2 6:2 7:2 29:1 33:1 40:1 42:1 55:1 56:1 66:1 91:1 101:1 118:1 119:1 121:2 159:1 185:1 190:1 208:1 210:1 223:1 227:1 238:1 242:2 256:1 258:1 264:2 266:2 267:1 301:1 309:1 318:2 324:2 347:1 349:2 366:1 383:1 388:1 389:1 414:1 425:1 436:1 496:1 505:2 511:1 514:1 522:1 526:1 530:1 536:1 544:1 558:2 580:1 614:1 615:1 616:1 617:1 620:2 626:1 631:1 632:2 649:1 686:1 687:1 691:1 711:1 713:1 714:1 752:1 753:1 759:1 790:1 871:1 895:1 898:1 938:1 946:1 965:1 986:1 1019:1 1048:1 1056:1 1102:1 1144:1 1149:1 1174:1 1178:1 1192:1 1209:1 1269:1 1291:1 1294:1 1321:1 1326:1 1338:1 1407:1 1411:1 1426:1 1460:1 1524:1 1545:1 1563:1 1570:2 1590:1 1609:1 1620:1 1658:1 1665:1 1682:1 1703:2 1712:1 1724:1 1763:1 1777:1 1846:1 1889:1 1906:1 1922:1 1985:1 2008:1 2102:1 2153:1 2154:1 2186:1 2366:1 2370:1 2473:1 2485:1 2537:1 2542:1 2571:1 2624:1 2680:1 2787:1 2824:1 2874:1 2876:1 2971:1 2979:1 2999:1 3002:1 3052:1 3057:1 3087:1 3122:1 3293:1 3364:1 3536:1 3592:1 3593:1 3601:1 3967:1 4097:1 4182:1 4378:1 4522:1 4756:1 4878:1 5232:1 5966:1 5974:1 6405:1 6406:1 6407:1 6408:1 6409:1 6410:1 #
-0.0066128177382518233892727543832279 4:1 11:1 14:1 16:1 19:1 21:1 29:1 41:1 42:1 48:2 56:1 58:1 59:1 66:1 73:1 74:1 76:1 115:1 116:1 139:1 141:1 167:1 175:1 181:1 182:1 201:1 232:1 233:1 242:1 258:1 264:1 270:1 273:1 274:1 309:1 346:1 351:1 366:1 388:1 396:1 406:1 439:1 486:1 505:1 511:1 524:1 539:1 541:1 547:1 575:1 580:1 585:1 588:1 590:1 623:1 637:1 639:1 669:1 671:1 685:1 689:1 704:1 738:1 784:1 790:1 806:1 810:1 823:1 898:1 928:1 949:1 958:1 976:1 1164:1 1181:1 1192:1 1270:1 1275:1 1311:1 1351:1 1439:2 1461:1 1472:1 1503:1 1508:1 1513:1 1580:1 1591:1 1605:1 1688:1 1703:1 1709:1 1735:2 1742:1 1747:1 1773:1 1784:1 1802:1 1898:1 1979:1 2010:1 2042:1 2076:1 2278:1 2290:1 2325:2 2362:1 2487:1 2562:1 2674:1 2725:1 2836:1 2867:1 3136:1 3172:1 3173:1 3268:1 3340:1 3377:1 3504:1 3528:1 3565:1 3690:1 3784:1 3795:1 3822:1 3912:1 4001:1 4137:1 4145:1 4149:1 4470:1 4510:2 4663:1 4711:1 4904:1 5088:1 5101:1 5314:1 5704:1 5814:1 5815:1 7472:1 7473:1 #
0.014677910099074398600493829292191 4:1 26:1 35:1 42:2 58:1 59:1 84:1 101:1 128:1 129:1 156:1 266:2 272:1 273:1 274:1 281:1 306:1 312:1 322:1 366:1 386:1 503:1 516:1 536:1 587:1 630:1 686:1 689:1 693:1 739:1 748:1 791:1 920:2 946:1 975:1 981:1 1010:1 1044:1 1078:1 1158:1 1166:1 1170:2 1241:1 1313:1 1381:1 1407:1 1414:1 1446:1 1457:1 1466:1 1477:1 1540:1 1659:1 1784:1 1828:1 1884:1 1920:1 2009:1 2061:1 2079:1 2220:1 2230:1 2378:1 2434:1 2453:1 2522:2 2587:1 2648:1 2679:1 2830:1 2862:1 3112:1 3227:1 3457:1 3530:1 3632:1 4236:1 4587:1 4681:1 4772:1 5108:1 5477:1 5937:1 7847:1 8617:1 9471:1 9472:1 9473:1 9474:1 9475:1 #
-0.0040276978706360079540704788314542 4:1 41:1 42:1 66:1 72:1 73:1 84:1 85:1 182:1 223:1 242:1 257:1 296:1 297:1 338:1 356:1 462:1 528:1 555:1 570:1 590:1 674:1 806:1 829:1 831:1 848:1 1030:1 1057:1 1112:1 1242:1 1307:1 1728:1 1866:1 1904:1 1910:1 2273:1 2711:1 2712:1 2963:1 3334:1 3808:1 4114:1 6631:1 #
0.015122490534817664697975203580427 4:1 6:1 7:1 24:1 35:1 42:1 66:2 91:1 95:1 96:1 110:1 138:1 242:1 252:1 298:1 301:1 369:1 559:1 570:2 571:1 637:1 654:1 677:1 711:1 714:1 766:1 779:1 975:1 1390:1 1522:1 1638:1 1800:1 1823:1 1850:1 1954:2 2048:1 2049:1 2096:2 2114:1 2142:1 2151:1 2225:1 2228:1 2321:1 2628:1 2679:1 2982:1 4895:1 4987:1 5519:1 5816:1 6288:1 6490:1 6510:1 6978:1 7095:1 8426:1 9629:1 9630:1 9631:1 #
0.02319347836285497524433374394448 2:1 3:1 4:3 11:1 26:1 33:1 41:2 55:1 58:1 68:1 72:1 84:1 85:1 101:1 104:1 105:1 106:1 109:1 128:3 206:1 214:1 227:2 242:1 248:1 251:1 264:1 266:1 275:1 298:1 324:1 412:1 420:1 426:1 436:2 458:1 463:1 467:1 479:1 496:2 513:1 525:1 526:1 548:1 564:1 566:1 570:1 580:1 589:1 590:1 599:1 605:1 625:1 653:1 665:1 672:1 698:1 781:1 782:1 835:1 925:1 936:1 946:1 996:1 1017:2 1067:1 1124:1 1161:1 1274:1 1321:1 1326:1 1439:1 1528:1 1535:1 1543:1 1562:1 1569:1 1609:1 1639:1 1663:1 1668:1 1806:1 1889:1 1903:1 2067:1 2079:1 2204:1 2349:1 2453:1 2495:1 2534:1 2597:1 2601:1 2649:1 2867:1 2961:1 3242:1 3446:1 3451:1 3489:1 3516:1 3623:1 3638:1 3881:1 3999:1 4041:1 4080:1 4094:1 4156:1 4213:1 4373:1 4487:1 5675:1 5818:1 5819:1 5923:1 6116:1 6154:1 7518:1 7755:1 #
0.0081528679162283426012924891779221 16:1 17:1 33:1 35:1 37:3 40:1 48:1 58:1 66:2 88:1 98:1 101:1 104:1 108:1 109:1 110:1 129:1 136:1 156:1 172:1 182:1 189:1 195:1 203:1 208:1 224:1 227:1 250:1 258:2 264:2 297:1 305:1 316:1 317:1 318:1 414:1 422:1 423:1 424:1 425:1 426:1 439:1 444:1 446:1 447:1 458:1 463:1 475:1 503:1 504:1 505:2 517:1 532:2 538:1 539:1 573:1 576:1 583:1 587:1 588:1 601:1 606:1 637:1 646:1 656:1 709:1 736:1 773:1 805:1 808:2 877:1 894:1 926:1 954:1 955:1 965:1 1010:1 1030:1 1058:1 1077:1 1089:1 1090:1 1093:1 1100:1 1111:1 1127:1 1152:1 1154:1 1158:1 1163:1 1170:1 1200:1 1243:1 1251:1 1255:1 1288:1 1301:1 1302:1 1376:1 1381:1 1461:1 1466:1 1471:1 1511:1 1531:1 1533:1 1570:1 1604:1 1605:2 1606:2 1607:1 1608:1 1609:1 1610:1 1611:1 1612:1 1613:2 1614:1 1615:2 1616:1 1617:1 1618:1 1619:1 1620:1 1621:1 1622:1 1623:1 1624:1 1625:1 1626:1 1627:1 1628:1 1629:1 1630:1 1631:1 1632:1 1633:1 1634:1 1635:1 1636:1 1637:1 1638:1 1639:1 1640:1 1641:1 1642:1 1643:1 1644:1 1645:1 1646:1 1647:1 1648:1 1649:1 1650:1 1651:1 1652:1 1653:1 1654:1 1655:1 1656:1 1657:1 1658:1 1659:1 1660:1 1661:1 1662:1 1663:1 1664:1 1665:1 1666:1 1667:1 1668:1 1669:1 1670:1 1671:1 1672:1 1673:1 1674:1 1675:1 1676:1 1677:1 1678:2 1679:1 1680:1 1681:1 1682:1 1683:1 1684:1 1685:1 1686:1 1687:1 1688:1 1689:1 1690:1 1691:1 1692:1 1693:1 1694:1 1695:1 1696:1 1697:1 1698:1 1699:1 1700:1 1701:1 #
-0.018498881879960002438956223613786 35:1 43:1 48:1 66:1 72:1 84:1 85:1 91:1 93:1 101:1 104:1 182:1 223:1 224:1 225:1 250:1 264:1 291:1 302:1 317:1 349:1 350:1 480:1 505:1 568:1 581:1 614:1 657:1 698:1 842:1 920:1 926:1 960:1 980:1 1012:1 1064:1 1273:1 1330:1 1333:1 1334:1 1335:1 1376:1 1445:1 1446:1 1691:1 1979:1 2045:1 2093:1 2094:1 2224:1 2235:1 2260:1 2301:1 2681:1 2830:1 2882:1 3801:1 6475:1 7745:1 8392:1 9403:1 #
0.020894394574494760952187988323203 16:1 24:1 41:1 58:1 66:1 71:1 100:1 204:1 277:1 308:1 491:1 505:1 533:1 613:1 623:1 658:1 661:1 662:1 669:1 691:1 880:1 967:1 981:1 1010:1 1158:1 1233:1 1296:1 1308:1 1504:1 1590:1 1617:1 2052:1 2161:1 2189:1 2220:1 2329:1 2579:1 2603:1 2874:1 3129:1 3286:1 3521:1 4120:1 4146:1 4430:1 4811:1 5804:1 5926:1 #
-0.0006991735239125136149029859922166 2:1 3:1 4:1 5:1 6:1 7:1 17:1 20:1 32:1 33:1 35:1 42:2 58:2 63:2 64:1 66:1 72:2 84:1 85:1 90:1 114:1 139:1 167:1 175:1 178:1 206:1 224:1 226:1 241:1 258:1 266:2 287:1 330:1 348:1 349:1 350:1 450:1 452:2 456:1 528:1 529:1 547:1 564:1 577:1 580:1 613:1 625:1 682:1 723:1 738:1 748:1 749:1 752:1 810:1 845:1 846:1 877:2 895:1 899:1 902:1 907:2 908:2 926:1 949:1 953:1 966:1 992:1 1118:1 1123:2 1124:2 1165:1 1236:1 1279:1 1280:1 1281:1 1288:1 1289:1 1291:1 1333:1 1334:1 1335:1 1349:1 1421:1 1535:1 1590:1 1592:1 1602:1 1605:1 1643:2 1795:1 1864:1 1866:1 1952:1 1977:1 2000:1 2036:1 2045:1 2065:1 2066:1 2082:1 2139:1 2182:1 2204:1 2228:1 2240:1 2241:1 2272:1 2340:1 2375:1 2393:1 2422:1 2425:1 2439:1 2479:1 2512:1 2518:1 2542:1 2601:1 2607:1 2667:1 2821:1 2874:1 2883:1 2957:1 3053:1 3074:1 3141:1 3164:1 3204:1 3487:1 3488:1 3661:1 3815:1 3824:1 3837:1 3869:1 3946:1 4341:1 4502:1 4790:1 5056:1 5658:1 5959:1 7281:1 8452:1 8612:1 9094:1 9503:1 9504:1 9505:1 9506:1 9507:1 9508:1 9509:1 9510:1 9511:1 #
-0.016274522463494294627350811310862 6:2 7:2 42:1 45:1 47:1 48:1 158:1 185:1 201:1 255:1 256:1 266:1 274:1 293:1 298:1 371:1 452:1 494:1 524:1 570:1 576:1 580:1 582:1 646:1 795:1 815:1 836:1 975:1 1058:1 1080:1 1129:1 1175:1 1190:1 1343:1 1399:1 1409:2 1410:2 1411:1 1452:1 1519:1 1534:1 1548:1 1550:1 1638:1 1884:1 1927:1 2061:1 2306:1 2360:1 2534:1 2701:1 2729:1 2938:1 3555:1 4143:1 4904:1 5658:1 6956:1 7097:1 7492:1 #
-0.001304025395743202203266419836325 4:1 11:1 16:1 17:1 21:2 30:1 35:1 37:1 42:1 48:1 56:1 58:1 66:2 77:1 92:2 100:1 111:2 114:1 139:1 140:1 167:1 173:1 223:1 224:1 225:1 232:1 242:1 258:2 266:2 281:1 288:1 289:1 297:2 327:1 358:1 366:1 406:2 408:1 410:1 422:1 427:1 428:1 462:1 474:1 475:1 487:3 496:1 505:1 521:1 525:1 536:1 558:1 563:1 564:1 568:1 573:1 575:1 577:1 590:1 601:2 608:1 626:1 639:1 653:1 666:1 667:1 682:1 691:1 701:2 702:2 706:1 727:1 730:1 731:1 736:1 748:1 749:1 787:1 788:1 806:1 837:1 925:1 983:1 1035:1 1056:1 1077:1 1119:1 1247:1 1251:1 1288:1 1347:1 1356:1 1383:1 1409:1 1451:1 1468:2 1489:1 1520:1 1522:1 1533:2 1582:1 1591:1 1610:1 1615:1 1772:1 1787:1 1802:1 1804:1 1808:1 1866:1 1932:1 1979:1 2044:3 2058:1 2082:1 2083:1 2172:1 2266:1 2333:2 2362:1 2384:1 2392:1 2446:1 2496:1 2534:1 2581:1 2699:1 2882:1 3006:1 3029:2 3244:1 3347:1 3350:1 3406:1 3628:1 3650:1 3690:1 3782:1 3834:2 3907:1 3908:1 3909:1 3910:1 3911:1 3912:1 3913:1 3914:1 3915:1 3916:1 3917:1 3918:1 3919:1 3920:1 3921:1 3922:1 3923:1 3924:1 3925:1 3926:1 3927:1 3928:1 #
0.011069397065129151988549516261173 4:1 17:2 29:1 30:1 32:1 38:1 42:4 63:2 73:1 83:1 92:1 99:1 100:1 104:1 105:1 106:1 110:1 114:1 131:1 155:1 156:1 157:1 192:1 201:1 204:1 206:1 224:2 227:1 242:1 258:1 264:2 265:1 266:4 281:1 288:3 289:2 290:2 291:2 297:1 300:1 309:1 318:1 330:1 347:1 357:1 358:1 367:1 369:2 386:1 387:1 436:1 450:1 452:1 474:1 475:2 486:1 496:1 505:2 537:1 538:1 543:1 548:1 559:1 601:1 606:1 620:1 622:1 639:1 642:1 645:1 649:1 657:1 680:1 686:1 691:1 693:1 695:1 709:1 730:1 755:1 771:1 778:1 782:1 784:1 822:1 832:1 835:1 853:1 859:1 862:1 863:1 869:1 879:1 883:1 895:1 897:1 911:1 928:1 938:1 975:1 1011:1 1032:1 1056:1 1060:1 1102:1 1116:1 1119:1 1129:1 1144:2 1154:1 1157:1 1215:1 1245:1 1250:1 1374:1 1376:1 1387:2 1396:1 1401:1 1421:1 1425:1 1446:1 1485:1 1563:1 1582:1 1615:1 1730:1 1747:1 1750:1 1756:1 1787:1 1800:1 1823:1 1902:1 1985:1 1998:1 2008:2 2011:1 2071:1 2124:1 2174:1 2179:1 2252:1 2260:1 2281:1 2390:1 2409:2 2418:1 2427:1 2485:1 2535:1 2568:1 2597:1 2601:1 2603:1 2606:1 2610:1 2640:1 2646:1 2817:1 2818:1 2888:1 2918:1 3013:1 3026:1 3094:1 3153:1 3165:1 3190:1 3244:1 3248:1 3256:2 3463:1 3548:1 3606:1 3859:1 3862:1 4171:1 4439:1 4459:1 4479:1 4509:1 4588:1 4871:1 4899:1 4955:1 5231:1 5694:1 6042:1 6244:1 6509:1 6620:1 6866:1 7226:1 7496:1 7497:1 7498:1 7499:1 7500:1 7501:1 #
0.0030725002594899587446408695257105 2:1 4:1 5:1 6:1 7:1 23:1 26:1 35:2 49:1 52:1 53:1 66:1 68:3 69:1 72:1 74:1 87:1 95:1 111:1 114:1 116:2 121:2 125:1 132:1 145:1 155:1 156:2 163:1 178:1 189:1 194:1 226:1 252:1 258:2 264:1 266:1 287:1 297:3 298:1 305:1 306:1 325:1 342:1 366:1 374:1 390:1 461:1 466:1 487:1 488:1 505:1 533:2 538:2 548:1 549:1 564:1 580:1 602:1 650:1 661:1 680:1 683:1 689:1 702:1 758:1 762:1 776:1 784:1 811:1 832:1 848:1 859:1 883:1 886:1 946:1 953:2 955:1 967:1 1012:1 1026:1 1060:1 1067:1 1084:1 1125:1 1154:2 1201:1 1210:1 1303:1 1356:1 1376:1 1383:1 1408:1 1469:1 1473:1 1490:1 1585:2 1631:2 1650:1 1692:1 1722:1 1728:1 1736:1 1756:1 1782:1 1807:1 1816:1 1852:1 1955:1 1978:1 1982:1 1987:2 1989:1 2008:1 2073:1 2079:1 2153:2 2177:1 2182:1 2258:1 2267:1 2268:1 2272:1 2281:1 2305:1 2455:1 2457:1 2462:1 2465:1 2474:1 2535:1 2598:2 2670:1 2685:1 2749:1 2882:1 2883:1 2888:1 2922:1 2972:1 3029:1 3039:1 3091:1 3112:1 3129:1 3208:1 3213:1 3279:2 3439:1 3446:1 3625:1 3690:1 3760:1 3796:1 3854:1 3861:1 3959:1 3976:1 4016:2 4097:1 4204:1 4230:1 4284:1 4377:1 4711:1 4855:1 5092:1 5134:1 5165:1 6257:1 6592:1 7168:1 7434:1 7831:1 7832:1 7833:1 7834:1 7835:1 #
-0.0049256552167055043731092034420271 17:2 21:1 22:1 24:1 26:1 41:2 42:1 73:2 98:1 104:1 121:1 126:1 127:1 128:1 156:2 159:2 165:1 223:1 233:1 251:1 252:1 258:1 264:1 266:1 270:1 298:1 318:2 319:1 332:1 374:1 383:1 399:1 413:1 421:1 475:1 487:1 505:4 520:1 532:1 549:1 551:1 553:1 561:1 601:2 613:1 658:1 689:1 705:1 722:1 725:1 730:1 731:1 768:2 769:1 790:1 869:1 954:1 955:1 969:1 973:1 986:1 987:1 1012:1 1064:1 1075:1 1080:1 1086:1 1122:1 1145:1 1170:1 1179:1 1219:1 1243:1 1248:1 1251:1 1254:1 1296:1 1310:1 1328:1 1363:1 1378:1 1381:2 1390:1 1449:1 1450:1 1469:1 1503:1 1590:1 1617:1 1629:1 1655:1 1656:1 1660:1 1715:1 1729:1 1794:1 1804:1 1821:1 1952:1 1953:1 1991:1 2044:1 2051:1 2060:1 2067:1 2086:1 2102:1 2143:1 2220:1 2230:1 2369:1 2396:1 2411:1 2488:1 2581:1 2663:1 2701:1 2864:1 2873:1 2979:1 3008:1 3024:1 3083:1 3115:1 3187:1 3440:1 3481:1 3530:1 3550:1 3640:1 3691:1 3695:1 3711:1 3715:1 3785:1 3911:1 3992:1 4050:1 4060:1 4075:1 4137:1 4165:1 4187:1 4654:1 4902:1 4969:1 5037:1 5070:1 5193:1 5536:1 6062:1 6511:1 7366:1 7663:1 8198:1 8472:1 8569:1 8812:1 8832:1 8833:1 8834:1 8835:1 #
-0.001560397932217275854954730007762 16:1 17:2 21:1 29:1 30:1 42:1 66:1 67:1 110:1 111:2 149:1 157:1 160:1 264:1 318:1 382:1 387:1 388:1 530:1 561:1 601:1 606:1 615:1 616:1 625:1 626:1 630:1 631:1 702:1 722:1 779:1 799:1 838:1 918:1 960:1 975:1 1012:1 1058:1 1064:1 1077:1 1100:1 1144:1 1178:1 1182:1 1251:1 1277:1 1330:1 1374:1 1375:1 1376:1 1539:1 1870:1 1873:1 1899:1 2061:1 2909:1 2914:1 3062:1 3191:1 3570:1 3707:1 3914:1 4147:1 4171:1 4346:1 4535:1 4755:1 4837:1 4838:1 6515:1 9760:1 #
0.00048259541620713423785982154612384 4:1 11:2 32:2 33:1 42:2 48:1 55:1 58:1 66:3 73:1 74:1 84:1 91:1 93:1 98:1 104:2 109:1 110:2 111:1 118:1 139:2 167:2 184:3 220:1 223:1 224:1 225:1 239:1 242:1 264:2 266:1 274:1 282:1 298:1 316:1 324:1 325:1 342:1 347:1 366:1 368:1 373:1 383:1 415:1 417:1 421:1 422:1 505:1 517:2 536:1 544:2 559:1 568:1 578:1 601:2 606:1 615:2 616:2 617:1 620:1 629:1 637:1 642:1 649:1 653:1 669:1 700:1 704:1 749:1 758:1 788:1 790:1 795:1 799:2 800:1 819:1 879:2 894:1 898:1 915:1 926:2 940:2 949:1 986:1 989:1 992:1 996:1 1029:1 1034:1 1040:1 1041:1 1042:1 1056:1 1119:1 1160:2 1182:1 1184:1 1192:1 1242:1 1250:1 1272:1 1296:1 1299:1 1346:1 1356:1 1364:1 1374:2 1375:1 1376:1 1388:1 1458:1 1503:1 1520:1 1528:2 1555:1 1565:1 1566:1 1576:1 1599:1 1617:1 1631:1 1638:1 1735:1 1781:1 1784:1 1788:1 1897:1 1899:1 1906:1 1917:1 1918:1 1952:1 1964:1 1992:1 2002:2 2044:1 2086:2 2124:1 2136:1 2156:1 2163:1 2181:1 2194:1 2276:2 2333:1 2392:1 2393:1 2441:1 2474:1 2483:1 2534:1 2595:1 2639:1 2665:1 2679:1 2769:1 2770:1 2809:1 2872:2 2901:1 2916:1 2998:1 3017:1 3067:1 3285:1 3361:1 3368:1 3371:1 3373:1 3374:1 3440:1 3451:1 3623:2 3638:1 3705:1 3763:1 3796:1 3798:1 3808:1 3932:1 4039:1 4105:1 4111:1 4173:1 4447:1 4517:1 4525:1 4561:1 4671:1 4676:1 4690:1 4705:1 4998:1 5332:1 6353:1 6466:1 6654:1 7269:1 7677:1 8027:1 8028:1 8029:1 8030:1 8031:1 8032:3 8033:1 8034:1 8035:1 8036:1 8037:1 8038:1 8039:1 8040:1 8041:1 8042:1 8043:1 8044:1 8045:1 #
-0.00052160441665386522019920434445339 2:1 4:2 11:2 21:1 35:2 41:2 48:1 50:1 55:1 56:1 66:6 67:2 68:1 76:2 91:1 93:2 95:1 98:1 104:1 110:1 111:3 128:1 163:1 167:1 201:1 227:1 237:1 242:1 257:1 264:1 266:2 268:1 274:1 282:1 288:1 293:1 297:1 302:1 309:2 332:1 348:1 353:1 374:1 394:1 404:1 405:1 414:1 415:1 423:1 436:4 437:1 454:1 487:2 505:4 510:1 522:1 530:1 544:1 550:2 558:1 568:1 576:1 579:1 589:1 590:1 601:1 602:2 615:1 616:1 621:1 640:2 641:3 646:1 649:1 654:1 672:1 674:1 675:1 676:1 677:1 680:1 682:1 702:2 705:1 709:1 711:1 715:1 722:1 730:1 731:1 732:1 738:1 752:1 766:1 795:2 853:1 855:1 857:1 859:2 892:1 894:1 895:3 900:1 917:1 924:1 949:2 955:1 957:1 960:1 963:1 970:1 973:1 976:2 1023:1 1025:2 1056:1 1065:1 1080:1 1082:1 1084:2 1097:1 1165:1 1175:2 1178:1 1183:1 1190:1 1192:1 1201:1 1224:1 1226:1 1233:1 1245:1 1250:1 1251:1 1291:1 1305:1 1317:1 1356:1 1371:1 1376:1 1385:1 1409:1 1434:1 1466:1 1468:1 1477:1 1533:1 1535:1 1570:1 1638:1 1663:1 1689:1 1699:1 1759:1 1765:1 1781:1 1790:1 1806:1 1825:1 1826:1 1932:1 1952:1 1997:1 2029:1 2048:2 2049:2 2050:1 2051:1 2062:1 2086:1 2096:2 2099:1 2110:1 2121:2 2148:1 2161:1 2265:1 2381:1 2398:1 2464:2 2470:1 2499:1 2518:1 2519:1 2540:1 2612:1 2626:1 2632:1 2680:1 2690:1 2699:2 2740:1 2764:1 2848:1 2868:1 2874:1 2897:1 2901:1 2971:1 2978:1 3013:1 3028:1 3034:1 3059:1 3077:1 3126:2 3132:1 3144:1 3175:1 3203:1 3254:1 3279:1 3284:1 3285:1 3330:1 3564:1 3635:1 3690:1 3713:1 3758:1 3836:1 3844:1 3854:1 4041:1 4109:1 4173:1 4227:1 4533:1 4655:1 4679:1 4874:1 5043:1 5201:1 5486:1 5513:1 5537:1 5726:1 6012:1 6052:1 6064:1 6085:1 6149:1 6356:1 6435:1 6662:1 7248:1 7524:2 7543:1 8291:1 8472:1 9010:1 9575:1 9686:1 9995:1 9996:1 9997:1 #
0.0026328203924002391636549624820418 4:2 11:2 19:1 21:2 26:1 30:1 32:2 35:2 40:1 42:3 55:1 57:1 58:2 66:1 71:1 73:1 91:1 98:2 100:1 104:1 108:2 109:1 110:1 111:1 129:1 131:1 150:1 156:1 168:1 178:3 191:1 197:1 210:2 219:1 223:1 224:3 242:1 251:1 258:2 266:1 274:2 277:1 297:2 302:1 309:1 312:2 324:1 342:1 352:1 369:1 382:2 387:1 390:2 391:1 394:1 401:1 414:1 426:1 460:1 461:1 470:1 488:1 505:3 510:1 511:1 512:1 516:1 538:2 548:2 553:1 561:1 564:3 582:1 586:1 598:1 601:1 623:1 625:1 629:1 637:1 649:1 661:1 669:1 670:1 672:1 674:1 688:1 697:1 732:1 734:1 735:1 736:1 739:1 740:2 749:1 753:1 765:2 769:2 775:1 806:1 810:1 811:1 812:1 832:1 837:1 848:1 853:1 855:1 895:1 898:2 921:1 936:1 946:1 949:2 966:1 975:2 978:1 1012:1 1064:1 1087:1 1099:1 1125:1 1129:1 1157:1 1160:1 1163:1 1170:2 1182:1 1190:1 1197:2 1206:1 1233:1 1235:1 1251:1 1290:1 1330:1 1339:1 1343:1 1347:1 1352:1 1364:1 1371:1 1382:1 1434:1 1452:1 1490:1 1515:1 1537:1 1539:1 1552:1 1598:1 1664:2 1668:1 1686:1 1690:1 1692:1 1728:1 1750:1 1768:1 1883:1 1901:1 1949:1 1952:1 1982:1 1983:1 2035:1 2061:2 2082:1 2083:1 2169:1 2250:1 2265:1 2284:1 2335:1 2411:1 2412:1 2416:1 2427:1 2457:1 2491:1 2538:1 2601:2 2690:1 2699:3 2725:1 2785:1 2788:1 2802:1 2809:1 2824:1 2834:1 2888:1 2963:1 3101:1 3252:1 3266:1 3287:1 3302:1 3308:1 3345:1 3391:1 3442:1 3500:1 3529:1 3536:1 3550:1 3670:1 3741:1 3970:1 3985:1 4057:1 4100:1 4165:1 4267:1 4283:1 4430:1 4654:1 4712:1 4713:1 4726:1 4744:1 4896:1 5044:1 5292:1 5304:1 5526:1 5539:1 5646:1 5650:1 5745:1 5819:1 5937:1 6085:1 6304:1 6701:1 7139:1 7999:1 8025:1 8151:1 8152:1 8153:1 #
0.035685620772337035833121632322218 4:1 11:1 12:1 16:1 17:1 24:1 54:1 71:1 72:1 75:1 82:1 84:1 85:1 121:1 124:2 163:1 242:1 250:1 256:3 257:1 266:2 275:1 405:1 436:1 451:1 458:2 466:1 486:1 505:1 580:1 585:1 649:1 653:1 658:1 859:1 930:1 949:1 1036:1 1310:1 1430:1 1551:1 1597:1 1821:1 1933:1 1972:1 2042:1 2074:1 2075:1 2082:1 2083:1 2129:1 2453:1 2525:1 2603:1 2605:2 2701:1 2754:1 3227:1 3328:1 4958:1 4998:1 9346:1 9347:1 9348:1 9349:1 #
-0.0085657288366375004817765415054964 4:1 6:1 7:1 17:1 29:1 35:1 37:1 42:2 45:2 49:1 66:1 77:1 116:1 123:1 136:1 150:1 157:1 159:1 167:1 169:1 186:1 187:1 242:1 248:1 268:1 292:1 296:1 297:4 325:1 332:1 343:1 505:1 538:1 580:1 649:1 736:1 832:1 846:1 865:1 868:1 869:1 918:1 923:1 925:1 926:1 946:1 962:1 975:1 982:2 1015:1 1113:1 1129:1 1154:2 1242:1 1272:1 1288:1 1291:1 1321:1 1345:1 1390:1 1439:1 1440:1 1466:1 1468:1 1505:1 1519:1 1522:1 1551:1 1637:1 1656:1 1703:1 1901:1 1907:1 2042:1 2056:1 2103:1 2149:1 2213:1 2281:1 2333:1 2384:1 2486:1 2637:1 2700:1 2701:1 2835:1 2844:1 2874:1 3009:1 3029:2 3104:1 3222:1 3485:1 3734:1 3787:1 3809:1 4062:1 4855:1 5032:1 5069:1 5216:1 5816:1 5935:1 6410:1 8260:1 8615:1 9807:1 9808:1 #
-0.033732730404012041536265797958549 4:1 5:1 6:1 7:1 42:1 43:1 63:3 64:1 66:1 91:1 98:1 99:1 100:1 103:1 104:1 105:1 106:1 125:1 139:1 159:1 167:1 182:1 242:1 250:2 263:1 332:1 346:1 358:1 455:1 533:1 534:1 548:1 555:1 558:2 580:2 581:1 585:1 614:1 621:1 637:1 736:1 781:1 805:1 848:1 861:1 886:1 892:1 900:1 976:1 986:1 996:1 1017:1 1086:1 1163:1 1199:1 1217:1 1233:1 1330:1 1338:1 1439:1 1511:1 1527:1 1528:1 1533:1 1534:1 1535:1 1537:1 1639:1 1728:1 1765:1 1804:1 1914:1 2002:1 2041:1 2119:1 2167:1 2216:1 2453:1 2816:1 2839:1 2948:1 2971:1 3226:1 3227:1 3328:1 3812:1 4352:1 4891:1 5675:1 5684:1 7466:1 9142:1 #
0.0030987475817462720346917581792923 4:4 11:1 17:3 18:1 21:1 26:1 27:1 29:1 30:1 32:1 33:1 40:2 41:1 42:2 47:1 49:1 58:2 63:1 66:1 67:1 73:1 77:1 92:1 98:2 104:1 105:1 106:1 110:1 114:1 128:1 155:1 192:1 194:1 223:1 227:1 242:5 249:1 255:2 256:3 257:1 258:2 260:1 266:1 270:2 272:1 273:1 274:2 282:1 287:1 309:1 313:1 315:1 316:1 317:1 318:3 347:1 349:1 356:1 365:2 366:1 414:1 444:1 450:1 452:1 463:1 466:1 470:1 485:1 493:1 494:1 496:1 505:1 519:2 520:2 526:1 548:1 558:1 559:1 561:2 564:1 568:1 570:2 580:2 582:1 587:1 590:1 609:1 615:1 637:1 654:1 656:2 670:1 683:1 711:2 722:1 747:1 752:1 758:1 769:1 788:1 799:1 801:1 808:1 823:1 839:1 840:1 847:1 864:1 878:1 879:1 880:1 894:1 898:1 907:1 908:1 920:1 944:1 950:1 953:1 964:2 967:1 969:1 983:1 994:1 1011:1 1021:1 1030:1 1069:2 1080:1 1099:1 1184:1 1212:2 1218:1 1219:1 1243:1 1251:1 1257:1 1288:1 1311:1 1341:1 1342:1 1381:1 1382:1 1392:1 1407:1 1408:1 1410:2 1412:1 1439:2 1442:1 1447:1 1485:1 1513:1 1539:1 1543:1 1561:1 1590:1 1610:1 1615:1 1617:1 1628:1 1691:1 1705:1 1709:1 1733:2 1735:1 1742:1 1784:1 1786:1 1787:1 1793:1 1807:1 1828:1 1845:1 1874:1 1880:1 1884:1 1899:1 1900:1 1904:1 1979:1 2008:1 2012:1 2034:1 2061:1 2062:1 2066:1 2085:1 2139:1 2161:1 2229:1 2234:1 2240:1 2241:1 2256:1 2259:1 2282:1 2292:1 2333:1 2351:1 2356:1 2366:1 2412:1 2422:1 2438:1 2455:1 2458:1 2475:1 2505:1 2507:1 2581:1 2612:1 2639:1 2652:1 2676:1 2710:1 2723:1 2734:1 2737:1 2765:1 2774:1 2787:1 2812:1 2880:1 2884:1 2889:1 2901:1 2903:1 2934:1 2941:1 2985:1 3051:1 3161:1 3208:1 3227:1 3250:2 3251:1 3306:1 3318:1 3365:1 3433:1 3500:1 3747:1 3767:1 3776:1 3828:1 3830:1 3900:1 3992:1 4038:1 4078:1 4091:1 4110:1 4115:1 4143:1 4145:1 4171:1 4200:1 4367:1 4442:1 4470:1 4486:1 4503:1 4668:1 4721:1 4724:1 4811:1 4822:1 4868:1 4946:1 4976:1 4999:1 5184:1 5401:1 5675:1 5703:1 5714:1 5743:1 6027:1 6150:1 6195:1 6583:1 7274:1 7278:1 7560:1 8103:1 8738:1 8852:1 9196:1 9244:1 9245:1 9246:1 9247:1 #
0.0041983091036355453529171910531659 4:1 17:1 27:1 40:2 41:1 42:1 43:1 52:1 53:1 58:1 68:1 98:1 114:1 116:1 125:1 150:1 167:1 178:1 201:1 219:1 224:1 231:1 242:1 250:1 258:2 261:1 262:1 266:1 277:1 278:1 285:1 320:1 321:1 356:1 358:1 399:1 403:1 425:1 426:1 450:1 451:1 452:1 456:1 457:1 504:1 505:2 560:1 580:2 588:1 608:1 623:1 653:2 662:1 669:1 677:1 704:1 709:1 738:1 763:2 764:1 774:1 775:1 776:1 805:1 822:1 828:1 880:1 902:1 922:1 998:1 1010:1 1017:1 1040:1 1080:1 1141:1 1158:1 1192:1 1240:1 1245:1 1263:1 1288:1 1306:1 1314:1 1319:1 1330:1 1340:1 1421:1 1522:1 1525:1 1542:1 1587:1 1610:1 1762:1 1773:1 1793:1 1916:1 1989:1 2006:1 2066:1 2136:1 2137:1 2161:1 2343:1 2461:1 2542:1 2544:1 2596:1 2601:2 2694:1 2741:1 2756:1 2787:1 2812:1 3345:1 3353:2 3484:1 3594:1 3658:1 3669:1 3892:1 3918:1 4094:1 4120:1 4251:1 5071:1 5653:1 5933:1 6072:1 6269:1 6614:1 7041:1 #
0.0074114270327923763986843752604727 11:2 12:2 14:2 16:2 17:2 21:1 29:1 30:1 33:1 35:2 36:1 39:1 41:1 42:1 50:1 54:1 56:1 62:1 63:1 64:1 67:1 69:1 74:1 75:1 87:1 92:1 93:2 95:1 98:1 101:1 104:1 111:2 116:1 122:1 123:1 124:1 125:1 129:1 131:1 132:1 156:3 157:2 165:1 178:2 184:1 200:1 201:1 223:1 231:1 244:1 250:1 251:2 255:1 258:3 261:1 264:1 266:1 279:1 281:2 283:2 290:1 297:1 314:1 315:1 330:1 358:4 363:2 366:1 369:2 383:1 387:1 394:1 398:1 413:1 414:2 436:2 437:1 439:1 445:1 452:2 456:1 458:2 461:1 466:1 467:1 487:2 488:2 496:2 498:1 529:1 531:2 532:1 537:1 538:1 539:1 544:2 561:2 568:1 574:1 576:1 601:1 605:1 608:2 609:1 613:1 615:1 625:1 637:2 640:1 658:1 661:1 671:1 691:1 698:1 700:2 702:2 736:1 762:2 767:1 768:1 790:1 799:1 806:1 829:1 835:1 838:1 853:1 863:2 883:2 891:1 895:2 911:1 926:1 946:2 949:4 958:1 967:2 973:1 976:1 992:1 993:1 996:1 1010:1 1042:1 1052:1 1058:1 1060:1 1115:1 1123:1 1125:1 1144:1 1158:1 1161:1 1166:1 1169:1 1185:1 1192:1 1196:1 1197:1 1211:1 1217:2 1219:1 1223:1 1224:1 1236:1 1242:2 1266:1 1307:2 1315:2 1324:2 1327:2 1430:1 1440:1 1493:1 1512:1 1513:1 1535:1 1536:1 1561:1 1568:1 1569:1 1583:1 1590:2 1611:1 1617:1 1639:1 1650:1 1655:1 1662:1 1663:1 1665:1 1687:1 1692:1 1706:1 1735:1 1742:1 1787:1 1808:1 1813:1 1821:1 1822:1 1828:1 1870:1 1871:1 1890:1 1898:1 1919:1 1962:1 1982:1 2010:1 2086:1 2110:1 2147:1 2217:1 2221:1 2267:1 2274:1 2324:2 2366:1 2371:1 2376:2 2458:1 2499:1 2525:1 2540:1 2549:1 2580:1 2601:1 2607:1 2640:1 2643:1 2649:1 2699:2 2760:1 2787:1 2854:1 2882:1 2886:1 2888:1 2934:1 2982:1 3048:1 3077:1 3121:2 3179:1 3185:1 3205:1 3207:1 3244:1 3286:2 3287:1 3303:1 3308:1 3332:2 3391:1 3394:1 3395:1 3402:1 3462:1 3491:1 3500:1 3528:1 3549:1 3688:1 3690:1 3696:1 3707:3 3715:1 3746:1 3747:1 3748:1 3749:1 3750:1 3751:1 3752:1 3753:1 3754:1 3755:1 3756:1 3757:1 3758:1 3759:1 3760:1 3761:1 3762:1 3763:1 3764:1 3765:1 3766:1 3767:1 3768:1 3769:1 3770:1 3771:1 3772:1 3773:1 3774:1 3775:1 3776:1 3777:1 3778:1 3779:1 3780:1 3781:1 3782:1 3783:1 3784:1 3785:1 3786:1 3787:1 3788:1 3789:1 3790:1 #
0.025115337654616064211321457833037 42:1 48:1 63:1 66:1 118:1 167:1 195:1 198:1 223:1 224:1 225:1 264:1 309:1 315:2 332:1 333:1 421:1 467:1 479:1 504:1 505:3 512:1 520:1 546:1 555:1 623:1 637:1 669:1 704:1 715:1 776:1 781:1 828:1 895:1 901:1 902:1 923:1 960:1 969:1 970:1 971:1 1089:1 1174:1 1178:1 1209:1 1235:1 1242:1 1243:1 1248:1 1249:1 1261:1 1326:1 1331:1 1353:1 1354:1 1355:1 1356:1 1357:1 1358:1 1359:1 1360:1 1361:1 1362:1 1363:1 1364:2 1365:1 1366:1 1367:1 1368:1 1369:1 1370:1 1371:1 1372:1 1373:1 1374:1 1375:1 1376:1 1377:1 1378:1 1379:1 1380:1 1381:1 1382:1 1383:1 1384:1 1385:1 1386:1 1387:1 1388:1 1389:1 1390:1 1391:1 1392:1 1393:1 1394:1 1395:1 1396:1 1397:1 1398:1 1399:1 1400:1 1401:1 1402:1 1403:1 #
0.019376437263614140760203952140728 6:1 7:1 11:1 17:1 35:1 36:1 40:1 42:1 58:1 63:1 73:1 98:1 101:1 103:1 104:1 155:1 159:1 171:1 173:1 175:1 223:1 224:1 244:1 250:1 251:1 298:1 300:1 309:1 316:1 320:1 321:1 331:1 396:1 422:1 425:1 426:1 436:1 437:1 456:1 495:1 503:1 505:2 527:1 539:1 572:1 580:2 623:1 637:1 642:1 654:1 669:1 691:1 714:1 789:1 836:1 867:1 877:1 895:1 1010:1 1030:1 1069:1 1077:1 1082:1 1083:1 1113:1 1117:1 1124:1 1156:1 1158:1 1209:1 1217:1 1236:1 1243:1 1284:1 1285:1 1304:1 1319:1 1328:1 1343:2 1373:1 1446:1 1466:1 1513:1 1534:1 1535:1 1544:1 1570:1 1614:1 1655:1 1668:1 1691:1 1825:1 1826:1 1866:1 1919:1 2010:1 2049:1 2066:1 2168:1 2189:1 2200:1 2201:1 2294:1 2347:1 2457:1 2706:1 2985:2 3136:1 3397:1 3494:1 3515:1 3707:1 3726:1 3829:1 4038:1 4089:1 4090:1 4588:1 4675:1 4841:1 5547:1 5998:1 6461:1 7401:1 #
-0.0022539946285787685123502832595932 4:2 6:1 7:1 16:1 18:1 35:1 41:1 42:1 47:1 48:1 60:1 61:1 63:1 92:1 128:1 167:1 189:1 191:1 206:1 220:1 224:1 242:1 266:1 282:1 290:1 324:1 357:1 358:1 360:1 383:1 425:1 426:1 436:1 448:1 497:1 505:1 511:1 539:1 559:1 580:2 601:1 615:1 625:1 652:1 653:1 658:1 748:1 754:1 758:1 773:1 776:1 795:2 848:1 859:1 866:1 872:1 877:1 895:1 901:1 902:1 916:1 975:1 1017:1 1021:1 1088:1 1102:1 1136:1 1141:1 1243:3 1250:1 1328:1 1380:1 1439:1 1488:1 1542:1 1593:1 1639:1 1643:1 1653:2 1778:1 1862:1 2016:1 2033:1 2398:1 2509:1 2542:1 2807:1 2816:1 2838:1 2870:1 3258:1 3269:1 3558:1 3674:1 3680:1 3755:1 3983:1 3984:1 4141:1 4448:1 4470:1 5050:1 5751:1 5951:1 6277:1 6538:1 7309:1 9717:1 #
0.0070218896322680919575009994559878 4:1 6:1 7:1 28:1 29:1 35:1 40:1 49:1 58:1 66:1 72:1 73:1 74:1 84:1 85:1 98:1 104:1 105:1 106:2 128:1 141:1 155:1 170:1 182:1 186:1 187:1 194:1 200:1 202:1 206:1 220:1 227:1 242:1 255:1 256:1 257:1 258:3 297:2 298:1 315:1 342:1 369:1 387:1 391:1 421:1 436:1 437:2 466:1 503:1 539:2 541:1 547:1 570:1 580:3 607:1 615:1 637:2 639:1 658:1 669:1 677:1 682:1 683:1 693:1 704:1 729:1 749:1 758:1 776:1 778:1 781:1 790:1 815:1 816:1 902:1 946:1 949:1 954:1 969:1 974:1 986:1 1021:1 1036:1 1077:1 1086:1 1117:1 1127:1 1214:1 1295:1 1343:1 1348:1 1407:1 1468:1 1482:1 1485:1 1496:1 1527:1 1561:1 1578:1 1579:1 1580:1 1586:1 1587:1 1590:1 1655:1 1689:1 1703:1 1721:1 1732:1 1792:1 1808:1 1866:1 2074:1 2075:1 2078:1 2086:1 2200:1 2224:1 2280:1 2312:1 2313:1 2607:1 2729:1 2732:1 2757:1 2820:1 2901:1 2933:1 3024:1 3200:1 3228:1 3262:1 3345:1 3346:1 3487:1 3488:1 3571:1 3667:1 3695:1 3711:1 3960:1 4111:1 4142:1 4281:1 4283:1 4720:1 4800:1 5053:1 6978:1 7209:1 7499:1 7550:1 7671:1 9718:1 9719:1 #
-0.011109763701400127144935936485126 4:2 11:1 54:1 58:2 66:1 73:1 102:1 242:1 282:1 290:1 297:1 318:1 319:1 320:1 349:1 354:1 382:1 436:1 437:1 496:1 505:1 561:1 575:1 580:1 602:1 615:1 616:1 637:1 649:1 652:1 653:1 723:1 923:1 946:1 969:1 970:1 971:1 981:1 1014:1 1030:1 1144:1 1164:1 1186:1 1259:1 1343:1 1385:1 1468:1 1539:1 1571:1 1599:1 1614:1 1721:1 1786:1 1787:1 1793:1 1953:1 1955:1 2081:1 2086:1 2249:1 2356:1 2400:1 2648:1 3181:1 3244:1 3392:1 3400:1 3471:1 3504:1 4230:1 4654:1 6192:1 8103:1 9659:1 #
-0.012106559870108227899843100772159 4:1 6:1 7:1 11:3 13:1 16:1 17:1 26:1 27:2 33:2 41:1 42:1 45:1 49:1 56:1 58:1 62:1 63:2 66:6 67:1 68:1 72:1 73:1 84:1 85:1 91:1 95:1 108:1 116:1 118:1 121:1 131:1 140:1 141:1 146:1 157:1 167:1 190:1 191:1 192:1 194:1 195:1 203:1 206:1 208:1 212:1 213:1 223:1 224:1 227:1 242:1 251:1 258:2 261:1 262:1 266:1 274:1 285:1 297:2 312:1 315:1 317:1 318:2 319:1 322:1 333:1 342:1 343:1 346:1 349:2 350:1 396:1 436:1 437:1 452:1 461:1 470:1 477:1 481:1 487:2 494:1 496:2 497:1 505:2 528:1 530:2 536:1 538:1 539:1 546:1 555:1 561:1 571:1 580:3 587:1 605:1 608:1 613:1 615:1 616:1 617:1 620:1 623:1 625:1 637:1 640:1 649:1 650:1 657:2 663:2 666:1 667:1 674:1 677:1 680:2 681:1 685:1 698:1 728:1 737:1 748:2 750:1 752:1 754:1 782:1 791:1 799:1 809:1 810:1 831:1 832:1 844:1 859:2 877:2 892:1 893:1 895:1 898:1 900:1 910:1 917:2 926:1 967:1 969:1 970:1 971:1 973:1 983:2 998:2 1002:2 1013:1 1030:1 1034:1 1086:1 1096:1 1106:1 1107:1 1108:1 1115:3 1123:1 1124:2 1128:1 1129:1 1145:1 1179:1 1181:1 1192:1 1206:1 1224:2 1226:1 1232:1 1233:1 1234:1 1248:2 1249:2 1252:1 1257:1 1263:1 1270:1 1275:1 1285:1 1318:1 1321:1 1327:1 1340:1 1341:1 1374:2 1376:1 1388:1 1407:1 1435:1 1464:1 1509:1 1535:1 1555:1 1563:1 1570:1 1613:1 1663:2 1705:1 1710:1 1743:1 1762:2 1763:1 1769:1 1782:1 1788:1 1815:1 1816:1 1841:1 1852:1 1863:1 1871:1 1872:1 1884:1 1904:1 1914:1 1933:1 1934:1 1962:1 2008:1 2048:2 2049:2 2051:1 2056:1 2058:1 2062:1 2168:1 2197:1 2202:1 2204:1 2216:1 2239:1 2242:1 2255:1 2260:1 2264:1 2278:1 2327:1 2344:1 2362:1 2403:1 2453:2 2457:1 2458:1 2522:1 2581:1 2601:2 2607:1 2616:1 2640:1 2649:2 2723:1 2780:1 2791:1 2829:1 2925:1 2965:1 3001:1 3053:1 3059:1 3117:1 3147:1 3179:1 3204:1 3218:1 3227:1 3228:1 3272:1 3315:1 3344:1 3365:1 3371:1 3391:1 3450:1 3472:1 3500:1 3600:1 3638:1 3761:1 3940:1 3959:1 4062:1 4120:1 4137:1 4191:1 4303:1 4394:1 4430:1 4434:1 4451:1 4473:1 4476:1 4499:1 4526:1 4559:1 4663:1 4668:1 4673:1 4694:1 4779:1 5099:1 5150:1 5175:1 5182:1 5250:1 5754:1 5813:1 5891:1 5988:1 6058:1 6102:1 6258:1 6402:1 6694:1 6787:1 7122:1 7294:1 9563:1 9564:1 9565:1 9566:1 #
-0.0083907664305704482421432999217359 35:1 42:1 55:1 56:1 58:2 66:2 111:1 192:1 219:1 281:1 289:1 298:1 332:1 333:1 350:1 365:1 387:1 388:1 421:1 435:1 444:1 451:1 452:1 458:1 463:1 483:3 484:4 485:4 526:1 547:1 602:1 656:1 661:1 680:1 682:1 702:1 750:1 776:1 797:1 830:1 832:1 869:1 895:1 938:1 940:1 965:1 1029:1 1155:1 1192:1 1219:1 1227:1 1291:1 1370:1 1455:1 1503:2 1504:1 1528:1 1638:1 1942:1 2023:1 2030:1 2031:1 2032:1 2048:1 2049:1 2050:1 2096:1 2182:1 2273:1 2316:1 2336:1 2360:1 2393:1 2411:1 2425:2 2427:1 2581:1 2874:1 3183:1 3240:1 3441:1 3561:1 3664:1 3670:1 3690:1 3695:1 3759:1 4108:1 4707:1 4976:1 5110:1 6042:1 8441:1 9003:1 9004:1 9005:1 9006:1 9007:1 9008:1 9009:1 9010:1 #
0.0041325031699673640123160467396701 4:2 42:1 58:3 59:1 60:1 61:1 66:1 69:1 74:1 110:1 111:1 118:1 124:1 129:1 150:1 178:1 224:1 242:1 244:1 264:1 266:1 274:1 280:1 308:1 309:1 315:1 316:1 320:1 321:1 329:1 341:1 349:1 356:1 357:1 414:1 444:1 502:1 505:2 517:1 523:1 530:1 533:1 542:1 545:1 580:1 599:1 623:1 654:1 655:1 669:1 682:1 685:1 692:1 694:1 715:1 728:1 758:1 798:1 799:1 808:2 818:1 829:1 832:1 895:1 907:1 908:1 938:1 955:1 973:1 976:1 1013:1 1036:1 1080:1 1082:1 1197:1 1307:1 1314:1 1326:2 1389:1 1457:1 1513:1 1528:1 1625:1 1655:1 1656:1 1703:2 1708:1 1709:1 1724:1 1772:1 1773:1 1846:1 1864:1 1882:1 1967:1 2066:1 2069:1 2156:1 2161:1 2177:1 2178:1 2243:1 2333:1 2351:1 2487:1 2601:1 2624:1 2723:1 2764:1 2767:1 2997:1 3054:1 3063:1 3126:1 3144:1 3324:1 3444:1 3528:1 3776:1 3861:1 3973:1 3991:1 4050:1 4142:1 4200:1 4427:1 4678:1 4679:1 4825:1 5514:1 6049:1 6746:1 6747:1 6748:1 6749:1 6750:1 6751:1 6752:1 6753:1 6754:1 6755:1 6756:1 6757:1 6758:1 6759:1 6760:1 #
0.0052028362450643444309106300238454 4:1 17:1 26:1 41:1 73:1 74:1 98:1 116:1 156:1 163:1 170:1 194:1 197:1 231:1 242:1 250:1 266:1 277:1 278:1 284:1 287:1 290:1 297:1 309:1 323:1 329:1 331:1 361:1 394:1 433:1 485:1 505:1 538:1 539:1 570:1 580:1 609:1 611:1 616:1 617:1 649:1 655:1 672:1 680:1 700:1 752:1 758:1 764:1 769:1 808:1 823:1 869:1 1027:1 1035:1 1041:2 1042:1 1057:1 1085:1 1154:1 1208:1 1216:1 1221:1 1253:1 1266:1 1307:1 1308:1 1328:1 1346:1 1451:1 1488:1 1499:1 1500:1 1552:1 1556:1 1563:1 1631:1 1687:1 1689:1 1708:1 1855:1 1991:1 2067:1 2086:1 2216:1 2226:1 2357:1 2646:1 2788:1 2799:1 3009:1 3126:1 3377:1 3395:1 3528:1 3585:1 3690:1 3994:1 4071:1 4268:1 4379:1 4485:1 5172:1 5344:1 5933:1 6319:1 8879:1 8940:1 9070:1 #
0.0037051259632008590010066040321135 4:1 11:1 18:1 22:1 32:1 33:1 40:1 54:1 66:1 67:2 77:1 108:1 111:1 118:1 128:1 141:1 163:1 184:2 231:1 237:1 242:1 249:1 264:1 270:1 308:1 313:1 325:1 342:1 344:1 353:1 365:2 369:1 387:2 388:2 389:1 394:1 414:1 439:1 505:2 544:3 558:1 564:1 576:1 594:1 605:1 634:1 669:1 680:1 693:1 702:1 709:1 711:3 712:1 715:1 723:1 734:1 735:1 791:1 799:1 831:1 837:2 869:1 886:1 920:1 922:1 939:1 992:1 1048:1 1051:1 1058:2 1065:1 1077:2 1088:1 1164:1 1192:1 1206:1 1318:1 1346:2 1347:1 1356:1 1376:1 1384:1 1475:1 1496:1 1528:1 1579:1 1586:1 1613:1 1624:1 1692:2 1693:1 1694:1 1709:1 1729:1 1762:1 1779:1 1786:1 1787:1 1804:1 1846:1 1853:1 1858:1 1964:1 1967:1 2012:1 2051:1 2060:1 2076:1 2078:1 2139:1 2179:1 2181:1 2198:1 2200:1 2333:1 2396:1 2427:2 2513:1 2623:1 2698:1 2723:1 2827:1 2907:1 2961:1 2978:1 3032:1 3087:1 3171:1 3211:1 3601:1 3705:1 4000:1 4220:1 4325:1 4641:1 4705:1 4735:1 4807:1 5016:1 5101:1 5593:1 5599:1 5765:1 5933:1 6372:1 6705:1 6932:1 9051:1 9052:1 #
-0.016232669858210382884955436111341 4:1 17:1 24:1 26:1 35:1 41:1 66:1 91:1 141:1 165:2 167:1 194:1 231:1 242:1 250:1 308:1 309:1 312:1 325:1 339:1 344:1 346:1 360:1 384:1 396:1 410:1 437:1 439:1 462:1 497:1 501:1 505:2 509:1 537:1 539:1 541:1 580:1 601:1 637:1 649:1 663:1 679:1 689:1 708:1 758:1 759:1 792:1 799:1 831:1 849:1 857:1 877:1 928:1 949:1 969:1 970:1 971:1 992:1 1002:1 1055:1 1077:2 1093:1 1122:1 1124:1 1166:1 1196:2 1197:2 1311:1 1430:2 1437:1 1443:1 1528:1 1529:1 1540:1 1542:1 1625:1 1655:1 1668:1 1682:1 1685:1 1778:1 1808:1 1871:1 1898:1 1962:1 1997:1 2010:1 2133:1 2156:1 2204:1 2225:1 2255:1 2268:1 2278:1 2356:1 2383:1 2392:1 2421:1 2427:1 2581:1 2629:1 2695:1 2720:1 2827:1 2971:1 3030:1 3077:1 3132:1 3155:1 3188:1 3300:1 3353:1 3407:1 3530:1 3659:1 3856:1 3960:1 4352:1 4541:1 4811:1 4933:1 5024:1 5182:1 5472:1 5478:1 5547:1 6012:1 6258:1 6266:1 6267:1 6268:1 #
0.0020018238384474158937653687218017 4:1 6:1 7:1 11:1 32:1 40:1 42:4 47:2 48:3 56:1 63:1 66:4 67:1 73:1 93:1 94:1 112:1 116:1 158:1 167:1 172:1 184:1 188:1 223:2 224:1 225:1 242:1 251:1 261:1 266:2 297:1 298:1 300:1 312:2 315:1 316:1 317:1 318:1 322:1 324:1 330:2 349:1 350:1 358:1 387:1 426:1 436:1 437:1 462:1 479:1 487:1 488:1 495:1 507:1 511:1 532:1 538:1 539:1 542:1 545:1 555:1 568:1 570:1 580:1 590:1 619:1 628:1 629:2 634:1 654:1 660:1 692:1 700:1 711:1 736:1 748:1 765:1 815:1 830:1 836:1 837:1 869:1 877:1 880:1 895:3 966:1 983:1 998:1 1002:2 1012:1 1017:1 1021:1 1055:1 1071:1 1072:1 1089:1 1107:1 1108:1 1170:1 1171:1 1172:1 1187:1 1197:1 1204:2 1217:1 1270:2 1291:1 1307:1 1327:1 1338:1 1381:1 1387:1 1388:1 1396:1 1426:1 1455:1 1485:1 1504:1 1513:2 1535:1 1551:1 1590:1 1613:1 1630:1 1638:1 1663:1 1666:1 1707:1 1709:1 1710:1 1733:1 1736:1 1749:1 1761:1 1764:1 1783:1 1826:1 1847:1 1952:1 1957:1 1968:1 1987:1 1992:2 2049:1 2057:1 2058:1 2065:1 2091:1 2112:1 2130:1 2154:1 2176:1 2196:1 2370:1 2431:1 2453:1 2522:1 2534:1 2592:1 2605:1 2673:1 2702:1 2709:1 2718:1 2720:1 2781:1 2821:2 2832:1 2836:1 2899:1 2920:1 3002:1 3053:1 3099:1 3174:1 3204:1 3227:1 3229:1 3326:1 3392:1 3497:1 3583:1 3637:1 3754:1 3818:1 3819:1 3830:1 3856:1 3861:1 3915:1 4038:1 4046:1 4062:1 4364:2 4407:1 4661:1 4675:1 4940:1 5246:1 5325:1 5606:1 5690:1 5696:1 6175:1 6188:1 6550:1 6649:1 6927:1 6937:1 6980:1 7825:1 7883:1 9208:1 9209:1 9210:1 9211:1 9212:1 9213:1 9214:1 9215:1 9216:1 9217:1 9218:1 9219:1 #
-0.030715582244114365828568935512521 16:1 28:1 29:2 30:2 36:1 42:3 43:1 47:2 104:1 155:1 156:1 179:1 182:1 229:1 258:1 297:1 302:1 323:1 324:1 351:1 363:1 461:1 463:1 487:1 488:1 538:1 568:1 588:1 608:1 639:1 698:1 711:1 769:1 784:1 821:1 834:1 964:2 965:1 975:1 996:1 1002:1 1077:1 1155:1 1194:1 1225:1 1230:1 1270:1 1348:1 1489:1 1561:1 1609:1 1655:1 1703:1 1952:1 1997:1 2256:1 2356:1 2544:1 2607:1 2679:1 2737:1 2862:1 3053:1 3112:1 3115:1 3180:1 3225:1 3315:1 3760:1 4034:1 4445:1 4535:1 4541:1 4982:1 5092:1 8610:1 8670:1 8671:1 #
0.016750056983271116584077731204161 4:1 6:1 7:1 37:1 43:1 48:1 49:1 63:1 66:1 72:1 84:1 85:1 100:1 109:1 208:1 225:1 237:1 242:1 251:1 252:1 258:1 306:1 307:1 312:1 332:1 349:1 369:1 371:1 386:1 390:1 391:1 398:1 432:1 435:1 436:1 437:1 452:1 456:1 474:1 487:1 496:1 504:1 505:1 530:1 531:1 559:1 580:1 656:3 661:1 697:1 711:1 738:1 752:1 755:1 787:1 788:1 820:1 821:1 898:1 939:1 960:1 975:1 1073:1 1074:1 1093:1 1154:1 1167:1 1206:1 1235:1 1253:1 1267:1 1410:1 1421:1 1437:1 1444:1 1503:1 1550:1 1587:1 1653:1 1665:1 1685:1 1762:1 1779:1 1823:1 1828:1 1847:1 1864:1 1901:1 1925:1 1927:1 1959:1 2001:1 2012:1 2071:1 2086:1 2093:1 2272:1 2276:1 2329:1 2350:1 2360:1 2421:1 2423:1 2518:1 2519:1 2528:1 2560:1 2607:1 2676:1 3059:1 3110:1 3150:2 3244:1 3500:1 3506:1 3861:1 3966:1 4039:1 4173:1 4236:1 4367:1 4662:1 4846:1 4999:1 5000:1 5001:1 5002:1 5003:1 5004:1 #
-0.0037063443090004435931383852675935 6:1 7:1 9:1 17:1 18:1 26:1 34:1 35:1 42:1 73:1 77:1 78:1 79:1 82:1 142:2 143:2 156:1 208:1 223:1 242:1 244:2 258:1 264:1 266:1 287:1 300:1 318:1 361:1 388:1 389:1 426:1 475:1 487:2 488:1 505:1 511:1 512:1 517:1 531:1 557:1 615:1 616:1 617:2 626:1 631:1 637:1 680:1 729:1 759:1 805:1 808:1 923:1 946:1 992:1 996:1 1036:1 1060:1 1067:1 1097:1 1125:1 1209:1 1217:1 1241:1 1352:1 1356:1 1376:1 1564:1 1578:2 1587:1 1627:1 1628:1 1724:1 1846:1 1932:1 1967:2 1982:1 1983:1 2058:1 2104:1 2168:1 2196:1 2247:1 2250:1 2369:1 2577:1 2680:1 2696:1 2723:1 2812:1 2877:1 2999:1 3105:1 3722:1 3813:1 4060:1 4971:1 4972:1 5260:1 6187:1 6433:1 6770:1 7782:1 9596:1 9597:1 #
-0.010465319123679888216327249494952 4:1 6:2 7:2 17:1 26:1 35:1 40:1 42:3 48:1 56:1 58:2 59:1 63:1 66:1 73:1 75:2 95:1 97:1 98:1 99:1 104:2 105:1 106:1 118:2 119:2 128:1 139:1 141:1 156:2 159:1 182:1 185:1 190:1 192:1 201:1 209:1 219:1 226:1 227:2 231:1 232:2 237:2 242:1 250:1 258:1 266:1 285:1 287:1 289:2 297:1 309:1 320:1 326:1 330:2 332:1 333:1 362:1 363:1 368:1 394:1 396:1 421:1 436:1 437:1 439:1 452:2 455:1 456:1 478:1 488:1 494:1 497:1 505:1 522:1 546:1 547:1 548:2 566:1 577:1 609:1 611:1 639:1 650:1 656:1 682:2 683:2 692:1 700:1 704:1 705:1 727:1 730:1 732:1 748:1 749:1 753:1 754:1 755:1 780:1 791:1 795:1 807:2 808:1 815:1 823:1 832:1 877:1 900:1 902:1 938:1 965:1 1006:1 1023:1 1060:1 1076:1 1081:1 1114:1 1123:1 1124:1 1138:1 1154:1 1178:1 1201:1 1204:1 1237:1 1242:1 1248:1 1249:1 1338:1 1349:1 1381:1 1392:1 1396:1 1426:1 1441:1 1485:1 1495:1 1497:1 1533:2 1562:3 1615:1 1619:1 1630:1 1648:1 1653:1 1655:2 1687:1 1703:1 1726:1 1736:1 1756:1 1778:1 1868:1 1882:1 1884:1 1887:1 1919:1 2012:1 2030:1 2061:1 2066:1 2104:1 2138:1 2154:1 2155:1 2161:1 2174:1 2220:1 2360:1 2403:1 2505:1 2538:1 2547:2 2548:1 2581:1 2603:1 2665:1 2762:1 2768:1 2771:1 2787:1 2825:1 2916:1 2985:1 2987:1 3054:1 3119:1 3127:1 3159:1 3181:1 3204:1 3361:1 3442:1 3494:1 3613:1 3669:1 3764:2 3849:1 3894:1 3915:1 3926:1 4046:1 4078:1 4149:1 4213:3 4276:1 4330:1 4447:1 4448:1 4462:1 4548:1 4804:1 4846:1 4860:1 4939:1 5107:1 5148:1 5182:1 5257:1 5659:1 5966:1 5978:1 5991:1 6439:1 6921:1 6958:1 7065:1 7094:1 7118:1 7219:1 7220:1 7224:1 7276:1 7277:1 7278:1 7279:1 7280:1 8458:1 8851:1 8984:1 9711:1 9712:1 #
0.0025964663333285097242264516381738 17:1 27:1 37:1 45:1 63:1 67:1 68:1 73:1 74:1 110:1 118:1 120:1 126:1 167:1 206:3 207:2 208:2 228:1 258:1 266:1 270:1 348:1 386:1 426:1 439:1 444:1 456:1 465:1 474:1 477:1 504:1 505:3 525:1 558:1 559:1 616:1 621:1 641:1 649:1 666:1 667:1 694:1 700:1 712:1 758:1 768:1 773:1 787:1 788:1 795:1 837:1 855:1 895:1 900:1 902:1 914:1 946:1 949:2 964:1 982:1 1028:1 1058:1 1077:1 1093:1 1103:1 1150:1 1166:1 1182:1 1242:1 1253:1 1350:1 1368:1 1386:1 1440:1 1456:1 1472:1 1522:1 1629:1 1683:1 1689:1 1692:1 1703:1 1705:1 1728:1 1757:1 1759:1 1914:1 2030:1 2142:1 2155:1 2216:1 2294:1 2305:1 2325:1 2354:1 2381:1 2438:1 2580:1 2681:1 2685:1 2690:1 2730:1 3067:1 3089:1 3103:1 3304:1 3332:1 3371:1 3384:2 3435:1 3444:1 3550:1 3618:1 3707:1 3874:1 3915:1 4036:1 4100:1 4241:1 4441:1 4810:1 4886:1 5013:1 5015:1 5152:1 5550:2 5551:1 5552:1 5553:1 5554:1 5555:1 5556:1 5557:1 5558:1 5559:1 5560:1 5561:1 5562:1 #
-0.014145190082152776095414381529736 4:1 29:1 30:1 32:1 35:1 40:1 41:1 63:1 72:1 83:1 84:1 85:1 92:1 124:1 194:1 242:1 266:2 308:1 329:1 342:1 350:1 358:2 365:1 386:1 387:1 388:1 436:1 452:1 485:1 488:1 494:1 497:1 513:1 540:1 580:2 601:1 637:1 654:1 682:1 687:1 714:1 767:1 768:1 788:1 792:1 797:1 799:1 823:1 869:1 877:1 895:1 898:1 900:1 1011:1 1131:1 1157:1 1179:1 1219:1 1233:1 1237:1 1285:1 1346:1 1437:1 1446:1 1450:1 1482:1 1535:1 1570:2 1653:1 1668:1 1731:1 1736:1 1791:1 1814:1 1872:2 1906:1 1977:1 2019:1 2091:1 2196:1 2226:1 2239:1 2242:1 2243:1 2255:1 2278:1 2306:1 2464:1 2471:1 2534:1 2603:1 2690:1 2710:1 2730:1 2761:1 2838:1 2961:1 2969:1 3328:1 3407:1 3446:1 3480:1 3547:1 3591:1 3695:1 3918:1 4050:1 4080:1 4509:1 4542:1 4867:1 5044:1 5165:1 5237:1 5292:1 6462:1 6958:1 8263:1 #
-0.0041361131706387013751147208040493 4:2 16:1 18:1 33:1 56:1 63:1 72:3 84:3 85:3 101:1 104:1 121:1 125:1 134:1 175:1 227:1 242:2 266:3 269:1 274:1 316:1 357:1 358:1 364:1 369:1 389:1 478:1 485:1 496:1 497:1 499:1 512:1 526:1 558:1 592:1 605:1 614:1 637:1 638:1 639:1 640:1 654:1 692:1 725:1 770:1 833:1 872:1 892:1 914:2 944:1 986:1 994:1 998:1 1086:1 1093:1 1100:1 1136:1 1183:1 1210:1 1214:1 1254:1 1274:1 1276:1 1307:1 1348:1 1356:2 1421:3 1528:1 1538:1 1585:3 1631:2 1709:2 1710:1 1711:1 1740:1 1753:1 1836:1 1920:1 1952:1 1953:1 1962:1 1964:1 1979:1 2028:1 2082:1 2094:1 2118:1 2153:1 2174:1 2177:1 2234:1 2235:1 2547:1 2607:1 2648:1 2683:1 2717:1 2750:1 2904:1 3098:1 3243:1 3256:1 3272:1 3363:1 3539:1 3880:1 3970:1 4113:1 4156:1 4325:1 4499:1 4548:1 4613:1 4737:1 4850:1 5426:1 6009:1 6058:1 6402:1 6481:1 7561:1 7562:1 7563:1 7564:1 7565:1 7566:1 7567:1 7568:1 7569:1 7570:1 #
-0.011327503150591644240363642381908 4:1 6:1 7:1 21:1 29:1 30:1 42:1 48:1 58:1 67:1 72:1 84:1 85:1 111:1 113:1 118:1 189:1 210:1 223:1 224:1 225:1 242:1 264:1 266:1 288:1 300:1 316:1 346:1 358:1 367:1 383:1 411:1 506:1 510:1 517:1 564:1 580:1 616:1 653:1 658:1 686:2 700:1 702:1 759:1 760:1 773:1 776:1 792:1 830:1 835:1 836:1 895:1 923:1 998:1 1001:1 1002:2 1085:1 1102:1 1156:1 1178:1 1219:1 1290:1 1313:1 1347:1 1401:1 1402:1 1407:1 1461:1 1489:1 1653:1 1658:1 1706:1 1709:1 1710:1 1726:1 1778:1 1785:1 1786:1 1787:1 1841:1 1842:1 1889:1 2060:1 2210:1 2289:1 2326:1 2534:1 2599:1 2665:1 2711:1 2717:1 2718:1 3039:1 3078:1 4204:1 4573:1 4661:1 4720:1 5259:1 6831:1 8684:1 #
0.015888270039862945753883494148795 6:1 7:1 45:1 58:1 63:1 130:1 157:1 170:2 383:1 423:1 452:2 487:1 497:1 525:1 533:1 568:1 594:1 613:1 682:1 781:1 802:1 860:1 869:1 907:1 908:1 918:1 992:1 1027:1 1032:1 1036:1 1045:1 1048:1 1062:1 1107:2 1459:1 1495:1 1508:1 1590:1 1755:1 1832:1 2074:1 2075:1 2138:1 2236:1 2312:1 2360:1 2384:1 2522:1 2593:1 2913:1 2924:1 3221:1 3475:1 3661:1 3694:1 3695:1 3696:1 3697:1 3698:1 3699:1 #
-0.0096313611299557542327898218559312 4:2 6:1 7:1 17:1 32:1 33:1 66:1 71:1 88:1 93:1 94:1 102:2 111:1 174:1 208:1 224:1 225:1 229:1 258:1 261:1 269:1 297:2 308:1 342:1 354:1 387:1 404:1 452:1 456:1 548:1 615:1 616:1 625:1 626:1 680:1 815:1 846:1 886:1 895:1 922:2 981:1 998:1 1012:2 1055:1 1064:2 1088:1 1116:1 1129:1 1186:2 1193:1 1299:1 1321:1 1346:1 1437:1 1518:1 1541:1 1590:1 1617:1 1653:2 1685:1 1701:1 1784:1 1792:2 1815:1 1821:1 1880:1 1991:1 1992:1 2076:1 2096:1 2101:1 2199:1 2265:1 2309:1 2376:1 2409:2 2425:1 2464:1 2542:1 2544:1 2669:1 2712:1 2873:1 3034:1 3279:1 3286:2 3306:1 3611:1 3713:1 3716:1 3795:1 4043:1 4097:1 4328:1 4330:1 4425:1 4638:1 4693:1 5191:1 5326:1 5454:1 5602:1 5625:1 9658:1 9759:1 #
0.0056859407269980212495941174211112 5:1 6:1 7:1 17:1 26:1 32:1 40:1 42:2 43:1 47:1 48:1 49:2 62:1 63:1 104:1 136:1 139:1 141:1 210:1 227:1 238:1 247:1 250:1 251:1 255:1 266:1 288:1 297:1 350:1 351:1 360:1 365:1 366:1 387:1 388:1 436:3 437:1 462:1 485:1 494:1 503:1 505:2 527:1 558:1 570:1 580:1 596:1 623:1 637:1 656:1 661:1 669:1 682:1 689:1 734:1 747:1 780:1 790:1 801:1 823:1 895:1 915:1 969:1 981:1 998:1 1035:1 1048:1 1053:1 1064:1 1077:1 1080:1 1082:1 1158:1 1170:1 1179:1 1191:1 1192:1 1193:1 1194:1 1207:1 1219:1 1241:1 1296:1 1299:1 1308:1 1326:1 1330:2 1338:1 1358:1 1363:1 1435:1 1456:1 1522:1 1537:1 1631:1 1741:1 1746:1 1787:1 1807:1 1846:1 1871:1 2012:1 2094:1 2182:1 2223:1 2250:1 2412:1 2453:1 2522:1 2548:1 2676:1 2677:1 2732:1 2866:1 2932:1 2982:1 3187:1 3210:1 3218:1 3227:1 3329:1 3392:1 3481:1 3484:1 3493:1 3547:1 3594:1 3658:1 3915:1 3918:1 4098:1 4103:1 4156:1 4223:1 4470:1 4843:1 5382:1 5534:1 5684:1 5847:1 5880:1 6307:1 7180:1 8775:1 9083:1 9622:1 9623:1 9624:1 9625:1 9626:1 #
-0.017984682723468318338300164782595 4:4 5:1 6:1 7:1 17:1 23:1 35:1 37:1 42:2 48:1 58:1 63:1 98:2 99:2 170:1 208:1 242:3 264:1 282:1 325:1 346:1 350:1 365:1 386:1 387:1 388:1 420:1 504:1 505:1 598:1 672:1 689:1 711:1 714:1 768:1 778:1 823:1 901:1 902:1 946:1 958:1 1028:1 1058:1 1243:1 1294:1 1374:1 1380:1 1407:1 1439:1 1452:1 1587:1 1606:1 1779:1 1800:1 1862:1 1906:2 1914:1 2045:1 2058:1 2155:1 2242:1 2252:1 2290:1 2339:1 2362:1 2513:1 2524:1 2628:1 2755:1 2853:1 2897:1 3048:1 3347:1 3398:1 3481:1 3628:1 3761:1 3797:1 3812:1 3846:1 4092:1 4367:1 4448:1 4581:1 4761:1 5962:1 6080:1 6342:1 6856:1 8231:1 #
0.030232698319367905942511853822907 11:1 35:1 40:1 41:1 42:2 47:1 48:2 49:2 63:1 72:1 73:1 84:1 85:2 124:1 185:1 195:1 203:1 208:1 227:1 256:1 258:1 264:1 277:1 325:1 339:1 345:1 374:1 388:1 412:1 494:1 496:1 505:4 511:1 523:1 553:1 558:1 571:1 577:1 598:1 638:1 700:1 703:1 705:1 725:1 758:1 790:1 823:1 877:1 920:1 967:1 980:1 1002:1 1012:1 1064:1 1077:1 1106:1 1107:1 1108:1 1137:1 1188:1 1194:1 1204:1 1209:1 1248:1 1249:1 1255:1 1270:1 1288:1 1356:1 1371:1 1374:1 1384:1 1403:1 1409:1 1437:1 1533:1 1535:2 1653:1 1655:1 1656:1 1685:1 1782:1 1804:1 1816:1 1822:1 1898:1 1904:1 1922:1 1934:1 1985:1 2058:1 2060:1 2061:1 2115:1 2255:1 2258:1 2281:1 2282:1 2325:1 2334:1 2356:1 2419:1 2439:1 2457:1 2489:1 2581:1 2669:1 2758:1 2839:1 2907:1 3026:1 3145:1 3228:1 3258:1 3399:1 3575:2 3600:1 3618:2 4027:1 4107:1 4207:1 4369:1 4456:1 4554:1 5050:1 6394:1 7125:1 7127:1 7482:1 7483:1 7484:1 7485:1 7486:1 7487:1 7488:1 7489:1 7490:1 7491:1 #
-0.0067844891133119113874050398749205 6:1 21:1 26:2 32:1 33:1 35:1 40:3 42:1 47:2 48:2 56:1 57:1 63:2 64:1 71:1 72:3 73:1 77:1 84:2 85:2 87:1 91:2 92:1 94:1 99:1 100:1 110:1 111:1 112:1 124:1 139:1 140:1 141:1 149:1 150:1 157:1 158:1 163:1 196:1 197:1 202:1 204:1 210:1 212:1 222:1 258:1 263:1 266:2 274:1 279:1 305:1 309:1 312:1 315:1 318:1 326:1 359:1 365:1 371:1 382:1 387:1 388:1 394:1 420:1 422:1 428:1 444:1 456:1 460:1 478:1 487:1 489:1 497:2 498:1 503:1 505:4 512:1 524:1 525:1 526:1 528:1 534:1 546:1 547:1 548:2 558:1 561:1 563:1 570:1 572:1 573:1 577:1 580:2 582:1 609:1 617:2 623:1 637:1 649:2 669:1 674:1 682:1 689:1 734:1 735:1 740:1 752:3 755:1 762:1 768:2 773:1 792:1 795:1 806:1 815:1 823:1 853:1 861:1 877:1 895:1 899:1 926:1 938:1 957:1 975:1 980:1 983:1 986:1 1045:1 1048:1 1060:1 1077:2 1085:2 1086:1 1116:1 1123:1 1124:1 1128:1 1132:1 1166:1 1190:1 1194:1 1197:1 1233:1 1270:1 1276:1 1285:1 1288:1 1318:1 1321:1 1327:1 1343:1 1347:1 1396:1 1407:1 1408:1 1410:1 1418:1 1421:1 1430:1 1446:1 1474:1 1512:1 1519:1 1532:1 1533:1 1550:1 1555:1 1569:1 1580:1 1582:1 1585:1 1591:1 1610:1 1631:1 1640:1 1655:1 1664:1 1695:1 1708:1 1785:1 1826:1 1828:1 1829:1 1841:1 1842:1 1846:1 1848:1 1872:1 1880:1 1888:1 1952:1 1960:1 1977:1 1979:1 1980:1 2010:1 2017:1 2033:1 2048:1 2049:1 2061:2 2080:1 2086:1 2094:1 2110:1 2112:1 2118:1 2141:1 2156:1 2174:1 2199:1 2216:1 2242:1 2247:1 2333:1 2346:1 2403:1 2422:1 2470:1 2528:1 2546:1 2577:1 2581:1 2595:1 2604:1 2605:1 2669:2 2683:1 2717:1 2734:1 2735:1 2778:1 2879:1 2952:1 2987:1 3002:1 3018:1 3066:1 3077:1 3118:1 3164:1 3167:1 3185:1 3260:1 3266:1 3391:1 3396:1 3490:1 3500:1 3628:1 3735:1 3740:1 3762:1 3789:1 3817:1 3826:1 3863:1 3915:1 3918:1 3950:1 3959:1 3984:1 4137:1 4200:1 4267:1 4367:1 4394:1 4428:1 4492:1 4553:1 4558:1 4654:1 4694:1 4843:1 4905:1 4947:1 4969:1 5024:1 5067:1 5202:1 5281:1 5311:1 5334:1 5602:1 5703:1 5714:1 5748:1 5854:1 6331:1 7056:1 7190:1 7724:1 8852:1 8996:1 9786:1 9787:1 9788:1 9789:1 9790:1 9791:1 #
-0.012356743561337729664373341620376 18:1 24:2 35:1 42:1 45:1 58:1 64:1 66:1 69:1 72:2 74:1 84:2 85:2 93:1 101:1 126:1 140:1 141:1 150:1 172:1 210:1 237:1 251:1 266:3 275:1 283:1 289:1 293:1 294:1 300:1 308:1 315:1 316:1 325:1 330:1 347:1 348:1 384:1 388:1 420:2 436:1 462:1 487:1 488:1 505:3 517:2 527:1 587:1 589:1 598:2 599:1 623:1 625:1 642:1 650:1 655:1 669:1 682:1 725:2 738:1 781:1 828:1 863:1 896:1 927:1 946:1 975:1 982:1 1121:1 1125:1 1145:1 1217:1 1376:1 1421:1 1463:1 1513:1 1522:1 1651:1 1663:1 1724:1 1804:1 1855:1 1873:1 1922:1 1973:1 1975:1 1976:1 1977:1 1978:1 1979:1 1980:1 1981:1 1982:1 1983:1 1984:1 1985:1 1986:1 1987:1 1988:1 1989:1 1990:1 1991:1 1992:1 1993:1 1994:1 1995:1 1996:1 1997:1 1998:1 1999:1 2000:1 2001:1 2002:1 2003:1 #
-0.013998467433599308049063658643263 6:2 7:2 13:1 42:1 91:1 92:1 93:2 101:1 145:1 167:1 266:1 282:1 346:1 394:1 436:1 452:1 481:1 505:1 539:1 561:1 576:1 601:1 617:1 787:1 788:1 799:1 923:1 955:1 986:1 1021:1 1055:1 1099:1 1166:1 1168:1 1294:1 1356:1 1452:1 1522:1 1535:1 1539:1 1611:1 1736:1 1786:1 1787:1 1841:1 1886:1 1906:1 1988:1 2041:1 2059:1 2061:1 2249:1 2367:1 2838:1 2971:1 3012:1 3625:1 3789:1 3815:1 3890:1 5165:1 5954:1 8866:1 9401:1 #
-0.0017665756394898361313766654845381 4:2 11:1 17:1 19:1 35:2 42:1 72:2 84:1 85:1 94:1 98:1 99:1 102:1 105:1 111:2 118:1 119:1 156:2 159:1 170:1 182:2 206:1 224:1 242:1 244:1 247:1 252:2 258:3 264:1 266:1 267:1 274:1 275:1 288:1 290:1 320:1 321:1 331:1 360:1 365:1 386:1 387:1 388:1 420:1 425:1 426:1 462:1 475:1 498:1 539:1 564:1 580:1 594:1 599:1 605:1 650:1 668:1 686:1 691:1 693:2 702:2 716:1 736:1 752:1 758:1 771:1 783:1 823:1 834:1 847:1 900:1 915:1 920:1 923:1 949:1 954:1 986:2 998:1 1011:1 1064:1 1100:1 1111:1 1112:1 1129:1 1186:1 1190:1 1206:1 1217:2 1219:1 1234:1 1274:1 1339:1 1407:1 1488:1 1493:1 1522:1 1528:1 1570:1 1590:2 1653:1 1658:1 1706:1 1707:1 1709:1 1710:1 1808:1 1835:1 1841:2 1846:1 1968:1 2074:1 2080:1 2081:1 2203:1 2210:1 2229:1 2236:1 2267:1 2524:1 2637:1 2717:1 2850:1 2854:1 2982:1 3124:1 3260:2 3331:1 3332:2 3355:1 3391:1 3414:2 3432:1 3500:1 3851:1 4089:1 4111:1 4151:1 4357:1 4421:1 4458:1 4782:1 4867:1 4876:1 4939:1 5146:1 5489:1 5608:1 5646:1 5948:1 6122:1 6303:1 8013:1 8401:1 8585:1 8965:1 8966:1 #
-0.0056567194640994161725089384162857 19:2 21:1 25:1 26:1 46:1 58:1 67:1 68:1 69:1 72:2 84:2 85:1 95:1 96:1 98:1 141:1 157:1 268:1 275:1 276:1 309:1 323:1 330:1 332:1 333:1 357:1 412:1 463:1 475:1 487:1 488:1 489:1 505:1 506:1 531:1 571:1 582:1 583:1 610:1 618:1 637:1 656:1 661:1 662:1 687:1 711:1 795:1 808:2 895:1 901:1 902:1 912:1 920:1 926:1 949:1 960:1 969:1 970:1 971:1 987:1 1010:1 1032:1 1058:1 1072:1 1097:1 1132:1 1164:2 1197:1 1217:1 1331:1 1356:1 1495:1 1570:2 1765:1 1774:2 1776:1 1790:1 1846:1 2393:1 2418:1 2446:1 2679:1 2732:1 2825:1 2927:1 3017:1 3148:1 3149:1 3150:1 3151:1 3152:1 3153:1 3154:1 3155:1 3156:1 3157:1 3158:1 3159:1 3160:1 #
-0.0044218180762887722770604348454526 4:3 35:2 42:2 45:1 58:1 60:1 61:1 66:1 72:1 84:1 85:1 92:1 114:1 154:1 171:1 200:1 223:1 227:1 242:3 258:2 266:1 272:1 277:1 282:1 297:1 309:1 332:1 349:1 356:1 365:1 368:1 391:1 398:1 406:1 436:1 452:1 456:1 462:1 542:1 561:1 565:1 580:2 586:1 592:1 705:1 711:1 749:1 763:1 799:1 808:1 899:1 915:1 923:1 926:1 983:1 998:1 1058:1 1072:1 1080:1 1089:1 1154:1 1158:1 1186:1 1307:1 1318:1 1348:1 1349:1 1352:1 1396:1 1449:1 1551:1 1599:1 1611:1 1668:1 1733:1 1766:1 1819:1 1842:1 1906:1 1914:1 1957:1 2022:1 2060:1 2061:1 2222:1 2234:1 2242:1 2255:1 2271:1 2356:1 2375:1 2409:1 2450:1 2489:1 2601:1 2788:1 2894:1 2905:1 3029:1 3057:1 3204:1 3268:1 3510:1 3631:1 3653:1 3900:1 4055:1 4091:1 4236:1 4280:1 4677:1 4914:1 4939:1 5115:1 5159:1 5486:1 5631:1 5900:1 6144:1 6357:1 6361:1 6595:1 6972:1 7422:1 7518:1 8130:1 8678:1 8947:1 8952:1 9324:1 9325:1 9326:1 #
-0.0050856222326115469237195476637226 4:2 6:1 7:1 13:1 20:1 21:2 26:1 32:1 42:1 55:1 56:1 66:2 68:1 69:1 71:1 72:1 73:1 77:1 84:1 85:1 93:2 95:1 100:2 104:2 110:1 111:1 121:1 125:1 154:1 163:1 178:1 182:1 201:1 210:1 223:1 226:1 227:1 231:1 238:1 242:2 274:1 275:1 277:5 278:5 296:1 297:1 312:1 326:1 357:1 358:1 371:1 383:2 390:1 424:1 452:3 458:1 463:1 475:1 487:1 488:1 498:1 499:1 501:1 505:3 510:1 517:1 533:1 576:3 587:1 601:1 603:1 604:1 608:1 609:4 615:1 616:1 620:2 623:1 630:1 631:1 637:1 638:1 649:1 669:1 673:1 675:1 680:1 687:1 697:1 716:2 734:1 747:1 753:1 758:1 765:1 771:1 772:1 787:1 788:1 791:1 806:1 808:1 826:1 830:1 877:1 895:2 900:1 908:1 920:1 924:1 942:1 955:3 960:1 979:1 986:1 997:1 998:1 1002:1 1025:1 1041:1 1048:1 1058:2 1064:1 1084:1 1088:1 1089:1 1122:1 1170:2 1182:2 1190:1 1191:1 1197:1 1226:1 1241:2 1242:1 1263:1 1275:2 1307:1 1311:1 1319:1 1326:1 1327:1 1349:3 1356:1 1367:1 1381:1 1386:1 1411:1 1440:1 1446:1 1460:1 1467:1 1471:1 1493:1 1567:1 1568:1 1570:1 1582:1 1585:1 1593:1 1596:1 1619:1 1639:1 1649:1 1653:1 1688:1 1709:1 1727:1 1735:1 1778:1 1784:1 1790:1 1799:1 1843:1 1852:1 1901:2 1903:1 1916:1 1919:1 1940:1 1955:1 1957:1 1962:1 2008:1 2015:1 2016:1 2058:1 2076:2 2116:1 2130:1 2148:1 2155:1 2168:1 2182:1 2196:1 2201:1 2204:2 2255:1 2306:1 2333:1 2337:2 2354:1 2360:1 2366:1 2416:1 2443:1 2453:1 2454:1 2465:1 2479:1 2577:1 2580:1 2589:1 2601:1 2604:1 2607:2 2711:1 2712:1 2758:1 2816:1 2827:1 2844:1 2949:1 2960:1 2972:1 3018:1 3052:1 3081:1 3089:1 3091:1 3094:1 3141:1 3145:1 3155:1 3221:1 3256:2 3275:1 3327:1 3332:1 3356:1 3392:1 3404:1 3422:1 3464:1 3487:1 3544:1 3585:4 3621:1 3635:1 3642:1 3690:1 3706:1 3789:1 3823:1 3914:1 4060:1 4103:1 4131:1 4192:1 4222:1 4346:1 4425:1 4475:1 4488:1 4503:1 4542:1 4562:1 4604:1 4609:1 4719:1 4868:1 4869:1 4985:1 5019:1 5536:1 5577:1 5792:1 5902:1 6063:1 6361:1 6631:1 6654:1 6796:1 6997:1 7313:1 7339:1 7444:1 7615:1 7635:1 8016:1 8685:1 8686:1 8687:1 8688:2 8689:1 8690:1 8691:1 8692:1 8693:1 8694:1 8695:1 8696:1 #
0.016965548621490762065677770920047 4:2 11:1 35:1 41:1 42:1 48:1 58:1 66:1 101:1 195:1 242:2 257:1 258:1 272:1 274:1 291:1 370:1 374:1 459:1 462:1 505:3 539:1 541:1 558:1 565:1 580:1 588:1 589:1 590:1 601:1 623:1 642:1 665:1 669:1 680:1 682:1 698:1 776:1 863:1 869:1 958:1 974:1 975:1 981:1 1158:1 1206:1 1210:1 1285:1 1314:1 1338:1 1349:1 1435:1 1708:1 1742:1 1919:1 1949:1 1987:1 2123:1 2284:1 2362:1 2405:1 2431:1 2458:1 2505:1 2732:1 2749:1 2867:1 2873:1 3411:1 3638:1 3662:1 3695:1 3727:1 3801:1 3955:1 4043:1 4049:1 4112:1 4667:1 5762:1 6301:1 6302:1 6303:1 6304:1 6305:1 #
-0.0088690833482667191106640913744741 4:3 16:1 17:1 24:1 40:1 42:2 52:1 53:1 58:2 114:1 131:1 150:1 156:1 224:1 242:3 258:1 266:1 276:1 308:1 309:1 397:1 398:1 399:1 400:1 401:1 402:1 403:1 404:1 405:1 406:1 407:1 408:1 409:2 410:2 411:1 412:1 413:1 414:1 415:2 416:1 417:1 418:1 419:1 420:1 421:1 422:1 423:1 424:1 425:1 426:1 427:1 428:1 429:1 430:1 431:1 432:1 433:1 434:1 435:1 436:1 437:1 438:1 439:1 440:1 441:1 442:1 443:1 444:1 445:1 446:1 447:1 448:1 449:1 450:1 451:1 452:1 453:1 454:1 455:1 456:1 457:1 458:1 459:1 460:1 461:1 462:1 463:1 464:1 465:1 466:1 467:1 468:1 #
0.0068483979417787079618795686997146 4:2 11:1 16:3 17:2 18:1 24:1 40:1 41:1 42:2 66:2 68:1 91:1 121:1 123:1 128:1 131:1 163:1 167:1 181:1 188:1 194:1 195:1 206:1 242:2 251:1 266:1 274:2 289:1 296:1 297:1 315:1 323:1 348:1 391:1 414:1 420:1 422:1 426:1 436:1 441:1 487:1 558:1 568:2 570:1 576:1 582:1 623:1 638:1 653:1 654:1 658:1 689:1 692:1 698:1 780:1 848:1 877:1 894:1 915:1 917:1 967:1 976:1 981:1 996:1 1010:1 1030:1 1032:1 1048:1 1071:1 1096:1 1119:1 1131:1 1157:1 1158:2 1160:2 1209:1 1214:1 1313:1 1363:1 1371:1 1407:1 1439:1 1487:1 1504:1 1538:1 1552:1 1617:1 1625:1 1655:1 1670:1 1703:1 1728:1 1743:1 1790:1 1828:1 1844:1 1916:1 1931:1 1991:1 2050:1 2067:1 2089:1 2124:1 2319:1 2521:1 2540:1 2597:1 2638:1 2673:1 2721:1 2732:1 2744:1 2905:1 3003:1 3051:1 3085:1 3340:1 3346:1 3377:1 3447:1 3591:1 3602:1 3606:1 3767:1 3841:1 3915:1 3973:1 3979:1 4092:1 4454:1 4889:1 5099:1 5401:1 6075:1 6185:1 6206:1 7988:1 7989:1 #
0.00028594099343056224912101859203517 35:2 66:1 72:1 73:1 98:1 194:1 212:1 219:1 252:1 315:1 329:1 349:1 452:1 477:1 503:1 512:1 549:1 553:1 610:1 638:1 640:1 703:1 713:1 767:1 769:1 865:1 971:1 974:1 986:1 998:1 1002:1 1014:1 1019:1 1023:1 1061:1 1101:1 1102:1 1103:1 1146:1 1150:1 1158:1 1170:1 1223:1 1234:1 1319:1 1324:1 1410:1 1436:1 1446:1 1495:1 1562:1 1666:1 2056:1 2082:1 2083:1 2123:1 2229:1 2247:1 2267:1 2268:1 2327:1 2357:1 2384:1 2385:1 2484:1 2539:1 2540:1 2607:1 2623:1 3014:1 3032:1 3208:1 3487:1 3494:1 3550:1 3569:1 3796:1 3871:1 3900:1 4153:1 4213:1 4283:1 4367:1 4864:1 5044:1 5235:1 5519:1 5663:1 6484:1 6780:1 7098:1 7700:1 7701:1 7702:1 7703:1 7704:1 #
0.0091663184021938803186513311516137 14:2 41:1 54:1 66:2 67:1 68:1 69:1 74:1 91:1 219:1 223:1 242:1 258:1 306:1 318:2 320:1 321:1 334:1 349:1 371:1 387:1 394:1 399:1 411:1 444:1 459:2 561:1 580:1 599:1 620:1 637:1 661:1 700:1 772:1 780:1 784:1 785:1 798:1 808:1 880:1 894:1 895:1 975:1 1030:2 1044:1 1075:1 1089:1 1207:1 1296:1 1307:1 1408:1 1468:1 1495:1 1519:1 1535:1 1550:1 1668:1 1721:1 1814:1 1877:1 1878:1 1879:1 1989:1 2061:1 2123:1 2409:1 2638:1 2675:1 2745:1 3048:1 3085:1 3150:1 3603:1 3660:1 3667:1 3860:1 4060:1 4124:1 4335:1 4472:1 4655:1 4802:1 5215:1 6599:1 8159:1 8522:1 #
-0.0027641497107729973495282571605003 4:2 6:1 7:1 17:1 35:1 41:1 63:1 64:1 72:1 84:1 85:1 115:1 185:1 194:1 227:1 242:1 251:1 263:1 266:1 270:1 275:1 369:1 404:1 414:1 459:1 505:1 568:1 579:1 580:1 588:1 601:1 613:1 615:1 656:1 665:1 666:1 667:1 672:1 680:1 700:1 704:1 711:1 738:1 749:1 857:1 880:1 883:1 895:1 918:1 920:1 946:2 960:1 963:1 975:1 981:1 986:2 998:1 1015:1 1021:1 1027:1 1045:1 1080:2 1107:1 1108:1 1154:1 1190:1 1217:1 1233:1 1250:1 1303:1 1313:1 1321:1 1357:1 1468:1 1469:1 1511:1 1524:1 1535:1 1647:1 1709:1 1710:1 1721:1 1785:1 1786:2 1787:1 1807:1 1827:1 1828:1 1871:1 1886:1 1962:1 2008:1 2059:1 2061:1 2062:1 2115:1 2150:1 2168:2 2230:1 2261:1 2544:1 2603:1 2607:1 2644:1 2676:1 2701:1 2717:1 2774:1 2838:1 2899:1 2969:1 2978:1 3011:1 3042:1 3123:2 3221:1 3609:1 3745:1 3864:1 3884:1 4008:1 4055:1 4188:1 4221:1 4370:1 4371:1 4379:1 4529:1 5520:1 5740:1 6156:1 7099:1 7863:1 8128:1 8129:1 8130:1 8131:1 8132:1 #
-6.0723995748038651215638950020548e-05 4:2 33:1 41:1 72:2 84:2 85:2 91:1 104:1 157:1 206:1 227:1 242:2 257:1 266:1 357:1 366:1 465:1 467:1 479:1 496:1 497:1 565:1 580:1 658:1 689:1 836:1 877:1 892:1 949:1 950:1 1011:1 1048:1 1235:1 1307:1 1326:1 1349:1 1460:1 1531:1 1590:1 1617:1 1815:1 1816:1 2008:1 2172:1 2196:1 2443:1 2547:1 2871:1 2873:1 3179:1 3937:1 4114:1 6011:1 7416:1 8632:1 8843:1 #
-0.0016914081575661386695752508302348 14:1 21:1 26:2 35:2 45:3 66:1 72:1 78:1 84:1 85:1 95:1 98:2 99:1 110:1 111:1 116:1 146:1 156:1 159:1 167:1 197:1 198:2 237:1 258:2 268:1 270:1 274:1 289:1 291:1 297:1 300:1 306:2 315:1 321:1 339:1 357:1 358:1 394:1 406:1 437:1 461:1 470:1 484:1 485:1 505:3 523:1 538:1 609:1 617:1 663:1 680:1 692:1 693:1 702:1 703:1 728:1 734:2 735:2 758:1 776:1 780:1 799:1 806:1 831:1 832:1 839:1 840:1 847:1 879:1 880:1 902:1 908:1 949:1 982:2 986:1 1013:1 1017:1 1127:1 1129:1 1243:1 1266:1 1279:1 1280:1 1281:1 1282:1 1284:1 1291:1 1318:1 1328:1 1350:1 1352:1 1411:1 1439:1 1461:1 1463:1 1474:1 1513:1 1525:1 1580:1 1616:1 1617:1 1629:1 1709:1 1845:1 1846:2 1887:1 1998:1 2008:1 2102:1 2457:1 2460:1 2461:1 2470:1 2541:1 2599:1 2675:1 2726:1 2829:1 2880:1 2931:1 2980:1 3059:1 3302:1 3353:1 3366:1 3664:1 3823:1 3976:1 4059:1 4076:1 4236:1 4294:1 4540:1 4623:1 4799:1 4811:1 4830:1 5020:1 5222:1 5314:1 5560:1 5586:1 5689:1 5927:1 6049:1 6518:1 6577:1 6690:1 7113:1 7205:1 7628:1 8455:1 8704:1 8754:1 8755:1 8756:1 8757:1 8758:1 8759:1 #
0.014020296785919681564758221270495 4:1 5:1 6:1 7:1 26:1 42:1 43:1 63:2 64:1 66:1 98:1 118:1 125:1 139:1 165:1 185:1 198:1 232:1 242:1 275:1 300:1 302:1 303:1 318:1 390:1 452:1 466:1 485:1 496:1 509:1 553:1 555:1 580:1 602:1 650:1 656:1 713:1 752:2 815:1 895:1 975:1 980:1 1012:1 1064:1 1073:1 1074:1 1157:1 1182:1 1197:1 1263:1 1277:1 1293:1 1363:1 1407:1 1496:1 1522:1 1639:1 1708:1 1786:1 1787:1 1868:1 1883:1 2002:1 2050:1 2123:1 2176:1 2182:1 2398:1 2564:1 2916:1 2946:1 2959:1 2977:1 3147:1 3235:1 3248:1 3337:1 3558:1 3736:1 3971:1 4531:1 5593:1 6534:1 6750:1 6914:1 7197:1 7706:1 9040:1 9041:1 #
-0.0030562199666168288897383220614756 4:1 6:1 7:1 21:1 24:1 42:1 55:1 58:1 63:2 66:1 72:1 84:1 85:1 93:1 94:1 98:1 110:1 111:2 131:1 157:1 158:1 159:1 170:1 182:1 220:1 223:1 227:1 239:1 242:2 252:1 264:2 282:1 302:1 315:1 342:1 349:1 353:1 365:1 387:1 388:1 426:1 452:1 481:1 485:1 503:1 505:2 536:1 580:1 587:1 588:2 590:1 602:1 615:1 616:1 689:2 702:1 704:1 712:1 723:1 738:1 768:1 783:1 784:1 790:1 822:1 877:1 894:1 895:1 928:1 946:1 960:1 967:1 997:1 1002:1 1011:1 1044:1 1045:1 1124:1 1192:2 1226:1 1270:1 1296:1 1324:1 1337:1 1349:1 1414:1 1439:1 1444:1 1471:1 1535:1 1553:1 1563:1 1728:1 2042:1 2056:1 2329:1 2431:1 2438:1 2469:1 2588:1 2635:2 2690:2 2777:1 2786:1 2945:1 3001:1 3039:1 3065:1 3205:1 3300:1 3321:1 3328:1 3347:1 3440:1 3618:1 3760:1 4685:1 5203:1 5204:1 5658:1 5882:1 5936:1 6258:1 #
0.0041584338213863265842906713487537 35:1 42:1 66:1 72:1 73:1 190:1 237:1 248:1 252:1 266:1 281:1 315:1 325:2 343:1 414:1 444:1 486:1 487:1 488:1 494:1 505:1 570:2 598:1 649:1 656:1 661:1 687:1 705:1 725:1 775:1 787:1 788:1 829:1 898:1 946:1 967:1 1011:1 1030:1 1160:1 1172:1 1215:1 1314:1 1439:1 1468:1 1485:1 1732:1 1890:1 1904:1 1962:1 2066:1 2229:1 2267:1 2268:1 2269:1 2276:1 2438:1 2534:1 2788:1 2934:1 2941:1 3508:1 3561:1 3602:1 3832:1 3973:1 4079:1 4200:1 4322:1 4542:1 4918:1 4999:1 5265:1 5519:1 6489:1 8067:1 #
-0.0016623038050473499215031747411331 4:3 35:2 36:1 38:1 39:1 42:1 48:1 66:2 71:1 72:1 74:1 77:1 84:1 85:1 92:1 98:1 101:1 104:1 105:1 106:1 113:1 118:1 128:2 156:1 167:1 178:1 201:1 204:1 206:1 242:3 255:1 256:1 258:1 263:1 264:1 266:1 269:1 270:1 284:1 285:1 293:2 294:1 297:1 318:1 326:1 331:1 342:1 362:1 383:2 408:1 420:1 436:1 485:1 487:1 488:1 510:1 512:2 514:1 515:1 522:1 538:1 539:2 570:1 580:2 588:1 597:1 646:1 661:1 662:1 683:1 689:1 691:1 709:1 720:1 752:1 754:1 755:1 759:1 778:1 784:1 830:1 837:1 848:1 862:1 863:1 898:1 922:1 958:1 1011:1 1023:1 1029:1 1030:1 1052:1 1055:1 1057:1 1119:1 1188:1 1245:1 1247:1 1305:1 1318:1 1341:1 1409:1 1413:1 1436:1 1437:1 1504:1 1513:1 1528:1 1585:1 1613:1 1639:1 1655:1 1656:1 1685:1 1695:1 1728:1 1732:1 1762:1 1786:2 1787:2 1800:1 1826:1 1865:1 1894:2 1960:1 2030:1 2046:1 2182:1 2217:1 2237:1 2247:1 2250:1 2301:1 2302:1 2333:1 2343:1 2362:1 2450:1 2579:1 2685:1 2709:1 2758:1 2788:1 2810:1 2813:1 2827:2 2839:1 2864:1 2882:1 2927:1 2977:1 3059:1 3153:1 3165:1 3168:1 3260:1 3300:1 3397:1 3760:1 3761:1 3779:1 4120:1 4142:2 4211:1 4245:1 4369:1 4430:1 4440:1 4456:1 4509:1 4545:1 4802:1 4837:1 4982:1 5044:1 5110:1 5255:1 5356:1 5519:1 5621:1 6115:1 6304:1 6309:1 7181:1 7918:1 7919:1 7920:1 7921:1 7922:1 #
-0.011197253932219593947072766582096 11:1 21:1 40:1 42:2 56:1 62:1 66:1 72:1 84:1 85:1 104:1 116:1 124:1 131:1 141:1 156:1 178:1 182:2 190:2 256:1 275:1 308:4 318:1 322:1 323:1 326:1 349:1 350:1 363:1 367:1 390:1 401:1 439:1 474:1 544:1 580:1 612:1 637:1 665:1 676:1 677:1 700:1 744:1 752:1 805:1 807:1 853:1 895:1 917:1 924:2 1003:1 1077:1 1194:1 1239:1 1270:1 1303:1 1304:1 1321:1 1381:1 1439:1 1461:1 1566:1 1585:1 1692:1 1703:1 1709:1 1733:1 1734:1 1821:1 1945:1 2288:1 2347:1 2351:1 2392:1 2444:1 2453:1 2599:1 2768:1 3227:1 3323:1 3327:1 3356:1 3400:1 4222:1 4303:1 4357:1 4368:1 4374:1 4474:1 4499:1 4519:1 4891:1 5195:2 5974:1 5987:1 6219:1 6256:1 6257:1 6762:1 6875:1 8425:1 #
0.0028618212075377015037036532163484 18:2 26:2 33:1 41:1 43:1 56:1 58:2 74:1 91:1 92:1 93:2 94:1 100:1 112:1 121:1 128:1 139:3 141:1 156:3 159:2 165:1 167:2 178:1 189:1 194:1 195:1 212:1 213:1 214:1 242:2 258:2 266:1 287:1 289:1 312:1 313:1 323:1 325:1 339:1 358:1 365:1 394:1 414:1 468:1 494:1 497:1 505:1 531:1 558:1 570:1 571:1 577:2 678:1 679:1 700:1 709:1 714:1 715:1 725:2 727:1 730:1 734:1 748:1 752:1 832:1 837:1 848:1 853:2 859:1 880:1 901:1 902:1 914:1 922:1 949:1 966:1 986:1 1041:1 1042:1 1059:1 1065:1 1077:1 1084:2 1099:1 1122:1 1170:1 1196:1 1197:1 1224:1 1237:1 1290:1 1337:1 1338:1 1348:1 1369:1 1371:1 1372:1 1390:1 1408:1 1430:1 1441:1 1442:1 1451:1 1452:1 1471:1 1477:1 1537:1 1542:1 1602:1 1605:1 1611:1 1628:1 1643:1 1728:1 1762:1 1793:1 1800:2 1908:1 2008:1 2016:1 2110:1 2115:1 2127:1 2204:1 2255:1 2344:1 2361:1 2394:1 2404:1 2434:1 2435:1 2469:1 2491:1 2534:1 2601:1 2603:1 2634:1 2701:2 2744:1 2965:1 2971:1 2987:1 3019:1 3045:1 3062:1 3080:1 3268:1 3384:1 3396:1 3455:1 3476:1 3550:1 3575:1 3651:1 3690:1 3767:1 3971:1 4050:1 4092:1 4097:1 4098:1 4155:1 4437:1 4479:1 4554:1 4678:1 4804:1 4831:1 4860:1 4889:1 5010:1 5106:1 5124:1 5183:1 5269:1 5335:1 5336:1 5337:1 5338:1 5339:1 5340:1 5341:1 5342:1 5343:1 5344:1 5345:1 5346:1 5347:1 5348:1 5349:1 5350:2 5351:1 5352:1 5353:1 5354:1 5355:1 5356:1 5357:1 5358:1 5359:1 5360:1 5361:1 #
0.031798858654518612210093664316446 4:2 17:1 26:1 42:2 47:1 48:1 58:2 66:1 72:1 84:1 85:1 242:2 244:1 263:1 264:1 318:1 332:1 369:1 414:1 427:1 452:1 460:1 517:1 522:1 524:1 525:1 618:1 823:1 837:1 907:1 908:1 946:1 975:1 976:1 980:1 998:1 1002:1 1012:1 1023:1 1057:1 1058:1 1064:1 1085:1 1086:1 1175:1 1178:1 1251:1 1407:1 1468:1 1505:1 1655:1 1703:1 1709:1 1710:1 1721:1 1828:1 1888:1 2000:1 2086:1 2217:1 2296:1 2480:1 2522:1 2580:1 2590:1 2607:1 2679:1 2717:1 2839:1 3063:1 3371:1 3717:1 3846:1 4232:1 4394:1 4535:1 4581:1 4908:1 5754:1 5869:1 6436:1 7312:1 8101:1 8945:1 9522:1 #
0.029252440137942634090784110867389 4:1 24:1 40:1 71:1 72:1 77:1 84:1 85:1 194:1 212:1 242:1 272:1 281:1 291:1 293:1 317:1 334:1 342:1 383:1 448:1 505:1 517:1 539:1 615:1 674:1 689:1 705:1 712:1 714:1 729:1 754:1 755:1 799:2 807:1 815:1 817:1 859:1 894:1 895:1 995:1 1058:1 1070:1 1180:1 1254:1 1275:1 1326:1 1331:1 1381:1 1441:1 1442:1 1462:1 1466:1 1512:1 1653:1 1707:1 1787:1 1794:1 1797:1 1882:2 1898:1 1967:1 2325:1 2333:1 2358:1 2420:1 2427:1 2628:1 2758:1 2906:1 2931:1 2938:1 2960:1 3300:1 3451:1 3623:1 4119:1 4588:1 4822:1 5312:1 5329:1 9172:1 #
-0.00050906574760879036434246813769278 11:1 14:1 17:1 19:1 21:1 29:1 37:1 40:1 42:1 48:1 49:1 63:1 66:2 67:1 72:1 84:1 85:1 93:1 98:2 99:1 100:1 111:1 116:1 129:1 139:1 151:1 170:1 182:1 198:1 223:1 224:2 225:1 227:1 253:1 258:1 260:1 266:1 278:1 297:1 312:1 317:1 324:1 332:1 348:2 358:1 383:1 388:1 413:1 422:1 434:1 452:1 458:1 459:1 467:2 503:1 510:1 511:1 514:1 525:1 530:1 538:1 539:1 542:1 568:1 569:1 570:1 571:1 580:2 607:1 617:1 620:1 629:1 637:1 656:1 682:1 683:1 702:1 723:1 755:1 759:1 765:1 807:1 808:2 812:1 828:1 829:1 836:1 844:1 853:1 892:1 900:1 902:1 912:1 916:1 918:1 926:2 939:1 945:1 946:1 970:2 976:1 1023:1 1039:1 1045:1 1058:1 1065:1 1074:1 1077:1 1080:1 1114:1 1128:1 1144:1 1158:1 1164:1 1179:1 1209:1 1210:1 1217:2 1253:1 1266:1 1341:1 1347:1 1385:1 1396:1 1408:2 1414:1 1436:1 1447:1 1457:1 1468:1 1485:1 1520:1 1522:3 1524:1 1528:2 1535:1 1537:1 1590:1 1600:1 1606:1 1631:1 1639:1 1720:1 1721:1 1733:1 1736:1 1774:1 1793:1 1829:1 1841:2 1842:2 1851:1 1875:1 1883:1 1900:1 1977:1 2008:1 2044:1 2049:1 2070:1 2071:1 2086:1 2137:2 2168:1 2180:1 2201:1 2216:1 2228:1 2302:1 2307:1 2322:1 2346:1 2393:1 2427:1 2457:1 2464:1 2510:1 2534:1 2549:1 2597:1 2607:1 2643:1 2734:1 2768:1 2777:1 2783:1 2784:1 2985:2 2987:1 3017:1 3119:1 3156:1 3221:1 3422:1 3476:1 3508:1 3548:1 3623:1 3625:1 3696:1 3734:1 3760:1 3765:1 3797:1 3823:1 3849:1 3857:1 3917:1 3923:1 3997:1 4001:1 4006:1 4101:1 4107:1 4143:1 4203:1 4284:1 4428:1 4574:1 4792:1 4856:1 4986:1 5376:1 5377:2 5378:1 5379:1 5380:1 5381:1 5382:2 5383:1 5384:1 5385:1 5386:1 5387:1 5388:1 5389:1 5390:1 5391:1 5392:1 5393:1 5394:1 5395:1 5396:1 5397:1 5398:1 5399:1 5400:1 5401:1 5402:1 5403:1 5404:1 5405:1 5406:1 5407:1 5408:1 5409:2 5410:1 5411:1 5412:1 5413:1 5414:1 5415:1 5416:1 5417:1 5418:1 5419:1 5420:1 5421:3 5422:1 5423:2 5424:2 5425:1 5426:2 5427:1 5428:2 5429:1 5430:1 5431:2 5432:1 5433:1 5434:2 5435:1 5436:1 5437:1 5438:1 5439:2 5440:1 5441:1 5442:1 5443:1 5444:1 5445:1 5446:1 5447:1 5448:1 5449:1 5450:1 5451:1 5452:1 5453:1 5454:1 5455:1 5456:1 5457:1 5458:1 5459:1 5460:1 5461:1 #
0.00049029007191951894800707734134448 3:1 4:1 5:1 6:1 7:1 11:1 12:1 17:1 24:1 32:2 33:2 35:1 49:1 58:1 59:1 63:2 66:1 71:1 72:1 75:1 84:1 85:1 87:1 93:1 110:3 111:1 155:1 156:1 163:1 173:1 178:1 197:1 226:1 227:1 238:1 242:1 249:1 255:1 256:1 266:2 281:1 287:1 308:1 315:1 316:2 320:1 330:1 342:1 348:1 358:1 385:1 414:1 435:1 452:1 458:1 475:2 540:1 542:1 570:1 631:1 656:1 658:1 752:1 780:1 816:1 899:1 911:1 930:1 947:1 949:1 965:1 997:1 1010:1 1044:1 1077:1 1086:1 1114:1 1119:2 1158:1 1193:1 1214:1 1308:1 1347:1 1378:1 1430:1 1456:1 1541:1 1607:1 1631:2 1768:1 1808:1 1846:1 1901:1 2000:1 2049:2 2123:1 2124:1 2125:1 2126:1 2127:1 2128:1 2129:1 2130:1 2131:1 2132:1 2133:1 2134:1 2135:1 2136:1 2137:1 2138:1 2139:1 2140:1 2141:1 2142:1 2143:1 2144:1 2145:1 2146:1 2147:1 2148:1 2149:1 2150:1 2151:1 2152:1 2153:1 2154:1 2155:1 2156:1 2157:1 2158:2 2159:1 2160:1 2161:1 2162:1 2163:1 2164:1 #
-0.0010857283847195144891456530800156 4:1 29:1 30:1 42:2 43:1 47:3 48:2 54:1 57:1 66:3 77:1 95:1 96:1 101:2 139:1 150:1 167:1 190:1 242:1 266:3 296:1 297:1 300:1 306:1 316:1 318:1 325:1 347:1 349:1 350:1 383:1 436:1 437:1 444:1 475:1 503:1 505:2 513:1 516:1 570:1 580:1 586:1 588:1 603:1 604:1 617:1 637:1 649:1 656:1 703:1 765:1 784:1 787:2 788:2 840:1 848:1 877:1 895:1 915:1 918:1 946:1 964:1 976:1 986:1 1030:1 1032:1 1070:1 1072:1 1157:1 1165:1 1230:1 1249:1 1263:1 1314:1 1349:1 1356:1 1388:1 1410:1 1431:1 1452:1 1468:2 1471:1 1503:1 1555:1 1571:1 1605:1 1607:1 1697:1 1721:1 1728:1 1731:1 1740:1 1741:1 1762:1 1816:2 1826:1 1841:1 1868:1 1922:1 1952:1 1985:1 2008:1 2060:1 2066:1 2086:1 2092:1 2093:1 2115:1 2143:1 2242:1 2255:1 2333:1 2335:1 2422:1 2458:1 2460:2 2601:1 2603:1 2617:1 2626:1 2653:1 2676:1 2681:1 2769:1 2862:1 2894:1 3063:1 3239:1 3353:1 3361:1 3541:1 3603:1 3669:1 3693:1 3745:1 4144:1 4145:1 4236:1 4523:1 4745:1 4750:1 4969:1 5253:1 6052:1 6598:1 7761:1 8391:1 8841:1 8842:1 #
-0.006342507246499924471183629037796 2:1 4:2 5:1 6:1 7:1 18:1 24:1 29:2 30:1 35:1 42:1 58:2 59:1 60:1 61:1 66:2 73:1 121:1 127:1 130:1 131:1 140:1 155:1 189:1 206:1 208:1 227:1 231:1 242:2 258:1 266:2 273:1 274:1 281:1 318:1 322:1 333:1 349:1 351:1 362:1 383:1 388:1 399:1 405:1 412:1 432:1 436:1 437:1 444:1 448:2 478:1 485:1 487:2 488:1 496:1 530:1 541:1 558:1 587:2 671:1 674:1 689:1 694:1 703:1 704:1 708:1 711:1 723:1 738:1 747:1 773:1 782:1 796:1 797:1 815:1 821:2 865:1 895:1 931:1 941:1 949:1 960:1 965:1 970:1 984:1 1028:1 1030:1 1035:1 1081:1 1115:1 1196:1 1307:1 1326:1 1390:1 1408:1 1432:1 1446:1 1462:1 1471:1 1509:1 1513:1 1538:1 1591:1 1666:1 1720:1 1722:1 1732:1 1750:1 1763:1 1777:1 1829:1 1855:1 1889:1 1904:1 1914:2 1940:1 1952:1 2012:1 2082:1 2083:1 2169:1 2213:1 2281:1 2453:1 2509:1 2518:1 2519:2 2526:1 2599:1 2606:1 2634:1 2648:1 2706:1 2723:1 2758:1 2765:1 2787:1 2802:1 2809:1 2812:1 2816:1 2825:1 2826:1 2861:1 2876:1 3006:1 3132:1 3196:1 3227:1 3410:1 3446:1 3508:1 3903:1 3918:1 3955:1 4078:1 4149:1 4175:1 4190:1 4196:1 4227:1 4888:1 5245:1 5260:1 5313:1 5314:1 5315:1 5316:1 5317:1 5318:1 5319:1 5320:1 #
0.0047464487699775733536844413151812 4:1 17:1 18:1 19:1 35:3 36:1 42:1 43:1 63:1 64:1 66:2 93:1 150:1 155:1 187:1 194:1 200:1 224:1 229:1 242:1 250:1 266:1 302:1 312:1 318:1 330:1 349:1 422:1 436:1 437:1 458:1 497:1 511:1 539:2 559:1 568:1 570:1 580:1 588:1 608:1 634:1 658:1 669:1 693:1 727:1 736:1 750:1 762:1 808:2 815:1 836:1 848:1 1042:1 1070:1 1164:1 1182:1 1213:1 1324:1 1330:1 1343:2 1352:1 1400:1 1535:1 1687:1 1697:1 1732:1 1774:1 1831:1 1925:1 2048:1 2049:1 2056:1 2093:1 2123:1 2356:1 2373:1 2453:1 2596:1 2637:1 3067:1 3345:1 3361:1 3393:1 3516:1 3561:1 3715:1 3765:1 4098:1 4294:1 4308:1 4479:1 4499:1 4620:1 5071:1 5625:1 5626:1 5627:1 5628:1 5629:1 5630:1 5631:1 #
-0.0017918977779521510270560602506862 4:2 6:1 7:1 18:1 21:1 24:1 26:1 29:1 30:1 32:1 33:1 35:1 39:2 40:1 41:1 42:3 58:2 59:1 66:1 69:1 72:2 73:1 84:2 85:1 88:1 98:2 110:1 111:3 112:1 113:1 139:1 157:1 168:1 171:1 182:1 195:1 206:1 219:1 242:2 258:1 266:1 275:1 277:1 293:2 294:1 300:2 309:3 317:1 318:1 328:1 339:1 342:1 348:1 353:1 394:1 411:1 412:1 436:1 437:1 439:1 444:1 470:1 494:1 495:1 496:1 503:3 505:3 533:1 535:1 536:1 544:1 548:1 553:2 563:1 580:1 586:1 589:1 601:2 608:1 625:1 637:1 646:1 651:1 655:1 658:1 678:1 689:2 696:1 702:2 711:1 715:1 748:1 749:1 752:1 759:2 760:1 778:3 784:1 799:1 810:1 845:1 846:1 880:1 896:1 907:1 908:1 920:1 946:2 967:1 969:1 970:1 971:1 975:1 988:1 1027:1 1131:1 1150:1 1157:1 1178:1 1179:2 1242:1 1246:1 1274:1 1295:1 1309:2 1318:1 1321:1 1404:1 1411:1 1426:1 1430:1 1432:1 1446:1 1451:1 1452:1 1495:1 1504:1 1513:1 1531:1 1576:1 1614:1 1694:1 1707:1 1717:1 1733:1 1742:1 1761:1 1821:1 1871:1 1904:1 1914:2 1918:1 1987:1 2086:1 2091:1 2099:1 2106:1 2149:1 2219:1 2220:1 2278:1 2337:1 2491:1 2495:1 2541:1 2681:1 2723:1 2725:1 2753:1 2761:1 2854:2 2874:1 2931:1 2936:1 2957:1 2987:1 3077:1 3161:1 3171:1 3191:1 3205:1 3286:1 3308:1 3374:2 3382:1 3392:1 3482:1 3504:1 3539:1 3575:1 3598:1 3715:1 3763:1 3822:1 3911:1 3963:1 3980:1 4057:1 4224:1 4983:1 5124:1 5208:1 5599:1 5781:1 5882:1 5883:1 5884:1 5885:1 5886:1 5887:1 5888:1 5889:1 5890:1 #
0.0058463063872736921802730769570644 2:1 4:2 11:1 32:1 33:2 40:1 45:1 48:1 64:1 67:1 71:1 72:1 73:1 82:1 84:1 85:1 93:1 98:1 101:1 104:1 105:1 106:1 116:1 124:2 141:1 178:1 192:1 198:1 212:1 220:1 223:3 224:1 231:1 242:1 249:1 252:1 258:1 261:1 264:1 265:1 266:2 287:1 288:1 298:1 312:1 318:1 320:1 334:1 344:1 369:1 406:1 425:1 426:4 434:1 487:2 494:1 501:1 505:1 512:1 546:1 547:2 548:1 558:1 568:1 577:1 590:1 593:1 640:1 642:1 646:1 658:2 680:1 687:1 722:1 723:1 738:1 795:2 824:1 831:1 832:1 837:1 855:1 903:1 941:1 967:1 997:1 1012:1 1030:1 1175:1 1191:1 1204:1 1206:1 1439:1 1442:1 1497:1 1562:1 1570:2 1615:1 1719:1 1765:1 1820:1 1869:1 1880:1 1904:1 1935:1 1952:1 2000:1 2012:1 2019:1 2091:1 2098:1 2130:1 2161:1 2261:1 2366:1 2406:1 2431:1 2460:1 2549:1 2594:1 2635:1 2726:1 2727:1 2769:1 2770:1 2771:1 2787:1 2807:1 2824:1 2842:1 2933:1 2963:1 2965:1 3026:1 3033:1 3035:1 3204:1 3205:1 3248:1 3287:1 3296:1 3481:1 3583:1 3609:1 3853:1 3873:1 3912:1 4100:1 4213:1 4483:1 4744:1 4855:1 4864:1 5079:1 5131:1 5231:1 5586:1 6091:1 6101:1 6606:1 6705:1 7049:1 7382:1 7383:1 7384:1 7385:1 7386:1 7387:1 #
0.009235718309340975110122151647829 4:2 11:1 17:1 19:1 29:1 42:3 63:1 65:1 101:1 128:1 155:1 156:1 208:1 237:1 238:1 240:1 242:1 258:1 266:1 281:1 316:1 428:1 436:2 437:1 475:1 481:1 486:1 487:1 488:1 505:1 721:1 732:1 788:1 799:1 808:1 839:1 840:1 917:1 970:1 997:1 1044:1 1077:1 1164:1 1194:1 1225:1 1270:1 1288:1 1327:1 1372:1 1381:1 1410:1 1426:1 1482:1 1495:1 1509:1 1533:1 1537:1 1545:1 1615:1 1707:1 1743:1 1774:1 1779:1 1846:1 1871:1 2049:1 2079:1 2198:1 2216:1 2264:1 2288:1 2496:1 2592:1 2749:1 2925:1 3030:1 3038:1 3178:1 3435:1 3493:1 3765:1 3926:1 4108:1 4867:1 5152:1 5454:1 5859:1 6883:1 7810:1 8159:1 8163:1 #
0.0046863405119057753578371006142333 2:1 37:1 42:1 45:1 66:2 71:1 74:1 90:1 91:1 92:1 98:1 99:1 110:1 111:1 118:1 150:1 156:2 165:1 173:1 182:1 191:1 239:1 247:1 256:2 258:2 268:1 274:1 309:1 374:1 384:1 388:1 413:1 420:1 426:1 456:1 487:1 526:1 571:1 581:1 593:2 594:1 656:1 702:1 711:1 712:1 720:1 759:1 778:2 796:1 808:1 853:2 860:1 983:1 989:1 1034:1 1056:1 1058:1 1060:1 1178:1 1207:1 1253:1 1266:1 1304:1 1340:1 1341:1 1374:1 1390:1 1403:1 1407:1 1431:1 1439:1 1441:1 1450:1 1639:1 1708:1 1761:1 1821:1 1849:1 1990:1 2058:1 2197:1 2248:1 2250:1 2255:1 2258:1 2276:1 2285:1 2306:1 2316:1 2329:1 2362:1 2431:1 2469:1 2479:1 2668:1 2669:1 2686:1 2701:1 2720:1 3019:1 3112:1 3145:1 3239:1 3353:1 3473:1 3599:1 3680:1 4050:1 4120:1 4149:1 4377:1 4663:1 4678:1 4679:1 4711:1 4763:1 4799:1 4828:1 4998:1 5079:1 5180:1 6349:1 6625:1 6638:1 6639:1 6640:1 6641:1 6642:1 6643:1 6644:1 6645:1 6646:1 #
-0.011669246929419549441142578416475 28:1 32:1 33:1 66:1 104:1 108:1 118:1 178:1 224:1 264:1 266:1 298:1 317:1 318:1 436:1 447:1 460:1 461:1 481:1 505:1 509:1 525:1 550:1 580:1 657:1 680:1 759:1 859:1 863:1 880:1 898:1 975:1 1058:2 1327:1 1361:1 1376:1 1403:1 1421:1 1527:1 1540:1 1542:1 1590:1 1629:1 1655:1 1685:1 1708:1 1761:1 1788:1 1869:1 1898:1 1915:1 1922:1 1929:1 1985:1 2010:1 2349:1 2350:1 2431:1 2524:2 2601:1 2768:1 2788:1 2812:1 2834:1 2864:1 3265:1 3268:1 3846:1 3917:1 4142:1 4499:1 4590:1 4699:1 4942:1 5088:1 5608:1 5782:1 5909:1 5924:1 7375:1 7376:1 #
