SVM-light Version V6.02
0 # kernel type
3 # kernel parameter -d 
1 # kernel parameter -g 
1 # kernel parameter -s 
1 # kernel parameter -r 
empty# kernel parameter -u 
32 # highest feature index 
1124 # number of training documents 
960 # number of support vectors plus 1 
0.88393165 # threshold b, each following line is a SV (starting with alpha*y)
-0.00038832790192473498136829790361446 1:1 2:6 3:93 5:8 6:15 7:1 8:4 9:2 10:7 11:3 12:2 15:1 16:2 20:1 21:1 22:1 #
0.00038832790192473498136829790361446 2:5 3:38 4:1 5:6 6:8 7:1 9:3 10:5 15:1 19:1 #
-0.00038832790192473498136829790361446 2:2 3:9 5:1 6:1 14:1 17:1 18:1 #
-0.00038832790192473498136829790361446 1:1 2:4 3:43 4:1 5:3 6:3 9:2 10:3 11:1 15:5 20:1 #
-0.00038832790192473498136829790361446 1:1 2:4 3:34 4:1 5:2 6:3 8:1 10:3 15:1 18:1 #
0.00038832790192473498136829790361446 2:2 3:10 5:1 6:1 9:1 15:1 19:1 #
-0.00038832790192473498136829790361446 1:1 2:10 3:133 4:1 5:12 6:22 8:1 9:14 10:5 11:4 15:1 16:2 18:5 22:1 #
0.00038832790192473498136829790361446 2:6 3:52 4:1 5:1 6:4 8:6 9:1 10:8 11:1 23:1 #
-0.00038832790192473498136829790361446 3:10 5:1 6:2 14:1 #
0.00038832790192473498136829790361446 2:5 3:55 4:2 5:4 6:14 7:1 9:1 10:4 12:1 17:2 18:6 23:1 27:1 #
-0.00038832790192473498136829790361446 1:1 2:21 3:178 4:2 5:21 6:20 8:9 9:3 10:18 11:8 15:7 18:2 #
0.00038832790192473498136829790361446 2:3 3:11 4:1 5:1 6:3 9:1 19:1 #
-0.00038832790192473498136829790361446 1:1 2:9 3:173 4:6 5:15 6:14 8:7 9:8 10:24 11:2 12:3 15:2 18:14 #
0.00038832790192473498136829790361446 3:15 5:4 6:1 9:1 10:3 11:1 23:1 #
-0.00038832790192473498136829790361446 2:4 3:39 4:1 6:5 9:2 10:4 14:1 #
0.00038832790192473498136829790361446 2:17 3:173 4:6 5:12 6:21 8:6 9:15 10:17 11:2 12:1 15:4 16:2 18:2 20:2 23:1 26:1 #
-0.00038832790192473498136829790361446 1:1 2:20 3:156 4:4 5:10 6:13 8:4 9:12 10:8 11:2 18:2 #
-0.00038832790192473498136829790361446 3:11 6:4 9:2 10:2 14:1 16:1 #
0.00038832790192473498136829790361446 2:10 3:166 4:4 5:9 6:22 7:2 8:2 9:8 10:6 11:1 15:1 16:1 18:2 19:1 20:3 25:1 26:1 #
0.00038832790192473498136829790361446 2:2 3:15 6:2 10:4 16:1 19:1 20:1 #
-0.00038832790192473498136829790361446 2:5 3:36 5:1 6:13 7:1 9:6 10:2 14:1 15:1 17:1 #
0.00038832790192473498136829790361446 2:4 3:45 4:1 5:7 6:9 8:2 9:3 10:9 15:1 17:1 18:2 23:1 29:1 #
0.00038832790192473498136829790361446 2:1 3:11 5:1 6:1 9:5 11:1 15:1 18:1 19:1 #
0.00038832790192473498136829790361446 2:9 3:124 4:4 5:14 6:9 8:5 9:3 10:11 11:2 15:2 17:4 18:3 23:1 25:1 #
-0.00038832790192473498136829790361446 1:1 2:9 3:149 4:3 5:5 6:15 7:3 8:1 9:7 10:10 11:1 15:1 17:4 18:3 22:2 #
-0.00038832790192473498136829790361446 2:3 3:42 4:1 5:1 6:10 7:2 9:4 10:1 14:1 15:1 #
0.00038832790192473498136829790361446 2:2 3:13 5:1 6:4 9:1 10:1 11:1 23:1 #
0.00038832790192473498136829790361446 2:17 3:152 4:1 5:10 6:29 8:4 9:11 10:10 11:7 12:2 15:3 16:1 17:3 18:2 23:1 #
0.00038832790192473498136829790361446 2:9 3:117 4:4 5:10 6:11 8:3 9:8 10:6 11:5 18:4 23:1 #
-0.00038832790192473498136829790361446 2:6 3:107 4:2 5:3 6:7 7:2 9:8 10:3 11:1 14:1 15:1 16:5 18:1 #
-0.00038832790192473498136829790361446 1:1 2:10 3:136 4:2 5:10 6:27 7:3 8:1 9:5 10:10 11:4 15:1 16:1 17:1 18:1 #
0.00038832790192473498136829790361446 2:1 3:15 5:2 6:1 10:1 19:1 #
0.00038832790192473498136829790361446 2:11 3:152 4:1 5:9 6:20 7:5 8:5 9:9 10:12 11:2 15:1 16:1 18:6 20:1 23:1 #
-0.00038832790192473498136829790361446 1:1 2:17 3:116 4:3 5:10 6:20 7:1 8:2 9:7 10:5 11:3 12:3 15:4 16:1 18:3 20:1 #
-0.00038832790192473498136829790361446 2:18 3:121 4:1 5:5 6:19 7:1 8:7 9:15 10:6 11:3 14:1 15:4 24:2 26:1 28:1 #
0.00038832790192473498136829790361446 2:14 3:121 4:2 5:4 6:11 8:1 9:2 10:9 11:1 15:6 18:4 23:1 24:1 26:1 #
-0.00038832790192473498136829790361446 2:6 3:115 5:8 6:9 7:1 8:5 9:8 10:6 14:1 15:1 20:1 #
0.00038832790192473498136829790361446 2:8 3:135 4:5 5:3 6:14 8:3 9:13 10:5 11:3 15:1 16:2 18:1 21:1 23:1 #
0.00038832790192473498136829790361446 2:4 3:15 5:3 6:2 9:1 16:1 18:1 19:1 #
-0.00038832790192473498136829790361446 1:1 2:11 3:115 4:3 5:6 6:9 7:1 8:3 9:4 10:5 11:2 15:1 18:1 24:1 #
0.00038832790192473498136829790361446 2:4 3:144 4:3 5:7 6:16 8:2 9:8 10:6 15:2 16:1 18:4 20:1 23:1 29:1 #
-0.00038832790192473498136829790361446 1:1 2:8 3:121 4:1 5:10 6:10 7:1 8:1 9:4 10:7 11:4 15:1 16:2 18:5 20:1 24:2 26:1 #
0.00038832790192473498136829790361446 2:8 3:131 4:3 5:8 6:8 8:6 9:3 10:7 11:2 12:2 15:2 16:1 18:1 22:1 23:1 #
-0.00038832790192473498136829790361446 1:1 2:4 3:122 4:2 5:7 6:8 8:1 9:6 10:15 11:1 15:1 16:1 18:2 20:1 #
0.00038832790192473498136829790361446 2:16 3:123 4:4 5:10 6:13 7:2 8:6 9:10 10:7 11:3 15:3 17:1 18:2 20:1 22:1 23:1 #
0.00038832790192473498136829790361446 2:1 3:58 5:2 6:1 9:4 10:6 19:1 #
-0.00038832790192473498136829790361446 1:1 2:5 3:46 4:1 5:3 6:3 8:1 9:3 10:4 11:1 16:1 #
-0.00038832790192473498136829790361446 1:1 2:8 3:130 4:4 5:4 6:8 7:3 8:2 9:3 10:5 11:2 12:2 15:1 17:2 18:1 20:2 #
0.00038832790192473498136829790361446 2:10 3:111 4:5 5:10 6:12 8:3 9:11 10:17 11:2 15:2 17:4 18:3 20:1 22:1 23:1 #
0.00038832790192473498136829790361446 2:13 3:134 5:9 6:20 7:1 8:3 9:9 10:5 11:2 12:1 15:1 17:1 18:2 19:1 20:1 #
-0.00038832790192473498136829790361446 1:1 2:12 3:124 4:3 5:9 6:11 8:1 9:13 10:14 11:2 15:1 16:1 18:4 21:1 24:1 #
0.00038832790192473498136829790361446 2:8 3:116 5:8 6:6 9:4 10:3 16:2 23:1 #
-0.00038832790192473498136829790361446 1:1 2:11 3:51 4:3 5:4 6:10 8:4 10:8 11:3 15:2 18:3 24:2 #
0.00038832790192473498136829790361446 2:10 3:126 4:2 5:10 6:8 7:1 8:2 9:7 10:6 11:4 15:1 16:2 18:6 23:1 24:1 #
-0.00038832790192473498136829790361446 1:1 2:4 3:39 4:3 5:3 6:1 8:1 10:2 11:3 15:1 18:1 20:2 31:1 #
0.00038832790192473498136829790361446 2:13 3:131 5:7 6:20 7:2 8:2 9:10 10:5 11:1 12:1 18:1 20:1 23:1 #
-0.00038832790192473498136829790361446 1:1 2:12 3:144 4:8 5:13 6:16 7:3 8:3 9:10 10:10 11:6 12:2 15:3 17:1 20:1 #
0.00038832790192473498136829790361446 2:5 3:29 4:1 6:1 8:2 9:2 10:2 11:1 15:2 23:1 #
-0.00038832790192473498136829790361446 2:5 3:55 4:3 5:4 6:6 7:2 9:1 10:3 12:1 14:1 16:1 24:1 #
0.00038832790192473498136829790361446 2:12 3:123 4:2 5:6 6:14 7:1 8:2 9:6 10:8 12:1 13:1 15:2 16:1 17:1 18:3 19:1 22:1 #
-0.00038832790192473498136829790361446 3:15 4:1 5:1 6:3 8:1 14:1 #
0.00038832790192473498136829790361446 2:10 3:95 4:1 5:4 6:7 7:1 8:1 9:1 10:8 11:1 18:1 19:1 #
-0.00038832790192473498136829790361446 2:10 3:109 4:2 5:5 6:10 9:3 10:9 11:1 12:2 14:1 15:2 18:3 22:1 #
-0.00038832790192473498136829790361446 2:3 3:28 5:1 6:10 8:2 9:1 14:1 #
-0.00038832790192473498136829790361446 1:1 2:4 3:50 5:3 6:13 7:1 8:4 9:2 10:1 15:1 16:1 18:2 #
0.00038832790192473498136829790361446 2:14 3:89 4:2 5:7 6:10 7:2 8:1 9:3 10:10 11:1 15:4 17:1 18:3 23:1 #
-0.00038832790192473498136829790361446 1:1 2:6 3:103 4:2 5:5 6:8 8:1 9:6 10:3 11:1 12:2 15:2 18:2 26:1 #
0.00038832790192473498136829790361446 2:1 3:13 6:3 11:1 12:1 15:1 22:1 23:1 #
-0.00038832790192473498136829790361446 1:1 2:1 3:11 4:1 5:1 6:1 15:2 22:1 #
0.00038832790192473498136829790361446 2:10 3:123 4:2 5:13 6:18 8:4 9:8 10:3 11:2 12:1 15:2 17:2 18:3 20:1 22:1 23:1 31:1 #
-0.00038832790192473498136829790361446 1:1 2:13 3:97 4:2 5:3 6:9 8:4 9:9 10:3 15:1 17:2 18:5 #
-0.00038832790192473498136829790361446 2:1 3:14 5:2 6:3 9:2 10:1 14:1 #
-0.00038832790192473498136829790361446 1:1 2:12 3:106 4:2 5:4 6:14 7:2 8:1 9:3 10:6 12:1 15:2 16:3 18:1 20:1 21:1 30:1 #
-0.00038832790192473498136829790361446 2:2 3:12 6:4 14:1 #
0.00038832790192473498136829790361446 2:5 3:114 4:1 5:4 6:9 7:2 8:1 9:6 10:7 11:2 17:1 18:5 20:1 22:3 23:1 #
-0.00038832790192473498136829790361446 2:7 3:62 5:8 6:8 7:1 9:12 10:1 11:1 12:1 14:1 16:4 18:2 20:1 #
-0.00038832790192473498136829790361446 1:1 2:3 3:56 4:1 5:5 6:11 7:3 8:1 9:6 10:1 11:1 16:1 18:1 #
0.00038832790192473498136829790361446 2:9 3:56 5:3 6:3 8:1 9:3 10:6 15:3 18:1 23:1 #
-0.00038832790192473498136829790361446 1:1 2:2 3:83 4:4 5:5 6:8 7:1 8:4 10:4 15:1 18:3 20:1 #
0.00038832790192473498136829790361446 2:11 3:86 4:4 5:3 6:13 7:1 8:2 9:8 10:12 13:1 15:4 16:1 23:1 26:1 #
0.00038832790192473498136829790361446 2:8 3:53 4:4 5:3 6:4 8:2 10:3 18:1 23:1 #
0.00038832790192473498136829790361446 2:6 3:111 4:1 5:3 6:11 8:2 9:2 10:1 16:1 18:1 20:1 23:1 #
-0.00038832790192473498136829790361446 1:1 2:8 3:102 4:4 5:7 6:13 8:4 9:7 10:14 11:5 12:1 15:2 17:1 18:1 20:1 22:1 25:1 #
-0.00038832790192473498136829790361446 1:1 2:7 3:93 5:7 6:14 8:3 9:2 10:9 12:1 15:2 18:4 22:1 #
0.00038832790192473498136829790361446 2:5 3:55 4:3 5:2 6:6 9:2 10:9 17:1 18:1 23:1 #
-0.00038832790192473498136829790361446 2:1 3:12 5:2 6:2 10:1 14:1 #
0.00038832790192473498136829790361446 2:11 3:102 4:1 5:4 6:16 7:2 8:5 9:6 10:11 11:3 15:2 17:1 18:2 21:1 23:1 24:1 26:1 #
-0.00038832790192473498136829790361446 1:1 2:15 3:102 5:6 6:8 7:1 8:8 9:10 10:15 12:3 15:4 18:3 25:1 #
-0.00038832790192473498136829790361446 1:1 2:11 3:102 4:1 5:4 6:4 7:1 8:1 9:5 10:5 12:1 15:4 18:4 20:1 24:1 #
0.00038832790192473498136829790361446 2:8 3:58 4:1 5:7 6:9 7:1 8:4 9:5 10:5 11:3 12:2 15:1 20:2 21:1 23:1 31:1 #
-0.00038832790192473498136829790361446 1:1 2:3 3:101 4:4 5:4 6:11 8:2 9:4 10:8 11:5 12:1 #
0.00038832790192473498136829790361446 2:4 3:59 4:1 5:4 6:1 9:3 10:6 18:1 19:1 #
-0.00038832790192473498136829790361446 2:1 3:22 4:1 5:2 6:5 9:1 14:1 18:1 22:1 #
0.00038832790192473498136829790361446 2:16 3:80 4:3 5:6 6:14 7:3 8:3 9:11 10:6 11:1 15:2 17:1 18:8 19:1 #
-0.00038832790192473498136829790361446 2:14 3:100 5:7 6:10 8:4 9:8 10:7 11:2 14:1 15:2 18:1 22:1 #
0.00038832790192473498136829790361446 2:7 3:59 4:1 5:2 6:6 9:3 10:3 15:2 16:1 17:2 18:1 23:1 #
-0.00038832790192473498136829790361446 2:1 3:12 4:1 6:2 9:1 11:1 14:1 15:1 #
0.00038832790192473498136829790361446 2:16 3:103 4:2 5:4 6:12 7:1 8:5 9:8 10:4 11:2 12:2 18:4 23:1 #
-0.00038832790192473498136829790361446 1:1 2:9 3:104 4:4 5:8 6:6 7:1 8:5 9:3 10:11 11:3 12:1 17:2 18:2 24:1 #
0.00038832790192473498136829790361446 2:7 3:60 5:2 6:6 8:2 10:5 11:1 15:1 18:6 19:1 20:1 #
-0.00038832790192473498136829790361446 2:8 3:89 4:2 5:5 6:7 8:2 9:4 10:6 11:1 12:2 14:1 15:2 16:1 17:3 18:6 24:2 #
0.00038832790192473498136829790361446 2:9 3:68 5:6 6:5 9:3 10:8 11:1 15:2 16:1 18:1 22:1 23:1 24:1 26:1 31:1 #
-0.00038832790192473498136829790361446 2:1 3:14 6:4 9:1 10:1 14:1 #
0.00038832790192473498136829790361446 2:11 3:102 4:1 5:4 6:16 7:2 8:5 9:6 10:11 11:3 15:2 17:1 18:2 21:1 23:1 24:1 26:1 #
0.00038832790192473498136829790361446 2:5 3:61 5:3 6:9 8:2 9:6 10:7 11:2 19:1 22:1 #
-0.00018164232636172505941374311078107 1:1 2:6 3:45 5:6 6:3 9:2 10:2 15:1 #
-0.00038832790192473498136829790361446 1:1 2:15 3:99 5:6 6:11 8:2 9:10 10:7 11:1 12:2 15:1 #
0.00038832790192473498136829790361446 2:8 3:64 4:2 5:6 6:8 7:1 8:4 9:2 10:4 11:2 12:1 16:3 18:1 19:1 #
-0.00038832790192473498136829790361446 2:4 3:41 5:1 6:4 7:1 9:2 10:2 14:1 #
0.00038832790192473498136829790361446 2:5 3:113 4:3 5:8 6:14 7:3 8:2 9:9 10:6 11:3 12:2 15:1 17:2 18:4 19:1 22:1 24:1 #
0.00038832790192473498136829790361446 2:8 3:62 4:2 5:4 6:9 8:3 9:3 10:8 11:1 18:4 20:1 22:1 23:1 #
-0.00038832790192473498136829790361446 1:1 2:8 3:96 4:2 5:7 6:10 8:4 9:2 10:5 11:6 17:1 22:1 #
0.00038832790192473498136829790361446 2:10 3:66 4:1 5:6 6:7 8:1 9:2 10:2 11:5 15:4 17:1 18:1 23:1 #
-0.00038832790192473498136829790361446 2:3 3:17 5:1 6:6 8:1 9:1 14:1 #
-0.00038832790192473498136829790361446 1:1 2:9 3:75 5:5 6:13 7:2 9:4 10:3 11:2 12:1 13:1 18:4 21:1 #
-0.00038832790192473498136829790361446 2:2 3:67 4:1 5:2 6:15 8:1 9:1 10:3 11:1 14:1 15:2 16:1 17:3 #
-0.00038832790192473498136829790361446 1:1 2:10 3:87 5:7 6:13 8:6 9:4 10:7 11:1 12:1 17:1 18:2 24:1 #
-0.00038832790192473498136829790361446 1:1 2:4 3:71 4:4 5:5 6:15 8:1 10:5 15:1 17:1 18:2 20:1 25:2 #
-0.00038832790192473498136829790361446 2:6 3:74 4:1 5:6 6:11 9:4 10:3 11:1 14:1 15:1 18:2 #
0.00038832790192473498136829790361446 2:6 3:73 4:1 5:4 6:4 7:4 8:1 10:3 11:2 12:1 15:2 19:1 #
0.00038832790192473498136829790361446 2:7 3:73 4:6 5:3 6:7 8:1 10:4 11:1 15:2 18:2 19:1 #
0.00038832790192473498136829790361446 2:9 3:72 5:1 6:4 8:1 9:6 11:2 18:1 19:1 #
0.00038832790192473498136829790361446 2:9 3:75 4:1 5:3 6:7 7:2 8:1 9:3 10:5 11:2 13:1 15:3 18:1 23:1 24:1 #
0.00038832790192473498136829790361446 2:9 3:76 4:1 5:7 6:7 8:3 9:2 10:9 11:1 12:2 18:2 23:1 24:2 #
-0.00038832790192473498136829790361446 1:1 2:6 3:32 5:3 6:2 7:1 10:1 12:1 17:1 18:4 #
0.00038832790192473498136829790361446 2:7 3:107 4:3 5:7 6:24 7:1 8:3 9:13 10:11 11:2 13:1 15:1 18:2 21:1 23:1 24:1 #
-0.00038832790192473498136829790361446 1:1 2:9 3:96 4:4 5:5 6:5 8:3 9:4 10:9 11:1 12:1 15:2 18:2 31:1 #
0.00038832790192473498136829790361446 2:2 3:64 4:1 5:4 6:5 7:2 8:1 10:5 18:1 23:1 #
-0.00038832790192473498136829790361446 2:6 3:96 4:4 5:5 6:3 7:1 9:4 10:4 11:3 14:1 16:1 #
0.00038832790192473498136829790361446 2:12 3:65 4:3 5:6 6:13 7:3 8:3 9:5 10:6 11:2 12:1 15:2 17:1 23:1 24:1 28:1 #
0.00038832790192473498136829790361446 2:5 3:74 5:5 6:3 8:1 10:4 11:2 16:4 18:3 19:1 20:1 22:2 24:1 #
-0.00038832790192473498136829790361446 1:1 2:7 3:87 5:1 6:12 8:3 9:2 10:7 11:1 15:1 18:3 21:1 #
0.00038832790192473498136829790361446 2:1 3:64 4:3 5:1 6:4 9:4 10:6 15:2 17:8 23:1 #
-0.00038832790192473498136829790361446 1:1 2:9 3:82 4:3 5:6 6:6 7:1 8:1 9:9 10:2 11:1 15:1 17:1 18:3 25:1 #
0.00038832790192473498136829790361446 2:11 3:67 4:1 5:2 6:11 7:1 9:1 10:2 11:2 15:1 16:1 18:1 23:1 #
-0.00038832790192473498136829790361446 2:9 3:95 5:3 6:10 8:2 9:6 10:8 11:1 12:2 14:1 20:3 #
-0.00038832790192473498136829790361446 1:1 2:4 3:85 4:1 5:4 6:10 8:3 9:2 10:10 15:1 18:2 20:1 #
-0.00038832790192473498136829790361446 1:1 2:5 3:65 5:8 6:8 7:2 8:2 9:3 10:4 11:3 15:1 17:2 18:3 26:2 #
-0.00038832790192473498136829790361446 2:12 3:82 4:2 5:3 6:8 7:1 8:2 9:4 10:2 13:1 14:1 15:1 17:4 18:2 20:1 21:1 22:1 26:1 #
-0.00038832790192473498136829790361446 1:1 2:5 3:92 4:2 5:4 6:8 7:4 9:1 10:4 12:1 15:1 17:1 22:1 24:1 25:1 #
-0.00038832790192473498136829790361446 1:1 2:5 3:78 4:2 5:1 6:8 8:1 9:4 10:2 11:1 15:1 17:2 18:3 26:1 27:1 30:1 32:3 #
0.00038832790192473498136829790361446 2:4 3:69 4:4 5:8 6:7 8:2 9:4 10:7 11:2 15:1 20:1 23:1 #
0.00038832790192473498136829790361446 2:10 3:67 4:1 5:9 6:6 8:2 9:4 10:4 15:1 16:1 18:2 19:1 #
0.00038832790192473498136829790361446 2:11 3:83 4:1 5:1 6:8 7:2 8:2 9:7 10:2 11:3 23:1 #
0.00038832790192473498136829790361446 2:5 3:65 4:3 5:6 6:9 8:1 9:4 10:2 20:3 23:1 #
0.00038832790192473498136829790361446 2:12 3:73 4:1 5:6 6:5 8:2 9:5 10:4 18:3 23:1 #
0.00038832790192473498136829790361446 2:2 3:56 5:5 6:8 9:4 16:1 18:3 20:1 23:1 #
-0.00038832790192473498136829790361446 1:1 2:11 3:50 5:6 6:8 7:1 8:1 9:3 10:2 11:1 15:2 16:1 17:1 18:4 #
0.00038832790192473498136829790361446 2:4 3:96 4:1 5:2 6:14 8:2 9:2 10:10 11:1 15:1 16:2 17:1 19:1 20:1 #
0.00038832790192473498136829790361446 2:11 3:65 4:2 5:6 6:14 7:2 8:2 10:8 18:2 23:1 #
-0.00038832790192473498136829790361446 1:1 2:13 3:87 5:10 6:13 7:1 8:1 9:7 10:6 11:5 15:1 17:3 20:2 24:1 26:2 #
-0.00038832790192473498136829790361446 1:1 2:12 3:89 4:3 5:2 6:11 7:1 8:4 9:5 10:14 11:4 12:1 15:3 18:4 22:1 #
-0.00038832790192473498136829790361446 1:1 2:8 3:84 4:5 5:7 6:9 7:1 8:2 9:4 10:5 15:2 18:2 #
-0.00038832790192473498136829790361446 2:5 3:27 5:1 6:6 9:2 10:2 14:1 15:1 20:1 #
0.00038832790192473498136829790361446 2:1 3:14 4:1 6:3 9:3 12:1 19:1 #
0.00038832790192473498136829790361446 2:4 3:103 4:3 5:2 6:4 8:8 9:3 10:3 11:1 15:1 17:2 18:3 22:1 23:1 #
-0.00038832790192473498136829790361446 1:1 2:6 3:94 4:3 5:5 6:6 7:1 10:11 11:1 18:1 #
0.00038832790192473498136829790361446 3:12 4:1 6:5 9:1 18:1 19:1 #
-0.00038832790192473498136829790361446 1:1 2:2 3:12 4:2 6:3 9:2 10:2 #
0.00038832790192473498136829790361446 2:9 3:104 4:3 5:8 6:12 8:1 9:3 10:4 11:2 15:2 18:3 23:1 24:1 25:1 26:1 #
-0.00038832790192473498136829790361446 1:1 2:11 3:89 4:1 5:3 6:10 7:1 9:9 10:9 11:2 15:1 18:1 #
0.00038832790192473498136829790361446 2:1 3:16 6:2 9:1 10:2 19:1 #
-0.00038832790192473498136829790361446 1:1 2:1 3:12 6:1 9:1 10:1 #
0.00038832790192473498136829790361446 2:2 3:74 4:1 5:7 6:8 8:3 9:3 10:6 11:1 18:5 20:1 23:1 #
-0.00038832790192473498136829790361446 2:6 3:87 5:4 6:11 8:1 9:4 10:5 11:2 12:2 14:1 15:1 16:2 24:1 #
0.00038832790192473498136829790361446 2:2 3:16 6:2 9:2 10:1 17:1 19:1 #
-0.00038832790192473498136829790361446 1:1 2:1 3:31 5:3 6:7 7:1 9:3 10:2 15:1 18:1 24:1 #
0.00038832790192473498136829790361446 2:10 3:87 4:1 5:4 6:10 8:2 9:2 10:7 11:2 15:1 17:3 20:1 23:1 #
0.00038832790192473498136829790361446 3:13 4:1 6:6 7:2 9:1 19:1 #
-0.00038832790192473498136829790361446 2:4 3:34 5:1 6:10 8:1 9:4 10:1 11:1 14:1 15:1 17:1 #
0.00038832790192473498136829790361446 2:2 3:16 6:3 9:1 16:2 19:1 #
-0.00038832790192473498136829790361446 1:1 2:1 3:31 5:4 6:8 8:1 9:1 10:1 #
-0.00038832790192473498136829790361446 2:1 3:32 4:2 5:1 6:6 7:1 9:4 10:1 12:1 13:1 14:1 16:1 18:1 #
-0.00038832790192473498136829790361446 2:3 3:32 5:3 6:7 9:2 14:1 15:1 18:1 #
-0.00038832790192473498136829790361446 2:2 3:31 4:2 5:2 6:6 9:5 10:1 14:1 #
0.00038832790192473498136829790361446 2:6 3:29 5:1 6:4 10:2 11:1 12:1 15:1 19:1 24:1 #
0.00038832790192473498136829790361446 2:4 3:24 6:1 7:1 15:1 19:1 20:2 24:1 #
0.00038832790192473498136829790361446 2:3 3:20 5:2 19:1 28:1 #
0.00038832790192473498136829790361446 2:3 3:24 4:1 6:2 9:1 10:2 19:1 #
0.00038832790192473498136829790361446 2:3 3:21 6:3 9:1 10:2 23:1 #
-0.00038832790192473498136829790361446 2:2 3:13 6:2 7:1 9:1 10:1 14:1 26:1 #
0.00038832790192473498136829790361446 2:9 3:107 4:3 5:9 6:25 8:2 9:11 10:4 11:2 12:1 16:2 17:3 18:1 23:1 26:2 32:1 #
-0.00038832790192473498136829790361446 1:1 2:3 3:33 4:1 6:6 8:1 9:1 10:1 17:1 18:2 30:2 #
0.00038832790192473498136829790361446 2:1 3:17 4:1 5:1 6:6 10:1 11:1 19:1 #
-0.00038832790192473498136829790361446 1:1 2:2 3:32 5:2 6:3 9:3 10:1 18:2 #
0.00038832790192473498136829790361446 2:1 3:18 9:2 23:1 #
0.00038832790192473498136829790361446 3:19 6:2 10:1 19:1 #
0.00038832790192473498136829790361446 2:3 3:20 5:1 6:5 10:1 19:1 25:1 #
-0.00038832790192473498136829790361446 1:1 2:4 3:86 4:1 5:4 6:6 8:2 9:2 10:4 11:3 15:1 17:1 18:1 22:1 25:1 26:1 #
-0.00025588247797147384288152238696057 2:3 3:14 5:1 6:3 10:2 11:1 14:1 15:1 18:1 30:3 #
-0.00038832790192473498136829790361446 2:2 3:14 6:4 9:1 10:3 14:1 25:1 #
-0.00038832790192473498136829790361446 2:2 3:16 4:1 5:2 6:3 14:1 26:1 #
0.00038832790192473498136829790361446 2:5 3:94 4:2 5:5 6:12 7:2 9:6 10:6 11:2 12:1 15:2 18:2 23:1 #
-0.00038832790192473498136829790361446 2:4 3:34 4:1 6:8 9:1 10:5 14:1 16:1 #
0.00038832790192473498136829790361446 2:3 3:17 5:1 6:3 9:1 17:1 18:1 19:1 #
0.00038832790192473498136829790361446 2:13 3:101 4:3 5:11 6:12 8:3 9:4 10:10 12:1 15:1 17:4 18:5 19:1 #
0.00038832790192473498136829790361446 2:7 3:80 4:1 5:7 6:9 7:2 8:2 9:1 10:9 15:1 19:1 20:1 #
-0.00038832790192473498136829790361446 1:1 2:5 3:87 5:3 6:6 9:4 10:2 11:1 16:1 18:1 26:1 #
0.00038832790192473498136829790361446 2:6 3:84 4:2 5:4 6:7 7:1 8:3 9:3 10:6 11:2 15:3 16:1 18:1 23:1 #
0.00038832790192473498136829790361446 3:17 5:1 6:2 9:5 19:1 #
-0.00038832790192473498136829790361446 2:10 3:85 5:4 6:9 8:1 9:3 10:4 11:1 14:1 15:2 17:2 18:1 #
0.00038832790192473498136829790361446 2:1 3:19 8:1 11:1 18:1 23:1 #
-0.00038832790192473498136829790361446 1:1 2:6 3:57 4:2 5:11 6:5 7:1 8:2 9:1 10:2 11:1 16:1 17:1 18:3 20:1 22:1 #
-0.00038832790192473498136829790361446 1:1 2:3 3:69 4:1 5:4 6:6 7:3 8:4 9:8 10:2 11:1 18:1 24:1 #
0.00038832790192473498136829790361446 2:4 3:29 5:1 6:3 10:1 12:1 16:1 19:1 20:1 #
0.00038832790192473498136829790361446 2:5 3:105 4:5 5:4 6:11 8:2 9:10 10:6 15:1 18:6 19:1 28:1 #
-0.00038832790192473498136829790361446 2:4 3:57 4:2 5:4 6:5 9:3 10:2 12:1 14:1 17:1 18:2 #
-0.00038832790192473498136829790361446 2:4 3:73 4:1 5:1 6:12 9:4 10:3 11:1 14:1 15:1 16:1 17:1 18:2 25:1 #
0.00038832790192473498136829790361446 2:5 3:20 4:1 5:2 6:3 7:1 8:1 9:2 15:1 19:1 26:1 #
0.00038832790192473498136829790361446 2:6 3:96 4:1 5:7 6:8 8:6 9:6 10:8 11:2 15:1 17:2 18:1 19:1 22:1 #
-0.00038832790192473498136829790361446 2:5 3:58 5:2 6:8 7:1 9:8 10:1 11:1 14:1 16:1 18:2 #
0.00038832790192473498136829790361446 2:5 3:95 4:3 5:5 6:10 7:1 8:1 9:2 10:1 11:4 17:1 18:2 23:1 28:1 #
-0.00038832790192473498136829790361446 1:1 2:6 3:69 4:1 5:7 6:9 8:3 9:3 10:4 11:2 17:1 18:3 20:1 #
0.00038832790192473498136829790361446 2:6 3:83 4:1 5:6 6:11 8:2 9:6 10:6 11:3 12:1 15:3 16:1 19:1 28:1 #
-0.00038832790192473498136829790361446 1:1 2:6 3:83 4:5 5:7 6:9 7:1 9:4 10:7 12:1 15:3 22:1 26:2 #
0.00038832790192473498136829790361446 2:1 3:19 6:4 7:1 9:2 11:1 12:1 23:1 #
-0.00038832790192473498136829790361446 2:4 3:57 5:3 6:4 7:2 9:2 12:1 14:1 17:1 22:1 24:1 #
-0.00038832790192473498136829790361446 2:4 3:60 5:5 6:12 7:1 8:3 9:2 10:3 12:1 14:1 20:1 26:2 #
0.00038832790192473498136829790361446 2:8 3:92 4:2 5:8 6:8 8:1 9:4 10:4 11:2 12:1 15:1 17:1 18:3 23:1 #
-0.00038832790192473498136829790361446 1:1 2:11 3:81 4:2 5:5 6:8 7:1 8:4 9:3 10:10 11:2 15:1 18:4 #
0.00038832790192473498136829790361446 2:3 3:17 5:2 6:7 7:3 19:1 #
-0.00038832790192473498136829790361446 1:1 2:5 3:57 5:6 6:9 9:7 10:3 #
0.00038832790192473498136829790361446 2:5 3:91 4:2 5:3 6:8 8:2 9:3 10:4 15:1 18:2 23:1 #
-0.00038832790192473498136829790361446 2:3 3:61 4:1 5:8 6:5 9:4 10:4 14:1 15:1 18:2 25:1 #
0.00038832790192473498136829790361446 2:13 3:80 4:2 5:6 6:14 9:6 10:7 15:1 16:1 17:4 18:1 23:1 #
-0.00038832790192473498136829790361446 1:1 2:8 3:74 4:1 5:4 6:15 7:1 8:1 9:1 10:2 18:1 20:1 #
0.00038832790192473498136829790361446 2:1 3:22 5:2 6:2 8:1 10:4 11:1 19:1 #
-0.00038832790192473498136829790361446 2:6 3:58 5:3 6:6 7:2 9:4 14:1 18:1 #
0.00038832790192473498136829790361446 2:4 3:87 5:6 6:14 9:6 10:5 11:4 17:1 18:1 23:1 #
-0.00038832790192473498136829790361446 2:4 3:60 6:8 8:2 9:2 10:5 14:1 16:1 18:3 22:1 26:1 28:1 #
0.00038832790192473498136829790361446 2:12 3:84 5:7 6:7 8:2 9:7 10:1 11:2 15:2 17:2 18:3 21:1 23:1 25:1 #
-0.00038832790192473498136829790361446 1:1 2:4 3:74 4:1 5:7 6:4 7:1 8:1 9:4 10:6 11:3 15:1 17:4 18:1 22:1 #
0.00038832790192473498136829790361446 2:4 3:23 4:1 5:1 6:4 9:1 19:1 26:1 #
-0.00038832790192473498136829790361446 1:1 2:9 3:57 4:2 5:3 6:10 7:3 8:1 9:2 10:3 11:1 15:1 18:2 #
0.00038832790192473498136829790361446 3:90 5:2 6:4 8:2 9:7 10:7 11:3 18:4 20:1 23:1 24:1 #
-0.00038832790192473498136829790361446 1:1 2:6 3:64 5:5 6:9 8:4 9:6 10:2 11:2 15:2 17:2 18:1 24:1 28:1 #
-0.00038832790192473498136829790361446 1:1 2:5 3:63 5:4 6:6 7:1 8:2 9:5 10:5 11:1 16:2 #
0.00038832790192473498136829790361446 2:7 3:68 4:2 5:2 6:12 8:1 9:7 10:2 12:1 18:2 19:1 #
0.00038832790192473498136829790361446 2:5 3:28 6:6 9:1 10:1 19:1 #
-0.00038832790192473498136829790361446 2:2 3:59 4:2 5:3 6:8 8:1 9:2 10:2 11:3 12:1 14:1 15:1 20:1 24:1 #
0.00038832790192473498136829790361446 2:9 3:87 4:3 5:4 6:12 8:2 9:8 10:5 11:1 12:1 17:4 18:1 23:1 #
-0.00038832790192473498136829790361446 2:6 3:78 4:2 5:3 6:6 8:1 9:6 10:2 12:1 14:1 18:2 #
0.00038832790192473498136829790361446 2:3 3:24 5:5 6:4 9:2 10:1 11:1 12:2 16:1 19:1 #
-0.00038832790192473498136829790361446 1:1 2:7 3:57 4:2 5:3 6:9 8:2 9:6 10:6 11:1 18:1 #
0.00038832790192473498136829790361446 2:8 3:89 5:6 6:4 7:1 8:4 9:8 10:5 11:2 12:1 17:1 18:4 23:1 #
-0.00038832790192473498136829790361446 1:1 2:5 3:62 5:5 6:3 8:1 9:2 18:2 #
0.00038832790192473498136829790361446 2:8 3:89 5:3 6:12 8:4 9:8 10:4 13:1 15:2 18:3 23:1 #
-0.00038832790192473498136829790361446 1:1 2:13 3:80 4:1 5:1 6:13 7:2 8:1 9:13 10:4 11:3 20:1 #
0.00038832790192473498136829790361446 2:2 3:20 4:1 5:1 6:3 8:1 9:1 10:2 16:1 19:1 #
-0.00038832790192473498136829790361446 2:4 3:59 4:2 5:3 6:3 8:2 9:1 10:4 14:1 15:1 17:1 #
0.00038832790192473498136829790361446 2:7 3:83 4:2 5:4 6:12 7:1 8:1 9:8 10:4 11:1 12:1 17:1 18:2 23:1 25:1 #
-0.00038832790192473498136829790361446 2:6 3:59 5:1 6:11 9:1 12:1 14:1 17:2 18:1 #
-0.00038832790192473498136829790361446 1:1 2:5 3:60 5:1 6:7 9:3 11:1 18:2 #
-0.00038832790192473498136829790361446 2:7 3:63 4:1 5:3 6:9 7:1 8:3 9:6 10:3 14:1 18:1 #
-0.00038832790192473498136829790361446 1:1 2:4 3:61 4:3 5:5 6:5 7:1 8:1 9:3 10:5 11:2 15:2 18:2 25:1 #
-0.00038832790192473498136829790361446 1:1 2:4 3:64 4:4 5:3 6:9 7:1 9:3 10:6 11:2 18:4 22:1 #
0.00038832790192473498136829790361446 2:6 3:82 4:2 5:9 6:9 8:5 9:4 10:7 11:4 15:1 18:1 22:1 23:1 #
0.00038832790192473498136829790361446 2:3 3:80 5:1 6:7 8:1 9:5 10:3 17:1 19:1 22:1 #
0.00038832790192473498136829790361446 2:6 3:78 4:5 5:3 6:11 7:2 8:3 9:2 10:3 11:2 12:1 15:1 17:1 18:2 19:1 20:2 #
0.00038832790192473498136829790361446 2:3 3:75 5:2 6:6 8:1 9:2 10:3 11:1 18:1 19:1 20:1 26:1 #
0.00038832790192473498136829790361446 2:1 3:85 4:1 5:3 6:10 9:2 10:2 11:2 17:1 18:5 23:1 #
-0.00038832790192473498136829790361446 1:1 2:3 3:84 4:3 5:4 6:5 8:2 9:3 10:6 11:6 12:1 17:1 18:1 24:1 #
0.00038832790192473498136829790361446 2:2 3:19 5:1 6:3 10:1 11:1 18:1 23:1 #
-0.00038832790192473498136829790361446 2:3 3:68 5:2 6:9 9:7 10:3 11:2 14:1 16:1 20:1 26:1 #
0.00038832790192473498136829790361446 2:5 3:43 4:4 6:3 9:1 10:6 18:2 19:1 #
-0.00038832790192473498136829790361446 1:1 2:2 3:62 4:1 5:2 6:3 7:1 8:1 9:5 10:5 #
0.00038832790192473498136829790361446 2:8 3:77 4:1 5:2 6:10 7:1 9:4 10:4 11:3 12:1 16:1 18:6 20:1 23:1 24:1 #
-0.00038832790192473498136829790361446 1:1 2:5 3:65 4:2 5:4 6:6 7:1 8:3 9:2 10:7 11:2 18:4 20:1 22:1 25:1 #
0.00038832790192473498136829790361446 2:5 3:68 4:1 5:5 6:11 7:1 9:2 10:4 12:1 16:1 23:1 24:1 #
-0.00038832790192473498136829790361446 2:3 3:65 4:1 5:3 6:8 9:2 10:3 14:1 15:1 18:1 24:1 26:1 #
-0.00038832790192473498136829790361446 2:6 3:71 4:1 5:3 6:9 9:3 10:2 14:1 15:1 17:1 18:2 20:1 #
-0.00038832790192473498136829790361446 2:6 3:62 5:2 6:12 9:5 10:3 11:3 14:1 15:1 16:1 18:1 #
-0.00038832790192473498136829790361446 2:2 3:63 4:2 5:2 6:7 9:3 10:3 14:1 15:1 20:1 27:1 30:1 32:3 #
-0.00038832790192473498136829790361446 2:3 3:63 4:1 6:10 8:1 10:3 11:1 14:1 15:3 16:1 28:1 #
0.00038832790192473498136829790361446 2:9 3:69 4:1 5:4 6:7 7:2 8:2 9:4 10:5 11:2 15:2 18:3 19:1 #
0.00038832790192473498136829790361446 2:13 3:72 4:2 5:6 6:7 8:4 9:3 10:10 11:3 15:2 16:2 18:6 20:1 23:1 #
0.00038832790192473498136829790361446 2:6 3:75 4:2 5:9 6:8 8:1 9:4 10:10 11:5 12:1 15:1 18:4 23:1 #
0.00038832790192473498136829790361446 2:4 3:74 4:5 5:4 6:7 8:1 9:2 10:5 15:1 18:1 20:1 23:1 24:1 #
0.00038832790192473498136829790361446 2:7 3:51 5:1 6:3 7:1 8:3 9:3 10:1 12:1 15:1 19:1 26:1 29:2 #
-0.00038832790192473498136829790361446 1:1 2:12 3:84 4:2 5:5 6:8 8:1 10:7 11:2 12:1 18:6 #
0.00038832790192473498136829790361446 3:19 5:2 6:2 9:2 15:1 19:1 #
-0.00038832790192473498136829790361446 2:5 3:58 5:3 6:9 8:2 9:2 10:7 11:4 14:1 #
-0.00026805904792259749314098371542059 2:9 3:59 4:1 5:4 6:5 7:1 9:1 10:1 11:2 14:1 15:2 16:1 18:2 #
-0.00038832790192473498136829790361446 2:5 3:60 4:1 5:5 6:3 7:1 10:2 12:1 14:1 16:1 18:1 20:1 #
-0.00038832790192473498136829790361446 1:1 2:7 3:62 4:2 5:3 6:6 7:3 8:2 9:3 10:3 11:2 15:1 18:3 29:1 #
-0.00038832790192473498136829790361446 1:1 2:7 3:61 4:1 6:6 8:2 9:3 10:2 11:1 15:1 16:1 17:2 18:1 20:1 #
0.00038832790192473498136829790361446 2:8 3:86 4:1 5:7 6:12 7:1 8:3 9:11 10:4 11:2 17:3 18:6 19:1 24:1 25:1 #
0.00038832790192473498136829790361446 2:4 3:77 4:1 5:6 6:11 8:1 9:3 10:4 12:1 18:2 19:1 #
0.00038832790192473498136829790361446 2:4 3:80 4:2 5:3 6:11 7:1 8:3 9:4 10:4 18:6 19:1 22:1 24:2 #
0.00038832790192473498136829790361446 2:6 3:76 4:1 5:5 6:6 8:1 9:2 10:6 15:2 17:2 18:4 19:1 31:1 #
0.00038832790192473498136829790361446 2:3 3:75 5:3 6:12 7:1 8:2 9:4 10:2 15:1 17:2 18:2 23:1 #
-0.00038832790192473498136829790361446 1:1 2:6 3:35 5:2 6:6 8:1 9:3 10:2 11:2 15:1 24:1 #
-0.00038832790192473498136829790361446 2:5 3:66 4:1 5:4 6:10 7:1 8:6 9:1 10:9 11:1 12:1 14:1 17:1 22:1 #
0.00038832790192473498136829790361446 2:5 3:33 5:1 6:2 9:2 11:2 15:1 23:1 #
-0.00038832790192473498136829790361446 2:8 3:60 4:2 5:5 6:12 8:3 10:1 11:1 14:1 15:1 30:4 #
-0.00038832790192473498136829790361446 1:1 2:6 3:62 5:2 6:8 8:2 9:1 10:4 11:2 15:1 18:2 24:1 #
-0.00038832790192473498136829790361446 2:4 3:63 4:4 5:3 6:7 9:3 10:2 11:1 14:1 20:1 #
-0.00038832790192473498136829790361446 1:1 2:10 3:64 4:2 5:8 6:9 8:1 9:3 10:6 12:1 17:1 18:2 #
-0.00038832790192473498136829790361446 1:1 2:6 3:63 4:2 5:4 6:3 7:1 8:1 9:3 10:4 11:1 18:1 31:1 #
0.00038832790192473498136829790361446 3:75 5:2 6:2 8:1 9:6 10:7 11:2 18:2 23:1 24:1 #
0.00038832790192473498136829790361446 2:5 3:74 5:4 6:7 9:2 10:3 15:1 17:3 18:3 19:1 #
0.00038832790192473498136829790361446 2:3 3:73 5:5 6:4 9:3 10:1 11:2 16:2 18:3 19:1 #
0.00038832790192473498136829790361446 2:3 3:72 4:1 5:3 6:6 7:2 9:4 10:1 11:3 12:1 15:1 18:3 19:1 #
0.00038832790192473498136829790361446 2:7 3:72 5:3 6:4 7:1 8:2 9:4 10:3 16:1 17:2 18:3 23:1 #
0.00038832790192473498136829790361446 2:4 3:26 6:13 9:1 15:1 19:1 #
-0.00038832790192473498136829790361446 2:9 3:60 4:1 5:1 6:11 8:1 9:4 10:3 14:1 16:1 #
0.00038832790192473498136829790361446 2:7 3:52 4:1 5:5 6:14 9:1 10:4 15:1 19:1 #
-0.00038832790192473498136829790361446 1:1 2:1 3:21 5:1 6:4 9:3 10:2 15:1 17:1 18:1 #
0.00038832790192473498136829790361446 2:5 3:67 4:2 5:5 6:13 7:1 8:2 9:5 10:6 11:3 12:2 15:2 22:1 23:1 26:1 31:1 #
-0.00038832790192473498136829790361446 1:1 2:6 3:83 4:2 5:4 6:5 8:1 9:5 10:14 11:2 12:2 15:3 18:2 22:1 #
0.00038832790192473498136829790361446 2:4 3:21 4:1 5:1 6:6 9:2 10:2 23:1 #
-0.00038832790192473498136829790361446 3:16 4:1 6:2 9:1 10:1 14:1 15:2 #
0.00038832790192473498136829790361446 2:6 3:75 4:2 5:8 6:14 8:3 9:3 10:12 11:1 13:1 16:2 18:5 23:1 #
-0.00038832790192473498136829790361446 2:7 3:79 4:2 5:6 6:8 8:1 9:4 10:2 11:4 12:1 14:1 16:1 18:2 20:1 #
0.00038832790192473498136829790361446 2:2 3:21 4:1 6:2 9:2 10:1 16:1 17:2 19:1 #
-0.00038832790192473498136829790361446 3:19 6:3 9:2 14:1 #
0.00038832790192473498136829790361446 2:8 3:72 4:2 5:5 6:5 8:3 9:4 10:3 12:2 15:1 17:2 18:3 22:1 23:1 #
-0.00038832790192473498136829790361446 2:10 3:82 4:2 5:3 6:5 7:1 9:4 10:6 11:2 12:2 14:1 15:3 16:2 17:2 18:4 22:1 24:2 #
0.00038832790192473498136829790361446 2:4 3:25 6:3 8:2 9:1 10:1 12:1 23:1 #
-0.00038832790192473498136829790361446 2:1 3:15 6:2 8:1 10:2 14:1 #
0.00038832790192473498136829790361446 2:8 3:70 5:3 6:11 8:2 9:7 10:1 11:2 15:1 17:2 18:1 19:1 20:5 #
-0.00038832790192473498136829790361446 1:1 2:7 3:76 4:3 5:4 6:13 8:2 9:7 10:2 11:2 20:1 #
-0.00038832790192473498136829790361446 2:4 3:17 4:1 5:1 6:5 7:1 9:3 10:1 11:1 14:1 15:1 18:1 #
-0.00038832790192473498136829790361446 1:1 2:3 3:47 5:7 6:6 8:3 9:6 10:4 11:1 15:1 31:1 #
-0.00038832790192473498136829790361446 2:6 3:49 5:1 6:8 9:12 10:1 11:4 14:1 15:1 18:2 #
-0.00038832790192473498136829790361446 1:1 2:4 3:54 4:1 5:3 6:11 9:3 10:6 11:2 16:2 17:3 18:2 #
-0.00038832790192473498136829790361446 1:1 2:3 3:51 5:6 6:9 11:1 15:1 16:1 18:2 24:1 #
-0.00038832790192473498136829790361446 1:1 2:3 3:54 4:1 5:6 6:10 8:1 9:3 10:4 11:2 15:2 18:1 25:1 #
0.00038832790192473498136829790361446 2:3 3:36 4:2 6:1 7:1 9:2 10:1 11:1 12:2 15:1 16:1 23:1 #
0.00038832790192473498136829790361446 2:3 3:45 4:6 6:1 7:1 9:2 10:3 11:2 17:1 23:1 #
0.00038832790192473498136829790361446 2:3 3:35 4:1 6:4 8:1 10:2 11:1 15:1 19:1 #
0.00038832790192473498136829790361446 2:3 3:30 4:1 5:1 6:1 9:1 19:1 #
0.00038832790192473498136829790361446 2:3 3:24 4:1 5:1 6:4 9:2 10:5 23:1 24:2 #
-0.00038832790192473498136829790361446 1:1 2:10 3:51 4:2 5:5 6:11 7:2 9:2 10:1 11:3 12:2 15:2 17:2 20:2 22:1 #
-0.00038832790192473498136829790361446 1:1 2:4 3:53 4:1 5:4 6:1 8:2 9:2 10:3 11:1 18:4 #
0.00038832790192473498136829790361446 2:7 3:39 4:1 5:4 6:12 8:2 10:2 12:1 15:2 18:1 19:1 27:1 #
-0.00038832790192473498136829790361446 2:1 3:17 11:1 14:1 18:1 #
0.00038832790192473498136829790361446 2:4 3:57 4:1 5:4 6:10 7:1 8:1 9:1 10:6 11:1 15:1 16:1 19:1 #
0.00038832790192473498136829790361446 3:18 5:2 6:6 9:1 17:1 19:1 #
-0.00038832790192473498136829790361446 3:19 4:1 6:3 9:1 14:1 22:1 #
0.00038832790192473498136829790361446 2:4 3:71 5:3 6:4 8:2 9:6 10:4 11:1 15:1 17:1 18:2 19:1 #
-0.00038832790192473498136829790361446 2:1 3:18 5:1 6:1 9:1 14:1 #
0.00038832790192473498136829790361446 2:7 3:67 4:2 5:4 6:7 7:1 8:1 9:4 10:5 15:1 18:3 19:1 20:1 #
-0.00038832790192473498136829790361446 2:10 3:86 4:1 5:1 6:10 7:1 8:2 9:3 10:6 11:1 12:1 14:1 17:1 18:1 22:2 #
0.00038832790192473498136829790361446 2:3 3:25 4:1 5:1 6:6 9:1 10:1 11:1 15:1 23:1 #
-0.00038832790192473498136829790361446 2:5 3:39 5:6 6:5 9:1 10:2 14:1 15:1 18:4 #
0.00038832790192473498136829790361446 2:8 3:37 6:5 8:1 9:3 10:1 17:2 20:1 23:1 31:1 #
-0.00038832790192473498136829790361446 1:1 2:4 3:28 5:2 6:7 8:1 9:4 10:5 11:1 17:1 18:3 22:1 #
0.00038832790192473498136829790361446 2:3 3:47 4:1 5:1 6:5 9:1 10:1 11:3 22:1 23:1 24:1 #
0.00038832790192473498136829790361446 2:3 3:22 4:1 5:1 6:5 9:2 10:4 15:1 16:1 18:1 19:1 #
-0.00038832790192473498136829790361446 1:1 3:19 5:1 6:2 9:1 10:1 15:1 #
0.00038832790192473498136829790361446 2:6 3:70 4:4 5:7 6:8 8:1 9:4 10:4 16:1 18:3 19:1 #
-0.00038832790192473498136829790361446 2:2 3:32 4:1 5:1 6:2 10:1 14:1 #
-0.00038832790192473498136829790361446 2:3 3:69 4:1 5:4 6:7 7:1 8:2 9:3 10:1 11:1 12:1 14:1 #
-0.00038832790192473498136829790361446 1:1 2:3 3:52 4:1 5:5 6:4 8:2 9:2 10:5 15:1 18:2 #
0.00038832790192473498136829790361446 2:8 3:42 5:3 6:5 9:7 10:2 15:2 19:1 26:1 #
-0.00038832790192473498136829790361446 2:2 3:23 4:1 5:4 6:5 9:2 10:1 12:1 14:1 15:1 18:1 22:1 #
0.00038832790192473498136829790361446 2:7 3:52 4:1 5:3 6:7 8:2 10:1 11:3 15:1 17:1 18:1 19:1 #
0.00038832790192473498136829790361446 3:21 4:1 6:2 10:1 11:1 18:1 19:1 #
0.00038832790192473498136829790361446 2:8 3:68 6:10 7:1 8:1 9:5 10:5 12:2 15:2 17:2 18:4 23:1 24:1 #
-0.00038832790192473498136829790361446 2:5 3:77 4:1 5:3 6:6 7:1 9:2 10:2 11:2 12:1 14:1 16:1 18:2 20:1 #
0.00038832790192473498136829790361446 2:3 3:27 4:1 5:5 6:2 10:1 16:1 19:1 #
0.00038832790192473498136829790361446 2:2 3:30 5:1 6:1 7:1 8:1 9:1 10:2 11:1 23:1 25:1 #
0.00038832790192473498136829790361446 2:5 3:76 5:3 6:8 7:1 8:2 9:4 10:1 11:1 18:5 23:1 #
0.00038832790192473498136829790361446 2:6 3:54 5:5 6:5 9:2 10:3 11:4 17:2 18:1 19:1 #
-0.00038832790192473498136829790361446 2:2 3:20 5:1 6:2 8:1 9:3 14:1 #
0.00038832790192473498136829790361446 2:4 3:60 5:5 6:7 9:3 10:2 11:2 15:4 18:1 19:1 24:1 #
-0.00038832790192473498136829790361446 1:1 2:1 3:19 5:1 6:3 9:2 15:1 #
0.00038832790192473498136829790361446 2:8 3:58 5:3 6:4 7:1 8:2 9:3 10:1 15:1 16:1 18:2 19:1 #
-0.00029759641134736829204410213378651 1:1 2:9 3:84 4:5 5:4 6:13 8:1 9:1 10:7 11:2 15:1 #
-0.00038832790192473498136829790361446 1:1 2:2 3:19 4:1 5:1 9:2 18:1 #
-0.00038832790192473498136829790361446 1:1 2:6 3:75 4:2 5:2 6:7 8:1 9:1 10:4 11:3 15:1 16:1 18:3 #
0.00038832790192473498136829790361446 2:3 3:25 4:1 5:1 6:1 8:2 9:2 10:2 12:1 23:1 #
-0.00038832790192473498136829790361446 1:1 2:4 3:31 4:2 5:2 6:5 9:2 10:3 15:1 #
-0.00038832790192473498136829790361446 1:1 2:2 3:37 5:3 6:7 9:3 10:1 15:1 16:1 18:1 30:2 #
0.00038832790192473498136829790361446 2:4 3:41 4:1 6:6 10:1 11:2 18:1 23:1 #
0.00038832790192473498136829790361446 2:2 3:26 6:4 9:1 10:1 15:1 16:2 19:1 #
-0.00038832790192473498136829790361446 2:1 3:19 6:3 9:1 14:1 15:1 #
0.00038832790192473498136829790361446 2:6 3:55 5:4 6:8 9:2 10:3 11:1 15:1 18:1 23:1 #
0.00038832790192473498136829790361446 2:2 3:21 4:1 5:1 6:4 8:1 9:1 10:2 17:1 19:1 #
-0.00038832790192473498136829790361446 1:1 2:1 3:23 5:2 6:2 8:2 9:1 10:1 #
0.00038832790192473498136829790361446 2:4 3:56 4:4 5:6 6:4 7:1 8:2 9:2 10:5 19:1 #
-0.00038832790192473498136829790361446 3:36 6:4 8:1 9:1 10:1 11:1 14:1 18:1 #
-0.00038832790192473498136829790361446 1:1 2:3 3:35 6:4 8:2 9:2 10:1 11:1 15:1 18:2 #
-0.00038832790192473498136829790361446 1:1 2:1 3:35 5:2 6:3 8:1 10:2 17:1 18:1 20:1 26:1 #
0.00038832790192473498136829790361446 2:3 3:26 4:1 6:4 9:2 19:1 20:1 #
-0.00038832790192473498136829790361446 2:4 3:27 5:5 6:6 9:4 14:1 #
0.00038832790192473498136829790361446 2:4 3:45 5:1 6:2 9:2 10:2 19:1 20:1 #
0.00038832790192473498136829790361446 2:4 3:23 5:2 6:8 8:1 9:2 10:1 19:1 #
-0.00038832790192473498136829790361446 2:1 3:35 4:1 5:1 6:3 7:1 9:2 10:1 14:1 18:1 #
0.00038832790192473498136829790361446 2:4 3:29 4:2 6:6 9:4 10:1 11:1 12:1 19:1 #
-0.00038832790192473498136829790361446 1:1 2:1 3:29 4:3 5:2 6:9 7:1 8:2 9:3 10:8 15:1 20:1 #
0.00038832790192473498136829790361446 2:1 3:29 4:1 5:2 10:2 11:2 18:1 19:1 #
-0.00038832790192473498136829790361446 2:3 3:34 5:2 6:2 7:1 8:1 9:4 10:1 14:1 17:1 #
0.00038832790192473498136829790361446 2:2 3:30 5:1 6:6 7:1 8:1 9:1 10:7 11:1 23:1 28:1 #
-0.00038832790192473498136829790361446 1:1 2:2 3:27 4:1 5:2 6:3 8:1 10:1 17:1 18:1 #
-0.00038832790192473498136829790361446 2:3 3:25 5:2 6:2 9:1 14:1 17:1 18:1 #
-0.00038832790192473498136829790361446 2:3 3:27 5:3 6:5 9:2 10:3 14:1 17:2 24:1 26:1 #
-0.00038832790192473498136829790361446 2:2 3:28 6:6 8:1 9:2 10:3 14:1 15:1 16:1 18:1 #
-0.00038832790192473498136829790361446 3:29 4:1 6:1 9:2 10:3 14:1 18:1 #
0.00038832790192473498136829790361446 2:6 3:41 4:1 5:1 6:7 9:5 10:5 15:1 19:1 #
0.00038832790192473498136829790361446 2:5 3:40 5:1 6:6 7:1 8:1 9:3 10:2 11:2 16:1 19:1 20:1 #
0.00038832790192473498136829790361446 2:2 3:42 4:1 5:3 6:8 8:1 10:5 11:3 15:2 23:1 #
0.00038832790192473498136829790361446 2:3 3:39 4:2 6:5 9:2 10:2 19:1 25:1 #
0.00038832790192473498136829790361446 2:7 3:45 4:1 5:3 6:8 8:2 9:2 10:3 11:1 20:1 23:1 26:1 #
-0.00038832790192473498136829790361446 1:1 2:3 3:36 4:1 5:3 6:7 8:2 9:2 10:1 15:1 #
0.00038832790192473498136829790361446 2:1 3:20 6:2 8:1 9:3 10:1 15:1 17:1 19:1 #
-0.00038832790192473498136829790361446 1:1 2:3 3:36 5:2 6:3 7:1 9:2 10:4 17:1 18:1 #
0.00038832790192473498136829790361446 3:20 5:1 6:5 9:4 19:1 #
-0.00038832790192473498136829790361446 1:1 2:2 3:35 5:1 6:7 7:1 9:1 10:3 11:1 15:1 18:1 #
0.00038832790192473498136829790361446 2:1 3:22 4:1 5:2 6:3 8:1 9:1 10:1 23:1 #
-0.00038832790192473498136829790361446 2:5 3:34 4:1 5:1 6:5 9:3 13:1 14:1 16:2 18:1 24:1 #
0.00038832790192473498136829790361446 2:1 3:22 5:2 9:3 10:1 15:1 18:1 19:1 20:1 #
-0.00038832790192473498136829790361446 1:1 2:3 3:35 4:2 5:4 6:3 7:1 8:1 9:3 10:4 12:1 15:2 20:2 #
0.00038832790192473498136829790361446 3:23 5:1 6:4 9:2 10:1 19:1 #
-0.00038832790192473498136829790361446 1:1 2:2 3:29 5:2 6:9 9:5 10:2 11:1 #
-0.00038832790192473498136829790361446 1:1 2:5 3:25 5:1 6:6 7:1 8:1 9:4 10:1 15:1 18:1 #
-0.00038832790192473498136829790361446 2:7 3:29 4:1 5:1 6:5 8:1 9:6 10:4 14:1 18:1 #
-0.00038832790192473498136829790361446 2:1 3:24 4:1 5:2 6:3 8:1 9:2 10:2 11:3 14:1 18:1 #
-0.00038832790192473498136829790361446 2:3 3:31 5:1 6:9 7:1 8:1 9:2 10:2 11:1 14:1 15:1 #
0.00038832790192473498136829790361446 2:2 3:30 6:1 9:1 10:1 17:1 19:1 #
0.00038832790192473498136829790361446 2:2 3:32 4:1 5:1 6:2 9:2 10:2 19:1 #
0.00038832790192473498136829790361446 2:2 3:31 4:1 5:1 6:3 10:1 11:2 18:1 23:1 #
0.00038832790192473498136829790361446 2:2 3:31 5:1 6:4 8:1 10:1 23:1 24:1 #
0.00038832790192473498136829790361446 2:2 3:28 4:1 5:2 6:2 9:2 10:1 23:1 #
-0.00038832790192473498136829790361446 2:2 3:31 4:2 5:2 8:1 9:2 10:4 11:1 14:1 15:2 18:1 20:1 #
-0.00038832790192473498136829790361446 1:1 2:2 3:33 4:1 5:1 6:4 9:2 11:1 12:1 18:1 #
0.00038832790192473498136829790361446 2:6 3:25 5:1 6:7 8:1 9:2 10:6 18:2 23:1 #
-0.00038832790192473498136829790361446 1:1 2:1 3:27 4:1 5:3 6:3 8:1 9:2 #
0.00038832790192473498136829790361446 2:3 3:26 4:1 5:2 6:6 7:2 9:2 10:2 19:1 20:1 22:1 #
-0.00038832790192473498136829790361446 1:1 3:25 5:2 6:4 7:1 10:3 15:1 18:1 #
0.00038832790192473498136829790361446 2:2 3:28 6:3 9:6 10:2 11:2 23:1 #
0.00038832790192473498136829790361446 2:2 3:22 4:1 5:3 6:6 9:3 10:3 16:1 23:1 #
-0.00038832790192473498136829790361446 2:6 3:62 4:1 5:1 6:10 8:1 9:4 10:6 14:1 16:1 #
0.00038832790192473498136829790361446 2:3 3:28 6:3 8:1 9:1 10:1 16:1 17:1 19:1 20:1 #
-0.00038832790192473498136829790361446 2:5 3:39 5:3 6:4 8:1 9:2 10:1 11:3 14:1 16:1 #
-0.00038832790192473498136829790361446 1:1 2:6 3:79 4:2 5:1 6:6 7:2 9:3 10:5 11:5 18:2 #
-0.00038832790192473498136829790361446 2:9 3:74 4:1 5:4 6:9 8:1 9:5 10:2 11:2 14:1 18:1 #
0.00038832790192473498136829790361446 3:24 5:1 6:1 9:3 10:1 15:1 16:2 19:1 #
-0.00038832790192473498136829790361446 2:4 3:39 5:2 6:4 7:1 9:2 10:3 14:1 15:1 16:1 24:1 #
0.00038832790192473498136829790361446 2:2 3:30 5:2 6:7 8:1 10:2 19:1 20:1 #
0.00038832790192473498136829790361446 2:2 3:30 6:5 9:1 19:1 #
-0.00038832790192473498136829790361446 3:25 6:5 7:1 9:2 11:1 14:1 #
0.00038832790192473498136829790361446 2:3 3:30 4:1 5:1 6:2 7:1 8:1 9:1 10:2 11:1 15:1 18:1 23:1 24:2 #
-0.00038832790192473498136829790361446 2:1 3:22 4:2 6:4 8:1 9:1 10:1 14:1 #
-0.00038832790192473498136829790361446 1:1 2:6 3:47 5:5 6:5 9:4 10:5 18:4 #
0.00038832790192473498136829790361446 2:3 3:28 6:8 8:2 10:2 11:1 17:1 19:1 #
-0.00038832790192473498136829790361446 2:3 3:16 4:1 6:6 8:1 10:1 11:1 14:1 #
0.00038832790192473498136829790361446 2:2 3:30 4:1 5:3 6:4 7:2 8:3 9:3 10:5 15:2 19:1 #
0.00038832790192473498136829790361446 2:2 3:29 5:4 6:7 9:1 10:2 15:1 20:1 23:1 #
-0.00038832790192473498136829790361446 2:2 3:45 6:9 9:3 10:2 11:2 14:1 17:2 18:1 #
0.00038832790192473498136829790361446 2:2 3:26 4:1 5:2 6:9 8:1 11:1 19:1 #
-0.00011842577337498744194377309213451 1:1 2:9 3:41 5:4 6:7 8:2 9:4 10:1 #
-0.00038832790192473498136829790361446 2:1 3:20 4:1 5:4 6:3 10:2 14:1 15:1 16:1 25:1 #
0.00038832790192473498136829790361446 2:2 3:29 4:2 8:1 9:3 17:1 19:1 #
-0.00038832790192473498136829790361446 2:4 3:41 6:1 8:3 9:2 14:1 15:2 18:1 24:1 #
-0.00038832790192473498136829790361446 1:1 2:2 3:22 5:1 6:4 9:2 10:1 16:1 17:1 #
0.00038832790192473498136829790361446 2:1 3:29 4:1 5:2 6:2 10:2 18:1 19:1 #
-0.00038832790192473498136829790361446 2:2 3:54 4:3 5:4 6:5 8:1 11:1 14:1 15:3 18:1 20:1 #
0.00038832790192473498136829790361446 2:3 3:24 4:1 5:1 6:5 9:1 10:1 11:1 17:1 18:1 23:1 #
-0.00038832790192473498136829790361446 1:1 2:5 3:37 4:1 5:2 6:4 8:1 9:2 10:1 #
0.00038832790192473498136829790361446 2:2 3:30 5:2 6:8 9:1 10:1 11:1 15:1 18:1 19:1 29:1 #
-0.00038832790192473498136829790361446 2:5 3:18 4:1 5:1 6:6 7:1 9:1 14:1 18:1 20:1 22:1 #
0.00038832790192473498136829790361446 2:1 3:28 6:4 9:2 15:1 19:1 #
-0.00038832790192473498136829790361446 3:25 6:3 11:1 14:1 #
0.00038832790192473498136829790361446 2:2 3:27 5:3 6:3 9:1 10:2 15:1 18:1 19:1 20:1 #
-0.00038832790192473498136829790361446 2:4 3:40 5:3 6:7 8:3 9:3 10:1 14:1 #
0.00038832790192473498136829790361446 2:3 3:24 5:2 6:5 9:1 16:1 18:1 19:1 #
0.00038832790192473498136829790361446 2:2 3:30 4:3 5:4 6:2 8:5 10:3 15:1 23:1 24:1 #
-0.00038832790192473498136829790361446 2:2 3:19 4:1 5:1 6:2 8:1 10:1 14:1 16:1 #
0.00038832790192473498136829790361446 2:2 3:30 5:2 6:6 9:2 10:1 18:1 23:1 31:1 #
-0.00038832790192473498136829790361446 1:1 2:3 3:26 5:1 6:5 8:2 9:3 10:1 #
0.00038832790192473498136829790361446 2:1 3:27 5:2 9:2 17:1 23:1 #
-0.00038832790192473498136829790361446 2:2 3:42 5:4 6:4 7:1 9:4 11:1 12:1 14:1 16:1 18:1 #
0.00038832790192473498136829790361446 2:1 3:29 6:9 9:1 10:6 15:1 18:1 23:1 #
-0.00038832790192473498136829790361446 1:1 2:3 3:22 4:1 5:1 6:4 10:3 11:1 18:2 20:1 #
0.00038832790192473498136829790361446 2:3 3:28 4:1 5:1 6:5 7:1 8:1 9:5 10:1 15:2 18:1 19:1 #
-0.00038832790192473498136829790361446 2:2 3:21 6:5 9:2 10:2 14:1 #
-0.00038832790192473498136829790361446 2:2 3:42 4:1 5:1 6:3 8:2 9:2 10:3 14:1 15:1 16:1 18:2 24:1 30:4 #
-0.00038832790192473498136829790361446 1:1 3:48 4:2 5:3 6:3 8:1 9:3 10:3 15:1 #
-0.00038832790192473498136829790361446 2:1 3:26 5:1 6:5 10:1 14:1 15:1 24:1 #
-0.00038832790192473498136829790361446 2:2 3:38 4:1 5:4 6:3 8:1 9:2 10:3 14:1 16:1 17:1 #
-0.00038832790192473498136829790361446 2:3 3:26 5:1 6:5 8:1 9:3 10:4 14:1 15:1 17:1 22:1 #
0.00038832790192473498136829790361446 2:3 3:26 5:1 6:5 7:1 8:1 9:3 10:1 15:1 18:1 19:1 #
0.00038832790192473498136829790361446 2:1 3:28 6:2 8:1 9:1 10:1 11:1 17:2 23:1 #
0.00038832790192473498136829790361446 2:1 3:24 4:1 5:3 6:2 7:1 10:1 11:2 15:1 18:2 23:1 #
0.00038832790192473498136829790361446 2:2 3:23 6:7 9:3 16:1 17:1 19:1 #
0.00038832790192473498136829790361446 3:30 6:5 10:1 17:1 23:1 #
-0.00038832790192473498136829790361446 2:3 3:31 5:1 6:2 14:1 17:1 #
0.00038832790192473498136829790361446 2:2 3:30 5:1 6:4 7:1 9:1 10:1 18:2 19:1 #
-0.00038832790192473498136829790361446 2:5 3:35 5:1 6:4 7:2 9:2 10:2 11:1 14:1 18:1 #
-0.00038832790192473498136829790361446 2:6 3:29 5:2 6:8 7:1 9:2 10:3 14:1 #
-0.00038832790192473498136829790361446 1:1 2:10 3:40 5:1 6:6 8:2 9:3 10:3 11:1 15:1 18:3 #
-0.00038832790192473498136829790361446 2:4 3:49 6:8 8:1 9:2 10:3 14:1 15:1 24:1 30:8 #
-0.00038832790192473498136829790361446 1:1 2:3 3:18 4:3 5:2 6:1 9:1 10:2 16:1 18:1 #
0.00038832790192473498136829790361446 2:1 3:30 4:1 5:1 6:4 10:2 18:2 19:1 20:1 #
0.00038832790192473498136829790361446 2:3 3:29 5:1 6:3 7:2 8:1 9:3 10:1 15:1 18:2 23:1 #
0.00038832790192473498136829790361446 2:3 3:28 4:2 5:3 6:2 8:1 9:4 10:2 15:1 18:2 19:1 20:1 24:1 #
0.00038832790192473498136829790361446 2:1 3:30 4:1 6:5 7:3 9:1 10:1 15:1 18:2 19:1 #
0.00038832790192473498136829790361446 2:2 3:28 4:1 5:2 6:5 8:1 9:1 10:2 11:1 15:1 18:2 19:1 #
-0.00038832790192473498136829790361446 1:1 2:6 3:77 4:2 5:1 6:10 7:4 8:1 9:7 10:8 11:2 12:1 20:1 28:1 #
0.00038832790192473498136829790361446 2:2 3:22 5:1 6:3 8:1 9:1 18:1 19:1 20:1 #
-0.00038832790192473498136829790361446 1:1 2:3 3:20 5:1 6:4 7:1 8:1 9:3 10:1 #
0.00038832790192473498136829790361446 2:1 3:26 4:1 5:1 9:1 15:1 17:1 18:1 20:1 23:1 #
-0.00038832790192473498136829790361446 1:1 2:3 3:20 6:2 8:1 9:2 10:1 11:1 18:1 #
0.00038832790192473498136829790361446 2:2 3:27 5:3 6:9 9:2 18:1 19:1 #
-0.00038832790192473498136829790361446 2:2 3:23 6:7 14:1 15:1 #
0.00038832790192473498136829790361446 3:25 4:1 6:8 8:3 10:5 11:1 15:1 16:1 17:1 23:1 #
-0.00038832790192473498136829790361446 2:2 3:22 6:3 7:1 8:1 9:2 14:1 15:2 22:1 24:1 #
0.00038832790192473498136829790361446 2:1 3:25 4:1 5:2 6:4 8:1 9:1 10:4 17:2 18:1 19:1 #
0.00038832790192473498136829790361446 2:1 3:22 6:3 9:2 18:1 19:1 #
-0.00038832790192473498136829790361446 1:1 2:1 3:24 6:3 8:1 9:1 27:1 30:1 32:3 #
-0.00038832790192473498136829790361446 2:1 3:22 6:2 9:1 10:2 14:1 #
0.00038832790192473498136829790361446 3:27 4:1 5:1 6:6 7:1 8:1 9:4 15:1 19:1 #
-0.00038832790192473498136829790361446 1:1 2:2 3:24 4:1 5:3 6:5 8:1 9:1 10:2 11:1 #
0.00038832790192473498136829790361446 2:2 3:22 5:1 6:4 7:1 9:2 10:2 17:2 18:1 19:1 #
0.00038832790192473498136829790361446 2:1 3:25 4:1 5:6 6:2 7:1 15:1 18:2 23:1 #
-0.00038832790192473498136829790361446 1:1 2:2 3:21 4:1 5:2 6:3 9:2 10:2 15:1 #
-0.00038832790192473498136829790361446 2:2 3:23 4:1 6:5 8:1 10:1 11:1 14:1 #
0.00038832790192473498136829790361446 2:1 3:27 5:1 6:9 10:2 11:1 18:2 19:1 #
-0.00038832790192473498136829790361446 1:1 2:2 3:29 4:2 6:8 7:1 9:1 10:1 16:1 #
0.00038832790192473498136829790361446 2:1 3:22 5:2 6:4 10:2 15:1 17:1 18:2 19:1 #
0.00038832790192473498136829790361446 3:25 4:1 5:1 6:5 9:4 10:1 11:1 18:2 23:1 #
-0.00038832790192473498136829790361446 2:3 3:25 5:4 6:5 10:1 14:1 15:1 16:1 20:1 #
-0.00038832790192473498136829790361446 2:1 3:24 4:1 6:2 9:2 10:1 12:1 14:1 24:1 #
0.00038832790192473498136829790361446 2:2 3:21 4:1 5:2 6:6 9:4 10:1 11:2 18:3 19:1 #
-0.00038832790192473498136829790361446 1:1 2:2 3:28 6:6 8:2 9:2 10:2 11:1 #
0.00038832790192473498136829790361446 2:9 3:52 5:3 6:6 8:2 9:3 10:1 15:1 17:1 18:1 23:1 #
-0.00038832790192473498136829790361446 1:1 2:3 3:69 4:1 5:3 6:12 7:1 8:1 9:4 10:3 11:2 12:1 15:2 22:2 #
0.00038832790192473498136829790361446 2:7 3:32 4:1 5:2 6:3 8:2 9:3 10:2 12:1 18:2 23:1 26:1 #
-0.00038832790192473498136829790361446 1:1 2:2 3:19 4:1 5:2 6:1 9:1 10:2 12:1 20:1 #
-0.00038832790192473498136829790361446 2:3 3:54 5:4 6:10 8:1 9:4 10:3 14:1 15:2 #
0.00038832790192473498136829790361446 2:3 3:35 5:3 6:2 7:1 9:1 10:1 12:1 19:1 #
0.00038832790192473498136829790361446 2:4 3:62 4:4 5:5 6:10 8:1 9:6 10:1 11:3 16:1 20:1 23:1 #
0.00038832790192473498136829790361446 2:4 3:32 5:3 6:3 7:2 9:1 10:1 17:1 23:1 #
-0.00038832790192473498136829790361446 2:3 3:24 5:1 6:1 9:1 14:1 18:1 21:1 #
0.00038832790192473498136829790361446 2:3 3:52 6:5 7:1 8:1 9:5 10:6 19:1 20:1 #
-0.00038832790192473498136829790361446 1:1 2:5 3:70 4:2 5:10 6:8 9:3 10:3 24:1 26:1 #
-0.00038832790192473498136829790361446 1:1 2:3 3:31 5:2 6:3 9:2 10:3 11:3 #
0.00038832790192473498136829790361446 2:7 3:50 4:1 5:5 6:10 7:1 8:1 9:2 10:2 11:1 19:1 #
-0.00038832790192473498136829790361446 1:1 2:4 3:70 5:6 6:8 8:1 9:5 10:5 11:1 15:1 #
0.00038832790192473498136829790361446 2:2 3:32 5:3 6:3 7:1 8:1 9:2 10:3 11:2 15:1 23:1 #
-0.00038832790192473498136829790361446 1:1 2:3 3:21 4:2 5:2 6:3 9:1 #
0.00038832790192473498136829790361446 2:4 3:66 4:1 5:7 6:6 8:1 9:4 10:5 18:2 19:1 #
0.00038832790192473498136829790361446 2:7 3:30 5:1 6:2 9:5 10:2 16:1 18:3 19:1 #
-0.00038832790192473498136829790361446 1:1 2:9 3:68 4:1 5:4 6:11 8:3 9:1 10:9 #
-0.00038832790192473498136829790361446 1:1 2:8 3:66 5:5 6:7 7:3 8:2 9:3 10:1 15:2 16:1 18:2 20:1 #
0.00038832790192473498136829790361446 2:5 3:42 4:1 6:4 9:2 10:3 15:1 17:1 18:1 22:1 23:1 #
-0.00038832790192473498136829790361446 2:3 3:47 4:1 5:1 6:2 8:1 10:1 14:1 15:1 25:1 #
0.00038832790192473498136829790361446 2:2 3:62 4:1 5:5 6:4 9:3 10:2 17:1 19:1 #
-0.00038832790192473498136829790361446 1:1 2:6 3:51 4:2 5:4 6:7 7:1 8:1 9:4 10:2 11:3 15:1 18:3 20:1 #
-0.00038832790192473498136829790361446 1:1 2:2 3:41 5:2 6:7 9:5 10:1 16:1 24:1 #
-0.00038832790192473498136829790361446 1:1 2:3 3:40 4:1 6:7 9:5 10:1 11:1 15:1 18:1 20:1 24:1 #
-0.00038832790192473498136829790361446 2:3 3:42 5:3 6:6 9:4 11:2 14:1 15:3 18:1 #
-0.00038832790192473498136829790361446 2:5 3:37 4:1 5:1 6:5 8:1 9:1 10:4 14:1 18:3 22:1 #
0.00038832790192473498136829790361446 2:4 3:50 4:3 5:3 6:4 8:2 9:3 10:1 11:1 12:1 15:2 23:1 #
0.00038832790192473498136829790361446 2:3 3:45 5:3 6:2 8:1 9:1 10:2 15:2 19:1 #
0.00038832790192473498136829790361446 2:3 3:52 5:3 6:2 9:2 10:4 17:1 19:1 20:1 #
0.00038832790192473498136829790361446 2:4 3:45 4:1 5:3 6:4 8:2 9:4 10:2 11:4 20:1 23:1 #
0.00038832790192473498136829790361446 2:7 3:47 4:1 5:1 6:6 7:1 8:2 9:4 10:3 18:1 23:1 #
0.00038832790192473498136829790361446 2:3 3:33 4:1 6:6 8:1 9:4 10:2 11:2 23:1 24:1 #
-0.00038832790192473498136829790361446 1:1 2:3 3:51 5:4 6:6 7:1 8:1 9:3 10:6 11:1 15:1 17:1 18:1 #
0.00038832790192473498136829790361446 2:3 3:36 4:1 5:1 6:7 9:1 11:1 15:1 23:1 #
0.00038832790192473498136829790361446 2:6 3:63 4:1 5:5 6:9 7:2 8:1 9:8 10:4 15:3 18:1 19:1 #
-0.00038832790192473498136829790361446 1:1 2:6 3:79 4:3 5:7 6:7 9:1 10:8 11:1 12:1 15:1 16:1 18:1 #
-0.00038832790192473498136829790361446 2:5 3:57 4:1 6:5 7:1 9:2 10:3 14:1 15:4 #
0.00038832790192473498136829790361446 2:2 3:60 5:5 6:6 7:1 9:3 10:4 11:2 15:1 17:1 20:1 23:1 #
-0.00038832790192473498136829790361446 1:1 2:8 3:78 4:1 5:3 6:8 8:3 9:3 10:6 11:3 15:2 18:1 #
0.00038832790192473498136829790361446 2:5 3:34 4:1 5:4 6:4 7:2 8:1 9:1 10:3 16:1 18:1 23:1 26:1 #
-0.00038832790192473498136829790361446 1:1 2:9 3:69 4:3 5:5 6:8 8:3 9:6 10:9 11:4 15:1 17:2 18:2 20:1 #
-0.00038832790192473498136829790361446 2:1 3:26 4:1 5:2 6:1 14:1 #
0.00038832790192473498136829790361446 2:6 3:54 4:1 6:5 7:1 8:3 9:3 10:4 11:1 18:2 23:1 #
-0.00038832790192473498136829790361446 2:6 3:66 5:1 6:7 8:1 9:3 10:1 12:1 14:1 18:2 #
0.00038832790192473498136829790361446 2:2 3:34 4:1 5:2 6:7 10:3 15:2 19:1 #
-0.00038832790192473498136829790361446 2:6 3:66 4:1 5:3 6:5 9:3 10:1 11:1 14:1 15:1 16:1 17:1 18:2 #
0.00038832790192473498136829790361446 2:3 3:33 5:1 6:4 7:1 10:4 15:1 17:1 18:1 23:1 #
0.00038832790192473498136829790361446 2:3 3:37 4:1 5:1 6:4 10:2 11:1 18:1 19:1 #
0.00038832790192473498136829790361446 2:4 3:44 4:1 5:4 6:5 8:1 9:2 10:5 11:3 12:1 18:1 20:1 23:1 #
0.00038832790192473498136829790361446 2:5 3:37 4:1 5:6 6:2 8:4 9:1 10:1 11:2 15:3 19:1 #
0.00038832790192473498136829790361446 2:6 3:47 4:1 5:5 6:3 7:1 9:2 10:2 15:2 17:1 18:1 23:1 #
-0.00038832790192473498136829790361446 2:2 3:24 5:2 6:3 10:1 14:1 #
0.00038832790192473498136829790361446 2:4 3:63 4:2 5:2 6:13 7:1 9:2 10:2 11:3 12:2 15:2 18:3 20:1 23:1 24:1 #
0.00038832790192473498136829790361446 2:2 3:32 5:2 6:5 19:1 #
-0.00038832790192473498136829790361446 1:1 2:3 3:22 5:2 6:4 9:1 10:1 12:1 #
-0.00038832790192473498136829790361446 1:1 2:4 3:29 5:2 6:4 9:2 10:1 17:1 18:1 20:1 30:1 #
0.00038832790192473498136829790361446 2:6 3:55 5:3 6:5 7:1 8:3 9:5 10:1 12:1 15:2 17:1 23:1 25:1 #
-0.00038832790192473498136829790361446 1:1 2:5 3:70 4:1 5:3 6:11 7:1 9:3 10:4 12:1 15:2 24:1 #
-0.00038832790192473498136829790361446 1:1 2:2 3:20 4:1 6:3 9:1 10:1 11:1 16:1 22:1 #
0.00038832790192473498136829790361446 2:4 3:57 4:1 5:2 6:7 7:1 8:2 9:4 10:5 15:1 17:1 19:1 #
-0.00038832790192473498136829790361446 1:1 2:8 3:76 4:3 5:7 6:10 7:3 8:1 9:2 10:5 11:3 15:1 17:1 20:1 #
0.00038832790192473498136829790361446 2:6 3:60 4:2 5:3 6:13 8:3 9:5 10:1 19:1 24:1 #
-0.00038832790192473498136829790361446 2:6 3:77 4:3 5:1 6:6 7:1 9:5 10:1 11:1 12:1 14:1 15:2 16:1 25:1 #
-0.00038832790192473498136829790361446 1:1 2:4 3:25 5:1 6:6 8:1 9:3 10:2 #
0.00038832790192473498136829790361446 2:2 3:58 5:1 6:3 7:1 9:4 10:4 15:1 18:1 23:1 #
-0.00038832790192473498136829790361446 1:1 2:1 3:65 4:2 5:2 6:5 7:1 9:2 10:5 11:1 12:1 18:1 22:2 #
0.00038832790192473498136829790361446 2:3 3:35 5:2 6:5 8:1 10:1 23:1 #
-0.00038832790192473498136829790361446 2:2 3:26 4:1 5:2 6:5 10:2 14:1 15:1 #
0.00038832790192473498136829790361446 2:5 3:56 4:3 6:9 8:1 9:3 10:3 11:1 18:2 20:1 23:1 #
0.00038832790192473498136829790361446 2:2 3:33 5:2 6:4 9:2 10:1 19:1 #
-0.00038832790192473498136829790361446 2:6 3:51 5:2 6:9 8:2 9:6 10:1 11:1 14:1 15:1 16:1 18:1 20:1 #
0.00038832790192473498136829790361446 2:3 3:39 5:2 6:3 9:3 10:5 11:1 15:1 16:1 18:1 23:1 #
-0.00038832790192473498136829790361446 2:5 3:54 5:1 6:4 8:1 9:2 10:1 14:1 15:1 16:1 #
0.00038832790192473498136829790361446 2:6 3:42 5:3 6:7 7:1 8:1 9:4 15:3 23:1 #
-0.00038832790192473498136829790361446 1:1 2:5 3:52 4:3 5:4 6:10 9:5 10:1 11:1 15:1 18:1 #
0.00038832790192473498136829790361446 2:5 3:39 4:3 5:4 6:6 7:1 8:1 9:1 10:1 11:1 12:2 15:1 18:1 19:1 #
-0.00038832790192473498136829790361446 1:1 2:2 3:31 5:1 6:4 8:1 9:1 10:2 15:1 17:1 #
0.00038832790192473498136829790361446 2:5 3:47 4:1 5:6 6:5 9:2 10:5 15:2 18:1 22:1 23:1 #
-0.00038832790192473498136829790361446 1:1 2:6 3:53 5:7 6:6 7:2 9:4 10:3 11:2 18:2 #
0.00038832790192473498136829790361446 2:3 3:39 4:1 5:1 6:5 9:1 19:1 #
-0.00038832790192473498136829790361446 2:1 3:39 4:1 5:1 6:6 7:1 9:2 14:1 25:1 #
0.00038832790192473498136829790361446 2:4 3:49 5:4 6:6 8:2 9:1 10:4 19:1 20:1 22:1 26:1 #
-0.00038832790192473498136829790361446 2:3 3:46 4:1 5:4 6:3 8:1 9:2 10:2 11:3 14:1 15:1 16:1 18:2 #
-0.00038832790192473498136829790361446 2:4 3:52 5:2 6:6 7:1 8:1 9:4 10:4 14:1 15:1 18:1 #
-0.00038832790192473498136829790361446 2:1 3:44 4:2 5:3 6:2 9:5 10:2 14:1 15:1 #
-0.00038832790192473498136829790361446 2:2 3:42 5:2 6:5 9:4 14:1 #
-0.00038832790192473498136829790361446 2:1 3:52 5:1 6:3 9:3 10:2 14:1 15:2 16:2 17:1 #
0.00038832790192473498136829790361446 2:5 3:41 4:1 5:2 6:5 7:1 8:1 9:4 10:2 16:1 19:1 20:1 #
0.00038832790192473498136829790361446 2:4 3:43 4:2 5:2 6:6 8:1 9:4 10:3 11:4 18:1 23:1 #
0.00038832790192473498136829790361446 2:2 3:38 5:1 6:2 8:1 9:2 10:2 19:1 22:1 #
0.00038832790192473498136829790361446 2:3 3:43 5:3 6:3 8:1 9:1 10:3 19:1 20:1 25:1 #
0.00038832790192473498136829790361446 2:3 3:43 4:2 6:5 7:1 9:3 10:1 11:2 18:1 19:1 #
-0.00038832790192473498136829790361446 1:1 2:5 3:39 4:2 5:1 6:10 10:3 11:2 #
-0.00038832790192473498136829790361446 1:1 2:6 3:53 4:1 5:5 6:10 9:2 10:4 11:1 15:1 18:2 25:1 #
0.00038832790192473498136829790361446 2:3 3:35 4:1 5:3 6:3 9:4 10:2 19:1 #
-0.00038832790192473498136829790361446 1:1 2:3 3:33 5:2 6:2 8:1 10:1 #
0.00038832790192473498136829790361446 2:3 3:60 4:1 5:1 6:9 9:2 10:3 15:1 17:1 18:1 19:1 #
-0.00038832790192473498136829790361446 2:3 3:40 6:5 9:5 10:1 14:1 16:1 18:1 #
0.00038832790192473498136829790361446 2:4 3:47 4:1 5:6 6:4 8:1 9:2 10:2 11:1 23:1 26:1 #
-0.00038832790192473498136829790361446 1:1 2:2 3:67 4:3 5:4 6:4 8:3 10:6 11:1 24:1 #
0.00038832790192473498136829790361446 2:6 3:40 4:1 5:2 6:6 9:3 10:5 11:2 18:3 19:1 22:1 #
0.00038832790192473498136829790361446 2:1 3:60 4:1 5:2 6:9 8:3 9:3 10:6 16:1 17:5 18:6 20:2 23:1 24:1 #
-0.00038832790192473498136829790361446 1:1 2:6 3:51 4:4 5:1 6:12 9:4 10:4 18:2 #
0.00038832790192473498136829790361446 2:2 3:39 4:1 5:2 6:3 8:1 9:1 10:3 19:1 #
-0.00038832790192473498136829790361446 1:1 2:4 3:31 5:4 6:1 7:1 8:2 10:5 11:2 15:1 18:2 #
0.00038832790192473498136829790361446 2:2 3:54 4:3 5:1 6:7 7:1 10:1 12:1 18:1 19:1 #
-0.00038832790192473498136829790361446 2:2 3:30 5:2 6:6 7:1 8:1 10:1 14:1 30:2 #
0.00038832790192473498136829790361446 2:2 3:55 5:4 6:3 8:1 9:2 10:4 11:1 15:1 17:1 23:1 24:1 26:1 #
-0.00038832790192473498136829790361446 1:1 2:1 3:52 6:7 7:1 8:1 9:3 10:4 11:1 15:1 26:1 #
0.00038832790192473498136829790361446 2:7 3:44 4:2 5:2 6:9 8:2 10:5 11:1 17:1 18:2 23:1 24:1 #
-0.00038832790192473498136829790361446 1:1 2:2 3:44 4:1 5:5 6:4 8:1 10:2 11:1 15:1 17:1 20:1 24:1 #
0.00038832790192473498136829790361446 2:5 3:40 5:4 6:4 8:1 9:5 10:3 20:1 23:1 24:1 #
-0.00038832790192473498136829790361446 2:4 3:39 5:3 6:3 9:3 11:2 14:1 16:1 18:2 #
0.00038832790192473498136829790361446 2:2 3:51 4:1 5:1 6:3 7:1 9:2 10:2 11:1 15:1 18:1 19:1 #
-0.00038832790192473498136829790361446 1:1 2:5 3:68 4:2 5:4 6:6 7:2 8:3 9:4 10:10 15:1 20:1 21:1 24:1 #
-0.00038832790192473498136829790361446 1:1 2:3 3:32 5:1 6:6 8:2 #
-0.00038832790192473498136829790361446 2:4 3:43 5:2 6:4 9:2 11:1 14:1 18:2 24:1 #
0.00038832790192473498136829790361446 2:4 3:43 5:4 6:9 8:1 9:1 10:5 11:1 15:2 17:1 23:1 #
-0.00038832790192473498136829790361446 1:1 2:2 3:35 5:4 6:6 9:2 10:1 11:1 26:1 #
0.00038832790192473498136829790361446 2:1 3:39 5:1 6:5 9:1 10:3 15:1 16:1 19:1 #
-0.00038832790192473498136829790361446 1:1 2:4 3:44 4:1 6:8 9:5 10:2 13:1 18:1 20:1 #
0.00038832790192473498136829790361446 2:3 3:44 5:8 6:4 9:1 10:2 11:1 15:2 16:1 19:1 22:1 #
-0.00038832790192473498136829790361446 1:1 2:4 3:45 5:3 6:6 7:1 9:1 16:1 18:1 20:1 31:1 #
0.00038832790192473498136829790361446 2:4 3:38 5:1 6:5 7:1 9:2 10:1 18:1 19:1 #
-0.00038832790192473498136829790361446 2:2 3:33 5:2 6:4 8:1 10:1 14:1 #
0.00038832790192473498136829790361446 2:5 3:51 4:2 5:1 6:11 8:2 9:4 10:1 12:1 23:1 24:3 #
-0.00038832790192473498136829790361446 1:1 2:8 3:68 4:1 5:2 6:15 8:1 9:2 10:6 11:3 15:1 17:2 18:1 #
0.00038832790192473498136829790361446 2:5 3:32 4:1 5:3 6:2 7:1 9:3 10:1 11:2 18:3 23:1 #
-0.00038832790192473498136829790361446 1:1 2:5 3:47 4:1 5:3 6:3 9:7 10:3 15:2 16:1 18:2 22:1 #
0.00038832790192473498136829790361446 2:2 3:35 5:1 6:8 7:1 9:2 10:2 11:1 23:1 #
-0.00038832790192473498136829790361446 2:3 3:26 4:2 5:3 6:4 9:1 14:1 16:1 #
0.00038832790192473498136829790361446 2:6 3:53 4:1 5:4 6:3 9:2 11:2 12:1 15:1 18:3 19:1 20:1 #
0.00038832790192473498136829790361446 2:1 3:32 4:2 6:6 9:1 10:1 15:1 17:1 19:1 #
-0.00038832790192473498136829790361446 2:2 3:27 5:2 6:2 14:1 15:1 #
0.00038832790192473498136829790361446 2:5 3:47 4:1 5:2 6:4 9:6 10:5 11:2 12:1 15:1 17:1 18:2 19:1 #
-0.00038832790192473498136829790361446 1:1 2:3 3:23 4:1 5:1 6:2 9:1 11:1 12:1 16:1 18:1 #
0.00038832790192473498136829790361446 2:5 3:65 4:1 5:2 6:15 7:1 9:3 10:4 12:1 15:1 18:3 19:1 #
-0.00038832790192473498136829790361446 1:1 2:12 3:80 5:3 6:13 8:1 9:8 10:6 11:3 15:3 16:1 22:1 28:1 30:1 #
-0.00038832790192473498136829790361446 2:3 3:71 4:1 5:3 6:5 9:2 10:5 11:1 14:1 15:3 24:1 #
0.00038832790192473498136829790361446 2:3 3:34 4:1 5:2 6:3 9:2 10:1 11:1 12:1 15:2 17:1 18:1 19:1 20:1 22:1 #
-0.00038832790192473498136829790361446 2:5 3:46 4:1 5:2 6:8 8:1 9:4 10:1 14:1 16:2 18:1 22:1 #
0.00038832790192473498136829790361446 2:3 3:35 5:2 6:4 8:1 9:1 10:2 11:1 17:2 23:1 #
-0.00038832790192473498136829790361446 1:1 2:2 3:31 6:6 11:2 18:1 #
0.00038832790192473498136829790361446 2:5 3:48 4:1 5:3 6:6 8:6 9:1 10:7 15:2 20:1 23:1 #
0.00038832790192473498136829790361446 2:2 3:35 4:1 6:7 9:3 11:1 15:1 19:1 20:2 #
0.00038832790192473498136829790361446 2:2 3:59 5:1 6:8 8:1 9:3 10:2 17:1 19:1 22:1 #
-0.00038832790192473498136829790361446 2:10 3:71 5:3 6:12 8:6 9:4 10:8 11:4 14:1 #
0.00038832790192473498136829790361446 3:33 5:2 6:3 7:1 9:1 10:1 11:1 15:1 19:1 20:1 #
-0.00038832790192473498136829790361446 2:3 3:37 5:1 6:4 9:1 10:2 11:2 14:1 26:1 #
-0.00038832790192473498136829790361446 1:1 2:2 3:54 4:2 5:2 6:5 8:2 9:3 10:4 11:2 #
-0.00038832790192473498136829790361446 2:1 3:39 6:5 9:3 10:1 14:1 16:2 20:1 #
-0.00038832790192473498136829790361446 1:1 2:3 3:40 4:1 5:1 6:6 9:4 10:1 11:1 15:1 18:1 #
0.00038832790192473498136829790361446 2:6 3:42 4:1 5:2 6:7 7:3 8:3 9:3 10:4 17:1 23:1 #
-0.00038832790192473498136829790361446 2:4 3:41 4:2 5:2 6:10 7:1 8:1 9:2 10:1 14:1 15:2 #
0.00038832790192473498136829790361446 2:3 3:42 4:2 5:2 6:4 9:3 10:2 16:1 18:1 19:1 #
-0.00038832790192473498136829790361446 2:1 3:45 5:1 6:5 9:4 10:3 11:1 14:1 #
0.00038832790192473498136829790361446 2:3 3:39 4:1 5:3 6:9 8:1 9:2 10:3 11:2 19:1 #
-0.00038832790192473498136829790361446 2:4 3:31 5:2 6:4 9:1 10:1 14:1 15:1 17:2 #
0.00038832790192473498136829790361446 2:6 3:49 6:7 8:1 9:6 10:3 16:1 18:2 19:1 20:1 #
0.00038832790192473498136829790361446 2:1 3:33 4:2 5:4 6:7 9:1 10:3 12:2 15:1 23:1 #
-0.00038832790192473498136829790361446 2:1 3:27 6:4 9:1 10:3 12:1 14:1 15:1 #
0.00038832790192473498136829790361446 2:4 3:58 4:2 5:4 6:10 8:2 9:3 10:4 11:3 15:1 18:1 19:1 20:2 25:1 #
-0.00038832790192473498136829790361446 1:1 2:9 3:68 4:1 5:6 6:7 9:4 10:4 12:1 15:1 16:1 18:2 #
0.00038832790192473498136829790361446 2:3 3:32 4:1 5:2 6:2 8:1 9:2 12:1 17:1 18:1 19:1 #
0.00038832790192473498136829790361446 2:5 3:61 5:3 6:11 8:1 9:3 10:1 17:1 18:1 23:1 #
-0.00038832790192473498136829790361446 1:1 2:4 3:66 4:2 5:6 6:8 8:1 9:4 10:3 11:1 16:1 22:1 30:4 #
0.00038832790192473498136829790361446 2:5 3:35 4:2 5:1 6:1 9:2 10:4 12:1 15:2 18:4 20:1 23:1 24:1 25:1 26:1 #
-0.00038832790192473498136829790361446 2:3 3:24 4:1 6:5 9:2 10:1 12:1 14:1 15:1 #
0.00038832790192473498136829790361446 2:6 3:51 5:5 6:10 8:1 9:3 10:4 15:1 18:1 23:1 #
-0.00038832790192473498136829790361446 1:1 2:10 3:65 4:2 5:3 6:12 7:1 9:3 10:6 11:1 15:1 18:3 20:1 #
0.00038832790192473498136829790361446 2:1 3:49 4:1 6:4 8:2 9:1 10:2 19:1 #
-0.00038832790192473498136829790361446 1:1 2:4 3:50 4:2 5:3 6:5 7:1 8:2 9:3 10:6 11:1 15:1 18:1 20:1 #
0.00038832790192473498136829790361446 2:7 3:35 6:6 8:1 9:2 12:1 15:1 17:2 18:2 23:1 26:2 #
-0.00038832790192473498136829790361446 2:3 3:25 4:1 5:1 6:5 9:1 10:1 14:1 15:2 #
0.00038832790192473498136829790361446 2:2 3:55 4:1 5:4 6:6 7:1 8:3 9:1 10:10 15:1 18:1 21:1 22:1 23:1 #
-0.00038832790192473498136829790361446 1:1 2:4 3:71 4:1 5:3 6:5 7:1 8:1 9:2 10:7 11:1 15:3 24:1 #
0.00038832790192473498136829790361446 2:6 3:31 5:3 6:5 9:2 10:1 18:3 19:1 #
0.00038832790192473498136829790361446 2:2 3:36 5:3 6:6 9:1 10:1 11:1 15:1 19:1 #
0.00038832790192473498136829790361446 2:4 3:42 5:5 6:4 8:1 9:1 15:3 16:1 19:1 20:1 #
0.00038832790192473498136829790361446 2:3 3:44 5:3 6:4 7:1 8:1 9:3 10:1 15:3 22:1 23:1 #
0.00038832790192473498136829790361446 2:2 3:58 5:1 6:10 9:8 10:1 11:1 15:3 16:2 19:1 #
-0.00038832790192473498136829790361446 1:1 2:7 3:40 4:1 5:1 6:4 8:4 9:5 10:2 11:1 15:2 16:1 #
-0.00038832790192473498136829790361446 1:1 2:9 3:52 4:1 5:2 6:4 8:1 9:2 10:6 15:1 18:5 #
-0.00038832790192473498136829790361446 2:3 3:37 4:2 5:4 6:2 8:1 9:3 10:1 14:1 #
0.00038832790192473498136829790361446 2:6 3:48 4:3 5:3 6:9 7:1 8:2 9:4 10:2 15:1 16:1 18:1 23:1 #
0.00038832790192473498136829790361446 2:3 3:39 5:1 6:3 10:2 18:2 20:1 23:1 #
0.00038832790192473498136829790361446 2:8 3:57 4:2 6:7 7:2 8:1 9:4 10:6 11:1 15:1 18:6 22:1 23:1 24:1 #
0.00038832790192473498136829790361446 2:2 3:36 4:1 5:3 9:4 10:1 12:1 18:1 19:1 #
-0.00038832790192473498136829790361446 1:1 2:4 3:54 4:2 5:2 6:6 8:1 9:6 10:2 11:1 20:1 #
-0.00038832790192473498136829790361446 1:1 2:3 3:26 4:1 5:1 6:3 17:1 #
-0.00038832790192473498136829790361446 1:1 2:13 3:71 5:8 6:12 7:1 8:1 9:4 10:2 15:2 #
0.00038832790192473498136829790361446 2:3 3:30 6:7 7:1 8:1 9:1 10:3 15:1 17:2 18:1 19:1 #
0.00038832790192473498136829790361446 2:5 3:112 4:1 5:7 6:15 7:1 9:12 10:12 11:3 13:1 16:1 17:1 18:7 19:1 20:1 #
-0.00038832790192473498136829790361446 2:3 3:43 5:1 6:10 8:1 9:1 10:1 11:2 13:1 14:1 15:2 20:1 #
-0.00038832790192473498136829790361446 2:3 3:51 4:3 5:3 6:6 8:1 9:2 10:3 11:1 14:1 17:1 30:1 #
-0.00038832790192473498136829790361446 1:1 2:3 3:40 5:1 6:4 9:1 10:2 11:1 18:2 20:1 #
0.00038832790192473498136829790361446 2:6 3:44 5:4 6:8 9:1 10:2 11:3 17:1 18:2 19:1 #
-0.00038832790192473498136829790361446 2:4 3:41 5:2 6:8 7:1 8:3 10:1 11:1 14:1 15:1 #
0.00038832790192473498136829790361446 2:3 3:44 5:3 6:4 7:1 8:1 9:3 10:1 15:3 22:1 23:1 #
-0.00038832790192473498136829790361446 2:3 3:39 5:3 6:5 8:1 9:4 10:3 12:1 14:1 15:1 #
0.00038832790192473498136829790361446 2:2 3:37 4:1 6:9 10:3 15:1 18:1 19:1 #
0.00038832790192473498136829790361446 2:2 3:42 5:2 6:4 10:1 15:3 18:1 23:1 #
-0.00038832790192473498136829790361446 1:1 2:3 3:38 4:1 5:2 6:4 8:1 9:1 10:2 15:1 18:1 #
0.00038832790192473498136829790361446 2:3 3:47 4:1 5:5 6:7 9:2 10:2 15:2 23:1 #
0.00038832790192473498136829790361446 2:5 3:34 5:2 6:9 9:7 10:2 11:1 18:1 19:1 #
-0.00038832790192473498136829790361446 1:1 2:3 3:27 6:6 9:2 10:3 12:1 17:1 25:1 26:1 #
0.00038832790192473498136829790361446 2:2 3:50 4:3 5:3 6:5 8:1 9:2 10:2 19:1 #
-0.00038832790192473498136829790361446 1:1 2:8 3:55 4:1 5:6 6:7 8:1 9:3 10:2 22:1 #
-0.00038832790192473498136829790361446 1:1 2:3 3:54 4:2 5:2 6:3 7:2 9:1 10:2 18:1 #
-0.00038832790192473498136829790361446 2:2 3:32 5:1 6:5 9:3 10:1 11:2 14:1 #
0.00038832790192473498136829790361446 2:8 3:46 5:3 6:3 7:1 8:3 9:1 10:3 18:4 23:1 #
-0.00038832790192473498136829790361446 1:1 2:3 3:41 5:2 6:5 10:2 11:1 15:1 17:1 18:1 #
-0.00038832790192473498136829790361446 2:1 3:37 6:3 8:1 9:1 14:1 15:2 16:2 #
-0.00038832790192473498136829790361446 2:4 3:43 4:1 5:3 6:6 9:5 10:2 14:1 20:1 #
-0.00038832790192473498136829790361446 1:1 2:1 3:36 4:2 5:2 6:3 9:2 10:1 11:1 20:1 #
-0.00038832790192473498136829790361446 2:3 3:36 5:2 6:3 8:1 9:1 10:2 11:1 14:1 18:1 #
0.00038832790192473498136829790361446 2:2 3:46 5:3 6:7 9:1 10:1 11:1 15:1 19:1 #
0.00038832790192473498136829790361446 2:6 3:43 5:5 6:6 9:2 11:1 18:2 19:1 #
0.00038832790192473498136829790361446 2:3 3:38 5:2 6:4 13:1 17:1 18:1 19:1 #
0.00038832790192473498136829790361446 2:1 3:51 6:1 7:2 9:6 10:1 17:1 19:1 #
0.00038832790192473498136829790361446 2:4 3:37 5:2 6:6 7:1 8:1 9:1 18:1 19:1 #
-0.00038832790192473498136829790361446 1:1 2:8 3:72 5:3 6:10 7:3 9:1 10:7 11:2 12:1 17:1 18:1 22:1 24:1 #
0.00038832790192473498136829790361446 2:4 3:34 4:2 5:3 6:4 8:2 9:2 10:4 11:1 15:1 17:2 18:1 19:1 #
-0.00038832790192473498136829790361446 2:3 3:36 5:1 6:3 9:1 10:3 14:1 15:1 #
-0.00038832790192473498136829790361446 1:1 2:6 3:46 4:1 5:5 6:5 9:7 10:3 18:1 #
0.00038832790192473498136829790361446 2:4 3:35 5:4 6:8 8:1 9:1 10:2 11:1 15:1 18:1 23:1 #
-0.00038832790192473498136829790361446 1:1 2:3 3:33 5:1 6:8 7:1 9:2 10:1 22:1 30:1 #
0.00038832790192473498136829790361446 2:3 3:52 5:4 6:4 8:1 9:6 10:2 15:1 19:1 #
0.00038832790192473498136829790361446 2:1 3:34 4:1 5:1 6:6 8:2 9:1 10:2 11:1 17:1 23:1 #
-0.00038832790192473498136829790361446 1:1 2:3 3:32 4:1 5:1 6:2 7:1 8:2 9:3 16:1 22:1 #
0.00038832790192473498136829790361446 2:3 3:59 4:3 5:1 6:13 7:1 8:2 9:3 10:3 11:1 15:1 18:1 23:1 #
-0.00038832790192473498136829790361446 2:9 3:63 5:2 6:11 7:1 8:2 9:6 10:4 14:1 15:2 16:1 17:1 22:2 #
0.00038832790192473498136829790361446 2:4 3:37 5:1 6:2 8:1 9:4 10:3 17:1 18:2 19:1 26:1 #
-0.00038832790192473498136829790361446 1:1 2:2 3:32 6:4 8:1 15:1 #
0.00038832790192473498136829790361446 2:5 3:58 5:4 6:9 7:2 9:3 10:5 11:1 15:1 16:1 17:2 18:2 19:1 #
-0.00038832790192473498136829790361446 1:1 2:7 3:71 5:1 6:6 7:1 8:2 10:2 11:1 12:1 18:1 22:1 #
-0.00038832790192473498136829790361446 1:1 2:3 3:32 4:1 5:1 6:7 8:1 9:1 10:4 11:2 15:1 18:1 #
0.00038832790192473498136829790361446 2:6 3:59 4:1 5:3 6:9 7:2 8:1 9:5 11:1 15:3 17:2 18:1 20:1 23:1 24:1 #
-0.00038832790192473498136829790361446 2:6 3:64 6:5 9:2 10:2 11:1 14:1 15:1 17:2 18:1 #
0.00038832790192473498136829790361446 2:4 3:40 5:1 6:1 9:5 10:2 18:3 23:1 24:1 #
0.00038832790192473498136829790361446 2:2 3:54 4:1 6:4 9:2 12:1 15:1 17:4 19:1 #
0.00038832790192473498136829790361446 2:3 3:30 5:4 6:8 9:5 10:2 11:2 15:1 18:1 19:1 #
0.00038832790192473498136829790361446 2:5 3:36 4:1 5:3 6:5 7:1 8:2 9:2 10:2 18:2 19:1 20:1 #
0.00038832790192473498136829790361446 2:5 3:41 4:1 5:1 6:4 8:4 9:2 10:4 15:1 16:1 17:1 18:2 19:1 #
0.00038832790192473498136829790361446 2:3 3:41 6:9 8:1 9:3 10:5 11:1 16:1 18:2 21:1 23:1 #
-0.00038832790192473498136829790361446 1:1 2:12 3:69 4:3 5:3 6:11 7:1 8:2 9:11 10:5 16:1 24:1 31:1 #
-0.00038832790192473498136829790361446 2:2 3:35 6:6 7:1 9:2 10:2 12:1 14:1 #
0.00038832790192473498136829790361446 2:3 3:55 4:1 5:6 6:2 8:1 9:5 10:2 11:1 18:1 19:1 #
-0.00038832790192473498136829790361446 1:1 2:3 3:51 4:2 5:5 6:5 9:2 10:1 11:2 12:1 #
0.00038832790192473498136829790361446 2:2 3:38 4:2 5:2 6:4 9:1 10:1 16:1 17:1 18:1 19:1 20:2 #
-0.00038832790192473498136829790361446 2:1 3:40 4:2 5:1 6:2 9:3 10:2 14:1 15:1 20:1 26:1 #
0.00038832790192473498136829790361446 2:5 3:46 4:2 5:1 6:9 9:2 10:4 11:1 17:3 18:2 23:1 #
-0.00038832790192473498136829790361446 2:6 3:46 5:1 6:7 8:2 9:4 10:2 14:1 15:1 18:1 26:1 #
0.00038832790192473498136829790361446 2:2 3:43 5:1 6:3 9:2 10:1 15:1 17:1 18:1 19:1 #
-0.00038832790192473498136829790361446 2:3 3:45 4:1 5:4 6:4 8:1 10:2 11:1 14:1 17:1 #
0.00038832790192473498136829790361446 2:3 3:42 5:2 6:6 9:4 10:3 11:1 12:1 17:1 18:1 19:1 #
-0.00038832790192473498136829790361446 2:3 3:37 4:2 5:3 6:3 8:1 9:3 10:2 14:1 20:1 #
0.00038832790192473498136829790361446 2:2 3:39 4:1 5:1 6:2 8:4 9:4 10:1 15:1 19:1 #
-0.00038832790192473498136829790361446 2:1 3:39 6:2 9:3 10:2 14:1 #
0.00038832790192473498136829790361446 2:3 3:40 5:4 6:9 8:1 9:3 10:1 12:1 23:1 #
-0.00038832790192473498136829790361446 1:1 2:8 3:51 5:4 6:6 9:5 10:2 15:1 18:2 26:1 #
-0.00038832790192473498136829790361446 1:1 2:3 3:34 5:3 6:5 7:1 8:1 9:3 10:5 15:1 30:1 #
0.00038832790192473498136829790361446 2:2 3:45 4:2 5:4 8:1 10:1 11:3 13:1 18:3 19:1 #
-0.00038832790192473498136829790361446 1:1 2:4 3:53 4:2 6:5 7:1 8:1 10:3 11:1 12:1 15:1 16:1 18:2 20:2 #
-0.00038832790192473498136829790361446 2:2 3:34 4:2 5:2 6:4 9:2 10:1 14:1 15:1 16:2 #
0.00038832790192473498136829790361446 2:5 3:52 5:3 6:5 8:2 9:2 10:7 11:1 15:2 18:4 20:1 23:1 #
0.00038832790192473498136829790361446 2:1 3:41 6:5 7:2 8:1 9:3 10:1 15:1 16:1 17:1 23:1 26:1 #
-0.00038832790192473498136829790361446 2:3 3:43 5:1 6:3 8:2 9:1 11:3 14:1 18:1 #
0.00038832790192473498136829790361446 2:6 3:49 4:2 5:2 6:8 7:2 8:1 9:5 10:3 11:1 18:3 23:1 #
-0.00038832790192473498136829790361446 1:1 2:3 3:47 5:3 6:9 10:5 #
0.00038832790192473498136829790361446 2:2 3:35 4:2 5:1 6:3 9:2 10:2 11:1 18:3 23:1 24:1 #
-0.00038832790192473498136829790361446 2:2 3:34 6:3 8:1 9:3 10:1 11:1 12:1 14:1 #
0.00038832790192473498136829790361446 2:3 3:47 6:8 7:1 9:4 10:2 11:1 17:1 18:1 19:1 20:1 24:1 #
-0.00038832790192473498136829790361446 1:1 2:6 3:53 4:1 5:3 6:8 7:1 8:1 9:5 10:1 16:1 22:1 #
0.00038832790192473498136829790361446 2:1 3:38 5:4 6:5 9:2 10:2 15:2 19:1 #
-0.00038832790192473498136829790361446 2:3 3:32 6:7 9:3 10:3 14:1 #
0.00038832790192473498136829790361446 2:1 3:59 5:5 6:4 8:1 9:3 10:2 15:1 17:1 23:1 #
-0.00038832790192473498136829790361446 1:1 2:7 3:68 4:2 5:3 6:5 7:1 8:3 9:2 10:1 11:1 12:1 #
0.00038832790192473498136829790361446 2:3 3:31 4:2 5:2 6:5 9:6 10:1 15:1 17:1 18:1 19:1 #
-0.00038832790192473498136829790361446 2:4 3:43 5:1 6:5 7:1 8:1 9:1 10:7 14:1 15:1 #
-0.00038832790192473498136829790361446 1:1 2:4 3:52 4:1 5:3 6:5 7:1 8:2 9:4 10:8 15:1 #
0.00038832790192473498136829790361446 2:4 3:38 5:2 6:6 8:1 9:1 10:4 15:1 18:3 23:1 25:1 #
-0.00038832790192473498136829790361446 1:1 2:1 3:31 4:2 5:1 6:2 9:1 10:2 12:1 15:3 #
-0.00038832790192473498136829790361446 1:1 2:4 3:37 4:4 5:2 6:5 7:1 8:2 9:2 10:3 11:1 15:2 18:1 30:1 #
0.00038832790192473498136829790361446 2:6 3:45 4:2 5:1 6:7 8:1 9:5 10:1 11:3 15:2 16:1 17:3 18:2 19:1 #
-0.00038832790192473498136829790361446 2:3 3:49 4:2 5:4 6:7 9:3 10:3 11:3 12:2 14:1 16:1 24:3 #
-0.00038832790192473498136829790361446 1:1 2:7 3:47 4:2 5:6 6:5 7:1 9:3 10:4 11:1 15:1 18:2 25:1 #
-0.00038832790192473498136829790361446 2:3 3:43 4:1 5:3 6:8 9:1 10:1 11:3 14:1 #
-0.00038832790192473498136829790361446 2:3 3:50 6:4 9:3 10:2 11:2 14:1 16:1 18:1 20:1 #
-0.00038832790192473498136829790361446 2:5 3:42 4:1 5:2 6:2 9:7 10:1 11:2 14:1 15:1 18:1 #
0.00038832790192473498136829790361446 2:1 3:33 6:3 7:1 8:2 9:3 11:1 15:1 17:2 23:1 29:1 #
0.00038832790192473498136829790361446 2:3 3:33 5:1 6:5 9:2 10:3 18:3 19:1 20:1 #
0.00038832790192473498136829790361446 2:2 3:37 4:2 6:5 8:2 9:2 10:2 18:2 19:1 #
0.00038832790192473498136829790361446 2:4 3:40 5:1 6:6 9:3 10:2 18:3 23:1 24:1 #
0.00038832790192473498136829790361446 2:5 3:43 4:1 5:3 6:10 7:1 9:2 10:4 11:2 18:3 19:1 22:1 26:1 #
0.00038832790192473498136829790361446 2:1 3:33 4:1 5:2 6:4 8:1 9:2 10:3 11:1 12:1 16:1 17:2 18:1 19:1 #
-0.00038832790192473498136829790361446 2:7 3:39 6:9 8:3 9:2 10:1 14:1 18:1 #
-0.00038832790192473498136829790361446 2:2 3:38 4:1 5:1 6:6 7:2 8:1 10:3 11:1 14:1 #
0.00038832790192473498136829790361446 2:2 3:44 4:2 5:1 6:8 9:6 10:5 11:1 15:1 18:1 20:1 23:1 #
-0.00038832790192473498136829790361446 1:1 2:3 3:48 4:2 5:2 6:4 8:2 9:2 10:3 20:1 #
0.00038832790192473498136829790361446 2:4 3:37 4:1 5:1 6:5 7:1 8:1 9:4 10:1 15:2 16:1 17:3 18:1 23:1 #
-0.00038832790192473498136829790361446 2:3 3:33 4:1 6:6 9:3 10:1 14:1 #
0.00038832790192473498136829790361446 2:2 3:49 4:2 5:1 6:4 8:1 9:1 10:2 18:3 23:1 #
0.00038832790192473498136829790361446 2:1 3:34 5:3 6:8 9:3 10:1 11:4 12:1 18:1 19:1 24:1 #
0.00038832790192473498136829790361446 2:3 3:58 4:1 5:6 6:7 8:1 9:3 10:6 11:1 15:2 18:2 23:1 #
-0.00038832790192473498136829790361446 2:4 3:52 4:1 5:1 6:6 9:5 10:4 14:1 #
-0.00038832790192473498136829790361446 2:2 3:32 4:1 6:5 7:1 9:2 10:2 11:1 12:1 14:1 15:1 #
0.00038832790192473498136829790361446 2:1 3:49 4:1 5:2 6:4 7:1 9:3 10:3 11:1 15:1 16:1 18:2 23:1 #
-0.00038832790192473498136829790361446 1:1 2:9 3:65 4:2 5:7 6:9 9:4 10:5 11:2 12:1 15:1 18:1 31:1 #
0.00038832790192473498136829790361446 3:36 4:1 6:5 8:1 10:2 15:1 18:2 19:1 #
0.00038832790192473498136829790361446 2:6 3:36 4:1 5:2 6:1 8:1 9:1 10:2 11:1 13:1 16:1 17:3 18:5 23:1 29:1 #
-0.00038832790192473498136829790361446 2:3 3:43 6:3 7:1 9:4 10:5 11:1 14:1 17:2 #
-0.00038832790192473498136829790361446 1:1 2:5 3:41 5:4 6:6 10:1 18:1 #
0.00038832790192473498136829790361446 2:5 3:49 5:2 6:5 8:1 9:5 10:2 12:1 15:2 18:3 23:1 #
-0.00038832790192473498136829790361446 2:7 3:53 4:1 6:3 8:1 9:2 11:1 14:1 18:3 20:1 #
0.00038832790192473498136829790361446 3:34 5:2 6:5 8:3 9:3 10:2 19:1 24:1 #
-0.00038832790192473498136829790361446 1:1 2:2 3:35 4:1 5:2 6:2 9:3 10:2 12:1 #
0.00038832790192473498136829790361446 2:7 3:58 5:4 6:10 8:1 9:2 10:4 15:2 18:4 20:2 23:1 #
0.00038832790192473498136829790361446 2:2 3:38 4:2 5:2 6:3 9:3 10:3 17:2 18:2 23:1 #
-0.00038832790192473498136829790361446 2:3 3:28 4:1 5:1 6:6 9:1 10:3 11:1 14:1 15:1 #
0.00038832790192473498136829790361446 2:5 3:70 4:2 5:2 6:3 8:6 9:4 10:3 11:1 17:4 18:2 20:1 23:1 #
0.00038832790192473498136829790361446 2:2 3:34 4:1 5:2 6:12 9:3 10:1 15:1 16:1 18:1 19:1 #
-0.00038832790192473498136829790361446 2:1 3:38 4:1 6:5 10:2 12:2 14:1 #
0.00038832790192473498136829790361446 2:6 3:47 5:1 6:3 8:2 9:3 10:3 11:1 15:2 16:1 18:5 19:1 22:1 25:1 28:1 #
-0.00038832790192473498136829790361446 1:1 2:4 3:40 5:1 6:4 7:1 8:2 9:3 10:6 11:1 18:1 25:1 #
0.00038832790192473498136829790361446 2:1 3:49 5:4 6:8 7:1 8:2 9:1 10:2 23:1 26:1 #
-0.00038832790192473498136829790361446 1:1 2:4 3:49 4:2 5:2 6:4 8:1 9:4 11:2 15:2 24:1 #
0.00038832790192473498136829790361446 2:1 3:44 4:3 5:2 6:5 7:2 9:3 10:3 11:1 15:2 16:1 18:2 23:1 #
-0.00038832790192473498136829790361446 1:1 2:4 3:49 4:2 5:3 6:5 8:4 9:2 10:7 11:1 12:1 15:1 #
0.00038832790192473498136829790361446 2:2 3:47 5:4 6:5 8:3 10:4 15:2 17:1 18:1 23:1 #
-0.00038832790192473498136829790361446 2:4 3:29 5:2 6:7 10:1 14:1 #
-0.00038832790192473498136829790361446 2:4 3:43 4:1 5:2 6:7 7:1 9:1 10:1 14:1 #
0.00038832790192473498136829790361446 2:5 3:48 4:2 5:1 6:9 8:2 9:6 10:5 16:1 17:2 18:2 19:1 #
-0.00038832790192473498136829790361446 2:7 3:53 5:3 6:7 8:2 9:3 10:3 11:1 12:1 14:1 15:1 18:1 #
0.00038832790192473498136829790361446 2:1 3:39 5:2 6:4 8:2 9:1 17:1 18:1 19:1 #
0.00038832790192473498136829790361446 2:4 3:64 4:1 5:2 6:7 8:1 9:7 10:3 11:1 12:1 18:3 23:1 #
-0.00038832790192473498136829790361446 1:1 2:2 3:29 6:2 9:1 10:1 11:1 #
-0.00038832790192473498136829790361446 2:4 3:53 5:1 6:7 9:2 10:1 11:1 14:1 24:1 #
0.00038832790192473498136829790361446 2:3 3:34 5:3 6:4 7:1 8:1 9:7 10:3 18:2 19:1 24:1 26:1 #
-0.00038832790192473498136829790361446 2:4 3:33 4:1 5:1 6:6 7:1 9:2 10:3 14:1 15:3 #
0.00038832790192473498136829790361446 2:3 3:51 5:2 6:13 7:1 8:1 9:2 10:1 18:1 23:1 #
-0.00038832790192473498136829790361446 1:1 2:5 3:55 4:1 5:1 6:11 8:1 10:4 15:1 #
-0.00038832790192473498136829790361446 2:4 3:48 5:2 6:6 9:3 10:4 14:1 #
-0.00038832790192473498136829790361446 2:4 3:48 4:2 5:3 6:6 9:2 10:2 11:1 14:1 15:1 #
-0.00038832790192473498136829790361446 2:4 3:43 4:2 5:6 6:3 9:2 10:3 14:1 #
-0.00038832790192473498136829790361446 1:1 2:3 3:37 4:1 5:1 6:3 8:3 9:2 10:5 11:1 24:1 #
-0.00038832790192473498136829790361446 2:6 3:43 4:2 5:1 6:6 8:1 9:6 10:1 14:1 #
0.00038832790192473498136829790361446 2:3 3:52 4:1 5:2 6:8 7:1 8:2 9:2 10:4 11:1 15:3 17:1 18:2 23:1 #
0.00038832790192473498136829790361446 2:2 3:43 5:1 6:5 8:2 9:4 10:1 18:2 23:1 #
0.00038832790192473498136829790361446 2:3 3:53 5:4 6:8 8:1 10:5 11:1 17:1 18:3 23:1 24:1 #
0.00038832790192473498136829790361446 2:1 3:43 4:2 6:6 8:2 9:3 11:2 15:1 18:2 23:1 #
0.00038832790192473498136829790361446 2:7 3:56 4:2 5:3 6:8 7:3 8:1 9:6 10:1 13:1 18:4 23:1 29:1 #
0.00038832790192473498136829790361446 2:2 3:42 5:7 6:8 9:2 10:3 16:2 17:1 18:1 19:1 24:1 #
0.00038832790192473498136829790361446 2:3 3:64 4:1 5:7 6:7 8:2 9:4 10:3 17:1 18:1 19:1 20:1 #
0.00038832790192473498136829790361446 2:9 3:65 5:2 6:10 7:1 8:3 9:5 10:5 11:1 15:1 17:1 18:6 23:1 26:1 31:1 #
-0.00038832790192473498136829790361446 1:1 2:6 3:31 4:1 5:1 6:10 7:1 8:1 9:4 10:2 12:1 24:1 30:2 #
-0.00038832790192473498136829790361446 1:1 2:7 3:56 4:3 5:2 6:10 7:1 8:2 10:5 11:3 17:2 18:1 22:1 #
-0.00038832790192473498136829790361446 1:1 2:7 3:41 4:2 5:6 6:9 9:1 10:2 11:1 18:1 #
0.00038832790192473498136829790361446 2:2 3:43 4:1 5:1 6:8 8:2 9:2 10:3 11:3 15:2 17:1 18:2 19:1 20:1 #
0.00038832790192473498136829790361446 2:4 3:45 4:2 5:3 6:12 9:4 10:6 15:1 18:3 19:1 #
-0.00038832790192473498136829790361446 1:1 2:3 3:35 5:1 6:3 7:1 9:4 10:2 11:2 12:2 #
-0.00038832790192473498136829790361446 1:1 2:4 3:55 4:3 5:5 6:2 9:5 10:5 11:2 #
0.00038832790192473498136829790361446 2:1 3:35 4:2 5:5 6:7 9:5 10:3 18:1 19:1 #
-0.00038832790192473498136829790361446 1:1 2:6 3:62 5:1 6:9 9:4 10:4 11:3 12:1 13:1 27:1 #
-0.00038832790192473498136829790361446 2:3 3:44 4:1 5:1 6:4 9:1 10:1 14:1 #
-0.00038832790192473498136829790361446 1:1 2:5 3:42 4:2 6:11 8:2 9:1 10:5 12:1 16:1 #
0.00038832790192473498136829790361446 2:5 3:44 6:2 8:2 9:3 10:2 11:1 16:1 18:7 23:1 #
0.00038832790192473498136829790361446 2:1 3:49 5:2 6:8 7:1 9:5 10:1 15:1 18:1 23:1 #
0.00038832790192473498136829790361446 2:1 3:44 4:1 5:4 6:7 8:2 9:2 10:4 18:2 23:1 #
0.00038832790192473498136829790361446 2:4 3:53 5:3 6:4 7:1 9:4 17:1 18:4 22:1 23:1 #
-0.00038832790192473498136829790361446 2:4 3:37 4:1 5:2 6:3 8:2 9:2 10:1 11:1 14:1 #
0.00038832790192473498136829790361446 2:3 3:55 5:5 6:5 9:2 10:3 11:3 17:1 18:4 19:1 26:1 29:1 #
-0.00038832790192473498136829790361446 2:5 3:67 6:4 7:1 8:1 9:2 10:4 14:1 15:1 16:1 #
0.00038832790192473498136829790361446 2:6 3:35 4:2 5:1 6:10 7:1 8:1 9:4 18:5 19:1 #
-0.00038832790192473498136829790361446 1:1 2:4 3:28 5:4 6:5 10:1 11:2 #
-0.00038832790192473498136829790361446 2:6 3:49 5:5 6:7 9:4 10:4 11:2 14:1 17:1 30:4 #
-0.00038832790192473498136829790361446 1:1 2:2 3:46 4:3 5:1 6:4 10:2 24:1 #
0.00038832790192473498136829790361446 2:2 3:48 4:1 5:2 6:8 7:1 9:1 10:1 11:1 15:2 17:1 18:3 20:1 23:1 #
-0.00038832790192473498136829790361446 1:1 2:6 3:51 4:2 5:2 6:3 8:1 9:1 10:2 11:1 15:2 18:2 25:1 #
0.00038832790192473498136829790361446 2:1 3:37 4:1 5:2 6:6 8:1 9:4 10:1 11:1 18:3 19:1 #
-0.00038832790192473498136829790361446 2:4 3:36 4:1 5:1 6:4 8:1 9:2 10:1 14:1 15:1 #
-0.00038832790192473498136829790361446 1:1 2:8 3:70 4:2 5:5 6:7 9:3 10:6 11:4 15:1 18:1 #
-0.00038832790192473498136829790361446 2:5 3:50 4:3 5:1 6:7 8:1 9:2 11:1 14:1 15:1 30:1 #
-0.00038832790192473498136829790361446 1:1 2:7 3:47 5:2 6:10 8:4 9:2 10:6 11:2 #
-0.00038832790192473498136829790361446 2:4 3:50 4:2 5:1 6:4 7:2 8:1 9:3 10:4 12:1 14:1 #
-0.00038832790192473498136829790361446 2:3 3:42 5:3 6:3 9:1 10:2 11:1 14:1 26:1 #
-0.00038832790192473498136829790361446 1:1 2:5 3:53 4:2 5:3 6:5 8:1 9:2 10:4 11:2 15:1 16:1 17:1 22:1 #
0.00038832790192473498136829790361446 2:4 3:44 5:2 6:7 8:1 9:4 10:4 16:1 17:2 18:4 19:1 #
0.00038832790192473498136829790361446 2:2 3:33 5:3 6:2 7:1 8:1 9:1 10:1 15:1 18:6 19:1 #
0.00038832790192473498136829790361446 2:1 3:52 5:3 6:4 7:2 8:3 9:5 10:2 16:1 17:2 18:1 23:1 #
0.00038832790192473498136829790361446 2:1 3:44 5:3 6:6 7:1 8:1 9:10 10:2 11:4 15:1 16:1 17:1 18:1 19:1 22:1 #
0.00038832790192473498136829790361446 2:5 3:53 5:3 6:13 8:1 9:4 10:4 11:2 16:1 18:4 23:1 #
-0.00038832790192473498136829790361446 2:5 3:37 4:1 5:2 6:3 8:1 9:2 10:2 14:1 18:1 20:1 #
-0.00038832790192473498136829790361446 1:1 2:10 3:76 4:1 5:5 6:8 7:1 8:1 9:6 10:8 11:2 15:2 #
0.00038832790192473498136829790361446 2:4 3:50 4:3 5:2 6:10 7:2 8:4 9:1 10:4 11:3 15:1 18:5 23:1 24:1 26:1 #
0.00038832790192473498136829790361446 2:6 3:55 5:5 6:15 7:1 8:2 9:3 10:6 15:1 17:3 18:2 23:1 #
-0.00038832790192473498136829790361446 1:1 2:6 3:38 4:2 5:3 6:7 7:2 8:1 9:4 10:5 #
0.00038832790192473498136829790361446 2:2 3:71 4:4 5:8 6:3 7:1 8:2 9:3 10:2 12:1 18:3 20:1 23:1 #
0.00038832790192473498136829790361446 2:4 3:46 5:5 6:12 7:1 9:3 10:2 11:2 12:2 16:1 17:1 18:4 22:1 23:1 26:1 #
-0.00038832790192473498136829790361446 1:1 2:4 3:38 4:1 5:2 6:4 9:3 10:1 22:2 24:1 #
0.00038832790192473498136829790361446 2:2 3:72 6:7 7:1 8:4 9:2 10:1 18:3 19:1 24:1 #
-0.00038832790192473498136829790361446 1:1 2:5 3:43 5:2 6:5 9:1 10:2 16:1 18:1 #
0.00038832790192473498136829790361446 2:5 3:59 4:2 5:4 6:17 8:1 9:4 10:2 17:2 18:1 19:1 24:1 #
-0.00038832790192473498136829790361446 2:3 3:27 5:1 6:5 10:3 14:1 16:1 22:1 #
-0.00038832790192473498136829790361446 2:8 3:40 6:13 9:2 10:1 14:1 15:1 #
0.00038832790192473498136829790361446 2:9 3:67 4:1 5:6 6:8 8:8 9:6 10:8 11:2 12:1 15:1 18:6 21:1 23:1 25:1 #
0.00038832790192473498136829790361446 2:1 3:44 5:5 6:9 8:1 9:2 10:1 11:1 15:1 18:3 22:1 23:1 #
0.00038832790192473498136829790361446 2:3 3:63 5:4 6:10 8:2 9:2 10:1 11:2 15:3 16:1 18:3 19:1 #
0.00038832790192473498136829790361446 2:2 3:59 5:6 6:3 8:4 9:7 10:4 11:1 17:3 18:2 22:1 23:1 24:1 #
0.00038832790192473498136829790361446 2:1 3:50 5:4 6:3 7:1 8:1 9:6 10:4 18:5 23:1 24:1 #
-0.00038832790192473498136829790361446 1:1 2:2 3:35 4:2 5:2 6:5 10:3 11:5 15:1 #
0.00038832790192473498136829790361446 2:2 3:56 5:1 6:7 7:1 8:1 9:5 10:2 16:1 17:2 18:4 23:1 #
-0.00038832790192473498136829790361446 1:1 2:4 3:38 4:1 5:5 6:4 7:2 9:1 10:4 15:1 16:1 #
0.00038832790192473498136829790361446 2:7 3:72 4:1 5:6 6:13 8:1 9:3 10:7 11:4 15:2 18:7 23:1 25:2 #
-0.00038832790192473498136829790361446 1:1 2:3 3:39 5:1 6:6 10:3 11:2 #
0.00038832790192473498136829790361446 2:4 3:59 4:1 5:7 6:7 7:1 8:2 9:4 10:1 11:1 12:1 18:5 23:1 24:1 #
-0.00038832790192473498136829790361446 2:9 3:46 5:4 6:7 7:2 9:6 10:5 11:1 12:1 14:1 15:1 18:1 20:1 24:1 29:1 #
-0.00038832790192473498136829790361446 2:5 3:40 5:2 6:7 9:3 10:1 11:2 12:1 14:1 16:1 20:1 30:2 #
-0.00038832790192473498136829790361446 2:4 3:38 5:3 6:1 9:4 10:1 11:1 14:1 #
0.00038832790192473498136829790361446 2:2 3:75 4:2 5:7 6:13 8:4 9:7 10:4 11:1 12:2 15:1 17:1 18:2 23:1 #
-0.00038832790192473498136829790361446 1:1 2:5 3:47 4:1 5:6 6:6 8:1 10:4 12:1 30:1 31:1 #
0.00038832790192473498136829790361446 2:3 3:65 5:6 6:10 9:3 10:4 15:1 17:5 18:5 20:1 23:1 #
-0.00038832790192473498136829790361446 1:1 2:6 3:43 4:1 5:4 6:3 8:2 9:2 10:3 12:1 18:1 #
0.00038832790192473498136829790361446 2:4 3:52 5:3 6:12 7:1 8:2 9:6 10:5 11:2 12:1 15:1 16:1 18:8 23:1 #
0.00038832790192473498136829790361446 2:6 3:63 4:2 5:5 6:10 7:1 8:3 9:6 10:4 17:4 18:7 23:1 24:1 26:1 #
-0.00038832790192473498136829790361446 2:6 3:47 5:2 6:5 8:2 9:3 10:2 14:1 #
-0.00038832790192473498136829790361446 1:1 2:4 3:45 4:2 5:2 6:5 9:2 10:3 #
-0.00038832790192473498136829790361446 2:4 3:44 5:2 6:1 8:1 9:1 10:5 14:1 15:1 18:1 #
-0.00038832790192473498136829790361446 1:1 2:4 3:29 5:1 6:3 9:3 10:5 17:1 20:1 #
-4.3377832036978203333887904591393e-05 1:1 2:12 3:100 4:2 5:1 6:12 8:2 9:7 10:6 11:1 16:2 28:1 #
