SVM-light Version V6.02
0 # kernel type
3 # kernel parameter -d 
1 # kernel parameter -g 
1 # kernel parameter -s 
1 # kernel parameter -r 
empty# kernel parameter -u 
25 # highest feature index 
1124 # number of training documents 
699 # number of support vectors plus 1 
0.43158787 # threshold b, each following line is a SV (starting with alpha*y)
0.10000000000000000555111512312578 2:4 3:9 4:8 5:2 6:1 7:1 8:1 9:1 10:2 12:1 14:3 16:3 17:1 21:1 22:2 24:1 25:2 #
-0.10000000000000000555111512312578 1:2 3:6 4:6 5:2 6:1 7:1 8:1 10:1 11:1 13:1 14:1 19:1 20:1 21:1 #
-0.10000000000000000555111512312578 1:1 2:3 3:5 4:6 5:1 8:3 9:1 11:1 13:2 14:1 15:1 16:1 17:1 21:6 22:2 23:2 25:3 #
0.10000000000000000555111512312578 1:1 2:2 3:5 4:5 5:2 8:4 9:1 10:1 13:1 14:1 16:3 17:1 18:1 21:2 22:1 23:1 25:1 #
0.10000000000000000555111512312578 2:3 3:1 4:4 5:1 6:1 8:2 14:1 #
0.10000000000000000555111512312578 1:3 2:2 3:4 4:3 5:3 6:3 7:1 8:4 11:2 12:3 14:3 17:1 18:2 20:1 22:1 23:2 #
0.10000000000000000555111512312578 1:4 2:6 3:10 4:15 5:3 6:4 7:2 8:6 9:5 10:1 11:1 12:2 14:4 15:1 16:1 17:8 18:4 19:2 21:3 22:1 23:4 24:1 #
-0.10000000000000000555111512312578 1:1 2:5 3:5 4:5 5:3 7:1 8:3 10:4 12:1 13:2 14:2 16:1 17:2 21:4 24:2 25:1 #
0.10000000000000000555111512312578 2:1 3:5 4:12 5:1 6:2 8:3 9:1 10:1 13:1 14:5 17:4 18:2 19:1 21:3 23:3 24:5 #
-0.10000000000000000555111512312578 2:5 3:10 4:8 8:4 9:1 14:2 16:2 17:1 18:2 22:5 23:5 #
0.10000000000000000555111512312578 1:1 2:1 3:6 4:6 6:2 8:2 9:2 14:3 15:2 16:1 17:2 21:2 23:6 25:1 #
0.10000000000000000555111512312578 1:16 2:8 3:17 4:22 5:10 6:3 7:1 8:6 11:1 12:1 13:4 14:8 15:1 16:1 17:3 18:1 19:2 20:3 21:2 22:1 #
0.10000000000000000555111512312578 1:1 2:7 3:11 4:13 5:3 6:3 7:3 8:5 9:2 10:6 11:2 12:1 14:9 15:1 16:4 17:6 18:3 19:1 20:1 21:1 22:2 24:9 25:1 #
-0.10000000000000000555111512312578 1:1 2:11 3:31 4:26 5:8 6:1 7:2 8:3 9:4 10:4 11:7 12:3 14:8 15:1 16:4 17:5 18:3 19:3 20:5 21:1 22:1 24:16 #
0.10000000000000000555111512312578 1:6 2:2 3:3 4:5 5:1 6:2 8:1 11:2 12:1 13:2 14:1 16:1 17:1 20:1 21:2 22:1 23:4 25:2 #
-0.10000000000000000555111512312578 2:1 3:7 4:6 6:3 8:6 9:1 11:2 13:3 14:8 15:1 16:2 17:4 19:1 20:2 21:2 23:4 24:1 #
-0.10000000000000000555111512312578 1:1 2:6 3:10 4:9 5:5 6:4 7:1 8:10 9:1 10:5 13:2 14:10 15:1 16:1 17:6 18:1 19:1 20:1 21:2 23:1 24:8 #
-0.10000000000000000555111512312578 1:8 2:4 3:6 4:14 5:1 6:1 7:3 8:7 9:2 10:1 11:2 12:2 13:2 14:4 15:1 17:3 18:1 19:2 20:1 21:1 22:1 24:4 #
0.10000000000000000555111512312578 1:1 2:3 3:9 4:4 6:2 8:1 9:1 11:1 13:1 14:4 16:1 19:1 21:1 23:5 #
-0.10000000000000000555111512312578 1:1 2:4 3:16 4:9 5:5 7:1 8:2 9:1 10:3 11:1 12:1 14:3 15:1 16:1 17:3 18:3 19:4 20:4 21:2 22:2 24:3 25:1 #
-0.10000000000000000555111512312578 2:2 3:8 4:4 5:3 9:2 10:1 12:2 13:1 14:1 16:1 18:1 19:1 21:2 22:1 24:2 #
0.10000000000000000555111512312578 1:7 2:7 3:23 4:13 5:4 6:3 7:2 8:2 9:5 10:1 12:3 13:3 14:8 15:1 16:3 17:2 18:1 19:2 20:1 21:4 22:1 23:2 24:3 25:2 #
-0.10000000000000000555111512312578 1:3 2:2 3:1 4:2 5:4 6:1 8:1 15:1 17:1 18:1 19:1 25:3 #
0.10000000000000000555111512312578 1:11 2:4 3:11 4:25 5:6 6:1 7:3 8:3 9:5 11:5 12:7 13:3 14:7 15:1 16:3 17:8 18:4 19:1 20:2 21:2 22:3 23:3 #
0.10000000000000000555111512312578 1:2 2:6 3:3 4:14 5:3 6:4 8:4 10:1 12:2 13:5 14:2 15:2 16:4 17:3 20:3 21:3 22:1 23:4 24:1 #
0.10000000000000000555111512312578 1:2 2:2 3:7 4:5 6:1 8:1 9:1 13:3 14:3 16:2 17:2 21:2 22:1 23:2 25:3 #
0.10000000000000000555111512312578 1:17 2:18 3:41 4:39 5:17 6:13 7:3 8:16 9:22 10:3 11:11 12:8 13:3 14:22 15:3 16:3 17:10 18:8 19:3 20:5 21:3 22:5 23:7 24:6 25:4 #
0.10000000000000000555111512312578 1:1 2:3 3:5 4:8 5:3 6:1 8:2 9:1 10:1 11:1 12:1 13:1 14:1 17:1 18:1 21:3 25:3 #
0.10000000000000000555111512312578 2:1 3:7 4:7 5:1 6:1 8:5 11:1 13:1 14:1 16:2 17:2 18:1 20:3 21:8 22:1 23:2 24:5 #
-0.10000000000000000555111512312578 1:2 2:4 3:5 4:3 5:2 8:1 10:3 12:1 13:1 14:2 17:3 19:2 23:1 #
0.10000000000000000555111512312578 1:3 2:3 3:9 4:8 5:2 7:2 9:2 11:5 12:3 14:6 16:4 17:1 18:1 21:7 22:1 23:1 #
0.10000000000000000555111512312578 1:4 2:4 3:8 4:7 5:6 8:2 11:1 12:1 13:2 14:6 16:1 17:3 18:3 19:4 21:1 22:1 23:1 #
-0.10000000000000000555111512312578 1:10 2:13 3:28 4:27 5:7 6:5 7:3 8:16 9:9 10:3 11:5 12:6 14:10 15:2 16:7 17:11 18:2 19:3 20:1 22:3 23:6 #
0.10000000000000000555111512312578 2:1 3:3 4:3 6:1 9:1 11:1 14:2 17:1 19:1 22:1 #
0.10000000000000000555111512312578 2:2 3:7 4:4 8:5 10:1 11:1 13:1 14:3 17:1 18:1 19:1 20:3 21:2 22:1 24:4 #
0.10000000000000000555111512312578 1:4 2:3 3:2 4:6 5:3 6:2 8:1 14:4 17:1 18:1 21:2 23:2 25:1 #
0.10000000000000000555111512312578 1:2 2:2 3:8 4:6 5:2 8:2 9:4 10:2 11:1 12:2 13:2 14:5 15:2 17:1 19:1 21:3 23:3 24:3 #
-0.10000000000000000555111512312578 1:3 2:3 3:3 4:4 5:4 6:2 7:1 8:6 16:2 17:2 18:1 22:1 #
0.10000000000000000555111512312578 2:4 3:12 4:9 5:1 8:2 10:3 11:1 12:1 14:5 15:2 17:2 18:1 19:4 21:2 24:6 #
-0.10000000000000000555111512312578 1:2 2:16 3:33 4:38 5:5 6:12 7:3 8:13 9:5 10:9 11:10 12:2 13:3 14:24 16:14 17:8 18:8 21:4 24:25 #
0.10000000000000000555111512312578 1:2 2:2 3:4 4:4 5:4 6:1 7:1 8:2 9:4 10:1 13:1 14:1 19:1 21:1 22:1 24:1 25:2 #
0.10000000000000000555111512312578 1:1 2:3 3:3 4:4 5:2 7:1 8:1 9:1 10:3 13:1 14:3 15:1 17:1 18:1 21:2 22:1 24:1 #
0.10000000000000000555111512312578 1:7 2:3 3:13 4:14 5:5 6:2 7:1 8:1 12:1 14:5 16:3 17:1 18:3 19:1 20:1 21:1 23:2 25:2 #
0.10000000000000000555111512312578 1:5 3:6 4:9 5:3 6:1 8:4 9:1 11:2 12:3 13:2 14:2 15:1 16:4 17:1 20:3 21:1 22:4 23:1 25:1 #
0.10000000000000000555111512312578 1:4 2:2 3:4 4:6 5:1 10:2 13:2 14:2 15:2 17:2 21:2 24:1 25:2 #
-0.10000000000000000555111512312578 1:16 2:10 3:17 4:28 5:8 6:4 7:8 8:10 9:5 10:2 11:4 12:5 13:2 14:11 15:1 16:2 17:8 18:1 19:6 20:3 21:5 22:4 23:1 24:1 25:4 #
-0.10000000000000000555111512312578 1:2 2:4 3:4 4:6 5:5 7:2 8:3 18:2 20:1 21:1 22:1 25:3 #
0.10000000000000000555111512312578 1:4 2:4 3:5 4:8 7:1 8:2 9:1 11:1 12:1 14:5 15:3 17:2 22:2 23:2 #
0.10000000000000000555111512312578 1:2 2:1 3:2 4:4 5:2 8:1 9:2 13:2 15:1 17:1 19:1 #
-0.10000000000000000555111512312578 1:1 2:2 3:3 4:4 5:1 6:2 7:1 8:2 14:1 16:1 22:1 25:1 #
0.10000000000000000555111512312578 1:5 2:3 3:4 4:16 5:3 6:3 8:5 9:3 10:1 11:1 12:2 13:1 14:5 15:1 16:5 19:1 20:1 21:2 22:2 24:1 25:4 #
-0.10000000000000000555111512312578 1:10 2:23 3:34 4:35 5:8 6:3 7:1 8:8 9:4 10:5 11:1 12:2 14:18 15:2 16:9 17:8 18:5 19:4 20:1 21:6 23:1 24:13 #
0.10000000000000000555111512312578 2:1 3:11 4:1 6:1 7:1 8:1 10:1 11:1 12:4 14:3 16:3 17:3 18:1 21:2 24:1 25:1 #
-0.10000000000000000555111512312578 1:2 2:1 3:5 4:5 5:1 8:1 10:1 18:1 19:1 21:2 25:3 #
-0.10000000000000000555111512312578 1:4 2:8 3:7 4:7 5:4 6:1 7:2 8:4 9:2 10:1 14:2 15:1 16:1 17:1 18:1 19:1 21:2 22:1 23:1 25:3 #
0.10000000000000000555111512312578 1:4 2:2 3:6 4:9 5:2 6:1 8:3 9:1 10:2 12:2 13:1 14:1 15:2 17:4 18:1 19:2 22:1 24:1 25:1 #
0.10000000000000000555111512312578 1:3 2:4 3:13 4:3 5:3 9:1 12:2 14:2 16:1 18:1 19:2 21:1 23:1 #
-0.10000000000000000555111512312578 2:1 3:3 4:4 8:1 9:2 13:1 14:1 16:1 17:1 20:2 21:3 23:2 #
0.10000000000000000555111512312578 2:2 3:4 4:7 5:3 6:1 7:1 8:1 9:1 10:1 13:2 17:2 18:1 21:2 24:1 25:2 #
-0.10000000000000000555111512312578 1:1 2:2 3:4 4:5 5:2 7:1 8:3 9:1 10:1 11:1 13:1 14:2 16:3 17:1 19:1 20:1 21:2 23:1 24:2 #
0.10000000000000000555111512312578 2:2 3:3 4:4 10:1 12:2 13:1 14:1 17:1 19:1 23:2 25:2 #
-0.10000000000000000555111512312578 2:1 3:6 4:7 5:2 6:1 14:1 15:1 18:1 20:1 24:1 25:1 #
0.10000000000000000555111512312578 1:3 2:5 3:6 4:4 5:2 6:2 7:1 8:4 10:1 12:2 14:2 16:1 17:2 18:2 25:1 #
0.10000000000000000555111512312578 1:2 2:3 3:7 4:9 7:1 8:4 9:2 11:1 14:5 16:2 17:2 19:1 21:1 23:2 24:1 #
0.10000000000000000555111512312578 2:6 3:10 4:3 5:1 8:1 9:2 13:2 14:3 15:2 17:3 18:1 19:1 21:1 23:2 25:2 #
0.10000000000000000555111512312578 1:2 2:1 3:6 4:3 8:1 9:1 10:2 11:1 15:1 16:1 17:1 19:1 21:1 #
-0.10000000000000000555111512312578 2:6 3:12 4:22 5:4 6:2 7:1 8:8 10:5 11:1 13:4 14:12 16:3 17:3 18:2 19:2 20:1 21:1 22:2 23:1 24:16 25:1 #
-0.10000000000000000555111512312578 1:3 2:2 3:3 4:4 5:1 8:2 12:1 14:3 16:1 17:1 18:1 19:2 21:1 25:1 #
0.10000000000000000555111512312578 1:8 2:15 3:22 4:23 5:9 6:5 7:2 8:13 9:7 10:5 11:5 12:4 13:2 14:8 15:2 16:2 17:8 18:3 19:4 20:2 21:2 23:5 24:8 25:3 #
0.10000000000000000555111512312578 2:3 3:6 4:10 6:2 8:1 9:1 12:1 14:3 15:3 16:2 17:4 21:2 22:1 23:1 25:2 #
-0.10000000000000000555111512312578 1:1 2:4 3:10 4:6 7:1 13:1 14:2 15:1 16:2 17:2 18:1 21:1 23:4 #
-0.10000000000000000555111512312578 1:1 2:4 3:7 4:4 12:1 14:1 16:2 17:1 19:1 21:2 23:3 24:1 25:4 #
0.10000000000000000555111512312578 1:2 2:3 3:4 4:2 5:3 6:2 8:2 10:1 16:2 18:1 21:1 #
0.10000000000000000555111512312578 2:3 3:3 4:6 5:2 6:1 8:2 9:1 14:5 15:1 16:2 17:1 19:2 21:1 23:1 25:2 #
0.10000000000000000555111512312578 1:1 2:4 3:4 4:5 5:2 6:1 8:3 14:4 15:1 16:2 18:1 19:1 21:2 25:1 #
-0.10000000000000000555111512312578 1:4 2:6 3:25 4:19 5:8 6:2 7:2 8:4 9:5 11:1 12:2 13:1 14:7 15:2 16:1 17:6 18:2 19:4 21:1 22:2 23:2 24:7 25:1 #
0.10000000000000000555111512312578 1:5 2:7 3:7 5:6 6:1 8:5 11:1 14:1 15:1 16:2 18:2 20:1 21:2 23:1 24:1 25:2 #
0.10000000000000000555111512312578 2:2 4:1 6:1 17:2 22:1 25:1 #
0.10000000000000000555111512312578 2:2 3:7 4:6 5:1 8:4 9:1 14:1 15:2 16:2 17:2 18:2 20:1 21:1 22:1 23:2 24:4 #
0.10000000000000000555111512312578 1:2 2:2 3:8 4:11 5:1 6:2 7:1 8:5 9:1 10:2 11:2 12:1 13:1 14:1 16:2 17:2 18:1 19:5 20:1 21:4 22:1 23:1 24:1 25:1 #
0.10000000000000000555111512312578 2:3 3:9 4:4 5:2 8:2 9:4 11:2 12:1 14:2 16:3 17:3 18:2 21:1 24:1 #
-0.10000000000000000555111512312578 1:8 2:2 3:9 4:12 5:4 6:1 7:1 8:5 9:2 10:1 11:1 12:4 13:2 14:3 15:1 16:4 17:1 18:3 19:2 21:3 23:3 25:3 #
-0.10000000000000000555111512312578 2:2 3:3 4:7 5:1 6:1 8:2 9:2 10:1 12:1 16:1 22:1 24:1 #
0.10000000000000000555111512312578 1:2 2:5 3:8 4:5 5:2 7:1 8:4 9:1 10:2 12:2 14:3 16:2 18:3 19:1 20:1 21:2 22:2 #
-0.10000000000000000555111512312578 1:4 2:1 3:4 4:5 5:3 8:3 10:1 14:2 16:1 20:2 25:2 #
0.10000000000000000555111512312578 1:1 3:1 4:3 9:1 12:2 14:1 16:1 17:2 18:2 19:1 21:1 24:1 25:1 #
0.10000000000000000555111512312578 2:4 3:9 4:5 6:1 8:4 9:2 11:2 12:1 14:2 15:2 17:1 19:1 21:3 22:3 23:2 24:2 25:1 #
-0.10000000000000000555111512312578 1:1 2:3 3:5 4:3 5:1 6:2 8:3 9:3 10:1 11:1 12:1 14:2 16:1 17:3 21:1 22:1 23:1 25:1 #
-0.10000000000000000555111512312578 1:5 2:4 3:18 4:9 5:5 7:2 8:3 9:6 11:1 12:2 13:1 14:3 17:4 18:4 19:1 20:4 21:4 22:1 23:1 25:2 #
0.10000000000000000555111512312578 1:4 2:5 3:3 4:6 5:4 6:2 7:2 8:5 9:1 11:1 12:3 14:3 15:1 16:2 17:2 18:1 19:1 22:1 #
-0.10000000000000000555111512312578 1:6 3:6 4:7 5:5 6:2 8:6 11:2 14:3 15:1 16:2 17:2 18:1 21:1 22:1 23:1 #
-0.10000000000000000555111512312578 1:1 2:4 3:9 4:6 6:1 8:1 9:1 10:3 11:1 14:2 15:1 17:1 21:4 22:1 23:3 25:2 #
-0.10000000000000000555111512312578 2:2 3:3 4:5 5:2 7:1 8:2 9:1 12:1 13:1 19:1 21:2 25:1 #
0.10000000000000000555111512312578 1:10 2:5 3:7 4:8 5:8 6:1 7:1 8:4 9:3 10:1 12:1 13:1 14:2 15:2 17:6 18:2 19:3 20:1 21:2 22:2 25:4 #
0.10000000000000000555111512312578 2:6 3:7 4:1 5:1 6:1 8:3 9:1 10:1 14:1 15:2 16:2 17:4 18:1 21:1 24:2 #
-0.10000000000000000555111512312578 2:1 3:2 4:6 8:2 9:1 14:2 17:3 18:1 19:1 21:1 22:2 23:3 #
-0.10000000000000000555111512312578 2:1 3:4 4:4 5:2 8:3 9:2 11:1 12:1 13:1 14:1 17:2 19:1 22:1 24:5 #
-0.10000000000000000555111512312578 1:3 2:2 3:3 4:2 5:1 8:1 13:1 14:1 17:2 18:1 21:1 23:1 25:2 #
0.10000000000000000555111512312578 1:24 2:9 3:38 4:31 5:10 6:2 7:2 8:8 9:4 10:1 11:6 12:6 13:3 14:9 15:2 16:5 17:9 18:10 19:5 20:5 21:3 22:2 23:1 24:1 25:2 #
0.10000000000000000555111512312578 1:2 3:4 4:6 5:1 6:1 9:1 10:1 12:1 13:1 14:1 17:2 18:1 19:2 22:1 23:1 #
-0.10000000000000000555111512312578 1:6 2:4 3:11 4:7 5:5 6:2 7:2 8:4 9:1 10:1 11:2 12:1 13:1 14:4 16:3 17:4 18:3 19:2 20:2 21:1 25:1 #
-0.10000000000000000555111512312578 1:2 2:1 3:4 4:8 5:1 8:1 12:2 14:1 15:1 16:2 22:2 24:1 25:1 #
0.10000000000000000555111512312578 2:3 3:6 4:6 6:1 8:2 9:5 11:1 12:1 13:2 14:1 15:1 16:2 17:1 19:2 20:2 21:3 23:5 25:1 #
0.10000000000000000555111512312578 1:1 2:3 3:3 4:4 5:3 6:4 8:1 9:1 12:1 13:1 14:2 20:1 21:1 22:1 23:1 24:2 #
0.10000000000000000555111512312578 1:3 2:6 3:5 4:8 5:1 8:4 9:2 11:2 12:3 13:1 14:4 15:1 17:1 19:1 20:1 22:1 23:1 #
0.10000000000000000555111512312578 1:1 2:3 3:5 4:4 6:1 7:1 8:7 14:5 17:4 18:1 19:1 20:2 21:1 22:1 23:2 24:3 25:2 #
-0.10000000000000000555111512312578 2:2 3:5 4:3 5:5 8:1 14:1 15:1 18:1 19:1 25:1 #
0.10000000000000000555111512312578 3:2 4:5 5:2 6:1 8:1 9:1 10:1 14:3 16:1 18:1 20:1 21:1 23:1 24:1 25:1 #
-0.10000000000000000555111512312578 1:3 2:4 3:12 4:4 5:4 6:1 7:1 8:1 11:1 12:2 13:1 14:3 17:3 21:1 23:2 24:2 #
-0.10000000000000000555111512312578 1:3 2:3 3:1 4:5 5:1 6:1 8:3 13:2 14:4 17:1 21:2 23:2 25:2 #
0.10000000000000000555111512312578 2:3 3:4 4:4 6:1 8:1 9:2 10:1 14:3 16:1 18:1 21:2 24:4 #
-0.038994777170904271201834490057081 1:3 2:3 3:9 4:7 5:4 6:1 9:3 12:2 13:3 14:1 17:2 19:1 20:1 21:5 24:1 25:2 #
0.10000000000000000555111512312578 1:3 2:4 3:8 4:8 5:4 6:2 8:3 9:3 10:1 14:2 16:4 21:2 22:3 24:2 #
-0.10000000000000000555111512312578 1:11 2:4 3:14 4:17 5:7 6:1 8:5 9:4 10:1 12:2 13:2 14:5 16:4 17:2 18:4 19:4 20:5 21:2 22:2 23:1 25:1 #
0.10000000000000000555111512312578 1:4 2:5 3:13 4:6 5:1 8:3 9:5 10:3 12:2 13:1 14:5 16:1 17:3 18:1 20:1 21:1 23:1 24:1 #
0.10000000000000000555111512312578 1:1 2:6 3:8 4:3 5:4 8:4 9:1 14:2 16:1 17:3 18:5 19:1 21:2 22:1 24:2 #
-0.10000000000000000555111512312578 1:6 2:4 3:15 4:8 5:2 8:3 9:4 11:1 12:3 13:3 14:7 16:2 17:3 18:1 19:2 21:2 23:2 24:1 25:2 #
0.10000000000000000555111512312578 2:3 3:6 4:2 5:1 6:1 7:1 8:1 10:2 12:1 13:1 17:1 18:1 21:2 24:2 #
-0.10000000000000000555111512312578 1:11 2:6 3:11 4:13 5:5 6:2 7:1 8:4 9:4 10:1 11:1 14:5 16:1 17:4 18:4 19:1 21:3 22:1 #
-0.10000000000000000555111512312578 1:1 2:6 3:6 4:5 5:3 6:1 7:1 8:2 9:2 10:1 11:1 12:1 14:1 15:2 16:1 17:2 18:3 19:1 24:1 25:2 #
-0.10000000000000000555111512312578 1:1 2:4 3:3 4:4 5:1 7:1 8:3 10:1 11:1 12:1 13:1 14:3 16:1 18:1 21:1 #
-0.10000000000000000555111512312578 1:1 2:1 3:5 4:3 8:1 9:2 14:1 17:1 22:1 23:1 25:1 #
0.10000000000000000555111512312578 1:4 2:3 3:8 4:10 5:4 6:1 8:4 9:1 11:3 12:1 14:3 17:4 18:2 19:2 20:2 21:1 22:2 25:1 #
-0.10000000000000000555111512312578 2:3 3:4 4:4 5:1 8:2 13:1 14:2 17:1 18:1 21:1 23:2 25:1 #
-0.10000000000000000555111512312578 1:1 2:3 3:5 4:5 5:2 8:3 9:3 10:1 12:2 13:2 14:3 15:1 16:3 17:2 19:1 20:1 24:2 #
-0.03269733043171452191444359414163 1:12 2:9 3:20 4:14 5:6 6:6 7:2 8:7 9:2 11:2 13:1 14:3 15:1 16:4 17:3 18:1 19:3 20:3 21:2 22:1 23:1 24:1 #
-0.10000000000000000555111512312578 1:4 2:3 3:8 4:8 5:2 6:2 7:2 8:3 12:1 13:1 14:3 15:1 17:1 19:1 21:1 22:1 25:1 #
0.10000000000000000555111512312578 1:2 2:5 3:6 4:5 5:1 7:1 8:2 9:2 11:1 12:2 13:2 14:2 15:1 16:1 17:3 19:2 21:1 22:1 23:1 24:2 25:2 #
0.10000000000000000555111512312578 1:1 2:10 3:15 4:11 5:4 6:2 7:1 8:2 9:1 10:1 11:2 14:2 16:2 17:1 19:4 20:3 21:1 22:2 23:2 24:8 #
-0.10000000000000000555111512312578 1:4 2:3 3:17 4:10 5:4 7:2 8:3 9:4 10:1 12:1 13:1 14:3 15:1 17:1 18:3 19:3 21:5 22:1 23:1 25:4 #
0.10000000000000000555111512312578 2:3 3:3 4:1 5:5 8:1 9:1 14:5 16:2 17:1 #
-0.10000000000000000555111512312578 1:2 2:4 3:5 4:7 5:2 6:2 8:2 9:2 10:1 12:1 14:1 15:1 17:1 19:1 20:1 21:1 23:2 25:1 #
0.10000000000000000555111512312578 1:10 2:2 3:8 4:14 6:1 7:1 8:3 9:2 11:1 12:1 13:2 14:6 16:2 17:2 18:4 19:2 20:2 21:1 22:1 23:3 #
0.10000000000000000555111512312578 1:1 2:1 3:2 4:3 5:1 8:2 9:1 12:1 18:1 #
0.10000000000000000555111512312578 1:1 2:5 3:5 4:4 5:3 6:1 8:2 9:1 10:3 11:1 13:1 14:3 16:2 17:2 18:1 20:1 21:1 22:1 24:4 #
0.10000000000000000555111512312578 1:2 2:4 3:3 4:1 5:1 8:1 12:1 13:1 16:1 21:2 23:1 #
0.10000000000000000555111512312578 1:1 2:5 3:4 4:4 5:4 6:1 7:1 8:2 10:1 14:1 15:1 17:1 18:1 23:2 25:3 #
-0.10000000000000000555111512312578 2:3 3:1 4:5 5:3 7:1 8:2 9:1 11:1 13:1 16:1 18:1 19:1 21:1 22:1 23:1 24:2 #
-0.10000000000000000555111512312578 2:4 3:1 4:4 5:2 9:1 10:2 14:1 17:1 21:1 24:1 25:1 #
0.10000000000000000555111512312578 1:3 2:3 3:5 4:4 6:1 8:2 9:3 11:1 13:1 14:1 15:1 16:1 17:4 19:1 23:1 24:2 #
-0.10000000000000000555111512312578 2:4 3:10 4:10 6:1 7:2 8:6 9:1 10:1 11:1 12:3 14:3 15:2 16:2 17:2 18:1 19:1 21:1 22:3 24:5 #
0.10000000000000000555111512312578 2:3 3:3 4:3 5:1 14:1 16:1 21:1 24:2 #
0.10000000000000000555111512312578 2:3 3:7 4:4 6:1 7:1 8:2 10:3 14:3 16:1 17:1 19:1 21:2 24:3 #
-0.10000000000000000555111512312578 1:1 2:1 3:4 4:6 6:1 8:1 9:1 14:2 15:1 17:1 18:1 19:1 #
-0.10000000000000000555111512312578 1:3 2:1 3:4 4:5 5:1 8:4 12:1 13:1 14:1 16:1 17:2 20:2 21:2 23:1 25:1 #
-0.10000000000000000555111512312578 2:3 4:5 13:1 14:5 23:1 #
-0.10000000000000000555111512312578 1:1 2:6 3:11 4:8 5:4 7:1 8:2 9:2 10:1 12:1 14:2 15:1 16:3 17:3 19:1 21:5 22:1 24:2 25:1 #
0.10000000000000000555111512312578 2:3 3:9 4:10 5:6 7:2 8:2 9:3 10:1 13:2 14:1 17:1 18:1 20:1 21:1 24:8 25:2 #
0.10000000000000000555111512312578 2:1 3:7 4:8 5:2 7:3 8:7 9:3 10:1 13:1 14:2 15:1 16:1 17:3 18:1 19:1 21:1 22:3 23:1 24:3 #
0.10000000000000000555111512312578 1:4 2:4 3:11 4:9 5:2 6:2 8:1 9:2 10:1 13:4 14:5 16:2 17:6 18:1 19:4 20:1 21:4 22:1 23:2 #
-0.10000000000000000555111512312578 1:9 2:7 3:16 4:18 5:4 7:1 8:6 9:2 10:1 11:3 12:1 13:3 14:12 15:1 16:3 17:7 18:4 19:3 20:7 21:3 22:4 23:1 24:9 25:1 #
-0.10000000000000000555111512312578 2:4 3:4 4:5 5:2 8:1 13:1 14:1 15:1 16:1 17:3 21:2 22:5 24:2 25:1 #
-0.10000000000000000555111512312578 2:3 3:8 4:10 5:1 6:2 8:1 9:2 14:2 15:1 16:2 17:6 21:3 23:5 #
0.10000000000000000555111512312578 1:4 2:4 3:12 4:13 5:2 6:2 7:3 8:3 9:2 12:1 13:3 14:1 16:1 17:2 18:3 19:2 20:3 21:3 22:1 23:2 24:2 25:1 #
0.10000000000000000555111512312578 1:3 2:6 3:7 4:11 5:2 7:5 8:4 9:2 10:3 11:2 12:1 13:2 14:8 15:2 16:1 17:1 19:2 21:4 23:1 24:7 25:2 #
-0.10000000000000000555111512312578 1:1 2:3 3:13 4:16 5:8 6:4 7:2 8:3 9:3 10:6 11:5 13:1 14:8 15:2 16:3 17:5 18:2 19:4 20:3 21:2 22:2 23:2 24:14 #
0.10000000000000000555111512312578 1:4 2:11 3:12 4:18 5:7 6:8 7:5 8:3 9:2 11:7 12:6 14:5 15:1 16:2 17:2 18:3 19:2 20:3 21:1 22:1 23:3 24:13 25:3 #
0.10000000000000000555111512312578 1:11 2:3 3:16 4:12 5:5 6:1 7:2 8:3 9:4 11:3 12:3 13:4 14:8 15:2 16:1 17:3 18:5 19:1 20:3 21:3 24:2 25:1 #
-0.10000000000000000555111512312578 1:2 2:4 3:13 4:7 5:3 6:4 7:1 8:7 9:5 11:2 12:1 13:3 14:5 16:2 19:2 21:3 22:2 23:7 24:1 25:4 #
-0.10000000000000000555111512312578 1:5 2:2 3:3 4:5 5:2 9:2 11:1 13:1 14:2 16:1 17:2 19:1 20:1 21:1 23:2 25:1 #
-0.10000000000000000555111512312578 1:4 2:2 3:4 4:6 5:2 6:3 8:2 10:1 13:2 14:5 19:3 21:1 22:1 23:2 25:3 #
0.10000000000000000555111512312578 1:2 2:5 3:6 4:5 9:1 11:1 14:2 16:1 19:2 21:1 23:3 25:1 #
-0.10000000000000000555111512312578 1:6 2:5 3:20 4:16 5:5 6:1 7:4 8:6 9:2 10:1 11:2 12:2 14:11 15:1 16:2 17:6 18:9 19:3 20:2 21:1 22:1 23:1 24:9 25:1 #
0.083623877025438053678385585953947 1:3 2:9 3:19 4:17 5:11 6:3 8:6 9:3 10:1 11:1 13:1 14:6 16:1 17:4 18:1 19:3 20:3 21:5 22:2 23:1 24:1 25:3 #
-0.10000000000000000555111512312578 1:4 2:3 3:13 4:13 5:2 6:1 7:2 8:2 9:4 10:1 11:1 12:1 14:7 15:1 16:1 17:2 18:3 19:1 20:1 21:1 22:3 23:1 24:4 25:1 #
-0.10000000000000000555111512312578 1:2 2:2 3:3 4:3 5:1 6:2 8:4 9:1 14:2 17:1 18:1 21:2 23:2 #
0.10000000000000000555111512312578 1:1 2:4 3:7 4:6 5:9 6:1 7:1 8:4 9:1 10:1 12:1 14:1 15:1 16:1 17:5 21:1 22:1 #
-0.10000000000000000555111512312578 1:5 2:6 3:15 4:19 5:9 6:1 7:1 8:8 9:5 11:1 13:1 14:3 17:3 18:3 19:1 20:3 22:2 24:3 #
-0.10000000000000000555111512312578 1:3 2:8 3:10 4:18 5:4 7:2 8:3 10:2 11:4 12:2 13:1 14:5 15:1 16:2 17:4 19:5 20:2 22:2 23:1 24:4 #
0.10000000000000000555111512312578 1:1 2:3 3:6 4:9 5:2 6:2 7:1 8:2 10:1 11:1 14:3 16:2 17:1 20:1 21:1 22:1 23:1 25:1 #
-0.10000000000000000555111512312578 1:2 2:3 3:15 4:20 5:6 6:3 8:6 9:3 10:1 11:2 12:3 14:8 15:1 16:4 17:4 18:4 19:1 20:6 21:2 22:1 24:4 25:1 #
-0.10000000000000000555111512312578 1:7 2:1 3:4 4:8 6:1 13:1 14:2 16:1 17:3 18:1 20:4 22:1 23:3 25:1 #
-0.10000000000000000555111512312578 1:2 2:5 3:16 4:12 6:4 8:4 9:1 13:1 14:4 15:2 16:2 17:4 18:2 19:1 21:2 23:9 25:1 #
-0.10000000000000000555111512312578 1:2 2:12 3:24 4:18 5:8 6:2 7:3 8:7 9:5 10:2 11:4 13:3 14:12 16:3 17:3 18:5 19:1 20:1 21:4 22:3 24:10 #
-0.10000000000000000555111512312578 1:3 2:9 3:18 4:17 5:10 6:2 7:2 8:6 9:4 10:6 11:6 13:2 14:4 15:1 16:3 17:5 18:5 19:5 20:4 21:4 22:2 23:1 24:9 25:2 #
-0.10000000000000000555111512312578 1:1 2:4 3:18 4:14 5:2 6:1 8:7 9:3 10:6 11:5 13:1 14:4 15:1 16:3 17:4 18:3 19:4 20:6 21:1 22:1 23:1 24:10 25:1 #
-0.10000000000000000555111512312578 1:1 2:2 3:4 4:3 5:2 7:1 8:1 13:1 14:2 15:1 17:1 19:1 21:1 #
0.10000000000000000555111512312578 2:1 3:5 4:7 6:3 8:4 13:1 14:2 16:1 17:2 19:1 20:1 21:5 22:2 25:1 #
-0.10000000000000000555111512312578 1:2 2:4 3:9 4:12 5:2 7:2 8:2 9:2 10:5 11:3 12:1 13:2 14:7 17:3 18:3 19:1 20:4 21:1 22:1 23:1 24:7 25:3 #
0.10000000000000000555111512312578 1:3 2:3 3:16 4:18 5:8 6:4 7:1 8:5 9:1 10:1 11:2 12:5 14:6 15:1 16:3 17:5 19:2 20:1 22:1 23:1 24:12 25:2 #
0.10000000000000000555111512312578 1:4 2:5 3:13 4:15 5:8 6:4 8:4 9:3 11:5 12:6 14:6 16:1 17:3 19:4 20:1 21:4 #
-0.10000000000000000555111512312578 1:2 2:3 3:7 4:8 5:2 7:1 8:1 9:1 12:1 14:8 17:3 22:1 25:1 #
0.10000000000000000555111512312578 1:12 2:4 3:9 4:7 5:4 7:1 8:7 9:1 11:1 12:1 13:1 14:6 16:3 17:1 18:6 19:3 20:4 21:1 22:1 #
-0.10000000000000000555111512312578 1:1 2:2 3:3 4:5 6:2 8:2 9:1 10:1 11:1 12:1 14:2 15:1 16:2 19:1 21:1 22:1 24:3 #
0.10000000000000000555111512312578 1:4 2:6 3:6 4:11 5:3 6:1 7:1 8:10 9:3 10:1 11:3 13:1 15:1 16:2 17:4 19:4 20:2 21:6 22:1 24:2 #
-0.10000000000000000555111512312578 1:1 2:2 3:3 4:3 5:2 9:2 18:2 25:1 #
0.10000000000000000555111512312578 1:6 2:10 3:6 4:9 5:6 6:1 7:2 8:1 9:2 11:2 12:3 14:2 15:1 16:2 17:4 18:1 19:3 20:1 21:4 22:3 23:1 25:3 #
-0.10000000000000000555111512312578 1:1 2:9 3:10 4:12 6:2 7:1 8:5 9:3 11:1 13:2 14:5 15:3 16:2 17:3 18:1 19:2 20:2 21:2 22:4 23:7 24:5 25:2 #
0.10000000000000000555111512312578 1:1 2:2 3:4 4:4 5:4 8:1 9:1 11:1 12:1 13:1 14:6 17:3 19:1 20:1 21:3 22:1 23:1 #
0.10000000000000000555111512312578 1:6 2:6 3:12 4:9 5:2 6:2 7:2 8:3 9:4 12:5 14:4 16:2 17:2 18:2 19:1 20:2 21:2 22:1 23:1 #
0.10000000000000000555111512312578 1:6 2:6 3:8 4:17 5:2 6:1 8:2 9:2 10:1 12:3 13:1 14:5 15:2 16:2 17:3 19:1 21:2 22:1 23:1 #
-0.10000000000000000555111512312578 1:1 2:1 3:5 4:6 8:2 9:2 10:1 14:1 15:1 16:1 17:1 20:4 21:2 22:1 23:2 25:1 #
0.10000000000000000555111512312578 1:4 2:10 3:27 4:25 5:7 7:2 8:3 9:6 10:11 11:3 12:5 13:2 14:10 16:5 17:2 18:4 19:4 20:3 21:3 23:3 24:6 25:1 #
0.10000000000000000555111512312578 1:8 2:5 3:14 4:9 5:4 6:1 7:1 8:3 9:2 12:2 13:2 14:8 16:2 17:5 18:2 19:4 20:3 21:1 22:2 #
0.10000000000000000555111512312578 1:7 2:6 3:14 4:16 5:8 6:4 7:2 8:7 9:4 11:2 14:18 16:4 17:1 18:3 19:2 20:3 21:2 22:4 23:1 24:1 25:1 #
-0.10000000000000000555111512312578 2:2 3:4 4:9 5:5 8:1 9:2 11:1 12:2 13:1 14:1 15:1 17:1 18:1 19:1 21:1 22:1 25:1 #
0.10000000000000000555111512312578 1:7 2:4 3:9 4:12 5:3 7:2 8:3 11:1 12:3 13:2 14:2 15:2 16:2 17:4 19:3 20:4 21:3 22:1 23:1 24:1 #
-0.10000000000000000555111512312578 2:3 3:12 4:7 5:5 6:1 7:2 8:1 9:2 10:2 11:1 14:2 16:1 18:3 19:2 20:2 24:5 25:2 #
0.10000000000000000555111512312578 1:8 2:4 3:17 4:17 5:4 6:4 7:3 8:3 9:2 10:1 12:2 14:8 16:3 17:2 19:2 21:1 23:3 24:2 #
0.063264161511791677794391830502718 1:1 2:11 3:23 4:19 5:4 6:2 7:3 8:12 9:3 10:8 11:3 12:2 13:1 14:9 15:1 16:5 17:4 18:3 19:4 21:5 23:1 24:6 25:2 #
-0.10000000000000000555111512312578 1:5 2:2 3:13 4:15 5:5 6:7 7:1 8:8 9:1 10:1 11:2 12:1 13:2 14:8 16:8 17:2 18:1 19:2 20:1 21:2 23:1 24:6 #
-0.10000000000000000555111512312578 1:4 2:1 3:5 4:5 5:4 7:1 8:5 9:1 10:4 11:1 12:1 13:1 14:1 17:3 19:2 21:2 22:2 #
0.051304523221803899346582511498127 2:1 4:7 5:2 6:3 7:1 8:4 11:1 16:3 17:1 18:1 21:1 22:1 25:1 #
0.10000000000000000555111512312578 1:5 2:10 3:18 4:16 5:5 8:3 9:6 10:6 12:1 13:5 14:12 15:1 16:4 17:3 19:2 20:5 21:3 22:4 23:1 24:13 #
0.10000000000000000555111512312578 1:8 2:11 3:22 4:16 5:3 6:2 7:3 8:3 9:6 10:5 11:7 12:10 13:1 14:7 16:1 17:8 18:7 20:4 22:4 24:6 #
-0.10000000000000000555111512312578 1:2 2:3 3:10 4:5 5:3 6:2 8:3 9:2 10:1 11:1 12:1 18:2 19:1 20:2 25:1 #
-0.10000000000000000555111512312578 1:2 2:20 3:22 4:19 5:4 6:1 7:1 8:7 9:10 11:2 12:2 13:5 14:10 15:1 16:4 17:6 18:3 19:3 20:1 21:2 22:6 23:7 24:8 #
0.10000000000000000555111512312578 1:1 2:3 3:9 4:8 5:5 7:1 8:4 9:1 10:2 11:2 12:2 16:1 17:2 18:2 19:1 21:1 22:1 24:1 25:1 #
-0.10000000000000000555111512312578 1:1 2:2 3:7 4:12 6:3 8:5 9:4 11:1 13:2 14:3 15:1 17:1 20:1 21:1 23:5 #
0.10000000000000000555111512312578 1:2 2:6 3:19 4:15 5:7 6:3 8:8 9:4 10:8 11:1 13:4 14:3 16:4 17:6 18:2 19:5 20:3 21:6 22:2 23:2 24:15 25:1 #
0.10000000000000000555111512312578 2:1 3:8 4:8 5:3 6:1 7:1 8:3 14:1 16:1 18:1 19:3 21:1 23:1 24:1 #
0.10000000000000000555111512312578 1:17 2:8 3:15 4:25 5:1 6:3 7:1 8:6 9:2 11:5 12:9 13:2 14:5 15:3 16:1 17:4 19:5 21:5 22:2 23:2 25:1 #
0.10000000000000000555111512312578 1:2 2:9 3:15 4:10 5:7 7:2 8:2 9:3 10:4 12:1 14:5 15:1 16:1 17:2 18:3 19:2 20:1 21:4 22:1 24:4 25:2 #
-0.10000000000000000555111512312578 1:2 2:4 3:20 4:13 6:3 7:1 8:2 9:2 11:1 12:3 13:1 14:2 15:1 16:3 17:5 18:2 21:4 23:1 #
-0.10000000000000000555111512312578 1:3 2:4 3:14 4:13 5:6 6:4 8:5 9:5 10:1 11:2 14:7 15:1 16:2 17:1 18:2 19:3 21:2 22:2 23:1 24:3 25:1 #
-0.10000000000000000555111512312578 1:6 2:3 3:9 4:11 5:4 6:2 7:1 8:6 11:1 12:2 14:1 15:1 16:1 17:3 18:1 19:2 21:3 22:2 25:1 #
-0.10000000000000000555111512312578 1:1 2:2 3:10 4:8 5:1 8:6 9:4 10:2 11:1 15:1 17:1 19:2 22:3 23:2 #
-0.10000000000000000555111512312578 1:6 2:3 3:4 4:7 5:5 7:1 8:2 11:2 12:1 13:1 14:3 15:1 16:2 17:2 19:1 21:3 24:1 25:2 #
-0.10000000000000000555111512312578 1:12 2:11 3:35 4:29 5:12 6:5 7:3 8:11 9:5 11:1 12:2 14:7 16:4 17:7 18:2 19:4 20:2 21:4 22:3 23:1 #
0.10000000000000000555111512312578 1:6 2:1 3:3 4:6 5:2 7:1 8:6 11:2 12:2 13:3 14:3 16:2 17:2 19:1 20:1 21:2 22:1 23:2 #
-0.10000000000000000555111512312578 1:4 2:7 3:5 4:13 5:2 6:1 8:3 9:1 11:1 12:1 14:2 15:1 16:1 18:1 19:2 23:3 25:1 #
-0.10000000000000000555111512312578 1:2 2:3 3:5 4:6 5:3 6:2 7:2 8:1 10:1 12:1 13:3 14:2 17:2 20:3 21:1 22:2 25:3 #
-0.10000000000000000555111512312578 1:2 2:1 3:7 4:11 5:7 6:4 8:2 9:1 13:1 14:2 17:2 20:2 21:1 22:1 23:1 25:2 #
-0.10000000000000000555111512312578 1:6 2:7 3:2 4:13 6:1 7:2 8:7 9:1 12:2 13:2 14:2 15:1 16:2 17:1 18:3 19:1 20:1 21:3 23:1 25:1 #
0.10000000000000000555111512312578 1:1 2:3 3:16 4:9 5:4 6:2 8:3 9:2 10:5 11:1 12:1 14:8 16:4 17:5 18:2 19:1 24:10 #
-0.10000000000000000555111512312578 2:4 3:7 4:11 5:3 6:3 8:2 9:1 10:1 11:2 12:1 14:1 15:1 16:2 17:1 18:1 19:1 20:2 22:2 23:2 25:1 #
0.10000000000000000555111512312578 1:3 2:3 3:9 4:6 5:1 6:2 8:5 9:1 10:1 14:1 16:1 17:2 20:1 21:2 22:2 23:2 25:1 #
-0.10000000000000000555111512312578 1:3 2:1 3:4 4:5 6:2 8:6 9:1 11:1 12:1 13:2 14:5 16:3 17:1 19:1 20:1 21:2 22:4 23:1 #
0.10000000000000000555111512312578 1:6 2:5 3:9 4:12 5:2 6:4 7:4 8:4 9:3 10:1 13:1 14:12 16:5 17:3 18:3 19:2 20:1 21:1 22:2 24:2 #
-0.10000000000000000555111512312578 2:5 3:6 4:8 5:2 6:1 7:2 8:3 9:2 11:2 12:1 14:2 15:1 16:2 17:2 18:2 20:2 21:1 22:2 24:6 #
-0.10000000000000000555111512312578 1:1 2:4 3:9 4:7 5:1 6:1 8:9 9:4 11:1 12:1 13:1 14:4 15:1 16:1 17:2 18:1 19:2 21:3 22:2 23:2 #
-0.10000000000000000555111512312578 1:17 2:6 3:15 4:16 5:5 7:1 8:4 9:2 10:1 11:4 12:1 14:6 16:1 17:2 18:3 19:1 20:1 21:1 22:1 #
-0.10000000000000000555111512312578 1:2 2:3 3:8 4:7 5:3 7:1 8:2 12:1 13:2 14:2 15:1 16:1 17:1 18:1 19:1 20:4 21:3 22:4 23:1 24:2 25:3 #
0.10000000000000000555111512312578 1:6 2:1 3:6 4:9 5:3 6:5 8:1 9:3 10:1 12:1 13:2 14:5 16:5 17:3 18:1 19:1 21:1 22:1 23:1 25:2 #
-0.10000000000000000555111512312578 1:11 2:8 3:18 4:16 5:2 6:2 7:1 8:9 9:2 10:1 12:4 13:1 14:15 16:2 17:2 18:7 19:4 20:1 21:3 22:3 23:2 25:2 #
0.10000000000000000555111512312578 1:5 2:6 3:12 4:11 5:5 6:2 8:2 10:2 11:1 14:5 16:1 17:3 18:3 19:1 21:2 23:1 24:2 25:3 #
0.10000000000000000555111512312578 1:8 2:8 3:7 4:10 5:2 6:1 8:5 9:3 12:4 13:2 14:1 17:1 18:1 19:2 21:3 22:2 25:2 #
0.10000000000000000555111512312578 1:3 2:2 3:2 4:6 5:1 6:1 8:5 13:1 14:2 15:1 16:2 17:2 21:2 23:5 #
-0.10000000000000000555111512312578 1:5 2:4 3:8 4:13 5:2 6:1 8:4 9:1 11:2 12:3 14:3 15:1 16:1 17:1 18:1 19:1 20:1 21:2 22:1 23:1 #
-0.10000000000000000555111512312578 1:3 2:2 3:5 4:6 5:1 6:1 8:3 9:4 11:1 12:3 14:3 16:1 18:1 21:2 22:1 23:1 25:1 #
-0.10000000000000000555111512312578 1:1 2:4 3:3 4:6 5:1 6:1 7:2 8:2 9:1 10:1 12:1 14:2 17:1 19:1 21:1 22:1 23:1 24:2 25:1 #
0.10000000000000000555111512312578 1:1 2:4 3:4 4:4 5:3 6:2 8:3 9:1 12:1 13:1 14:2 15:1 16:2 17:1 21:3 22:2 24:1 25:1 #
-0.10000000000000000555111512312578 1:7 2:5 3:8 4:12 5:3 6:4 8:3 9:2 11:1 12:3 13:3 14:7 16:2 17:1 18:1 19:1 21:3 22:2 23:1 #
0.10000000000000000555111512312578 2:1 3:1 4:7 5:1 6:2 8:2 9:1 16:1 17:1 22:1 #
0.10000000000000000555111512312578 2:9 3:14 4:13 6:5 7:1 8:5 9:2 10:3 11:1 13:1 14:10 15:1 16:5 17:4 18:1 19:3 20:2 21:3 22:1 23:1 24:10 #
-0.10000000000000000555111512312578 1:2 2:11 3:15 4:9 5:5 6:2 7:3 8:7 9:1 10:6 12:2 13:2 14:11 15:1 16:2 17:3 18:2 19:2 21:3 22:1 23:2 24:9 25:1 #
-0.10000000000000000555111512312578 1:3 2:7 3:7 4:13 5:6 6:6 7:2 8:4 9:1 10:1 11:4 12:3 14:1 16:3 17:1 18:2 19:3 20:4 25:1 #
-0.10000000000000000555111512312578 1:7 2:3 3:12 4:9 5:3 6:2 7:2 8:5 11:3 12:2 14:3 15:1 16:3 17:3 20:1 21:2 22:3 23:1 #
0.10000000000000000555111512312578 1:3 2:10 3:21 4:16 5:10 6:4 7:3 8:7 9:3 10:3 11:5 12:2 13:2 14:8 16:1 17:6 18:2 19:4 20:1 21:4 22:3 23:3 24:6 25:2 #
-0.10000000000000000555111512312578 1:4 2:3 3:7 4:7 6:1 8:4 9:4 11:1 12:1 14:1 16:2 18:1 19:2 20:2 22:2 23:3 #
0.10000000000000000555111512312578 1:1 2:6 3:7 4:9 5:2 6:2 8:3 9:1 10:4 12:1 13:1 14:2 15:2 16:2 17:1 18:1 21:1 23:2 25:4 #
-0.10000000000000000555111512312578 1:1 2:5 3:5 4:8 5:1 6:1 8:4 9:2 10:1 12:1 14:4 17:2 19:1 21:2 22:1 #
-0.10000000000000000555111512312578 1:1 2:8 3:6 4:12 5:1 7:1 8:6 10:2 13:2 14:3 15:2 16:3 17:3 18:1 19:2 21:4 22:1 23:2 24:2 25:2 #
-0.10000000000000000555111512312578 1:1 2:2 3:3 4:2 5:1 6:1 8:1 10:1 12:1 13:1 16:1 17:1 18:2 21:1 24:2 #
0.10000000000000000555111512312578 1:4 2:8 3:8 4:17 5:2 6:1 7:1 8:19 9:3 10:7 11:1 12:1 13:7 14:11 15:2 16:3 17:4 18:2 19:2 20:5 21:4 22:3 23:2 24:10 25:2 #
-0.10000000000000000555111512312578 1:14 2:5 3:16 4:13 5:1 6:2 7:1 8:6 9:5 11:2 12:1 13:1 14:2 17:5 19:3 21:2 22:2 #
0.10000000000000000555111512312578 1:2 2:4 3:11 4:9 5:1 6:3 7:2 8:4 10:1 11:1 12:1 14:1 15:1 18:1 19:5 22:3 23:2 24:4 #
-0.10000000000000000555111512312578 1:4 2:5 3:8 4:6 5:2 6:1 8:3 9:2 12:4 13:2 14:5 16:2 19:2 21:2 23:1 #
-0.10000000000000000555111512312578 1:2 2:8 3:5 4:4 6:1 8:3 11:1 13:1 14:4 17:3 21:1 22:2 23:2 #
0.10000000000000000555111512312578 3:4 4:6 7:1 8:1 10:1 17:1 23:1 25:1 #
0.10000000000000000555111512312578 1:3 2:5 3:14 4:15 5:9 6:6 8:8 9:1 10:1 11:5 13:1 14:10 15:2 16:1 17:2 18:4 19:2 20:4 21:2 22:3 23:1 24:6 25:5 #
-0.10000000000000000555111512312578 1:2 2:2 3:9 4:9 6:1 8:3 13:2 14:5 16:2 17:1 19:2 21:3 22:2 23:3 25:1 #
0.10000000000000000555111512312578 1:6 2:3 3:9 4:7 6:2 8:6 9:2 11:1 12:1 14:3 16:1 17:4 19:2 21:1 22:2 #
0.10000000000000000555111512312578 1:2 2:9 3:9 4:9 5:7 6:4 8:2 9:3 10:1 11:4 14:6 17:3 18:3 20:3 21:1 23:1 24:5 25:1 #
-0.10000000000000000555111512312578 1:1 2:3 3:3 4:4 6:1 8:1 10:2 12:1 16:1 17:2 18:1 20:1 24:2 #
-0.10000000000000000555111512312578 1:3 2:8 3:14 4:9 5:9 6:6 8:9 9:3 12:2 13:1 14:1 15:1 16:2 17:5 18:1 19:1 20:1 23:1 24:6 25:3 #
-0.10000000000000000555111512312578 1:1 2:1 3:5 4:4 5:1 8:1 10:1 11:1 12:1 14:2 16:3 17:1 19:2 22:1 24:3 #
-0.10000000000000000555111512312578 1:6 2:3 3:10 4:10 6:2 7:1 8:3 9:1 13:1 14:3 15:1 16:1 17:3 18:1 19:2 20:3 22:1 23:2 24:1 25:1 #
-0.10000000000000000555111512312578 1:2 2:3 3:7 4:8 8:2 9:1 11:1 13:2 14:2 16:1 17:2 19:1 21:5 22:1 23:2 #
0.10000000000000000555111512312578 1:2 2:4 3:9 4:9 5:5 6:1 7:1 8:1 9:2 12:1 13:1 14:1 15:1 17:1 18:1 19:1 21:2 24:1 #
0.10000000000000000555111512312578 1:4 2:2 3:14 4:18 5:4 6:1 7:1 8:6 9:4 10:1 12:2 13:1 14:4 15:1 16:5 17:3 18:1 19:2 20:2 21:2 22:1 23:3 25:2 #
-0.10000000000000000555111512312578 2:4 3:6 4:6 5:5 8:1 10:1 14:2 15:1 16:1 18:1 19:1 21:1 23:2 25:1 #
-0.10000000000000000555111512312578 1:2 2:5 3:4 4:6 5:3 7:1 8:2 9:1 11:1 12:1 14:2 15:2 16:1 17:2 18:1 19:1 21:1 23:1 25:2 #
-0.10000000000000000555111512312578 1:2 2:3 3:4 4:3 5:1 6:1 7:1 8:4 9:1 11:2 12:1 13:2 14:1 15:1 16:2 17:2 18:2 19:1 20:3 21:2 22:1 23:1 #
-0.10000000000000000555111512312578 1:1 2:5 3:5 4:5 5:3 8:4 10:1 11:1 12:1 13:1 14:2 17:2 19:1 20:1 21:3 22:1 23:1 24:1 25:1 #
0.10000000000000000555111512312578 2:3 3:8 4:9 5:3 8:2 14:5 15:2 16:2 17:1 19:1 21:1 23:1 24:1 #
-0.10000000000000000555111512312578 1:3 2:11 3:19 4:17 5:7 6:3 7:2 8:8 9:2 10:5 11:1 12:1 14:9 15:2 16:5 17:6 18:4 19:5 20:3 21:1 22:2 23:2 24:11 #
0.10000000000000000555111512312578 1:4 2:6 3:10 4:16 5:7 6:1 8:3 9:1 10:1 11:1 12:5 14:7 16:4 17:5 18:7 19:2 20:3 22:1 25:1 #
0.10000000000000000555111512312578 2:4 3:2 4:5 5:1 6:1 7:1 8:2 14:5 16:2 17:1 18:1 20:1 22:1 24:4 #
0.10000000000000000555111512312578 1:1 2:2 3:8 4:5 5:3 6:1 7:2 8:3 9:1 11:2 12:1 14:2 17:1 18:4 20:1 21:1 22:2 #
-0.10000000000000000555111512312578 1:5 2:2 3:7 4:5 5:4 6:1 8:3 9:1 10:1 11:2 12:1 14:3 16:1 17:2 20:1 22:1 23:1 25:1 #
-0.10000000000000000555111512312578 1:1 2:3 3:4 4:8 6:1 7:2 8:2 9:1 12:1 13:1 14:1 15:2 16:3 17:3 18:1 19:1 22:1 23:2 24:1 #
-0.10000000000000000555111512312578 1:14 2:9 3:30 4:21 5:7 6:1 8:10 9:5 11:7 12:4 13:2 14:13 15:1 16:2 17:3 18:3 19:5 20:4 21:3 22:3 23:5 24:2 #
0.10000000000000000555111512312578 2:2 3:10 4:10 5:4 8:5 9:3 11:1 14:2 15:4 16:1 17:1 18:1 19:3 20:1 21:1 22:2 23:2 25:1 #
0.10000000000000000555111512312578 1:1 2:8 3:12 4:5 5:5 6:3 7:1 8:5 9:5 10:2 13:1 15:1 16:2 17:3 18:4 21:4 23:2 24:2 25:1 #
0.10000000000000000555111512312578 1:1 2:6 3:8 4:6 5:3 6:1 8:4 9:1 10:2 11:1 12:1 14:4 15:2 16:2 17:3 18:1 21:1 22:1 23:2 24:1 #
-0.066473330843131561707082255452406 1:5 2:5 3:8 4:8 5:2 6:2 7:1 8:3 9:1 10:1 12:2 13:3 14:4 16:2 17:3 19:1 20:2 21:4 24:4 #
0.10000000000000000555111512312578 4:5 5:1 7:1 8:3 9:1 14:1 18:2 22:2 25:1 #
-0.10000000000000000555111512312578 1:3 2:3 3:10 4:9 5:1 6:1 8:5 9:2 10:1 11:3 13:1 14:4 15:1 16:2 17:3 18:2 19:1 20:1 21:3 22:1 23:2 #
-0.10000000000000000555111512312578 1:2 2:4 3:10 4:7 5:2 6:1 7:2 8:2 9:3 10:1 11:1 14:3 15:1 17:2 18:1 19:1 21:3 22:1 23:1 24:1 25:2 #
0.10000000000000000555111512312578 1:4 2:3 3:7 4:9 5:6 6:1 8:2 12:1 13:2 14:3 15:2 16:1 17:3 18:2 19:2 20:1 21:2 23:1 24:2 #
-0.10000000000000000555111512312578 1:1 2:4 3:10 4:8 5:4 6:3 8:4 9:2 10:5 11:1 12:2 13:1 14:5 16:3 17:1 18:1 19:2 20:2 21:2 22:2 24:6 #
0.10000000000000000555111512312578 1:4 2:4 3:8 4:5 5:6 8:3 9:1 11:1 15:1 16:4 17:2 18:1 19:1 20:1 21:1 22:2 25:1 #
-0.10000000000000000555111512312578 1:2 2:7 3:25 4:21 5:8 6:1 7:2 8:6 9:5 10:5 11:2 12:1 13:2 14:7 15:1 16:1 17:3 18:6 19:3 20:2 21:5 22:3 23:1 24:15 25:4 #
-0.10000000000000000555111512312578 1:2 2:4 3:5 4:7 5:1 6:1 8:1 9:2 10:1 13:1 14:1 15:1 17:1 19:2 20:2 21:1 23:1 #
0.10000000000000000555111512312578 2:3 3:6 4:4 5:2 6:2 7:1 8:1 10:1 13:1 14:4 15:1 17:2 18:1 19:1 21:1 24:4 #
0.10000000000000000555111512312578 1:9 2:5 3:8 4:16 5:4 6:3 8:5 9:3 10:1 11:2 12:2 13:3 14:3 15:1 17:2 18:2 19:4 20:3 21:1 23:2 #
0.10000000000000000555111512312578 1:3 2:7 3:11 4:5 5:4 6:1 8:6 9:2 12:1 13:1 14:6 15:1 16:2 17:1 18:1 19:3 21:3 22:1 25:2 #
0.10000000000000000555111512312578 1:4 2:1 3:7 4:8 5:9 6:3 7:2 8:2 10:2 14:1 16:1 18:2 20:2 21:1 22:1 23:1 25:2 #
0.10000000000000000555111512312578 1:1 2:3 3:8 4:4 8:1 9:3 12:2 14:2 17:2 18:1 21:2 23:4 #
0.10000000000000000555111512312578 1:1 2:4 3:7 4:11 6:3 8:2 9:3 10:1 13:2 14:3 15:2 16:2 17:1 18:1 21:1 22:1 23:1 24:2 #
-0.10000000000000000555111512312578 1:2 2:3 3:3 4:1 5:2 8:1 12:1 16:1 18:1 19:2 22:1 23:1 #
-0.10000000000000000555111512312578 2:8 3:13 4:9 5:5 6:3 7:1 8:8 9:4 10:6 11:1 14:4 15:1 16:3 17:2 18:3 20:2 21:3 22:2 24:9 #
0.10000000000000000555111512312578 1:4 2:5 3:8 4:7 5:4 7:2 8:3 10:1 11:2 12:1 13:1 15:1 17:2 18:1 19:4 21:1 22:1 24:2 25:1 #
0.10000000000000000555111512312578 2:2 3:7 4:7 5:2 6:2 8:3 9:2 11:1 12:1 13:1 14:1 15:1 16:1 17:1 18:2 22:1 23:1 24:1 #
0.10000000000000000555111512312578 1:3 2:4 3:11 4:8 5:4 6:2 7:1 8:3 9:1 10:2 14:3 15:1 17:2 18:1 19:1 22:2 24:1 25:1 #
0.10000000000000000555111512312578 1:2 2:4 3:5 4:8 6:2 8:2 9:1 10:2 12:1 14:4 15:1 16:1 17:2 18:1 19:1 21:1 24:4 #
-0.10000000000000000555111512312578 1:3 2:3 3:11 4:7 5:2 6:3 8:2 9:3 10:2 11:1 12:2 13:1 14:1 17:4 18:1 19:1 20:1 21:1 23:1 #
0.10000000000000000555111512312578 1:10 2:4 3:7 4:7 5:4 6:1 7:2 8:6 9:3 11:5 12:1 13:3 14:10 17:3 20:1 21:5 22:1 #
0.10000000000000000555111512312578 1:5 2:3 3:3 4:6 6:1 7:1 8:3 11:2 13:1 14:3 16:1 17:1 19:2 23:1 25:1 #
0.10000000000000000555111512312578 1:8 2:3 3:8 4:8 5:2 8:1 9:1 10:2 12:1 13:2 14:3 15:1 17:1 18:1 19:1 21:1 22:3 23:3 25:1 #
0.10000000000000000555111512312578 1:6 2:5 3:7 4:10 5:1 7:1 8:5 10:2 11:1 12:4 14:4 15:1 16:1 18:1 19:1 21:2 23:2 24:1 #
-0.10000000000000000555111512312578 1:3 2:9 3:6 4:10 5:4 6:3 8:3 9:2 10:1 12:1 14:3 15:1 16:2 17:3 19:1 21:2 24:4 25:1 #
0.10000000000000000555111512312578 1:10 2:3 3:4 4:12 5:6 6:3 7:1 8:5 11:4 12:3 13:2 14:4 16:2 17:2 18:3 21:1 23:1 #
-0.10000000000000000555111512312578 1:6 2:5 3:7 4:15 5:8 6:3 7:3 8:4 13:2 14:5 16:1 17:2 18:7 19:2 20:4 21:4 25:5 #
-0.10000000000000000555111512312578 1:1 2:3 3:11 4:12 5:5 6:3 8:5 10:1 11:1 13:1 14:1 15:1 16:4 18:3 #
-0.10000000000000000555111512312578 2:2 3:2 4:1 5:1 7:1 8:1 10:1 12:1 16:1 21:1 22:1 #
0.10000000000000000555111512312578 1:10 2:7 3:20 4:23 5:7 6:7 7:3 8:7 9:4 10:1 11:2 12:9 14:11 16:3 17:2 19:1 20:1 22:2 24:1 25:2 #
-0.10000000000000000555111512312578 1:7 2:3 3:14 4:11 5:8 6:4 7:1 8:3 9:2 11:2 12:3 13:1 14:5 15:1 16:1 17:6 18:2 19:3 20:1 21:1 22:2 23:1 25:3 #
-0.10000000000000000555111512312578 1:6 3:9 4:7 5:8 6:3 7:1 8:9 9:4 11:3 12:1 14:3 15:1 16:3 17:4 18:3 19:2 22:3 #
0.10000000000000000555111512312578 1:13 2:7 3:12 4:12 5:2 6:2 7:2 8:5 9:3 10:1 11:1 12:2 13:1 14:5 15:3 16:1 17:2 18:1 19:1 20:1 21:1 22:6 23:2 25:1 #
-0.10000000000000000555111512312578 1:5 2:1 3:7 4:4 5:3 6:1 7:1 9:1 10:1 11:2 14:2 17:1 20:1 25:1 #
-0.10000000000000000555111512312578 1:1 2:5 3:29 4:23 5:4 6:3 7:2 8:5 9:2 10:1 11:2 12:1 14:6 15:2 16:1 17:4 18:1 19:2 21:2 23:5 24:3 25:2 #
-0.10000000000000000555111512312578 1:2 2:2 3:3 4:10 8:1 10:1 14:4 15:1 16:1 17:1 20:1 #
-0.10000000000000000555111512312578 2:6 3:16 4:19 5:2 6:1 8:3 9:1 11:3 13:1 14:6 15:1 16:2 17:3 18:1 19:2 21:2 23:3 24:3 #
-0.10000000000000000555111512312578 1:4 2:11 3:10 4:6 5:6 6:1 7:2 8:2 9:1 12:1 13:2 14:4 15:1 16:3 17:5 18:4 19:4 20:1 21:4 22:1 23:2 25:1 #
-0.10000000000000000555111512312578 1:5 2:10 3:12 4:21 5:7 6:6 7:1 8:6 9:12 10:6 11:3 12:3 13:3 14:9 15:1 16:1 17:7 18:1 19:2 20:1 21:2 22:2 23:2 24:9 #
-0.10000000000000000555111512312578 1:3 2:5 3:10 4:6 5:1 6:1 8:6 9:1 10:1 11:1 13:2 14:3 15:1 17:5 18:1 21:1 22:1 23:2 25:1 #
0.10000000000000000555111512312578 1:1 2:3 3:8 4:8 5:4 6:1 7:1 8:4 11:1 12:1 14:2 15:1 17:2 18:1 19:1 21:3 23:1 24:1 #
0.10000000000000000555111512312578 2:3 3:4 4:5 5:3 6:2 8:4 9:1 10:1 11:1 13:1 14:6 16:1 17:1 18:2 21:2 22:2 25:1 #
0.10000000000000000555111512312578 1:9 2:1 3:7 4:14 5:2 6:1 7:2 8:1 12:1 13:1 14:2 16:3 19:2 21:1 22:1 #
-0.10000000000000000555111512312578 1:5 2:7 3:19 4:15 5:7 6:3 7:2 8:7 9:5 10:1 11:2 13:2 14:2 16:3 17:5 18:3 19:1 23:1 #
0.10000000000000000555111512312578 1:4 2:5 3:3 4:7 6:3 8:1 10:3 13:2 14:1 16:1 17:2 21:3 #
-0.10000000000000000555111512312578 1:3 2:1 3:6 4:5 5:2 10:1 14:1 17:1 18:1 19:1 20:1 21:1 #
-0.10000000000000000555111512312578 1:8 2:6 3:15 4:17 5:11 6:5 7:2 8:5 9:3 10:1 11:2 12:1 13:1 14:7 15:1 16:4 18:3 19:1 20:1 22:1 23:1 25:3 #
-0.10000000000000000555111512312578 1:4 2:6 3:15 4:14 5:3 6:5 7:3 8:2 9:3 10:1 14:5 15:1 16:2 17:4 18:3 19:1 20:3 21:2 22:2 23:1 24:9 #
-0.10000000000000000555111512312578 1:3 2:5 3:11 4:8 5:1 6:2 7:2 8:2 9:1 10:4 11:2 12:1 13:1 14:4 17:1 18:1 19:1 20:1 21:1 22:2 24:5 #
-0.10000000000000000555111512312578 1:4 2:6 3:13 4:9 5:4 6:3 7:3 8:3 9:2 11:1 12:3 13:1 14:5 15:1 16:2 17:3 18:3 19:1 20:1 21:1 22:1 23:3 24:3 25:1 #
-0.10000000000000000555111512312578 1:1 2:5 3:7 4:8 5:6 7:1 8:5 10:2 11:2 12:1 13:3 14:3 15:1 16:2 20:1 21:1 22:1 24:5 #
0.10000000000000000555111512312578 2:1 3:6 4:4 5:4 7:1 8:1 9:1 13:1 16:1 17:1 18:2 21:1 25:1 #
0.10000000000000000555111512312578 2:4 3:6 4:6 5:3 6:1 7:1 8:2 9:2 10:1 11:1 16:1 17:1 20:1 21:1 24:4 25:3 #
0.10000000000000000555111512312578 1:1 2:4 3:6 4:8 5:3 8:2 9:1 10:1 12:1 13:1 16:1 17:1 18:2 21:2 23:3 #
0.10000000000000000555111512312578 1:6 2:5 3:13 4:11 5:5 6:1 7:1 8:5 9:1 10:3 11:2 13:1 14:4 15:2 16:3 17:4 18:1 19:1 20:2 21:2 22:1 25:2 #
0.10000000000000000555111512312578 1:6 2:3 3:10 4:17 5:7 7:3 8:3 10:1 11:2 12:2 13:1 14:4 15:1 16:2 17:6 18:3 19:4 20:2 21:1 23:1 #
-0.10000000000000000555111512312578 1:2 2:4 3:6 4:5 5:3 6:1 8:2 9:2 12:1 13:1 14:1 15:1 16:2 17:1 18:1 20:1 22:1 23:2 24:2 #
0.10000000000000000555111512312578 2:6 3:4 4:5 5:2 6:1 9:1 10:1 14:2 16:1 17:2 18:1 19:1 #
-0.10000000000000000555111512312578 1:3 2:5 3:8 4:8 6:1 8:2 9:1 11:1 13:1 14:5 16:1 17:2 18:2 19:2 20:1 21:2 23:5 25:1 #
0.10000000000000000555111512312578 1:2 2:1 3:3 4:8 5:1 6:1 8:2 11:1 12:2 14:6 16:1 17:2 18:2 19:1 21:2 23:2 24:1 #
0.10000000000000000555111512312578 1:2 2:3 3:5 4:7 5:1 6:1 8:1 10:2 13:1 14:1 15:1 16:1 17:2 18:2 21:2 23:1 24:1 25:1 #
0.10000000000000000555111512312578 2:8 3:8 4:12 5:6 6:2 7:3 9:3 10:3 11:2 12:1 13:3 14:6 15:1 16:3 17:2 18:3 20:3 24:5 25:2 #
-0.10000000000000000555111512312578 1:1 2:2 3:5 4:9 5:1 6:1 14:2 18:1 21:2 23:3 24:2 25:1 #
0.047436802669294036993719032579975 1:1 2:15 3:22 4:23 5:2 7:1 8:14 9:10 10:3 11:1 13:1 14:8 15:4 16:3 17:5 18:1 19:1 21:3 22:5 23:6 24:5 25:2 #
0.10000000000000000555111512312578 1:4 2:3 3:4 4:6 5:1 8:5 9:1 11:3 13:2 14:2 17:3 18:2 19:1 20:1 21:2 22:1 23:2 #
0.10000000000000000555111512312578 1:16 2:13 3:33 4:43 5:7 6:14 7:2 8:22 9:8 11:1 12:6 13:1 14:16 15:1 16:5 17:11 18:11 19:5 20:7 21:8 22:1 23:5 24:4 25:1 #
-0.10000000000000000555111512312578 1:1 2:5 3:7 4:6 5:3 8:5 9:1 13:1 14:4 16:1 17:1 18:2 22:1 #
0.10000000000000000555111512312578 2:3 3:10 4:11 5:4 6:1 8:1 10:1 13:3 14:4 15:1 16:1 17:1 18:1 19:2 20:1 21:1 23:2 24:5 #
-0.10000000000000000555111512312578 2:2 3:4 4:10 5:1 6:1 7:1 8:1 9:2 10:1 14:3 16:1 20:1 #
0.10000000000000000555111512312578 2:3 3:7 4:6 5:6 6:3 8:1 10:1 11:1 12:1 13:1 14:2 15:1 16:2 17:2 18:1 21:1 24:4 25:1 #
-0.10000000000000000555111512312578 1:9 2:6 3:16 4:11 8:4 9:3 12:2 13:1 14:5 15:1 16:1 17:4 18:1 19:2 21:1 23:6 #
-0.10000000000000000555111512312578 1:6 2:8 3:12 4:15 5:3 6:2 7:2 8:9 9:1 10:1 12:2 13:4 14:6 15:1 16:3 18:2 19:2 21:4 22:2 23:1 24:8 #
-0.10000000000000000555111512312578 2:7 3:5 4:16 5:2 6:5 8:2 9:4 11:1 14:7 15:1 16:4 17:2 19:1 23:6 #
0.10000000000000000555111512312578 2:5 3:7 4:8 5:2 6:1 10:3 13:1 14:1 20:3 21:2 24:2 #
-0.10000000000000000555111512312578 1:1 2:4 3:6 4:7 5:6 6:1 8:1 12:1 13:2 14:1 17:2 18:3 21:2 23:2 25:1 #
-0.10000000000000000555111512312578 1:2 2:3 3:4 4:4 5:2 8:1 10:1 12:1 13:1 18:1 19:2 21:1 24:1 #
-0.10000000000000000555111512312578 1:2 2:5 3:10 4:9 5:1 8:2 9:1 13:2 14:3 15:1 16:1 17:2 19:1 21:2 22:1 23:2 25:1 #
-0.10000000000000000555111512312578 1:3 2:6 3:13 4:14 5:4 6:3 7:1 8:2 9:1 11:1 13:1 14:3 15:2 17:3 18:1 19:1 20:3 21:2 22:1 23:5 24:1 25:1 #
-0.10000000000000000555111512312578 1:5 2:5 3:15 4:7 5:1 6:3 7:2 8:5 9:1 10:3 11:1 12:2 14:4 15:1 16:4 17:4 21:1 22:2 23:3 24:3 25:2 #
0.10000000000000000555111512312578 2:3 3:1 4:2 8:2 16:1 17:1 22:1 23:3 25:1 #
-0.10000000000000000555111512312578 1:1 2:6 3:6 4:8 5:1 6:2 8:5 10:1 11:1 12:1 14:1 15:1 16:1 17:2 18:1 19:1 20:1 21:1 23:3 #
0.10000000000000000555111512312578 2:1 3:4 4:3 9:1 11:1 14:1 16:2 17:3 25:1 #
0.10000000000000000555111512312578 2:3 3:6 4:8 5:6 8:2 9:2 12:1 13:1 14:1 16:1 17:6 18:2 20:1 21:3 23:1 #
-0.10000000000000000555111512312578 1:6 2:4 3:10 4:19 5:1 6:2 8:6 9:4 10:1 11:2 14:4 16:4 17:6 18:1 19:4 23:1 #
0.10000000000000000555111512312578 1:4 2:5 3:24 4:13 5:2 6:5 8:4 9:2 11:2 12:1 14:2 16:2 17:5 18:3 19:3 20:6 21:3 22:1 23:7 25:1 #
0.10000000000000000555111512312578 2:3 3:8 4:4 5:3 6:2 10:1 13:1 14:1 16:1 17:1 19:1 20:1 21:3 22:1 23:1 24:1 25:1 #
-0.10000000000000000555111512312578 1:4 2:5 3:14 4:8 5:4 6:1 8:2 9:1 10:2 11:1 13:4 16:3 17:3 18:1 19:4 20:1 21:3 23:4 25:2 #
0.10000000000000000555111512312578 1:4 2:5 3:16 4:17 5:4 6:1 7:4 8:13 9:3 13:3 14:3 15:1 18:3 19:2 21:4 22:2 23:3 24:1 #
0.10000000000000000555111512312578 1:4 2:10 3:8 4:10 5:2 6:2 7:2 8:9 9:5 10:1 11:1 12:1 13:4 14:4 15:2 16:3 17:2 19:2 20:1 21:3 22:2 23:3 24:7 25:1 #
-0.10000000000000000555111512312578 1:2 2:2 3:3 4:5 7:1 8:2 9:1 12:1 13:1 15:1 16:4 19:1 21:3 22:1 23:2 #
0.10000000000000000555111512312578 1:5 2:8 3:28 4:13 5:4 7:4 8:4 9:9 11:7 12:3 13:4 14:3 16:3 17:5 19:7 20:3 21:4 22:6 24:1 #
0.10000000000000000555111512312578 1:4 2:7 3:14 4:5 5:1 6:1 7:1 8:5 9:1 10:1 11:1 12:2 13:2 14:10 15:1 16:2 17:2 19:3 20:1 21:1 23:4 #
-0.10000000000000000555111512312578 1:4 2:6 3:6 4:10 5:7 6:1 7:2 8:6 10:2 11:1 12:2 13:4 14:5 15:1 16:1 17:2 18:1 20:2 21:2 22:1 24:6 #
0.10000000000000000555111512312578 1:8 2:6 3:24 4:12 5:1 7:2 8:9 9:10 11:2 12:3 13:1 14:14 15:1 16:5 17:6 19:1 21:5 #
-0.10000000000000000555111512312578 1:1 2:2 3:6 4:4 5:2 6:2 8:6 9:2 10:1 15:1 17:1 18:1 19:1 23:1 25:2 #
0.10000000000000000555111512312578 2:5 3:20 4:13 5:2 6:2 7:4 8:2 9:1 10:1 11:3 13:1 14:8 15:1 16:2 17:2 18:3 19:5 20:2 21:5 23:2 24:2 #
-0.10000000000000000555111512312578 1:6 2:1 3:9 4:4 5:3 7:1 8:1 10:2 11:1 13:1 14:2 17:2 18:2 19:1 20:2 21:1 25:2 #
-0.10000000000000000555111512312578 2:7 3:5 4:8 8:11 9:6 11:1 14:2 15:1 17:2 18:2 19:1 20:2 21:1 22:2 23:8 #
0.10000000000000000555111512312578 2:2 3:5 4:4 5:2 6:1 8:2 9:1 16:3 17:1 19:1 21:2 24:3 25:1 #
-0.10000000000000000555111512312578 1:7 2:5 3:11 4:7 5:2 7:1 10:1 12:2 14:5 15:1 16:2 19:2 21:1 23:3 25:5 #
0.10000000000000000555111512312578 1:3 2:6 3:14 4:3 5:6 6:4 8:5 9:3 10:4 11:2 13:1 14:3 16:4 17:1 18:1 19:1 20:1 22:1 24:3 #
0.10000000000000000555111512312578 1:2 2:6 3:8 4:7 5:2 7:1 8:1 10:2 14:3 16:1 17:1 21:2 23:1 25:2 #
-0.10000000000000000555111512312578 1:3 2:4 3:13 4:9 5:2 6:2 8:4 9:5 10:1 11:2 12:2 13:2 14:3 15:1 16:4 17:6 18:1 19:3 20:3 21:3 22:1 23:2 24:1 #
0.10000000000000000555111512312578 1:6 2:4 3:15 4:18 5:5 7:3 8:4 9:3 10:3 11:1 12:3 14:4 15:1 16:2 17:2 18:3 19:4 21:2 25:2 #
0.10000000000000000555111512312578 1:11 2:5 3:14 4:14 5:7 6:6 7:1 8:6 9:2 11:3 12:1 14:10 15:1 16:1 17:5 19:1 20:2 21:1 22:1 24:2 25:1 #
0.10000000000000000555111512312578 1:2 2:3 3:10 4:8 5:2 6:5 7:1 8:2 9:2 10:1 14:2 17:5 18:3 19:3 20:3 21:1 23:1 24:4 25:1 #
0.10000000000000000555111512312578 1:1 2:7 3:9 4:6 5:2 7:1 8:2 9:3 13:1 14:1 16:1 17:1 19:1 21:1 22:2 23:1 24:1 #
0.10000000000000000555111512312578 1:3 2:8 3:14 4:7 5:4 7:3 8:2 9:1 10:5 11:1 12:3 13:2 14:9 16:4 17:2 19:4 20:4 21:5 23:1 24:3 #
0.10000000000000000555111512312578 1:7 2:4 3:10 4:16 5:1 6:1 7:2 8:4 9:5 11:4 12:2 13:1 14:2 16:1 17:2 19:3 20:2 21:3 22:3 23:1 #
0.10000000000000000555111512312578 3:4 4:4 6:1 13:1 15:1 16:1 21:1 23:4 #
0.10000000000000000555111512312578 1:5 2:2 3:9 4:7 5:1 6:1 8:1 9:2 10:1 11:1 12:2 14:1 16:1 18:1 19:1 20:2 21:1 23:3 #
-0.10000000000000000555111512312578 2:5 3:12 4:13 5:3 7:2 8:6 10:2 12:1 14:8 15:2 16:6 17:4 18:2 19:2 21:3 22:2 24:8 #
0.10000000000000000555111512312578 1:5 2:4 3:12 4:13 5:3 7:1 8:2 9:2 10:1 11:3 12:1 13:2 14:4 15:2 16:4 17:7 18:1 19:3 21:3 23:1 24:3 #
-0.10000000000000000555111512312578 1:2 2:3 3:8 4:4 5:3 6:1 8:4 9:2 11:3 12:2 13:1 14:3 17:4 18:1 20:1 23:1 25:1 #
-0.10000000000000000555111512312578 2:5 3:3 4:6 6:4 8:3 9:1 11:1 13:2 15:1 16:1 17:2 21:4 23:4 #
0.00085924347490617947187274694442749 1:1 2:1 3:6 4:12 5:1 6:1 8:3 9:3 13:1 16:2 18:1 20:2 21:2 22:2 23:3 24:2 #
0.10000000000000000555111512312578 1:7 2:4 3:7 4:5 5:3 6:1 8:6 9:2 11:3 12:1 13:1 14:5 16:1 17:4 18:2 19:3 20:1 22:2 #
0.10000000000000000555111512312578 1:1 2:2 3:5 4:2 5:5 8:2 13:1 14:4 15:1 16:2 17:1 18:1 20:2 21:2 22:1 23:2 24:2 25:1 #
0.10000000000000000555111512312578 1:6 2:4 3:12 4:11 5:2 6:3 8:3 9:4 11:4 12:2 13:2 14:5 17:2 18:1 19:1 20:2 21:4 22:2 23:4 25:1 #
-0.10000000000000000555111512312578 1:3 2:5 3:9 4:8 5:9 6:4 7:1 8:4 9:2 13:2 14:1 16:3 17:3 18:2 19:2 #
0.10000000000000000555111512312578 1:4 2:5 3:9 4:12 5:7 7:1 8:1 9:2 12:1 14:4 17:1 18:2 21:1 22:3 25:3 #
-0.10000000000000000555111512312578 1:3 2:4 3:7 4:7 5:6 8:3 12:2 14:2 16:1 17:1 18:2 19:1 #
0.10000000000000000555111512312578 1:6 2:6 3:14 4:8 5:8 6:2 7:1 8:4 9:2 11:2 12:2 14:2 15:1 16:3 17:4 18:2 19:1 21:1 23:4 #
0.10000000000000000555111512312578 1:5 2:5 3:10 4:15 7:2 8:9 9:4 10:2 11:1 12:1 13:4 14:5 15:3 16:2 17:1 19:5 21:5 23:3 24:6 25:3 #
0.10000000000000000555111512312578 1:1 2:3 3:8 4:10 5:3 8:6 9:2 10:1 13:4 14:5 15:2 16:4 17:1 18:2 19:4 21:6 22:1 23:4 24:8 25:2 #
-0.10000000000000000555111512312578 1:3 2:6 3:10 4:14 5:4 6:2 7:1 8:4 9:1 10:2 12:2 13:3 14:2 16:3 17:2 18:2 19:3 20:2 21:3 22:1 24:2 #
-0.10000000000000000555111512312578 1:7 2:5 3:12 4:14 5:7 6:5 7:1 8:7 9:2 10:1 11:1 12:2 14:3 15:1 16:1 17:3 18:2 22:2 24:9 25:1 #
-0.10000000000000000555111512312578 1:1 2:5 3:2 4:9 5:5 6:1 8:4 11:1 13:3 14:3 16:1 17:3 18:3 20:5 21:2 23:2 24:1 #
-0.10000000000000000555111512312578 1:1 2:8 3:8 4:15 5:5 6:4 7:1 8:7 11:1 13:1 14:4 15:2 16:1 17:1 18:2 20:4 21:2 23:4 #
0.10000000000000000555111512312578 1:7 2:3 3:11 4:10 5:5 7:1 8:5 9:1 11:4 12:1 13:2 14:5 15:1 16:2 17:5 18:5 19:2 20:2 21:9 22:5 23:4 24:2 #
-0.10000000000000000555111512312578 1:2 2:3 3:7 4:13 5:2 6:1 8:4 9:1 12:1 13:3 15:1 16:2 17:4 18:1 19:3 20:1 21:2 23:3 #
0.10000000000000000555111512312578 1:3 2:3 3:8 4:10 5:6 6:1 8:9 9:1 11:1 12:1 13:2 16:1 17:2 18:2 19:1 21:3 22:2 23:1 #
-0.10000000000000000555111512312578 2:2 3:17 4:22 5:3 6:6 7:1 8:9 9:5 10:2 11:5 14:7 15:2 16:4 17:8 18:2 19:1 20:6 21:3 22:2 23:3 #
-0.10000000000000000555111512312578 1:5 2:2 3:6 4:6 5:4 8:4 14:4 15:1 16:1 18:2 19:1 20:1 22:2 24:2 25:1 #
-0.10000000000000000555111512312578 1:1 2:5 3:8 4:7 6:1 7:1 9:1 12:2 13:1 14:2 16:3 17:1 18:2 19:2 20:1 21:1 22:1 23:4 24:1 #
0.10000000000000000555111512312578 1:1 2:5 3:10 4:8 5:3 6:1 9:1 10:1 11:2 13:2 14:2 15:1 17:3 18:3 19:1 20:4 21:1 22:1 23:2 24:1 #
0.10000000000000000555111512312578 1:8 2:5 3:14 4:15 5:11 6:2 8:10 9:5 11:2 12:5 13:2 14:3 15:1 16:2 17:4 18:7 19:2 20:7 21:2 23:1 #
-0.10000000000000000555111512312578 1:3 2:4 3:9 4:17 5:2 6:3 7:1 8:6 9:2 10:1 12:1 14:9 15:1 16:1 17:5 18:1 19:2 20:2 21:2 24:9 25:2 #
0.10000000000000000555111512312578 2:7 3:13 4:13 5:1 6:1 8:6 9:2 12:1 13:1 14:6 15:2 16:4 18:1 19:3 21:2 23:3 24:3 #
-0.10000000000000000555111512312578 2:2 3:4 4:3 6:1 8:1 10:1 11:1 13:1 18:1 19:1 20:1 21:2 23:1 25:2 #
-0.10000000000000000555111512312578 1:1 2:7 3:10 4:8 5:3 6:2 7:1 8:3 9:4 10:3 14:3 15:1 16:3 17:2 18:2 19:2 20:2 21:1 22:1 24:2 25:1 #
-0.10000000000000000555111512312578 2:6 3:7 4:14 5:3 6:2 7:1 8:4 9:4 10:2 11:3 14:1 15:1 16:2 17:2 18:1 19:1 22:2 23:1 24:2 25:1 #
0.10000000000000000555111512312578 1:1 2:3 3:5 4:7 5:1 12:1 14:1 17:1 18:2 19:1 21:1 23:3 24:1 #
-0.10000000000000000555111512312578 1:2 2:2 3:6 4:6 5:2 8:3 9:3 11:1 13:1 17:2 18:3 19:2 20:1 21:5 23:2 25:1 #
-0.10000000000000000555111512312578 1:6 2:2 3:5 4:8 5:1 8:3 9:2 10:2 11:5 12:1 13:2 14:4 16:2 19:1 20:2 21:2 23:1 #
-0.10000000000000000555111512312578 2:2 3:12 4:12 5:5 7:1 8:1 9:5 11:1 12:1 14:4 15:1 16:1 17:4 20:1 21:2 22:2 24:2 #
-0.10000000000000000555111512312578 2:3 3:16 4:13 8:5 9:4 11:1 13:1 14:4 15:1 16:3 17:2 19:2 20:2 21:6 23:4 #
-0.047068026243608618308655877626734 1:14 2:17 3:41 4:31 5:22 6:10 7:3 8:18 9:7 10:7 11:15 12:9 13:2 14:26 15:1 16:8 17:8 18:5 19:5 20:4 21:6 22:9 23:2 24:17 25:1 #
-0.10000000000000000555111512312578 1:2 2:1 3:11 4:7 6:1 8:3 9:4 10:2 12:2 13:1 14:2 16:2 17:2 18:2 19:1 20:2 21:2 23:1 #
0.10000000000000000555111512312578 1:5 2:7 3:8 4:16 5:4 6:1 7:2 8:1 10:2 12:2 13:3 14:1 15:1 16:2 17:3 19:1 21:3 22:1 23:3 24:3 25:2 #
-0.10000000000000000555111512312578 1:6 2:4 3:13 4:11 8:3 9:1 10:1 11:2 12:3 14:7 16:1 17:4 18:2 19:3 20:1 21:2 22:2 23:1 #
0.10000000000000000555111512312578 1:4 2:6 3:14 4:6 5:3 8:4 9:1 10:1 11:1 12:1 14:2 15:1 16:1 17:2 18:2 19:3 23:1 25:1 #
-0.050461563259225183930567482093466 1:12 2:2 3:14 4:14 5:4 8:1 9:2 10:1 11:5 12:1 13:2 14:1 15:1 16:4 17:2 18:1 19:2 20:4 21:3 22:1 #
0.10000000000000000555111512312578 2:3 3:6 4:4 5:1 6:1 7:1 8:3 10:1 11:1 16:1 21:1 23:3 24:1 #
0.10000000000000000555111512312578 1:2 2:5 3:8 4:5 5:7 6:2 8:5 9:1 10:3 11:3 14:2 16:1 17:1 19:3 20:2 21:1 22:1 24:1 25:2 #
-0.10000000000000000555111512312578 1:17 2:6 3:14 4:20 5:10 6:1 7:4 8:7 9:2 10:1 11:5 12:5 14:6 15:1 16:1 17:6 18:5 19:1 21:1 22:2 23:1 25:5 #
-0.10000000000000000555111512312578 1:1 2:1 3:8 4:10 5:4 6:1 7:2 8:1 12:2 13:2 14:3 16:1 17:3 18:3 19:1 20:1 21:1 24:3 #
0.10000000000000000555111512312578 1:1 2:3 3:5 4:9 5:2 6:2 8:3 9:1 12:1 14:3 15:2 16:1 17:1 21:1 22:3 23:1 24:2 25:3 #
0.10000000000000000555111512312578 1:2 2:7 3:7 4:8 6:3 8:3 9:1 14:1 16:2 19:1 20:1 21:1 23:3 25:1 #
0.10000000000000000555111512312578 1:1 2:6 3:2 4:4 5:2 6:1 7:1 8:4 9:1 13:2 14:4 15:1 17:2 18:2 21:1 23:3 25:1 #
0.10000000000000000555111512312578 1:2 2:5 3:14 4:8 5:1 6:2 7:1 8:7 9:2 10:1 11:1 14:4 15:2 16:1 17:6 18:3 19:2 20:1 21:2 23:2 25:1 #
0.10000000000000000555111512312578 1:3 2:2 3:11 4:12 5:5 6:2 8:3 9:2 10:1 11:1 12:1 13:2 14:2 16:1 17:2 18:1 19:2 20:3 21:2 22:1 25:1 #
-0.10000000000000000555111512312578 1:3 2:6 3:13 4:11 5:3 7:1 8:8 9:3 11:3 12:1 14:7 15:2 16:1 17:4 18:2 19:1 21:3 22:1 23:5 #
0.10000000000000000555111512312578 2:5 3:2 4:4 5:2 6:1 7:1 8:2 10:2 14:3 16:1 17:2 18:1 20:2 21:2 22:1 24:2 #
-0.10000000000000000555111512312578 1:8 2:9 3:18 4:18 5:7 6:4 7:3 8:5 9:2 10:1 11:4 12:4 13:2 14:7 15:1 16:1 17:7 18:1 19:1 20:1 21:3 23:1 25:1 #
-0.041046904641886081122059692916082 1:2 2:1 3:9 4:5 5:2 7:1 8:2 11:1 12:1 14:1 15:1 16:2 17:6 18:1 19:1 21:3 23:1 #
0.10000000000000000555111512312578 1:3 3:1 4:11 5:1 8:3 14:4 16:2 21:1 22:1 24:2 #
0.10000000000000000555111512312578 1:15 2:9 3:25 4:25 5:10 6:11 7:2 8:4 9:6 11:11 12:3 13:2 14:14 16:5 17:6 18:3 20:4 #
0.10000000000000000555111512312578 1:7 2:1 3:11 4:21 5:4 6:1 8:9 11:2 12:1 13:1 14:7 17:4 18:7 19:2 21:5 #
0.10000000000000000555111512312578 1:6 2:3 3:12 4:18 5:9 6:3 8:4 9:5 11:1 12:1 13:2 14:7 15:1 16:2 17:1 21:1 24:3 #
-0.10000000000000000555111512312578 1:8 2:7 3:16 4:16 5:12 6:3 8:4 9:1 10:3 11:1 12:3 14:3 16:2 17:2 18:3 19:1 20:4 21:2 22:1 23:2 #
-0.10000000000000000555111512312578 1:2 2:1 3:10 4:18 5:5 6:1 8:6 9:5 10:2 11:2 12:2 13:1 14:4 15:1 16:4 18:3 19:2 21:2 23:2 25:4 #
0.10000000000000000555111512312578 2:4 3:10 4:8 5:3 6:1 8:5 9:1 10:1 14:3 15:2 16:2 17:1 18:3 19:2 21:1 23:1 24:5 25:1 #
0.10000000000000000555111512312578 1:2 2:1 3:8 4:14 5:5 8:1 10:3 13:1 14:3 15:2 16:1 17:3 18:1 20:1 21:3 22:1 24:1 25:2 #
0.10000000000000000555111512312578 1:1 2:3 3:9 4:12 5:1 6:1 7:1 8:3 9:1 10:3 14:3 15:2 17:5 19:1 20:6 22:3 24:3 25:1 #
-0.10000000000000000555111512312578 1:2 2:1 3:5 4:4 5:4 8:1 9:2 11:2 13:3 14:1 19:1 21:3 22:1 23:1 #
0.10000000000000000555111512312578 1:3 2:3 3:11 4:14 5:5 6:2 7:2 8:4 9:4 11:2 12:1 13:1 14:2 15:2 17:2 18:1 21:2 23:2 24:4 25:1 #
-0.10000000000000000555111512312578 1:1 2:4 3:8 4:5 5:1 8:2 9:2 13:1 14:1 15:1 17:2 19:1 20:2 22:1 23:1 25:1 #
0.10000000000000000555111512312578 1:4 2:7 3:14 4:15 5:4 6:2 7:3 8:2 9:2 10:2 11:1 12:2 14:4 16:1 17:4 18:1 19:5 20:5 21:3 22:1 23:1 24:6 25:3 #
-0.10000000000000000555111512312578 1:5 2:3 3:7 4:7 5:3 8:1 10:2 12:3 13:2 14:4 15:1 16:1 17:4 18:1 19:1 25:1 #
-0.10000000000000000555111512312578 1:4 2:1 3:6 4:7 5:3 6:1 7:1 9:3 12:2 13:1 14:3 17:1 18:1 21:2 23:2 24:2 25:1 #
-0.10000000000000000555111512312578 1:4 2:1 3:9 4:9 5:3 8:2 9:1 10:1 14:5 16:1 18:1 21:1 #
0.10000000000000000555111512312578 2:3 3:1 4:11 5:1 8:2 9:1 10:1 13:1 14:3 15:1 16:2 17:2 18:1 20:1 21:1 24:1 #
-0.10000000000000000555111512312578 1:3 2:1 3:7 4:14 8:4 9:3 11:1 13:1 14:4 15:1 16:2 17:2 20:3 21:2 22:1 #
0.10000000000000000555111512312578 1:3 2:9 3:10 4:10 5:4 6:3 7:3 8:7 9:6 10:2 12:1 13:1 14:3 15:1 16:4 17:3 18:2 19:2 20:1 22:2 23:1 24:10 #
-0.10000000000000000555111512312578 2:5 3:8 4:9 6:1 8:3 9:4 13:1 14:4 16:3 17:3 20:2 21:2 22:1 23:3 #
0.10000000000000000555111512312578 1:5 2:6 4:12 5:5 7:1 8:8 9:2 11:1 12:2 13:2 14:1 16:3 17:1 18:1 19:1 20:1 21:4 22:2 24:1 25:1 #
-0.10000000000000000555111512312578 1:1 2:7 3:2 4:8 5:1 7:1 8:4 9:2 10:1 13:2 14:1 15:1 16:2 18:2 19:1 21:3 22:2 24:3 #
0.10000000000000000555111512312578 1:5 2:7 3:11 4:19 5:2 6:3 7:1 8:3 9:2 10:2 11:1 14:3 15:1 16:1 17:4 18:2 20:3 21:2 23:2 24:4 25:2 #
0.10000000000000000555111512312578 1:4 2:3 3:26 4:18 5:10 6:3 7:1 8:4 10:1 11:2 12:2 13:1 14:1 16:1 17:1 18:2 19:4 20:1 21:3 22:1 24:8 25:3 #
0.10000000000000000555111512312578 2:6 3:14 4:11 5:5 7:3 8:4 9:7 11:2 14:4 17:1 18:2 21:1 22:1 24:7 #
0.10000000000000000555111512312578 2:3 3:5 4:9 5:2 6:2 8:4 9:3 13:1 14:3 15:1 16:2 17:3 19:2 20:1 21:3 23:1 24:1 #
0.10000000000000000555111512312578 2:8 3:10 4:10 5:2 6:2 7:1 8:10 9:4 13:1 14:8 15:2 16:1 17:2 18:2 21:2 22:2 23:2 24:7 25:1 #
0.10000000000000000555111512312578 1:6 2:4 3:7 4:7 5:10 6:2 7:1 8:3 9:1 11:1 12:1 13:1 14:3 16:1 18:1 20:1 21:2 22:1 23:1 25:1 #
0.10000000000000000555111512312578 2:5 3:8 4:6 5:2 6:2 7:1 8:5 9:3 11:2 14:3 15:1 17:3 20:2 21:2 23:1 25:1 #
0.10000000000000000555111512312578 2:1 3:2 4:3 5:1 7:1 8:1 9:1 12:1 13:1 14:2 16:1 17:2 19:1 23:1 #
0.10000000000000000555111512312578 1:6 2:8 3:17 4:13 5:7 6:3 7:2 8:6 9:2 11:1 12:3 13:3 14:6 16:2 17:1 18:1 19:1 20:1 21:3 22:2 #
0.10000000000000000555111512312578 1:6 2:6 3:20 4:20 5:8 6:3 8:10 9:6 11:3 13:3 14:7 15:2 16:2 17:3 18:5 19:1 20:1 21:3 22:2 23:3 25:1 #
0.10000000000000000555111512312578 3:2 4:5 5:3 8:4 12:1 14:2 16:1 18:2 22:2 #
-0.10000000000000000555111512312578 1:3 2:3 3:15 4:25 5:8 6:1 7:2 8:4 9:4 10:3 11:2 12:1 14:13 15:2 16:2 17:7 19:3 20:1 21:4 22:2 23:1 24:8 #
0.10000000000000000555111512312578 1:4 2:2 3:9 4:9 5:1 6:2 8:6 9:2 10:1 11:1 12:1 13:1 14:5 16:2 17:5 18:2 19:1 20:1 21:1 24:2 #
0.10000000000000000555111512312578 1:1 2:3 3:9 4:12 5:1 6:1 7:1 8:3 9:1 10:3 14:3 15:2 17:5 19:1 20:6 22:3 24:3 25:1 #
-0.10000000000000000555111512312578 1:1 2:3 3:6 4:9 5:4 6:3 8:1 9:2 11:1 13:1 14:2 15:1 16:1 17:1 18:1 20:4 23:2 25:2 #
-0.10000000000000000555111512312578 1:1 2:4 3:12 4:6 6:1 8:4 9:4 13:3 14:1 15:1 16:2 17:2 18:1 19:2 20:1 21:4 22:1 23:4 #
0.10000000000000000555111512312578 1:4 2:4 3:9 4:12 5:1 7:1 8:2 9:1 12:1 13:2 14:3 15:1 16:1 19:1 20:1 21:2 22:1 24:6 #
-0.10000000000000000555111512312578 1:5 2:7 3:7 4:8 5:3 6:3 7:1 8:3 11:1 12:1 14:1 15:1 16:1 17:1 18:1 19:2 21:3 23:1 25:2 #
0.10000000000000000555111512312578 1:6 2:5 3:14 4:10 6:4 7:1 8:9 9:2 11:1 13:2 14:1 16:6 17:1 19:3 20:4 21:1 23:3 #
-0.10000000000000000555111512312578 1:5 2:6 3:5 4:15 5:4 6:1 7:2 8:5 9:2 13:1 14:3 15:1 16:1 17:3 18:2 20:1 21:2 22:1 23:3 25:2 #
-0.10000000000000000555111512312578 1:1 2:5 3:8 4:4 5:1 6:1 9:2 10:2 11:1 12:2 13:1 14:2 16:2 17:1 19:1 21:2 23:2 #
-0.10000000000000000555111512312578 1:2 2:2 3:5 4:4 5:3 10:2 13:1 14:1 15:1 19:1 21:1 25:4 #
-0.10000000000000000555111512312578 1:1 2:5 3:8 4:12 5:1 6:2 7:1 8:4 9:3 10:1 12:1 13:4 14:3 15:1 16:1 17:4 18:4 21:2 22:3 23:2 25:2 #
-0.10000000000000000555111512312578 1:5 2:4 3:2 4:6 5:1 6:2 7:1 8:1 10:2 12:1 14:3 16:1 17:1 20:2 #
0.10000000000000000555111512312578 1:3 2:5 3:6 4:16 6:1 7:2 8:2 9:1 11:1 12:1 13:1 14:1 15:1 16:1 17:2 19:1 21:3 23:3 24:2 25:1 #
0.10000000000000000555111512312578 1:4 2:5 3:13 4:12 5:5 6:6 7:2 8:4 10:2 11:1 12:1 13:1 14:10 15:1 16:1 17:2 18:6 19:4 20:3 23:2 24:6 25:2 #
-0.10000000000000000555111512312578 1:4 2:5 3:10 4:7 5:1 6:2 7:1 8:4 9:2 11:2 12:2 13:1 14:4 15:1 17:3 18:1 19:1 22:1 23:3 24:3 #
-0.10000000000000000555111512312578 1:7 2:3 3:9 4:13 5:7 6:4 7:1 8:3 9:1 10:1 11:1 12:3 13:2 14:8 16:4 17:3 18:4 19:1 20:5 21:2 22:2 25:1 #
-0.10000000000000000555111512312578 1:3 2:2 3:9 4:14 5:4 6:1 7:1 8:3 9:2 12:1 14:1 15:1 16:2 17:2 18:3 19:3 20:5 21:3 22:1 25:1 #
-0.10000000000000000555111512312578 1:5 2:4 3:6 4:3 5:1 6:1 7:1 8:5 9:1 11:1 13:1 14:4 16:1 17:2 18:1 20:1 21:3 22:2 23:5 #
-0.10000000000000000555111512312578 1:5 2:3 3:3 4:5 5:2 8:3 10:1 12:1 16:2 17:1 18:2 20:1 22:2 23:1 25:1 #
-0.10000000000000000555111512312578 1:2 2:6 3:14 4:8 5:1 7:1 8:3 9:1 13:1 14:5 16:1 17:1 19:1 20:1 21:5 23:1 #
-0.10000000000000000555111512312578 1:10 2:7 3:9 4:15 5:7 6:2 7:1 8:6 9:1 10:1 11:4 12:4 13:1 14:5 15:1 16:1 17:1 18:2 19:2 21:1 24:2 #
-0.10000000000000000555111512312578 1:6 2:8 3:8 4:7 5:3 6:1 8:2 9:3 10:2 12:1 13:2 14:3 16:2 17:1 18:1 19:3 20:3 21:2 22:1 25:3 #
-0.10000000000000000555111512312578 1:8 2:3 3:14 4:17 5:2 6:3 7:1 8:5 9:2 11:1 12:2 13:3 14:4 16:1 17:3 20:1 21:3 22:1 23:3 #
-0.10000000000000000555111512312578 1:4 2:1 3:5 4:6 5:3 7:4 11:1 14:2 16:1 17:2 18:1 19:1 20:1 21:1 #
0.10000000000000000555111512312578 2:5 3:4 4:8 5:1 6:2 8:3 12:1 13:1 14:3 15:1 16:1 17:1 19:3 24:3 25:1 #
0.10000000000000000555111512312578 2:1 3:8 4:7 5:2 6:1 8:2 9:1 11:1 14:3 16:1 17:2 18:1 19:3 20:2 22:1 23:1 24:2 #
-0.10000000000000000555111512312578 1:4 2:9 3:14 4:16 5:3 6:1 7:1 8:4 9:4 10:2 11:1 12:2 13:2 14:5 15:2 17:5 18:3 19:1 20:3 21:2 22:3 23:5 25:2 #
-0.10000000000000000555111512312578 1:1 2:3 3:7 4:2 5:6 6:1 8:3 9:1 10:1 12:1 13:2 14:4 16:1 17:2 18:2 19:1 20:2 21:1 24:4 25:1 #
0.10000000000000000555111512312578 2:4 3:8 4:5 5:1 6:1 8:2 9:1 13:2 17:3 18:1 19:1 20:2 21:2 23:3 24:1 25:1 #
-0.053261436376350168586668587522581 1:1 2:5 3:13 4:10 5:5 6:1 7:1 8:1 9:1 12:1 14:1 15:2 16:1 17:4 18:1 19:2 21:3 22:1 23:3 24:1 25:1 #
0.10000000000000000555111512312578 1:4 2:7 3:6 4:11 5:4 6:1 7:1 8:4 9:1 10:2 11:3 12:1 13:1 14:8 17:2 18:1 19:2 20:2 21:1 22:1 24:2 25:2 #
0.10000000000000000555111512312578 1:7 2:10 3:19 4:13 5:2 6:2 8:4 9:4 10:1 11:5 12:5 13:2 14:5 15:2 16:6 17:7 18:2 19:1 20:4 22:1 23:11 25:1 #
-0.10000000000000000555111512312578 1:3 2:3 3:9 4:6 5:4 7:1 8:1 10:1 11:1 14:4 15:1 17:1 19:1 20:2 21:1 25:2 #
0.10000000000000000555111512312578 1:13 2:5 3:11 4:17 5:4 6:1 7:2 8:5 9:3 10:1 11:5 12:1 13:4 14:10 15:1 16:5 17:2 18:3 20:7 21:2 22:2 23:4 25:1 #
0.10000000000000000555111512312578 1:3 2:7 3:14 4:15 5:4 6:1 7:2 8:8 9:2 10:1 11:7 12:1 13:2 14:2 15:4 16:3 17:4 18:1 19:1 20:2 21:3 22:2 23:8 25:2 #
0.10000000000000000555111512312578 1:1 2:4 3:3 4:6 5:2 8:2 14:6 15:1 17:3 19:1 21:1 24:1 25:2 #
0.10000000000000000555111512312578 1:2 3:3 4:7 5:2 8:2 11:1 17:2 18:2 19:1 21:2 22:1 #
0.10000000000000000555111512312578 1:1 2:5 3:19 4:9 5:2 6:3 7:1 8:6 9:7 10:2 11:2 12:1 14:3 17:2 18:2 19:2 21:2 22:2 23:2 24:1 #
-0.10000000000000000555111512312578 1:4 2:6 3:8 4:6 5:3 6:1 8:4 11:2 14:4 15:1 16:3 17:1 18:2 19:1 20:1 22:1 #
-0.10000000000000000555111512312578 1:5 2:3 3:12 4:11 5:4 6:1 7:2 8:7 9:2 11:1 13:1 14:3 15:1 16:1 17:6 18:2 19:1 21:3 23:2 25:3 #
0.10000000000000000555111512312578 1:3 2:5 3:7 4:11 5:4 6:3 8:2 9:1 10:3 11:1 12:1 14:1 15:1 16:1 17:6 18:1 23:2 24:2 25:3 #
0.10000000000000000555111512312578 1:5 2:4 3:14 4:11 5:4 6:3 8:5 9:3 10:2 11:1 14:2 15:2 16:6 17:4 18:1 19:2 21:1 22:2 23:5 24:3 25:2 #
-0.10000000000000000555111512312578 1:2 2:5 3:5 4:11 5:1 6:1 8:2 10:4 12:1 13:1 14:6 15:1 16:3 17:3 19:2 20:1 21:3 22:4 23:1 24:6 25:1 #
-0.10000000000000000555111512312578 1:1 2:1 3:4 4:2 5:2 6:1 8:2 12:2 14:1 16:3 17:2 21:1 23:1 25:1 #
0.10000000000000000555111512312578 2:1 3:5 4:4 5:1 8:5 9:2 11:3 17:2 18:1 19:1 21:1 22:1 24:1 #
-0.10000000000000000555111512312578 1:5 2:10 3:15 4:8 5:6 7:2 8:5 9:3 10:1 11:1 12:2 14:3 15:1 16:1 17:1 18:2 19:1 21:1 22:1 23:1 25:2 #
0.10000000000000000555111512312578 1:6 2:2 3:9 4:12 5:3 6:1 7:1 8:7 9:2 11:3 12:2 13:1 14:7 15:2 16:1 17:5 18:1 21:1 22:2 23:5 25:1 #
-0.10000000000000000555111512312578 1:1 2:4 3:11 4:6 5:3 8:6 9:2 10:2 11:2 12:3 14:3 15:1 17:1 19:2 21:1 22:2 #
-0.10000000000000000555111512312578 2:3 3:6 4:8 6:3 8:4 9:3 11:2 13:1 14:2 15:2 16:1 17:4 21:1 22:1 23:1 #
-0.10000000000000000555111512312578 1:3 2:4 3:15 4:11 5:4 8:5 9:5 11:2 12:2 14:4 15:1 16:2 17:4 18:3 21:1 23:1 25:1 #
0.10000000000000000555111512312578 1:6 2:3 3:9 4:9 5:1 9:2 11:3 12:2 13:2 14:5 16:2 17:1 18:2 22:1 24:2 #
0.10000000000000000555111512312578 2:2 3:3 4:8 5:1 8:2 12:1 14:2 16:3 17:1 18:1 19:1 21:1 24:1 #
-0.10000000000000000555111512312578 1:6 2:3 3:9 4:8 5:2 6:1 8:5 11:1 12:2 13:1 14:1 16:1 17:4 18:5 19:2 21:3 22:2 23:4 25:5 #
-0.10000000000000000555111512312578 1:4 2:3 3:6 4:11 6:3 8:8 9:5 11:3 12:3 14:4 15:1 17:1 18:2 21:1 22:1 23:6 25:1 #
0.10000000000000000555111512312578 1:5 2:10 3:17 4:12 5:5 6:3 7:5 8:3 9:4 10:1 12:1 14:9 17:4 18:3 19:3 20:1 21:2 23:2 24:5 25:2 #
0.10000000000000000555111512312578 1:6 2:8 3:13 4:9 5:5 6:1 8:6 9:3 11:1 12:2 13:2 14:2 15:2 17:3 18:2 22:2 23:3 25:1 #
0.10000000000000000555111512312578 2:11 3:14 4:6 5:2 7:1 8:6 9:4 10:1 13:1 14:1 15:1 16:1 17:1 18:3 19:3 20:1 21:2 22:1 23:2 24:5 25:1 #
0.10000000000000000555111512312578 1:4 2:3 3:7 4:7 5:4 7:1 8:2 9:5 11:2 14:1 15:1 17:3 18:1 19:1 21:1 22:2 23:1 24:3 25:1 #
-0.10000000000000000555111512312578 1:1 2:4 3:3 4:11 5:1 7:1 8:6 9:2 10:1 12:1 14:2 15:1 16:2 17:1 18:2 21:2 #
-0.10000000000000000555111512312578 1:1 2:8 3:10 4:6 8:2 9:3 11:1 12:1 13:1 14:5 15:1 16:1 17:1 19:1 21:4 23:2 24:2 #
0.10000000000000000555111512312578 2:4 3:5 4:9 5:2 6:2 8:2 9:1 10:2 14:5 16:1 17:1 18:1 23:1 24:5 25:1 #
-0.10000000000000000555111512312578 1:3 2:3 3:4 4:4 5:4 6:1 8:1 12:1 13:1 14:1 15:1 21:1 23:1 24:1 25:4 #
0.10000000000000000555111512312578 1:1 2:3 3:14 4:11 5:4 6:1 7:1 9:2 10:4 11:1 13:1 16:1 17:1 18:1 19:3 20:1 21:4 23:1 24:4 #
0.10000000000000000555111512312578 2:6 3:11 4:9 5:3 6:1 8:1 9:1 11:1 14:4 15:1 16:1 17:1 18:1 19:1 21:2 23:1 24:7 #
-0.10000000000000000555111512312578 1:5 2:3 3:10 4:11 5:2 6:3 7:1 8:4 9:2 10:1 11:2 12:3 13:2 14:5 16:1 17:1 18:1 19:2 20:1 21:4 23:6 25:1 #
-0.10000000000000000555111512312578 1:2 2:3 3:4 4:6 5:2 6:3 7:2 8:2 11:1 12:1 13:2 14:5 16:1 18:2 20:1 21:2 24:2 25:1 #
-0.10000000000000000555111512312578 1:3 2:2 3:7 4:7 5:5 7:1 8:1 12:3 14:1 16:1 17:1 18:1 21:1 23:3 25:1 #
-0.10000000000000000555111512312578 1:1 2:4 3:4 4:3 7:1 8:2 10:1 12:1 14:2 15:1 16:1 23:2 24:1 25:2 #
0.10000000000000000555111512312578 1:5 2:3 3:9 4:9 5:2 6:2 7:1 8:7 9:1 12:2 13:1 14:4 16:3 17:3 18:3 21:2 23:3 25:2 #
0.10000000000000000555111512312578 2:1 3:5 4:4 6:1 8:4 9:2 13:1 14:4 15:1 17:5 18:1 21:1 23:4 25:1 #
0.10000000000000000555111512312578 1:6 2:10 3:11 4:11 5:7 6:3 7:2 8:7 9:6 10:2 12:1 13:2 14:3 16:2 17:9 18:1 19:1 20:3 21:3 25:1 #
0.10000000000000000555111512312578 1:6 2:5 3:13 4:12 5:4 6:4 7:4 8:5 9:3 10:1 13:2 14:12 16:7 17:3 18:3 19:4 20:1 21:1 22:2 24:2 #
0.10000000000000000555111512312578 1:1 2:2 3:4 4:8 5:2 6:1 8:2 9:1 13:1 14:1 16:2 17:1 18:1 21:1 23:1 24:4 #
-0.10000000000000000555111512312578 1:2 2:11 3:9 4:8 5:4 6:1 7:1 8:2 9:1 10:1 12:1 14:5 15:1 16:2 17:6 18:2 19:1 20:3 21:2 24:6 #
0.10000000000000000555111512312578 1:2 2:6 3:7 4:16 5:4 6:1 7:2 8:3 10:2 11:1 14:2 15:2 17:3 18:1 19:1 20:2 21:2 22:1 23:1 24:8 #
0.10000000000000000555111512312578 1:3 2:2 3:10 4:12 5:2 6:2 7:1 8:3 11:1 14:2 15:2 16:1 17:3 18:3 19:1 23:2 24:1 #
0.017782400087609340211258768249536 1:1 2:5 3:4 4:8 6:1 8:1 12:1 13:3 14:2 16:1 17:1 19:1 21:2 23:3 25:1 #
-0.10000000000000000555111512312578 1:1 2:4 3:4 4:2 5:1 6:1 8:5 9:1 13:1 14:2 15:1 16:1 17:3 18:2 19:1 21:2 22:1 23:1 24:2 #
-0.10000000000000000555111512312578 1:3 2:3 3:5 4:5 5:6 6:2 8:3 18:2 19:1 21:1 25:3 #
0.10000000000000000555111512312578 1:3 2:9 3:20 4:17 5:5 6:3 7:1 8:4 9:3 10:3 11:1 13:1 14:7 15:1 16:5 17:8 18:4 19:1 20:2 21:3 23:1 24:4 #
0.10000000000000000555111512312578 2:5 3:11 4:6 8:3 9:2 10:2 11:1 14:3 15:2 16:1 17:1 18:1 23:4 24:2 25:1 #
0.10000000000000000555111512312578 1:3 2:2 3:14 4:8 5:7 7:2 9:3 12:2 14:2 16:2 17:3 18:2 19:1 20:3 21:1 22:2 24:2 25:1 #
0.10000000000000000555111512312578 1:10 2:7 3:12 4:11 5:5 6:3 7:1 8:10 9:2 10:1 11:3 16:4 18:3 19:2 20:1 21:1 22:1 23:2 #
0.10000000000000000555111512312578 1:2 2:3 3:7 4:6 8:4 9:4 10:2 11:3 12:1 13:1 19:1 20:2 21:1 22:1 23:1 #
0.10000000000000000555111512312578 3:5 4:9 5:5 6:1 8:2 9:1 11:1 13:3 14:1 16:1 17:1 21:2 22:1 23:1 24:1 #
-0.10000000000000000555111512312578 1:8 2:3 3:5 4:7 5:5 6:1 8:2 11:1 12:2 13:2 14:2 17:2 18:1 19:3 22:1 #
-0.10000000000000000555111512312578 1:4 2:5 3:10 4:16 5:1 6:1 7:2 8:2 9:2 10:2 12:3 14:1 15:1 17:3 18:1 19:1 20:1 21:1 23:1 25:1 #
-0.10000000000000000555111512312578 2:5 3:8 4:8 5:3 6:1 7:1 8:3 9:2 10:1 11:1 14:1 15:1 18:1 19:2 21:2 22:1 23:1 24:1 25:1 #
-0.10000000000000000555111512312578 2:3 3:11 4:9 6:2 7:1 8:4 9:4 11:3 14:4 15:1 16:2 17:1 18:1 19:1 21:3 22:1 23:5 #
-0.10000000000000000555111512312578 1:2 2:2 3:7 4:4 5:2 6:2 8:7 9:4 11:1 13:1 14:1 15:1 17:1 18:2 19:1 22:1 #
-0.10000000000000000555111512312578 1:3 2:3 3:6 4:10 5:4 6:1 7:2 8:1 9:1 10:1 12:1 13:1 18:2 19:1 21:1 #
-0.10000000000000000555111512312578 1:2 2:5 3:11 4:14 7:1 8:6 9:2 10:1 11:2 14:4 15:1 16:2 17:3 18:3 19:2 20:2 21:2 22:2 23:1 24:4 #
-0.10000000000000000555111512312578 2:2 3:6 4:9 5:3 6:5 7:2 8:2 9:1 11:1 14:4 16:1 17:2 19:2 21:1 24:7 25:1 #
0.10000000000000000555111512312578 1:2 2:6 3:8 4:9 5:2 9:1 11:1 13:1 14:4 15:1 17:3 18:1 19:2 20:1 21:2 22:2 23:2 24:3 #
-0.10000000000000000555111512312578 1:1 2:6 3:10 4:7 5:6 6:2 8:4 10:2 12:1 13:1 14:5 15:2 16:4 17:3 18:3 19:1 22:1 24:6 25:1 #
0.10000000000000000555111512312578 2:4 3:7 4:6 5:3 6:1 8:1 9:2 15:1 16:3 17:2 18:1 19:1 21:2 22:2 23:1 24:1 25:2 #
0.10000000000000000555111512312578 1:5 2:4 3:4 4:8 5:1 7:1 8:6 9:1 10:1 13:2 14:1 18:3 22:2 23:1 #
0.10000000000000000555111512312578 1:2 2:6 3:7 4:6 5:3 7:1 8:5 9:2 11:2 12:3 13:2 14:6 16:4 17:1 19:4 21:3 22:2 24:2 25:2 #
-0.10000000000000000555111512312578 1:5 2:12 3:16 4:14 5:14 6:9 8:10 9:2 10:2 11:8 12:1 13:1 14:7 15:2 16:4 17:5 18:1 19:4 20:4 21:2 22:1 24:8 25:1 #
-0.10000000000000000555111512312578 1:9 2:14 3:12 4:20 5:4 6:7 7:3 8:13 9:3 10:3 11:1 12:1 13:2 14:9 15:3 16:6 17:4 18:2 19:1 20:3 21:1 22:2 23:2 24:9 #
-0.10000000000000000555111512312578 1:1 2:1 3:4 4:5 5:5 9:1 12:1 13:3 14:1 18:1 21:3 #
0.10000000000000000555111512312578 1:3 2:1 3:11 4:6 5:2 8:3 9:1 13:1 14:4 17:3 18:2 20:1 21:1 22:3 25:1 #
-0.10000000000000000555111512312578 1:3 2:6 3:9 4:6 5:6 6:1 7:2 8:4 9:1 11:2 14:2 15:1 17:1 18:2 19:1 21:1 22:1 23:1 #
-0.10000000000000000555111512312578 1:4 2:2 3:3 4:7 6:1 8:3 9:1 11:2 13:4 14:3 15:1 16:2 17:1 18:1 19:4 21:5 23:4 #
-0.10000000000000000555111512312578 1:1 2:4 3:6 4:5 5:4 8:4 9:1 10:2 11:1 12:1 14:3 15:1 16:2 17:3 18:2 19:1 21:2 23:1 24:2 25:3 #
-0.10000000000000000555111512312578 1:1 2:9 3:11 4:10 5:3 6:2 7:3 8:9 9:2 10:2 11:4 12:1 13:1 14:6 15:1 16:1 17:6 18:2 19:1 20:1 21:3 22:3 23:1 24:8 #
-0.10000000000000000555111512312578 1:2 2:8 3:13 4:6 5:4 6:2 8:3 9:4 10:1 12:1 13:1 14:2 15:1 17:5 19:4 21:1 22:1 #
-0.10000000000000000555111512312578 1:8 2:7 3:16 4:13 5:3 6:3 7:3 8:10 9:2 10:1 11:2 12:1 13:1 14:5 16:3 17:3 18:3 19:2 21:5 22:2 23:3 #
-0.035450183606321683527085042442195 2:2 3:3 4:2 5:1 8:1 9:1 15:1 17:1 19:1 21:1 23:1 #
-0.10000000000000000555111512312578 1:4 2:1 3:4 4:7 6:2 8:2 12:1 14:4 15:1 16:2 17:1 18:2 19:1 22:1 23:3 #
-0.10000000000000000555111512312578 1:3 2:3 3:17 4:18 5:7 7:2 8:6 9:3 10:3 11:2 12:1 14:11 15:2 16:3 17:6 18:2 19:2 21:4 22:1 24:9 #
0.10000000000000000555111512312578 1:9 2:5 3:18 4:14 5:3 6:1 7:4 8:3 9:1 10:2 12:1 14:5 16:3 17:5 18:1 20:2 21:3 23:4 24:6 25:1 #
-0.10000000000000000555111512312578 1:3 2:3 3:13 4:10 5:5 6:2 7:5 8:3 9:1 11:2 12:1 14:6 15:1 16:5 17:4 18:4 19:1 21:2 24:6 #
0.056028142869756658583924036065582 2:3 3:5 4:12 6:1 10:1 13:1 14:4 17:2 20:2 21:3 23:1 24:1 25:2 #
0.10000000000000000555111512312578 1:5 2:4 3:9 4:8 5:1 7:2 8:6 9:2 10:3 11:3 12:3 13:3 14:4 16:3 17:1 18:1 19:3 20:3 21:1 23:2 24:1 #
-0.10000000000000000555111512312578 2:6 3:6 4:4 5:6 6:3 8:5 9:1 11:1 12:3 14:6 15:1 16:2 18:2 19:2 22:2 23:2 24:2 25:3 #
-0.10000000000000000555111512312578 1:1 2:3 3:7 4:9 5:2 6:3 8:3 9:2 11:2 12:2 13:2 14:3 15:1 16:3 17:1 18:1 19:2 21:2 22:2 23:1 24:11 #
-0.10000000000000000555111512312578 1:1 2:4 3:9 4:13 5:6 6:3 7:2 8:2 9:1 12:1 14:4 15:1 16:1 17:4 19:4 21:1 23:1 24:8 #
-0.0059717141226861558678251640230883 1:9 2:8 3:15 4:10 5:6 6:2 7:4 8:7 9:3 10:2 11:1 12:1 13:1 14:8 15:1 16:2 17:4 18:3 19:1 20:1 21:3 23:1 25:3 #
-0.10000000000000000555111512312578 1:3 2:7 3:10 4:23 5:2 7:3 8:3 9:5 10:3 12:1 13:1 14:2 15:3 16:3 17:4 19:1 20:1 21:5 22:1 23:3 24:5 25:1 #
-0.10000000000000000555111512312578 1:1 2:3 3:14 4:10 5:3 6:1 8:3 9:2 10:3 13:2 14:5 15:1 17:2 18:1 19:2 21:3 24:5 25:1 #
-0.10000000000000000555111512312578 1:3 2:3 3:9 4:6 5:4 6:1 7:1 8:2 11:2 14:1 15:1 16:1 17:1 18:3 #
0.10000000000000000555111512312578 1:6 2:7 3:13 4:10 7:2 8:9 9:1 10:2 11:1 12:1 13:1 14:6 16:2 17:2 18:1 19:2 21:4 23:3 24:3 #
0.10000000000000000555111512312578 1:1 2:4 3:1 4:6 6:1 7:1 8:3 13:1 14:1 16:1 21:2 22:3 25:2 #
-0.10000000000000000555111512312578 1:18 2:15 3:19 4:29 5:9 6:4 7:9 8:12 9:8 10:1 11:9 12:8 13:7 14:11 15:1 16:7 17:4 18:5 19:7 20:2 21:5 22:4 24:2 25:1 #
0.10000000000000000555111512312578 2:7 3:13 4:13 5:7 6:1 7:3 8:4 9:1 10:2 13:1 14:3 15:1 16:3 17:2 18:6 19:2 21:4 22:3 24:12 #
0.10000000000000000555111512312578 2:5 3:9 4:6 7:1 8:1 11:1 14:2 15:1 16:3 19:3 20:2 21:2 22:1 23:2 24:1 #
-0.045889057242628261690242652548477 1:3 2:4 3:15 4:15 5:3 6:2 7:1 8:8 9:2 11:1 13:3 14:3 15:3 17:3 18:4 19:4 21:6 22:3 23:7 24:1 25:1 #
-0.10000000000000000555111512312578 1:2 2:2 3:3 4:4 6:1 7:1 8:3 10:1 11:1 16:1 17:1 20:1 21:1 #
0.10000000000000000555111512312578 1:1 2:4 3:5 4:9 5:3 6:3 8:3 9:1 10:1 11:2 12:1 14:1 21:1 22:2 23:1 25:2 #
0.10000000000000000555111512312578 1:1 2:4 3:18 4:11 5:2 6:3 7:1 8:6 9:3 10:4 11:1 13:2 14:3 15:2 16:4 17:1 18:1 19:2 20:1 21:1 23:5 24:3 25:4 #
0.10000000000000000555111512312578 2:1 3:3 4:3 8:6 9:1 15:1 16:3 17:2 22:1 23:1 #
-0.10000000000000000555111512312578 1:4 2:5 3:7 4:8 5:1 6:1 8:2 9:4 10:1 11:4 12:1 13:5 14:4 15:1 16:2 18:2 19:1 21:4 #
-0.10000000000000000555111512312578 1:4 2:4 3:8 4:6 5:7 6:1 8:2 10:2 12:1 16:1 17:2 18:2 19:1 21:1 25:2 #
0.10000000000000000555111512312578 1:5 2:2 3:3 4:13 5:2 6:3 8:3 12:1 14:1 16:3 17:1 18:1 20:1 22:1 25:1 #
0.10000000000000000555111512312578 1:6 2:11 3:18 4:12 5:1 6:2 7:1 8:11 9:2 10:1 11:2 12:1 13:3 14:6 15:1 16:3 17:3 18:3 19:4 20:3 21:4 22:2 23:9 24:2 25:2 #
0.10000000000000000555111512312578 2:4 3:4 4:5 5:2 8:1 13:1 14:1 18:1 21:1 22:2 23:1 25:1 #
-0.10000000000000000555111512312578 1:1 2:1 3:3 4:2 6:2 8:2 13:1 14:1 15:1 18:1 19:1 23:2 25:1 #
0.10000000000000000555111512312578 1:2 2:2 3:12 4:10 5:1 6:2 8:5 9:2 11:3 12:3 13:1 14:8 16:4 18:4 19:1 20:2 21:3 22:1 23:3 #
0.10000000000000000555111512312578 2:5 3:14 4:12 5:10 6:5 7:1 8:2 9:3 10:1 11:2 12:2 14:3 16:2 17:2 18:2 19:1 20:2 21:1 22:1 24:3 25:1 #
0.10000000000000000555111512312578 1:1 3:6 4:12 5:2 6:4 7:1 8:5 9:5 10:1 11:2 13:1 17:1 18:1 21:1 22:1 23:2 24:1 25:1 #
0.10000000000000000555111512312578 1:3 2:7 3:12 4:9 5:4 7:2 8:3 9:1 10:1 14:4 15:1 16:2 17:4 18:5 19:1 21:1 22:1 23:1 25:1 #
-0.10000000000000000555111512312578 1:7 2:8 3:11 4:18 5:6 6:6 7:3 8:6 9:1 10:1 11:1 12:3 13:1 14:4 15:1 16:1 17:2 18:4 19:5 20:1 21:3 22:1 23:1 #
-0.10000000000000000555111512312578 1:5 2:3 3:6 4:8 5:3 8:2 9:1 10:1 11:1 13:3 14:2 15:1 16:4 17:2 18:1 19:2 20:1 21:5 23:1 25:1 #
-0.10000000000000000555111512312578 2:1 3:10 4:5 6:1 8:3 9:6 11:3 13:1 14:1 15:1 16:4 17:5 19:1 20:2 21:3 22:1 23:3 25:1 #
-0.10000000000000000555111512312578 1:7 2:3 3:8 4:7 5:3 6:2 7:1 8:2 9:1 11:1 12:3 16:2 17:3 18:2 19:1 21:1 22:2 #
-0.10000000000000000555111512312578 1:3 2:2 3:7 4:6 5:3 7:1 8:3 10:3 12:3 13:1 14:4 16:2 17:1 18:2 19:1 21:1 22:2 25:1 #
-0.10000000000000000555111512312578 1:5 2:5 3:11 4:6 5:3 6:2 7:1 8:4 9:1 12:1 13:1 14:3 16:3 17:2 18:1 19:3 20:2 21:2 22:1 23:2 #
0.10000000000000000555111512312578 2:3 3:7 4:8 5:3 6:3 7:2 8:5 9:3 10:2 11:1 12:2 14:7 16:5 17:3 18:1 19:1 20:4 22:4 24:5 #
-0.10000000000000000555111512312578 1:3 2:12 3:25 4:19 5:6 6:1 7:1 8:6 9:2 10:7 11:6 12:1 13:1 14:9 15:1 16:3 17:5 18:5 19:4 20:5 21:5 24:16 #
-0.10000000000000000555111512312578 1:3 2:2 3:3 4:4 5:2 6:1 8:7 9:1 11:1 13:2 14:1 17:1 20:2 21:3 23:3 #
-0.10000000000000000555111512312578 1:1 2:3 3:3 4:11 5:1 6:2 8:4 9:2 10:1 11:1 12:4 14:2 15:1 16:4 17:3 18:2 19:2 20:1 21:1 22:2 23:4 #
0.10000000000000000555111512312578 1:1 2:4 3:8 4:8 5:2 6:1 7:1 8:3 9:1 10:2 11:3 13:1 14:3 15:1 17:3 18:4 19:3 20:1 23:1 24:8 25:1 #
0.10000000000000000555111512312578 1:2 2:9 3:14 4:14 5:6 6:1 7:2 8:7 9:2 10:3 11:1 12:1 13:2 14:3 15:2 16:2 17:7 18:2 19:2 21:2 22:3 23:2 24:4 25:3 #
-0.10000000000000000555111512312578 1:1 2:4 3:16 4:5 5:1 8:1 9:4 11:2 14:5 16:1 18:1 19:2 20:1 21:3 22:2 23:2 24:1 #
0.10000000000000000555111512312578 1:7 2:6 3:18 4:12 5:6 6:1 7:3 8:9 9:3 10:2 11:2 13:2 14:3 16:3 18:4 19:4 20:1 21:1 23:2 24:2 25:1 #
0.10000000000000000555111512312578 1:1 2:4 3:5 4:10 5:4 7:1 8:3 9:1 13:1 14:2 17:1 18:2 21:2 #
-0.10000000000000000555111512312578 1:1 2:5 3:9 4:8 5:2 7:1 8:3 9:1 10:3 12:1 14:3 15:1 16:1 17:4 18:2 19:2 20:1 21:1 22:1 24:4 #
0.10000000000000000555111512312578 2:2 3:2 4:7 8:1 9:1 14:1 15:1 16:1 22:1 23:1 #
0.10000000000000000555111512312578 1:2 2:5 3:8 4:6 5:3 8:2 9:2 11:1 12:1 13:1 14:1 16:1 17:2 18:1 19:1 21:1 22:1 23:3 24:2 25:1 #
-0.10000000000000000555111512312578 1:3 2:6 3:9 4:3 5:4 6:4 7:1 8:4 9:1 10:1 11:3 12:1 13:2 14:6 16:2 17:2 18:2 19:2 20:2 22:1 23:1 24:8 #
-0.10000000000000000555111512312578 1:8 2:2 3:8 4:8 5:3 6:2 7:2 8:5 9:1 11:2 12:5 13:3 14:7 16:2 17:1 18:3 19:1 20:1 22:1 23:2 #
0.0062725500096337816202662907016929 1:9 2:2 3:22 4:16 5:7 6:1 7:3 8:6 9:1 11:2 12:1 13:3 14:7 16:3 17:3 18:1 19:2 20:2 23:1 24:7 25:1 #
0.10000000000000000555111512312578 1:3 2:6 3:11 4:16 5:5 6:4 7:1 8:3 9:1 10:2 11:1 12:2 14:5 15:1 16:2 17:2 18:2 19:1 20:1 21:2 24:2 25:2 #
0.10000000000000000555111512312578 1:1 3:3 4:4 5:1 8:2 16:2 19:1 21:1 23:3 25:2 #
0.10000000000000000555111512312578 2:3 3:3 4:4 5:1 6:2 8:1 9:1 16:2 17:1 18:2 21:2 22:1 24:1 25:1 #
-0.10000000000000000555111512312578 1:2 2:4 3:8 4:5 5:2 6:1 7:1 8:2 9:3 12:1 14:2 15:1 16:4 17:1 18:1 19:1 21:1 22:2 23:1 24:2 #
-0.10000000000000000555111512312578 1:1 2:1 3:6 4:5 6:2 8:1 12:1 13:1 14:3 15:1 16:1 17:3 18:1 19:2 21:2 22:2 23:2 24:2 25:1 #
-0.10000000000000000555111512312578 1:2 2:3 3:6 4:3 7:1 9:1 12:1 13:1 14:3 16:1 17:1 19:2 21:3 23:3 24:2 25:1 #
0.10000000000000000555111512312578 1:1 3:3 4:8 5:2 7:1 8:2 16:2 18:1 20:1 21:1 23:1 25:1 #
0.10000000000000000555111512312578 1:3 2:4 3:6 4:4 6:1 7:1 8:5 14:2 16:1 17:3 18:1 19:2 20:1 22:2 23:3 25:1 #
-0.026138850004147062833226300426759 1:3 2:5 3:13 4:9 5:5 7:1 8:5 9:2 10:6 11:2 12:2 13:1 14:4 15:1 16:1 17:2 18:2 19:2 20:1 21:1 22:2 24:6 #
-0.10000000000000000555111512312578 2:5 3:7 4:8 5:5 6:3 7:2 8:2 10:4 11:2 13:1 14:6 15:1 16:2 17:4 18:2 19:1 20:3 21:2 24:5 25:2 #
0.10000000000000000555111512312578 2:2 3:3 4:4 5:3 8:2 10:1 14:1 19:1 20:1 22:1 25:3 #
-0.10000000000000000555111512312578 1:3 2:3 3:12 4:8 5:3 7:3 8:3 9:5 10:1 13:1 14:3 16:1 17:2 18:1 19:4 21:2 24:2 #
0.10000000000000000555111512312578 1:4 2:4 3:12 4:11 5:3 6:1 8:7 9:1 10:2 11:2 13:2 14:3 15:1 16:3 17:6 18:4 19:1 21:4 22:2 23:4 24:1 25:1 #
-0.10000000000000000555111512312578 1:6 2:4 3:14 4:10 5:3 7:1 8:5 9:6 10:2 12:3 14:4 16:1 17:4 19:1 20:1 #
0.10000000000000000555111512312578 1:3 2:6 3:8 4:8 5:5 6:1 7:1 8:7 9:1 10:1 13:1 15:1 16:1 17:3 18:2 22:2 23:1 25:3 #
-0.10000000000000000555111512312578 1:12 2:9 3:19 4:27 5:8 6:2 7:1 8:9 9:3 10:1 11:1 12:4 14:7 15:3 16:2 17:4 18:2 19:1 20:1 21:3 22:2 23:2 25:4 #
0.10000000000000000555111512312578 1:5 2:6 3:14 4:11 5:4 6:3 7:1 8:5 9:2 10:2 11:3 12:2 14:3 16:4 17:2 18:1 20:2 22:1 23:3 24:4 #
0.10000000000000000555111512312578 1:8 2:8 3:15 4:13 5:5 6:2 7:2 8:9 9:5 10:1 11:1 12:2 13:1 14:2 15:1 16:5 17:2 18:1 19:2 22:1 23:2 24:3 25:1 #
0.10000000000000000555111512312578 1:1 2:3 3:12 4:11 5:4 7:1 8:3 10:1 11:1 12:1 13:1 14:3 18:2 19:3 20:1 21:4 22:1 24:2 #
-0.10000000000000000555111512312578 1:1 3:6 4:3 5:2 8:2 9:3 12:1 14:5 15:1 16:3 17:2 18:1 19:2 23:1 #
0.10000000000000000555111512312578 2:3 3:5 4:7 5:2 8:3 9:1 10:1 12:1 13:2 14:2 15:1 16:1 17:1 18:1 #
-0.10000000000000000555111512312578 1:3 2:2 3:2 4:3 5:3 8:2 12:2 13:1 17:1 19:1 21:1 22:1 25:2 #
0.10000000000000000555111512312578 1:5 2:6 3:12 4:10 5:1 6:3 7:2 8:4 9:2 11:3 12:1 13:2 14:7 16:2 17:2 19:2 20:2 21:1 23:5 #
-0.10000000000000000555111512312578 1:2 2:2 3:5 4:7 5:5 6:2 8:2 9:3 10:2 11:1 13:1 14:4 15:1 16:3 17:3 19:2 20:1 21:1 22:1 24:5 #
-0.10000000000000000555111512312578 2:4 3:1 4:4 5:1 6:1 8:1 10:1 14:1 15:1 16:1 24:4 25:2 #
0.10000000000000000555111512312578 2:4 3:6 4:5 7:1 8:3 9:2 11:1 13:2 15:1 17:1 18:1 19:4 21:1 22:1 23:7 24:3 #
-0.10000000000000000555111512312578 1:5 2:5 3:9 4:7 5:9 6:1 7:3 8:7 9:4 11:2 12:2 13:1 14:2 15:1 16:2 18:3 19:1 20:1 21:1 22:1 23:1 25:1 #
-0.10000000000000000555111512312578 1:2 2:2 3:2 4:2 8:1 9:1 13:2 14:2 16:1 18:1 21:2 23:2 #
0.10000000000000000555111512312578 1:1 2:2 3:7 4:12 5:4 6:1 8:3 10:3 11:2 12:2 14:6 16:1 17:1 18:1 23:2 24:3 25:1 #
-0.10000000000000000555111512312578 1:5 2:5 3:6 4:14 6:1 8:2 9:1 11:1 12:3 14:5 15:1 17:3 19:1 20:1 21:2 22:1 23:4 25:2 #
-0.10000000000000000555111512312578 1:1 2:5 3:5 4:10 6:2 8:4 9:1 12:2 15:1 16:1 18:2 21:2 23:6 #
-0.10000000000000000555111512312578 1:1 2:3 3:14 4:9 5:6 6:1 8:2 9:2 10:2 11:1 12:2 13:1 15:1 16:2 18:2 20:5 21:1 22:1 #
0.10000000000000000555111512312578 2:1 3:4 4:12 5:3 8:3 9:2 14:1 15:1 16:3 17:2 18:1 19:1 20:1 21:2 23:1 24:2 25:3 #
0.10000000000000000555111512312578 1:2 2:4 3:3 4:7 5:1 6:2 7:1 8:4 9:1 13:1 16:2 17:2 19:1 #
-0.10000000000000000555111512312578 1:1 2:2 3:2 4:4 5:1 6:1 7:1 10:1 24:1 #
-0.10000000000000000555111512312578 1:1 2:1 3:6 4:6 6:1 7:1 8:5 9:2 13:1 14:3 15:1 18:2 20:2 21:1 22:2 23:3 25:1 #
-0.10000000000000000555111512312578 3:2 4:2 5:1 6:1 7:1 9:1 13:1 14:1 21:1 25:1 #
-0.10000000000000000555111512312578 1:1 2:3 3:10 4:10 5:4 6:2 7:2 8:5 9:2 10:2 12:1 13:1 14:3 15:2 16:4 17:5 18:3 19:2 20:3 21:1 23:1 24:6 25:1 #
0.085104662301977884730774803756503 2:6 3:7 4:6 5:2 7:2 8:2 13:1 14:2 17:2 18:4 24:2 #
-0.098360017256556533937761344077444 1:1 2:6 3:9 4:4 5:2 6:2 8:1 13:1 14:3 15:2 16:1 17:4 21:2 22:1 23:2 25:2 #
0.05080037111636748203835622916813 2:6 3:8 4:7 8:1 9:2 13:3 14:2 17:1 20:1 21:2 23:7 24:1 #
0.10000000000000000555111512312578 2:5 3:12 4:8 5:3 6:1 8:4 13:1 14:5 15:2 17:1 18:2 19:2 20:1 21:2 22:1 23:2 24:7 25:1 #
0.0074347515642493033904969479408464 1:2 2:3 3:3 4:7 7:2 8:3 12:2 13:6 14:2 15:1 16:4 17:2 18:1 19:1 20:2 22:2 23:3 #
0.10000000000000000555111512312578 1:4 2:7 3:10 4:12 5:3 8:3 9:3 10:2 12:2 13:1 14:5 16:1 17:2 18:1 19:2 21:1 24:2 #
-0.014328318057103550664521662838524 1:3 2:10 3:9 4:5 5:4 8:1 9:2 10:1 11:1 12:1 13:2 14:2 15:1 16:2 17:2 18:2 19:3 21:4 22:3 #
-0.10000000000000000555111512312578 1:1 2:3 3:10 4:12 6:6 8:4 9:5 11:2 13:6 14:5 15:2 16:7 17:3 18:3 19:1 20:4 21:8 22:1 23:3 #
-0.013769976596564870163774685352109 1:4 2:3 3:10 4:6 5:4 6:3 7:2 8:2 9:3 10:3 12:1 13:1 14:6 17:3 18:1 19:1 20:1 21:1 22:2 24:5 25:2 #
