SVM-light Version V6.02
0 # kernel type
3 # kernel parameter -d 
1 # kernel parameter -g 
1 # kernel parameter -s 
1 # kernel parameter -r 
empty# kernel parameter -u 
25 # highest feature index 
482 # number of training documents 
251 # number of support vectors plus 1 
-0.74123454 # threshold b, each following line is a SV (starting with alpha*y)
0.10000000000000000555111512312578 2:3 3:5 4:9 5:2 6:2 8:4 9:3 13:1 14:3 15:1 16:2 17:3 19:2 20:1 21:3 23:1 24:1 #
-0.10000000000000000555111512312578 1:5 2:3 3:10 4:15 5:6 6:1 7:1 8:7 9:3 10:3 11:3 13:2 14:2 16:2 17:1 18:1 20:2 21:1 22:3 23:1 24:4 25:1 #
-0.10000000000000000555111512312578 2:4 3:2 4:5 5:1 6:1 7:1 8:2 14:5 16:2 17:1 18:1 20:1 22:1 24:4 #
-0.10000000000000000555111512312578 1:3 2:3 3:16 4:18 5:8 6:4 7:1 8:5 9:1 10:1 11:2 12:5 14:6 15:1 16:3 17:5 19:2 20:1 22:1 23:1 24:12 25:2 #
0.10000000000000000555111512312578 1:3 2:5 3:10 4:10 5:5 6:1 7:1 8:5 9:2 10:4 11:1 13:1 14:4 16:3 17:1 18:2 19:1 22:1 23:1 24:3 25:1 #
-0.10000000000000000555111512312578 1:1 2:1 3:2 4:3 5:1 8:2 9:1 12:1 18:1 #
-0.037685428559012412730311325503862 1:5 2:5 3:8 4:16 5:2 8:4 9:5 11:3 13:4 14:5 16:4 17:4 21:3 23:4 25:1 #
-0.10000000000000000555111512312578 1:6 2:5 3:7 4:10 5:1 7:1 8:5 10:2 11:1 12:4 14:4 15:1 16:1 18:1 19:1 21:2 23:2 24:1 #
-0.040023917875136039157268896815367 1:6 2:8 3:17 4:13 5:7 6:3 7:2 8:6 9:2 11:1 12:3 13:3 14:6 16:2 17:1 18:1 19:1 20:1 21:3 22:2 #
-0.10000000000000000555111512312578 2:1 3:6 4:4 5:4 7:1 8:1 9:1 13:1 16:1 17:1 18:2 21:1 25:1 #
0.10000000000000000555111512312578 1:1 2:3 3:5 4:7 5:1 12:1 14:1 17:1 18:2 19:1 21:1 23:3 24:1 #
-0.10000000000000000555111512312578 1:1 2:5 3:19 4:9 5:2 6:3 7:1 8:6 9:7 10:2 11:2 12:1 14:3 17:2 18:2 19:2 21:2 22:2 23:2 24:1 #
-0.10000000000000000555111512312578 2:3 3:6 4:6 6:1 8:2 9:5 11:1 12:1 13:2 14:1 15:1 16:2 17:1 19:2 20:2 21:3 23:5 25:1 #
0.10000000000000000555111512312578 1:12 2:5 3:11 4:35 5:7 6:1 7:2 8:8 9:1 11:3 12:1 13:1 14:7 16:2 17:4 18:1 20:2 21:2 22:2 23:2 24:1 25:1 #
0.10000000000000000555111512312578 1:1 2:3 3:6 4:9 5:2 6:2 7:1 8:2 10:1 11:1 14:3 16:2 17:1 20:1 21:1 22:1 23:1 25:1 #
0.10000000000000000555111512312578 2:5 3:22 4:26 5:14 6:4 7:1 8:10 9:6 10:7 11:1 12:2 14:10 16:4 17:3 18:3 19:4 20:3 22:2 23:2 24:11 25:1 #
-0.10000000000000000555111512312578 1:2 2:4 3:3 4:7 5:1 6:2 7:1 8:4 9:1 13:1 16:2 17:2 19:1 #
0.10000000000000000555111512312578 1:6 2:7 3:18 4:36 5:4 6:5 7:4 8:8 9:7 10:1 11:4 12:2 13:3 14:8 16:1 17:6 18:2 19:1 20:1 22:1 23:4 24:2 25:1 #
0.10000000000000000555111512312578 1:7 2:7 3:23 4:13 5:4 6:3 7:2 8:2 9:5 10:1 12:3 13:3 14:8 15:1 16:3 17:2 18:1 19:2 20:1 21:4 22:1 23:2 24:3 25:2 #
0.10000000000000000555111512312578 1:3 2:5 3:6 4:4 5:2 6:2 7:1 8:4 10:1 12:2 14:2 16:1 17:2 18:2 25:1 #
-0.10000000000000000555111512312578 1:3 2:7 3:12 4:9 5:4 7:2 8:3 9:1 10:1 14:4 15:1 16:2 17:4 18:5 19:1 21:1 22:1 23:1 25:1 #
0.10000000000000000555111512312578 2:1 4:7 5:2 6:3 7:1 8:4 11:1 16:3 17:1 18:1 21:1 22:1 25:1 #
0.10000000000000000555111512312578 1:3 2:3 3:9 4:8 5:2 7:2 9:2 11:5 12:3 14:6 16:4 17:1 18:1 21:7 22:1 23:1 #
-0.10000000000000000555111512312578 1:5 2:4 3:4 4:8 5:1 7:1 8:6 9:1 10:1 13:2 14:1 18:3 22:2 23:1 #
0.10000000000000000555111512312578 1:4 2:5 3:3 4:6 5:4 6:2 7:2 8:5 9:1 11:1 12:3 14:3 15:1 16:2 17:2 18:1 19:1 22:1 #
-0.10000000000000000555111512312578 1:1 2:1 3:9 4:13 5:5 6:2 7:2 8:9 9:3 14:3 16:5 17:2 18:1 21:2 22:1 25:3 #
0.10000000000000000555111512312578 1:3 2:10 3:21 4:16 5:10 6:4 7:3 8:7 9:3 10:3 11:5 12:2 13:2 14:8 16:1 17:6 18:2 19:4 20:1 21:4 22:3 23:3 24:6 25:2 #
-0.07542502473553580610854396581999 1:5 2:2 3:20 4:39 5:2 7:1 8:3 9:2 11:1 12:4 13:2 16:3 17:5 18:1 19:3 20:1 21:1 22:1 23:4 25:3 #
0.10000000000000000555111512312578 1:1 2:13 3:13 4:23 5:7 6:3 8:6 9:2 10:1 12:1 13:2 14:18 15:1 16:5 17:5 18:4 19:5 20:4 21:2 22:5 24:7 25:1 #
-0.10000000000000000555111512312578 1:4 2:5 3:13 4:6 5:1 8:3 9:5 10:3 12:2 13:1 14:5 16:1 17:3 18:1 20:1 21:1 23:1 24:1 #
-0.0033326864254039634261062019504607 1:7 2:6 3:18 4:12 5:6 6:1 7:3 8:9 9:3 10:2 11:2 13:2 14:3 16:3 18:4 19:4 20:1 21:1 23:2 24:2 25:1 #
0.0060103851466344893061943821521709 2:6 3:8 4:7 8:1 9:2 13:3 14:2 17:1 20:1 21:2 23:7 24:1 #
-0.084563410531771021627633899697685 1:5 2:6 3:13 4:21 5:8 6:5 7:1 8:6 9:1 10:3 11:3 12:3 14:3 16:2 17:1 18:2 20:1 21:1 22:1 23:2 24:3 25:2 #
-0.013410030764615998855049383564619 2:1 3:11 4:1 6:1 7:1 8:1 10:1 11:1 12:4 14:3 16:3 17:3 18:1 21:2 24:1 25:1 #
0.10000000000000000555111512312578 1:7 2:10 3:13 4:30 5:5 6:4 7:5 8:13 9:3 10:6 11:1 13:2 14:6 15:1 16:6 17:5 18:6 19:4 20:5 21:5 22:1 23:4 24:7 25:2 #
0.10000000000000000555111512312578 1:1 2:7 3:17 4:30 5:3 6:1 8:8 9:2 10:1 11:1 14:3 16:3 19:2 20:2 21:1 22:1 23:1 24:3 #
-0.10000000000000000555111512312578 1:3 2:9 3:19 4:17 5:11 6:3 8:6 9:3 10:1 11:1 13:1 14:6 16:1 17:4 18:1 19:3 20:3 21:5 22:2 23:1 24:1 25:3 #
-0.10000000000000000555111512312578 2:7 3:12 4:10 5:5 6:1 8:5 9:6 10:1 11:3 13:2 14:6 16:1 18:1 19:3 20:2 21:1 22:1 23:5 24:3 #
0.10000000000000000555111512312578 1:4 2:3 3:26 4:18 5:10 6:3 7:1 8:4 10:1 11:2 12:2 13:1 14:1 16:1 17:1 18:2 19:4 20:1 21:3 22:1 24:8 25:3 #
-0.10000000000000000555111512312578 1:10 2:11 3:20 4:23 5:1 6:1 7:1 8:6 9:2 12:3 13:4 14:7 15:1 16:3 17:7 18:6 19:1 20:2 21:2 22:2 23:7 25:1 #
-0.10000000000000000555111512312578 1:2 2:3 3:7 4:9 7:1 8:4 9:2 11:1 14:5 16:2 17:2 19:1 21:1 23:2 24:1 #
0.10000000000000000555111512312578 1:5 2:2 3:9 4:7 5:1 6:1 8:1 9:2 10:1 11:1 12:2 14:1 16:1 18:1 19:1 20:2 21:1 23:3 #
-0.10000000000000000555111512312578 1:4 2:10 3:13 4:17 5:3 6:2 7:1 8:10 9:2 10:3 11:1 13:5 14:8 15:1 16:7 17:2 18:2 19:1 21:4 23:2 24:5 #
-0.10000000000000000555111512312578 2:4 3:2 4:17 5:5 6:2 8:1 9:1 10:1 12:1 13:1 14:2 16:1 17:1 18:1 19:1 20:1 21:2 22:2 23:2 25:2 #
-0.10000000000000000555111512312578 1:4 2:4 3:12 4:11 5:3 6:1 8:7 9:1 10:2 11:2 13:2 14:3 15:1 16:3 17:6 18:4 19:1 21:4 22:2 23:4 24:1 25:1 #
0.10000000000000000555111512312578 2:1 3:4 4:3 9:1 11:1 14:1 16:2 17:3 25:1 #
0.10000000000000000555111512312578 1:6 2:4 3:12 4:11 5:2 6:3 8:3 9:4 11:4 12:2 13:2 14:5 17:2 18:1 19:1 20:2 21:4 22:2 23:4 25:1 #
-0.078474154652373950824539861059748 1:1 2:5 3:8 4:10 5:5 6:1 8:4 9:1 10:2 13:2 14:2 16:1 18:2 19:2 20:3 23:3 24:2 #
-0.10000000000000000555111512312578 2:3 3:7 4:6 5:6 6:3 8:1 10:1 11:1 12:1 13:1 14:2 15:1 16:2 17:2 18:1 21:1 24:4 25:1 #
0.10000000000000000555111512312578 3:2 4:5 5:3 8:4 12:1 14:2 16:1 18:2 22:2 #
0.10000000000000000555111512312578 1:7 2:4 3:7 4:5 5:3 6:1 8:6 9:2 11:3 12:1 13:1 14:5 16:1 17:4 18:2 19:3 20:1 22:2 #
0.10000000000000000555111512312578 1:2 2:9 3:9 4:9 5:7 6:4 8:2 9:3 10:1 11:4 14:6 17:3 18:3 20:3 21:1 23:1 24:5 25:1 #
-0.10000000000000000555111512312578 1:1 2:3 3:9 4:4 6:2 8:1 9:1 11:1 13:1 14:4 16:1 19:1 21:1 23:5 #
-0.10000000000000000555111512312578 2:4 3:5 4:9 5:2 6:2 8:2 9:1 10:2 14:5 16:1 17:1 18:1 23:1 24:5 25:1 #
-0.10000000000000000555111512312578 2:3 3:3 4:3 5:1 14:1 16:1 21:1 24:2 #
-0.10000000000000000555111512312578 1:1 3:3 4:8 5:2 7:1 8:2 16:2 18:1 20:1 21:1 23:1 25:1 #
0.054472401941478842957167216809466 1:3 2:3 3:11 4:14 5:5 6:2 7:2 8:4 9:4 11:2 12:1 13:1 14:2 15:2 17:2 18:1 21:2 23:2 24:4 25:1 #
0.085271305896019056191903473518323 4:5 5:1 7:1 8:3 9:1 14:1 18:2 22:2 25:1 #
0.10000000000000000555111512312578 1:1 2:4 3:6 4:8 5:3 8:2 9:1 10:1 12:1 13:1 16:1 17:1 18:2 21:2 23:3 #
0.10000000000000000555111512312578 2:2 3:8 4:22 5:1 6:1 7:1 8:2 9:3 10:2 13:3 14:2 16:1 17:3 18:2 21:2 22:2 23:4 24:2 #
0.10000000000000000555111512312578 1:5 2:6 3:12 4:11 5:5 6:2 8:2 10:2 11:1 14:5 16:1 17:3 18:3 19:1 21:2 23:1 24:2 25:3 #
0.10000000000000000555111512312578 2:6 3:6 4:12 5:2 8:4 9:1 11:1 12:3 13:1 14:3 17:2 18:1 19:2 23:1 24:1 #
0.10000000000000000555111512312578 1:6 2:1 3:6 4:9 5:3 6:5 8:1 9:3 10:1 12:1 13:2 14:5 16:5 17:3 18:1 19:1 21:1 22:1 23:1 25:2 #
0.10000000000000000555111512312578 2:1 3:3 4:3 6:1 9:1 11:1 14:2 17:1 19:1 22:1 #
-0.10000000000000000555111512312578 1:4 2:4 3:9 4:12 5:1 7:1 8:2 9:1 12:1 13:2 14:3 15:1 16:1 19:1 20:1 21:2 22:1 24:6 #
0.10000000000000000555111512312578 2:3 3:2 4:7 5:2 8:2 10:1 11:1 14:2 16:2 18:1 19:1 24:1 25:1 #
-0.10000000000000000555111512312578 1:4 2:2 3:14 4:18 5:4 6:1 7:1 8:6 9:4 10:1 12:2 13:1 14:4 15:1 16:5 17:3 18:1 19:2 20:2 21:2 22:1 23:3 25:2 #
-0.10000000000000000555111512312578 2:3 3:7 4:4 6:1 7:1 8:2 10:3 14:3 16:1 17:1 19:1 21:2 24:3 #
-0.10000000000000000555111512312578 1:6 2:10 3:10 4:16 5:3 6:1 7:2 8:3 9:2 11:2 12:1 13:1 14:1 16:2 17:3 18:1 19:1 20:1 22:1 #
-0.10000000000000000555111512312578 1:1 2:11 3:23 4:19 5:4 6:2 7:3 8:12 9:3 10:8 11:3 12:2 13:1 14:9 15:1 16:5 17:4 18:3 19:4 21:5 23:1 24:6 25:2 #
0.10000000000000000555111512312578 1:2 2:5 3:8 4:5 5:2 7:1 8:4 9:1 10:2 12:2 14:3 16:2 18:3 19:1 20:1 21:2 22:2 #
-0.10000000000000000555111512312578 1:2 2:3 3:4 4:2 5:3 6:2 8:2 10:1 16:2 18:1 21:1 #
-0.10000000000000000555111512312578 1:2 2:1 3:3 4:8 5:1 6:1 8:2 11:1 12:2 14:6 16:1 17:2 18:2 19:1 21:2 23:2 24:1 #
0.10000000000000000555111512312578 1:4 2:7 3:14 4:5 5:1 6:1 7:1 8:5 9:1 10:1 11:1 12:2 13:2 14:10 15:1 16:2 17:2 19:3 20:1 21:1 23:4 #
0.10000000000000000555111512312578 2:3 3:4 4:5 5:3 6:2 8:4 9:1 10:1 11:1 13:1 14:6 16:1 17:1 18:2 21:2 22:2 25:1 #
-0.10000000000000000555111512312578 2:4 3:8 4:5 5:1 6:1 8:2 9:1 13:2 17:3 18:1 19:1 20:2 21:2 23:3 24:1 25:1 #
-0.10000000000000000555111512312578 1:1 3:3 4:4 5:1 8:2 16:2 19:1 21:1 23:3 25:2 #
-0.10000000000000000555111512312578 1:6 2:6 3:14 4:8 5:8 6:2 7:1 8:4 9:2 11:2 12:2 14:2 15:1 16:3 17:4 18:2 19:1 21:1 23:4 #
0.10000000000000000555111512312578 1:2 2:1 3:8 4:14 5:5 8:1 10:3 13:1 14:3 15:2 16:1 17:3 18:1 20:1 21:3 22:1 24:1 25:2 #
0.10000000000000000555111512312578 1:6 2:2 3:3 4:5 5:1 6:2 8:1 11:2 12:1 13:2 14:1 16:1 17:1 20:1 21:2 22:1 23:4 25:2 #
-0.10000000000000000555111512312578 1:1 2:2 3:7 4:12 5:4 6:1 8:3 10:3 11:2 12:2 14:6 16:1 17:1 18:1 23:2 24:3 25:1 #
-0.10000000000000000555111512312578 2:4 3:13 4:11 5:1 6:1 9:1 11:2 13:1 14:3 17:3 18:1 21:1 23:6 25:1 #
0.10000000000000000555111512312578 1:4 2:6 3:10 4:15 5:3 6:4 7:2 8:6 9:5 10:1 11:1 12:2 14:4 15:1 16:1 17:8 18:4 19:2 21:3 22:1 23:4 24:1 #
-0.0017910888503721578146610227122437 1:1 2:3 3:9 4:12 5:1 6:1 7:1 8:3 9:1 10:3 14:3 15:2 17:5 19:1 20:6 22:3 24:3 25:1 #
0.10000000000000000555111512312578 2:2 3:4 4:7 5:3 6:1 7:1 8:1 9:1 10:1 13:2 17:2 18:1 21:2 24:1 25:2 #
0.10000000000000000555111512312578 1:2 2:1 3:2 4:4 5:2 8:1 9:2 13:2 15:1 17:1 19:1 #
-0.10000000000000000555111512312578 2:1 3:5 4:4 6:1 8:4 9:2 13:1 14:4 15:1 17:5 18:1 21:1 23:4 25:1 #
0.10000000000000000555111512312578 1:1 2:5 3:4 4:8 6:1 8:1 12:1 13:3 14:2 16:1 17:1 19:1 21:2 23:3 25:1 #
-0.10000000000000000555111512312578 2:1 3:5 4:7 6:3 8:4 13:1 14:2 16:1 17:2 19:1 20:1 21:5 22:2 25:1 #
-0.10000000000000000555111512312578 1:6 2:13 3:20 4:14 5:8 6:1 7:2 8:6 10:3 13:1 14:5 16:3 17:4 18:1 19:1 20:4 21:2 23:1 24:3 25:1 #
-0.10000000000000000555111512312578 2:6 3:13 4:14 5:2 6:5 7:3 8:5 9:2 11:1 12:1 13:1 14:8 17:2 18:2 19:1 20:1 21:1 23:6 24:7 #
0.10000000000000000555111512312578 1:9 2:12 3:30 4:24 5:6 7:3 8:16 9:5 11:2 12:2 13:2 14:9 15:1 16:5 17:5 18:1 19:2 20:2 21:4 22:3 23:4 24:5 #
0.10000000000000000555111512312578 1:2 2:4 3:9 4:9 5:5 6:1 7:1 8:1 9:2 12:1 13:1 14:1 15:1 17:1 18:1 19:1 21:2 24:1 #
0.10000000000000000555111512312578 2:3 3:6 4:2 5:1 6:1 7:1 8:1 10:2 12:1 13:1 17:1 18:1 21:2 24:2 #
-0.10000000000000000555111512312578 1:3 2:4 3:12 4:16 5:3 6:5 8:5 9:3 10:2 11:2 12:1 13:2 14:3 16:5 17:1 18:4 19:1 21:2 22:4 24:4 #
0.10000000000000000555111512312578 1:1 2:2 3:5 4:5 5:2 8:4 9:1 10:1 13:1 14:1 16:3 17:1 18:1 21:2 22:1 23:1 25:1 #
0.10000000000000000555111512312578 2:2 3:5 4:4 5:2 6:1 8:2 9:1 16:3 17:1 19:1 21:2 24:3 25:1 #
-0.10000000000000000555111512312578 1:5 2:4 3:12 4:13 5:3 7:1 8:2 9:2 10:1 11:3 12:1 13:2 14:4 15:2 16:4 17:7 18:1 19:3 21:3 23:1 24:3 #
-0.10000000000000000555111512312578 2:3 3:3 4:6 5:2 6:1 8:2 9:1 14:5 15:1 16:2 17:1 19:2 21:1 23:1 25:2 #
0.10000000000000000555111512312578 1:3 2:4 3:13 4:3 5:3 9:1 12:2 14:2 16:1 18:1 19:2 21:1 23:1 #
-0.10000000000000000555111512312578 2:3 3:5 4:8 5:2 8:4 18:2 20:1 22:1 #
-0.10000000000000000555111512312578 1:4 2:4 3:8 4:7 5:6 8:2 11:1 12:1 13:2 14:6 16:1 17:3 18:3 19:4 21:1 22:1 23:1 #
-0.10000000000000000555111512312578 2:3 3:8 4:4 5:3 6:2 10:1 13:1 14:1 16:1 17:1 19:1 20:1 21:3 22:1 23:1 24:1 25:1 #
0.10000000000000000555111512312578 2:3 3:5 4:12 6:1 10:1 13:1 14:4 17:2 20:2 21:3 23:1 24:1 25:2 #
0.069763906538575296001347680885374 1:4 2:9 3:10 4:20 5:5 6:2 7:2 8:14 9:3 10:1 11:1 12:1 13:1 14:4 15:1 16:6 17:2 18:2 19:4 20:1 21:1 22:1 23:2 24:3 25:2 #
0.10000000000000000555111512312578 2:1 3:8 4:8 5:3 6:1 7:1 8:3 14:1 16:1 18:1 19:3 21:1 23:1 24:1 #
-0.10000000000000000555111512312578 1:2 2:2 3:8 4:11 5:1 6:2 7:1 8:5 9:1 10:2 11:2 12:1 13:1 14:1 16:2 17:2 18:1 19:5 20:1 21:4 22:1 23:1 24:1 25:1 #
-0.10000000000000000555111512312578 1:1 2:3 3:5 4:8 5:3 6:1 8:2 9:1 10:1 11:1 12:1 13:1 14:1 17:1 18:1 21:3 25:3 #
-0.10000000000000000555111512312578 2:3 3:5 4:10 5:3 6:1 7:1 8:2 9:1 11:1 13:1 14:1 16:1 17:2 18:3 21:1 22:3 24:1 #
-0.10000000000000000555111512312578 2:3 3:6 4:8 5:6 8:2 9:2 12:1 13:1 14:1 16:1 17:6 18:2 20:1 21:3 23:1 #
-0.10000000000000000555111512312578 1:2 2:7 4:11 5:7 6:1 8:3 9:1 12:1 13:2 14:3 16:1 17:2 18:2 19:2 20:2 21:2 22:1 23:1 25:2 #
0.10000000000000000555111512312578 1:1 2:3 3:5 4:4 6:1 7:1 8:7 14:5 17:4 18:1 19:1 20:2 21:1 22:1 23:2 24:3 25:2 #
0.10000000000000000555111512312578 1:2 3:4 4:6 5:1 6:1 9:1 10:1 12:1 13:1 14:1 17:2 18:1 19:2 22:1 23:1 #
-0.10000000000000000555111512312578 2:3 3:6 4:4 5:2 6:2 7:1 8:1 10:1 13:1 14:4 15:1 17:2 18:1 19:1 21:1 24:4 #
0.10000000000000000555111512312578 1:2 2:10 3:20 4:20 5:4 6:2 8:5 9:3 10:2 11:1 13:3 14:10 17:4 18:3 19:2 21:6 22:1 23:4 24:4 25:2 #
-0.10000000000000000555111512312578 1:8 2:8 3:7 4:10 5:2 6:1 8:5 9:3 12:4 13:2 14:1 17:1 18:1 19:2 21:3 22:2 25:2 #
0.10000000000000000555111512312578 1:2 3:3 4:7 5:2 8:2 11:1 17:2 18:2 19:1 21:2 22:1 #
0.10000000000000000555111512312578 1:5 2:11 3:17 4:38 5:11 6:8 7:2 8:14 9:3 10:4 11:2 12:3 13:3 14:11 16:4 17:4 18:2 19:2 20:1 21:5 22:3 23:3 24:5 25:2 #
-0.10000000000000000555111512312578 1:4 2:3 3:2 4:9 5:4 7:2 8:6 9:2 10:1 11:2 13:2 16:1 18:2 19:1 20:2 21:3 25:4 #
0.10000000000000000555111512312578 2:2 3:3 4:4 10:1 12:2 13:1 14:1 17:1 19:1 23:2 25:2 #
0.10000000000000000555111512312578 2:5 3:8 4:7 5:5 7:1 8:7 9:2 10:1 13:3 14:3 16:2 17:3 18:2 19:1 21:3 23:1 24:3 25:2 #
0.10000000000000000555111512312578 1:6 2:7 3:13 4:10 7:2 8:9 9:1 10:2 11:1 12:1 13:1 14:6 16:2 17:2 18:1 19:2 21:4 23:3 24:3 #
-0.10000000000000000555111512312578 1:3 3:1 4:11 5:1 8:3 14:4 16:2 21:1 22:1 24:2 #
0.10000000000000000555111512312578 1:1 2:2 3:5 4:2 5:5 8:2 13:1 14:4 15:1 16:2 17:1 18:1 20:2 21:2 22:1 23:2 24:2 25:1 #
-0.10000000000000000555111512312578 1:3 2:1 3:11 4:6 5:2 8:3 9:1 13:1 14:4 17:3 18:2 20:1 21:1 22:3 25:1 #
-0.10000000000000000555111512312578 2:1 3:2 4:3 5:1 7:1 8:1 9:1 12:1 13:1 14:2 16:1 17:2 19:1 23:1 #
0.10000000000000000555111512312578 2:3 3:3 4:1 5:5 8:1 9:1 14:5 16:2 17:1 #
0.10000000000000000555111512312578 2:5 3:9 4:6 7:1 8:1 11:1 14:2 15:1 16:3 19:3 20:2 21:2 22:1 23:2 24:1 #
-0.10000000000000000555111512312578 1:2 2:6 3:7 4:6 5:3 7:1 8:5 9:2 11:2 12:3 13:2 14:6 16:4 17:1 19:4 21:3 22:2 24:2 25:2 #
0.10000000000000000555111512312578 2:1 3:4 4:12 5:3 8:3 9:2 14:1 15:1 16:3 17:2 18:1 19:1 20:1 21:2 23:1 24:2 25:3 #
-0.10000000000000000555111512312578 3:4 4:6 7:1 8:1 10:1 17:1 23:1 25:1 #
-0.10000000000000000555111512312578 1:2 2:6 3:8 4:9 5:2 9:1 11:1 13:1 14:4 15:1 17:3 18:1 19:2 20:1 21:2 22:2 23:2 24:3 #
-0.10000000000000000555111512312578 1:4 2:6 3:6 4:11 5:3 6:1 7:1 8:10 9:3 10:1 11:3 13:1 15:1 16:2 17:4 19:4 20:2 21:6 22:1 24:2 #
0.10000000000000000555111512312578 1:9 2:5 3:18 4:14 5:3 6:1 7:4 8:3 9:1 10:2 12:1 14:5 16:3 17:5 18:1 20:2 21:3 23:4 24:6 25:1 #
0.10000000000000000555111512312578 1:6 2:4 3:15 4:18 5:5 7:3 8:4 9:3 10:3 11:1 12:3 14:4 15:1 16:2 17:2 18:3 19:4 21:2 25:2 #
0.10000000000000000555111512312578 1:1 2:5 3:6 4:18 5:6 6:1 7:1 8:3 9:3 10:1 11:1 12:1 13:1 14:4 16:3 17:2 18:2 19:3 21:2 24:3 25:1 #
0.10000000000000000555111512312578 1:4 2:3 3:8 4:10 5:4 6:1 8:4 9:1 11:3 12:1 14:3 17:4 18:2 19:2 20:2 21:1 22:2 25:1 #
-0.095353948140791677801075820752885 2:5 3:7 4:8 5:2 6:1 10:3 13:1 14:1 20:3 21:2 24:2 #
0.10000000000000000555111512312578 1:1 2:5 3:5 4:4 5:3 6:1 8:2 9:1 10:3 11:1 13:1 14:3 16:2 17:2 18:1 20:1 21:1 22:1 24:4 #
-0.10000000000000000555111512312578 1:5 2:6 4:12 5:5 7:1 8:8 9:2 11:1 12:2 13:2 14:1 16:3 17:1 18:1 19:1 20:1 21:4 22:2 24:1 25:1 #
-0.10000000000000000555111512312578 2:5 3:2 4:4 5:2 6:1 7:1 8:2 10:2 14:3 16:1 17:2 18:1 20:2 21:2 22:1 24:2 #
0.10000000000000000555111512312578 2:4 3:6 4:6 5:3 6:1 7:1 8:2 9:2 10:1 11:1 16:1 17:1 20:1 21:1 24:4 25:3 #
-0.10000000000000000555111512312578 2:3 3:4 4:4 6:1 8:1 9:2 10:1 14:3 16:1 18:1 21:2 24:4 #
-0.10000000000000000555111512312578 1:5 2:10 3:17 4:12 5:5 6:3 7:5 8:3 9:4 10:1 12:1 14:9 17:4 18:3 19:3 20:1 21:2 23:2 24:5 25:2 #
-0.047600193807786683741767319588689 1:3 2:9 3:8 4:22 5:5 6:7 7:4 8:4 9:1 11:1 12:2 13:1 14:6 16:1 17:5 18:1 23:1 25:2 #
-0.10000000000000000555111512312578 2:1 3:5 4:4 5:1 8:5 9:2 11:3 17:2 18:1 19:1 21:1 22:1 24:1 #
0.10000000000000000555111512312578 2:6 3:4 4:5 5:2 6:1 9:1 10:1 14:2 16:1 17:2 18:1 19:1 #
0.10000000000000000555111512312578 2:3 3:9 4:10 5:6 7:2 8:2 9:3 10:1 13:2 14:1 17:1 18:1 20:1 21:1 24:8 25:2 #
-0.10000000000000000555111512312578 1:1 2:7 3:4 4:19 5:4 6:1 7:1 8:7 9:3 10:2 11:1 12:2 13:3 14:8 16:1 17:3 18:3 20:1 21:3 22:3 24:9 #
0.10000000000000000555111512312578 1:2 2:2 3:7 4:5 6:1 8:1 9:1 13:3 14:3 16:2 17:2 21:2 22:1 23:2 25:3 #
0.10000000000000000555111512312578 3:5 4:9 5:5 6:1 8:2 9:1 11:1 13:3 14:1 16:1 17:1 21:2 22:1 23:1 24:1 #
0.10000000000000000555111512312578 1:1 3:1 4:3 9:1 12:2 14:1 16:1 17:2 18:2 19:1 21:1 24:1 25:1 #
-0.067920929403580299066334191593342 1:6 2:10 3:11 4:11 5:7 6:3 7:2 8:7 9:6 10:2 12:1 13:2 14:3 16:2 17:9 18:1 19:1 20:3 21:3 25:1 #
-0.10000000000000000555111512312578 1:17 2:8 3:15 4:25 5:1 6:3 7:1 8:6 9:2 11:5 12:9 13:2 14:5 15:3 16:1 17:4 19:5 21:5 22:2 23:2 25:1 #
0.10000000000000000555111512312578 1:1 2:3 3:12 4:11 5:4 7:1 8:3 10:1 11:1 12:1 13:1 14:3 18:2 19:3 20:1 21:4 22:1 24:2 #
0.10000000000000000555111512312578 1:10 2:7 3:12 4:11 5:5 6:3 7:1 8:10 9:2 10:1 11:3 16:4 18:3 19:2 20:1 21:1 22:1 23:2 #
-0.006956143556304722475047697116679 1:8 2:6 3:24 4:12 5:1 7:2 8:9 9:10 11:2 12:3 13:1 14:14 15:1 16:5 17:6 19:1 21:5 #
0.10000000000000000555111512312578 1:5 2:7 3:11 4:19 5:2 6:3 7:1 8:3 9:2 10:2 11:1 14:3 15:1 16:1 17:4 18:2 20:3 21:2 23:2 24:4 25:2 #
0.096569197999300082635443231993122 1:3 2:6 3:13 4:8 5:4 8:7 9:3 13:2 14:2 16:1 17:3 18:5 19:1 21:2 23:1 25:2 #
0.10000000000000000555111512312578 2:2 3:11 4:15 5:1 7:1 8:3 9:5 10:1 13:3 14:2 16:1 17:1 18:2 19:1 21:3 23:4 24:3 25:1 #
-0.10000000000000000555111512312578 1:2 2:5 3:8 4:5 5:7 6:2 8:5 9:1 10:3 11:3 14:2 16:1 17:1 19:3 20:2 21:1 22:1 24:1 25:2 #
0.10000000000000000555111512312578 1:5 2:2 3:3 4:13 5:2 6:3 8:3 12:1 14:1 16:3 17:1 18:1 20:1 22:1 25:1 #
-0.10000000000000000555111512312578 1:6 2:6 3:20 4:20 5:8 6:3 8:10 9:6 11:3 13:3 14:7 15:2 16:2 17:3 18:5 19:1 20:1 21:3 22:2 23:3 25:1 #
0.10000000000000000555111512312578 1:6 2:2 3:9 4:12 5:3 6:1 7:1 8:7 9:2 11:3 12:2 13:1 14:7 15:2 16:1 17:5 18:1 21:1 22:2 23:5 25:1 #
-0.10000000000000000555111512312578 1:1 2:2 3:4 4:4 5:4 8:1 9:1 11:1 12:1 13:1 14:6 17:3 19:1 20:1 21:3 22:1 23:1 #
0.10000000000000000555111512312578 2:1 3:1 4:7 5:1 6:2 8:2 9:1 16:1 17:1 22:1 #
-0.10000000000000000555111512312578 1:1 2:3 3:3 4:4 5:3 6:4 8:1 9:1 12:1 13:1 14:2 20:1 21:1 22:1 23:1 24:2 #
0.10000000000000000555111512312578 2:3 3:3 4:4 5:1 6:2 8:1 9:1 16:2 17:1 18:2 21:2 22:1 24:1 25:1 #
-0.10000000000000000555111512312578 2:6 3:14 4:11 5:5 7:3 8:4 9:7 11:2 14:4 17:1 18:2 21:1 22:1 24:7 #
-0.10000000000000000555111512312578 1:1 2:8 3:4 4:20 5:1 6:2 8:3 9:1 12:2 14:2 16:1 17:3 18:2 #
0.10000000000000000555111512312578 2:2 3:4 4:9 5:2 6:1 8:3 9:1 14:1 16:4 17:1 22:2 24:1 #
-0.10000000000000000555111512312578 2:1 3:7 4:15 5:2 6:4 9:1 11:1 14:2 16:1 17:1 19:1 23:3 24:1 25:3 #
0.10000000000000000555111512312578 2:3 3:6 4:4 5:1 6:1 7:1 8:3 10:1 11:1 16:1 21:1 23:3 24:1 #
0.10000000000000000555111512312578 1:1 2:3 3:8 4:8 5:4 6:1 7:1 8:4 11:1 12:1 14:2 15:1 17:2 18:1 19:1 21:3 23:1 24:1 #
-0.10000000000000000555111512312578 1:1 2:4 3:5 4:9 5:3 6:3 8:3 9:1 10:1 11:2 12:1 14:1 21:1 22:2 23:1 25:2 #
-0.10000000000000000555111512312578 2:2 3:7 4:7 5:2 6:2 8:3 9:2 11:1 12:1 13:1 14:1 15:1 16:1 17:1 18:2 22:1 23:1 24:1 #
0.10000000000000000555111512312578 1:6 2:4 3:7 4:7 5:10 6:2 7:1 8:3 9:1 11:1 12:1 13:1 14:3 16:1 18:1 20:1 21:2 22:1 23:1 25:1 #
-0.10000000000000000555111512312578 2:6 3:7 4:6 5:2 7:2 8:2 13:1 14:2 17:2 18:4 24:2 #
0.10000000000000000555111512312578 1:1 3:6 4:12 5:2 6:4 7:1 8:5 9:5 10:1 11:2 13:1 17:1 18:1 21:1 22:1 23:2 24:1 25:1 #
-0.10000000000000000555111512312578 1:2 2:6 3:3 4:14 5:3 6:4 8:4 10:1 12:2 13:5 14:2 15:2 16:4 17:3 20:3 21:3 22:1 23:4 24:1 #
-0.10000000000000000555111512312578 1:3 2:7 3:14 4:15 5:4 6:1 7:2 8:8 9:2 10:1 11:7 12:1 13:2 14:2 15:4 16:3 17:4 18:1 19:1 20:2 21:3 22:2 23:8 25:2 #
-0.10000000000000000555111512312578 2:2 3:4 4:10 5:7 6:3 8:1 9:1 10:3 14:1 16:2 17:3 18:3 19:1 20:1 21:2 23:2 24:2 25:6 #
-0.10000000000000000555111512312578 1:7 2:3 3:13 4:14 5:5 6:2 7:1 8:1 12:1 14:5 16:3 17:1 18:3 19:1 20:1 21:1 23:2 25:2 #
0.10000000000000000555111512312578 2:3 3:9 4:13 6:3 8:2 9:1 13:1 14:5 16:1 17:1 19:1 20:1 21:1 23:1 24:3 #
0.10000000000000000555111512312578 1:3 2:6 3:14 4:3 5:6 6:4 8:5 9:3 10:4 11:2 13:1 14:3 16:4 17:1 18:1 19:1 20:1 22:1 24:3 #
0.10000000000000000555111512312578 1:1 2:10 3:15 4:11 5:4 6:2 7:1 8:2 9:1 10:1 11:2 14:2 16:2 17:1 19:4 20:3 21:1 22:2 23:2 24:8 #
-0.10000000000000000555111512312578 1:4 2:7 3:10 4:12 5:3 8:3 9:3 10:2 12:2 13:1 14:5 16:1 17:2 18:1 19:2 21:1 24:2 #
-0.10000000000000000555111512312578 1:5 2:3 3:3 4:6 6:1 7:1 8:3 11:2 13:1 14:3 16:1 17:1 19:2 23:1 25:1 #
0.10000000000000000555111512312578 1:1 2:2 3:4 4:8 5:2 6:1 8:2 9:1 13:1 14:1 16:2 17:1 18:1 21:1 23:1 24:4 #
0.10000000000000000555111512312578 1:5 2:1 3:7 4:23 5:4 6:3 8:2 9:3 10:1 11:3 12:2 13:2 14:3 15:1 16:1 17:4 18:1 19:1 21:1 22:2 23:4 25:3 #
0.10000000000000000555111512312578 1:6 2:5 3:13 4:11 5:5 6:1 7:1 8:5 9:1 10:3 11:2 13:1 14:4 15:2 16:3 17:4 18:1 19:1 20:2 21:2 22:1 25:2 #
0.10000000000000000555111512312578 1:1 2:4 3:5 4:10 5:4 7:1 8:3 9:1 13:1 14:2 17:1 18:2 21:2 #
-0.00090826140575950287114892489626072 1:1 2:3 3:9 4:12 5:1 6:1 7:1 8:3 9:1 10:3 14:3 15:2 17:5 19:1 20:6 22:3 24:3 25:1 #
0.10000000000000000555111512312578 1:4 2:3 3:7 4:9 5:6 6:1 8:2 12:1 13:2 14:3 15:2 16:1 17:3 18:2 19:2 20:1 21:2 23:1 24:2 #
0.10000000000000000555111512312578 1:3 2:6 3:7 4:11 5:2 7:5 8:4 9:2 10:3 11:2 12:1 13:2 14:8 15:2 16:1 17:1 19:2 21:4 23:1 24:7 25:2 #
0.10000000000000000555111512312578 1:3 2:3 3:11 4:13 5:1 6:1 8:2 9:2 10:1 11:2 14:3 16:1 17:1 18:1 19:1 21:3 22:1 23:2 24:2 25:3 #
-0.10000000000000000555111512312578 1:2 2:2 3:11 4:16 5:5 8:5 9:2 13:2 14:2 16:2 18:1 19:2 20:1 21:1 23:3 25:1 #
0.10000000000000000555111512312578 2:1 3:5 4:12 5:1 6:2 8:3 9:1 10:1 13:1 14:5 17:4 18:2 19:1 21:3 23:3 24:5 #
0.10000000000000000555111512312578 1:2 2:1 3:6 4:3 8:1 9:1 10:2 11:1 15:1 16:1 17:1 19:1 21:1 #
-0.10000000000000000555111512312578 1:3 2:3 3:5 4:9 7:1 8:1 11:1 13:1 14:3 16:3 17:2 18:1 19:1 20:1 21:1 23:4 24:1 #
0.10000000000000000555111512312578 1:3 2:6 3:5 4:8 5:1 8:4 9:2 11:2 12:3 13:1 14:4 15:1 17:1 19:1 20:1 22:1 23:1 #
-0.10000000000000000555111512312578 1:5 2:3 3:4 4:16 5:3 6:3 8:5 9:3 10:1 11:1 12:2 13:1 14:5 15:1 16:5 19:1 20:1 21:2 22:2 24:1 25:4 #
-0.10000000000000000555111512312578 1:1 2:1 3:6 4:12 5:1 6:1 8:3 9:3 13:1 16:2 18:1 20:2 21:2 22:2 23:3 24:2 #
-0.10000000000000000555111512312578 1:3 2:4 3:21 4:24 5:10 6:3 8:8 9:1 10:2 11:1 13:3 14:4 17:4 18:3 19:3 20:1 21:2 22:2 23:1 24:3 25:2 #
0.10000000000000000555111512312578 1:6 2:11 3:18 4:12 5:1 6:2 7:1 8:11 9:2 10:1 11:2 12:1 13:3 14:6 15:1 16:3 17:3 18:3 19:4 20:3 21:4 22:2 23:9 24:2 25:2 #
0.10000000000000000555111512312578 1:5 2:2 3:13 4:8 5:1 8:3 9:4 11:1 14:1 16:5 17:4 19:3 20:1 22:1 23:2 25:2 #
-0.10000000000000000555111512312578 1:1 2:3 3:9 4:8 5:5 7:1 8:4 9:1 10:2 11:2 12:2 16:1 17:2 18:2 19:1 21:1 22:1 24:1 25:1 #
-0.10000000000000000555111512312578 1:3 2:2 3:10 4:12 5:2 6:2 7:1 8:3 11:1 14:2 15:2 16:1 17:3 18:3 19:1 23:2 24:1 #
-0.10000000000000000555111512312578 1:7 2:5 3:8 4:20 5:2 6:2 7:2 8:9 9:2 11:1 12:2 13:1 14:4 16:4 17:4 18:5 19:3 21:3 23:2 24:1 25:2 #
0.10000000000000000555111512312578 1:6 2:3 3:12 4:18 5:9 6:3 8:4 9:5 11:1 12:1 13:2 14:7 15:1 16:2 17:1 21:1 24:3 #
-0.10000000000000000555111512312578 2:1 3:8 4:7 5:2 6:1 8:2 9:1 11:1 14:3 16:1 17:2 18:1 19:3 20:2 22:1 23:1 24:2 #
-0.10000000000000000555111512312578 1:4 2:1 3:7 4:8 5:9 6:3 7:2 8:2 10:2 14:1 16:1 18:2 20:2 21:1 22:1 23:1 25:2 #
0.10000000000000000555111512312578 2:4 3:9 4:8 5:2 6:1 7:1 8:1 9:1 10:2 12:1 14:3 16:3 17:1 21:1 22:2 24:1 25:2 #
-0.10000000000000000555111512312578 2:2 3:8 4:8 6:1 8:2 9:1 13:1 14:3 16:1 17:3 20:1 23:3 25:1 #
-0.10000000000000000555111512312578 1:9 2:8 3:14 4:20 5:3 6:2 7:2 8:5 9:1 10:1 11:3 14:7 16:5 17:3 19:3 21:2 22:2 23:1 25:1 #
-0.10000000000000000555111512312578 1:4 2:3 3:4 4:6 5:1 8:5 9:1 11:3 13:2 14:2 17:3 18:2 19:1 20:1 21:2 22:1 23:2 #
0.10000000000000000555111512312578 2:3 3:5 4:7 5:2 8:3 9:1 10:1 12:1 13:2 14:2 15:1 16:1 17:1 18:1 #
-0.10000000000000000555111512312578 1:1 2:3 3:16 4:9 5:4 6:2 8:3 9:2 10:5 11:1 12:1 14:8 16:4 17:5 18:2 19:1 24:10 #
0.10000000000000000555111512312578 1:1 2:6 3:2 4:11 5:4 7:2 8:4 10:2 12:1 13:1 14:2 16:2 17:1 18:3 22:1 24:6 25:2 #
0.10000000000000000555111512312578 1:4 2:5 3:3 4:7 6:3 8:1 10:3 13:2 14:1 16:1 17:2 21:3 #
-0.10000000000000000555111512312578 2:5 3:8 4:6 5:2 6:2 7:1 8:5 9:3 11:2 14:3 15:1 17:3 20:2 21:2 23:1 25:1 #
-0.10000000000000000555111512312578 1:5 2:3 3:9 4:9 5:2 6:2 7:1 8:7 9:1 12:2 13:1 14:4 16:3 17:3 18:3 21:2 23:3 25:2 #
0.10000000000000000555111512312578 1:1 2:9 3:10 4:7 7:2 8:4 9:4 11:1 12:1 13:4 14:1 16:2 17:2 19:2 20:1 21:3 23:3 24:3 25:3 #
0.10000000000000000555111512312578 1:8 2:15 3:22 4:23 5:9 6:5 7:2 8:13 9:7 10:5 11:5 12:4 13:2 14:8 15:2 16:2 17:8 18:3 19:4 20:2 21:2 23:5 24:8 25:3 #
0.10000000000000000555111512312578 1:3 2:6 3:11 4:16 5:5 6:4 7:1 8:3 9:1 10:2 11:1 12:2 14:5 15:1 16:2 17:2 18:2 19:1 20:1 21:2 24:2 25:2 #
0.10000000000000000555111512312578 2:4 3:5 4:8 5:2 8:1 11:1 12:1 16:1 17:1 18:2 22:1 23:1 #
-0.10000000000000000555111512312578 2:4 3:10 4:12 5:7 6:1 8:5 10:4 13:2 14:5 16:1 17:2 18:2 19:1 20:1 21:3 24:6 25:3 #
-0.10000000000000000555111512312578 1:9 2:1 3:7 4:14 5:2 6:1 7:2 8:1 12:1 13:1 14:2 16:3 19:2 21:1 22:1 #
-0.10000000000000000555111512312578 1:8 2:4 3:17 4:17 5:4 6:4 7:3 8:3 9:2 10:1 12:2 14:8 16:3 17:2 19:2 21:1 23:3 24:2 #
0.10000000000000000555111512312578 1:2 2:5 3:14 4:8 5:1 6:2 7:1 8:7 9:2 10:1 11:1 14:4 15:2 16:1 17:6 18:3 19:2 20:1 21:2 23:2 25:1 #
0.10000000000000000555111512312578 2:3 3:10 4:11 5:4 6:1 8:1 10:1 13:3 14:4 15:1 16:1 17:1 18:1 19:2 20:1 21:1 23:2 24:5 #
0.10000000000000000555111512312578 2:2 3:3 4:8 5:1 8:2 12:1 14:2 16:3 17:1 18:1 19:1 21:1 24:1 #
-0.10000000000000000555111512312578 2:3 3:1 4:11 5:1 8:2 9:1 10:1 13:1 14:3 15:1 16:2 17:2 18:1 20:1 21:1 24:1 #
-0.10000000000000000555111512312578 1:1 2:3 3:14 4:11 5:4 6:1 7:1 9:2 10:4 11:1 13:1 16:1 17:1 18:1 19:3 20:1 21:4 23:1 24:4 #
-0.10000000000000000555111512312578 1:1 2:4 3:8 4:8 5:2 6:1 7:1 8:3 9:1 10:2 11:3 13:1 14:3 15:1 17:3 18:4 19:3 20:1 23:1 24:8 25:1 #
-0.10000000000000000555111512312578 3:2 4:5 5:2 6:1 8:1 9:1 10:1 14:3 16:1 18:1 20:1 21:1 23:1 24:1 25:1 #
0.075191098146106763455698285270046 1:1 2:6 3:12 4:13 8:6 9:3 12:1 13:2 14:4 15:1 16:3 17:6 18:1 19:1 21:2 22:1 23:1 #
-0.10000000000000000555111512312578 1:2 2:10 3:17 4:20 5:10 6:4 7:6 8:8 9:9 10:4 11:4 13:1 14:9 16:1 17:1 18:2 19:2 21:3 22:1 23:1 24:11 25:4 #
-0.10000000000000000555111512312578 1:2 2:7 3:18 4:24 5:6 6:1 7:2 8:6 9:2 10:1 11:2 13:1 14:6 16:2 17:2 18:2 19:1 20:1 21:2 23:2 24:5 25:1 #
0.10000000000000000555111512312578 2:7 3:11 4:8 5:4 6:2 8:5 9:1 10:1 11:3 14:4 17:2 18:2 20:1 21:1 23:5 24:1 25:2 #
0.10000000000000000555111512312578 1:4 2:4 3:9 4:26 5:2 8:3 9:4 12:1 13:1 14:1 15:1 16:3 17:6 18:5 19:2 20:1 21:2 22:1 23:2 25:3 #
0.10000000000000000555111512312578 1:3 2:3 3:8 4:10 5:6 6:1 8:9 9:1 11:1 12:1 13:2 16:1 17:2 18:2 19:1 21:3 22:2 23:1 #
-0.10000000000000000555111512312578 2:3 3:9 4:4 5:2 8:2 9:4 11:2 12:1 14:2 16:3 17:3 18:2 21:1 24:1 #
-0.10000000000000000555111512312578 1:4 2:3 3:10 4:16 5:3 6:1 8:1 9:1 11:1 12:2 14:5 17:1 18:1 20:1 22:1 25:2 #
-0.058908227064460971789117138541769 1:2 2:6 3:19 4:15 5:7 6:3 8:8 9:4 10:8 11:1 13:4 14:3 16:4 17:6 18:2 19:5 20:3 21:6 22:2 23:2 24:15 25:1 #
0.063196917650763850815565092489123 1:2 2:6 3:7 4:16 5:4 6:1 7:2 8:3 10:2 11:1 14:2 15:2 17:3 18:1 19:1 20:2 21:2 22:1 23:1 24:8 #
-0.034141201428583178856257518418715 2:9 3:14 4:13 6:5 7:1 8:5 9:2 10:3 11:1 13:1 14:10 15:1 16:5 17:4 18:1 19:3 20:2 21:3 22:1 23:1 24:10 #
0.10000000000000000555111512312578 1:3 2:2 3:4 4:3 5:3 6:3 7:1 8:4 11:2 12:3 14:3 17:1 18:2 20:1 22:1 23:2 #
-0.0029466146699712036927110148099018 1:7 2:3 3:11 4:10 5:5 7:1 8:5 9:1 11:4 12:1 13:2 14:5 15:1 16:2 17:5 18:5 19:2 20:2 21:9 22:5 23:4 24:2 #
-0.0010339514474208000294197518087458 2:1 3:7 4:7 5:1 6:1 8:5 11:1 13:1 14:1 16:2 17:2 18:1 20:3 21:8 22:1 23:2 24:5 #
