SVM-light Version V6.02
0 # kernel type
3 # kernel parameter -d 
1 # kernel parameter -g 
1 # kernel parameter -s 
1 # kernel parameter -r 
empty# kernel parameter -u 
25 # highest feature index 
642 # number of training documents 
274 # number of support vectors plus 1 
-0.85780427 # threshold b, each following line is a SV (starting with alpha*y)
-0.10000000000000000555111512312578 1:16 2:8 3:15 4:15 5:7 6:4 7:2 8:8 9:6 10:2 11:7 12:4 13:1 14:2 15:2 16:3 17:5 18:2 19:4 21:5 22:2 23:1 #
-0.10000000000000000555111512312578 1:9 2:3 3:4 4:8 5:4 6:2 7:2 8:7 9:2 12:5 13:3 14:6 15:3 16:3 17:3 18:3 19:1 20:2 21:1 23:1 25:1 #
0.07060853490516497132922779655928 1:2 2:5 3:8 4:7 6:1 7:1 8:4 10:3 11:1 12:1 14:2 15:3 16:3 17:5 18:1 19:3 22:2 24:3 #
0.10000000000000000555111512312578 3:2 4:2 5:1 6:1 7:1 9:1 13:1 14:1 21:1 25:1 #
0.085792961449926208317151576920878 1:1 2:3 3:7 4:9 5:2 6:3 8:3 9:2 11:2 12:2 13:2 14:3 15:1 16:3 17:1 18:1 19:2 21:2 22:2 23:1 24:11 #
-0.10000000000000000555111512312578 1:2 2:6 3:14 4:8 5:1 7:1 8:3 9:1 13:1 14:5 16:1 17:1 19:1 20:1 21:5 23:1 #
0.10000000000000000555111512312578 1:7 2:3 3:5 4:6 5:5 8:3 9:2 11:1 12:2 13:2 14:3 15:1 16:1 18:1 19:1 20:1 21:1 22:1 25:1 #
-0.10000000000000000555111512312578 1:7 2:3 3:14 4:11 5:8 6:4 7:1 8:3 9:2 11:2 12:3 13:1 14:5 15:1 16:1 17:6 18:2 19:3 20:1 21:1 22:2 23:1 25:3 #
-0.10000000000000000555111512312578 2:1 3:2 4:6 8:2 9:1 14:2 17:3 18:1 19:1 21:1 22:2 23:3 #
-0.10000000000000000555111512312578 1:3 2:3 3:12 4:8 5:3 7:3 8:3 9:5 10:1 13:1 14:3 16:1 17:2 18:1 19:4 21:2 24:2 #
-0.10000000000000000555111512312578 1:6 2:6 3:7 4:6 5:3 6:2 8:3 12:2 15:1 16:4 17:1 18:1 19:2 21:1 25:1 #
-0.10000000000000000555111512312578 1:7 2:7 3:6 4:10 5:2 7:2 8:6 9:3 12:1 13:1 14:2 15:2 17:1 19:2 21:2 22:1 23:1 #
0.10000000000000000555111512312578 1:5 2:10 3:12 4:21 5:7 6:6 7:1 8:6 9:12 10:6 11:3 12:3 13:3 14:9 15:1 16:1 17:7 18:1 19:2 20:1 21:2 22:2 23:2 24:9 #
-0.10000000000000000555111512312578 1:5 2:3 4:9 5:1 6:3 8:1 9:1 11:1 12:1 14:4 15:1 #
-0.10000000000000000555111512312578 1:1 2:4 3:9 4:7 5:1 6:1 8:9 9:4 11:1 12:1 13:1 14:4 15:1 16:1 17:2 18:1 19:2 21:3 22:2 23:2 #
0.10000000000000000555111512312578 1:1 2:1 3:5 4:3 5:1 7:1 8:1 9:3 10:1 14:1 15:1 17:1 20:1 23:1 #
0.10000000000000000555111512312578 1:9 2:5 3:18 4:8 5:3 7:2 8:8 9:4 11:5 12:7 13:1 14:10 15:3 16:1 17:8 18:1 19:5 20:2 21:4 22:1 23:3 25:1 #
0.10000000000000000555111512312578 1:1 2:2 3:3 4:5 5:2 7:1 8:2 9:1 10:2 12:1 14:1 15:2 16:1 18:1 19:1 20:1 22:1 24:1 #
-0.10000000000000000555111512312578 1:4 2:4 3:16 4:18 5:3 6:2 7:1 8:16 9:3 10:3 11:2 14:8 15:4 16:8 17:4 18:3 19:4 21:6 23:7 24:6 #
0.10000000000000000555111512312578 1:11 2:2 3:5 4:8 5:5 6:1 10:3 11:2 12:1 14:5 16:1 17:2 18:1 19:1 #
0.10000000000000000555111512312578 1:12 2:10 3:16 4:12 5:4 6:4 7:2 8:10 9:5 10:2 12:6 13:2 14:10 15:1 17:7 18:4 19:5 20:3 21:5 22:3 25:1 #
0.10000000000000000555111512312578 1:6 2:6 3:14 4:13 5:1 7:1 8:3 9:3 10:1 11:2 12:3 13:1 14:5 15:3 16:1 17:4 18:2 19:4 20:1 21:1 22:1 23:1 24:5 25:1 #
0.10000000000000000555111512312578 1:6 2:4 3:10 4:19 5:1 6:2 8:6 9:4 10:1 11:2 14:4 16:4 17:6 18:1 19:4 23:1 #
0.10000000000000000555111512312578 1:3 2:8 3:6 4:5 5:2 6:1 8:2 9:2 10:1 12:2 14:3 15:3 16:1 17:5 18:3 19:2 20:2 21:1 22:2 23:1 #
-0.10000000000000000555111512312578 1:3 2:1 3:4 4:5 5:1 8:4 12:1 13:1 14:1 16:1 17:2 20:2 21:2 23:1 25:1 #
-0.10000000000000000555111512312578 1:4 2:8 3:6 4:8 5:2 6:1 7:1 8:9 9:2 10:2 11:1 12:1 14:6 15:1 16:1 17:2 18:4 20:1 21:3 22:2 24:9 #
-0.10000000000000000555111512312578 1:1 2:1 3:4 4:2 15:1 17:1 21:1 #
-0.10000000000000000555111512312578 1:2 2:4 3:20 4:13 6:3 7:1 8:2 9:2 11:1 12:3 13:1 14:2 15:1 16:3 17:5 18:2 21:4 23:1 #
-0.10000000000000000555111512312578 1:4 2:1 3:5 4:5 5:1 8:5 9:3 14:1 15:2 16:3 17:1 19:1 21:3 23:1 #
0.074277722678480317952676159620751 1:3 2:2 3:7 4:8 5:3 6:2 8:3 9:3 10:2 12:2 14:5 15:2 16:2 18:2 20:1 21:1 22:1 23:2 25:3 #
0.10000000000000000555111512312578 1:1 2:5 3:5 4:5 5:3 8:4 10:1 11:1 12:1 13:1 14:2 17:2 19:1 20:1 21:3 22:1 23:1 24:1 25:1 #
-0.10000000000000000555111512312578 1:1 2:4 3:3 4:4 5:1 7:1 8:3 10:1 11:1 12:1 13:1 14:3 16:1 18:1 21:1 #
0.10000000000000000555111512312578 1:2 2:1 3:3 4:3 8:2 9:1 11:1 14:2 15:2 16:1 19:2 20:1 21:1 #
-0.10000000000000000555111512312578 2:3 3:8 4:10 5:1 6:2 8:1 9:2 14:2 15:1 16:2 17:6 21:3 23:5 #
0.10000000000000000555111512312578 1:5 3:10 4:9 5:3 8:1 9:3 12:2 13:2 14:1 15:2 17:1 18:3 20:1 21:2 23:1 #
0.10000000000000000555111512312578 1:14 2:9 3:17 4:19 5:9 6:5 7:3 8:5 9:4 10:2 11:4 12:3 13:2 14:9 15:2 16:4 17:3 18:1 19:3 21:2 22:1 23:1 24:5 #
0.062809181465369068320114820380695 1:2 2:11 3:15 4:9 5:5 6:2 7:3 8:7 9:1 10:6 12:2 13:2 14:11 15:1 16:2 17:3 18:2 19:2 21:3 22:1 23:2 24:9 25:1 #
-0.10000000000000000555111512312578 1:1 2:5 3:8 4:4 5:1 6:1 9:2 10:2 11:1 12:2 13:1 14:2 16:2 17:1 19:1 21:2 23:2 #
-0.10000000000000000555111512312578 1:4 2:5 3:10 4:16 5:1 6:1 7:2 8:2 9:2 10:2 12:3 14:1 15:1 17:3 18:1 19:1 20:1 21:1 23:1 25:1 #
-0.10000000000000000555111512312578 1:4 2:4 3:6 4:6 5:6 6:1 8:3 9:1 14:4 15:1 16:1 17:2 18:1 19:3 20:1 21:3 25:1 #
-0.021270066025913657303814119359231 1:5 2:4 3:9 4:7 5:3 6:3 8:5 9:1 11:1 12:3 13:2 14:4 15:2 16:1 18:2 19:3 20:2 21:1 22:1 #
-0.10000000000000000555111512312578 1:2 2:3 3:7 4:8 5:2 7:1 8:1 9:1 12:1 14:8 17:3 22:1 25:1 #
0.10000000000000000555111512312578 1:6 2:3 3:9 4:11 5:4 6:2 7:1 8:6 11:1 12:2 14:1 15:1 16:1 17:3 18:1 19:2 21:3 22:2 25:1 #
0.10000000000000000555111512312578 1:3 2:3 3:9 4:6 5:4 6:1 7:1 8:2 11:2 14:1 15:1 16:1 17:1 18:3 #
-0.10000000000000000555111512312578 1:2 2:8 3:13 4:6 5:4 6:2 8:3 9:4 10:1 12:1 13:1 14:2 15:1 17:5 19:4 21:1 22:1 #
-0.10000000000000000555111512312578 1:4 2:3 3:7 4:8 5:2 6:4 7:1 8:4 9:6 10:2 12:4 13:1 14:1 15:1 16:2 17:5 18:3 20:1 21:1 25:2 #
0.10000000000000000555111512312578 1:2 2:3 3:7 4:13 5:2 6:1 8:4 9:1 12:1 13:3 15:1 16:2 17:4 18:1 19:3 20:1 21:2 23:3 #
-0.10000000000000000555111512312578 1:1 2:2 3:8 4:3 5:1 9:3 11:1 12:1 15:1 17:2 19:1 21:3 23:1 #
0.10000000000000000555111512312578 1:5 2:5 3:9 4:7 5:9 6:1 7:3 8:7 9:4 11:2 12:2 13:1 14:2 15:1 16:2 18:3 19:1 20:1 21:1 22:1 23:1 25:1 #
-0.10000000000000000555111512312578 1:2 2:8 3:6 4:7 5:3 7:3 8:4 9:1 10:2 12:4 13:1 14:2 15:2 16:4 18:2 19:3 20:1 21:3 24:4 25:1 #
0.10000000000000000555111512312578 1:5 2:2 3:7 4:8 5:3 6:2 8:3 11:1 12:2 14:4 15:1 16:1 17:1 18:2 21:1 #
0.10000000000000000555111512312578 1:8 2:7 3:9 4:10 5:5 6:2 7:2 8:3 9:2 10:2 11:1 12:4 14:8 15:2 16:2 17:1 18:4 19:3 21:2 22:4 #
0.10000000000000000555111512312578 1:7 2:3 3:12 4:9 5:3 6:2 7:2 8:5 11:3 12:2 14:3 15:1 16:3 17:3 20:1 21:2 22:3 23:1 #
-0.10000000000000000555111512312578 2:6 3:16 4:19 5:2 6:1 8:3 9:1 11:3 13:1 14:6 15:1 16:2 17:3 18:1 19:2 21:2 23:3 24:3 #
-0.10000000000000000555111512312578 1:1 3:6 4:3 5:2 8:2 9:3 12:1 14:5 15:1 16:3 17:2 18:1 19:2 23:1 #
-0.10000000000000000555111512312578 1:2 2:1 3:5 4:4 5:4 8:1 9:2 11:2 13:3 14:1 19:1 21:3 22:1 23:1 #
0.10000000000000000555111512312578 1:1 2:5 3:7 4:8 5:6 7:1 8:5 10:2 11:2 12:1 13:3 14:3 15:1 16:2 20:1 21:1 22:1 24:5 #
0.10000000000000000555111512312578 2:5 3:8 4:9 6:1 8:3 9:4 13:1 14:4 16:3 17:3 20:2 21:2 22:1 23:3 #
-0.10000000000000000555111512312578 1:2 2:2 3:5 4:7 5:5 6:2 8:2 9:3 10:2 11:1 13:1 14:4 15:1 16:3 17:3 19:2 20:1 21:1 22:1 24:5 #
-0.10000000000000000555111512312578 1:4 3:5 4:6 5:2 6:3 8:1 9:1 10:1 12:3 14:1 15:1 16:5 17:2 18:1 19:1 21:1 #
0.097536717590716623393909401329438 1:27 2:13 3:15 4:8 5:19 6:12 7:1 8:10 9:4 11:2 12:11 13:1 14:7 15:2 17:4 18:3 20:1 21:2 22:1 #
-0.10000000000000000555111512312578 1:5 2:2 3:3 4:5 5:2 9:2 11:1 13:1 14:2 16:1 17:2 19:1 20:1 21:1 23:2 25:1 #
-0.10000000000000000555111512312578 1:6 3:6 4:7 5:5 6:2 8:6 11:2 14:3 15:1 16:2 17:2 18:1 21:1 22:1 23:1 #
0.10000000000000000555111512312578 1:3 2:1 3:4 4:5 6:2 8:6 9:1 11:1 12:1 13:2 14:5 16:3 17:1 19:1 20:1 21:2 22:4 23:1 #
-0.10000000000000000555111512312578 2:6 3:10 4:6 8:1 9:2 11:1 13:1 14:6 15:3 17:2 19:1 20:1 21:1 22:1 23:4 #
-0.10000000000000000555111512312578 1:3 2:3 3:5 4:7 5:4 6:1 8:1 9:1 12:3 13:1 15:2 16:1 19:2 23:3 #
-0.058362379777779832545903104801255 1:14 2:11 3:9 4:7 5:7 6:6 8:6 9:2 10:1 11:2 12:1 13:1 14:7 16:2 17:2 18:6 21:3 22:1 #
-0.10000000000000000555111512312578 1:8 2:4 3:6 4:14 5:1 6:1 7:3 8:7 9:2 10:1 11:2 12:2 13:2 14:4 15:1 17:3 18:1 19:2 20:1 21:1 22:1 24:4 #
-0.10000000000000000555111512312578 2:2 3:12 4:12 5:5 7:1 8:1 9:5 11:1 12:1 14:4 15:1 16:1 17:4 20:1 21:2 22:2 24:2 #
-0.10000000000000000555111512312578 1:15 2:10 3:15 4:19 5:5 6:5 7:1 8:12 9:5 10:1 11:2 12:3 13:6 14:5 15:2 16:1 17:6 18:4 19:1 20:2 21:7 22:3 23:3 25:2 #
0.10000000000000000555111512312578 1:3 2:3 3:8 4:6 5:7 6:1 9:2 10:1 11:3 12:3 14:1 15:1 16:2 18:2 24:2 25:1 #
0.10000000000000000555111512312578 1:1 2:3 3:14 4:10 5:3 6:1 8:3 9:2 10:3 13:2 14:5 15:1 17:2 18:1 19:2 21:3 24:5 25:1 #
0.10000000000000000555111512312578 1:2 2:4 3:6 4:5 5:3 6:1 8:2 9:2 12:1 13:1 14:1 15:1 16:2 17:1 18:1 20:1 22:1 23:2 24:2 #
0.10000000000000000555111512312578 1:1 2:2 3:2 4:8 5:3 6:2 7:1 8:2 9:1 11:3 12:1 13:1 14:1 15:3 16:4 17:1 20:1 21:4 23:2 #
-0.10000000000000000555111512312578 1:3 2:2 3:8 4:3 5:2 7:1 8:1 9:2 10:2 12:3 17:1 18:2 19:1 20:1 21:1 25:1 #
-0.10000000000000000555111512312578 1:9 2:9 3:13 4:11 5:6 6:1 8:7 9:4 10:3 11:4 12:1 13:3 14:2 15:1 17:2 19:3 20:2 21:4 23:1 24:1 25:1 #
-0.10000000000000000555111512312578 1:10 2:3 3:8 4:9 5:5 6:4 7:5 8:5 9:1 10:2 11:2 12:1 13:1 14:4 15:1 16:1 17:2 18:2 19:2 21:1 22:2 23:1 25:1 #
0.10000000000000000555111512312578 1:3 2:2 3:6 4:5 5:2 6:1 7:3 8:2 9:4 11:2 12:3 13:1 14:3 15:1 16:1 17:2 19:1 20:1 21:1 22:1 #
-0.10000000000000000555111512312578 1:2 2:3 3:3 4:1 5:2 8:1 12:1 16:1 18:1 19:2 22:1 23:1 #
-0.10000000000000000555111512312578 1:1 2:3 3:4 4:8 6:1 7:2 8:2 9:1 12:1 13:1 14:1 15:2 16:3 17:3 18:1 19:1 22:1 23:2 24:1 #
-0.10000000000000000555111512312578 1:9 2:6 3:9 4:12 5:6 6:4 7:1 8:5 9:1 10:1 12:1 14:4 15:2 16:7 17:3 18:3 19:2 21:1 22:1 25:1 #
0.10000000000000000555111512312578 1:11 2:5 3:9 4:13 5:4 6:1 7:5 8:2 9:2 10:1 11:1 12:3 13:2 14:8 15:1 17:4 18:2 19:5 21:5 22:2 24:4 #
0.10000000000000000555111512312578 1:3 2:4 3:7 4:7 5:6 8:3 12:2 14:2 16:1 17:1 18:2 19:1 #
0.10000000000000000555111512312578 1:3 2:5 3:8 4:8 6:1 8:2 9:1 11:1 13:1 14:5 16:1 17:2 18:2 19:2 20:1 21:2 23:5 25:1 #
-0.10000000000000000555111512312578 1:2 2:5 3:10 4:9 5:1 8:2 9:1 13:2 14:3 15:1 16:1 17:2 19:1 21:2 22:1 23:2 25:1 #
0.091063227032416538264669725322165 1:2 2:2 3:9 4:9 6:1 8:3 13:2 14:5 16:2 17:1 19:2 21:3 22:2 23:3 25:1 #
-0.10000000000000000555111512312578 1:1 2:1 3:3 4:2 6:2 8:2 13:1 14:1 15:1 18:1 19:1 23:2 25:1 #
0.10000000000000000555111512312578 1:2 2:4 3:5 4:7 5:2 6:2 8:2 9:2 10:1 12:1 14:1 15:1 17:1 19:1 20:1 21:1 23:2 25:1 #
0.10000000000000000555111512312578 2:3 4:5 13:1 14:5 23:1 #
-0.10000000000000000555111512312578 1:1 2:1 3:5 4:4 6:1 8:2 9:1 11:1 14:3 15:2 16:1 20:1 21:2 23:2 #
-0.10000000000000000555111512312578 1:2 2:3 3:8 4:4 5:3 6:1 8:4 9:2 11:3 12:2 13:1 14:3 17:4 18:1 20:1 23:1 25:1 #
-0.065021135824519959989231665531406 1:2 2:3 3:5 4:6 5:3 6:2 7:2 8:1 10:1 12:1 13:3 14:2 17:2 20:3 21:1 22:2 25:3 #
-0.10000000000000000555111512312578 2:2 3:3 4:5 5:2 7:1 8:2 9:1 12:1 13:1 19:1 21:2 25:1 #
-0.10000000000000000555111512312578 1:4 2:3 3:5 4:5 5:2 7:2 8:3 9:2 12:2 15:1 16:1 17:1 18:2 19:1 21:1 22:2 #
-0.10000000000000000555111512312578 1:2 2:2 3:6 4:6 5:2 8:3 9:3 11:1 13:1 17:2 18:3 19:2 20:1 21:5 23:2 25:1 #
0.10000000000000000555111512312578 1:16 2:9 3:14 4:18 5:9 6:2 7:7 8:6 9:2 12:6 13:1 14:11 15:2 16:3 17:1 18:3 19:2 21:2 22:1 25:1 #
0.10000000000000000555111512312578 1:2 2:3 3:9 4:9 5:4 8:5 9:2 10:2 12:2 14:3 15:2 16:1 17:3 18:1 20:1 21:2 23:1 #
-0.10000000000000000555111512312578 1:3 2:2 3:3 4:7 5:1 7:1 8:2 9:1 10:1 11:1 12:3 13:1 14:2 15:1 16:2 17:1 18:2 21:2 #
-0.10000000000000000555111512312578 1:2 2:2 3:3 4:3 5:1 6:2 8:4 9:1 14:2 17:1 18:1 21:2 23:2 #
-0.10000000000000000555111512312578 1:4 2:1 3:4 4:7 6:2 8:2 12:1 14:4 15:1 16:2 17:1 18:2 19:1 22:1 23:3 #
0.10000000000000000555111512312578 1:4 2:2 3:3 4:7 6:1 8:3 9:1 11:2 13:4 14:3 15:1 16:2 17:1 18:1 19:4 21:5 23:4 #
0.10000000000000000555111512312578 1:2 2:4 3:5 4:5 5:1 8:4 9:1 10:2 12:1 13:2 14:5 15:1 17:2 20:2 21:3 22:1 24:4 25:1 #
-0.10000000000000000555111512312578 1:7 2:6 3:13 4:17 5:5 6:3 7:1 8:5 9:1 10:1 11:1 12:3 14:6 15:3 16:1 17:1 18:3 19:1 20:1 21:3 22:1 24:2 #
0.10000000000000000555111512312578 1:1 2:5 3:8 4:7 6:1 7:1 9:1 12:2 13:1 14:2 16:3 17:1 18:2 19:2 20:1 21:1 22:1 23:4 24:1 #
-0.10000000000000000555111512312578 1:3 2:5 3:13 4:9 5:5 7:1 8:5 9:2 10:6 11:2 12:2 13:1 14:4 15:1 16:1 17:2 18:2 19:2 20:1 21:1 22:2 24:6 #
0.10000000000000000555111512312578 1:1 2:1 3:6 4:6 6:1 7:1 8:5 9:2 13:1 14:3 15:1 18:2 20:2 21:1 22:2 23:3 25:1 #
-0.10000000000000000555111512312578 1:3 2:6 3:11 4:8 5:6 6:4 8:4 12:2 13:1 14:2 15:1 16:1 17:2 18:1 19:1 20:1 21:3 23:2 24:3 25:2 #
0.10000000000000000555111512312578 1:1 2:2 3:3 4:5 6:2 8:2 9:1 10:1 11:1 12:1 14:2 15:1 16:2 19:1 21:1 22:1 24:3 #
0.065841053424603723787100761910551 1:1 3:2 4:5 8:2 12:2 15:2 16:3 17:1 18:2 23:1 #
-0.10000000000000000555111512312578 1:3 2:1 3:2 4:4 6:1 8:1 9:1 11:1 12:1 14:1 15:1 16:1 18:1 19:1 21:2 22:1 23:2 25:1 #
-0.10000000000000000555111512312578 1:4 2:4 3:3 4:7 5:3 6:2 7:1 8:2 11:1 12:1 14:3 15:1 17:1 18:1 19:1 21:1 22:2 24:1 #
0.10000000000000000555111512312578 1:8 2:3 3:5 4:7 5:5 6:1 8:2 11:1 12:2 13:2 14:2 17:2 18:1 19:3 22:1 #
-0.10000000000000000555111512312578 1:6 2:7 3:10 4:25 5:7 6:4 7:2 8:3 9:1 10:2 12:5 13:1 14:7 15:3 17:1 18:3 20:1 21:2 22:2 23:1 25:1 #
0.10000000000000000555111512312578 2:2 3:7 4:2 6:1 8:2 9:1 10:1 11:2 14:1 15:2 16:1 17:2 18:1 19:1 21:1 22:1 24:3 #
0.10000000000000000555111512312578 2:2 3:3 4:7 5:1 6:1 8:2 9:2 10:1 12:1 16:1 22:1 24:1 #
-0.10000000000000000555111512312578 1:4 2:3 3:10 4:6 5:4 6:3 7:2 8:2 9:3 10:3 12:1 13:1 14:6 17:3 18:1 19:1 20:1 21:1 22:2 24:5 25:2 #
-0.10000000000000000555111512312578 1:3 2:2 3:3 4:4 5:2 6:1 8:7 9:1 11:1 13:2 14:1 17:1 20:2 21:3 23:3 #
0.03133186710206231628816908596491 1:5 2:3 3:12 4:11 5:4 6:1 7:2 8:7 9:2 11:1 13:1 14:3 15:1 16:1 17:6 18:2 19:1 21:3 23:2 25:3 #
-0.10000000000000000555111512312578 1:3 2:3 3:6 4:10 5:4 6:1 7:2 8:1 9:1 10:1 12:1 13:1 18:2 19:1 21:1 #
0.10000000000000000555111512312578 1:4 2:9 3:14 4:16 5:3 6:1 7:1 8:4 9:4 10:2 11:1 12:2 13:2 14:5 15:2 17:5 18:3 19:1 20:3 21:2 22:3 23:5 25:2 #
-0.10000000000000000555111512312578 1:2 2:4 3:2 4:6 5:4 6:1 7:1 8:1 9:1 10:2 12:1 13:1 14:4 15:1 18:1 19:1 20:2 21:2 22:2 24:2 #
-0.10000000000000000555111512312578 1:3 2:5 3:9 4:8 5:9 6:4 7:1 8:4 9:2 13:2 14:1 16:3 17:3 18:2 19:2 #
-0.10000000000000000555111512312578 1:2 2:4 3:10 4:7 5:2 6:1 7:2 8:2 9:3 10:1 11:1 14:3 15:1 17:2 18:1 19:1 21:3 22:1 23:1 24:1 25:2 #
-0.10000000000000000555111512312578 1:1 2:1 3:6 4:5 6:2 8:1 12:1 13:1 14:3 15:1 16:1 17:3 18:1 19:2 21:2 22:2 23:2 24:2 25:1 #
-0.09835734243341089089174289483708 1:15 2:13 3:25 4:17 5:13 6:2 7:3 8:5 9:6 10:2 11:5 12:6 14:9 16:4 17:7 18:1 19:2 21:4 22:2 #
0.10000000000000000555111512312578 1:1 2:1 3:4 4:11 6:1 9:2 10:1 11:1 12:1 13:1 14:2 15:2 16:1 17:2 21:3 23:1 #
-0.10000000000000000555111512312578 1:2 2:2 3:3 4:10 8:1 10:1 14:4 15:1 16:1 17:1 20:1 #
-0.10000000000000000555111512312578 2:4 3:5 4:9 5:1 6:5 7:1 8:3 9:1 10:4 13:1 14:8 15:2 16:3 19:1 21:1 22:1 24:8 #
-0.10000000000000000555111512312578 1:1 2:4 3:16 4:5 5:1 8:1 9:4 11:2 14:5 16:1 18:1 19:2 20:1 21:3 22:2 23:2 24:1 #
0.10000000000000000555111512312578 1:8 2:6 3:17 4:8 5:12 6:1 7:1 8:2 9:5 10:1 11:5 12:6 13:1 14:5 16:1 17:2 18:4 19:2 24:1 25:3 #
-0.10000000000000000555111512312578 1:1 2:5 3:9 4:8 5:2 7:1 8:3 9:1 10:3 12:1 14:3 15:1 16:1 17:4 18:2 19:2 20:1 21:1 22:1 24:4 #
0.053803805549287445075812286177097 2:2 3:2 4:1 5:1 7:1 8:1 10:1 12:1 16:1 21:1 22:1 #
-0.10000000000000000555111512312578 2:7 3:5 4:8 8:11 9:6 11:1 14:2 15:1 17:2 18:2 19:1 20:2 21:1 22:2 23:8 #
0.097630117431434390584676918933837 1:1 2:4 3:12 4:6 6:1 8:4 9:4 13:3 14:1 15:1 16:2 17:2 18:1 19:2 20:1 21:4 22:1 23:4 #
0.10000000000000000555111512312578 1:3 2:4 3:7 4:4 5:1 7:1 8:2 11:1 12:2 13:2 14:3 15:1 16:1 17:2 18:2 19:2 21:3 23:1 #
-0.074294368948404909680505170399556 1:9 2:7 3:5 4:14 5:5 6:2 7:7 8:4 9:4 10:4 11:1 12:7 13:3 14:16 15:3 16:4 17:2 18:1 19:1 20:2 22:2 23:1 24:7 25:1 #
0.10000000000000000555111512312578 1:1 2:4 3:9 4:13 5:6 6:3 7:2 8:2 9:1 12:1 14:4 15:1 16:1 17:4 19:4 21:1 23:1 24:8 #
-0.10000000000000000555111512312578 2:3 3:9 4:7 5:1 8:4 9:1 13:2 14:4 15:3 16:4 17:5 18:1 19:1 20:1 21:5 23:5 #
-0.10000000000000000555111512312578 1:9 2:8 3:15 4:10 5:6 6:2 7:4 8:7 9:3 10:2 11:1 12:1 13:1 14:8 15:1 16:2 17:4 18:3 19:1 20:1 21:3 23:1 25:3 #
0.10000000000000000555111512312578 1:8 2:2 3:6 4:8 5:3 7:1 8:2 11:1 12:1 14:2 15:2 17:1 19:2 20:3 22:1 25:1 #
0.10000000000000000555111512312578 1:5 2:5 3:8 4:8 5:2 6:2 7:1 8:3 9:1 10:1 12:2 13:3 14:4 16:2 17:3 19:1 20:2 21:4 24:4 #
0.10000000000000000555111512312578 2:2 3:4 4:3 6:1 8:1 10:1 11:1 13:1 18:1 19:1 20:1 21:2 23:1 25:2 #
0.10000000000000000555111512312578 1:2 2:3 3:7 4:8 8:2 9:1 11:1 13:2 14:2 16:1 17:2 19:1 21:5 22:1 23:2 #
-0.10000000000000000555111512312578 1:6 2:4 3:14 4:10 5:3 7:1 8:5 9:6 10:2 12:3 14:4 16:1 17:4 19:1 20:1 #
0.10000000000000000555111512312578 1:5 2:3 3:4 4:5 5:3 8:1 9:1 11:1 12:3 13:1 15:1 17:1 20:1 21:2 23:1 #
0.03674657515743681712727664034901 1:2 2:4 3:8 4:5 5:2 6:1 7:1 8:2 9:3 12:1 14:2 15:1 16:4 17:1 18:1 19:1 21:1 22:2 23:1 24:2 #
-0.10000000000000000555111512312578 1:4 2:1 3:7 4:9 5:4 6:3 7:3 8:3 9:1 11:4 12:1 13:1 14:2 15:2 16:4 17:4 18:1 21:5 22:2 23:1 25:1 #
0.10000000000000000555111512312578 1:7 2:8 3:13 4:7 5:3 7:2 8:9 9:3 12:1 14:3 15:3 16:2 17:3 19:1 20:2 22:1 23:3 25:1 #
-0.10000000000000000555111512312578 1:3 2:3 3:11 4:7 5:2 6:3 8:2 9:3 10:2 11:1 12:2 13:1 14:1 17:4 18:1 19:1 20:1 21:1 23:1 #
-0.069654743857005568807849726908898 1:6 2:8 3:8 4:7 5:3 6:1 8:2 9:3 10:2 12:1 13:2 14:3 16:2 17:1 18:1 19:3 20:3 21:2 22:1 25:3 #
-0.10000000000000000555111512312578 1:3 2:6 3:13 4:11 5:3 7:1 8:8 9:3 11:3 12:1 14:7 15:2 16:1 17:4 18:2 19:1 21:3 22:1 23:5 #
0.10000000000000000555111512312578 1:9 2:2 3:13 4:9 5:5 7:2 8:1 9:2 10:1 11:2 12:2 14:8 15:1 17:1 19:2 20:2 21:2 22:2 25:3 #
0.10000000000000000555111512312578 1:4 2:3 3:13 4:13 5:2 6:1 7:2 8:2 9:4 10:1 11:1 12:1 14:7 15:1 16:1 17:2 18:3 19:1 20:1 21:1 22:3 23:1 24:4 25:1 #
-0.10000000000000000555111512312578 1:1 2:3 3:3 4:11 5:1 6:2 8:4 9:2 10:1 11:1 12:4 14:2 15:1 16:4 17:3 18:2 19:2 20:1 21:1 22:2 23:4 #
-0.10000000000000000555111512312578 1:20 2:6 3:15 4:14 5:12 7:2 8:6 9:9 10:1 11:1 12:6 13:1 14:10 15:1 16:2 17:2 18:2 19:4 20:1 21:3 22:4 23:1 25:1 #
-0.10000000000000000555111512312578 1:7 2:3 3:8 4:7 5:3 6:2 7:1 8:2 9:1 11:1 12:3 16:2 17:3 18:2 19:1 21:1 22:2 #
0.10000000000000000555111512312578 1:3 2:3 3:3 4:4 5:4 6:2 7:1 8:6 16:2 17:2 18:1 22:1 #
-0.10000000000000000555111512312578 1:9 2:4 3:10 4:11 5:11 6:4 7:4 8:7 9:1 10:1 11:3 12:2 15:2 17:6 18:2 19:4 21:3 22:5 25:3 #
0.10000000000000000555111512312578 1:7 2:8 3:11 4:18 5:6 6:6 7:3 8:6 9:1 10:1 11:1 12:3 13:1 14:4 15:1 16:1 17:2 18:4 19:5 20:1 21:3 22:1 23:1 #
-0.10000000000000000555111512312578 1:12 2:11 3:22 4:24 5:6 6:5 8:7 9:6 10:1 11:4 12:10 13:3 14:10 15:2 16:2 17:5 18:8 19:1 20:1 22:6 23:2 #
0.10000000000000000555111512312578 1:13 2:4 3:12 4:11 5:4 6:1 7:3 8:3 9:6 10:1 11:1 12:4 13:2 14:4 16:1 17:3 18:1 19:3 21:3 22:1 #
0.10000000000000000555111512312578 1:5 2:4 3:6 4:3 5:1 6:1 7:1 8:5 9:1 11:1 13:1 14:4 16:1 17:2 18:1 20:1 21:3 22:2 23:5 #
0.10000000000000000555111512312578 1:14 2:5 3:16 4:13 5:1 6:2 7:1 8:6 9:5 11:2 12:1 13:1 14:2 17:5 19:3 21:2 22:2 #
0.10000000000000000555111512312578 1:7 2:3 3:9 4:3 5:7 6:1 7:1 8:3 11:2 12:3 14:2 15:1 17:2 19:4 20:1 21:5 22:1 #
-0.10000000000000000555111512312578 1:5 2:4 3:8 4:13 5:2 6:1 8:4 9:1 11:2 12:3 14:3 15:1 16:1 17:1 18:1 19:1 20:1 21:2 22:1 23:1 #
0.10000000000000000555111512312578 1:10 2:13 3:28 4:27 5:7 6:5 7:3 8:16 9:9 10:3 11:5 12:6 14:10 15:2 16:7 17:11 18:2 19:3 20:1 22:3 23:6 #
-0.10000000000000000555111512312578 1:1 2:4 3:8 4:5 5:1 8:2 9:2 13:1 14:1 15:1 17:2 19:1 20:2 22:1 23:1 25:1 #
0.10000000000000000555111512312578 1:1 2:1 3:4 4:2 5:2 6:1 8:2 12:2 14:1 16:3 17:2 21:1 23:1 25:1 #
-0.10000000000000000555111512312578 1:13 2:6 3:5 4:14 5:8 8:3 9:2 12:6 13:2 14:4 15:1 16:2 17:3 18:3 19:4 21:1 23:1 #
-0.10000000000000000555111512312578 1:6 2:8 3:12 4:15 5:3 6:2 7:2 8:9 9:1 10:1 12:2 13:4 14:6 15:1 16:3 18:2 19:2 21:4 22:2 23:1 24:8 #
0.10000000000000000555111512312578 1:3 2:2 3:5 4:7 5:2 6:1 8:2 9:3 11:1 12:2 13:1 14:4 15:1 16:2 17:1 19:2 21:1 24:1 #
-0.10000000000000000555111512312578 1:10 2:7 3:9 4:15 5:7 6:2 7:1 8:6 9:1 10:1 11:4 12:4 13:1 14:5 15:1 16:1 17:1 18:2 19:2 21:1 24:2 #
-0.10000000000000000555111512312578 1:14 2:9 3:10 4:12 5:3 6:2 7:3 8:4 9:2 10:1 11:4 12:2 14:8 15:1 16:2 17:4 18:4 21:1 22:3 23:1 #
0.10000000000000000555111512312578 1:2 2:1 3:9 4:5 5:2 7:1 8:2 11:1 12:1 14:1 15:1 16:2 17:6 18:1 19:1 21:3 23:1 #
-0.10000000000000000555111512312578 1:1 2:3 3:7 4:6 5:1 7:4 8:1 9:3 10:1 11:4 12:5 14:9 15:2 16:4 17:1 18:1 19:1 21:1 24:6 #
-0.10000000000000000555111512312578 1:3 2:2 3:11 4:8 5:5 6:2 8:2 10:2 11:1 12:5 14:3 15:1 16:1 17:4 19:4 21:3 24:1 #
-0.10000000000000000555111512312578 1:6 2:6 3:15 4:11 5:5 6:1 7:1 8:2 9:1 11:1 12:2 13:1 14:4 15:2 16:1 17:3 18:2 19:1 21:1 23:1 25:1 #
0.10000000000000000555111512312578 1:1 2:5 3:7 4:6 5:3 8:5 9:1 13:1 14:4 16:1 17:1 18:2 22:1 #
-0.10000000000000000555111512312578 1:5 2:3 3:6 4:8 5:3 8:2 9:1 10:1 11:1 13:3 14:2 15:1 16:4 17:2 18:1 19:2 20:1 21:5 23:1 25:1 #
-0.10000000000000000555111512312578 1:8 2:3 3:6 4:8 5:6 6:3 7:1 8:7 9:3 10:1 11:3 12:1 14:7 15:2 16:5 17:4 19:2 22:4 25:1 #
-0.10000000000000000555111512312578 1:3 2:6 3:9 4:6 5:6 6:1 7:2 8:4 9:1 11:2 14:2 15:1 17:1 18:2 19:1 21:1 22:1 23:1 #
-0.10000000000000000555111512312578 1:1 2:6 3:6 4:8 5:1 6:2 8:5 10:1 11:1 12:1 14:1 15:1 16:1 17:2 18:1 19:1 20:1 21:1 23:3 #
-0.10000000000000000555111512312578 1:4 2:5 3:14 4:8 5:4 6:1 8:2 9:1 10:2 11:1 13:4 16:3 17:3 18:1 19:4 20:1 21:3 23:4 25:2 #
-0.10000000000000000555111512312578 1:1 2:2 3:7 4:12 6:3 8:5 9:4 11:1 13:2 14:3 15:1 17:1 20:1 21:1 23:5 #
0.10000000000000000555111512312578 1:17 2:6 3:14 4:20 5:10 6:1 7:4 8:7 9:2 10:1 11:5 12:5 14:6 15:1 16:1 17:6 18:5 19:1 21:1 22:2 23:1 25:5 #
0.10000000000000000555111512312578 1:3 2:2 3:7 4:6 5:3 7:1 8:3 10:3 12:3 13:1 14:4 16:2 17:1 18:2 19:1 21:1 22:2 25:1 #
0.10000000000000000555111512312578 1:2 2:5 3:5 4:11 5:1 6:1 8:2 10:4 12:1 13:1 14:6 15:1 16:3 17:3 19:2 20:1 21:3 22:4 23:1 24:6 25:1 #
0.10000000000000000555111512312578 1:5 2:2 3:7 4:5 5:4 6:1 8:3 9:1 10:1 11:2 12:1 14:3 16:1 17:2 20:1 22:1 23:1 25:1 #
-0.10000000000000000555111512312578 1:5 2:2 3:8 4:5 5:3 8:4 9:3 10:1 11:1 12:1 15:1 17:1 18:1 19:1 20:2 22:2 24:1 #
0.10000000000000000555111512312578 1:1 2:5 3:5 4:8 5:1 6:1 8:4 9:2 10:1 12:1 14:4 17:2 19:1 21:2 22:1 #
-0.10000000000000000555111512312578 1:9 2:9 3:12 4:11 5:5 6:6 7:2 8:6 9:2 11:1 12:3 14:9 15:2 16:4 17:1 18:2 19:5 21:1 22:2 23:1 #
0.10000000000000000555111512312578 1:3 2:4 3:14 4:13 5:6 6:4 8:5 9:5 10:1 11:2 14:7 15:1 16:2 17:1 18:2 19:3 21:2 22:2 23:1 24:3 25:1 #
0.10000000000000000555111512312578 1:1 2:1 3:5 4:4 5:1 8:1 10:1 11:1 12:1 14:2 16:3 17:1 19:2 22:1 24:3 #
0.10000000000000000555111512312578 1:5 2:9 3:8 4:9 5:5 6:1 7:2 8:4 10:2 11:2 12:2 14:4 15:2 16:1 17:2 18:3 19:1 20:2 21:3 22:2 #
0.10000000000000000555111512312578 1:8 2:7 3:16 4:13 5:3 6:3 7:3 8:10 9:2 10:1 11:2 12:1 13:1 14:5 16:3 17:3 18:3 19:2 21:5 22:2 23:3 #
0.10000000000000000555111512312578 1:5 2:4 3:11 4:8 5:4 6:2 7:3 8:3 9:3 14:1 15:2 16:2 17:3 18:2 19:1 21:2 22:1 23:1 25:1 #
0.10000000000000000555111512312578 1:1 2:4 3:3 4:11 5:1 7:1 8:6 9:2 10:1 12:1 14:2 15:1 16:2 17:1 18:2 21:2 #
-0.10000000000000000555111512312578 1:12 2:6 3:11 4:14 5:7 6:2 7:1 8:8 10:1 11:2 12:4 13:1 14:8 15:4 16:4 17:3 18:1 19:2 20:1 21:5 22:1 25:3 #
0.10000000000000000555111512312578 1:8 2:8 3:10 4:1 5:7 6:2 8:3 9:1 11:3 12:4 13:3 14:6 16:3 17:3 18:3 19:2 21:6 22:2 23:2 #
-0.10000000000000000555111512312578 1:4 2:6 3:6 4:10 5:7 6:1 7:2 8:6 10:2 11:1 12:2 13:4 14:5 15:1 16:1 17:2 18:1 20:2 21:2 22:1 24:6 #
-0.10000000000000000555111512312578 1:1 2:3 3:3 4:4 6:1 8:1 10:2 12:1 16:1 17:2 18:1 20:1 24:2 #
0.10000000000000000555111512312578 1:6 2:5 3:7 4:8 5:4 6:2 7:1 8:2 9:6 11:3 12:2 14:3 15:2 17:3 18:3 #
0.10000000000000000555111512312578 2:6 3:7 4:14 5:3 6:2 7:1 8:4 9:4 10:2 11:3 14:1 15:1 16:2 17:2 18:1 19:1 22:2 23:1 24:2 25:1 #
0.10000000000000000555111512312578 1:5 2:6 3:5 4:15 5:4 6:1 7:2 8:5 9:2 13:1 14:3 15:1 16:1 17:3 18:2 20:1 21:2 22:1 23:3 25:2 #
0.10000000000000000555111512312578 1:8 2:2 3:6 4:10 5:3 6:3 8:4 9:1 12:2 14:1 15:2 16:2 17:2 18:2 19:2 23:1 #
0.037728160745623212646293609395798 1:9 2:4 3:9 4:7 5:1 7:1 8:2 9:2 10:1 11:1 12:1 13:3 14:4 15:2 16:1 17:2 19:3 20:1 21:5 22:1 23:1 24:2 25:1 #
-0.10000000000000000555111512312578 1:4 2:1 3:9 4:9 5:3 8:2 9:1 10:1 14:5 16:1 18:1 21:1 #
-0.10000000000000000555111512312578 1:7 2:3 3:7 4:8 5:8 6:1 7:3 8:2 9:1 11:2 12:1 14:3 15:1 17:2 18:2 19:5 21:1 25:1 #
0.10000000000000000555111512312578 1:3 2:4 3:15 4:11 5:4 8:5 9:5 11:2 12:2 14:4 15:1 16:2 17:4 18:3 21:1 23:1 25:1 #
0.10000000000000000555111512312578 1:2 2:5 3:6 4:4 5:2 6:3 8:4 9:1 11:1 12:1 14:2 15:1 17:1 18:1 19:1 21:1 24:1 #
0.10000000000000000555111512312578 1:7 2:5 3:13 4:9 5:8 6:4 7:3 8:5 9:2 11:3 12:2 14:1 15:2 16:2 17:5 18:4 19:4 20:1 21:1 23:2 24:1 25:2 #
0.10000000000000000555111512312578 1:10 2:4 3:15 4:11 5:11 6:3 7:2 8:4 9:5 11:1 12:3 13:1 14:8 15:3 17:2 18:1 19:3 20:2 25:3 #
-0.091907558352126439427109971802565 1:6 3:9 4:7 5:8 6:3 7:1 8:9 9:4 11:3 12:1 14:3 15:1 16:3 17:4 18:3 19:2 22:3 #
-0.10000000000000000555111512312578 1:14 2:7 3:11 4:9 5:10 6:2 7:5 8:6 9:2 10:1 11:4 12:6 13:1 14:8 15:2 16:2 17:2 18:4 19:1 20:2 21:1 22:4 25:4 #
0.10000000000000000555111512312578 1:6 2:7 3:2 4:13 6:1 7:2 8:7 9:1 12:2 13:2 14:2 15:1 16:2 17:1 18:3 19:1 20:1 21:3 23:1 25:1 #
0.10000000000000000555111512312578 1:2 2:4 3:4 4:6 5:5 7:2 8:3 18:2 20:1 21:1 22:1 25:3 #
0.10000000000000000555111512312578 1:2 2:8 3:21 4:14 6:8 8:6 9:6 11:2 13:1 14:6 15:3 16:3 17:7 18:2 20:1 21:6 22:1 23:5 25:1 #
-0.10000000000000000555111512312578 2:5 3:12 4:13 5:3 7:2 8:6 10:2 12:1 14:8 15:2 16:6 17:4 18:2 19:2 21:3 22:2 24:8 #
0.10000000000000000555111512312578 1:5 2:1 3:11 4:11 5:4 6:3 7:1 8:2 9:1 10:1 12:1 13:1 14:4 15:1 18:1 19:1 21:1 23:1 24:3 25:1 #
0.10000000000000000555111512312578 1:2 2:1 3:10 4:18 5:5 6:1 8:6 9:5 10:2 11:2 12:2 13:1 14:4 15:1 16:4 18:3 19:2 21:2 23:2 25:4 #
0.10000000000000000555111512312578 1:2 2:7 3:13 4:11 6:2 7:1 8:6 9:1 11:2 14:1 15:3 16:4 17:2 18:1 19:1 20:2 21:7 22:5 23:4 #
0.10000000000000000555111512312578 1:6 2:6 3:5 4:6 6:7 7:1 8:3 9:2 12:2 13:6 14:8 16:1 17:1 20:1 21:3 22:1 23:2 #
0.10000000000000000555111512312578 1:7 2:5 3:8 4:12 5:3 6:4 8:3 9:2 11:1 12:3 13:3 14:7 16:2 17:1 18:1 19:1 21:3 22:2 23:1 #
0.017846006998130267001689830408395 1:2 2:3 3:10 4:14 5:4 6:2 8:1 9:3 10:1 11:2 12:2 14:2 15:2 17:1 18:1 19:2 21:3 22:1 25:1 #
-0.10000000000000000555111512312578 2:1 3:6 4:7 5:2 6:1 14:1 15:1 18:1 20:1 24:1 25:1 #
-0.10000000000000000555111512312578 1:11 2:10 3:15 4:12 5:5 6:9 7:3 8:3 9:2 11:3 12:7 13:2 14:8 16:2 17:5 18:3 19:2 20:1 21:2 22:2 25:3 #
-0.051504380381844461211926500254776 1:11 2:6 3:11 4:13 5:5 6:2 7:1 8:4 9:4 10:1 11:1 14:5 16:1 17:4 18:4 19:1 21:3 22:1 #
0.06739079397937565441001339650029 1:9 3:6 4:8 5:2 7:2 8:2 10:1 11:2 12:5 13:4 14:1 16:1 17:2 19:3 21:3 25:1 #
0.10000000000000000555111512312578 1:9 2:7 3:10 4:6 5:5 6:2 7:4 8:4 10:3 11:1 12:1 13:1 14:2 16:2 17:2 18:3 19:5 21:3 22:1 23:1 #
0.10000000000000000555111512312578 1:6 2:3 3:4 4:7 5:5 7:1 8:2 11:2 12:1 13:1 14:3 15:1 16:2 17:2 19:1 21:3 24:1 25:2 #
-0.10000000000000000555111512312578 2:3 3:11 4:9 6:2 7:1 8:4 9:4 11:3 14:4 15:1 16:2 17:1 18:1 19:1 21:3 22:1 23:5 #
0.10000000000000000555111512312578 1:5 2:6 3:13 4:9 5:3 7:2 8:6 9:1 10:4 12:1 14:2 15:2 16:1 17:1 18:1 19:2 21:2 #
0.10000000000000000555111512312578 1:4 2:1 3:5 4:5 5:4 7:1 8:5 9:1 10:4 11:1 12:1 13:1 14:1 17:3 19:2 21:2 22:2 #
-0.10000000000000000555111512312578 1:10 2:4 3:11 4:7 5:9 6:1 7:2 8:5 9:3 12:2 13:1 14:2 15:1 16:3 17:1 18:2 19:3 20:1 21:2 25:2 #
-0.10000000000000000555111512312578 1:3 2:1 3:6 4:5 5:2 10:1 14:1 17:1 18:1 19:1 20:1 21:1 #
0.10000000000000000555111512312578 1:10 2:3 3:10 4:5 5:5 6:1 7:1 8:7 9:3 10:1 11:1 12:1 14:6 15:3 16:2 17:3 18:1 19:2 21:5 23:1 24:1 #
0.10000000000000000555111512312578 1:4 2:1 3:7 4:7 5:4 7:2 8:1 9:1 12:1 14:5 15:3 16:2 17:1 18:1 19:2 21:1 24:1 #
0.10000000000000000555111512312578 1:12 2:9 3:22 4:16 5:10 6:1 7:2 8:4 9:7 10:2 11:5 12:4 13:1 14:5 15:5 16:2 17:5 18:3 19:2 20:1 21:4 23:1 25:2 #
-0.03063089274853512955498757719397 1:5 2:1 3:7 4:4 5:3 6:1 7:1 9:1 10:1 11:2 14:2 17:1 20:1 25:1 #
0.10000000000000000555111512312578 1:1 2:3 3:5 4:5 5:2 8:3 9:3 10:1 12:2 13:2 14:3 15:1 16:3 17:2 19:1 20:1 24:2 #
-0.10000000000000000555111512312578 1:4 2:6 3:13 4:9 5:4 6:3 7:3 8:3 9:2 11:1 12:3 13:1 14:5 15:1 16:2 17:3 18:3 19:1 20:1 21:1 22:1 23:3 24:3 25:1 #
-0.10000000000000000555111512312578 1:3 2:3 3:7 4:5 5:3 6:3 8:1 13:1 14:4 15:1 16:1 18:2 19:2 #
0.10000000000000000555111512312578 1:1 2:1 3:4 4:6 6:1 8:1 9:1 14:2 15:1 17:1 18:1 19:1 #
-0.10000000000000000555111512312578 2:2 3:6 4:9 5:3 6:5 7:2 8:2 9:1 11:1 14:4 16:1 17:2 19:2 21:1 24:7 25:1 #
-0.10000000000000000555111512312578 1:1 2:9 3:11 4:10 5:3 6:2 7:3 8:9 9:2 10:2 11:4 12:1 13:1 14:6 15:1 16:1 17:6 18:2 19:1 20:1 21:3 22:3 23:1 24:8 #
0.10000000000000000555111512312578 2:3 3:1 4:5 5:3 7:1 8:2 9:1 11:1 13:1 16:1 18:1 19:1 21:1 22:1 23:1 24:2 #
0.10000000000000000555111512312578 1:1 2:2 3:3 4:2 5:1 6:1 8:1 10:1 12:1 13:1 16:1 17:1 18:2 21:1 24:2 #
0.10000000000000000555111512312578 1:4 2:11 3:10 4:6 5:6 6:1 7:2 8:2 9:1 12:1 13:2 14:4 15:1 16:3 17:5 18:4 19:4 20:1 21:4 22:1 23:2 25:1 #
0.10000000000000000555111512312578 1:5 2:3 3:10 4:11 5:2 6:3 7:1 8:4 9:2 10:1 11:2 12:3 13:2 14:5 16:1 17:1 18:1 19:2 20:1 21:4 23:6 25:1 #
0.10000000000000000555111512312578 1:3 2:2 3:3 4:4 5:1 8:2 12:1 14:3 16:1 17:1 18:1 19:2 21:1 25:1 #
0.10000000000000000555111512312578 1:2 2:2 3:7 4:4 5:2 6:2 8:7 9:4 11:1 13:1 14:1 15:1 17:1 18:2 19:1 22:1 #
0.10000000000000000555111512312578 1:1 2:6 3:10 4:7 5:6 6:2 8:4 10:2 12:1 13:1 14:5 15:2 16:4 17:3 18:3 19:1 22:1 24:6 25:1 #
0.10000000000000000555111512312578 1:9 2:5 3:6 4:12 5:5 6:3 7:1 8:6 9:3 10:1 11:1 12:3 14:6 15:1 16:3 17:4 18:1 19:2 21:7 22:1 #
0.10000000000000000555111512312578 1:1 2:5 3:29 4:23 5:4 6:3 7:2 8:5 9:2 10:1 11:2 12:1 14:6 15:2 16:1 17:4 18:1 19:2 21:2 23:5 24:3 25:2 #
-0.10000000000000000555111512312578 1:5 2:2 3:6 4:6 5:4 8:4 14:4 15:1 16:1 18:2 19:1 20:1 22:2 24:2 25:1 #
0.10000000000000000555111512312578 1:1 3:3 4:4 6:1 9:2 12:1 14:2 15:1 16:1 19:1 20:1 21:1 22:1 23:1 25:1 #
-0.10000000000000000555111512312578 1:8 2:3 3:11 4:7 5:6 6:2 8:4 9:4 10:2 11:2 12:3 14:6 15:1 17:4 18:1 19:3 20:1 21:3 22:1 #
0.10000000000000000555111512312578 2:7 3:5 4:16 5:2 6:5 8:2 9:4 11:1 14:7 15:1 16:4 17:2 19:1 23:6 #
-0.10000000000000000555111512312578 1:4 2:5 3:7 4:8 5:1 6:1 8:2 9:4 10:1 11:4 12:1 13:5 14:4 15:1 16:2 18:2 19:1 21:4 #
-0.10000000000000000555111512312578 1:8 2:3 3:14 4:17 5:2 6:3 7:1 8:5 9:2 11:1 12:2 13:3 14:4 16:1 17:3 20:1 21:3 22:1 23:3 #
-0.10000000000000000555111512312578 1:5 2:5 3:5 4:4 5:3 6:1 7:1 8:2 9:1 10:1 11:2 12:2 13:1 14:3 15:1 17:1 19:2 20:2 21:2 22:1 23:1 #
-0.10000000000000000555111512312578 1:6 2:1 3:7 4:8 5:3 6:2 7:1 8:2 9:3 11:1 12:1 14:2 15:1 19:2 20:1 21:2 #
-0.10000000000000000555111512312578 1:1 2:2 3:4 4:6 5:2 8:1 9:1 10:1 12:2 15:1 16:1 17:1 19:2 20:2 21:2 24:2 25:2 #
0.10000000000000000555111512312578 1:1 2:2 3:2 4:4 5:1 6:1 7:1 10:1 24:1 #
-0.10000000000000000555111512312578 1:10 2:3 3:8 4:7 5:2 8:2 10:1 11:2 12:1 13:1 14:3 15:1 17:3 18:1 19:3 20:2 21:3 22:1 25:3 #
-0.10000000000000000555111512312578 1:2 2:4 3:5 4:7 5:1 6:1 8:1 9:2 10:1 13:1 14:1 15:1 17:1 19:2 20:2 21:1 23:1 #
0.10000000000000000555111512312578 2:3 3:6 4:8 6:3 8:4 9:3 11:2 13:1 14:2 15:2 16:1 17:4 21:1 22:1 23:1 #
0.10000000000000000555111512312578 1:7 2:5 3:12 4:14 5:7 6:5 7:1 8:7 9:2 10:1 11:1 12:2 14:3 15:1 16:1 17:3 18:2 22:2 24:9 25:1 #
0.10000000000000000555111512312578 1:1 2:2 3:3 4:4 5:1 6:2 7:1 8:2 14:1 16:1 22:1 25:1 #
-0.047396860632091003528998385263549 1:1 2:3 3:11 4:12 5:5 6:3 8:5 10:1 11:1 13:1 14:1 15:1 16:4 18:3 #
0.10000000000000000555111512312578 1:6 2:3 3:8 4:9 5:5 6:1 8:5 10:1 12:3 14:6 15:1 16:1 17:2 18:2 19:2 21:1 22:2 #
0.10000000000000000555111512312578 1:5 2:3 3:3 4:5 5:2 8:3 10:1 12:1 16:2 17:1 18:2 20:1 22:2 23:1 25:1 #
-0.082006996528395770251762542102369 1:4 2:3 3:7 4:7 6:1 8:4 9:4 11:1 12:1 14:1 16:2 18:1 19:2 20:2 22:2 23:3 #
