SVM-light Version V6.02
0 # kernel type
3 # kernel parameter -d 
1 # kernel parameter -g 
1 # kernel parameter -s 
1 # kernel parameter -r 
empty# kernel parameter -u 
8831 # highest feature index 
562 # number of training documents 
433 # number of support vectors plus 1 
0.10895877 # threshold b, each following line is a SV (starting with alpha*y)
-0.0069313450060686475351356961027705 1:1 2:1 3:3 4:1 5:2 6:1 7:1 8:1 9:3 10:2 11:1 12:1 13:1 14:1 15:3 16:1 17:1 18:1 19:2 20:1 21:1 22:1 23:1 24:3 25:1 26:1 27:1 28:2 29:1 30:1 31:1 32:2 33:1 34:1 35:2 36:1 37:1 38:1 39:1 40:1 41:1 42:1 43:1 44:1 45:1 46:1 47:1 48:1 49:1 50:1 51:1 52:1 53:1 54:1 55:1 56:1 57:1 58:1 59:1 60:1 61:2 62:1 63:1 64:1 65:1 66:2 67:1 68:1 69:1 70:2 71:2 72:1 73:1 74:1 75:1 76:1 77:1 78:1 79:1 80:1 81:1 82:1 83:1 84:1 85:1 86:1 87:1 88:1 89:1 90:1 91:1 #
-0.0085960560076051694550214321566273 10:2 11:1 22:2 24:3 59:1 96:4 117:1 129:1 151:1 152:1 153:1 154:1 155:1 156:1 157:4 158:2 159:1 160:1 161:1 162:1 163:1 164:1 165:1 166:1 167:1 168:2 169:1 170:1 171:1 172:1 173:1 174:1 175:1 176:1 177:1 #
-0.0025689654770599838415345850251015 4:1 10:1 13:1 14:1 18:1 28:5 48:2 50:1 51:1 80:1 81:1 87:1 89:2 96:2 104:1 108:1 112:1 114:1 121:1 129:2 140:1 145:2 156:1 175:1 198:1 200:2 203:1 205:2 207:1 208:1 224:1 225:2 226:1 227:1 228:2 229:1 230:1 231:1 232:1 233:1 234:1 235:1 236:1 237:1 238:1 239:1 240:1 241:1 242:1 243:1 244:1 245:1 246:1 247:1 248:1 249:1 250:1 251:1 252:2 253:1 254:2 255:1 256:1 257:1 258:1 259:1 260:2 261:1 262:1 263:1 264:1 265:2 266:1 267:1 268:1 269:1 270:1 271:1 272:1 273:1 274:1 275:1 276:1 277:1 278:1 279:2 280:1 281:1 282:1 283:1 284:1 285:1 286:1 287:1 288:1 289:1 290:1 291:1 292:1 293:1 294:1 295:1 296:1 #
0.0056894995658120324152906555070786 10:1 28:4 49:1 66:1 78:2 96:2 98:1 104:1 145:1 174:1 189:1 205:1 269:1 337:1 351:1 385:3 394:1 406:1 473:1 479:1 484:1 552:1 567:1 594:1 698:1 746:1 779:1 843:1 880:1 922:1 924:1 929:1 1128:1 1231:1 1637:1 1770:1 1845:1 1859:1 1879:1 2118:1 2169:1 2215:1 2329:1 2416:1 2732:1 2831:1 2930:1 3459:1 3592:1 3751:1 4090:1 4978:1 5344:1 6828:1 7440:1 7441:1 7442:1 7443:1 7444:1 7445:1 #
-0.0082549647523544600336009580132668 24:2 28:2 34:1 82:1 96:1 104:1 147:1 234:1 235:1 236:1 241:1 242:1 247:1 259:1 285:1 325:1 467:1 468:1 505:2 553:1 790:1 877:1 916:1 1101:1 1456:1 1637:1 1809:1 2126:1 2236:1 2994:1 3241:1 #
0.0085960560076051694550214321566273 3:1 28:1 29:1 43:1 51:1 59:2 66:3 90:2 102:1 118:1 121:1 129:1 140:1 264:1 265:1 275:1 279:2 325:1 326:1 335:1 342:1 365:1 370:1 410:1 427:1 454:1 455:1 456:1 457:1 458:1 459:1 460:1 461:1 462:1 463:1 464:1 465:1 466:1 467:1 468:1 469:1 470:1 471:1 472:1 473:1 474:1 475:1 476:1 477:1 478:1 479:1 480:1 481:1 482:1 483:1 484:1 485:1 486:1 487:1 488:1 489:1 490:1 491:1 #
0.0040097078097831454282506946640297 11:1 22:1 24:1 28:4 35:1 40:1 43:1 58:1 66:1 81:1 89:1 104:1 118:1 129:2 134:1 141:1 156:1 162:1 168:1 175:1 198:1 203:1 211:1 230:1 251:1 262:1 269:1 278:2 291:1 327:1 371:1 444:1 494:1 556:1 627:1 685:1 703:1 704:1 705:1 706:1 707:1 708:1 709:1 710:1 711:1 712:1 713:1 714:1 715:1 716:1 717:1 718:1 719:1 720:2 721:1 722:1 723:1 724:1 725:1 726:1 727:1 728:1 729:1 730:1 731:1 732:1 733:1 734:1 735:1 736:1 737:1 738:1 739:1 740:1 741:1 742:1 743:1 744:1 745:1 746:1 747:1 748:1 749:1 750:1 751:1 752:1 753:1 754:1 755:1 756:1 #
0.0085960560076051694550214321566273 22:1 28:1 50:1 73:1 89:1 93:1 96:5 104:1 108:1 141:1 169:1 174:3 233:1 238:1 286:2 402:1 473:1 567:1 697:1 821:1 848:1 849:1 850:1 851:1 852:1 853:2 854:1 855:1 856:1 857:1 858:2 859:1 860:1 861:1 862:2 863:1 864:1 #
0.0085960560076051694550214321566273 5:1 6:1 15:1 24:2 28:3 34:1 41:1 51:2 61:1 66:1 96:1 104:1 145:1 153:1 161:1 171:1 174:1 177:1 200:1 216:2 227:1 265:1 276:1 278:1 285:1 289:1 335:1 337:1 496:1 506:1 545:1 562:1 685:1 708:1 720:1 721:1 723:1 768:1 779:1 791:1 819:2 823:1 865:1 866:2 867:1 868:1 869:1 870:1 871:1 872:1 873:1 874:2 875:1 876:2 877:1 878:1 879:1 880:1 881:1 882:1 883:1 #
0.0085960560076051694550214321566273 28:1 44:1 96:1 116:1 150:1 165:1 235:1 259:1 265:1 278:1 337:1 351:1 360:1 410:1 629:1 929:1 930:1 931:1 932:1 933:1 934:1 935:1 936:1 937:1 938:1 939:1 940:1 941:1 942:1 943:1 944:1 945:1 #
-0.0085960560076051694550214321566273 5:1 11:1 24:1 36:1 96:1 98:1 104:1 108:1 174:2 186:1 201:1 211:1 456:1 545:1 546:1 567:1 568:1 629:1 654:1 660:1 667:1 708:2 720:3 828:1 834:1 849:1 862:1 886:1 934:1 971:1 1178:1 1406:1 2449:1 2866:1 3313:1 3610:1 3646:1 3647:1 3648:1 3649:1 3650:1 3651:1 3652:1 #
-0.0085960560076051694550214321566273 11:1 28:1 97:1 102:1 118:1 149:1 150:1 156:1 161:1 259:1 277:1 278:1 337:1 473:1 567:1 746:1 862:1 874:1 887:1 905:1 1314:1 1366:1 1411:1 1461:2 1518:1 1837:1 2319:1 2824:1 7660:1 8517:1 #
-0.0085960560076051694550214321566273 28:1 102:1 174:1 410:1 479:1 484:1 486:1 491:1 1062:1 1350:1 1366:1 1670:1 2438:1 2551:1 2552:1 2553:1 #
-0.0085960560076051694550214321566273 28:1 29:1 66:1 90:1 96:1 129:1 150:1 174:2 261:1 264:1 265:1 279:1 304:1 386:1 468:1 484:1 557:1 727:1 790:1 853:1 1610:1 1663:1 1704:1 2788:1 4067:1 6253:1 6490:1 6491:1 #
0.0055666142050244211622600509770109 5:1 9:1 10:5 11:1 15:1 24:4 28:8 34:2 41:2 44:1 47:1 50:1 51:1 52:1 58:2 63:1 66:1 68:2 72:1 73:1 75:1 78:2 81:2 82:1 90:3 96:7 104:5 108:4 116:1 118:1 123:2 124:1 141:1 145:1 149:1 156:4 161:4 165:1 173:2 174:3 175:1 200:4 203:2 204:3 205:3 211:1 212:2 225:2 226:1 228:3 230:4 231:1 234:1 235:1 236:2 245:1 259:1 265:1 275:2 278:2 289:1 292:1 293:1 299:1 305:1 312:1 317:1 327:1 337:3 348:1 369:1 379:1 385:1 386:3 391:1 393:1 398:1 400:1 407:1 410:1 416:1 427:1 457:1 464:2 468:4 474:1 506:1 521:1 524:1 525:1 526:1 541:2 545:2 553:1 567:1 572:1 575:1 580:1 588:3 636:1 659:1 660:1 663:1 666:1 676:1 682:1 689:1 705:1 750:1 803:1 811:1 821:1 823:1 828:2 830:1 836:1 838:1 839:1 843:1 849:1 858:1 862:1 864:1 877:1 878:2 881:1 886:2 906:1 964:1 971:1 993:1 998:1 1041:2 1062:1 1066:1 1067:2 1077:2 1080:4 1087:1 1097:1 1098:1 1133:1 1152:1 1153:2 1187:1 1204:1 1257:1 1333:1 1334:1 1338:2 1364:1 1371:1 1380:2 1410:1 1411:1 1457:1 1461:1 1470:1 1471:1 1533:1 1577:3 1618:1 1629:1 1634:1 1644:1 1661:1 1667:1 1777:1 1802:1 1812:1 1813:1 1820:1 1845:1 1850:1 1861:1 1959:1 1960:1 2004:2 2076:2 2126:1 2149:1 2277:1 2290:1 2301:1 2376:1 2420:1 2437:1 2462:1 2480:1 2490:1 2536:1 2539:1 2551:1 2576:2 2608:1 2637:1 2683:1 2726:1 2740:1 2841:1 2941:1 3000:1 3086:1 3138:1 3171:1 3176:1 3204:1 3269:1 3348:1 3416:1 3443:1 3541:1 3655:1 3680:1 3718:1 3719:1 3721:1 3840:1 3852:1 3955:1 4000:1 4186:1 4343:1 4521:1 4700:1 4930:1 5044:1 5089:2 5143:1 5154:1 5400:1 5408:1 5615:1 5693:1 5756:1 5813:3 5848:1 5975:1 6125:1 6265:1 6266:1 6267:1 6268:1 6269:1 6270:1 6271:1 6272:1 6273:1 6274:1 6275:1 6276:1 6277:1 6278:1 6279:1 6280:1 6281:1 6282:1 6283:1 6284:1 6285:1 6286:1 6287:1 6288:1 6289:1 6290:1 6291:1 6292:1 6293:1 6294:1 6295:1 6296:1 6297:1 6298:1 6299:1 6300:1 6301:1 6302:1 6303:1 6304:1 6305:1 6306:1 6307:1 6308:1 6309:1 6310:1 6311:1 6312:1 6313:1 6314:1 6315:1 6316:1 6317:1 6318:1 6319:1 6320:1 6321:1 6322:1 6323:1 6324:1 6325:1 6326:1 6327:1 6328:1 6329:1 6330:1 #
0.0077865004185885986973114647469174 10:1 11:1 13:2 19:1 24:1 28:7 34:1 38:1 42:1 61:1 62:1 66:2 77:2 78:2 80:1 93:1 96:7 102:2 104:4 108:1 116:1 117:2 129:2 141:1 145:3 147:1 149:1 152:1 156:1 161:1 168:1 174:2 197:1 200:1 203:2 204:6 205:5 206:1 207:2 216:1 220:1 221:1 222:2 225:1 226:2 230:1 233:1 235:1 251:1 252:1 265:2 273:1 279:1 285:4 290:1 295:1 304:1 319:1 342:1 351:1 358:1 367:1 371:1 373:1 397:1 410:2 433:1 448:1 468:3 493:1 505:1 506:3 524:1 537:1 538:1 543:2 545:1 552:1 553:2 567:1 568:1 658:1 712:1 719:1 720:1 772:1 839:1 862:1 950:1 968:1 981:1 985:1 1024:1 1159:1 1184:1 1255:1 1263:1 1285:1 1294:1 1376:1 1411:1 1417:1 1609:1 1613:1 1618:1 1623:1 1676:1 1678:1 1870:1 1983:1 2050:1 2058:3 2065:1 2220:1 2322:1 2323:1 2324:1 2325:1 2326:1 2327:1 2328:1 2329:1 2330:2 2331:1 2332:1 2333:1 2334:1 2335:1 2336:1 2337:1 2338:1 2339:1 2340:1 2341:1 2342:1 2343:1 2344:1 2345:1 2346:1 2347:1 2348:1 2349:1 2350:1 2351:1 2352:1 2353:1 2354:1 #
0.0078272192172947063770749309696839 3:1 28:6 31:2 43:1 77:1 96:1 98:1 130:2 141:2 161:2 200:1 203:2 225:4 267:1 285:2 296:2 299:1 326:2 330:1 386:1 407:1 464:1 482:1 501:1 509:1 690:1 709:1 746:2 967:1 969:1 1135:1 1563:1 1691:2 2017:1 2051:1 2126:1 2562:1 2649:1 2917:2 3611:1 3720:1 4573:1 5994:1 6471:1 6472:1 6473:1 6474:1 6475:1 #
0.0085960560076051694550214321566273 3:1 11:1 24:1 31:2 34:3 36:1 56:1 58:1 63:1 77:1 78:3 80:1 90:1 96:5 100:1 104:2 123:1 129:2 137:1 140:1 144:1 159:1 171:1 174:4 201:1 203:2 204:2 205:1 206:1 220:1 230:1 231:2 242:1 267:1 282:1 285:1 344:1 348:1 360:1 388:2 443:1 444:1 454:1 500:1 510:1 513:2 521:1 541:2 545:1 554:1 574:1 588:1 601:2 613:1 620:1 627:1 636:1 652:1 659:1 663:2 698:2 746:1 750:1 751:1 805:1 836:1 840:1 846:1 862:1 877:1 905:1 921:1 937:1 950:1 1084:1 1157:1 1220:1 1296:1 1301:1 1329:1 1343:2 1416:1 1419:1 1527:1 1535:1 1575:1 1580:1 1619:1 1663:2 1690:1 1691:1 1695:2 1696:2 1714:1 1753:1 2158:1 2169:1 2237:1 2468:1 2507:1 2580:2 2600:1 2608:2 2898:1 2905:1 2980:1 3026:1 3030:1 3034:1 3398:1 3553:1 3554:1 3555:1 3556:2 3557:1 3558:1 3559:2 3560:2 3561:1 3562:1 3563:1 3564:1 3565:1 3566:1 3567:1 3568:1 3569:1 3570:1 3571:1 3572:1 3573:1 #
0.0033582375809261930284244090927359 3:1 5:1 11:1 14:1 15:2 19:1 20:1 28:10 29:1 34:2 43:1 51:1 59:1 63:1 66:1 73:1 76:2 77:1 78:2 80:1 81:3 89:1 96:4 98:1 100:1 104:4 122:1 133:1 140:1 145:1 149:1 150:1 156:1 161:1 168:1 174:2 200:1 201:1 203:2 222:1 225:2 228:1 234:2 236:2 237:1 242:1 258:1 265:1 273:2 285:1 304:2 311:1 313:1 318:1 325:1 327:1 336:1 376:1 386:1 403:1 410:1 420:1 437:1 438:1 441:2 443:1 444:1 463:1 506:1 507:3 510:2 521:1 553:1 555:1 620:2 623:1 660:1 672:1 717:1 725:1 753:1 848:1 873:1 879:1 880:1 909:2 924:1 937:3 942:2 969:1 973:1 1010:2 1157:3 1169:1 1234:1 1248:2 1293:1 1325:1 1339:1 1374:1 1411:1 1416:1 1518:1 1528:1 1603:1 1618:1 1667:1 1692:1 1693:2 1840:2 1886:1 2014:4 2088:1 2159:1 2162:1 2193:1 2230:1 2403:1 2458:1 2557:1 2682:1 2728:1 3183:1 3184:1 3185:1 3186:1 3187:2 3188:1 3189:1 3190:1 3191:2 3192:1 3193:1 3194:1 3195:1 3196:1 3197:1 #
-0.0055500610492937151735359790905022 3:1 9:2 11:2 13:1 15:1 28:13 43:4 48:2 51:1 64:1 66:1 77:3 78:5 80:3 81:3 87:1 96:4 100:1 104:2 107:1 108:1 124:1 145:3 149:3 150:1 156:1 161:1 169:1 182:1 185:1 201:3 203:2 204:1 205:2 208:1 218:3 222:1 225:2 226:1 228:1 234:1 235:2 236:1 248:1 258:3 259:1 260:1 264:2 265:1 269:1 271:1 275:1 276:1 277:1 278:3 281:2 285:2 289:2 296:1 299:1 305:1 318:2 330:1 345:1 350:1 367:2 369:2 410:2 420:1 427:2 435:1 438:1 444:1 454:1 456:1 457:1 472:2 474:3 478:1 482:1 489:1 505:1 506:1 510:1 520:1 521:1 536:1 537:1 540:1 545:2 547:2 572:1 573:2 607:1 620:2 644:2 649:1 651:3 660:1 694:1 737:2 775:1 787:1 839:1 878:1 880:1 904:2 924:2 927:2 969:1 984:1 1031:1 1062:1 1084:6 1211:1 1256:1 1312:3 1338:1 1376:2 1382:1 1383:1 1416:3 1423:1 1467:1 1484:3 1496:1 1509:1 1543:1 1581:2 1599:1 1629:1 1692:2 1708:1 1710:1 1739:1 1750:1 1836:1 1839:1 1886:2 1918:1 2158:1 2168:2 2221:1 2223:1 2295:1 2335:1 2393:1 2562:1 2740:2 2754:1 2761:1 2767:2 2797:1 2912:1 2994:2 3017:2 3037:1 3091:2 3104:1 3716:1 3769:1 3775:1 3817:1 3901:1 4168:1 4291:1 4469:1 4552:1 4826:1 5002:1 5323:1 6221:1 6307:1 6323:1 6931:1 7419:1 7608:1 7609:1 7610:1 7611:2 7612:1 7613:1 7614:1 7615:1 7616:1 7617:1 7618:2 7619:1 7620:1 7621:1 7622:1 7623:1 7624:1 #
-0.0085960560076051694550214321566273 14:1 28:2 43:1 96:1 104:2 145:2 174:1 197:1 226:1 234:1 252:1 505:1 538:1 739:1 855:1 861:1 998:1 1122:1 1262:1 1335:1 1766:1 2454:1 2524:1 2836:1 3281:1 3744:1 5335:1 5336:1 5337:1 5338:1 5339:1 5340:1 5341:1 5342:1 #
0.0085960560076051694550214321566273 19:1 28:3 36:1 66:1 78:1 80:3 81:3 96:1 129:1 149:1 161:2 200:1 203:1 217:1 258:1 271:1 274:1 304:1 506:1 644:1 732:1 738:1 750:1 788:1 823:1 832:1 843:1 1014:1 1248:1 1308:1 1433:1 1813:1 2069:1 2191:1 2394:1 2724:1 2926:1 3064:1 3318:1 3353:2 3354:1 3355:1 3356:1 3357:1 3358:1 3359:1 3360:1 3361:1 3362:1 3363:1 3364:1 3365:1 3366:1 #
0.0085960560076051694550214321566273 28:1 85:1 96:1 102:1 174:1 190:1 222:1 245:1 277:1 508:1 644:1 660:1 853:1 1028:1 1458:1 1741:1 1742:1 1753:1 2394:1 2462:1 3693:1 4163:1 6761:1 7032:1 7033:1 7034:1 7035:1 7036:1 #
-0.0068553447440545169783154832998662 11:2 19:1 22:1 28:9 40:1 43:1 48:1 58:1 67:1 72:1 77:2 78:7 89:3 96:5 108:1 129:1 149:6 150:1 161:1 173:1 190:1 200:1 204:1 205:2 228:2 231:1 235:4 236:1 242:1 248:1 251:1 267:1 275:2 279:1 296:1 304:1 310:2 318:2 325:2 326:1 330:2 336:2 348:2 351:1 380:1 386:1 391:1 398:2 444:1 471:1 483:1 496:1 506:2 508:1 512:1 528:1 531:1 536:1 547:3 557:1 572:2 587:1 607:1 654:1 688:1 712:1 746:1 750:3 762:1 772:2 775:1 788:1 806:1 828:1 880:1 950:2 955:2 1010:1 1049:1 1162:1 1211:2 1231:1 1270:1 1283:1 1344:1 1376:2 1411:1 1416:2 1421:1 1427:1 1471:1 1545:1 1720:1 2000:1 2065:1 2158:1 2263:1 2277:1 2630:1 2634:1 2902:1 2917:1 2995:1 3310:1 3311:1 3312:1 3313:1 3314:1 3315:1 3316:1 3317:1 3318:1 3319:2 3320:2 3321:1 3322:2 3323:1 3324:1 3325:1 3326:1 3327:1 #
0.0085960560076051694550214321566273 5:2 10:3 11:2 12:1 26:1 38:3 39:1 66:2 85:1 86:1 87:1 89:1 96:2 108:1 116:1 123:1 144:1 145:1 173:1 251:1 285:1 327:1 367:1 400:1 471:1 536:1 538:1 547:1 554:1 567:1 573:1 633:1 711:1 775:1 905:1 944:1 984:1 1119:1 1159:1 1162:1 1211:1 1416:1 1421:1 1457:2 1606:1 1701:1 1710:1 1785:1 1797:1 1862:1 1973:1 2163:1 2175:1 2293:1 2496:1 2659:1 2724:1 2728:1 2804:1 2996:1 3086:1 3129:1 3242:1 4220:1 4552:1 4755:1 4847:1 5196:1 5508:1 5808:1 5809:1 5810:1 5811:1 5812:1 5813:2 5814:1 5815:1 5816:1 5817:3 5818:3 5819:2 5820:1 5821:1 5822:1 5823:1 5824:1 5825:1 5826:1 5827:1 5828:1 5829:1 5830:1 5831:1 #
0.0085960560076051694550214321566273 4:2 9:1 15:1 26:1 38:1 80:1 87:1 96:1 141:1 265:1 351:1 567:1 572:1 574:1 626:1 689:1 762:1 994:1 995:1 1138:1 1165:1 1269:3 1411:1 1736:1 1778:1 1898:1 1972:1 3258:1 3323:1 5467:1 6605:1 7310:1 7311:1 7312:1 7313:1 7314:1 #
0.0085960560076051694550214321566273 3:1 9:1 10:2 14:1 15:2 24:3 25:2 34:1 63:1 67:2 77:1 78:2 96:2 104:1 108:1 112:2 129:2 130:1 156:2 174:2 201:3 209:1 211:1 259:1 260:3 275:1 289:1 304:1 319:1 336:3 369:1 438:2 444:1 505:2 528:1 595:1 623:1 643:1 644:1 652:1 700:1 848:1 853:1 899:2 1012:2 1310:1 1383:1 1395:1 1618:1 1661:1 1738:1 2037:1 2159:1 2184:3 2235:1 2539:1 2659:1 2754:1 3118:1 3125:1 3210:1 3504:2 3680:1 4238:1 4594:1 5143:1 5346:1 5841:1 6630:1 6744:1 7568:1 7810:1 7811:1 7812:2 7813:1 7814:1 7815:1 7816:1 7817:1 7818:1 7819:1 7820:1 7821:1 7822:1 7823:1 7824:1 7825:1 7826:1 7827:1 #
0.0085960560076051694550214321566273 3:1 4:1 10:2 11:2 15:2 19:1 20:1 24:2 28:1 48:1 58:1 63:1 75:1 78:1 88:1 108:1 129:1 149:1 156:2 189:1 211:1 231:1 239:1 259:4 265:1 279:1 304:1 308:1 351:2 410:1 466:1 555:1 567:1 569:1 685:1 749:2 821:1 877:1 897:1 929:1 934:1 1113:1 1295:1 1475:1 1479:1 1484:1 1543:1 1608:1 1709:1 1913:1 2275:1 2407:1 2424:1 2773:1 3092:1 3257:1 3396:1 3457:1 3717:1 4847:1 5529:1 5535:1 6624:1 8157:1 8158:1 8159:1 8160:1 8161:1 8162:1 8163:1 8164:1 #
0.0085960560076051694550214321566273 11:1 12:2 96:1 100:1 106:1 112:1 150:1 174:1 181:1 265:1 291:1 304:1 471:1 516:2 586:1 622:1 697:1 940:1 1211:1 1395:1 1441:1 1496:1 1545:1 2133:1 2449:1 2528:1 2747:1 2896:1 3331:2 4725:1 5966:1 6819:1 6820:1 6821:1 6822:1 6823:1 6824:1 #
-0.0048505976597653498866291599256328 16:1 24:1 28:1 34:1 51:2 67:1 81:1 96:1 104:4 122:2 140:1 141:1 142:1 168:1 174:1 185:1 195:1 202:1 230:1 232:1 241:1 251:1 265:1 318:1 320:2 379:2 403:1 405:1 425:1 426:1 436:2 437:2 438:1 493:4 509:1 523:1 598:1 687:1 690:1 758:1 775:1 827:1 846:2 855:2 920:2 945:1 1153:2 1222:1 1226:2 1302:1 1318:1 1336:2 1441:1 1442:1 1443:1 1444:1 1445:1 1446:1 1447:2 1448:1 1449:2 1450:1 1451:1 1452:1 1453:1 1454:1 1455:1 1456:1 1457:1 1458:1 1459:1 #
-0.0085960560076051694550214321566273 34:1 58:1 87:1 104:1 114:1 124:1 174:1 222:1 265:1 289:1 327:1 410:1 434:1 439:1 567:1 654:1 811:1 874:1 1018:1 1127:1 1153:1 1338:1 1455:1 1555:1 1663:1 2076:1 2112:1 2192:1 2437:1 2438:1 2608:1 2622:1 3724:1 3947:1 6212:1 6225:1 6581:1 7403:1 #
-0.0085960560076051694550214321566273 67:1 78:1 96:2 174:1 204:1 205:1 246:1 285:1 410:1 434:1 682:1 727:1 728:1 862:1 871:1 1386:1 1394:1 1457:1 1983:1 2340:1 3273:1 3274:1 3275:1 3278:1 3279:1 3680:1 5031:1 5223:1 8035:1 8036:1 8037:1 8038:1 #
-0.0050544636198814598890272087317044 4:1 14:1 24:1 28:1 34:1 56:1 96:1 104:1 108:1 117:1 145:1 169:1 203:1 204:1 205:1 207:1 218:1 227:1 231:1 251:1 265:3 299:1 305:1 308:1 320:1 330:1 373:1 410:1 413:1 501:1 545:1 572:1 680:1 690:1 698:1 772:1 849:1 886:1 998:1 1066:2 1113:1 1153:1 1377:1 1390:1 1578:1 1678:1 1948:1 2017:1 2669:1 2798:1 4367:1 5113:1 5966:1 6104:1 7475:1 7476:1 7477:1 7478:1 7479:1 7480:1 7481:1 #
0.0085960560076051694550214321566273 3:1 24:1 28:4 38:1 48:1 61:1 62:1 63:1 66:1 67:1 71:1 77:1 78:4 80:1 81:1 89:1 104:1 157:3 159:1 161:1 174:1 189:1 205:1 206:1 211:1 235:3 236:1 242:2 243:1 274:1 304:1 325:1 410:1 540:1 545:1 567:1 607:1 644:1 652:1 654:1 697:1 834:1 872:1 907:1 950:1 967:2 1031:1 1127:1 1135:1 1416:2 1495:1 1634:1 2354:1 2532:1 2625:1 2994:1 3125:1 3169:1 3210:1 3612:1 3613:2 3614:1 3615:1 3616:1 3617:1 3618:1 #
0.0011501493920359369665246118685786 4:1 13:1 15:3 28:5 31:1 48:1 52:2 58:2 63:1 75:1 76:1 77:1 78:4 82:1 87:1 89:1 96:4 97:4 107:1 108:1 129:1 140:3 150:2 161:4 168:1 174:2 203:2 204:2 205:2 225:2 234:1 235:4 236:2 262:1 264:2 265:3 281:1 303:1 304:1 319:1 325:1 326:3 327:1 350:1 369:4 386:1 388:1 444:1 445:1 452:1 468:1 491:1 535:1 557:1 568:1 604:2 607:1 620:1 622:1 639:1 717:8 726:1 732:1 750:1 762:1 772:1 830:1 844:1 862:1 924:1 944:1 950:1 1080:1 1082:1 1221:1 1343:1 1376:2 1419:1 1504:1 1619:1 1695:4 1712:1 1724:1 1775:2 1838:1 1842:1 1916:2 1971:2 1991:1 2133:1 2146:3 2172:1 2204:1 2240:1 2295:1 2407:2 2671:1 2904:1 3092:1 3168:1 3330:1 3662:1 4023:1 4067:1 4642:1 4722:2 5188:1 5630:1 5631:1 5632:1 5633:1 5634:1 5635:1 5636:1 5637:1 5638:1 5639:1 5640:1 5641:1 5642:1 5643:1 5644:1 5645:1 #
0.0028851187197905560355426501928378 3:1 4:1 5:1 9:1 10:3 11:1 28:1 37:1 56:2 78:1 90:1 96:1 98:2 102:1 118:1 129:2 130:1 149:1 161:1 174:1 200:1 211:2 265:1 285:1 426:1 444:1 452:1 464:2 482:1 536:1 547:1 576:2 604:3 613:1 622:1 707:2 720:1 748:1 843:2 907:1 912:1 1012:1 1018:1 1111:1 1211:1 1379:2 1390:1 1473:1 1477:1 1677:1 1903:2 1950:1 2295:1 2557:2 2562:1 2632:1 2755:1 3204:1 4603:2 6593:1 6987:1 7322:1 7719:1 7799:1 8455:1 8456:1 8457:2 8458:1 8459:1 8460:1 8461:1 8462:1 8463:1 8464:1 8465:1 8466:1 #
-0.0021954794935286651644257283066963 18:1 28:8 33:1 34:2 36:1 58:2 65:1 66:3 67:1 78:1 80:1 81:1 89:1 94:1 96:1 104:1 106:1 112:1 116:1 129:2 140:1 149:1 156:1 161:4 165:1 174:1 175:2 197:1 201:1 218:1 228:1 231:1 235:3 248:1 251:1 275:2 288:1 291:1 317:1 319:1 330:1 351:1 386:1 388:1 395:2 408:1 433:1 466:1 483:1 494:1 496:1 541:1 545:1 554:1 575:1 588:1 600:2 685:2 698:2 728:1 736:2 737:1 751:1 772:1 780:1 798:1 832:1 877:3 880:3 984:1 1010:1 1018:1 1037:1 1070:1 1244:1 1370:1 1374:1 1390:1 1411:1 1440:1 1484:1 1605:1 1618:1 1629:1 1765:1 1894:1 1967:1 2019:1 2188:1 2247:1 2437:1 2462:1 2486:2 2632:1 2687:1 2775:1 2800:1 2841:1 3181:1 3342:1 3361:1 3490:1 3744:1 3801:1 3848:1 3881:1 4203:1 4224:1 4368:1 4402:1 4668:1 5101:1 5578:1 6610:1 6677:1 7014:1 7015:1 7016:1 7017:1 7018:1 7019:1 7020:1 7021:1 7022:1 7023:1 #
-0.0046990745412260632313250496849832 10:2 19:1 25:2 26:1 28:6 34:1 38:1 66:3 77:1 78:3 80:1 81:1 93:1 96:7 104:2 108:2 112:1 117:1 121:1 162:1 168:1 174:3 185:1 189:2 200:2 216:1 229:1 230:1 233:1 265:1 279:1 295:1 310:1 312:1 325:1 330:1 380:1 427:1 452:1 453:1 468:1 471:1 496:2 520:1 537:1 538:1 545:1 575:1 607:1 639:1 762:1 823:1 849:1 862:1 880:1 919:1 1062:3 1067:2 1127:1 1146:1 1165:1 1231:1 1287:1 1374:1 1426:1 1605:2 1612:1 1621:1 1644:1 1694:1 1836:1 2237:1 2281:1 2438:1 2532:1 2833:1 3214:1 4072:1 4207:1 4267:1 4368:1 4645:1 4718:1 5166:1 5357:1 6075:1 6094:1 6204:1 6205:1 6206:1 6207:1 6208:1 6209:1 6210:1 6211:1 #
0.0079576051328891558162004216114838 11:1 15:2 28:2 29:2 34:1 44:1 52:1 53:1 90:1 96:1 104:1 106:1 108:1 116:1 122:1 123:2 140:1 156:1 161:1 165:1 166:1 174:1 175:1 237:1 241:1 260:1 265:1 299:1 337:1 464:1 473:1 494:2 559:1 567:1 580:1 624:1 694:1 695:1 698:1 768:1 797:1 887:2 918:1 929:1 944:1 990:1 1024:1 1143:1 1165:1 1575:1 1643:1 1686:1 1710:1 1850:2 1885:1 1952:1 2021:1 2051:1 2113:1 2515:1 2885:1 3396:1 3610:1 3696:1 4319:1 4420:1 4555:1 5884:1 5885:1 5886:1 5887:1 5888:1 5889:1 5890:1 5891:1 5892:1 5893:1 5894:1 5895:1 #
0.0085960560076051694550214321566273 58:1 96:1 116:1 130:1 140:1 145:1 166:1 168:1 174:1 175:2 177:1 195:1 235:1 239:1 245:1 282:1 285:1 304:1 350:1 426:1 467:2 500:1 536:1 604:1 697:2 776:1 790:1 927:1 1036:1 1062:1 1319:1 1352:1 1861:1 2000:1 2193:1 2550:1 2826:1 3195:1 3220:1 3454:1 3629:1 3853:1 4644:1 5760:1 7095:1 8351:1 8352:1 8353:1 8354:1 8355:1 8356:1 8357:1 #
0.0085960560076051694550214321566273 13:3 19:1 28:1 31:1 61:2 66:1 80:1 96:2 129:1 130:1 174:1 241:1 320:1 321:1 330:1 388:1 406:1 486:1 489:1 537:1 574:1 683:1 712:1 720:1 824:1 855:1 862:1 880:1 914:1 924:1 1231:1 1306:1 1318:1 1336:1 1797:1 1817:1 1845:1 1924:1 2069:1 2165:1 2298:1 2386:1 2454:1 2888:1 2980:1 3408:1 3435:1 6296:1 7646:1 7647:1 7648:1 7649:1 7650:1 #
0.0085960560076051694550214321566273 3:3 9:1 15:1 20:2 34:2 43:2 47:1 51:1 87:1 94:1 96:4 100:1 116:1 152:1 171:1 174:1 200:1 225:1 228:1 234:2 235:1 265:2 296:1 317:1 328:1 330:1 360:1 388:1 399:1 404:1 523:1 568:2 588:1 629:1 779:1 874:1 880:1 921:1 965:2 1007:1 1165:1 1282:1 1314:1 1401:1 1665:1 1730:2 2165:1 2462:1 2994:1 7993:1 7994:1 #
0.0085960560076051694550214321566273 10:1 15:1 36:1 96:1 129:1 165:1 173:1 225:1 273:1 296:2 325:1 402:1 425:1 482:1 495:1 547:1 580:1 625:1 1380:1 1406:1 1493:1 1497:1 1518:1 1691:1 2701:1 3383:1 3384:1 3385:1 3386:1 3387:1 3388:1 3389:1 #
-0.0085960560076051694550214321566273 15:1 18:1 22:1 61:1 62:1 80:1 140:1 150:1 174:2 221:1 407:2 410:1 425:1 491:1 523:1 554:1 727:1 772:1 779:1 843:1 927:1 1293:1 1305:1 1319:1 1326:1 1481:1 1509:1 1640:1 2127:1 4298:1 6980:1 6981:1 #
-0.0085960560076051694550214321566273 3:1 15:2 24:1 28:1 73:1 96:2 102:2 150:1 174:1 203:1 204:1 205:1 273:1 296:1 342:1 422:1 505:1 537:1 580:1 629:1 667:1 1049:1 1135:1 1222:1 1244:1 1285:1 1638:1 1694:1 1829:1 1850:1 2171:1 3632:1 3633:1 3634:1 3635:1 3636:1 #
-0.0085960560076051694550214321566273 34:1 56:1 67:1 129:1 174:1 175:1 198:1 203:1 204:1 205:1 242:1 285:1 289:1 320:2 369:2 400:1 452:1 607:1 690:1 863:1 916:1 950:1 968:1 1127:1 1359:1 1416:1 1564:1 2440:1 2698:1 3319:1 3606:1 3607:1 3608:1 3609:1 3610:1 3611:1 #
-0.0052595173359806192056598028727876 3:1 5:3 6:1 10:1 15:1 34:1 45:1 52:1 78:2 116:1 136:1 147:1 161:1 169:1 175:1 198:1 211:1 215:1 234:1 235:2 251:1 265:1 298:1 300:1 325:1 331:1 367:1 369:1 379:1 438:2 471:1 506:2 510:1 541:1 554:1 568:1 574:1 613:2 622:1 819:1 832:2 843:1 924:1 985:1 1000:1 1067:1 1072:1 1321:1 1338:1 1366:1 1415:1 1461:2 1516:1 1634:1 1991:1 2171:1 2172:1 2235:1 2341:1 2416:1 2880:1 2995:1 3384:1 4412:1 4892:2 4974:1 5572:1 6607:1 8192:2 8193:1 8194:1 8195:1 8196:2 8197:2 8198:1 8199:2 8200:1 8201:1 8202:1 8203:1 8204:1 8205:1 8206:1 8207:1 #
-0.0085960560076051694550214321566273 19:1 28:1 34:1 44:1 51:1 52:1 129:1 249:1 334:1 454:1 557:1 620:1 629:1 677:1 689:1 699:1 790:1 819:1 1285:1 1618:1 2085:1 2440:1 2594:1 3410:1 8027:1 8028:1 #
0.0036482157668211805633118327563125 3:1 4:1 5:1 9:1 11:1 16:1 22:1 24:2 28:11 34:1 43:2 44:2 46:1 52:1 53:1 58:1 66:7 67:1 76:1 78:2 80:1 81:1 88:1 89:1 96:9 102:1 104:3 106:1 112:1 116:1 122:1 129:4 134:1 144:1 145:1 150:2 152:1 153:1 155:1 161:5 166:1 169:2 173:1 174:4 189:3 203:1 204:1 215:1 216:1 230:1 232:1 235:1 236:2 243:1 265:5 278:3 285:1 296:1 308:1 320:3 325:1 327:1 337:1 347:1 369:1 423:1 427:3 445:1 452:1 453:1 482:1 496:1 501:1 523:1 531:1 538:1 547:1 567:3 570:1 575:1 613:1 627:1 628:1 629:1 650:1 651:1 654:1 660:1 663:1 671:1 676:1 682:1 689:1 691:1 697:1 711:1 712:1 720:4 725:1 731:1 746:1 806:1 819:1 824:1 834:1 855:1 863:1 877:5 880:1 881:2 921:2 924:2 944:1 993:1 1000:1 1010:1 1017:1 1041:1 1051:1 1052:2 1080:1 1118:1 1152:1 1177:1 1204:1 1213:3 1217:1 1221:1 1231:1 1290:2 1335:1 1416:1 1427:1 1457:1 1458:1 1528:1 1603:2 1610:1 1648:1 1692:1 1697:1 1722:1 1802:1 1830:1 1850:1 1955:1 2146:1 2159:1 2163:1 2346:1 2454:2 2462:1 2464:1 2625:1 2773:1 2890:1 2898:1 2925:1 2998:1 3062:1 3092:1 3134:1 3154:1 3211:1 3358:1 3457:1 3610:1 4156:1 4570:2 4739:1 4750:1 4754:3 4762:1 4886:1 5103:1 5104:1 5105:1 5106:1 5107:1 5108:1 5109:1 5110:1 5111:1 5112:1 5113:1 5114:1 5115:1 5116:1 5117:1 5118:1 5119:1 5120:1 5121:1 5122:1 5123:1 5124:1 5125:1 5126:1 5127:1 5128:1 5129:1 5130:1 5131:1 5132:1 #
0.0010115290414426456998969738876326 3:1 10:1 11:1 15:1 18:1 28:7 31:1 34:1 35:1 58:1 66:1 72:1 80:2 86:1 90:1 96:3 98:4 108:1 122:1 142:2 145:1 152:1 161:2 168:2 173:2 174:2 175:1 200:1 221:1 227:1 232:1 235:1 239:1 245:1 248:1 251:1 261:1 264:3 289:1 327:1 330:1 334:1 358:1 369:1 410:1 467:1 475:1 482:1 486:1 516:2 523:1 540:1 557:1 567:1 568:1 580:1 625:1 630:1 653:1 685:1 708:2 712:1 728:1 729:1 755:1 773:1 823:1 877:3 880:1 881:1 883:1 913:1 920:2 950:1 994:2 1073:1 1162:1 1248:1 1307:1 1427:1 1457:1 1578:2 1603:1 1639:1 1641:1 1742:1 1797:1 1870:2 1886:2 1966:1 1988:1 2014:1 2169:1 2191:1 2290:1 2372:1 2503:1 2532:1 2557:1 2562:1 2724:2 2755:2 2769:1 2905:1 2973:2 3173:1 3823:1 3824:1 3825:1 3826:1 3827:1 3828:1 3829:1 3830:1 3831:1 3832:1 3833:1 3834:1 3835:1 3836:1 3837:1 3838:1 3839:1 3840:1 3841:1 3842:1 3843:1 3844:1 3845:1 3846:1 3847:1 3848:1 3849:1 3850:1 3851:1 3852:1 3853:1 3854:1 3855:1 3856:1 3857:1 3858:1 3859:1 3860:1 3861:1 3862:1 3863:1 3864:1 3865:1 3866:1 #
0.0085960560076051694550214321566273 19:1 28:7 29:1 34:1 58:1 59:1 72:2 87:1 96:5 100:1 102:1 108:1 144:1 147:1 150:1 152:1 168:1 171:1 173:1 174:2 198:1 200:1 204:1 205:1 211:1 228:1 231:1 235:1 256:1 259:1 265:1 268:1 299:1 369:1 388:1 390:1 456:1 482:1 501:1 516:1 540:1 554:1 555:1 559:1 587:1 589:1 627:1 636:1 666:1 674:1 689:1 715:1 759:1 843:1 944:1 985:1 1080:1 1152:1 1211:1 1314:1 1417:1 1577:1 1638:1 1722:1 2019:1 2073:1 2456:1 2518:1 3008:1 3455:2 3456:1 3457:1 3458:1 3459:1 3460:1 3461:1 3462:1 3463:1 3464:1 3465:1 3466:1 3467:1 3468:1 #
0.0010057026959856764543321805405185 3:1 4:1 11:2 19:2 26:3 28:4 34:1 50:1 58:2 62:1 66:1 75:2 78:4 80:1 81:1 89:1 90:1 96:1 104:3 106:1 108:2 112:1 122:1 123:1 129:1 130:2 139:1 145:2 149:2 161:3 162:1 165:1 166:2 168:1 174:2 185:2 190:3 204:1 205:4 211:1 226:1 232:1 255:1 259:2 264:1 275:1 279:1 289:1 299:1 303:2 315:1 332:1 351:2 368:1 372:1 373:2 392:1 398:1 405:1 406:1 410:1 433:1 438:1 467:1 479:1 501:1 510:1 516:1 520:1 547:1 559:1 565:1 572:1 580:1 595:1 619:1 630:1 636:2 694:1 695:1 708:1 737:1 755:1 756:1 771:1 772:1 815:2 816:1 857:1 863:1 878:1 879:1 905:1 920:1 940:1 1010:1 1077:2 1157:1 1170:1 1186:1 1188:1 1285:1 1290:1 1295:1 1338:1 1339:1 1359:1 1383:1 1447:1 1457:2 1470:1 1529:1 1551:1 1644:1 1661:1 1719:1 1763:1 1870:1 1885:1 1909:1 1918:1 1927:1 2006:1 2021:1 2044:1 2163:1 2177:1 2188:1 2234:1 2436:1 2462:1 2476:1 2515:2 2614:1 2624:4 2625:1 2698:1 2705:1 2719:1 2744:1 2769:1 2860:1 2866:1 2892:1 2898:1 2904:1 3195:1 3265:1 3514:1 3610:1 3776:1 3887:1 3947:1 3951:1 4034:1 4049:1 4053:1 4143:1 4291:1 4321:1 4331:1 4561:1 4675:1 4676:1 4677:1 4678:2 4679:1 4680:1 4681:1 4682:1 4683:1 4684:1 4685:1 4686:1 4687:1 4688:1 4689:2 4690:1 4691:1 4692:2 4693:1 4694:1 4695:1 4696:1 4697:1 4698:1 4699:1 4700:1 4701:1 4702:1 4703:1 4704:2 4705:1 4706:1 4707:1 4708:1 4709:1 4710:1 #
-0.0085960560076051694550214321566273 4:1 10:1 14:1 24:1 28:6 34:1 42:1 44:2 46:1 48:1 63:1 66:1 75:1 85:1 89:1 90:1 96:3 108:2 109:2 112:2 122:1 140:1 145:2 150:1 152:1 157:2 161:1 166:1 171:1 173:2 175:1 183:1 203:1 206:1 211:1 225:1 251:1 259:2 260:1 262:1 264:1 265:1 269:1 275:1 279:3 281:1 291:1 327:1 345:1 351:1 369:3 370:1 391:1 392:1 410:3 426:1 464:1 467:1 468:1 478:1 482:3 505:3 506:1 531:1 561:1 607:1 609:1 613:1 638:1 644:1 654:1 685:1 691:1 712:2 727:1 730:1 737:1 803:1 823:1 843:2 881:1 905:2 924:1 1041:1 1105:1 1153:1 1165:1 1236:1 1244:1 1397:1 1474:1 1502:1 1556:1 1619:1 1709:2 1759:1 1829:1 1849:1 1897:1 2069:1 2078:1 2148:1 2158:1 2166:1 2191:1 2206:1 2235:1 2331:1 2349:1 2361:1 2437:1 2656:1 2683:1 2689:1 3064:1 3156:1 3610:1 3690:1 3715:1 3717:1 3851:1 3902:1 4291:2 5175:1 5416:1 5531:1 5959:1 6047:1 6352:1 6353:1 6354:1 6355:2 6356:2 6357:1 6358:1 6359:1 6360:1 6361:1 6362:1 6363:1 6364:1 6365:1 6366:1 6367:1 6368:1 6369:1 #
0.0031432848205008110525904285736942 24:1 28:2 43:1 96:3 129:1 134:1 154:1 168:1 169:2 200:1 203:1 205:1 289:1 350:1 351:1 379:1 413:1 433:1 468:2 473:2 486:1 494:1 509:1 510:1 652:1 708:1 746:1 806:1 848:1 880:1 981:1 1038:1 1119:1 1153:1 1169:1 1258:1 1411:2 1416:1 1748:1 1962:1 1988:1 2188:1 2557:1 2562:1 2620:1 2824:1 3361:1 3457:2 3667:1 3968:1 4291:1 6581:1 6987:1 8042:1 8043:1 8044:1 8045:1 8046:1 #
0.0048301575939514391003215543207716 4:1 5:2 6:1 11:1 14:2 15:1 28:3 78:1 81:1 96:2 102:1 113:1 145:1 149:1 156:1 174:3 175:1 190:1 195:1 204:1 205:1 215:1 230:3 234:1 248:1 256:1 265:1 321:1 345:1 405:2 444:2 484:1 545:1 568:1 588:1 630:1 635:1 654:1 687:1 692:1 739:1 823:1 881:1 895:1 905:1 924:1 933:1 1159:1 1188:1 1231:2 1309:1 1639:1 1708:1 1709:1 1750:1 1813:2 1879:1 1902:1 2134:1 2247:1 2483:1 2542:1 2632:1 3385:2 3505:1 4334:1 4751:1 5348:1 5572:1 5717:1 5801:1 6979:1 8319:1 8653:1 8665:1 8666:1 8667:1 8668:1 8669:1 8670:1 #
-0.0023848835024079971176003134303301 3:1 10:1 11:2 14:2 19:2 24:1 28:5 34:2 38:1 78:1 85:1 89:1 95:1 96:8 104:1 106:1 108:1 123:1 150:2 161:4 168:1 175:1 214:1 220:1 229:3 254:1 299:1 320:1 360:1 380:1 410:1 435:1 444:3 456:1 463:1 464:2 468:1 471:2 482:1 484:1 507:1 545:1 554:1 567:1 569:2 609:1 618:1 621:1 624:1 629:1 632:1 660:2 750:1 758:1 824:1 842:1 862:1 872:1 874:1 877:4 880:2 881:1 902:1 905:3 964:1 965:1 1063:1 1146:1 1178:1 1330:1 1483:1 1563:1 1594:2 1610:1 1627:1 1638:1 1697:1 1756:1 1777:1 1885:2 2013:1 2017:1 2437:1 2471:1 3554:1 4180:1 5445:1 5801:1 6195:1 6904:1 7257:1 7258:1 7259:1 7260:1 7261:1 7262:1 7263:1 #
-0.0085960560076051694550214321566273 3:3 4:1 15:2 18:1 28:5 31:1 34:1 43:2 78:2 80:1 81:1 96:4 104:1 108:1 140:1 152:1 161:1 165:1 174:3 198:1 200:1 201:1 203:1 218:1 227:1 230:1 242:1 264:1 265:1 269:1 275:1 277:1 278:1 279:6 305:1 325:1 360:1 370:1 386:2 410:1 444:1 475:1 494:1 496:1 506:3 535:1 540:1 545:1 547:1 587:1 627:1 649:1 720:1 788:1 857:1 862:1 866:1 869:1 880:2 910:1 918:2 920:2 924:2 1126:1 1146:1 1167:1 1293:1 1314:3 1380:1 1479:1 1484:1 1509:1 1647:1 1673:1 1677:1 1872:1 1912:1 2059:1 2620:1 2767:1 3035:1 3723:1 3751:1 4835:1 4912:1 4913:1 4914:1 4915:1 #
0.0085960560076051694550214321566273 10:1 22:1 24:1 34:2 38:1 89:1 100:1 103:1 106:1 129:1 145:1 159:1 166:1 169:1 171:1 174:2 195:1 230:1 264:1 278:1 281:1 285:1 292:1 330:2 351:1 400:1 410:2 537:2 575:1 588:1 591:1 824:1 834:1 876:1 922:1 1132:1 1159:1 1411:1 1477:1 1891:1 2104:1 2574:1 2761:1 3333:1 4368:2 4689:1 4722:1 5143:1 5630:1 6198:3 6199:2 6200:1 6201:1 6202:1 6203:1 #
0.0085960560076051694550214321566273 10:1 15:1 23:1 28:1 66:2 67:1 108:1 168:1 175:1 230:1 254:1 335:1 343:2 373:1 384:1 435:1 439:1 621:1 727:1 779:1 815:1 910:1 982:1 983:1 999:1 1000:1 1475:1 1648:1 1649:1 1650:1 1651:1 1652:1 1653:1 1654:1 1655:1 1656:1 1657:1 1658:1 1659:1 1660:1 1661:1 #
0.0085960560076051694550214321566273 3:1 4:1 12:1 18:2 21:1 43:1 63:1 67:3 73:1 81:1 96:5 102:1 149:3 169:1 203:2 218:1 242:1 265:3 271:1 274:2 278:1 304:1 325:4 328:1 454:1 473:1 541:1 545:1 568:1 576:1 588:1 623:1 627:1 642:1 698:3 728:2 832:1 848:1 1018:1 1067:1 1146:1 1248:1 1258:1 1520:1 1678:1 1730:1 1737:2 1802:1 1803:1 1885:1 1886:1 2230:1 2626:1 2816:1 3092:1 3710:1 4356:1 4357:1 #
0.0085960560076051694550214321566273 10:1 19:1 28:1 81:1 116:1 169:1 174:1 233:1 241:1 486:1 510:1 565:1 727:1 768:1 772:1 881:1 929:1 1178:2 1226:1 1397:1 1640:1 1913:1 2346:1 2462:1 2882:1 2995:1 3927:1 4844:1 5879:1 5880:1 5881:1 5882:1 5883:1 #
-0.0085960560076051694550214321566273 10:1 11:2 29:1 81:1 89:1 174:2 264:1 276:1 278:1 299:1 388:1 513:1 536:1 537:1 557:1 560:1 629:1 688:1 694:1 790:1 819:1 843:1 910:1 1016:1 1285:1 1308:1 1352:1 1457:1 1535:1 1569:1 1988:1 2757:1 3463:1 3472:1 3633:1 7931:1 8139:1 8345:1 8346:1 #
-0.0085960560076051694550214321566273 6:1 10:1 13:1 28:2 58:1 66:1 85:1 89:1 106:1 129:1 141:1 149:1 166:2 171:2 242:1 252:1 299:1 410:1 467:1 496:1 619:1 629:1 708:1 726:1 886:1 964:1 1230:1 1397:1 1618:1 1812:1 1849:1 1918:1 2065:3 2263:1 2443:1 2898:1 2943:1 4068:1 4069:1 4070:1 4071:1 #
-0.0085960560076051694550214321566273 10:1 11:1 15:1 19:2 28:3 34:1 46:1 52:1 63:1 66:1 76:1 90:1 116:1 134:1 161:1 175:1 195:1 278:2 289:2 296:1 342:1 343:1 373:1 482:1 486:1 622:1 654:1 688:1 691:1 720:1 790:1 804:1 815:1 959:1 1146:1 1153:1 1165:1 1338:1 1359:1 1401:1 1457:1 1603:1 1618:1 1897:1 1960:1 2044:1 2656:1 2715:1 3447:1 3716:1 3881:1 6168:1 6426:1 6672:1 7075:1 7076:1 7077:1 7078:1 7079:1 7080:1 7081:1 7082:1 7083:1 7084:1 #
0.0085960560076051694550214321566273 3:1 15:1 22:1 28:6 34:1 43:2 44:1 66:3 81:1 87:1 96:10 104:2 106:1 121:1 140:1 142:1 147:1 152:1 171:1 174:2 189:1 218:1 234:1 235:1 236:1 265:2 296:1 299:1 304:1 326:1 404:2 405:2 410:1 427:1 438:1 444:1 474:1 510:1 528:1 537:1 580:3 588:1 601:1 650:2 689:1 758:1 779:1 843:1 998:1 1023:1 1274:1 1326:1 1401:1 1516:1 1555:1 1795:1 1901:1 2051:1 2702:1 3169:1 3610:1 3652:1 4023:1 6072:1 6073:1 6074:1 6075:1 6076:1 #
0.0085960560076051694550214321566273 28:5 34:2 66:1 81:1 89:1 95:1 96:4 104:2 106:1 141:1 161:1 173:1 174:3 200:1 218:2 222:2 228:1 241:1 259:2 265:2 269:1 285:1 318:1 386:1 388:1 410:1 505:1 510:1 537:1 554:1 557:1 588:1 609:1 654:1 687:2 712:1 830:1 880:1 881:1 934:1 1080:1 1204:1 1211:1 1311:1 1493:1 1497:1 1571:1 1770:1 1861:1 1916:1 1988:1 2000:1 2290:1 2677:1 2941:2 3173:1 3404:1 3867:1 3868:1 3869:1 3870:2 3871:2 3872:1 3873:1 3874:1 #
0.0053092230149090592974947533377872 13:1 15:2 19:1 20:1 24:1 28:3 34:1 59:1 78:2 94:1 96:7 106:1 108:1 110:2 114:1 116:2 117:3 122:1 129:1 140:1 161:1 168:2 174:2 201:1 203:1 204:1 205:2 230:1 231:3 232:1 252:1 265:1 275:1 285:2 291:1 304:2 325:2 337:1 360:1 379:1 386:1 390:1 407:1 408:1 494:1 496:2 509:1 545:2 557:1 559:1 567:2 576:1 592:1 619:1 683:1 687:3 694:2 720:1 729:1 738:1 746:1 788:1 819:1 821:3 824:1 850:1 909:1 921:1 964:1 965:1 992:2 1000:2 1007:2 1016:2 1035:1 1145:1 1165:1 1179:1 1269:1 1300:1 1301:1 1302:1 1303:1 1304:1 1305:2 1306:1 1307:1 1308:2 1309:1 1310:1 1311:1 1312:1 1313:1 1314:1 1315:1 1316:1 1317:1 1318:1 1319:1 1320:1 1321:1 1322:1 1323:1 #
-0.0085960560076051694550214321566273 3:1 14:1 15:3 24:1 28:5 34:1 42:1 43:1 49:1 50:1 61:1 62:1 66:2 67:2 74:1 75:1 78:4 81:1 87:1 96:4 102:1 107:2 112:1 116:1 132:1 145:1 152:1 220:1 227:1 231:1 235:1 241:1 249:1 252:1 256:1 258:2 259:1 265:2 269:1 278:1 282:1 285:2 296:1 304:2 318:1 330:1 348:1 349:1 350:2 360:1 368:1 379:1 380:1 385:1 388:1 410:2 420:1 438:1 441:1 454:1 475:1 494:1 501:1 505:1 507:1 528:1 537:1 540:1 547:1 572:1 580:1 622:1 626:1 636:2 673:1 728:1 738:1 746:1 817:1 836:1 840:1 969:1 1031:1 1062:1 1203:1 1231:1 1287:1 1314:1 1416:1 1419:1 1427:1 1484:1 1520:1 1543:1 1545:1 1581:1 1682:1 1693:1 1737:1 1842:1 1848:1 1988:1 2074:1 2191:1 2351:1 2369:1 2518:1 2678:1 2687:2 2740:1 2833:1 2892:1 2994:1 3169:1 3176:1 3210:1 3290:1 3291:1 3292:1 3293:1 3294:1 3295:1 3296:1 3297:1 3298:1 3299:1 3300:1 3301:1 3302:1 3303:1 3304:1 3305:1 3306:1 3307:1 3308:1 3309:1 #
-0.0082727386648257031365183422622067 6:1 11:2 12:2 15:1 19:2 22:1 26:1 28:2 34:3 44:1 59:1 96:6 140:1 156:1 168:1 169:1 171:1 174:2 175:1 189:1 228:1 232:1 235:1 236:1 259:1 289:1 294:1 299:2 308:1 337:1 403:3 418:1 444:1 468:1 473:1 482:1 486:2 494:1 496:2 545:1 559:1 561:1 567:2 568:2 570:1 571:1 636:3 750:1 919:1 997:1 1016:2 1067:1 1126:1 1152:1 1381:1 1458:1 1589:1 1778:1 1817:1 2019:2 2159:1 2188:1 2281:1 2440:1 2580:1 2671:1 3165:1 4517:1 5302:1 5303:1 5304:1 #
0.00083680720712001922800826747561587 3:1 4:1 11:2 28:1 43:1 48:1 49:1 51:1 58:2 73:1 80:1 81:1 88:1 97:3 98:2 108:1 129:1 145:1 161:1 168:1 174:3 190:1 200:1 203:2 205:1 211:1 235:2 236:1 249:1 258:2 265:1 279:1 285:1 359:1 467:1 473:2 494:1 523:1 541:1 553:2 555:1 654:1 688:2 761:1 762:1 779:1 790:1 843:1 857:1 876:1 904:2 1062:1 1118:1 1165:1 1188:1 1231:1 1303:1 1307:1 1339:1 1417:1 1440:1 1497:1 1698:1 1812:1 1879:2 2088:1 2165:1 2191:1 2756:1 2815:1 3066:1 3313:1 3457:1 3524:1 3599:1 3856:1 5044:1 5123:1 5695:1 5994:1 6119:1 6120:1 6121:1 6122:1 6123:1 6124:1 #
-0.0068084427829899867024021631323194 10:1 13:1 28:3 36:1 39:1 62:1 96:2 174:1 200:1 235:1 252:1 265:1 326:1 336:1 360:1 410:1 537:1 545:1 626:1 688:1 758:1 763:1 779:1 1146:1 1222:1 1545:1 1585:1 1588:1 1686:1 1766:1 1905:1 1916:1 2165:1 2290:1 2386:1 2705:1 2980:1 2997:1 6579:1 #
-0.00086857172878312851986570830575829 3:2 4:2 14:1 19:1 28:6 30:1 34:1 43:2 46:1 52:1 56:1 66:1 71:1 73:1 80:1 87:1 96:5 104:1 112:1 116:1 117:1 140:2 141:1 147:2 149:1 174:1 183:1 203:1 204:1 205:2 218:1 232:1 234:1 235:3 236:1 242:1 248:1 251:1 265:3 275:1 276:1 278:1 279:1 296:1 304:1 308:1 325:2 379:1 386:1 433:1 471:1 473:1 506:1 528:1 531:1 547:1 552:1 553:1 576:2 598:1 601:1 630:1 710:1 729:1 772:2 806:1 843:1 1161:1 1236:1 1253:1 1290:1 1297:2 1312:1 1321:1 1376:1 1419:1 1520:1 1585:1 1587:1 1588:1 1637:1 1644:1 1799:1 1878:1 1916:1 1952:1 2014:1 2056:1 2127:1 2156:1 2235:1 2348:1 2562:1 3362:1 3364:1 3506:1 3610:1 3741:1 4177:1 4334:1 6228:1 6229:1 6230:1 6231:1 6232:1 6233:1 #
0.0027523475366378270974554443029092 9:1 11:1 18:1 24:1 28:1 37:1 44:1 63:1 66:2 70:1 79:1 118:1 130:1 142:1 149:1 156:2 161:2 165:1 201:1 245:1 264:1 278:1 279:2 280:1 300:1 372:1 388:1 398:1 405:1 464:1 475:1 538:1 540:1 557:1 572:1 580:1 609:1 638:1 688:1 739:1 761:1 811:1 847:1 853:1 880:1 881:1 920:5 1105:1 1126:1 1138:1 1179:1 1286:1 1293:2 1312:2 1423:1 1427:1 1472:1 1484:2 1599:1 1631:1 1647:1 2478:1 2562:1 3234:1 3235:1 3236:1 3237:1 3238:1 3239:1 3240:1 3241:1 3242:1 3243:1 3244:1 3245:1 3246:1 3247:1 3248:1 3249:1 3250:1 3251:1 3252:1 3253:1 3254:1 3255:1 3256:1 3257:1 3258:1 #
0.0085960560076051694550214321566273 5:1 11:2 14:1 24:2 28:3 34:2 78:1 81:1 87:1 129:1 130:1 157:1 161:2 171:1 175:1 190:1 201:1 236:1 264:1 279:1 285:1 351:1 547:1 557:1 575:1 609:1 627:1 635:1 644:1 663:1 706:1 877:1 879:1 950:1 993:1 1039:1 1084:1 1237:1 1359:1 1585:1 1618:1 1918:1 2033:1 2071:1 2072:1 2683:1 2704:1 2792:1 2815:1 2926:1 4143:1 4875:1 6444:1 6870:2 6871:1 6872:1 6873:1 6874:1 6875:1 6876:1 #
0.0085960560076051694550214321566273 10:1 28:3 48:1 201:2 249:1 259:1 260:3 264:2 326:1 337:1 373:1 457:1 609:1 619:1 843:1 880:1 924:1 1152:1 1188:1 1256:1 1421:1 1459:1 1603:1 1775:1 1856:1 1912:1 2744:1 3086:1 3119:1 3243:1 3723:1 3929:1 5096:1 7448:1 8582:1 8583:1 8584:1 8585:1 8586:1 #
0.0085960560076051694550214321566273 8:1 10:1 15:1 19:1 26:1 28:3 34:1 38:1 67:1 76:1 112:1 145:1 161:1 208:1 252:1 254:1 385:1 620:1 720:1 823:1 880:1 918:2 940:1 1580:1 1618:1 1775:1 2204:2 2217:1 2225:1 2632:1 3331:1 4165:1 5057:1 5058:1 5059:1 5060:1 5061:1 5062:1 5063:1 5064:1 5065:1 5066:1 #
0.0085960560076051694550214321566273 9:1 10:1 19:1 28:1 34:1 58:1 78:1 96:1 108:1 110:1 145:1 168:1 201:1 211:1 278:1 289:1 296:1 331:1 351:1 392:1 471:1 609:1 629:1 758:1 803:1 813:1 843:1 922:1 1000:1 1062:1 1073:1 1084:1 1223:1 2443:1 2624:1 5055:1 7683:1 #
-0.0085960560076051694550214321566273 11:1 22:1 24:2 28:1 29:1 38:1 59:1 82:1 108:1 129:1 161:1 166:1 168:1 201:1 204:1 205:1 208:1 278:1 372:1 426:1 567:1 569:1 629:1 652:1 660:1 687:1 697:2 877:1 964:1 1377:1 1558:1 1559:1 1560:1 1561:1 1562:1 1563:1 1564:1 1565:1 #
-0.0085960560076051694550214321566273 28:3 38:1 66:2 76:1 82:1 100:1 189:1 234:1 299:1 304:1 427:1 474:1 482:1 496:1 574:1 613:1 632:1 633:1 634:1 635:1 636:1 637:1 638:1 639:1 640:1 641:1 642:1 643:1 644:1 645:1 646:1 647:1 648:1 649:1 650:1 651:1 652:1 653:1 654:1 655:1 656:1 657:1 658:1 659:1 660:1 661:1 662:1 663:1 #
-0.0085960560076051694550214321566273 5:1 10:2 15:1 19:1 22:1 24:1 26:1 28:2 41:1 81:2 104:3 106:1 145:1 147:2 150:1 161:1 175:2 198:1 218:1 234:1 251:1 265:2 269:1 278:1 292:1 295:1 303:1 320:1 321:1 336:1 379:1 385:1 420:1 437:1 466:1 507:1 510:1 545:1 567:1 574:1 654:1 688:1 697:3 720:2 739:1 762:1 772:1 779:1 813:1 855:1 863:1 920:1 969:1 1211:1 1256:1 1290:2 1411:1 1453:2 1471:1 1499:1 1505:1 1692:1 1693:1 1800:1 1830:1 2277:1 2562:1 2624:1 2775:1 2994:1 3253:1 3629:1 3921:1 3929:1 3970:1 3992:1 5758:1 6040:1 8433:2 8434:1 #
-0.0085960560076051694550214321566273 15:2 28:3 104:1 149:1 152:1 156:1 162:1 200:2 201:1 234:1 235:1 278:1 285:1 303:1 320:1 335:1 337:1 367:1 475:1 505:1 537:1 540:1 567:1 574:1 609:1 878:1 1138:1 1211:1 1307:1 1336:1 1461:1 1500:1 1520:1 1618:1 1692:1 1850:1 2018:1 2214:1 2443:1 3297:1 3346:1 5210:1 5710:1 6583:1 7265:1 #
-0.0085960560076051694550214321566273 11:1 15:1 24:1 28:1 76:1 82:1 87:1 110:1 129:1 161:3 174:1 183:2 202:1 259:1 265:1 278:1 308:1 393:1 454:1 473:1 501:2 516:1 568:1 594:1 607:1 652:1 698:1 904:1 913:1 1020:1 1211:1 1580:1 1897:1 2076:1 2177:1 2464:1 2538:1 3629:1 4763:1 7398:1 7399:1 7400:1 7401:1 7402:1 #
0.0085960560076051694550214321566273 3:1 12:1 28:1 44:3 46:2 58:1 67:1 96:8 106:1 156:1 171:1 174:1 198:1 245:1 331:2 569:1 629:1 644:2 720:1 732:1 1000:1 1062:1 1165:1 1395:1 1416:1 1900:1 2277:1 2280:1 2290:1 2740:1 3175:1 3618:1 4246:1 4575:1 6871:2 8117:1 8319:1 8320:1 #
0.0085960560076051694550214321566273 3:1 18:1 19:2 22:1 28:1 34:1 51:1 52:2 61:1 73:2 74:1 78:2 96:4 108:1 129:1 134:2 140:1 149:1 160:1 161:1 166:1 168:1 169:1 174:1 175:1 203:3 218:1 221:1 242:1 251:1 269:1 278:1 279:1 284:1 291:1 296:1 318:1 367:1 386:1 400:1 410:1 445:1 471:1 473:1 482:1 494:1 496:2 506:1 527:1 538:1 644:1 652:1 660:1 689:2 775:1 866:1 872:1 903:1 907:1 912:1 959:1 967:1 969:2 1000:1 1036:1 1187:1 1221:1 1293:1 1416:2 1520:1 1606:1 1693:1 1700:1 1722:1 1992:1 2755:1 2893:1 2894:1 2895:1 2896:1 2897:1 2898:1 2899:1 2900:1 2901:1 2902:1 2903:1 2904:1 2905:1 2906:1 2907:1 #
0.0023572557084017295783717749202424 10:1 15:1 28:3 38:1 43:1 56:1 58:1 66:1 81:1 89:1 96:7 98:1 100:6 102:1 104:1 108:1 114:1 130:1 140:1 141:1 147:1 150:1 171:1 174:1 204:2 205:2 235:2 236:2 246:1 260:1 265:2 267:1 296:2 299:2 304:1 312:1 320:1 325:1 351:1 369:1 406:1 407:1 410:1 426:1 454:1 464:1 505:1 538:1 545:1 567:1 575:1 592:1 613:2 625:1 636:1 660:1 698:1 728:1 762:1 803:1 809:1 832:1 855:2 862:1 897:1 921:1 924:1 1018:1 1161:1 1227:1 1236:1 1292:1 1321:1 1343:1 1401:1 1406:2 1426:1 1530:1 1538:1 1581:1 1612:1 1635:1 1796:1 1886:1 2049:1 2158:1 2191:1 2235:1 2462:1 2478:1 2693:1 2898:1 3030:1 3066:1 3139:1 3162:1 3367:1 3368:1 3369:1 3370:1 3371:1 3372:1 3373:1 3374:1 3375:1 3376:1 3377:1 3378:1 3379:1 3380:1 3381:1 3382:1 #
-0.0071091596833504928226732388907294 3:2 4:2 15:1 18:1 22:1 26:3 28:5 34:1 38:1 42:2 43:1 73:2 89:3 96:5 108:3 112:1 116:1 118:1 122:1 129:2 130:1 134:1 136:1 149:2 156:1 161:1 166:1 168:1 169:4 173:1 185:1 203:1 207:1 220:1 222:2 228:1 235:2 239:1 242:1 251:1 262:1 265:1 273:1 278:1 284:1 285:7 296:1 298:2 301:1 302:1 308:1 313:1 325:1 326:1 328:1 337:1 338:1 345:1 347:1 351:2 384:1 397:1 399:1 410:1 438:1 444:1 456:1 482:2 485:1 493:4 501:1 510:2 520:1 554:1 559:1 568:1 619:1 620:2 634:1 695:1 698:1 707:2 746:2 775:1 791:2 831:1 843:2 857:1 874:1 877:2 878:1 883:1 916:1 969:1 1012:1 1024:2 1047:2 1143:1 1184:1 1200:1 1204:1 1213:1 1338:2 1349:1 1381:1 1382:1 1383:1 1397:1 1416:5 1603:1 1709:1 1722:2 1842:1 2214:1 2236:1 2490:1 2571:1 2755:1 2773:1 2901:1 2903:1 3089:1 3175:2 3196:1 3229:1 3290:1 3802:1 3818:1 3953:1 4062:1 4173:1 4267:1 4457:1 5948:1 5964:1 5966:1 7421:1 7422:1 7423:1 7424:1 7425:2 7426:1 7427:1 #
-0.0010025323814216171528640453303183 3:1 9:1 13:1 14:1 18:1 19:1 28:3 34:1 66:1 71:1 87:1 90:1 96:8 104:2 108:1 130:1 161:2 169:1 174:1 175:1 177:2 229:1 265:1 267:1 282:1 294:1 327:1 336:1 344:1 388:1 466:1 468:1 482:1 488:1 494:2 496:1 536:2 545:1 572:1 576:1 657:1 683:1 687:1 688:1 720:1 746:1 758:1 803:1 804:1 821:1 842:1 853:1 877:3 880:1 924:1 1101:1 1140:1 1211:1 1222:1 1244:1 1303:1 1411:1 1461:1 1484:1 1603:1 1618:2 1694:2 1812:2 1829:1 1955:1 2000:1 2127:1 2204:2 2543:2 2693:1 2743:1 2804:1 3086:1 3123:1 3342:1 3382:1 3419:1 3891:1 4227:1 5068:1 5157:1 5571:1 7260:1 7911:1 8822:1 8823:1 8824:1 8825:1 8826:1 8827:1 8828:1 8829:1 8830:1 8831:1 #
0.0085960560076051694550214321566273 15:1 28:1 90:3 96:1 117:1 203:1 228:1 308:1 335:1 407:1 425:1 478:1 580:1 609:1 618:1 734:1 848:1 869:1 875:1 1066:1 1258:1 1287:1 1312:1 1370:1 1618:2 2021:1 2889:1 4246:1 4581:1 4624:1 5281:1 6709:1 8364:1 8365:1 #
-0.0041978088350613828108603975408641 3:1 10:1 28:6 34:2 38:2 42:1 47:1 56:1 71:1 78:3 96:4 102:1 104:1 124:1 126:3 129:1 130:1 150:1 152:1 160:1 161:3 171:1 173:1 174:1 200:1 201:1 203:1 204:1 205:1 218:1 221:1 228:1 234:2 245:1 249:1 251:1 269:1 308:1 325:1 336:1 351:1 369:1 405:2 409:1 410:2 444:1 468:1 471:1 486:1 491:1 505:2 507:1 516:1 537:1 557:1 567:1 572:1 595:1 644:2 671:1 728:2 738:2 739:1 788:1 816:1 828:1 830:1 969:1 990:1 998:1 1062:1 1067:1 1077:1 1084:1 1097:1 1167:1 1179:1 1281:1 1312:1 1381:1 1421:2 1427:2 1484:1 1536:1 1542:1 1594:1 1603:1 1686:1 1812:1 1850:1 1871:1 1885:1 1886:1 2158:1 2223:1 2235:1 2277:1 2296:1 2462:1 2517:1 2608:1 2616:1 2740:1 3240:1 3266:1 4069:1 4141:1 4294:1 4420:1 5771:1 6494:1 6563:1 7311:1 7900:1 7901:1 7902:1 7903:1 7904:1 7905:1 7906:1 7907:1 7908:1 7909:1 #
-0.0085960560076051694550214321566273 4:1 11:1 20:1 24:2 28:1 34:1 38:1 51:1 67:1 71:1 78:4 82:1 87:1 89:1 96:4 134:1 147:2 149:1 161:1 168:1 174:1 204:1 205:1 211:1 294:1 326:1 330:1 371:1 406:1 479:1 494:1 505:1 516:2 537:1 540:1 557:1 567:1 568:1 577:1 591:1 639:1 671:1 698:1 727:1 860:1 876:1 877:1 919:1 930:1 950:3 1256:1 1380:1 1410:2 1533:1 1842:1 2000:1 2671:1 3091:1 3099:1 3175:1 3662:1 3663:1 3726:1 5131:1 5210:1 5211:1 5212:1 5213:1 #
0.008135648094587041856406983697525 4:1 11:2 14:1 15:1 28:2 34:2 46:2 58:1 66:1 76:1 81:3 104:1 106:1 122:1 129:2 174:2 175:1 183:4 201:1 230:2 233:1 234:1 235:2 265:1 279:1 299:1 318:1 320:5 350:1 367:1 388:1 410:1 494:1 516:2 553:1 555:1 575:1 601:1 604:1 628:1 630:1 644:1 654:1 683:1 708:1 720:1 762:2 871:1 1146:1 1186:1 1305:1 1307:1 1387:1 1444:2 1470:2 1495:1 1528:2 1555:1 1563:2 1569:1 1605:1 1649:1 1850:1 1861:1 2019:1 2175:1 2283:1 2543:1 2621:1 2625:1 2687:1 2750:1 2754:1 2929:1 3255:1 3322:1 3592:1 3881:1 4017:1 4361:1 4456:1 4565:1 4566:1 4567:3 4568:2 4569:1 4570:1 4571:1 4572:1 4573:1 4574:1 4575:1 4576:1 4577:1 #
0.0085960560076051694550214321566273 3:2 4:2 11:1 15:1 28:5 43:1 50:2 81:1 96:1 102:4 104:1 114:1 116:1 136:1 140:1 149:1 150:1 157:3 159:2 161:2 174:4 203:2 208:1 234:1 248:1 251:1 252:1 265:3 269:1 278:1 279:1 285:2 291:1 296:1 310:1 337:2 349:1 350:1 351:1 367:1 371:1 482:1 505:1 506:2 555:1 557:1 573:1 576:1 629:1 661:1 697:1 746:2 768:1 994:1 1159:1 1184:1 1231:1 1309:1 1383:1 1416:1 1427:1 1585:1 2148:1 2856:1 3361:1 3568:1 3573:1 3658:1 3740:1 3992:1 4642:1 5616:2 5858:1 6056:1 7231:1 7232:1 7233:1 7234:1 7235:1 7236:1 #
0.0085960560076051694550214321566273 10:1 96:2 100:1 107:1 116:1 145:2 147:1 168:1 174:1 269:1 369:1 410:1 468:1 473:1 755:1 756:1 871:1 927:1 929:1 994:2 1066:1 1088:1 1126:1 1213:1 1996:1 2290:1 3035:1 3256:1 3484:1 5017:1 5531:1 5857:1 7442:1 8047:1 8048:1 8049:1 8050:1 #
0.0085960560076051694550214321566273 15:1 24:1 28:4 34:2 38:1 41:1 42:1 51:2 52:1 53:3 73:1 77:1 78:1 80:2 96:1 104:1 108:1 130:1 145:1 150:1 161:1 165:1 174:1 200:1 201:2 203:2 218:2 235:1 254:3 262:1 265:1 279:1 312:1 337:1 367:1 368:1 403:1 404:1 410:1 454:1 501:1 509:1 516:1 523:1 547:1 554:1 567:1 621:1 772:2 773:1 786:1 824:1 849:1 881:1 904:2 920:1 924:2 927:1 929:1 1063:1 1146:1 1165:1 1427:1 1484:1 1605:2 1625:1 1800:1 1812:1 1851:1 1861:2 1874:1 1966:1 2467:1 2507:1 2624:1 3025:1 3105:1 3953:1 4138:1 5044:1 6010:1 6012:1 6187:1 6847:1 7134:1 7256:1 7334:1 #
-0.0016484714141078253817757071075789 10:2 13:1 14:1 15:1 24:1 28:3 34:2 58:1 61:1 62:1 63:1 80:3 96:3 104:1 108:1 123:2 129:1 169:1 171:1 174:2 180:1 195:1 228:2 252:1 259:1 265:1 274:2 292:2 299:2 304:1 336:1 351:2 371:1 391:1 400:1 407:2 412:2 426:1 453:1 454:1 505:1 538:1 576:1 609:1 678:1 758:1 803:1 832:1 856:1 883:1 924:1 927:1 1002:2 1018:1 1067:1 1256:1 1293:1 1314:1 1493:1 1509:3 1533:1 1594:1 1605:1 1625:1 1630:1 1676:1 1686:2 1709:1 1850:1 1876:1 1927:1 2268:1 2290:1 2369:1 2408:2 2476:1 2573:1 2632:1 2731:2 2788:1 2997:1 3210:3 3246:2 3269:2 3682:1 4552:1 5204:1 5429:1 5518:1 5682:2 5724:1 5971:1 6325:1 7664:1 8545:1 8546:1 8547:1 8548:1 #
-0.0085960560076051694550214321566273 3:1 10:1 15:1 28:3 34:1 41:1 56:1 66:1 75:1 77:1 96:1 98:1 102:1 150:1 174:1 175:1 201:2 252:1 259:1 264:2 269:1 296:1 326:1 392:1 402:1 410:1 412:1 464:2 480:1 496:1 537:1 625:1 649:1 659:1 720:1 762:1 798:1 861:1 1079:1 1118:1 1184:1 1324:1 1475:1 1581:1 1585:1 1626:1 1633:1 1692:1 2290:1 2626:1 3593:1 3627:1 4078:1 4517:1 4780:1 4781:1 4782:1 4783:1 4784:1 4785:1 4786:1 4787:1 4788:1 4789:1 #
-0.0085960560076051694550214321566273 28:1 34:1 48:1 71:2 72:1 100:1 104:1 150:1 153:1 154:1 174:3 201:1 236:1 260:2 265:1 326:1 351:1 433:1 621:1 750:1 775:2 881:1 995:2 1253:1 1383:1 1449:1 1457:1 1475:1 1840:1 2589:1 2856:1 3648:1 3869:1 5143:1 5277:1 8595:1 8596:1 8597:1 8598:1 #
-0.0081190178363286687190925050572332 6:1 10:3 13:1 15:1 28:3 67:1 96:1 108:2 116:1 117:1 123:1 140:1 141:1 161:1 174:2 252:1 259:1 265:1 275:1 296:2 343:1 403:1 464:1 537:1 551:1 555:1 567:1 572:2 607:1 614:2 638:1 653:1 660:1 682:1 708:1 711:1 758:1 764:1 779:1 805:1 813:1 830:2 879:1 886:1 937:2 972:1 1014:1 1031:1 1041:1 1077:1 1162:1 1203:1 1319:1 1421:1 1475:1 1528:3 1543:1 1625:1 1652:1 1769:1 2051:1 2262:1 2275:1 2290:1 2464:1 2510:1 2562:1 2769:1 2896:1 3015:1 3016:1 3017:1 3018:2 3019:1 3020:1 3021:1 3022:1 3023:1 3024:1 3025:1 3026:1 3027:1 3028:1 3029:1 3030:1 3031:1 3032:1 #
-0.0041066770975995287029647329291038 5:1 28:2 34:2 43:3 46:1 47:1 66:1 78:2 81:1 102:1 104:1 108:1 109:1 110:1 129:1 140:1 145:1 150:1 169:1 174:2 183:1 198:1 200:1 205:1 211:1 233:1 234:1 235:2 236:1 265:2 325:1 376:1 388:1 408:1 489:1 501:2 537:1 553:1 575:1 588:1 626:1 641:1 691:1 758:1 772:1 777:2 788:1 830:1 858:1 919:1 924:1 1087:1 1165:1 1395:1 1774:1 2079:1 2247:1 2632:1 2773:1 2973:1 3376:1 3625:1 3847:1 4204:1 4351:1 4352:1 4353:1 4354:1 4355:2 #
0.0053999588829384799829047558716866 3:1 13:2 15:1 26:2 28:5 34:1 37:1 42:1 48:1 50:1 51:1 78:7 89:1 96:5 102:1 129:1 145:2 168:2 204:1 205:1 218:1 222:2 225:2 234:3 235:1 236:2 265:2 269:1 278:1 285:2 299:1 386:1 400:1 404:2 410:3 426:1 454:1 473:2 479:1 493:2 507:1 510:1 524:1 537:1 547:1 553:1 567:2 636:2 711:1 763:1 779:1 816:1 823:1 830:2 843:1 862:1 878:1 880:1 903:1 930:1 950:1 969:1 1184:1 1211:5 1308:1 1314:1 1339:1 1521:1 1534:1 1619:1 1623:1 1698:3 1722:1 1736:1 2053:1 2123:2 2234:1 2754:1 2788:2 2815:1 2843:2 2994:1 3486:2 3867:1 3891:1 4344:4 4345:1 4346:1 4347:1 4348:1 4349:1 4350:1 #
0.0058599190364360953520161956475931 4:4 5:2 9:2 19:1 26:2 28:3 34:1 39:1 40:1 43:1 59:1 67:1 78:2 80:1 90:2 96:3 106:1 116:2 123:1 130:1 136:1 147:2 155:1 161:3 173:1 198:1 202:1 211:1 216:1 220:1 231:1 249:1 267:1 280:1 285:1 289:1 298:1 300:1 310:2 325:1 326:1 351:1 369:1 380:2 403:2 410:2 426:1 437:1 456:1 479:1 494:1 496:1 545:1 551:2 557:1 559:1 567:1 569:1 585:1 625:1 629:1 640:1 652:1 654:3 660:2 671:1 683:1 688:3 720:1 729:1 746:1 748:1 843:1 862:1 868:1 874:1 877:2 880:1 887:1 922:1 985:1 993:1 998:1 1000:1 1038:1 1080:1 1165:1 1228:1 1244:2 1266:2 1321:1 1391:1 1394:2 1411:1 1436:1 1448:1 1467:3 1611:1 1678:1 1684:1 1692:1 1693:1 1708:2 1713:3 1769:2 1816:2 1817:4 2454:1 2550:1 2693:2 3017:1 3028:1 3129:1 3269:1 3282:1 3397:1 3467:2 3611:1 3739:1 3881:1 4013:1 4178:1 4186:1 4246:1 4346:1 5017:1 5341:1 5575:1 6546:1 6547:2 6548:1 6549:1 6550:1 6551:1 6552:1 6553:1 6554:1 6555:1 6556:1 6557:1 6558:1 6559:1 6560:1 6561:1 6562:1 6563:1 6564:1 6565:1 6566:1 6567:1 6568:1 #
0.0085960560076051694550214321566273 3:1 10:1 20:1 24:1 28:2 42:1 75:1 90:2 96:4 116:1 122:1 150:1 161:1 166:1 168:1 174:2 177:1 200:1 220:1 259:1 262:1 264:2 265:2 267:1 279:2 282:1 299:1 320:1 330:2 370:1 410:1 420:1 422:1 484:1 486:1 488:1 489:1 510:1 516:1 536:1 591:1 624:1 626:1 637:1 648:1 682:1 683:1 688:1 690:1 698:1 727:2 924:1 1164:1 1178:1 1186:1 1256:1 1297:1 1312:1 1426:1 1427:1 1457:1 1533:1 1569:1 1575:1 1581:1 1603:1 1697:1 2022:1 2159:1 2221:1 2872:2 2994:1 3101:1 3941:1 4177:1 4517:1 5067:1 5068:1 5069:1 5070:1 5071:1 5072:1 5073:1 5074:1 5075:1 5076:1 #
0.0085960560076051694550214321566273 11:3 34:2 49:1 85:1 87:1 89:1 96:3 108:1 130:1 161:1 166:1 174:1 234:1 239:1 265:2 276:1 285:1 296:1 299:1 380:1 404:1 406:1 410:1 464:2 486:1 505:1 509:1 554:1 654:1 678:1 687:1 819:1 823:1 828:1 863:2 880:1 985:1 1024:1 1062:1 1186:1 1318:1 1338:1 1578:1 1579:1 2017:1 2123:1 2166:1 2405:1 2702:1 2715:1 2888:1 3000:1 3128:1 3574:1 4053:1 4087:1 4598:1 5592:1 5593:2 5594:1 5595:1 5596:1 5597:1 5598:1 5599:1 #
0.0085960560076051694550214321566273 46:3 72:2 76:2 78:1 96:5 102:1 104:1 108:1 124:1 140:1 145:2 149:1 203:1 204:1 205:1 227:1 228:1 234:1 235:1 242:1 247:1 251:1 258:1 265:1 275:1 291:1 325:1 326:1 330:2 360:1 386:3 410:1 426:1 547:1 574:1 591:1 613:1 660:1 697:1 746:1 775:1 843:1 863:1 902:1 909:1 927:1 1028:1 1087:1 1152:1 1416:1 1428:1 1444:1 1619:1 1675:1 1723:1 1813:1 2099:1 2113:1 2160:1 2277:1 2437:1 3751:1 4717:1 5096:1 6502:1 6503:1 6504:1 6505:1 6506:1 6507:1 6508:1 6509:1 6510:1 #
-0.003408522532421183730971803171883 3:1 4:2 24:2 26:1 28:6 34:1 40:2 47:1 49:1 59:1 63:1 67:1 77:1 81:3 96:5 102:2 140:1 145:1 149:1 157:2 161:1 163:1 169:1 174:4 175:2 177:1 198:1 200:1 203:2 204:1 205:1 222:1 225:2 227:2 234:3 251:1 265:2 274:1 275:4 276:1 279:2 280:1 284:1 296:2 305:1 308:1 317:1 318:1 325:1 330:1 331:1 334:1 337:3 360:1 369:1 371:1 400:2 402:1 403:3 404:1 405:2 420:1 467:1 468:1 488:1 538:1 547:2 565:1 569:1 580:1 595:1 607:1 608:1 611:1 628:1 667:1 684:1 687:1 717:1 746:2 759:1 775:1 843:1 857:1 880:1 881:1 889:1 905:2 933:1 1000:1 1013:1 1038:1 1056:1 1073:1 1087:1 1127:2 1128:1 1211:3 1281:1 1326:1 1329:1 1339:1 1376:1 1390:1 1395:1 1410:1 1460:1 1467:1 1520:2 1528:1 1563:2 1575:2 1587:1 1619:1 1624:1 1632:1 1891:2 1899:1 1903:1 1959:1 2148:1 2165:1 2440:1 2532:1 2632:1 2755:1 2781:1 2824:1 2841:1 3032:1 3178:1 3200:1 3324:1 3611:2 3679:1 3838:1 4204:1 4291:2 4591:1 4596:1 4876:1 5422:1 5951:1 6306:1 6390:1 7197:1 7219:1 8021:1 8241:1 8242:1 8243:1 8244:1 8245:1 8246:1 8247:1 8248:1 8249:1 8250:1 8251:1 8252:1 8253:1 8254:1 8255:1 8256:1 #
-0.0085960560076051694550214321566273 4:2 10:2 26:1 28:3 31:1 34:1 38:2 40:1 42:1 43:1 59:1 71:1 77:1 80:1 81:2 96:4 100:1 104:2 116:1 123:1 129:2 130:1 141:1 143:1 144:1 147:1 149:1 161:1 166:3 168:1 169:1 174:3 201:1 203:2 205:1 225:1 231:2 239:2 242:2 278:1 285:1 296:1 299:2 304:1 305:1 312:1 325:1 326:1 348:1 351:1 380:2 387:1 400:1 410:2 413:1 433:1 437:1 456:1 463:1 473:1 547:1 554:1 588:1 607:2 644:1 652:1 671:1 673:1 698:2 708:1 746:1 824:1 862:1 910:1 927:1 998:1 1000:1 1068:1 1079:1 1080:2 1146:2 1152:1 1170:1 1184:1 1304:2 1338:1 1376:1 1379:1 1416:1 1458:1 1499:1 1524:1 1599:1 1722:1 1757:1 1788:1 1983:1 2016:1 2281:1 2347:1 2348:1 2536:1 3127:1 3173:3 3305:1 3432:1 3652:1 4387:1 4490:1 4681:1 4917:1 5920:1 7024:1 7025:1 #
-0.0024764452025470068061152595362273 3:1 10:1 13:1 19:2 26:1 28:3 34:1 42:1 48:1 51:1 76:1 78:1 80:1 81:1 85:1 86:1 89:2 90:1 96:5 102:1 104:2 129:2 161:2 174:1 200:1 201:1 203:3 208:1 218:1 225:1 228:1 234:1 235:4 236:1 251:1 256:1 264:1 265:4 294:1 317:1 318:1 335:1 386:1 425:1 438:1 443:1 484:1 486:1 491:1 501:1 516:1 528:1 531:1 535:1 717:1 720:1 750:1 768:1 775:1 828:1 831:1 876:1 924:1 993:1 1031:1 1211:1 1281:1 1290:1 1293:1 1343:1 1380:1 1404:1 1444:1 1467:1 1475:1 1484:1 1526:1 1580:1 1649:1 1670:1 1694:1 1856:1 2098:1 2139:1 2277:1 2283:1 2632:1 2719:1 3178:1 3211:1 3255:1 3382:1 3547:1 4106:3 4163:1 4304:1 4382:1 5235:1 6252:1 6253:1 6254:1 6255:2 6256:1 6257:1 6258:1 #
0.0085960560076051694550214321566273 4:1 28:4 50:1 51:1 66:1 73:1 89:1 108:1 123:1 129:1 171:1 200:1 204:1 205:1 228:1 236:1 237:1 262:1 331:1 342:1 388:1 407:1 468:1 496:3 506:1 537:2 567:1 585:1 703:1 720:1 746:1 1016:1 1121:1 1161:1 1273:1 1295:1 1870:1 2165:1 2262:1 3104:1 3105:1 3106:1 3107:1 3108:1 #
0.0085960560076051694550214321566273 28:3 34:1 52:1 66:1 68:1 102:2 104:2 117:1 123:1 150:1 165:1 179:2 201:2 222:1 259:1 278:1 326:1 336:1 338:1 373:1 391:1 403:2 418:1 425:1 426:1 427:1 444:1 471:1 473:1 484:1 505:1 510:1 537:1 567:1 586:1 731:1 758:1 803:1 843:1 848:1 862:1 863:1 945:1 1001:1 1036:1 1067:1 1152:1 1165:1 1184:1 1307:1 1338:1 1528:1 1625:1 1761:1 1865:1 1891:1 1962:1 2071:1 2113:1 2277:1 2438:1 2443:1 2507:1 2528:1 2624:1 2680:2 2824:1 3888:1 4078:1 4106:1 4826:1 8621:1 8622:1 8623:1 8624:1 8625:1 8626:1 #
0.0085960560076051694550214321566273 15:1 20:1 28:4 34:1 58:1 66:1 81:1 110:1 140:1 150:1 174:2 195:1 214:1 225:1 226:1 233:1 265:1 318:1 410:2 427:1 456:1 473:1 537:1 567:1 607:1 636:1 728:1 739:1 994:1 1028:1 1041:1 1062:1 1063:1 1211:1 1212:1 1285:1 1584:1 1709:1 1800:1 1948:1 2085:1 2172:1 2290:1 2438:1 2553:1 2626:1 2703:1 2730:1 2788:1 3246:2 4717:1 5493:1 5494:2 5495:1 #
0.0085960560076051694550214321566273 3:1 20:1 22:1 28:1 44:1 48:1 78:1 81:1 122:1 169:1 174:2 215:1 235:1 275:1 296:1 409:1 438:1 474:1 580:1 746:2 751:1 874:1 919:1 944:1 1268:1 1283:1 1416:1 1618:1 1629:1 1673:1 1946:1 2754:1 4811:1 4812:1 4813:1 4814:1 4815:1 4816:1 4817:1 4818:1 4819:1 4820:1 4821:1 4822:1 #
-0.0085960560076051694550214321566273 11:1 15:1 20:1 28:2 48:1 62:1 66:1 67:1 71:1 96:1 106:1 145:1 228:1 279:1 299:1 335:1 336:1 343:1 410:1 413:1 459:1 468:1 501:1 513:1 567:1 619:1 689:1 690:1 758:1 830:1 855:1 862:1 921:1 948:1 1239:1 1348:1 1856:1 2159:1 2233:1 2757:1 2761:1 2777:1 2995:1 3457:1 6541:1 6542:1 6543:1 6544:1 6545:1 #
-0.0085960560076051694550214321566273 9:1 15:2 22:3 28:1 51:1 58:2 82:1 89:1 96:1 116:2 150:1 163:1 169:1 204:1 205:1 264:1 285:1 289:1 294:1 296:1 336:1 338:1 407:1 410:1 494:1 496:2 518:1 530:1 569:1 574:1 587:1 632:1 698:1 779:1 874:1 1211:2 1213:2 1295:1 1870:1 2188:1 2511:1 3681:1 3742:1 3745:1 4894:1 #
-0.0085960560076051694550214321566273 3:1 24:2 28:2 29:1 34:1 39:1 46:1 63:1 78:2 82:1 113:1 130:3 171:2 174:1 175:2 278:2 289:2 294:1 296:1 298:1 299:2 301:1 327:1 336:1 426:1 464:1 507:1 516:1 634:1 709:1 805:1 828:2 874:1 877:1 1018:1 1186:1 1199:1 1203:1 1226:1 1419:1 1528:1 1555:1 1851:1 1885:1 1900:1 2298:1 2659:1 3241:1 3756:1 4208:1 5007:1 6212:1 6213:1 6214:1 6215:1 6216:1 #
-0.0085960560076051694550214321566273 28:1 34:2 50:1 78:1 80:1 108:1 173:1 174:1 211:1 259:1 298:1 299:1 320:1 388:1 404:1 454:1 464:1 510:1 557:1 667:1 708:1 712:1 727:1 768:1 880:1 881:1 919:1 945:1 1121:1 1127:1 1203:1 1218:1 1219:1 1220:1 1221:1 1222:1 1223:1 1224:1 1225:1 1226:1 1227:1 1228:1 #
0.0057132248967946249254556967400731 11:1 28:2 76:1 85:1 102:1 142:1 161:1 222:1 259:3 278:1 289:1 299:1 369:2 410:1 508:1 526:2 557:1 580:1 720:1 841:1 985:1 1118:1 1153:1 1161:1 1211:1 1290:1 1335:1 1475:1 1674:1 1767:1 1903:1 3061:1 3667:1 3752:1 4371:1 6285:1 6412:1 6413:2 6414:1 6415:1 6416:1 6417:1 #
-0.001300817204827912128978217864983 10:1 19:1 28:4 38:1 52:1 66:1 74:1 108:1 140:1 149:1 150:1 161:1 174:2 198:1 203:1 204:3 205:3 220:1 228:1 234:1 235:1 242:1 252:2 265:1 279:1 308:1 318:1 335:1 383:1 386:1 433:1 464:2 506:1 520:1 524:1 531:1 537:1 547:2 555:1 585:1 720:1 772:1 775:2 788:1 813:1 823:1 839:1 841:1 968:1 973:1 1068:1 1077:1 1080:1 1114:1 1184:1 1210:1 1370:1 1376:2 1386:1 1416:1 1484:1 1520:1 1643:1 1692:1 1693:1 1706:1 2018:1 2044:1 2051:1 2204:1 2557:1 2620:1 2744:1 2841:1 3026:1 3313:1 3679:1 4923:2 5523:1 6186:1 6187:1 6188:1 6189:1 6190:1 6191:1 6192:1 #
0.0072976084198590421975305631008268 4:1 5:1 10:1 28:5 34:2 38:1 44:1 48:1 96:4 104:1 116:1 117:1 121:1 122:1 123:1 145:1 147:1 154:1 162:1 174:3 185:1 220:1 228:3 259:1 265:2 279:1 299:1 304:1 325:1 326:1 368:1 369:1 372:1 379:1 388:1 390:1 403:1 427:1 444:1 468:1 473:1 494:1 496:1 551:1 561:1 567:1 576:1 586:1 600:1 620:1 627:1 630:1 636:2 667:1 697:1 720:1 729:1 758:1 815:1 843:2 874:1 890:1 924:2 945:1 948:1 994:3 1165:1 1239:1 1308:2 1373:1 1457:1 1493:1 1528:2 1547:1 1603:1 1693:1 1817:1 1872:1 1903:1 1948:1 2000:1 2051:1 2295:1 2895:1 3030:1 3092:3 3241:1 3588:1 3716:1 4291:1 4750:1 4753:1 5109:1 5176:1 5177:1 5178:1 5179:1 5180:1 5181:1 5182:1 5183:1 #
-0.0053514840334529124171725200653782 4:2 11:3 15:1 25:1 28:4 34:1 51:1 66:2 78:4 81:1 94:1 96:3 98:1 100:1 104:1 107:1 108:2 110:2 124:1 129:1 145:2 156:1 166:1 197:1 198:1 214:1 215:1 218:1 220:1 225:1 226:3 228:3 234:1 242:1 251:1 265:2 289:4 296:1 310:1 318:2 325:1 369:1 388:1 426:1 464:1 473:1 493:1 531:1 547:1 554:1 607:1 636:1 654:1 762:1 763:2 830:1 843:2 849:1 862:1 880:1 930:1 937:1 1062:3 1063:1 1084:1 1129:1 1159:1 1194:1 1211:1 1258:1 1416:1 1421:1 1457:1 1470:1 1520:1 1547:1 1605:1 1637:1 1842:2 1946:1 1994:1 2001:1 2120:1 2234:1 2279:1 2490:1 2620:2 2656:1 2898:1 3017:1 3419:1 3662:1 4048:1 4617:1 4974:1 5184:1 5185:1 5186:1 5187:1 5188:1 5189:1 5190:1 #
-0.0027743168282086646050932365881181 3:1 28:8 38:2 43:1 44:1 50:1 51:2 58:1 66:2 77:1 78:1 80:1 96:3 104:1 108:1 112:1 140:1 149:1 156:1 161:2 168:1 190:2 197:1 203:1 206:2 211:1 212:1 218:4 228:1 235:1 247:2 254:2 259:2 260:1 263:1 265:3 275:1 278:1 280:1 285:2 318:1 325:1 336:1 337:1 350:1 351:1 368:1 379:1 403:1 467:2 482:1 505:1 509:1 510:1 524:1 531:1 538:1 554:1 572:1 607:1 624:1 625:1 708:1 779:1 817:1 855:1 904:1 920:1 924:1 940:1 945:2 1056:1 1067:1 1068:1 1108:2 1128:1 1190:1 1234:1 1286:1 1380:1 1484:2 1493:2 1668:1 1693:1 1755:1 1817:1 1839:1 1851:1 1856:1 1929:1 2245:1 2562:1 2683:1 2755:1 2841:1 2860:1 3065:1 4049:1 4227:1 4825:2 5445:1 5750:1 5938:1 5945:1 5953:2 6710:1 6852:1 6875:1 8818:1 8819:1 8820:1 8821:1 #
-0.0017731560559300565006052297079009 4:1 10:1 13:1 15:1 18:1 24:1 28:4 34:1 43:1 48:1 58:1 77:2 78:3 80:1 81:1 87:3 96:3 102:1 104:1 107:1 108:2 129:2 147:1 149:1 157:1 161:1 171:1 174:4 189:1 211:2 215:1 218:2 220:1 226:1 229:1 234:1 252:1 253:1 265:4 275:1 326:1 360:1 367:1 369:1 371:1 376:1 425:1 427:1 464:1 474:1 506:1 528:1 535:1 547:1 553:1 595:1 607:1 626:2 644:1 678:1 697:4 739:1 750:1 843:1 909:1 940:1 1024:1 1062:1 1077:1 1080:2 1231:1 1272:1 1273:1 1343:1 1379:1 1410:1 1427:1 1555:1 1563:1 1608:1 1647:1 1698:1 1712:1 1713:1 1842:2 1861:1 1937:1 2223:1 2389:1 2678:1 2703:1 2740:1 2804:1 3086:1 3255:1 3269:1 3872:1 3921:1 3927:1 3931:1 4140:1 4160:1 4204:1 4737:1 4918:1 4925:1 5774:1 6121:1 6620:1 6621:1 6622:1 6623:1 6624:1 6625:1 6626:1 6627:1 #
0.0085960560076051694550214321566273 3:1 24:1 34:1 71:2 82:1 89:1 96:2 110:1 130:1 145:2 174:2 201:1 203:1 211:1 225:1 249:1 278:2 296:2 299:1 331:1 456:1 464:1 467:1 478:1 494:1 540:1 572:1 575:1 629:2 654:1 660:1 699:1 708:1 728:1 750:1 862:1 863:1 874:1 877:1 999:1 1000:2 1023:1 1027:1 1041:1 1062:1 1080:1 1117:1 1118:1 1309:1 1338:1 1416:1 1472:1 2538:1 2588:3 2715:1 3128:2 5525:1 5581:1 8283:1 8284:1 8285:1 8286:1 8287:1 #
0.0085960560076051694550214321566273 4:1 24:1 28:1 66:1 76:1 96:1 102:1 146:1 149:1 177:1 198:1 201:1 265:1 305:1 318:2 327:1 410:1 437:1 456:1 501:1 516:1 540:2 545:1 567:1 638:1 660:2 703:1 823:1 828:1 880:1 924:1 955:1 964:2 1000:1 1108:1 1193:1 1335:1 1636:1 1686:2 1797:1 1850:2 1929:1 2296:1 2416:1 2611:1 2698:1 2799:1 2995:1 3071:1 3072:1 3073:1 3074:1 #
0.0085960560076051694550214321566273 4:1 10:3 11:1 22:1 24:1 27:1 28:1 44:1 88:1 96:3 140:1 145:1 149:1 205:1 220:1 235:1 265:1 267:1 289:2 291:1 296:1 299:1 318:1 320:2 342:1 400:1 454:1 468:1 496:1 520:1 547:1 551:1 620:1 638:1 697:1 729:1 773:1 786:1 848:1 857:1 887:1 924:1 1079:1 1146:1 1376:1 1416:1 1461:1 1520:1 1630:1 1708:1 2051:1 2327:1 2634:1 2994:1 3035:1 3075:1 3821:1 4047:1 4276:2 5241:1 5297:1 6609:1 6610:1 6611:1 6612:1 6613:1 6614:1 6615:1 #
0.0085960560076051694550214321566273 3:1 4:1 10:1 33:1 34:1 41:1 52:1 53:1 67:1 72:1 74:1 81:2 82:1 96:1 103:1 149:1 161:1 163:1 166:1 204:1 211:1 215:1 222:1 251:1 276:1 278:1 280:1 289:1 318:1 369:1 419:1 478:1 482:1 521:1 617:1 620:1 680:1 762:2 803:1 821:2 848:1 891:1 907:3 998:1 999:1 1010:1 1062:1 1079:1 1129:1 1146:1 1211:1 1231:1 1326:1 1355:2 1359:1 1411:1 1453:2 1643:1 1693:1 1745:1 1894:1 1966:1 2037:3 2390:2 2468:1 2728:1 2885:1 3143:1 3155:1 3204:1 3852:1 3990:1 4093:1 4094:1 4095:1 4096:1 4097:1 4098:2 4099:1 4100:1 4101:1 4102:1 4103:1 4104:1 4105:1 4106:1 4107:1 4108:1 4109:1 4110:1 4111:1 4112:1 4113:1 4114:1 4115:1 4116:1 4117:1 4118:1 4119:1 4120:1 #
0.0085960560076051694550214321566273 10:1 19:1 28:1 147:1 208:1 259:1 373:1 400:1 496:1 824:1 874:1 985:1 1424:1 1568:1 1616:1 1625:1 3740:1 4049:1 4467:1 5147:1 7802:1 #
-0.0085960560076051694550214321566273 2:1 5:1 6:1 11:1 13:1 20:1 28:1 34:1 78:1 87:1 90:2 96:2 104:1 110:1 118:1 140:1 145:2 161:2 174:2 203:1 230:1 410:1 482:1 569:1 629:1 636:2 878:1 900:1 1000:1 1338:1 1676:1 2896:1 3092:1 4242:1 5937:1 7910:1 7911:1 7912:1 #
-0.0085960560076051694550214321566273 10:1 11:2 19:1 20:1 96:4 107:1 108:1 114:1 117:1 130:1 161:1 174:2 175:1 220:1 230:1 231:1 236:1 265:1 304:2 330:1 358:1 400:2 410:2 545:1 569:1 621:1 632:1 654:1 720:1 758:1 877:1 881:1 1236:1 1467:1 1474:1 1623:1 1643:1 1682:1 1694:1 1929:1 1979:1 1983:1 2065:1 2192:1 2235:1 3017:1 3727:1 7063:1 #
-0.0085960560076051694550214321566273 3:1 5:1 34:1 72:1 96:3 106:1 122:1 123:1 145:1 174:2 318:1 332:1 400:1 407:1 410:1 413:1 598:1 620:1 654:1 803:1 855:1 874:1 1079:1 1245:1 1796:1 1992:1 2133:1 2148:1 #
-0.0085960560076051694550214321566273 38:1 96:2 102:1 104:1 122:1 149:1 174:1 222:1 241:1 257:1 285:1 297:1 304:1 505:1 673:1 708:1 715:1 1000:1 1560:1 1603:1 1766:1 2013:1 2158:1 2804:1 3069:1 5531:1 7367:1 8676:1 8677:1 8678:1 8679:1 8680:1 8681:1 #
-0.0085960560076051694550214321566273 96:2 102:1 129:1 150:1 174:2 203:1 259:1 265:1 267:1 505:1 623:1 1164:1 1236:1 1645:1 1647:1 1694:1 1766:1 1937:1 2543:1 5873:1 6139:1 #
0.0085960560076051694550214321566273 10:1 15:2 20:1 28:6 44:1 48:1 49:1 59:1 71:1 75:1 77:1 78:4 96:1 102:1 104:1 108:3 112:1 129:1 142:2 147:1 150:1 156:1 174:4 195:1 203:1 204:1 205:2 242:1 259:1 265:2 269:1 275:1 277:1 330:1 336:1 359:1 370:1 388:1 410:1 508:1 553:1 580:2 600:1 629:1 720:1 779:2 790:1 828:1 874:1 878:1 886:1 1049:1 1167:1 1211:1 1272:1 1287:1 1293:1 1299:1 1305:2 1338:1 1352:1 1639:1 1782:1 1842:1 1886:1 2172:1 2192:1 2443:1 2753:1 3032:1 3110:1 3870:1 3871:1 4087:1 4737:1 5370:1 5930:1 6595:1 7358:1 7359:1 7360:1 7361:1 #
0.0065730599098410835701145060738781 10:1 15:1 19:1 24:2 28:5 38:2 43:1 48:1 61:1 66:1 67:1 71:1 73:2 75:1 78:1 108:1 140:1 144:1 154:1 161:1 165:1 175:1 198:1 200:2 201:1 203:2 204:1 205:1 211:1 221:1 234:1 249:1 256:2 259:1 265:1 276:1 278:1 289:2 292:1 299:1 325:1 335:2 338:1 351:1 372:1 380:1 409:1 464:1 473:1 545:1 547:1 570:1 609:1 620:1 623:1 624:1 635:1 694:1 715:1 717:1 726:1 775:1 787:1 924:1 950:1 1010:1 1037:1 1065:1 1067:1 1098:1 1211:1 1285:1 1295:1 1391:1 1417:1 1427:1 1545:1 1850:2 1900:1 2378:1 2624:1 2640:1 2773:1 2931:1 3191:1 3592:1 3715:1 3887:1 5034:1 5277:1 5525:1 5526:1 5527:1 5528:1 5529:1 5530:1 5531:1 5532:1 5533:1 #
0.0045213544438664860988796867502515 11:1 15:1 25:1 28:6 34:1 38:2 63:2 66:1 78:1 96:3 97:1 104:1 106:2 108:1 112:1 129:2 168:1 174:2 175:1 189:1 219:1 232:1 251:1 260:2 263:1 264:1 275:1 299:1 343:1 373:1 412:2 433:1 473:1 479:1 482:1 484:1 486:1 501:1 557:1 567:1 609:2 619:1 623:1 626:1 627:2 636:2 687:1 720:1 775:1 791:1 806:1 849:1 880:1 905:2 964:1 969:1 994:1 1045:1 1111:1 1127:1 1140:1 1161:1 1390:1 1457:3 1603:1 1647:1 1652:1 1738:1 1748:2 1750:1 1845:2 1885:2 2267:1 2438:1 2443:1 2463:1 2552:1 2562:2 2811:1 2898:1 2905:1 2925:1 3036:1 3092:1 3146:1 3169:1 3374:1 3691:1 3899:1 3942:1 4049:1 4517:1 4678:2 5964:1 6718:1 6929:1 6930:1 6931:1 6932:1 6933:1 6934:1 6935:1 6936:1 6937:1 6938:1 6939:1 6940:1 #
0.0076365976787530279179527781252546 28:5 59:1 61:1 68:1 71:1 75:1 82:1 87:2 96:3 97:3 147:1 166:1 168:1 173:1 174:3 185:1 228:1 233:2 259:2 260:4 262:1 265:3 269:1 318:1 326:1 464:3 484:1 486:2 505:1 508:3 557:1 561:1 567:3 731:1 758:1 823:1 830:1 877:1 1165:2 1211:1 1608:1 1686:1 1690:5 1768:1 1840:1 1850:1 2010:1 2076:1 2800:1 2896:1 3428:1 3693:1 3715:1 3772:1 3947:1 4420:1 4463:1 4541:1 5143:1 5309:1 6826:2 7385:1 8658:1 8659:1 8660:1 8661:1 8662:1 #
0.0078492670078686849199911534924468 3:1 15:1 20:2 24:1 28:8 43:1 47:1 51:1 58:2 112:1 114:1 156:1 161:1 173:1 174:1 180:1 185:1 204:3 205:3 211:1 222:1 225:1 230:1 236:1 248:2 276:1 278:1 288:1 304:1 305:2 334:1 351:1 369:1 410:1 510:1 526:1 536:1 555:2 588:1 613:1 625:1 750:1 775:2 788:1 832:1 950:1 965:1 986:1 1010:1 1018:1 1248:3 1266:1 1352:2 1410:1 1416:2 1449:1 1516:1 1524:1 1543:1 1845:1 1886:1 1912:1 1984:1 2020:3 2022:1 2054:2 2223:1 2247:1 2393:1 2438:1 2462:2 2518:1 2683:1 2687:1 2886:1 2994:1 3035:2 3197:1 3421:1 3662:2 3680:1 4420:1 4528:1 4979:1 4980:1 4981:1 4982:1 4983:1 4984:1 4985:1 4986:1 4987:1 4988:1 4989:1 #
-0.0010594673515550165690535244777948 28:5 34:1 38:2 39:2 43:1 51:1 63:1 66:1 68:1 71:2 73:1 75:1 77:1 78:2 81:1 89:1 96:1 150:1 159:1 174:2 190:1 203:2 204:3 205:3 236:1 251:1 252:2 254:2 259:4 260:2 265:2 275:2 277:1 278:2 284:1 285:2 325:1 336:1 337:1 369:1 373:1 400:1 444:1 474:1 475:1 478:1 505:1 524:1 531:1 540:1 547:1 567:1 580:1 597:1 598:1 608:1 621:1 659:1 733:1 762:1 773:1 828:1 830:1 861:1 874:2 920:1 940:1 990:1 1062:1 1067:1 1068:1 1138:2 1184:1 1188:1 1256:1 1314:1 1416:1 1461:1 1484:3 1581:1 1583:1 1618:1 1686:2 1850:3 1927:1 2051:1 2088:1 2281:1 2393:1 2399:1 3160:1 3178:1 3626:1 3723:2 3887:1 4517:1 4834:1 4927:1 4984:1 5195:2 5277:1 6381:1 7179:1 7180:2 7181:1 7182:1 7183:1 7184:1 #
-0.0085960560076051694550214321566273 3:1 19:1 28:7 41:1 66:1 77:1 78:1 89:1 108:1 136:1 140:2 161:1 174:3 189:1 198:1 203:1 204:1 205:1 231:1 234:1 251:1 252:1 254:2 274:1 275:1 291:2 304:1 331:1 367:1 369:1 400:1 403:1 405:2 410:2 452:1 524:1 531:1 537:1 547:1 557:1 568:1 580:2 591:1 621:1 639:1 644:1 651:1 667:1 688:1 772:1 775:1 849:1 874:1 934:1 945:1 950:1 1000:1 1056:1 1087:1 1128:1 1138:1 1157:1 1164:1 1172:1 1184:2 1204:1 1211:1 1484:1 1504:1 1621:1 1929:2 1952:1 1966:1 2051:1 2191:1 2263:1 2329:1 2487:1 2705:1 3173:1 3351:1 3530:1 3602:1 3848:1 5093:1 5132:1 8124:1 8633:1 8634:1 8635:1 8636:1 8637:1 8638:1 8639:1 8640:1 8641:1 #
-0.0085960560076051694550214321566273 3:1 28:6 34:1 43:2 80:1 96:1 102:1 104:1 116:1 129:1 136:2 149:1 150:1 161:1 203:2 205:2 218:1 228:2 235:1 242:1 251:1 325:1 337:1 395:1 407:1 427:1 467:1 473:1 538:1 540:1 553:1 588:1 589:1 604:1 650:1 651:1 698:1 713:1 760:1 797:1 832:1 892:1 905:1 924:1 945:1 1295:1 1366:1 1376:1 1416:1 1427:1 1855:1 1912:1 1967:1 2065:2 2066:2 2139:1 2286:1 2295:1 2677:1 2841:1 2994:1 3883:2 3884:1 3885:1 3886:1 3887:1 3888:1 3889:1 3890:1 3891:1 #
0.0085960560076051694550214321566273 10:1 11:1 13:1 34:2 56:1 58:2 81:1 88:1 89:1 90:1 95:1 96:6 106:1 108:2 156:1 169:1 171:1 174:2 175:1 177:1 190:1 215:1 259:1 286:1 296:1 313:1 392:1 403:1 404:1 405:1 410:1 427:1 464:2 484:1 491:1 496:1 531:1 545:1 557:1 567:1 574:1 629:1 654:1 712:1 803:1 804:1 828:1 833:1 834:1 843:1 863:1 934:1 990:1 1056:1 1062:1 1079:1 1128:1 1406:1 1411:1 1430:1 1467:1 1641:1 1643:1 1709:1 1766:1 2021:1 2093:1 2191:1 2348:1 2469:2 2503:1 2579:1 2730:1 2744:1 2883:1 3200:1 3455:1 3712:1 3846:1 3860:1 4097:1 4615:1 5281:1 5477:1 5518:1 5645:1 5775:1 5897:1 5898:1 5899:1 5900:1 5901:1 5902:1 5903:1 5904:1 5905:1 5906:1 #
0.0085960560076051694550214321566273 13:1 19:2 96:4 116:1 168:2 173:1 174:3 277:1 456:1 482:1 687:1 828:1 877:1 929:1 1126:1 1148:1 1211:1 1577:1 1599:1 1652:2 1939:1 2290:1 2340:1 2977:2 4204:1 5613:1 5614:1 5615:1 5616:1 #
0.00098615140349745376326107137998633 19:1 23:1 25:2 34:1 44:1 71:1 81:1 96:6 108:1 112:1 122:2 124:1 147:1 173:1 174:1 175:1 200:1 203:1 206:1 212:1 218:3 256:1 264:1 276:1 291:1 304:1 325:1 351:3 368:1 397:1 406:1 410:1 478:1 494:1 510:1 588:1 591:4 595:1 689:1 694:1 733:1 734:1 736:9 762:2 775:1 779:1 830:1 855:1 879:1 993:1 1024:1 1031:1 1080:1 1113:3 1129:1 1248:1 1266:1 1279:2 1411:1 1419:2 1421:1 1605:1 1612:1 1638:1 1670:4 1676:1 1721:1 1782:3 1840:2 1886:2 1910:2 1952:2 2037:1 2132:1 2277:1 2562:1 2756:1 2926:1 2938:1 3334:1 3520:1 3696:1 3742:2 4386:1 4504:1 4528:1 4566:1 4779:1 5202:1 5707:1 6148:1 6250:1 6902:1 7219:1 8687:1 8760:1 8761:3 8762:1 8763:1 8764:2 8765:1 8766:1 8767:1 8768:1 8769:1 8770:1 8771:1 #
0.0085960560076051694550214321566273 30:1 38:1 48:1 68:1 96:4 102:1 166:1 222:1 225:1 235:1 249:1 251:1 269:1 285:1 299:1 305:1 311:1 318:1 320:1 336:1 404:1 420:1 457:1 494:2 510:2 528:2 555:1 567:1 587:1 595:1 635:1 689:2 690:1 731:1 746:1 758:1 819:1 878:1 1018:1 1286:1 1376:1 1384:2 1421:1 1470:1 1495:1 1520:1 1521:1 1605:1 1618:1 1790:1 1791:1 1792:1 1793:1 1794:1 1795:1 1796:1 1797:1 1798:1 1799:1 1800:1 1801:1 1802:1 1803:1 1804:1 1805:1 1806:1 1807:1 #
0.0085960560076051694550214321566273 11:2 34:1 42:1 51:2 78:1 88:1 90:1 96:2 104:1 106:1 117:1 168:1 174:1 205:1 222:1 232:1 265:1 299:1 410:1 471:1 545:1 595:1 690:1 720:1 830:1 847:1 929:1 950:1 1007:1 1153:1 1203:1 1307:1 1325:1 1520:1 1545:1 1608:1 1682:1 1827:1 2071:1 2072:1 2188:1 2281:2 2705:1 2885:1 2919:1 3619:1 3698:1 3947:1 5775:1 #
-0.0085960560076051694550214321566273 5:1 10:1 11:1 13:1 15:1 19:1 40:1 52:2 59:1 68:1 85:1 96:5 110:1 112:1 116:1 156:1 168:1 173:1 174:1 204:1 232:1 259:1 269:1 282:2 301:1 302:1 303:1 368:1 373:1 388:1 410:1 418:1 452:1 456:1 482:1 509:1 547:1 555:1 638:1 654:1 711:1 727:1 880:1 997:1 1000:1 1077:1 1231:1 1705:1 1741:1 2131:1 3028:1 3285:1 3613:1 4278:1 4945:1 4946:1 4947:1 4948:1 4949:1 4950:1 4951:1 4952:1 4953:1 4954:1 #
-0.0025987053596881522915529316719585 3:2 10:2 19:1 24:3 28:2 34:2 41:1 58:2 96:5 97:4 104:1 117:1 144:1 171:1 174:3 200:2 201:1 211:1 215:1 236:1 246:1 251:1 256:1 259:1 295:1 300:1 386:1 400:1 404:2 427:1 486:2 487:1 508:1 510:1 536:1 545:1 567:1 572:1 574:1 636:1 654:1 712:2 715:1 727:1 731:1 772:1 773:1 872:2 888:1 933:1 1000:1 1105:1 1226:1 1281:1 1330:1 1470:1 1493:1 1546:1 1580:1 1605:1 1694:1 2159:1 2295:1 2464:1 2632:1 2809:1 4125:1 4574:1 6234:1 7192:1 7193:1 7194:1 7195:1 7196:1 #
-0.0085960560076051694550214321566273 5:1 10:1 12:1 13:1 19:1 24:1 34:1 38:1 85:1 87:1 96:4 98:1 106:1 108:1 110:1 129:1 143:1 166:1 169:1 171:1 174:2 201:2 211:1 215:1 229:1 231:1 252:1 255:1 265:1 299:1 303:1 330:1 369:1 398:1 414:1 464:1 473:1 479:1 484:1 486:1 510:1 556:1 574:1 601:1 625:1 630:1 672:1 685:1 712:2 719:1 729:2 755:1 761:1 813:1 824:1 830:1 862:1 880:1 905:1 934:1 971:1 985:1 1363:1 1421:1 1470:1 1575:1 1671:1 1713:1 1836:1 1937:1 1951:1 2165:1 2290:1 2298:1 2510:1 2626:1 2667:2 2753:1 2785:1 2799:1 3322:1 3573:1 3937:1 4063:1 4067:1 4663:1 4677:1 5052:1 5064:1 6092:1 6433:1 6434:1 6435:1 6436:1 6437:1 6438:1 6439:1 6440:1 6441:1 6442:1 #
-0.007259388485963133748335440742494 15:2 28:2 29:1 34:2 38:1 46:1 47:1 66:1 67:2 96:3 104:1 106:1 171:1 174:2 229:1 242:1 264:2 294:1 299:1 325:1 423:2 489:1 496:2 554:1 570:1 598:1 636:1 648:1 654:1 682:1 687:2 689:1 773:2 821:1 862:1 878:2 883:2 909:1 977:1 1087:1 1126:1 1165:1 1457:1 1670:2 1723:1 1842:1 2383:1 2674:1 2676:1 2902:1 3623:1 4863:1 6148:1 6149:1 6150:1 6151:1 6152:1 6153:1 6154:1 6155:1 6156:1 #
-0.0085960560076051694550214321566273 5:1 28:1 34:1 38:1 53:1 67:1 78:1 82:1 96:4 108:1 166:1 168:2 169:1 185:1 198:1 230:1 264:1 279:1 299:2 308:1 403:1 410:1 425:1 494:1 537:1 543:1 545:1 595:1 628:1 660:1 687:1 697:1 720:2 731:1 883:1 985:1 1062:1 1416:1 1444:1 1543:1 1569:1 1603:1 2021:1 2415:1 3921:1 4217:1 4420:1 5916:1 5917:1 5918:1 #
0.0085960560076051694550214321566273 18:1 28:5 34:1 39:1 66:1 73:1 96:2 104:1 129:1 161:1 169:1 201:1 205:1 235:1 257:1 274:1 285:1 296:1 299:1 304:1 373:2 407:1 468:1 473:1 510:2 531:1 574:1 585:1 609:1 625:1 673:2 682:1 708:1 728:1 746:1 862:1 895:1 927:1 1178:1 1376:1 1394:1 1484:1 1603:1 1610:1 1879:1 1891:1 1930:1 1931:1 1932:1 1933:1 1934:1 1935:1 1936:1 1937:1 1938:1 1939:1 1940:1 1941:1 1942:1 1943:1 1944:1 1945:1 1946:1 1947:1 1948:1 #
0.0076019560713608356344872518661759 3:1 11:1 24:1 28:3 43:4 48:1 77:1 78:2 80:1 81:3 89:1 103:1 129:1 147:1 149:1 157:1 161:3 165:1 174:4 203:1 204:2 205:2 225:1 234:1 235:2 259:2 262:1 264:1 265:2 277:1 279:2 285:1 296:1 332:1 337:1 351:2 360:1 367:1 368:1 427:1 443:1 506:1 557:1 567:2 572:1 613:1 773:1 823:1 945:1 1010:2 1031:1 1376:1 1401:1 1457:1 1461:2 1484:1 1542:1 1588:1 1631:1 1639:1 1813:1 2050:1 2051:1 2054:1 2281:1 2290:1 2422:2 2702:1 2804:1 2841:2 3158:1 3497:2 3498:1 3499:1 3500:1 3501:1 3502:1 3503:1 3504:1 3505:1 3506:1 3507:1 3508:1 #
0.0083339973870658161370084116015278 15:2 18:1 28:3 36:1 48:1 51:1 63:1 87:1 89:1 96:1 108:1 129:1 145:1 161:2 165:1 196:1 203:2 205:1 207:1 251:1 259:1 278:1 279:1 285:1 286:1 304:1 337:1 351:1 369:3 380:1 410:1 463:1 473:1 484:1 524:1 526:1 531:1 537:1 540:1 547:1 604:1 644:1 652:3 727:1 843:2 857:1 874:1 876:1 995:1 1211:2 1285:1 1293:2 1314:1 1521:1 1603:1 1709:1 1736:1 1927:2 2017:1 2051:1 2065:1 2348:2 2524:1 2562:1 2926:1 3265:1 3346:1 3457:2 3761:1 4320:1 4348:1 4587:1 4689:1 5799:1 5800:1 5801:1 5802:1 5803:1 5804:1 5805:1 5806:1 5807:1 #
0.0085655381849142359779181177259488 3:1 4:1 5:2 6:1 24:1 28:4 29:1 34:1 43:1 47:1 48:1 67:1 78:1 81:1 85:1 89:3 96:1 124:1 129:1 145:1 147:2 161:2 174:2 175:1 177:1 200:3 203:1 216:2 218:2 234:1 235:1 242:1 256:1 265:1 269:1 278:1 281:1 285:2 291:2 296:1 312:1 327:1 330:1 334:1 337:1 359:1 368:1 444:1 479:2 484:1 496:1 505:1 506:1 508:1 520:1 554:2 557:2 644:2 671:1 697:3 708:1 712:1 739:1 750:1 762:1 768:1 773:1 779:1 907:1 985:2 1018:1 1111:1 1162:1 1165:1 1266:1 1363:1 1379:3 1416:2 1441:1 1521:1 1565:1 1638:1 1815:1 1836:1 2235:1 2896:1 2996:1 3148:1 3573:1 3691:1 3717:3 3846:1 4008:1 4411:1 4770:1 4771:1 4772:1 4773:1 4774:1 4775:1 4776:2 4777:1 4778:1 4779:1 #
0.0085960560076051694550214321566273 15:1 28:7 31:1 40:2 90:1 114:1 116:1 136:3 140:2 149:2 150:1 190:1 203:2 221:1 228:1 248:2 265:1 275:2 285:3 289:1 290:2 300:1 308:1 310:2 337:1 351:2 393:1 400:1 407:1 506:2 547:1 555:1 557:1 573:1 605:1 629:1 710:1 717:1 746:3 772:1 788:1 828:1 950:1 1014:1 1307:1 1411:2 1416:2 1603:1 1693:1 1827:1 1903:1 2017:2 2071:1 2393:1 2422:1 2426:1 2451:1 2903:1 3587:1 3660:1 3679:1 3760:1 3867:1 4227:1 4487:1 4488:1 4489:1 4490:1 4491:1 4492:1 4493:1 4494:1 #
-0.0085960560076051694550214321566273 24:2 28:4 34:1 35:1 39:2 51:2 72:1 77:2 81:1 96:1 102:1 112:1 118:1 161:3 168:1 173:1 174:1 190:1 203:1 204:2 205:2 225:1 234:1 251:3 259:1 265:1 275:1 276:1 278:1 279:1 280:1 285:2 337:1 369:2 370:1 388:1 394:1 400:1 402:1 454:2 467:1 473:3 482:1 506:1 508:1 607:2 644:1 746:2 753:1 762:1 823:1 853:1 857:1 892:1 905:1 1010:2 1068:1 1165:1 1332:1 1416:2 1458:1 1663:1 1698:1 1839:1 2290:1 2437:1 3505:1 3573:1 3747:1 3821:1 4106:1 4173:1 4220:1 4397:1 8739:1 8740:1 8741:1 8742:1 8743:2 8744:1 8745:1 #
-0.0085960560076051694550214321566273 3:1 9:1 11:1 24:1 28:2 29:1 36:1 43:1 49:1 52:1 71:1 76:1 77:2 78:4 81:1 85:1 89:1 107:1 110:1 129:1 134:1 145:1 156:1 161:2 173:2 174:1 175:1 190:1 203:1 205:1 234:1 242:1 245:1 248:1 265:2 289:2 304:1 325:1 403:1 410:1 454:3 479:1 494:1 505:1 539:1 554:1 555:1 567:1 595:1 652:1 660:1 701:1 736:1 857:1 906:2 933:1 950:1 1056:1 1128:1 1204:1 1221:1 1231:1 1335:1 1350:1 1637:1 1677:1 1836:1 1849:1 1850:1 2033:1 2159:2 2169:1 2210:1 2286:1 2437:1 2527:1 2669:1 2686:1 4330:1 4473:1 4593:1 8187:1 8787:1 8788:1 8789:1 8790:1 8791:1 8792:1 #
-0.0085960560076051694550214321566273 11:1 14:2 15:3 16:1 24:1 28:4 38:1 48:1 50:1 51:1 78:1 90:1 96:2 104:1 129:1 130:1 136:1 145:1 150:1 165:2 166:1 169:2 216:1 218:1 228:1 230:1 232:1 235:1 265:1 278:1 325:1 330:1 331:1 386:1 388:1 410:1 435:1 444:1 486:1 505:1 552:1 605:1 680:1 698:1 717:1 720:1 728:1 790:1 824:1 880:1 920:1 927:1 1067:1 1153:1 1161:1 1165:1 1211:1 1231:1 1289:1 1314:1 1397:1 1458:1 1552:1 1575:1 1682:1 1693:1 1804:1 1879:1 1987:1 1988:1 2062:1 2066:1 2165:1 2593:1 3016:1 3064:1 3096:1 3161:1 3598:1 3756:1 3759:1 4384:1 4727:1 5341:1 5518:1 6217:1 6218:1 6219:1 6220:1 6221:1 6222:1 6223:1 6224:1 6225:1 #
0.0085960560076051694550214321566273 15:1 19:1 28:1 46:1 50:1 82:1 87:1 96:5 104:2 106:1 121:1 130:1 141:1 156:1 174:4 185:1 200:1 220:1 226:1 229:1 235:3 257:1 325:1 345:1 404:1 410:1 426:1 438:1 484:1 496:1 509:1 510:1 537:1 553:1 572:1 574:1 595:1 654:1 667:1 683:1 697:1 715:1 790:1 862:1 907:1 927:1 964:1 1043:1 1113:1 1143:1 1211:1 1227:1 1231:1 1235:1 1236:1 1373:1 1605:1 1612:1 1621:1 1962:1 2133:1 2191:1 2388:1 2980:1 3081:1 3817:1 4041:1 5431:1 5432:1 5433:1 5434:1 5435:1 5436:1 5437:1 5438:1 5439:1 #
0.0085960560076051694550214321566273 3:2 14:1 22:3 34:2 40:1 63:2 66:1 71:1 76:2 77:1 78:2 88:1 96:4 102:1 121:1 122:1 123:1 149:1 174:4 200:1 235:1 282:1 299:1 320:1 335:1 338:1 407:1 427:1 454:1 466:1 473:1 478:1 482:1 486:1 536:1 627:4 638:1 682:1 687:1 708:1 709:1 828:1 880:1 902:1 944:1 1062:1 1226:1 1272:1 1312:2 1394:1 1533:1 1563:1 1575:1 1603:2 1861:1 2168:1 2445:1 2715:1 3313:1 6461:1 7379:1 8414:1 8415:1 #
0.0085960560076051694550214321566273 4:1 9:1 10:1 24:1 28:3 38:1 47:1 67:1 75:1 78:1 96:5 104:2 106:1 129:1 145:1 149:1 152:1 169:1 171:1 174:2 190:1 195:1 228:1 259:1 289:1 404:1 410:3 412:1 426:1 435:1 478:1 491:1 494:1 562:1 572:1 635:1 654:1 688:1 758:1 876:1 878:1 886:1 895:1 1087:1 1127:1 1204:1 1291:1 1370:1 1475:1 1545:1 1634:1 1725:1 1770:1 1828:1 1861:1 1972:1 2075:1 2156:1 2518:1 2741:1 2742:1 2743:1 2744:1 2745:1 2746:1 2747:1 2748:1 2749:1 2750:1 2751:1 2752:1 2753:1 2754:1 2755:1 2756:1 #
-0.0081913933301670117242965218906647 3:4 6:1 9:1 15:1 22:1 28:3 34:1 43:1 44:1 58:1 61:1 62:1 63:2 66:1 76:1 80:2 96:4 104:1 141:1 145:4 147:1 165:1 166:1 174:6 185:1 200:1 204:2 205:2 235:3 239:1 251:1 275:1 285:1 310:1 316:1 318:1 325:1 326:1 330:1 342:1 351:1 367:1 380:1 393:1 399:1 400:1 471:1 486:1 574:1 587:1 598:1 607:1 609:1 613:1 625:1 636:1 644:1 667:1 668:1 708:1 731:1 760:1 816:1 828:1 834:1 855:1 913:1 927:1 1024:1 1041:2 1211:1 1236:1 1266:1 1312:1 1349:1 1397:1 1461:1 1580:1 1584:1 1603:1 1625:2 1861:1 1948:1 2247:1 2290:1 2483:1 2507:1 2624:1 3169:1 3217:1 3246:1 3410:1 3527:1 4291:1 4292:1 4293:1 4294:1 4295:1 4296:1 4297:1 4298:1 4299:1 4300:1 4301:1 4302:1 #
-0.0037838089500180542915086512323342 3:1 4:2 9:1 15:1 28:2 34:2 38:2 46:2 58:1 61:2 67:1 77:1 82:1 89:2 96:4 102:1 108:1 114:1 122:1 129:1 149:1 157:1 161:1 165:1 168:1 174:3 197:1 200:1 203:2 204:1 205:1 208:1 235:1 236:1 252:1 265:1 285:1 304:1 318:2 336:1 347:1 351:1 367:1 368:1 388:1 433:1 444:1 454:1 484:1 531:1 538:1 547:1 569:1 572:1 575:1 586:2 609:1 659:1 691:1 734:1 762:2 773:1 797:1 824:1 853:1 874:1 880:1 994:2 1027:1 1037:1 1140:1 1210:1 1311:1 1736:1 1770:1 1856:1 2126:1 2217:1 2290:1 2562:1 2687:1 2754:1 2841:1 2866:1 3105:1 3358:1 3592:1 3760:1 4203:1 5156:1 5530:1 6744:1 6919:1 8542:1 8699:1 8700:1 8701:1 8702:1 8703:1 #
-0.0065256789041339162069088608575385 11:1 15:2 28:2 34:1 41:1 56:1 61:1 88:1 96:5 149:1 174:1 232:1 245:1 252:1 259:1 379:1 410:2 452:1 468:1 473:2 489:1 510:1 528:1 545:2 568:1 598:1 610:1 629:1 652:1 654:1 682:1 720:1 763:1 779:2 806:1 877:1 1041:1 1062:1 1143:1 1167:1 1223:1 1258:1 1279:1 1394:2 1421:1 1464:1 1516:1 1577:2 1603:1 1948:1 2084:1 2168:1 2438:1 2788:1 3028:1 3071:1 3210:1 3218:2 3887:1 4717:1 5914:1 6999:1 7362:1 7363:1 7364:1 7365:1 #
-0.0085960560076051694550214321566273 22:2 28:2 34:1 38:1 61:1 62:1 68:1 78:1 80:1 82:1 96:2 110:1 122:1 142:1 150:1 174:3 203:1 204:2 205:2 211:1 239:1 245:1 254:1 278:1 299:1 338:1 380:1 386:1 405:1 407:1 410:2 463:1 468:1 478:1 491:1 510:1 554:1 567:1 621:1 652:1 711:1 728:1 840:1 924:1 969:1 1000:1 1167:1 1203:1 1211:2 1248:1 1329:1 1412:1 1493:1 1509:1 1534:1 1625:1 1693:1 1800:1 2172:1 2290:1 2295:1 2804:1 3154:1 3514:1 4352:1 4426:1 5143:1 6187:1 7301:1 7302:1 7303:1 7304:1 7305:1 7306:1 7307:1 7308:1 7309:1 #
0.0085960560076051694550214321566273 11:1 15:2 19:1 26:1 28:4 34:1 51:1 66:1 78:1 96:1 110:1 141:1 145:1 169:1 195:1 303:1 327:1 335:1 372:1 379:1 403:1 463:1 491:1 526:1 660:2 685:1 697:1 728:1 848:1 880:1 905:2 909:1 982:1 1073:1 1195:1 1213:1 1231:1 1276:1 1444:1 1484:1 1694:1 1916:1 2014:1 2069:1 2075:1 2193:1 2354:1 2571:1 2777:1 3716:1 3724:1 4050:1 4334:2 4570:1 4841:1 5194:1 5695:1 5696:1 5697:1 5698:1 5699:1 5700:1 5701:1 5702:1 5703:1 5704:1 5705:1 5706:1 5707:1 5708:1 5709:1 5710:1 5711:1 5712:1 5713:1 5714:1 5715:1 5716:1 5717:1 5718:1 5719:1 5720:1 #
0.00074014025463299255944843446641812 11:1 19:1 22:1 28:4 31:1 38:3 76:1 78:2 81:1 94:1 96:2 102:2 108:1 129:1 141:1 142:1 149:1 156:3 161:1 169:2 175:1 190:1 203:1 204:1 205:2 251:1 257:1 259:2 264:2 265:1 275:1 277:1 278:2 282:2 285:1 286:1 294:2 296:1 351:1 386:1 403:2 404:1 405:1 412:1 425:1 443:1 444:2 453:1 454:2 526:1 547:1 555:1 569:2 574:1 580:1 585:1 631:1 636:2 644:1 654:2 698:1 717:3 720:1 762:1 775:1 830:1 839:1 848:1 863:1 877:1 880:1 881:1 890:1 892:1 902:1 909:1 914:1 918:1 939:1 1000:1 1067:1 1129:1 1135:1 1153:1 1161:1 1212:1 1305:1 1343:2 1376:1 1379:1 1390:2 1415:1 1475:1 1625:1 1796:1 1894:1 1946:1 2000:1 2019:1 2062:1 2169:1 2204:1 2251:2 2515:2 2544:1 2593:2 2680:1 2744:1 2797:1 2941:1 3090:1 3322:1 3337:1 3659:1 4061:1 4175:1 4225:1 4384:1 4507:1 4524:3 4795:1 4825:1 4881:1 5195:1 5299:1 5315:1 5372:1 5646:1 5647:1 5648:2 5649:1 5650:1 5651:1 5652:1 5653:1 5654:1 5655:1 5656:1 5657:1 5658:1 5659:1 5660:1 5661:1 5662:2 5663:1 5664:1 5665:1 5666:1 5667:1 5668:1 #
0.0085960560076051694550214321566273 11:2 28:2 29:1 31:1 52:1 66:1 81:1 116:1 129:1 150:1 166:1 174:1 211:1 215:1 251:1 299:1 407:1 613:1 623:1 828:1 848:1 862:1 874:1 920:1 933:1 937:1 969:1 1007:2 1062:1 1129:1 1152:1 1153:1 1204:1 1269:1 1308:1 1475:1 1520:1 1634:1 1849:1 2139:1 2177:1 2277:1 2604:1 2994:1 3253:1 3713:1 4426:1 5049:1 5050:1 5051:1 5052:1 5053:1 5054:1 5055:1 5056:1 #
0.0085960560076051694550214321566273 6:1 28:3 34:1 39:1 44:1 49:1 73:1 96:3 112:1 140:1 149:1 161:2 166:1 174:1 203:1 212:1 215:1 285:1 289:1 321:1 342:2 343:1 404:1 457:1 467:1 506:2 528:1 545:2 559:1 587:1 681:1 695:1 698:2 712:1 720:1 727:1 790:1 857:1 892:1 924:1 985:1 998:1 1161:1 1167:1 1211:1 1266:1 1330:1 1419:1 1421:1 1458:1 1496:1 1509:1 1589:1 1634:2 1653:1 1676:1 1840:1 1900:1 2959:1 2995:1 3548:1 3740:1 3741:1 3742:1 3743:1 3744:2 3745:1 3746:1 #
0.0030563519045445882230116474431725 3:1 5:4 12:3 15:3 19:1 28:2 31:1 42:1 43:1 67:1 76:1 77:1 80:1 81:1 85:1 89:1 102:1 104:1 112:1 130:2 149:1 150:1 156:1 174:1 201:3 203:4 222:1 225:1 230:1 234:2 242:3 251:2 256:1 265:1 275:2 276:1 284:2 296:1 304:1 318:1 325:1 379:2 384:1 392:1 410:1 412:1 506:1 521:2 524:1 537:5 547:2 553:1 588:1 599:1 607:1 613:1 697:2 738:1 750:2 763:1 878:5 895:3 902:1 927:1 994:1 1010:1 1041:1 1073:1 1159:2 1170:3 1179:1 1416:1 1521:1 1637:3 1638:1 1698:1 1709:1 1789:2 2054:3 2059:1 2146:1 2393:1 2407:4 2506:1 2518:2 2632:2 2704:1 2710:1 2994:1 3467:2 3690:1 3883:1 4129:1 4291:1 4299:1 4392:1 4402:1 4552:1 4927:1 4930:2 5063:8 5096:1 5336:1 5922:1 6156:1 6168:1 6498:1 7951:2 8734:2 8735:1 8736:1 8737:1 #
-0.0085960560076051694550214321566273 5:1 10:2 13:1 15:1 24:1 28:2 38:1 46:1 66:1 80:2 81:1 89:1 96:2 104:2 108:1 118:1 124:1 129:2 149:2 156:1 161:2 173:1 198:2 227:1 235:1 241:1 248:1 249:1 262:1 281:1 285:2 289:1 304:1 308:1 317:1 337:1 345:1 348:1 349:1 350:1 351:4 400:1 484:1 506:2 555:1 574:1 617:1 626:2 644:2 682:1 732:1 749:1 775:1 862:1 881:1 905:1 907:2 912:1 950:1 1010:1 1211:1 1366:1 1394:1 1410:1 1416:1 1427:1 1433:1 1475:1 1538:1 1575:1 1673:1 1766:1 1879:1 1988:1 2191:1 2364:1 2462:1 2468:1 2683:1 2775:1 3136:1 3351:1 3698:1 3715:1 4100:1 5156:1 6130:1 7260:1 8216:1 8217:1 8218:1 8219:1 8220:1 8221:1 #
-0.0085960560076051694550214321566273 26:1 28:2 78:1 87:1 96:2 104:2 152:1 195:2 230:1 234:1 265:1 320:2 386:1 454:1 489:1 516:1 567:1 788:1 855:1 878:1 1010:1 1211:3 1448:1 4023:1 4352:1 4455:1 4667:1 5088:1 6490:1 6670:1 8451:1 #
-0.0085960560076051694550214321566273 2:1 15:1 28:2 34:1 38:1 73:1 87:1 96:2 100:1 174:1 203:1 204:1 205:1 233:1 256:1 267:1 321:1 444:1 501:1 567:1 580:1 587:1 636:1 689:1 698:3 855:1 922:1 1384:1 1457:1 1703:1 1909:1 1979:1 2231:1 2426:1 2438:1 2696:1 2697:1 2698:1 2699:1 2700:1 2701:1 #
0.0063820803308071516815602741701241 4:3 10:1 11:2 13:1 15:1 18:2 19:1 22:1 28:1 34:1 52:1 68:1 72:1 73:3 78:5 89:1 94:1 96:3 100:2 102:1 103:1 108:1 116:1 129:1 145:1 150:1 166:1 171:2 173:1 174:4 200:3 203:1 204:3 205:3 211:2 216:1 235:1 236:1 239:1 251:1 262:1 265:2 285:1 299:1 304:1 325:3 330:1 371:1 380:1 383:1 386:2 400:1 410:4 506:1 509:1 569:1 607:1 620:1 660:1 755:1 779:1 827:1 863:1 871:1 950:1 951:1 1000:1 1138:1 1146:1 1174:1 1179:1 1204:1 1395:2 1426:1 1467:1 1605:1 1698:1 1708:1 1842:1 2051:1 2214:1 2330:1 2544:1 2902:1 2980:1 3202:1 3306:1 3751:1 4244:1 4367:1 4420:1 5446:1 5994:1 7424:1 7842:1 8575:1 8576:1 8577:1 8578:1 #
0.0085960560076051694550214321566273 15:1 22:1 28:1 85:1 90:1 96:3 161:1 174:1 175:1 203:1 204:1 205:1 215:1 228:1 235:1 236:1 251:1 265:1 321:1 360:1 453:1 482:1 528:1 585:1 921:1 950:1 1169:1 1404:1 1410:1 1509:1 1605:1 1649:2 1661:1 2139:1 3091:1 3252:1 5230:1 5231:1 5232:1 #
-0.0085960560076051694550214321566273 10:1 28:3 58:1 66:1 89:1 96:1 108:1 112:1 130:1 132:1 150:1 157:1 159:1 161:2 174:1 190:1 201:1 204:1 205:1 245:1 251:1 264:1 279:1 351:1 402:1 425:1 437:1 468:1 537:1 540:1 574:1 607:1 856:1 862:2 1080:1 1211:1 1329:1 1338:1 1408:1 1411:1 1440:1 1441:1 1569:1 1581:1 1587:1 1850:1 1979:1 2010:1 2268:1 2417:1 2866:1 3628:1 3929:1 4072:1 4079:1 #
-0.0072426283326886978577996423211971 5:1 9:1 11:1 12:1 13:1 14:1 18:1 19:1 22:3 28:3 38:1 41:1 66:2 73:1 75:2 77:1 78:1 80:2 85:2 90:2 96:3 102:1 108:1 112:2 116:1 123:1 129:1 147:1 149:1 156:1 174:2 190:1 195:1 200:1 201:1 203:2 204:1 205:1 208:1 218:1 227:1 230:1 235:1 236:1 242:1 252:1 253:1 255:1 264:1 265:2 279:1 285:1 290:1 291:2 293:1 300:1 322:1 327:1 335:1 360:1 386:1 398:1 403:1 407:1 425:1 454:1 486:2 491:1 545:1 553:1 572:1 574:1 585:1 626:1 654:1 663:1 685:1 687:1 698:1 708:1 709:1 720:1 738:1 746:1 749:2 755:1 757:1 762:1 775:1 791:1 809:1 821:1 823:1 843:1 845:1 862:1 877:2 905:1 912:1 920:1 924:1 950:1 951:1 983:1 989:1 1100:1 1220:1 1312:1 1373:1 1375:1 1380:1 1391:1 1427:1 1441:1 1444:1 1461:1 1484:1 1545:1 1564:1 1598:1 1608:1 1625:1 1637:1 1641:1 1647:1 1773:1 1900:1 1952:2 2000:1 2020:1 2022:1 2095:1 2216:1 2353:1 2419:1 2478:1 2491:1 2515:1 2567:1 2614:1 2659:1 2777:1 2824:1 2853:1 3020:1 3119:1 3127:1 3285:1 3440:1 3610:1 3652:1 3839:1 3921:1 3985:1 4062:1 4066:1 4129:1 4265:1 4300:1 4433:1 4608:1 4709:1 4730:1 5339:1 5627:1 5885:1 6340:1 6975:1 7119:1 7120:1 7121:1 7122:1 7123:1 7124:1 7125:2 7126:1 7127:1 7128:1 7129:1 7130:1 7131:1 7132:1 7133:1 7134:1 7135:1 7136:1 7137:1 7138:1 7139:1 7140:1 7141:1 #
-0.0085960560076051694550214321566273 3:1 22:1 28:2 43:1 72:1 78:2 87:1 89:1 91:1 96:2 97:1 104:1 130:2 145:1 149:1 161:1 204:1 205:1 229:1 231:2 235:2 236:1 237:1 242:4 243:4 251:2 285:1 291:1 325:3 326:1 334:1 473:1 538:1 547:1 567:1 620:1 667:1 717:1 746:1 965:1 967:1 1010:2 1087:1 1186:1 1308:1 1520:1 1521:1 1637:1 2214:1 3090:1 3324:1 3598:1 3599:1 3600:1 3601:1 3602:1 3603:1 3604:1 3605:1 #
-0.0024990029954796966725483198246138 3:3 4:1 6:1 10:1 15:1 22:1 28:2 31:2 34:1 43:1 48:1 52:1 56:1 58:1 59:1 61:1 75:1 86:1 88:1 90:1 96:4 100:1 102:1 104:3 108:2 129:2 140:1 149:1 150:1 155:1 165:1 173:1 174:1 175:1 187:1 200:1 201:2 217:1 218:2 225:2 242:2 243:1 257:1 259:1 262:1 265:1 275:1 278:2 296:1 305:1 317:2 325:1 333:1 342:1 344:1 360:1 368:1 388:1 389:1 482:1 567:1 569:1 574:1 581:1 588:2 607:1 620:2 626:1 627:1 630:1 660:3 709:2 712:2 729:1 750:2 755:1 775:1 805:1 843:1 877:1 881:1 921:1 927:1 965:2 984:1 1087:1 1150:1 1282:1 1364:1 1475:1 1477:1 1533:1 1534:1 1599:1 1625:1 1634:1 1872:2 1912:1 1966:1 2005:1 2018:1 2020:1 2126:3 2127:1 2230:1 2247:2 2277:1 2391:1 2394:1 2443:1 2507:2 2752:1 2753:1 2902:1 3017:1 3119:1 3181:1 3253:1 3255:1 3587:1 3606:1 3680:1 4074:1 4548:1 4596:1 4703:1 4824:1 4849:1 4931:1 5143:1 5408:1 5937:1 5938:1 5939:1 5940:1 5941:1 5942:1 5943:1 5944:1 5945:1 5946:1 5947:1 5948:1 5949:1 5950:1 5951:1 5952:1 5953:1 5954:1 5955:1 5956:1 5957:1 5958:1 5959:1 5960:1 5961:1 5962:1 5963:1 5964:1 5965:1 5966:1 5967:1 5968:1 #
-0.0085960560076051694550214321566273 4:4 28:2 43:1 48:1 49:1 51:1 71:1 78:2 80:1 96:1 104:1 106:1 117:1 130:1 142:1 147:1 150:1 152:1 161:2 171:1 174:1 190:1 200:2 203:1 204:1 205:1 234:1 236:1 242:1 284:1 296:1 308:1 325:1 344:1 345:1 380:1 420:1 422:1 444:1 473:1 475:1 482:3 494:2 508:1 510:1 537:1 545:1 572:1 580:1 588:1 608:1 729:1 737:1 739:1 797:1 880:1 881:1 883:1 886:1 950:1 1193:1 1231:1 1290:1 1314:1 1410:1 1457:1 1516:1 1575:1 1748:2 1850:1 1903:2 1912:1 2268:1 2486:1 2724:1 2730:1 2816:1 3342:1 3419:1 3752:1 3853:2 3859:1 4344:1 4754:1 5583:1 5738:1 5739:3 5740:1 5741:1 5742:1 5743:1 5744:1 5745:1 #
-0.0032958115673008313642466937665176 10:1 15:3 19:2 22:1 28:1 34:2 39:2 46:1 49:1 52:1 66:2 67:1 76:2 96:1 100:1 129:1 147:1 155:1 174:3 185:1 265:2 276:1 348:1 365:1 380:1 386:1 393:1 427:1 545:2 547:1 625:1 653:1 660:3 683:2 691:1 750:1 791:1 828:1 875:1 901:2 909:1 934:1 1000:1 1126:1 1199:1 1305:3 1580:1 1708:1 1753:1 1897:1 2135:1 2773:1 2866:1 3233:1 3358:1 3387:1 3724:1 3889:1 8718:1 #
0.0085960560076051694550214321566273 6:1 9:1 15:1 19:2 34:1 44:1 46:2 80:1 96:2 141:1 174:2 228:1 232:1 264:1 308:1 369:1 388:1 516:1 689:2 720:1 874:1 880:1 910:1 1286:1 1447:1 1516:1 1776:1 2188:1 2290:1 2561:1 2562:1 2563:1 2564:1 2565:1 2566:1 2567:1 2568:1 2569:1 2570:1 2571:1 2572:1 2573:1 2574:1 2575:1 2576:1 2577:1 2578:1 #
0.0085960560076051694550214321566273 3:1 15:1 28:2 34:1 48:1 61:2 96:2 102:1 143:1 150:1 168:1 174:2 203:1 276:1 279:1 454:1 464:1 468:1 484:1 528:1 620:1 622:1 688:1 712:2 720:1 755:2 791:1 1031:1 1056:1 1118:1 1122:1 1128:1 1186:1 1211:1 1412:2 1575:1 1674:1 1703:1 1827:1 2093:1 2188:1 2436:1 2620:1 2730:1 3821:1 4227:1 5143:1 5254:1 5930:1 #
0.0085960560076051694550214321566273 19:1 22:1 24:2 28:3 30:1 38:1 42:1 66:1 96:4 129:1 130:1 166:1 201:1 207:1 259:1 274:1 304:1 310:1 410:1 457:1 619:1 715:1 855:1 872:1 1117:1 1339:1 1457:1 1865:1 2088:1 2436:1 3313:1 3424:1 3609:1 5445:1 5684:1 5769:1 5770:1 5771:1 5772:1 5773:1 5774:1 #
0.0085960560076051694550214321566273 4:1 10:1 28:3 44:1 66:1 82:1 96:3 98:1 118:1 150:1 161:1 169:1 174:4 246:1 254:1 282:1 380:1 516:1 538:1 555:1 697:1 761:1 843:1 846:1 927:1 1184:1 1542:1 1879:1 2290:1 2295:1 2812:1 3253:1 3435:1 3457:1 3472:1 4048:1 4228:1 4229:1 4230:1 4231:1 4232:1 4233:1 4234:1 4235:1 4236:1 #
0.0085960560076051694550214321566273 10:1 28:5 34:1 36:1 44:1 77:1 80:1 93:1 96:3 102:2 136:1 144:1 145:1 149:1 161:1 171:1 173:2 190:2 197:1 203:2 204:1 205:1 233:2 235:1 248:1 267:1 273:1 275:1 289:2 291:1 325:1 326:1 373:1 380:1 456:1 506:1 510:1 536:1 567:1 572:1 841:1 881:1 905:1 920:2 948:1 950:2 1047:1 1062:1 1088:1 1119:1 1167:1 1184:2 1211:2 1279:1 1312:1 1415:2 1670:1 1836:1 2518:1 3075:2 3593:1 4335:1 5360:1 5361:1 5362:1 5363:1 5364:1 5365:1 5366:1 5367:1 5368:1 5369:1 5370:1 #
-0.0085960560076051694550214321566273 20:1 28:1 96:3 166:1 174:1 191:1 211:1 257:1 360:1 410:1 464:2 484:1 505:1 625:1 682:1 999:1 1000:1 1213:1 1437:1 2262:1 2687:1 2722:1 3015:1 4187:1 #
-0.0085960560076051694550214321566273 28:2 58:1 96:2 104:1 161:1 174:1 296:1 379:1 390:1 410:1 450:1 501:1 523:1 536:1 623:1 968:1 998:1 1146:1 1338:1 1390:1 1457:1 1976:1 2014:1 2019:1 2193:1 2389:1 2529:1 2530:1 2531:1 2532:1 2533:1 2534:1 #
-0.0085960560076051694550214321566273 10:1 11:1 28:2 34:1 66:1 72:1 96:1 103:1 108:1 152:1 174:4 190:1 203:1 204:1 205:1 259:1 308:1 484:1 491:1 501:1 506:1 510:1 513:1 567:1 607:1 610:1 636:1 779:1 813:1 833:1 874:1 937:1 940:1 1314:1 1366:1 1395:1 1643:1 1662:1 1663:1 1664:1 1665:1 1666:1 1667:1 #
-0.0085960560076051694550214321566273 3:1 5:1 10:1 22:1 28:1 106:1 168:1 174:2 211:2 216:1 228:1 265:1 541:2 720:2 790:1 824:1 954:1 1127:1 1145:1 1304:1 1338:1 2171:1 2379:1 4303:1 5753:1 5754:1 #
0.0085960560076051694550214321566273 4:1 13:1 22:1 28:3 34:1 43:2 81:3 96:1 100:2 104:2 116:1 142:1 149:2 161:1 165:1 174:3 183:1 204:1 234:1 235:4 236:1 241:1 249:2 264:1 296:1 320:1 325:4 326:1 351:1 370:1 379:1 404:1 405:1 474:1 484:1 553:1 580:1 605:1 636:1 647:1 729:1 731:1 739:1 746:1 762:1 803:1 855:1 920:1 924:1 937:1 1056:1 1128:1 1178:1 1211:1 1231:1 1235:1 1269:2 1293:1 1484:2 1517:1 1710:1 1924:1 1988:1 2241:1 2281:1 2426:1 2744:1 2831:2 2955:1 3209:1 3313:1 3324:1 3593:1 4319:1 4878:1 6178:1 6904:1 6916:1 7849:1 7850:1 7851:1 7852:1 7853:1 #
0.0085960560076051694550214321566273 3:1 20:1 26:1 28:4 34:1 38:2 56:2 58:1 59:1 77:1 80:2 85:1 96:2 100:1 108:1 117:1 140:2 150:1 152:1 168:1 169:2 171:1 195:1 200:2 205:1 237:1 255:1 277:1 279:1 282:1 285:1 286:1 351:2 404:1 405:1 475:1 482:1 486:1 580:2 659:1 685:1 698:1 712:1 727:1 763:1 797:1 843:1 862:1 876:1 886:1 918:1 921:2 924:1 950:1 964:1 1028:1 1143:1 1184:1 1268:1 1269:1 1276:1 1314:1 1343:1 1379:1 1416:1 1461:2 1541:1 1573:1 1603:1 1625:2 1643:1 1665:1 1722:1 1859:1 1962:1 2046:1 2148:1 2262:1 2296:1 2313:1 2518:1 2532:1 2624:2 2656:1 2871:1 2898:1 3025:1 3574:1 3594:1 3880:1 3922:1 4118:1 4187:1 4776:1 5068:1 6111:1 6348:1 6683:1 7533:1 7534:1 7535:1 7536:1 7537:1 7538:1 7539:1 7540:1 7541:1 7542:1 7543:1 7544:1 7545:1 7546:1 7547:1 7548:1 7549:1 7550:1 7551:1 7552:1 7553:1 7554:1 #
0.0085960560076051694550214321566273 4:1 19:1 42:1 44:1 52:1 78:1 89:1 90:1 96:1 104:2 174:1 200:1 205:1 234:1 251:1 371:1 398:1 407:1 464:1 552:1 588:2 591:1 607:1 775:2 803:1 823:1 912:1 945:1 1079:1 1080:1 1100:1 1136:1 1250:1 1371:1 1605:1 1648:1 1903:1 2227:1 2925:1 3008:1 6080:1 6081:1 6082:2 6083:1 6084:1 6085:1 6086:1 #
-0.0085960560076051694550214321566273 4:1 34:2 80:1 81:1 89:1 96:1 104:2 106:2 108:1 118:1 140:1 161:2 171:1 201:1 211:1 220:1 232:1 235:1 291:1 296:1 298:1 316:1 317:1 320:1 567:1 572:1 585:1 601:1 623:1 659:1 689:1 690:1 751:1 762:1 803:1 843:1 1062:1 1063:1 1118:1 1166:1 1231:1 1235:1 1285:1 1303:1 1307:1 1391:1 1736:1 1886:1 2017:1 2021:1 2230:1 2277:1 2287:1 2288:1 2289:1 2290:1 2291:1 2292:1 2293:1 2294:1 2295:1 2296:1 2297:1 2298:1 2299:1 2300:1 2301:1 2302:1 2303:1 2304:1 #
-0.0085960560076051694550214321566273 10:2 19:1 25:1 28:5 34:1 78:1 94:2 96:3 174:1 186:1 203:1 204:1 205:1 249:2 265:2 285:1 304:1 388:1 486:1 506:1 524:1 528:1 538:1 545:1 622:2 691:1 715:1 763:1 779:1 863:1 883:1 927:1 950:1 1027:1 1146:1 1211:1 1265:1 1366:1 1555:1 1842:1 1848:1 1922:1 2019:1 2088:1 2118:2 2393:1 2443:1 2998:1 3017:1 3062:1 3092:1 3424:1 3718:2 3904:2 4391:1 4402:1 4976:4 5413:1 5414:1 #
-0.007606861691531156474677111134497 3:1 19:1 28:2 34:1 39:1 44:1 48:1 51:1 58:1 73:1 78:2 96:2 108:1 110:1 114:1 149:1 203:1 204:1 225:1 228:1 235:3 236:1 265:1 279:2 308:1 327:1 332:1 345:1 351:1 360:1 367:1 369:1 453:1 482:1 509:1 547:1 592:1 636:2 775:1 779:1 843:1 849:1 862:1 863:1 903:1 921:1 927:2 1211:1 1220:1 1227:1 1256:1 1290:2 1305:1 1416:1 1440:1 1484:2 1619:1 1673:1 1842:1 1879:1 2168:1 2393:1 2632:1 3532:1 3626:1 4072:1 5222:1 5223:1 5224:1 5225:1 5226:1 #
-4.4875158250270736487452793994635e-06 3:2 9:2 24:1 28:5 34:4 44:2 78:1 81:1 85:1 90:2 96:6 102:3 123:1 129:1 145:2 150:1 165:1 166:1 174:3 203:1 205:1 222:1 228:2 235:3 242:1 252:1 259:1 264:1 265:1 269:1 278:1 279:3 280:1 285:1 293:1 299:1 305:1 317:1 344:1 350:1 351:1 367:1 371:1 384:1 403:3 407:1 444:2 453:1 465:1 468:1 537:1 553:1 572:1 598:1 600:4 607:1 689:1 697:1 698:1 759:2 779:1 803:1 805:1 861:1 862:1 874:1 878:1 886:1 915:1 1014:1 1066:1 1113:1 1211:2 1258:1 1265:1 1323:1 1339:2 1376:1 1426:1 1497:1 1575:1 1585:1 1588:1 1606:1 1619:1 1637:1 1639:2 1709:1 1730:1 1775:1 1804:1 1886:1 2055:1 2166:1 2220:1 2247:1 2438:1 2518:1 2539:1 2557:1 2686:1 2775:1 2804:1 2900:1 3158:1 3210:1 3548:1 3628:1 3782:1 3856:1 3931:1 4192:1 4204:2 6190:1 6498:1 8224:1 8225:1 8226:1 8227:1 8228:1 8229:1 8230:1 8231:1 8232:1 #
