SVM-light Version V6.02
0 # kernel type
3 # kernel parameter -d 
1 # kernel parameter -g 
1 # kernel parameter -s 
1 # kernel parameter -r 
empty# kernel parameter -u 
8831 # highest feature index 
1124 # number of training documents 
937 # number of support vectors plus 1 
-0.63683683 # threshold b, each following line is a SV (starting with alpha*y)
-0.0010000000000000000208166817117217 1:1 2:1 3:3 4:1 5:2 6:1 7:1 8:1 9:3 10:2 11:1 12:1 13:1 14:1 15:3 16:1 17:1 18:1 19:2 20:1 21:1 22:1 23:1 24:3 25:1 26:1 27:1 28:2 29:1 30:1 31:1 32:2 33:1 34:1 35:2 36:1 37:1 38:1 39:1 40:1 41:1 42:1 43:1 44:1 45:1 46:1 47:1 48:1 49:1 50:1 51:1 52:1 53:1 54:1 55:1 56:1 57:1 58:1 59:1 60:1 61:2 62:1 63:1 64:1 65:1 66:2 67:1 68:1 69:1 70:2 71:2 72:1 73:1 74:1 75:1 76:1 77:1 78:1 79:1 80:1 81:1 82:1 83:1 84:1 85:1 86:1 87:1 88:1 89:1 90:1 91:1 #
-0.0010000000000000000208166817117217 10:2 11:1 22:2 24:3 59:1 96:4 117:1 129:1 151:1 152:1 153:1 154:1 155:1 156:1 157:4 158:2 159:1 160:1 161:1 162:1 163:1 164:1 165:1 166:1 167:1 168:2 169:1 170:1 171:1 172:1 173:1 174:1 175:1 176:1 177:1 #
-0.0010000000000000000208166817117217 3:1 19:1 24:2 26:1 28:1 38:1 88:1 96:3 98:1 107:1 108:2 116:1 129:2 130:1 145:2 173:1 174:3 200:1 211:1 229:1 231:1 235:1 265:1 278:1 296:1 317:1 386:1 405:2 407:1 439:2 441:1 482:1 486:1 604:1 654:1 660:1 708:1 711:1 712:2 720:1 779:1 834:1 842:1 874:1 880:1 905:1 914:1 969:1 986:1 998:3 1000:1 1041:1 1118:1 1152:1 1157:1 1178:2 1304:1 1441:1 1545:1 1597:1 1629:1 1643:1 1674:1 1957:1 1992:1 2157:1 2462:1 2468:1 2532:1 2626:1 2672:1 2756:1 3164:1 3273:1 3274:1 3275:1 3276:1 3277:1 3278:1 3279:1 3304:1 3305:1 3419:1 4207:1 5234:1 6445:1 6982:1 6983:1 6984:1 6985:1 6986:1 6987:1 6988:1 6989:1 6990:1 6991:1 6992:1 6993:1 6994:1 #
-0.0010000000000000000208166817117217 13:2 15:1 28:2 31:2 34:2 38:1 62:1 71:1 72:1 73:1 78:1 80:2 85:1 89:1 96:3 104:1 122:1 123:1 126:1 130:1 154:1 161:1 166:1 197:1 200:2 203:1 223:1 235:1 236:1 259:1 285:1 297:1 298:2 299:1 300:1 301:1 302:1 303:1 304:2 305:1 306:1 307:1 308:1 309:1 310:1 311:1 312:1 313:1 314:1 315:1 316:2 317:1 318:1 319:1 320:1 321:1 322:1 323:1 324:1 325:1 326:1 327:1 328:1 329:1 330:1 331:1 332:1 333:1 334:2 335:1 336:1 337:1 338:1 339:1 340:1 341:1 342:1 343:1 344:1 345:1 346:1 347:1 348:1 349:1 350:1 351:1 352:1 353:1 354:1 355:1 356:1 357:1 358:1 359:1 360:1 361:1 362:1 363:1 364:1 365:1 366:1 367:1 368:1 369:1 370:1 371:1 372:1 373:1 374:1 375:1 376:1 377:1 378:1 379:1 380:1 381:1 382:1 383:1 384:1 385:1 386:1 387:1 388:1 389:1 390:1 391:1 392:1 393:1 394:1 395:1 396:1 397:1 398:1 399:1 400:1 #
-0.0010000000000000000208166817117217 3:1 28:1 29:1 43:1 51:1 59:2 66:3 90:2 102:1 118:1 121:1 129:1 140:1 264:1 265:1 275:1 279:2 325:1 326:1 335:1 342:1 365:1 370:1 410:1 427:1 454:1 455:1 456:1 457:1 458:1 459:1 460:1 461:1 462:1 463:1 464:1 465:1 466:1 467:1 468:1 469:1 470:1 471:1 472:1 473:1 474:1 475:1 476:1 477:1 478:1 479:1 480:1 481:1 482:1 483:1 484:1 485:1 486:1 487:1 488:1 489:1 490:1 491:1 #
0.0010000000000000000208166817117217 3:1 10:3 15:1 28:1 34:1 38:1 39:1 44:1 77:1 82:1 85:1 87:1 92:1 93:1 94:2 95:1 96:8 97:4 98:1 99:1 100:1 101:1 102:1 103:1 104:3 105:1 106:2 107:1 108:1 109:1 110:1 111:1 112:1 113:1 114:1 115:1 116:1 117:1 118:1 119:1 120:1 121:1 122:1 123:1 124:1 125:1 126:1 127:1 128:1 129:2 130:1 131:1 132:1 133:1 134:1 135:1 136:1 137:1 138:1 139:1 140:2 141:1 142:1 143:2 144:1 145:1 146:1 147:1 148:1 149:1 150:1 #
0.0010000000000000000208166817117217 4:1 13:1 15:1 26:1 28:2 34:2 52:1 59:1 82:1 96:2 106:1 116:1 152:1 161:1 168:1 173:2 174:1 178:1 179:1 180:1 181:1 182:1 183:1 184:1 185:1 186:1 187:1 188:1 189:1 190:1 191:1 192:1 193:1 194:1 195:1 196:1 197:1 198:1 199:1 200:1 201:1 202:1 203:1 204:1 205:1 206:1 207:1 208:1 209:1 210:1 211:1 212:1 213:1 214:1 215:1 216:1 217:1 218:1 219:1 220:1 221:1 222:2 223:1 #
0.0007637473451279011430262166904015 24:1 28:2 34:1 49:1 56:1 66:1 74:1 87:2 96:2 112:3 132:1 140:1 147:1 161:1 171:1 228:1 242:1 279:1 317:1 321:1 330:1 369:1 406:1 410:1 433:1 452:1 454:1 456:1 459:1 479:1 559:1 575:1 600:1 607:1 619:1 620:1 685:1 687:1 689:1 695:1 708:1 749:1 772:1 877:2 921:1 1024:1 1031:1 1063:1 1143:1 1256:1 1464:1 1671:1 1797:1 1971:1 2011:1 2815:1 3415:1 4037:1 4284:1 4287:1 6683:1 #
0.0010000000000000000208166817117217 14:1 15:1 28:1 34:2 39:1 59:1 78:1 81:1 96:1 108:2 116:1 123:1 129:1 145:1 149:1 150:1 171:2 200:1 201:1 222:1 234:1 420:1 425:1 456:1 492:1 493:1 494:1 495:1 496:1 497:1 498:1 499:1 500:1 501:1 502:1 503:1 504:1 505:1 506:1 507:1 508:1 509:1 510:1 511:1 #
0.00032658646723461766132184935784721 10:1 34:2 59:1 66:1 80:1 96:1 100:1 108:1 112:1 129:1 145:1 150:1 174:2 200:1 228:1 298:2 299:1 301:1 369:1 386:1 410:1 425:1 438:1 454:1 494:1 607:1 619:1 620:1 634:1 644:1 719:1 813:1 828:1 985:1 1138:1 1146:1 1290:1 1475:1 1765:1 1766:1 2131:1 3099:1 3297:1 3483:1 3484:1 3485:1 3486:1 3487:1 #
-0.0010000000000000000208166817117217 6:1 11:2 12:2 15:1 19:2 22:1 26:1 28:2 34:3 44:1 59:1 96:6 140:1 156:1 168:1 169:1 171:1 174:2 175:1 189:1 228:1 232:1 235:1 236:1 259:1 289:1 294:1 299:2 308:1 337:1 403:3 418:1 444:1 468:1 473:1 482:1 486:2 494:1 496:2 545:1 559:1 561:1 567:2 568:2 570:1 571:1 636:3 750:1 919:1 997:1 1016:2 1067:1 1126:1 1152:1 1381:1 1458:1 1589:1 1778:1 1817:1 2019:2 2159:1 2188:1 2281:1 2440:1 2580:1 2671:1 3165:1 4517:1 5302:1 5303:1 5304:1 #
-0.0010000000000000000208166817117217 11:1 28:1 29:1 34:3 46:1 58:1 93:1 96:5 108:1 112:1 169:1 174:2 211:3 265:1 410:1 468:1 494:1 496:1 510:1 567:1 626:1 698:1 720:1 776:1 907:1 964:2 1000:1 1113:1 1211:2 1285:1 1287:1 1610:1 1804:1 2313:1 4234:1 4798:1 5912:1 6234:1 #
-0.0010000000000000000208166817117217 10:4 11:1 13:1 14:2 24:1 28:3 29:2 34:4 38:2 43:1 44:1 46:2 58:1 68:3 71:1 73:1 76:1 81:1 82:1 93:2 96:6 108:1 116:2 122:2 123:1 129:1 130:1 147:2 156:1 166:1 168:1 169:1 173:1 174:1 189:1 229:1 234:1 249:1 251:1 265:2 276:2 279:1 285:1 299:2 308:1 327:1 370:1 380:1 403:3 420:2 475:1 494:3 496:2 501:1 504:1 516:1 545:2 567:1 601:1 652:1 654:1 660:1 678:1 688:1 698:1 701:1 759:1 823:1 824:1 830:1 902:1 906:1 1016:1 1037:1 1146:1 1150:1 1157:1 1281:1 1298:1 1318:1 1424:1 1484:1 1527:1 1561:1 1563:1 1575:1 1603:1 1652:1 1693:1 1694:1 1786:1 1802:2 1850:2 1898:1 2076:1 2277:1 2353:1 2424:1 2438:1 2632:1 2755:1 2867:1 3088:1 3212:1 3613:1 3618:1 4223:1 4246:1 4362:1 4505:1 4685:1 5372:1 5758:1 5784:1 5948:1 6102:1 6268:1 8325:1 8326:1 8327:1 8328:1 8329:1 8330:1 8331:1 #
-0.0010000000000000000208166817117217 10:1 11:1 13:1 28:1 34:4 38:1 44:1 48:1 58:2 77:1 89:1 96:4 104:2 108:2 112:1 114:1 131:1 134:1 150:1 168:1 169:1 171:1 174:2 200:1 203:1 204:1 205:1 211:1 220:1 225:1 237:1 242:1 273:1 276:1 317:1 327:1 386:1 406:2 408:1 444:1 454:1 473:1 491:1 510:1 541:1 607:1 803:1 924:1 937:1 951:1 1151:1 1182:2 1211:1 1330:1 1416:1 1421:1 1440:1 1470:1 1475:1 1509:1 1575:1 1690:1 1748:1 1983:1 2000:2 2220:1 2443:1 2543:1 2994:1 3108:1 3113:1 3970:1 4078:1 4596:1 4688:1 5763:1 5764:1 5765:1 #
-0.0010000000000000000208166817117217 12:1 28:1 34:3 50:1 51:1 66:1 77:1 96:6 102:1 104:1 108:1 140:1 143:1 145:1 168:1 174:1 211:3 231:1 259:1 325:1 330:1 402:1 405:1 412:1 482:1 494:1 510:1 543:1 626:1 772:1 821:1 880:1 891:1 918:1 999:1 1000:1 1349:1 1381:1 1426:1 1671:1 2437:1 2962:1 3078:1 4420:1 6569:1 6570:1 6571:1 6572:1 #
0.0010000000000000000208166817117217 4:1 11:2 22:3 28:5 42:1 61:1 66:4 82:1 85:1 89:2 90:1 98:1 112:1 116:1 122:1 140:1 145:1 149:1 152:1 157:4 161:1 169:2 173:1 189:2 201:1 203:1 251:1 252:1 257:1 259:1 265:1 269:1 275:1 279:1 335:3 337:1 351:1 368:1 388:1 399:1 467:1 473:2 474:2 480:1 482:1 496:1 516:2 547:1 556:1 559:2 567:1 580:1 618:1 630:1 649:1 651:2 659:1 670:1 683:1 694:1 695:1 698:1 708:1 746:3 768:1 816:1 819:1 871:2 874:1 880:1 881:1 888:1 910:1 969:2 1001:1 1018:1 1027:1 1051:1 1052:1 1087:1 1187:1 1204:1 1305:1 1335:2 1397:1 1411:1 1475:1 1575:1 1578:1 1603:3 1634:1 1637:1 1652:1 1903:1 1916:1 1929:1 1972:1 2188:2 2193:1 2284:1 2286:1 2408:1 2462:1 2587:1 2715:2 2888:1 3048:1 3419:1 3752:1 3815:1 3858:1 3946:1 3957:1 4013:1 4334:1 4523:1 5011:1 5143:1 5171:1 5201:1 5717:1 6149:1 6348:2 6750:1 6754:1 6826:1 6827:1 6828:1 6829:1 6830:1 6831:1 6832:1 6833:1 6834:1 6835:2 6836:1 6837:1 6838:2 6839:1 6840:1 6841:1 6842:1 6843:1 6844:1 #
0.0010000000000000000208166817117217 7:1 10:2 11:2 15:3 24:3 28:6 30:1 34:1 42:1 47:1 53:2 66:1 78:1 81:1 88:1 89:3 94:1 96:1 112:1 130:2 131:1 149:2 156:2 161:3 168:1 174:1 180:1 198:1 200:1 203:2 204:1 205:1 209:1 211:2 218:2 235:2 259:1 265:1 278:1 285:2 305:1 330:1 400:2 405:1 438:1 482:1 506:1 526:1 528:2 567:1 572:1 575:1 619:1 697:1 698:1 704:1 775:1 824:2 874:1 878:1 924:1 950:1 1002:1 1073:1 1077:1 1211:1 1359:2 1410:1 1427:1 1435:1 1457:1 1520:1 1605:1 1640:1 1686:2 1850:2 2192:1 2235:1 2267:1 2787:1 2800:1 2841:2 2883:1 3175:2 3265:1 3488:1 3489:1 3490:1 3491:1 3492:1 3493:1 3494:1 3495:1 3496:1 #
0.0010000000000000000208166817117217 5:1 9:1 11:1 14:1 15:1 28:3 46:1 56:1 66:2 81:1 89:1 106:1 116:1 121:1 153:2 170:1 175:1 190:1 205:1 211:1 227:1 231:1 259:1 262:1 265:1 320:2 373:1 400:1 406:1 413:1 486:1 496:1 505:1 516:1 619:1 644:1 665:1 815:2 868:1 906:2 963:1 964:1 1041:1 1065:1 1533:1 1916:1 2044:1 2230:1 2542:1 2801:1 2834:1 2855:1 2898:1 3050:1 3128:1 3187:1 3634:1 4556:1 5671:1 6753:1 6754:1 6755:1 6756:2 6757:1 6758:1 6759:1 6760:1 6761:1 #
0.0010000000000000000208166817117217 11:1 12:1 19:1 22:2 24:1 28:1 29:1 59:1 78:2 81:1 87:2 88:1 89:2 96:1 116:1 121:1 123:1 161:1 168:1 201:1 202:1 211:1 220:1 230:1 232:1 265:2 318:2 330:1 385:1 405:1 422:1 438:1 454:1 464:1 527:1 580:1 588:1 591:1 629:1 644:1 670:1 697:1 698:1 719:1 729:1 828:1 876:1 920:2 969:1 982:1 983:1 1000:1 1037:2 1084:1 1379:1 1448:1 1449:1 1555:1 1575:1 1599:1 1927:1 2033:1 2044:1 2237:1 2252:1 2280:1 2570:1 3463:1 4690:1 4924:1 7096:1 7692:1 7693:1 7694:1 7695:1 #
0.0010000000000000000208166817117217 10:1 14:1 28:2 34:1 66:2 78:3 89:1 154:1 161:1 189:1 198:1 225:1 265:1 275:1 305:1 326:2 360:1 384:1 386:1 410:1 425:1 427:1 553:1 567:1 623:1 671:1 701:1 746:1 775:1 922:1 998:1 1010:1 1538:1 1563:2 1691:1 1832:1 1836:1 1865:1 2378:1 2744:1 4539:1 6584:1 6589:1 7093:1 7094:1 7095:1 7096:1 7097:1 7098:1 #
-0.0010000000000000000208166817117217 4:1 10:1 19:1 20:1 28:4 34:2 38:1 51:1 67:2 78:2 96:2 98:1 110:2 114:1 136:1 149:1 157:2 161:1 190:1 200:1 206:1 218:2 220:1 225:2 226:1 234:1 235:1 236:1 242:1 251:1 252:1 299:1 308:1 317:1 318:1 351:1 370:1 453:1 482:1 536:1 746:1 750:1 905:1 927:2 937:1 998:1 1062:1 1067:1 1138:1 1329:1 1363:1 1374:1 1376:1 1411:1 1516:1 1587:1 1619:1 1691:1 1694:1 1836:1 2290:1 2401:1 2486:1 2788:1 2800:1 2841:1 2866:1 3026:1 3314:1 3615:1 3626:1 3847:1 3876:1 4072:1 5444:1 6581:1 6861:1 6862:1 #
-0.000989168550740064352402858283142 15:1 24:1 28:4 34:2 38:1 41:1 42:1 51:2 52:1 53:3 73:1 77:1 78:1 80:2 96:1 104:1 108:1 130:1 145:1 150:1 161:1 165:1 174:1 200:1 201:2 203:2 218:2 235:1 254:3 262:1 265:1 279:1 312:1 337:1 367:1 368:1 403:1 404:1 410:1 454:1 501:1 509:1 516:1 523:1 547:1 554:1 567:1 621:1 772:2 773:1 786:1 824:1 849:1 881:1 904:2 920:1 924:2 927:1 929:1 1063:1 1146:1 1165:1 1427:1 1484:1 1605:2 1625:1 1800:1 1812:1 1851:1 1861:2 1874:1 1966:1 2467:1 2507:1 2624:1 3025:1 3105:1 3953:1 4138:1 5044:1 6010:1 6012:1 6187:1 6847:1 7134:1 7256:1 7334:1 #
0.00045074011621298838096288941201806 5:1 15:1 24:2 28:1 29:1 34:1 39:1 59:1 66:1 78:2 81:4 87:1 96:4 122:1 126:2 145:1 149:1 168:1 171:2 174:1 200:1 211:2 216:1 218:1 262:1 299:1 337:1 369:1 400:2 405:1 410:1 454:1 482:1 494:1 504:1 505:1 506:1 567:3 574:1 623:1 627:1 687:1 697:1 772:1 877:1 880:1 895:1 950:1 985:1 1036:1 1067:1 1068:1 1077:1 1079:1 1107:1 1143:2 1159:1 1226:1 1294:1 1364:1 1384:1 1416:2 1695:1 1696:1 1788:1 1834:1 1951:1 2148:1 2168:1 2172:1 2281:1 2740:1 3185:1 3207:1 3342:1 3821:1 3969:1 4133:1 5137:1 5196:1 6805:1 8148:1 8149:1 8150:1 8151:1 8152:1 8153:1 8154:1 #
-0.0010000000000000000208166817117217 6:1 10:1 28:4 31:1 38:1 58:1 67:1 81:1 89:1 96:2 104:3 106:2 129:1 131:1 143:1 145:4 174:1 183:2 185:1 201:1 204:1 205:1 230:1 255:1 265:1 304:1 308:1 325:1 326:1 337:1 373:2 438:1 445:1 482:1 505:2 627:1 629:1 685:1 697:1 708:2 746:1 748:1 759:1 763:1 778:1 790:1 843:1 874:1 877:1 878:1 929:1 945:2 1143:1 1184:2 1195:1 1415:1 1444:1 1543:1 1545:1 1802:1 1876:1 2014:1 2292:1 2388:1 2389:1 2390:1 2391:1 2392:1 2393:1 2394:1 2395:1 2396:1 2397:1 2398:1 2399:1 2400:1 2401:1 #
-0.0010000000000000000208166817117217 9:1 19:3 28:4 78:1 96:1 102:1 104:3 147:1 150:1 173:1 174:2 195:1 205:1 218:1 227:1 233:2 265:1 284:1 291:1 308:1 320:1 327:1 337:1 403:2 453:1 484:1 506:1 545:1 557:1 567:2 654:1 660:1 775:3 781:1 844:1 906:1 1056:2 1128:2 1204:1 1228:1 1290:2 1366:1 1444:1 1458:1 1477:1 2230:1 2277:1 2698:1 2963:2 3017:1 3086:1 3629:1 3697:1 5680:1 7252:1 7253:1 7254:1 #
0.0010000000000000000208166817117217 3:1 9:1 10:1 12:2 24:1 28:3 34:3 45:1 53:1 66:1 71:1 93:1 96:7 108:3 113:1 116:1 129:1 130:1 170:1 174:1 203:1 229:1 251:1 259:1 264:2 289:1 301:1 302:1 335:2 391:1 412:1 426:1 477:1 551:2 589:1 654:1 665:1 671:2 678:1 706:1 731:1 763:1 823:1 876:1 948:3 984:1 993:2 1020:1 1119:1 1146:1 1211:1 1213:1 1338:1 1400:1 1421:1 1560:1 1603:1 1634:1 1670:2 1762:1 1763:1 1764:1 1765:1 1766:1 1767:2 1768:1 1769:1 1770:1 1771:1 1772:1 1773:1 1774:1 1775:1 1776:1 1777:1 1778:1 1779:1 1780:1 1781:1 1782:1 1783:1 1784:1 1785:1 1786:1 1787:1 1788:1 1789:1 #
0.0010000000000000000208166817117217 11:4 28:1 34:1 39:2 44:1 59:2 66:1 80:1 81:1 82:1 89:1 96:6 104:4 116:1 134:1 147:1 150:1 169:2 171:1 174:3 203:1 221:2 230:1 241:1 264:1 273:1 278:1 299:1 302:1 334:1 369:1 385:1 405:1 454:1 456:1 467:1 468:2 545:1 591:1 603:1 619:1 625:1 654:2 685:1 689:1 712:1 781:1 881:1 948:1 959:1 993:1 1056:1 1077:1 1237:1 1359:1 1370:1 1582:1 1612:1 1661:1 1663:1 1709:1 2078:1 2330:1 2931:1 3175:1 4067:1 4203:1 4266:1 4267:1 4268:1 4269:1 4270:1 4271:1 4272:1 4273:1 4274:1 4275:1 4276:1 #
0.0010000000000000000208166817117217 10:2 26:1 28:1 34:2 58:1 81:1 87:2 94:1 96:6 108:1 112:1 129:1 131:1 147:1 171:1 174:4 177:1 230:1 265:2 278:1 308:1 369:1 486:1 530:1 567:1 576:2 629:1 712:1 874:1 880:1 921:1 1079:1 1112:1 1762:1 2290:1 2471:1 2659:1 2788:1 4278:1 4656:1 6129:1 7368:1 7369:1 7370:1 7371:1 #
0.0010000000000000000208166817117217 3:1 5:1 24:3 28:1 34:2 39:1 44:1 46:1 76:1 78:2 87:1 96:6 104:1 112:1 147:1 150:1 168:1 176:1 185:1 211:1 212:1 228:1 265:1 285:1 295:1 299:1 305:1 311:1 320:1 340:1 369:1 410:1 438:1 448:1 494:2 505:1 509:1 510:2 551:1 567:1 570:1 576:1 620:2 635:1 644:1 828:1 862:1 907:1 918:1 921:1 922:1 933:1 965:1 1237:1 1294:1 1395:1 1467:2 1533:1 1671:2 2076:1 2177:1 2223:1 2559:1 2608:1 2804:1 3064:1 3092:1 3618:1 4024:1 4025:1 4026:1 4027:1 4028:1 4029:1 4030:1 4031:1 #
0.0010000000000000000208166817117217 10:1 13:1 34:2 44:1 58:1 94:1 96:6 102:1 128:1 129:1 141:1 145:1 149:1 174:2 204:1 235:1 241:1 242:1 265:1 312:1 330:1 351:1 410:1 452:2 486:1 505:1 589:2 594:1 630:1 671:2 698:1 708:1 729:1 828:1 880:1 904:1 915:1 918:2 970:1 1062:1 1146:1 1192:1 1301:1 2475:1 4243:1 4244:1 #
-0.0010000000000000000208166817117217 26:1 34:1 38:1 96:7 117:1 122:1 129:1 136:1 147:2 200:1 229:1 251:1 299:1 301:1 302:2 308:2 360:1 371:1 410:1 468:1 493:1 545:1 574:1 636:1 637:1 654:1 899:2 1051:1 1052:1 1129:1 1170:1 1200:1 1226:1 1386:1 1457:1 1603:1 2960:1 3064:1 3086:1 3221:1 4180:1 6942:1 7262:1 7579:1 7736:1 8642:1 8643:1 8644:1 8645:1 8646:1 8647:1 8648:1 #
-0.0010000000000000000208166817117217 3:1 12:1 28:1 44:3 46:2 58:1 67:1 96:8 106:1 156:1 171:1 174:1 198:1 245:1 331:2 569:1 629:1 644:2 720:1 732:1 1000:1 1062:1 1165:1 1395:1 1416:1 1900:1 2277:1 2280:1 2290:1 2740:1 3175:1 3618:1 4246:1 4575:1 6871:2 8117:1 8319:1 8320:1 #
-0.0010000000000000000208166817117217 10:1 11:1 13:1 34:2 56:1 58:2 81:1 88:1 89:1 90:1 95:1 96:6 106:1 108:2 156:1 169:1 171:1 174:2 175:1 177:1 190:1 215:1 259:1 286:1 296:1 313:1 392:1 403:1 404:1 405:1 410:1 427:1 464:2 484:1 491:1 496:1 531:1 545:1 557:1 567:1 574:1 629:1 654:1 712:1 803:1 804:1 828:1 833:1 834:1 843:1 863:1 934:1 990:1 1056:1 1062:1 1079:1 1128:1 1406:1 1411:1 1430:1 1467:1 1641:1 1643:1 1709:1 1766:1 2021:1 2093:1 2191:1 2348:1 2469:2 2503:1 2579:1 2730:1 2744:1 2883:1 3200:1 3455:1 3712:1 3846:1 3860:1 4097:1 4615:1 5281:1 5477:1 5518:1 5645:1 5775:1 5897:1 5898:1 5899:1 5900:1 5901:1 5902:1 5903:1 5904:1 5905:1 5906:1 #
-0.0010000000000000000208166817117217 5:1 11:1 15:1 17:1 20:1 26:1 28:1 66:1 96:4 98:3 104:3 129:1 197:1 216:1 259:1 285:1 312:1 410:1 619:1 625:1 708:2 758:1 787:1 880:1 922:1 1056:2 1146:2 1639:1 1902:1 2277:1 2761:1 2856:1 5415:1 5531:1 6040:1 6476:1 6477:1 6478:1 #
-0.0010000000000000000208166817117217 11:3 34:2 49:1 85:1 87:1 89:1 96:3 108:1 130:1 161:1 166:1 174:1 234:1 239:1 265:2 276:1 285:1 296:1 299:1 380:1 404:1 406:1 410:1 464:2 486:1 505:1 509:1 554:1 654:1 678:1 687:1 819:1 823:1 828:1 863:2 880:1 985:1 1024:1 1062:1 1186:1 1318:1 1338:1 1578:1 1579:1 2017:1 2123:1 2166:1 2405:1 2702:1 2715:1 2888:1 3000:1 3128:1 3574:1 4053:1 4087:1 4598:1 5592:1 5593:2 5594:1 5595:1 5596:1 5597:1 5598:1 5599:1 #
0.0010000000000000000208166817117217 3:3 5:1 10:1 12:2 13:1 20:1 28:6 34:1 35:1 38:1 39:1 42:1 46:2 49:1 52:1 66:1 73:2 75:1 76:1 78:2 80:1 81:1 85:1 96:4 100:1 109:1 116:1 117:2 122:1 129:1 145:1 150:1 156:1 158:1 161:1 169:1 170:1 171:2 173:1 174:7 183:5 190:1 195:2 198:1 200:1 203:3 204:2 205:3 214:1 215:1 218:2 225:2 228:1 230:1 231:1 249:1 251:1 259:1 265:1 285:2 296:1 304:1 305:1 310:1 334:1 337:2 369:2 373:1 406:1 407:1 410:2 425:1 433:1 438:1 444:1 454:1 468:1 486:1 496:1 510:1 553:2 567:2 588:1 613:1 620:1 644:1 652:1 664:1 686:1 700:1 705:2 708:1 720:1 729:1 771:1 775:1 809:1 872:1 880:1 904:1 905:1 907:1 908:1 914:2 927:1 937:1 940:1 948:1 950:1 965:1 998:1 1023:1 1031:1 1041:1 1070:1 1073:1 1146:1 1187:1 1195:1 1211:1 1256:2 1279:1 1335:1 1390:1 1391:1 1413:1 1426:1 1524:1 1608:1 1625:2 1630:1 1642:1 1649:1 1722:2 1909:1 1962:1 2014:1 2019:2 2080:1 2093:2 2127:1 2181:1 2193:1 2204:1 2403:1 2437:1 2634:1 2657:1 2704:1 2744:1 3099:1 3125:1 3170:1 3432:1 3486:1 3511:1 3532:1 3592:1 3717:1 3852:1 3880:1 3895:1 4373:1 5194:1 5380:1 5554:1 5555:1 5556:1 5557:1 5558:1 5559:1 5560:1 5561:2 5562:1 5563:1 5564:1 5565:1 5566:1 5567:1 5568:1 5569:1 5570:1 5571:1 5572:1 5573:1 5574:1 5575:1 5576:1 5577:1 5578:1 5579:1 #
0.0010000000000000000208166817117217 3:1 10:1 19:1 24:1 28:4 31:1 34:4 38:1 72:1 78:3 82:1 88:1 100:2 108:1 112:3 129:2 145:1 161:2 174:3 177:1 198:1 211:1 232:2 236:1 245:1 251:1 268:1 289:1 298:4 299:1 304:1 308:3 321:1 386:1 407:1 409:1 425:1 435:1 438:1 453:2 463:1 466:1 486:1 490:1 515:1 531:2 555:1 567:2 570:1 622:1 638:1 644:1 654:3 660:3 663:1 685:1 687:4 698:1 711:1 772:1 773:1 779:1 803:1 821:2 823:1 843:1 864:1 877:2 905:1 924:1 990:1 998:1 1004:1 1011:1 1018:2 1067:2 1097:1 1127:1 1161:1 1204:1 1211:1 1226:2 1267:1 1305:1 1370:1 1371:1 1390:1 1423:1 1457:2 1505:1 1638:1 1675:1 1682:1 1733:1 1797:1 1820:4 1952:1 2051:1 2065:1 2112:1 2159:1 2177:1 2193:1 2218:1 2221:2 2286:1 2289:1 2305:1 2750:1 2782:1 2788:1 2816:1 3304:1 3554:1 3576:1 3618:1 3710:1 3769:1 4069:1 4105:1 4142:1 4204:2 4369:1 4751:1 5532:1 5803:1 5980:1 6092:1 6099:1 6235:1 6789:1 6790:1 6791:2 6792:2 6793:3 6794:1 6795:2 6796:1 6797:1 6798:1 6799:1 6800:1 6801:1 6802:1 6803:1 6804:1 6805:1 6806:1 6807:1 6808:1 6809:1 6810:1 6811:1 6812:1 6813:1 6814:1 6815:1 #
0.0010000000000000000208166817117217 4:1 15:2 28:7 46:2 66:1 78:5 81:1 96:1 109:1 129:1 133:1 140:1 161:1 171:1 174:1 180:1 201:1 204:1 205:1 234:1 251:1 259:1 265:1 278:1 291:1 299:1 320:2 338:1 373:1 400:1 433:1 444:1 460:1 479:1 496:2 507:1 508:1 516:2 557:1 559:1 569:2 572:1 580:2 585:1 586:1 587:1 589:1 613:1 619:2 631:1 649:1 660:1 689:1 694:1 695:1 697:1 701:2 720:1 746:2 779:1 874:1 921:1 994:1 1028:1 1062:1 1067:3 1080:1 1211:1 1213:1 1231:1 1294:1 1314:1 1457:2 1458:1 1533:1 1575:1 1603:1 1673:1 1686:2 1800:1 1836:1 1850:2 1907:2 1962:1 2562:1 2811:1 2815:1 3091:1 3110:1 3304:1 3457:1 3497:1 3527:1 3922:1 4171:1 4499:1 4602:1 4976:1 5091:1 5147:1 5156:1 5372:1 5419:1 5906:1 6040:1 6358:1 6381:1 6534:1 6671:1 6732:1 6733:1 6734:1 6735:1 6736:1 6737:1 6738:1 6739:1 6740:1 #
0.0010000000000000000208166817117217 10:1 11:1 15:1 19:1 28:5 34:3 58:1 77:1 87:1 90:1 102:1 104:1 121:1 122:1 130:1 153:1 154:2 161:1 174:2 236:1 454:1 549:1 576:1 623:1 629:1 667:1 698:1 727:1 821:2 872:1 879:1 934:1 1100:1 1146:1 1211:1 1308:1 1397:1 1605:1 1909:1 2064:1 2705:1 2917:1 3052:2 5969:1 5970:2 5971:1 5972:1 5973:1 5974:1 5975:1 5976:1 5977:1 #
0.0010000000000000000208166817117217 10:5 15:1 20:1 22:1 24:1 25:1 27:1 28:6 34:3 42:1 58:2 78:1 82:1 96:5 97:2 102:1 104:1 110:1 116:1 147:1 156:1 174:4 175:1 203:1 211:1 220:1 223:1 225:1 233:3 249:1 278:1 304:1 310:1 318:1 330:1 334:1 372:2 391:1 433:1 510:1 523:1 526:1 537:1 540:1 541:1 572:1 575:1 577:1 623:1 639:1 652:1 779:1 803:1 809:1 824:5 849:1 877:1 930:1 933:1 1097:1 1146:1 1162:1 1166:1 1248:1 1308:1 1318:2 1359:1 1395:1 1416:1 1467:1 1474:1 1603:1 1606:1 1658:1 1694:1 1812:1 2015:1 2062:1 2093:1 2188:1 2223:1 2237:1 2406:1 2450:1 2471:1 2744:1 2797:1 2804:1 3505:1 4094:1 4185:1 4461:1 4931:1 5690:1 6635:1 6902:1 6975:1 8129:1 8130:1 8131:1 8132:1 8133:1 8134:1 8135:1 8136:1 8137:1 8138:1 8139:1 8140:1 8141:1 8142:1 #
-0.0010000000000000000208166817117217 10:1 11:1 15:1 28:3 34:1 38:2 44:1 78:2 89:2 96:2 98:1 108:1 112:1 118:1 122:2 129:3 149:1 152:1 168:1 174:3 218:1 251:1 252:2 285:1 289:2 292:1 303:1 321:1 335:1 337:2 371:1 444:1 467:2 494:1 501:1 520:1 538:1 540:1 545:1 547:1 562:1 587:1 600:1 610:1 613:1 764:1 775:1 779:1 828:1 843:1 877:1 880:1 1000:2 1151:1 1293:1 1341:1 1416:1 1426:1 1477:1 1484:1 1529:1 1603:1 1610:1 1913:1 1992:1 2017:1 2074:1 2372:1 2586:1 2777:1 4049:1 4203:1 4238:1 4392:1 6047:1 6099:1 7259:1 7924:1 #
-0.0010000000000000000208166817117217 10:1 26:1 28:4 38:1 39:1 42:1 44:1 46:2 56:1 66:6 67:1 77:1 78:1 80:2 81:2 86:2 96:2 116:1 121:1 168:1 171:1 174:1 175:1 183:2 185:1 200:1 201:1 211:1 222:1 235:1 265:1 269:2 299:1 312:1 321:1 325:1 350:1 351:1 369:2 400:3 435:1 437:2 454:1 479:1 482:1 496:2 501:1 505:1 506:1 516:1 547:1 569:1 574:1 575:1 580:1 619:1 645:1 660:1 665:1 691:1 698:1 729:1 739:1 749:1 767:1 768:1 773:1 804:1 816:1 858:2 874:1 906:1 924:1 929:1 994:2 997:1 1007:1 1016:1 1051:1 1052:1 1067:1 1073:1 1143:1 1177:1 1178:1 1294:1 1395:1 1407:1 1408:2 1412:1 1457:4 1458:1 1475:1 1575:1 1606:1 1625:2 1649:2 1885:1 2014:1 2018:1 2120:2 2165:1 2193:1 2645:1 2698:1 2724:2 3285:1 3593:1 3610:1 4013:1 5124:1 5570:1 5574:1 5993:1 6339:1 6463:1 6656:1 8704:1 8705:1 8706:1 8707:1 8708:1 8709:1 8710:1 8711:1 8712:1 8713:1 8714:1 8715:1 8716:1 #
-0.0010000000000000000208166817117217 4:1 11:1 13:2 15:1 28:3 34:1 51:1 66:1 71:1 87:1 96:2 129:1 136:2 145:1 161:2 174:1 185:2 200:1 218:1 232:1 234:1 235:2 236:1 252:2 254:1 258:1 259:1 305:2 325:1 337:1 390:1 434:1 438:1 445:1 464:1 506:1 528:1 574:2 598:1 599:1 600:1 601:1 602:1 603:1 604:1 605:1 606:1 607:1 608:1 609:2 610:2 611:1 612:1 613:1 614:1 615:1 616:1 617:1 618:1 619:1 620:1 621:1 622:1 623:1 624:1 625:1 626:1 627:1 628:1 629:1 630:1 631:1 #
-0.0010000000000000000208166817117217 4:1 11:2 14:1 15:1 28:2 34:2 46:2 58:1 66:1 76:1 81:3 104:1 106:1 122:1 129:2 174:2 175:1 183:4 201:1 230:2 233:1 234:1 235:2 265:1 279:1 299:1 318:1 320:5 350:1 367:1 388:1 410:1 494:1 516:2 553:1 555:1 575:1 601:1 604:1 628:1 630:1 644:1 654:1 683:1 708:1 720:1 762:2 871:1 1146:1 1186:1 1305:1 1307:1 1387:1 1444:2 1470:2 1495:1 1528:2 1555:1 1563:2 1569:1 1605:1 1649:1 1850:1 1861:1 2019:1 2175:1 2283:1 2543:1 2621:1 2625:1 2687:1 2750:1 2754:1 2929:1 3255:1 3322:1 3592:1 3881:1 4017:1 4361:1 4456:1 4565:1 4566:1 4567:3 4568:2 4569:1 4570:1 4571:1 4572:1 4573:1 4574:1 4575:1 4576:1 4577:1 #
-0.0010000000000000000208166817117217 19:1 24:1 28:4 34:2 39:1 40:1 48:2 56:1 71:1 78:4 81:1 89:1 104:1 108:1 130:1 150:1 156:1 161:1 166:1 174:4 175:1 197:1 211:2 231:1 235:1 236:1 239:1 245:1 249:1 260:1 265:1 278:1 285:1 336:1 403:1 425:1 437:1 438:2 444:1 452:1 456:1 540:1 547:2 557:1 574:1 580:1 588:1 625:1 626:1 654:1 671:1 687:2 698:1 771:1 775:1 791:1 797:2 847:1 849:1 874:1 904:1 905:1 910:1 924:2 937:1 990:1 1338:1 1368:1 1391:1 1416:2 1441:1 1457:1 1545:1 1692:1 1813:1 2085:1 2230:1 2346:1 2386:1 2534:1 2824:1 3008:1 4246:1 5098:1 5684:1 6433:1 6492:1 6493:1 6494:1 6495:1 6496:1 #
0.0010000000000000000208166817117217 3:1 15:2 24:1 28:2 39:1 80:1 81:1 96:7 149:1 222:1 228:1 234:1 269:1 280:1 296:2 312:1 345:1 391:1 402:1 508:1 547:1 687:1 828:1 863:1 937:1 1029:1 1097:1 1211:1 1563:1 1605:1 1649:1 1722:1 2188:1 2451:1 2898:1 5091:1 8257:1 8258:1 8259:1 8260:1 8261:1 #
0.0010000000000000000208166817117217 5:1 6:1 11:1 13:1 28:1 39:1 58:2 96:4 108:1 140:2 145:1 168:1 174:1 223:1 229:1 265:1 299:1 312:1 385:1 386:1 410:1 438:1 456:1 569:1 623:1 636:1 682:1 690:1 840:1 985:1 1047:1 1230:1 1293:1 1307:1 1394:1 1533:1 1612:1 1755:1 1760:1 3203:1 3204:1 3205:1 3206:1 3207:1 #
0.0005677403566340635983344942161466 25:1 26:1 28:1 35:1 44:2 53:1 67:1 96:3 103:1 108:1 123:1 134:1 149:1 165:1 169:1 171:3 172:1 185:1 235:1 259:1 351:1 369:2 376:1 388:1 410:1 412:1 438:2 456:1 464:1 473:1 493:1 494:2 554:1 557:1 559:1 585:1 629:1 636:1 638:1 683:1 712:1 731:1 736:1 775:1 792:1 821:1 880:1 916:1 919:1 934:1 943:1 963:1 1051:1 1052:1 1074:1 1258:2 1338:1 1381:1 1406:1 1448:1 1470:1 1643:1 1706:1 1967:1 2082:1 2184:1 2452:1 3212:1 3428:1 3491:1 3629:1 3801:1 3853:1 4203:1 4648:1 4649:1 4650:1 4651:1 4652:1 4653:1 4654:1 4655:1 #
0.0010000000000000000208166817117217 12:1 28:1 34:1 52:1 96:6 114:1 121:1 129:1 150:1 169:1 175:1 225:1 228:1 296:1 299:1 505:1 510:2 567:1 629:1 686:1 813:1 828:2 880:1 921:1 965:1 1181:1 1381:1 1686:2 1694:1 1850:2 2403:1 3233:1 3576:1 3729:1 3880:1 4687:1 5472:1 7735:1 8301:1 8302:1 8303:1 8304:1 8305:1 #
0.0010000000000000000208166817117217 25:1 26:1 34:1 46:1 59:1 68:1 78:1 87:1 96:5 104:1 121:1 144:1 147:1 174:1 229:2 265:1 299:2 310:1 311:1 403:2 453:1 472:1 494:1 510:1 545:1 560:1 567:1 625:1 654:1 671:1 719:1 772:1 1055:1 1056:1 1128:1 1192:1 1193:1 1194:1 1195:1 1196:1 1197:1 1198:1 1199:1 1200:1 #
-0.0010000000000000000208166817117217 20:1 25:1 44:1 96:1 161:1 171:1 174:1 299:1 410:1 422:1 553:1 671:1 727:1 828:1 832:1 876:1 1350:1 1555:1 1603:1 1690:1 2043:1 #
-0.0010000000000000000208166817117217 12:1 13:1 34:2 96:2 108:1 121:1 161:1 168:2 174:1 211:1 220:1 233:1 298:1 380:1 453:1 510:1 567:1 829:1 1370:1 3713:1 3817:1 7208:1 #
-0.0010000000000000000208166817117217 10:1 96:2 100:1 107:1 116:1 145:2 147:1 168:1 174:1 269:1 369:1 410:1 468:1 473:1 755:1 756:1 871:1 927:1 929:1 994:2 1066:1 1088:1 1126:1 1213:1 1996:1 2290:1 3035:1 3256:1 3484:1 5017:1 5531:1 5857:1 7442:1 8047:1 8048:1 8049:1 8050:1 #
-0.0010000000000000000208166817117217 13:1 19:2 96:4 116:1 168:2 173:1 174:3 277:1 456:1 482:1 687:1 828:1 877:1 929:1 1126:1 1148:1 1211:1 1577:1 1599:1 1652:2 1939:1 2290:1 2340:1 2977:2 4204:1 5613:1 5614:1 5615:1 5616:1 #
-0.0010000000000000000208166817117217 20:1 34:1 58:1 87:1 96:2 98:1 122:1 141:1 201:1 265:1 279:1 386:1 407:1 708:1 712:1 824:1 924:1 934:1 987:1 1002:1 1157:1 1167:1 1366:1 1421:1 1594:1 1686:1 1850:1 2319:1 2788:1 2831:1 3382:1 4581:1 5377:1 5378:1 #
0.0010000000000000000208166817117217 3:1 9:1 14:2 15:1 19:1 20:1 22:1 26:1 28:6 31:1 34:1 56:2 63:1 66:1 76:1 78:2 87:1 89:1 90:1 96:5 106:2 116:1 118:1 136:1 168:1 169:1 174:4 175:4 189:1 198:1 201:1 216:1 232:1 235:1 256:1 259:1 265:2 276:2 289:1 360:1 373:1 386:1 405:1 409:1 433:1 444:1 457:1 482:1 504:1 516:1 557:1 567:2 575:1 585:1 619:1 636:1 682:1 697:1 698:2 729:2 749:1 806:1 839:1 874:1 877:1 880:1 881:1 909:2 910:1 922:1 985:1 989:1 993:1 1073:1 1138:1 1166:1 1314:1 1335:1 1379:1 1416:1 1447:1 1475:1 1506:1 1543:1 1563:1 1649:1 1693:1 1800:1 1813:1 1918:1 1923:1 1962:1 2051:1 2191:1 2237:1 2297:1 2511:1 2571:1 2715:1 2835:1 2902:2 3094:1 3457:1 3618:1 3623:1 3798:1 4023:1 4366:1 4426:1 4589:1 4671:1 4887:1 5188:1 5695:1 6384:1 6740:1 6759:1 7324:1 7888:1 8389:1 8390:1 8391:1 8392:1 8393:1 8394:1 8395:1 #
0.0010000000000000000208166817117217 3:1 10:1 11:2 12:1 19:1 22:1 28:4 29:1 33:1 34:2 36:1 48:1 52:1 58:2 61:1 66:1 72:1 77:1 82:1 89:4 96:2 108:1 109:3 118:1 129:1 145:2 149:2 161:1 166:1 168:1 171:1 175:1 189:1 200:1 201:1 211:2 228:1 229:1 231:1 235:1 245:1 259:1 260:1 264:1 318:1 345:1 351:1 358:1 368:1 371:1 394:1 398:1 399:1 425:2 433:1 437:2 453:2 468:1 506:2 557:2 609:1 678:1 685:1 711:1 720:1 738:1 762:1 772:1 791:1 819:1 827:1 836:1 844:1 850:2 881:2 905:1 921:1 934:1 985:1 990:2 994:1 1100:1 1210:1 1268:2 1359:1 1379:1 1408:3 1416:1 1618:1 1750:1 1777:1 1856:1 1960:1 2188:1 2271:1 2272:1 2286:1 2290:1 2319:1 2348:1 2464:1 3025:1 3110:1 3408:1 3691:1 4470:1 4636:1 4957:1 5187:1 5611:1 6010:1 6157:1 6283:1 6997:1 6998:1 6999:1 7000:1 7001:1 7002:1 7003:1 7004:2 7005:1 7006:1 7007:1 7008:1 7009:1 7010:1 7011:1 7012:1 7013:1 #
0.0010000000000000000208166817117217 5:1 11:3 14:1 15:1 22:1 26:1 28:5 34:1 46:1 50:1 58:1 66:1 81:2 96:3 104:1 118:1 134:2 149:1 161:1 168:2 169:2 171:3 174:2 175:1 189:1 207:1 216:1 234:1 242:1 259:1 265:1 276:2 291:1 296:1 308:1 337:1 380:1 410:1 456:1 464:1 505:1 506:1 559:1 623:1 694:1 695:1 701:1 708:1 715:1 749:1 855:1 878:1 907:1 915:1 922:1 927:1 969:1 1042:2 1184:1 1318:1 1326:1 1372:1 1397:1 1409:1 1416:1 1563:1 1599:1 1880:1 2019:1 2051:1 2378:1 2447:1 2562:1 2815:1 2822:1 3114:1 4920:1 5601:1 5760:1 7321:1 7322:1 7323:1 7324:1 7325:1 #
0.0010000000000000000208166817117217 11:3 15:1 18:1 20:3 28:5 34:1 56:1 66:1 67:2 71:1 81:3 89:1 96:4 104:1 106:3 110:1 122:1 129:2 136:1 145:1 147:1 149:1 171:1 173:1 174:2 200:1 201:1 211:2 230:1 234:1 303:1 312:1 410:1 438:2 453:2 464:1 493:1 505:1 509:2 510:1 523:1 547:1 551:3 625:1 738:1 739:1 752:1 832:1 1031:1 1067:1 1077:1 1159:1 1268:1 1293:1 1307:1 1395:2 1543:1 1690:1 1722:1 1829:1 2022:1 2515:1 2547:1 2642:1 2881:1 2882:1 2883:2 2884:1 2885:1 2886:1 #
0.0010000000000000000208166817117217 14:1 15:2 18:1 19:1 28:5 39:1 46:1 58:1 77:1 87:1 89:1 96:3 121:1 147:1 161:1 200:3 234:1 259:1 265:3 269:2 299:1 388:1 402:1 454:1 494:1 496:2 505:1 508:1 536:1 585:3 634:1 681:1 686:1 698:1 720:1 957:1 1007:2 1008:1 1009:1 1010:1 1011:1 1012:1 1013:1 1014:1 1015:1 1016:1 1017:1 1018:1 1019:1 1020:1 1021:1 1022:1 1023:1 1024:1 1025:1 #
-0.0010000000000000000208166817117217 5:1 10:3 12:1 15:3 19:1 24:1 28:2 34:1 77:1 81:1 96:4 140:1 141:1 142:1 147:1 150:1 152:1 155:1 156:1 161:1 165:1 171:2 174:4 175:1 211:1 216:2 221:1 228:1 241:1 247:1 256:1 259:1 262:1 296:1 299:1 318:1 338:1 379:1 404:1 407:2 425:2 438:1 454:1 475:2 484:2 495:1 505:1 516:3 543:1 545:1 567:1 569:1 620:1 624:1 644:1 652:1 683:1 697:2 708:2 720:1 772:1 791:1 806:2 850:1 863:1 872:1 905:1 933:1 989:1 1031:1 1127:1 1146:1 1179:1 1268:1 1298:1 1318:1 1352:1 1395:1 1411:1 1663:1 1766:1 1814:1 1851:1 1929:1 2000:1 2020:1 2022:1 2159:1 2348:2 2464:1 2744:1 2799:1 3691:1 3769:1 4463:1 5213:1 6835:1 7167:1 7168:1 7169:1 7170:1 7171:1 7172:1 7173:1 7174:1 #
-0.0010000000000000000208166817117217 3:1 19:2 25:1 28:3 29:1 31:1 34:1 39:1 58:1 61:1 62:1 63:1 87:1 96:4 97:1 145:1 174:2 185:1 198:1 239:1 259:1 265:5 300:2 373:1 386:1 488:1 507:1 508:1 516:1 518:1 567:1 572:1 632:1 654:1 659:1 698:1 772:1 790:1 828:1 876:1 880:1 933:1 944:2 948:2 1062:1 1113:1 1318:1 1448:1 1462:1 1464:1 1526:1 1739:1 2544:1 2588:1 2885:1 5143:1 5214:1 5215:1 5216:1 5217:1 #
-0.0010000000000000000208166817117217 3:1 15:1 22:1 28:6 34:1 43:2 44:1 66:3 81:1 87:1 96:10 104:2 106:1 121:1 140:1 142:1 147:1 152:1 171:1 174:2 189:1 218:1 234:1 235:1 236:1 265:2 296:1 299:1 304:1 326:1 404:2 405:2 410:1 427:1 438:1 444:1 474:1 510:1 528:1 537:1 580:3 588:1 601:1 650:2 689:1 758:1 779:1 843:1 998:1 1023:1 1274:1 1326:1 1401:1 1516:1 1555:1 1795:1 1901:1 2051:1 2702:1 3169:1 3610:1 3652:1 4023:1 6072:1 6073:1 6074:1 6075:1 6076:1 #
-0.0010000000000000000208166817117217 10:2 13:1 14:1 15:1 24:1 28:3 34:2 58:1 61:1 62:1 63:1 80:3 96:3 104:1 108:1 123:2 129:1 169:1 171:1 174:2 180:1 195:1 228:2 252:1 259:1 265:1 274:2 292:2 299:2 304:1 336:1 351:2 371:1 391:1 400:1 407:2 412:2 426:1 453:1 454:1 505:1 538:1 576:1 609:1 678:1 758:1 803:1 832:1 856:1 883:1 924:1 927:1 1002:2 1018:1 1067:1 1256:1 1293:1 1314:1 1493:1 1509:3 1533:1 1594:1 1605:1 1625:1 1630:1 1676:1 1686:2 1709:1 1850:1 1876:1 1927:1 2268:1 2290:1 2369:1 2408:2 2476:1 2573:1 2632:1 2731:2 2788:1 2997:1 3210:3 3246:2 3269:2 3682:1 4552:1 5204:1 5429:1 5518:1 5682:2 5724:1 5971:1 6325:1 7664:1 8545:1 8546:1 8547:1 8548:1 #
-0.0010000000000000000208166817117217 3:1 9:1 11:1 19:1 22:3 28:1 34:4 39:1 42:1 43:1 44:2 56:1 66:1 73:1 96:3 112:1 116:2 124:1 131:1 156:1 157:3 168:1 174:1 175:1 214:1 242:1 273:1 292:1 299:1 312:1 326:1 327:1 330:1 337:1 407:1 420:1 437:1 452:1 473:1 480:1 488:1 567:1 619:1 638:1 687:2 690:1 698:2 715:1 720:1 729:1 760:1 772:1 779:1 821:1 832:1 874:1 881:1 920:1 921:1 971:1 994:1 1062:1 1097:1 1300:1 1308:1 1395:1 1499:1 1633:1 1820:1 1833:1 2014:1 2071:1 2172:1 2237:1 2298:1 3170:1 3457:1 3801:1 4141:1 4334:1 5341:1 5454:1 6427:1 7080:2 7398:1 7783:1 7784:1 #
0.0010000000000000000208166817117217 10:1 19:1 29:1 34:1 44:5 48:2 59:1 96:1 122:1 129:1 143:2 161:1 169:1 177:1 211:1 278:1 301:1 303:1 400:1 494:1 516:1 569:1 572:1 575:1 604:1 630:1 634:1 635:1 710:1 729:1 772:1 803:1 880:1 888:2 905:1 943:1 955:1 963:1 1006:1 1051:1 1281:1 1355:1 1371:1 1416:1 1473:1 1820:1 1871:1 2020:1 2452:1 2469:2 2744:2 2809:1 2882:1 3856:1 4093:1 4278:1 4759:1 4988:2 5830:1 7080:1 7443:1 7507:1 7934:1 8627:1 8628:1 8629:1 8630:1 #
0.0010000000000000000208166817117217 4:1 6:1 19:1 28:3 39:1 40:2 44:4 66:1 67:1 81:2 93:1 96:1 98:1 100:2 108:1 110:1 122:2 129:2 145:1 150:1 155:1 161:2 168:1 171:1 174:1 175:2 212:2 220:4 236:1 294:1 305:1 327:2 373:1 403:1 425:1 482:2 493:1 566:1 620:1 627:2 630:1 660:1 671:1 685:1 688:1 720:1 729:1 748:1 762:1 779:1 821:1 824:1 872:1 877:1 909:1 916:1 992:1 1211:1 1373:1 1441:1 1475:1 1538:1 1580:1 1589:3 1594:1 1595:1 1596:1 1597:1 1598:1 1599:1 1600:1 1601:1 1602:1 1603:1 1604:1 1605:1 1606:1 1607:1 1608:1 1609:1 1610:1 1611:1 1612:1 1613:1 1614:1 1615:1 1616:1 #
0.0010000000000000000208166817117217 4:1 11:1 24:3 28:1 34:1 38:1 39:1 50:1 51:1 67:1 71:2 77:1 78:6 82:1 89:1 90:1 96:1 134:1 147:1 149:1 150:1 156:1 161:1 168:1 171:1 174:1 201:1 204:1 205:1 211:1 214:1 242:2 267:1 288:1 294:1 296:1 326:1 330:1 371:1 384:1 406:1 450:1 454:1 479:2 494:1 505:1 516:2 537:1 540:1 554:1 557:1 567:2 568:2 569:1 577:1 591:1 639:1 698:1 708:2 711:1 712:2 727:1 736:1 755:2 860:1 876:1 877:1 919:1 930:1 950:3 1091:1 1211:1 1256:1 1380:1 1410:1 1533:1 1690:1 1842:1 2000:1 2277:1 2518:1 2667:1 2671:1 2740:1 3075:1 3091:1 3175:1 3263:1 3662:1 3663:1 3726:1 4476:1 4927:1 4965:1 5131:1 5213:1 5821:1 8396:1 8397:1 8398:1 #
0.0010000000000000000208166817117217 14:2 24:1 28:1 34:1 56:1 81:1 103:1 104:1 107:1 129:1 150:1 165:3 174:1 197:1 206:1 231:1 234:1 235:1 246:1 277:1 285:2 289:1 318:1 330:2 505:1 551:1 553:1 588:1 779:1 905:1 1007:2 1282:1 1382:1 1416:2 1629:1 1809:1 2360:1 3300:1 3370:1 3505:1 3991:1 3992:1 3993:1 3994:1 #
0.0010000000000000000208166817117217 3:1 5:1 28:1 30:1 34:2 38:1 58:1 104:1 122:1 145:1 150:1 156:1 171:1 174:2 203:1 204:1 205:1 222:1 233:1 235:1 265:1 314:1 330:1 367:1 371:1 407:1 410:1 927:1 946:1 1007:1 1128:1 1318:1 1416:1 1419:1 1534:1 2687:1 3351:1 3927:1 4826:1 6213:1 6585:1 6586:1 #
-0.0010000000000000000208166817117217 4:1 11:1 20:1 24:2 28:1 34:1 38:1 51:1 67:1 71:1 78:4 82:1 87:1 89:1 96:4 134:1 147:2 149:1 161:1 168:1 174:1 204:1 205:1 211:1 294:1 326:1 330:1 371:1 406:1 479:1 494:1 505:1 516:2 537:1 540:1 557:1 567:1 568:1 577:1 591:1 639:1 671:1 698:1 727:1 860:1 876:1 877:1 919:1 930:1 950:3 1256:1 1380:1 1410:2 1533:1 1842:1 2000:1 2671:1 3091:1 3099:1 3175:1 3662:1 3663:1 3726:1 5131:1 5210:1 5211:1 5212:1 5213:1 #
-0.0010000000000000000208166817117217 9:1 10:1 15:1 26:1 28:3 34:1 39:1 44:1 61:1 67:1 75:1 77:1 87:1 96:1 107:1 108:2 109:3 110:1 122:1 131:1 145:2 174:2 211:1 215:1 218:2 220:4 229:1 235:1 259:1 304:1 403:1 426:1 437:1 439:1 454:1 482:1 494:1 496:1 536:1 545:1 607:1 609:1 626:1 654:1 694:1 698:1 729:1 759:1 828:1 849:1 857:1 866:1 880:1 937:1 992:1 1041:1 1047:1 1056:1 1128:1 1140:1 1152:1 1286:1 1305:1 1369:1 1421:1 1427:1 1559:1 1575:1 1584:1 1618:1 1713:1 2019:1 2345:1 2369:1 2763:1 2788:1 2797:1 2804:1 2896:1 2995:1 3382:1 3709:1 3710:1 3711:1 3712:1 3713:1 3714:1 3715:1 3716:1 3717:1 3718:1 3719:1 3720:1 3721:1 3722:1 3723:1 3724:1 3725:1 #
-0.0010000000000000000208166817117217 5:1 11:2 14:1 24:2 28:3 34:2 78:1 81:1 87:1 129:1 130:1 157:1 161:2 171:1 175:1 190:1 201:1 236:1 264:1 279:1 285:1 351:1 547:1 557:1 575:1 609:1 627:1 635:1 644:1 663:1 706:1 877:1 879:1 950:1 993:1 1039:1 1084:1 1237:1 1359:1 1585:1 1618:1 1918:1 2033:1 2071:1 2072:1 2683:1 2704:1 2792:1 2815:1 2926:1 4143:1 4875:1 6444:1 6870:2 6871:1 6872:1 6873:1 6874:1 6875:1 6876:1 #
-0.0010000000000000000208166817117217 10:1 22:1 24:1 34:2 38:1 89:1 100:1 103:1 106:1 129:1 145:1 159:1 166:1 169:1 171:1 174:2 195:1 230:1 264:1 278:1 281:1 285:1 292:1 330:2 351:1 400:1 410:2 537:2 575:1 588:1 591:1 824:1 834:1 876:1 922:1 1132:1 1159:1 1411:1 1477:1 1891:1 2104:1 2574:1 2761:1 3333:1 4368:2 4689:1 4722:1 5143:1 5630:1 6198:3 6199:2 6200:1 6201:1 6202:1 6203:1 #
0.0010000000000000000208166817117217 14:1 20:1 28:3 34:2 44:1 46:1 56:1 58:1 66:1 72:1 74:2 78:1 80:1 82:1 96:4 98:1 104:1 106:1 110:1 118:1 129:1 145:2 150:1 161:1 171:2 174:4 189:1 190:1 211:1 217:1 221:1 265:4 278:1 279:1 299:2 335:1 438:1 445:1 467:1 468:1 480:1 486:1 505:1 506:1 508:1 545:1 565:1 619:1 633:1 644:1 654:1 687:1 689:1 755:1 772:1 790:1 828:1 880:2 924:1 966:1 983:1 985:1 1023:1 1080:1 1100:1 1127:1 1161:1 1178:1 1188:1 1195:1 1309:1 1368:1 1395:1 1457:3 1528:2 1599:1 1603:1 1722:1 1777:1 1879:1 1903:1 2084:1 2148:1 2462:1 2638:3 2908:1 3001:1 3231:1 3281:1 5309:1 5531:1 5593:1 6142:1 6461:1 7764:1 8772:1 8773:1 8774:1 8775:1 8776:1 #
0.0010000000000000000208166817117217 4:1 5:1 10:1 12:1 24:1 26:1 28:3 58:1 80:2 96:6 100:1 108:1 124:1 126:1 129:1 145:1 156:2 161:1 166:1 169:1 174:2 201:1 241:1 351:1 403:1 410:1 436:1 467:1 475:1 506:1 551:1 566:1 567:1 574:1 575:1 625:1 665:2 698:2 700:1 731:1 844:1 849:1 924:1 1056:1 1067:1 1336:1 1408:1 1481:1 1534:1 1709:1 1855:1 2608:1 2667:1 2738:1 2744:1 2791:1 2929:1 4204:1 4245:1 4289:1 5033:1 5992:1 5993:1 5994:1 #
0.0010000000000000000208166817117217 5:2 10:1 11:2 12:1 15:2 28:3 29:1 31:1 34:1 59:1 66:2 87:1 96:6 100:2 108:2 109:1 130:1 145:2 147:1 156:1 169:1 171:2 174:2 200:1 201:1 211:2 236:1 262:1 265:1 289:2 304:1 312:1 320:1 331:2 345:1 386:1 403:2 412:2 418:1 444:1 454:1 465:1 473:1 474:2 493:1 494:1 496:1 506:1 535:1 567:1 568:1 569:1 572:1 597:1 636:1 648:1 667:1 698:1 702:1 758:1 821:1 824:1 1010:1 1056:2 1077:1 1127:1 1128:2 1400:1 1411:1 1453:1 1604:1 1631:1 1827:1 1914:1 1952:1 2015:1 2159:1 2705:1 2883:1 3818:1 6633:1 6634:1 6635:1 6636:1 #
0.0010000000000000000208166817117217 3:2 10:1 15:1 24:1 28:4 31:1 34:2 39:1 56:1 58:2 66:1 67:1 72:1 78:1 87:1 91:1 94:2 96:6 100:1 117:1 122:1 129:2 141:1 145:1 147:1 149:1 161:1 168:2 171:1 174:7 201:3 209:1 225:1 232:2 241:2 265:2 279:1 282:1 330:1 385:1 386:1 406:1 410:1 430:1 452:1 482:1 486:1 501:1 506:1 545:2 567:1 568:1 569:1 623:1 638:1 671:1 690:1 697:1 698:2 749:1 823:1 828:1 830:1 878:2 880:1 905:2 922:1 970:1 1067:1 1107:1 1211:1 1239:1 1323:1 1426:1 1427:1 1444:1 1606:1 1983:1 2230:2 2419:1 2776:1 3197:1 3344:1 3345:1 3718:1 3739:1 3903:1 3910:1 3990:1 4499:1 4915:1 6341:1 6761:1 6896:1 7070:1 8808:1 8809:1 8810:1 8811:1 8812:1 8813:1 #
0.0010000000000000000208166817117217 4:1 10:1 15:1 24:1 28:2 34:1 44:2 58:1 67:1 72:1 80:1 96:5 102:1 104:1 108:1 114:1 130:1 145:1 174:4 198:1 221:1 229:2 288:1 305:1 327:1 351:1 439:1 444:1 452:1 454:2 465:1 473:1 508:1 651:1 690:1 709:1 746:1 828:2 849:1 880:1 1028:1 1062:1 1063:1 1067:1 1146:1 1204:1 1227:1 1304:1 1309:1 1421:1 1516:1 1690:2 1741:1 1916:1 2087:2 2476:1 3055:1 3061:1 3098:2 3153:1 3917:1 5200:2 8235:1 8236:1 8237:1 #
-0.0010000000000000000208166817117217 5:1 10:1 12:1 13:1 19:1 24:1 34:1 38:1 85:1 87:1 96:4 98:1 106:1 108:1 110:1 129:1 143:1 166:1 169:1 171:1 174:2 201:2 211:1 215:1 229:1 231:1 252:1 255:1 265:1 299:1 303:1 330:1 369:1 398:1 414:1 464:1 473:1 479:1 484:1 486:1 510:1 556:1 574:1 601:1 625:1 630:1 672:1 685:1 712:2 719:1 729:2 755:1 761:1 813:1 824:1 830:1 862:1 880:1 905:1 934:1 971:1 985:1 1363:1 1421:1 1470:1 1575:1 1671:1 1713:1 1836:1 1937:1 1951:1 2165:1 2290:1 2298:1 2510:1 2626:1 2667:2 2753:1 2785:1 2799:1 3322:1 3573:1 3937:1 4063:1 4067:1 4663:1 4677:1 5052:1 5064:1 6092:1 6433:1 6434:1 6435:1 6436:1 6437:1 6438:1 6439:1 6440:1 6441:1 6442:1 #
-0.0010000000000000000208166817117217 4:1 10:1 28:3 34:1 48:1 78:2 81:1 87:1 96:2 102:1 104:1 145:1 147:1 149:1 174:3 198:1 207:1 236:1 242:1 265:1 276:1 304:1 325:1 399:1 402:1 412:1 433:1 438:1 453:1 466:1 473:1 501:1 520:1 528:1 540:1 567:2 572:2 580:1 589:1 629:1 652:3 708:1 738:1 779:1 839:1 844:1 877:1 899:1 934:1 1211:1 1231:1 1314:1 1395:1 1412:2 1530:1 1538:1 1676:1 1686:1 2044:2 2076:1 2126:1 2127:1 2191:1 2233:1 2290:1 2329:1 2347:1 2724:1 2917:1 3178:1 3290:1 3322:1 3457:1 4168:1 4367:1 5305:1 5306:1 5307:1 5308:1 5309:1 5310:1 5311:1 5312:1 #
-0.0010000000000000000208166817117217 14:1 16:1 20:1 28:2 61:3 76:1 79:1 89:1 96:2 110:1 122:1 145:1 150:1 156:1 174:4 229:1 264:1 265:3 337:1 425:1 437:1 453:1 454:3 468:1 493:1 516:1 557:1 585:1 660:1 709:1 731:1 764:1 813:1 881:1 985:2 1165:1 1245:1 1318:1 1424:1 1453:1 2000:1 2204:1 2443:1 2829:1 3101:1 3271:1 4056:1 5123:1 5143:1 5945:1 6343:1 6716:1 6717:1 6718:1 6719:1 6720:1 6721:1 #
-0.0010000000000000000208166817117217 15:2 28:1 38:1 44:2 71:1 82:1 87:1 96:2 116:2 168:2 171:1 201:1 231:1 232:1 234:1 236:1 264:1 265:1 286:1 299:1 312:1 330:1 351:1 385:1 410:1 496:1 505:2 552:1 557:1 559:1 567:1 569:1 595:1 611:1 685:1 689:1 1010:2 1041:1 1053:1 1352:1 1381:1 1411:1 1526:1 1568:1 1694:1 1770:1 1952:1 2220:1 2841:1 3040:1 3125:1 3490:1 3604:1 4224:1 4393:1 4905:1 6653:1 8027:1 8730:1 8731:1 8732:1 8733:1 #
-0.0010000000000000000208166817117217 5:1 15:1 19:2 26:1 28:3 31:1 34:2 38:1 46:1 82:2 96:2 110:1 123:1 129:1 140:1 145:1 166:1 168:2 175:1 183:1 422:1 438:1 445:1 486:1 490:1 508:1 509:2 567:1 623:2 636:1 652:1 691:1 791:1 824:1 877:1 881:2 887:1 909:1 1000:2 1391:1 1457:1 1461:1 1533:1 1543:1 1797:1 1850:1 1897:1 2051:1 2171:1 4069:1 5371:1 5372:1 5373:1 5374:1 5375:1 5376:1 #
0.0010000000000000000208166817117217 10:1 19:1 34:1 35:1 48:1 77:1 81:1 95:1 117:1 129:1 165:1 221:1 235:1 264:1 330:1 385:1 423:1 465:1 482:1 607:1 629:1 644:1 763:2 772:1 959:1 1049:1 1307:1 1309:1 1401:1 1545:1 1670:2 1701:1 1836:1 1838:1 1966:1 1991:1 2120:2 2468:1 2538:1 3306:1 3334:1 6160:1 8332:1 8467:1 8468:1 8469:1 #
0.0010000000000000000208166817117217 3:1 24:1 28:3 31:1 103:1 121:1 140:1 150:1 265:1 285:1 296:1 337:1 373:1 496:1 545:1 557:2 600:1 688:2 763:1 950:1 1475:1 2000:1 2013:1 2667:1 4470:1 6902:1 8572:1 #
0.0010000000000000000208166817117217 12:2 13:1 15:1 24:1 28:2 34:1 87:1 96:3 112:1 117:1 124:1 144:1 161:1 168:2 205:1 216:1 265:1 299:2 304:2 337:1 406:1 407:1 494:3 496:1 597:1 725:2 727:1 767:1 773:1 830:1 835:1 919:2 924:1 1211:1 1461:1 1705:1 2263:1 3817:1 4556:1 5010:1 5011:1 5012:1 5013:1 5014:1 #
0.0010000000000000000208166817117217 15:1 19:1 20:1 21:1 28:1 38:1 66:1 95:1 116:1 144:3 161:1 201:1 222:1 233:1 296:1 310:1 331:1 410:1 422:1 468:1 505:1 544:1 601:1 619:1 726:1 790:1 819:1 828:1 863:1 877:1 927:1 950:1 1338:1 1575:1 1608:1 1763:1 2017:1 2449:1 2715:1 2740:1 2908:1 4178:1 5191:2 6512:1 6513:1 6514:1 6515:1 #
0.0010000000000000000208166817117217 3:1 20:1 28:1 34:3 40:1 90:1 96:3 117:1 122:1 129:1 130:1 166:1 214:2 228:1 231:2 251:1 259:1 289:1 305:1 327:1 402:1 410:1 567:1 697:1 720:1 749:1 768:1 828:1 877:1 934:1 992:1 1026:1 1063:1 1111:1 1298:1 1308:1 1929:2 2062:1 3091:1 5173:1 5296:1 5297:1 5298:1 5299:1 5300:1 5301:1 #
-0.0010000000000000000208166817117217 14:1 28:2 34:1 46:1 50:1 52:1 59:1 63:1 80:1 82:1 96:1 100:1 147:1 150:1 201:1 212:1 241:1 267:1 337:2 400:1 410:1 553:1 557:1 572:1 587:1 622:1 697:1 698:1 738:1 739:1 764:1 768:1 845:1 855:1 880:2 907:1 955:1 989:1 994:2 1079:1 1118:1 1444:1 1457:1 1471:1 1601:1 1674:1 1800:1 1898:1 1900:1 2074:1 2126:1 2263:1 2277:1 2289:1 2295:1 2329:1 2855:1 3056:1 3319:1 3593:1 3969:1 4253:1 4676:1 4802:1 5241:1 6017:1 6450:1 7064:1 7065:1 7066:1 #
-0.0010000000000000000208166817117217 24:1 28:2 96:1 104:1 116:1 145:1 201:1 264:1 286:1 289:1 318:1 508:1 815:1 855:1 995:1 1381:1 1475:1 1566:1 1623:1 2980:1 5723:1 5724:1 #
-0.0010000000000000000208166817117217 11:1 24:2 28:3 58:1 104:1 118:1 161:1 171:1 215:1 299:1 467:1 569:1 622:1 729:1 994:1 1170:1 1470:1 1849:1 1903:1 2251:1 2289:1 2508:1 2509:1 2510:1 2511:1 2512:1 #
-0.0010000000000000000208166817117217 11:1 12:2 96:1 100:1 106:1 112:1 150:1 174:1 181:1 265:1 291:1 304:1 471:1 516:2 586:1 622:1 697:1 940:1 1211:1 1395:1 1441:1 1496:1 1545:1 2133:1 2449:1 2528:1 2747:1 2896:1 3331:2 4725:1 5966:1 6819:1 6820:1 6821:1 6822:1 6823:1 6824:1 #
-0.0010000000000000000208166817117217 14:1 28:2 48:1 56:1 78:1 82:1 96:1 129:2 182:1 201:1 218:1 235:1 259:1 278:2 280:1 305:1 310:2 311:1 335:1 337:1 367:1 391:1 402:1 427:1 438:1 444:1 468:1 471:1 538:1 553:1 580:1 620:1 651:1 729:1 790:1 811:1 838:1 880:1 903:1 1080:1 1283:1 1291:1 1428:1 1457:1 1521:1 1555:1 1563:1 1612:1 1618:1 1691:1 1775:1 1850:1 1908:1 2557:1 2764:1 2765:1 2766:1 2767:2 2768:1 2769:1 2770:1 2771:1 2772:1 2773:1 2774:1 2775:1 2776:1 2777:1 2778:1 2779:1 2780:1 2781:1 2782:1 2783:1 2784:1 2785:1 2786:1 2787:1 #
0.0010000000000000000208166817117217 7:1 22:1 24:1 26:1 27:1 28:1 34:2 58:1 78:2 80:1 87:1 89:1 96:3 104:1 112:1 116:2 129:2 147:1 149:1 168:2 171:1 174:2 203:1 223:1 255:1 278:3 282:1 285:1 288:1 320:1 331:1 334:1 335:1 351:1 400:1 402:2 409:1 420:1 438:1 454:1 501:3 507:1 510:1 516:2 552:1 554:1 574:1 575:2 580:1 588:1 625:1 629:1 650:1 665:1 690:1 698:2 708:1 721:1 832:1 836:1 856:1 861:1 874:1 899:1 924:1 982:1 983:1 985:1 1047:1 1049:1 1188:1 1221:1 1293:1 1379:1 1416:1 1535:1 1582:1 1804:1 1955:1 2013:1 2022:1 2408:1 2426:1 2538:1 2668:1 2669:1 2670:1 2671:1 2672:1 2673:1 2674:1 #
0.0010000000000000000208166817117217 15:2 19:1 28:3 34:1 42:1 44:1 58:1 68:1 71:2 75:1 81:1 96:2 102:1 169:1 171:2 174:2 175:1 208:1 230:1 235:2 236:1 249:1 254:1 259:1 265:1 280:1 300:1 303:1 308:1 312:1 325:2 359:1 380:1 438:1 444:1 547:1 551:1 589:1 625:1 636:1 687:1 698:1 707:1 746:1 832:1 841:1 843:2 918:2 944:1 957:1 998:1 1152:1 1165:1 1211:1 1254:1 1411:1 1534:1 1600:1 1901:1 1902:1 1903:1 1904:1 1905:1 1906:1 1907:1 1908:1 1909:1 1910:1 1911:2 1912:1 1913:1 1914:1 1915:1 1916:1 1917:2 1918:1 1919:1 1920:1 1921:1 1922:1 1923:1 1924:1 #
0.0010000000000000000208166817117217 4:3 10:1 19:1 28:4 34:3 72:1 80:1 81:1 85:1 96:3 102:1 122:1 129:1 132:1 134:1 145:1 149:1 161:1 174:2 177:1 189:1 195:1 201:1 218:1 230:1 265:4 337:2 339:1 386:1 400:1 410:1 425:1 427:1 482:1 507:1 508:1 567:2 607:1 737:1 763:1 835:1 839:1 873:1 877:1 1359:1 1416:1 1427:2 1444:2 1575:1 1603:1 1690:2 1804:2 2001:1 2087:2 2172:1 2334:1 2777:1 3114:1 3116:1 3576:1 3717:1 3880:1 3917:1 4136:1 4188:1 4189:1 4190:1 4191:1 4192:1 4193:1 4194:1 4195:1 #
0.0010000000000000000208166817117217 3:1 10:2 12:1 14:1 19:1 25:1 28:1 34:1 42:1 56:1 67:1 73:1 78:4 81:1 96:5 106:1 117:1 122:2 143:1 147:1 156:1 166:1 174:3 185:1 203:1 216:1 242:1 265:1 285:1 299:1 331:1 368:1 369:1 388:1 410:1 496:1 504:1 505:1 560:1 567:1 586:1 635:1 666:1 671:1 681:1 697:1 700:1 708:2 760:2 763:1 816:1 881:1 922:1 943:1 981:1 989:1 1018:1 1086:1 1135:1 1236:1 1305:1 1314:1 1338:1 1373:1 1411:1 1412:1 1458:1 1951:1 2118:1 2159:1 2281:1 2286:1 2393:1 2524:1 2687:1 2726:2 3207:1 4284:1 5478:1 5549:1 6864:1 6975:1 7105:1 7783:1 8719:1 8720:1 8721:1 8722:1 8723:1 8724:2 #
0.0010000000000000000208166817117217 3:1 20:2 28:4 31:1 34:1 66:2 87:1 96:3 100:1 104:1 118:1 121:1 131:1 166:1 174:3 180:1 189:1 212:1 241:1 242:2 269:1 299:2 330:1 410:1 420:2 433:1 474:1 486:1 487:1 493:1 494:1 501:1 507:1 508:1 528:1 567:1 580:1 613:1 636:1 654:1 687:1 698:2 736:1 758:1 772:1 775:1 813:1 983:1 1037:1 1066:2 1281:1 1411:1 1426:1 1444:1 1455:1 1509:1 1694:2 1697:1 1773:1 1837:1 1912:1 1966:1 2007:1 2019:1 2163:1 2308:1 2329:1 2390:1 2542:1 2801:1 2815:1 2898:1 3086:1 3088:1 3171:1 3582:1 3602:1 4162:1 4278:1 5518:1 5879:1 7170:1 7195:1 7733:1 7734:1 7735:1 7736:1 7737:1 7738:1 7739:1 7740:1 #
-0.00040123044460832403990818706418509 13:1 15:2 19:1 20:1 24:1 28:3 34:1 59:1 78:2 94:1 96:7 106:1 108:1 110:2 114:1 116:2 117:3 122:1 129:1 140:1 161:1 168:2 174:2 201:1 203:1 204:1 205:2 230:1 231:3 232:1 252:1 265:1 275:1 285:2 291:1 304:2 325:2 337:1 360:1 379:1 386:1 390:1 407:1 408:1 494:1 496:2 509:1 545:2 557:1 559:1 567:2 576:1 592:1 619:1 683:1 687:3 694:2 720:1 729:1 738:1 746:1 788:1 819:1 821:3 824:1 850:1 909:1 921:1 964:1 965:1 992:2 1000:2 1007:2 1016:2 1035:1 1145:1 1165:1 1179:1 1269:1 1300:1 1301:1 1302:1 1303:1 1304:1 1305:2 1306:1 1307:1 1308:2 1309:1 1310:1 1311:1 1312:1 1313:1 1314:1 1315:1 1316:1 1317:1 1318:1 1319:1 1320:1 1321:1 1322:1 1323:1 #
-0.0010000000000000000208166817117217 19:1 23:1 25:2 34:1 44:1 71:1 81:1 96:6 108:1 112:1 122:2 124:1 147:1 173:1 174:1 175:1 200:1 203:1 206:1 212:1 218:3 256:1 264:1 276:1 291:1 304:1 325:1 351:3 368:1 397:1 406:1 410:1 478:1 494:1 510:1 588:1 591:4 595:1 689:1 694:1 733:1 734:1 736:9 762:2 775:1 779:1 830:1 855:1 879:1 993:1 1024:1 1031:1 1080:1 1113:3 1129:1 1248:1 1266:1 1279:2 1411:1 1419:2 1421:1 1605:1 1612:1 1638:1 1670:4 1676:1 1721:1 1782:3 1840:2 1886:2 1910:2 1952:2 2037:1 2132:1 2277:1 2562:1 2756:1 2926:1 2938:1 3334:1 3520:1 3696:1 3742:2 4386:1 4504:1 4528:1 4566:1 4779:1 5202:1 5707:1 6148:1 6250:1 6902:1 7219:1 8687:1 8760:1 8761:3 8762:1 8763:1 8764:2 8765:1 8766:1 8767:1 8768:1 8769:1 8770:1 8771:1 #
-0.0010000000000000000208166817117217 10:2 19:1 25:2 26:1 28:6 34:1 38:1 66:3 77:1 78:3 80:1 81:1 93:1 96:7 104:2 108:2 112:1 117:1 121:1 162:1 168:1 174:3 185:1 189:2 200:2 216:1 229:1 230:1 233:1 265:1 279:1 295:1 310:1 312:1 325:1 330:1 380:1 427:1 452:1 453:1 468:1 471:1 496:2 520:1 537:1 538:1 545:1 575:1 607:1 639:1 762:1 823:1 849:1 862:1 880:1 919:1 1062:3 1067:2 1127:1 1146:1 1165:1 1231:1 1287:1 1374:1 1426:1 1605:2 1612:1 1621:1 1644:1 1694:1 1836:1 2237:1 2281:1 2438:1 2532:1 2833:1 3214:1 4072:1 4207:1 4267:1 4368:1 4645:1 4718:1 5166:1 5357:1 6075:1 6094:1 6204:1 6205:1 6206:1 6207:1 6208:1 6209:1 6210:1 6211:1 #
-0.0010000000000000000208166817117217 3:1 11:1 24:1 31:2 34:3 36:1 56:1 58:1 63:1 77:1 78:3 80:1 90:1 96:5 100:1 104:2 123:1 129:2 137:1 140:1 144:1 159:1 171:1 174:4 201:1 203:2 204:2 205:1 206:1 220:1 230:1 231:2 242:1 267:1 282:1 285:1 344:1 348:1 360:1 388:2 443:1 444:1 454:1 500:1 510:1 513:2 521:1 541:2 545:1 554:1 574:1 588:1 601:2 613:1 620:1 627:1 636:1 652:1 659:1 663:2 698:2 746:1 750:1 751:1 805:1 836:1 840:1 846:1 862:1 877:1 905:1 921:1 937:1 950:1 1084:1 1157:1 1220:1 1296:1 1301:1 1329:1 1343:2 1416:1 1419:1 1527:1 1535:1 1575:1 1580:1 1619:1 1663:2 1690:1 1691:1 1695:2 1696:2 1714:1 1753:1 2158:1 2169:1 2237:1 2468:1 2507:1 2580:2 2600:1 2608:2 2898:1 2905:1 2980:1 3026:1 3030:1 3034:1 3398:1 3553:1 3554:1 3555:1 3556:2 3557:1 3558:1 3559:2 3560:2 3561:1 3562:1 3563:1 3564:1 3565:1 3566:1 3567:1 3568:1 3569:1 3570:1 3571:1 3572:1 3573:1 #
-0.0010000000000000000208166817117217 3:2 10:2 19:1 24:3 28:2 34:2 41:1 58:2 96:5 97:4 104:1 117:1 144:1 171:1 174:3 200:2 201:1 211:1 215:1 236:1 246:1 251:1 256:1 259:1 295:1 300:1 386:1 400:1 404:2 427:1 486:2 487:1 508:1 510:1 536:1 545:1 567:1 572:1 574:1 636:1 654:1 712:2 715:1 727:1 731:1 772:1 773:1 872:2 888:1 933:1 1000:1 1105:1 1226:1 1281:1 1330:1 1470:1 1493:1 1546:1 1580:1 1605:1 1694:1 2159:1 2295:1 2464:1 2632:1 2809:1 4125:1 4574:1 6234:1 7192:1 7193:1 7194:1 7195:1 7196:1 #
0.0010000000000000000208166817117217 19:1 20:1 52:1 59:1 201:1 204:1 299:1 351:1 404:1 410:1 420:1 697:1 818:1 921:1 922:1 1324:1 1416:1 1859:1 2223:1 3322:1 3969:1 4539:1 6096:1 6589:1 #
0.0010000000000000000208166817117217 11:2 24:2 28:1 29:1 112:1 140:1 141:1 150:1 174:1 265:1 326:1 330:1 336:1 410:1 456:1 557:1 559:1 682:1 694:1 695:1 728:1 755:1 1226:1 1272:1 1308:1 1464:1 1663:1 2379:1 2449:1 2704:1 4213:1 4626:1 4627:1 4628:1 #
0.0010000000000000000208166817117217 5:1 9:1 19:1 24:1 28:1 29:1 34:1 46:1 81:1 89:1 118:1 129:2 141:3 155:2 173:1 231:1 239:2 269:1 296:1 376:1 402:1 434:1 468:1 496:1 505:1 538:1 548:1 572:1 623:1 636:1 697:1 829:1 910:1 977:1 990:1 1184:1 1293:1 1370:1 1444:1 1677:1 1708:1 1786:1 1900:1 1904:1 1916:1 2019:1 2116:1 2855:1 3101:1 4060:1 4061:1 4062:1 4063:1 4064:1 4065:1 4066:1 4067:1 #
0.0010000000000000000208166817117217 13:1 24:1 28:1 104:1 118:1 161:1 171:1 174:1 211:1 265:1 276:1 299:1 301:1 302:1 400:1 457:1 505:1 574:1 620:1 623:1 663:1 694:1 721:1 828:1 877:1 969:1 990:1 1051:1 1052:1 1308:1 1350:1 1464:1 5464:1 7846:1 7847:1 7848:1 #
0.0010000000000000000208166817117217 11:1 78:1 80:1 82:1 112:1 161:1 170:1 249:1 251:1 269:1 320:1 351:1 420:1 422:1 468:1 507:1 516:1 554:1 559:1 580:2 619:1 690:3 694:1 828:1 959:1 994:1 1043:1 1053:1 1231:1 1336:1 1533:1 2078:1 2177:1 2573:1 2651:1 2860:1 3674:1 3968:1 4130:1 4521:1 5369:1 6782:1 8120:1 8121:1 8122:1 8123:1 #
-0.0010000000000000000208166817117217 6:1 10:1 13:1 28:2 58:1 66:1 85:1 89:1 106:1 129:1 141:1 149:1 166:2 171:2 242:1 252:1 299:1 410:1 467:1 496:1 619:1 629:1 708:1 726:1 886:1 964:1 1230:1 1397:1 1618:1 1812:1 1849:1 1918:1 2065:3 2263:1 2443:1 2898:1 2943:1 4068:1 4069:1 4070:1 4071:1 #
-0.0010000000000000000208166817117217 85:1 88:1 102:2 130:1 183:1 325:1 371:1 410:2 639:1 776:1 1350:1 1817:1 1912:1 2330:1 2744:1 2973:2 3092:1 5227:1 5228:1 5229:1 #
-0.0010000000000000000208166817117217 4:1 5:1 28:1 34:1 80:1 85:1 87:1 118:1 145:1 161:2 165:1 174:2 205:1 265:1 276:1 280:1 373:1 425:2 505:1 510:1 697:1 698:1 772:1 859:1 924:1 989:1 1153:1 1265:1 1292:1 1338:1 1427:1 1441:1 1640:1 1694:1 2415:1 2656:1 3802:1 #
-0.0010000000000000000208166817117217 3:1 24:2 28:2 29:1 34:1 39:1 46:1 63:1 78:2 82:1 113:1 130:3 171:2 174:1 175:2 278:2 289:2 294:1 296:1 298:1 299:2 301:1 327:1 336:1 426:1 464:1 507:1 516:1 634:1 709:1 805:1 828:2 874:1 877:1 1018:1 1186:1 1199:1 1203:1 1226:1 1419:1 1528:1 1555:1 1851:1 1885:1 1900:1 2298:1 2659:1 3241:1 3756:1 4208:1 5007:1 6212:1 6213:1 6214:1 6215:1 6216:1 #
-0.0010000000000000000208166817117217 34:1 58:1 87:1 104:1 114:1 124:1 174:1 222:1 265:1 289:1 327:1 410:1 434:1 439:1 567:1 654:1 811:1 874:1 1018:1 1127:1 1153:1 1338:1 1455:1 1555:1 1663:1 2076:1 2112:1 2192:1 2437:1 2438:1 2608:1 2622:1 3724:1 3947:1 6212:1 6225:1 6581:1 7403:1 #
0.0010000000000000000208166817117217 6:1 14:1 15:3 19:1 28:4 44:1 46:1 51:2 66:1 71:1 76:1 78:2 96:6 103:1 108:1 130:1 132:1 134:2 145:1 161:1 165:1 168:1 171:3 174:2 175:1 195:1 200:1 201:1 216:1 241:1 259:1 265:1 269:1 279:1 310:1 330:1 331:1 369:1 373:1 398:1 402:1 406:1 420:1 423:1 438:1 452:1 457:1 459:1 460:1 496:2 516:1 557:1 567:1 568:2 569:1 573:1 580:2 619:1 652:1 655:1 694:1 697:1 699:1 711:1 720:1 736:1 849:1 880:2 881:2 909:3 963:1 1000:1 1059:1 1062:2 1067:1 1079:1 1292:1 1417:1 1427:1 1444:2 1484:1 1533:2 1565:1 1802:1 2022:1 2388:1 2437:1 2461:1 2498:1 2809:1 2816:1 3164:1 3588:1 3956:1 4135:1 4136:1 4137:1 4138:1 4139:1 4140:1 4141:1 4142:1 4143:1 4144:1 4145:1 4146:1 4147:1 4148:1 4149:1 4150:1 4151:1 4152:1 4153:1 4154:1 4155:1 4156:1 4157:1 4158:1 4159:1 4160:1 #
0.0010000000000000000208166817117217 10:1 12:1 13:1 20:1 28:4 30:1 34:3 42:1 77:2 78:1 93:1 95:1 96:5 97:2 106:1 109:2 116:1 117:1 121:1 141:1 150:1 156:1 169:1 174:4 229:1 230:1 265:2 294:1 312:1 348:1 369:1 406:1 410:1 479:1 486:1 496:1 553:1 611:1 622:1 644:1 652:1 687:1 763:1 824:1 828:1 901:1 930:1 948:1 951:1 970:1 1062:5 1064:1 1192:1 1213:1 1318:1 1363:1 1381:1 1426:1 1443:1 1444:1 1461:1 1694:1 1781:1 1827:1 1828:1 1836:1 1842:2 1879:1 1892:1 1962:1 2246:1 2381:1 2622:1 2731:1 2788:1 2809:1 3343:1 3447:1 3727:1 3846:1 4435:1 5109:1 7335:1 7336:1 7337:1 7338:1 #
0.0010000000000000000208166817117217 3:2 4:2 10:2 11:1 15:3 19:2 20:3 28:2 29:2 31:1 34:2 44:1 50:2 52:1 77:1 78:1 95:1 96:6 97:2 98:1 106:1 108:1 110:4 117:1 124:1 145:3 161:1 169:1 171:1 174:1 175:1 198:1 231:1 232:1 289:1 299:1 331:1 366:1 388:1 400:1 404:3 425:3 427:1 453:1 454:2 467:2 482:1 494:1 510:2 535:1 536:1 538:1 568:2 569:1 580:1 604:1 620:1 627:1 686:1 687:1 700:1 708:2 709:1 712:3 731:1 758:1 880:1 934:4 1031:1 1041:1 1059:1 1111:1 1146:1 1187:3 1245:1 1308:1 1309:1 1381:1 1533:1 2019:1 2122:1 2469:1 2866:1 3097:1 4223:1 6044:1 6253:1 6592:1 #
0.0010000000000000000208166817117217 3:1 11:1 24:3 25:1 28:6 66:1 78:1 80:1 81:2 96:6 109:1 130:1 145:2 161:1 168:3 170:1 174:2 189:3 200:1 205:2 218:1 225:1 235:1 241:2 251:1 335:1 405:1 427:2 454:1 496:1 501:1 507:1 510:1 562:1 567:1 629:1 682:3 697:1 698:1 708:1 775:1 839:1 880:1 924:3 982:1 983:1 1062:1 1067:1 1068:1 1318:1 1394:2 1444:1 1533:1 1934:1 1960:1 2193:1 2221:1 2241:1 2294:1 2464:1 2490:1 2659:1 3016:1 3197:1 3416:1 3546:1 3944:1 5983:1 5986:1 6082:1 6868:1 6869:1 #
0.0010000000000000000208166817117217 13:1 19:1 26:2 28:2 34:2 44:1 46:2 66:1 78:2 80:1 87:1 96:6 110:1 112:1 141:1 147:1 161:1 168:1 201:2 299:1 351:1 427:1 510:1 545:1 557:1 559:1 568:3 572:1 589:1 607:2 671:1 683:1 694:1 697:3 711:1 727:1 763:1 834:1 872:1 878:1 930:1 989:1 1170:1 1416:1 1545:1 1594:1 1637:1 1677:1 1701:1 1900:1 1951:1 2015:1 2023:1 2027:1 2277:1 2422:1 2447:1 2469:1 2715:1 2811:1 3173:1 3394:1 3921:1 4155:1 4160:1 4452:1 5034:1 5451:1 6854:1 7088:1 7089:2 7090:1 7091:1 7092:1 #
-0.0010000000000000000208166817117217 11:1 15:2 19:1 26:1 28:4 34:1 51:1 66:1 78:1 96:1 110:1 141:1 145:1 169:1 195:1 303:1 327:1 335:1 372:1 379:1 403:1 463:1 491:1 526:1 660:2 685:1 697:1 728:1 848:1 880:1 905:2 909:1 982:1 1073:1 1195:1 1213:1 1231:1 1276:1 1444:1 1484:1 1694:1 1916:1 2014:1 2069:1 2075:1 2193:1 2354:1 2571:1 2777:1 3716:1 3724:1 4050:1 4334:2 4570:1 4841:1 5194:1 5695:1 5696:1 5697:1 5698:1 5699:1 5700:1 5701:1 5702:1 5703:1 5704:1 5705:1 5706:1 5707:1 5708:1 5709:1 5710:1 5711:1 5712:1 5713:1 5714:1 5715:1 5716:1 5717:1 5718:1 5719:1 5720:1 #
-0.0010000000000000000208166817117217 19:1 28:7 29:1 34:1 58:1 59:1 72:2 87:1 96:5 100:1 102:1 108:1 144:1 147:1 150:1 152:1 168:1 171:1 173:1 174:2 198:1 200:1 204:1 205:1 211:1 228:1 231:1 235:1 256:1 259:1 265:1 268:1 299:1 369:1 388:1 390:1 456:1 482:1 501:1 516:1 540:1 554:1 555:1 559:1 587:1 589:1 627:1 636:1 666:1 674:1 689:1 715:1 759:1 843:1 944:1 985:1 1080:1 1152:1 1211:1 1314:1 1417:1 1577:1 1638:1 1722:1 2019:1 2073:1 2456:1 2518:1 3008:1 3455:2 3456:1 3457:1 3458:1 3459:1 3460:1 3461:1 3462:1 3463:1 3464:1 3465:1 3466:1 3467:1 3468:1 #
-0.0010000000000000000208166817117217 3:1 10:1 19:1 28:5 58:1 59:1 67:1 78:1 96:4 116:1 118:1 145:1 150:1 174:3 190:1 195:1 211:1 225:1 230:1 247:1 265:2 279:1 289:1 291:1 351:1 402:1 403:1 410:1 526:1 559:2 644:1 654:1 680:1 695:1 720:1 808:1 821:1 828:2 832:1 874:1 907:1 992:1 1000:1 1146:1 1195:1 1400:1 1426:1 1528:1 1804:1 1827:1 2002:1 3007:1 3032:1 3618:1 4165:1 5252:1 6349:1 7227:1 8096:1 8097:1 #
-0.0010000000000000000208166817117217 10:1 24:1 25:1 28:3 34:2 42:1 46:1 67:1 77:4 89:1 96:3 98:1 129:3 131:1 134:1 145:2 161:1 166:1 183:2 201:1 204:1 205:1 216:1 229:1 242:1 259:1 265:2 276:1 277:1 278:1 289:1 305:1 325:3 327:1 332:1 348:1 369:2 399:1 438:1 471:1 484:1 519:1 545:1 630:1 644:1 691:1 732:1 746:2 771:1 772:1 803:1 817:1 843:1 874:1 880:1 881:1 904:1 905:2 924:1 1047:1 1087:1 1211:1 1290:1 1376:1 1437:1 1484:1 1493:1 1498:1 1563:1 1640:1 1861:1 1897:1 2168:1 2177:1 2389:1 2903:1 3136:2 3716:1 5198:1 5307:1 5512:1 5664:1 6520:1 6521:1 6522:1 6523:1 6524:1 6525:1 6526:1 6527:1 6528:1 6529:1 6530:1 #
-0.0010000000000000000208166817117217 11:1 15:1 25:1 28:6 34:1 38:2 63:2 66:1 78:1 96:3 97:1 104:1 106:2 108:1 112:1 129:2 168:1 174:2 175:1 189:1 219:1 232:1 251:1 260:2 263:1 264:1 275:1 299:1 343:1 373:1 412:2 433:1 473:1 479:1 482:1 484:1 486:1 501:1 557:1 567:1 609:2 619:1 623:1 626:1 627:2 636:2 687:1 720:1 775:1 791:1 806:1 849:1 880:1 905:2 964:1 969:1 994:1 1045:1 1111:1 1127:1 1140:1 1161:1 1390:1 1457:3 1603:1 1647:1 1652:1 1738:1 1748:2 1750:1 1845:2 1885:2 2267:1 2438:1 2443:1 2463:1 2552:1 2562:2 2811:1 2898:1 2905:1 2925:1 3036:1 3092:1 3146:1 3169:1 3374:1 3691:1 3899:1 3942:1 4049:1 4517:1 4678:2 5964:1 6718:1 6929:1 6930:1 6931:1 6932:1 6933:1 6934:1 6935:1 6936:1 6937:1 6938:1 6939:1 6940:1 #
0.0010000000000000000208166817117217 10:2 14:1 22:1 34:1 39:1 52:1 56:1 80:1 96:1 108:1 129:1 145:1 149:1 174:2 175:1 177:1 203:1 214:1 220:1 251:1 278:2 285:1 291:1 298:1 325:1 337:1 385:1 388:1 410:1 482:1 505:1 510:2 552:1 591:1 691:1 750:1 751:1 803:1 849:1 965:2 1027:1 1041:1 1211:1 1307:1 1372:1 1379:2 1684:2 1910:1 2166:1 2459:2 2754:1 2776:1 2902:1 2925:1 3195:1 3204:1 4075:1 4395:1 4722:1 4893:1 5811:1 6233:1 6560:1 7175:1 7176:1 7177:1 7178:1 #
0.0010000000000000000208166817117217 19:1 52:1 96:1 100:1 104:1 110:1 131:1 149:1 161:1 201:1 299:1 388:1 410:1 411:1 472:1 494:1 524:1 572:1 575:1 719:1 772:1 1126:1 1264:1 1358:1 1877:1 1952:1 2693:1 3118:3 3574:1 4473:1 5673:1 6825:1 #
0.0010000000000000000208166817117217 24:1 25:1 26:2 28:1 39:1 40:1 66:1 77:1 80:1 82:1 106:1 171:2 174:3 175:1 198:1 226:1 236:1 265:1 320:1 370:1 400:1 402:1 410:1 439:1 456:1 516:1 572:1 574:1 587:1 619:1 855:1 980:1 1285:1 1350:1 1812:1 4053:3 5333:1 8155:1 8156:1 #
0.0010000000000000000208166817117217 28:2 66:1 85:1 86:1 88:1 93:1 96:1 98:1 144:1 173:1 174:1 228:1 338:1 464:2 618:1 725:1 726:1 729:1 821:1 881:1 905:1 957:1 1029:1 1056:2 1128:2 1610:1 2184:1 2277:1 3313:1 3817:1 4461:1 4663:1 4895:1 5490:1 8416:1 8417:1 8418:1 8419:1 8420:1 #
0.0010000000000000000208166817117217 19:1 24:1 25:1 28:2 32:2 34:1 63:1 78:1 81:1 107:1 129:1 174:1 269:1 292:1 301:1 336:1 410:1 437:1 634:1 666:1 689:1 797:1 862:1 882:1 904:1 920:1 954:1 1127:1 1211:1 1226:1 1269:1 1408:1 1412:1 1481:1 1694:1 1857:1 1916:1 2298:1 2437:1 3069:1 3514:1 4020:1 4334:1 5874:1 6552:1 6594:1 6595:1 6596:1 6597:1 #
-0.0010000000000000000208166817117217 10:1 19:1 28:1 81:1 116:1 169:1 174:1 233:1 241:1 486:1 510:1 565:1 727:1 768:1 772:1 881:1 929:1 1178:2 1226:1 1397:1 1640:1 1913:1 2346:1 2462:1 2882:1 2995:1 3927:1 4844:1 5879:1 5880:1 5881:1 5882:1 5883:1 #
-0.0010000000000000000208166817117217 19:1 28:1 34:1 44:1 51:1 52:1 129:1 249:1 334:1 454:1 557:1 620:1 629:1 677:1 689:1 699:1 790:1 819:1 1285:1 1618:1 2085:1 2440:1 2594:1 3410:1 8027:1 8028:1 #
-0.0010000000000000000208166817117217 10:1 11:2 29:1 81:1 89:1 174:2 264:1 276:1 278:1 299:1 388:1 513:1 536:1 537:1 557:1 560:1 629:1 688:1 694:1 790:1 819:1 843:1 910:1 1016:1 1285:1 1308:1 1352:1 1457:1 1535:1 1569:1 1988:1 2757:1 3463:1 3472:1 3633:1 7931:1 8139:1 8345:1 8346:1 #
-0.0010000000000000000208166817117217 20:1 28:1 82:1 89:3 98:1 134:1 161:1 168:1 171:1 182:1 299:1 304:1 350:1 369:1 410:1 411:1 454:1 464:1 501:1 516:1 565:1 566:1 580:1 772:1 865:1 930:1 959:1 994:1 1187:1 1213:1 1234:1 1254:1 1427:1 1861:1 2002:1 2124:1 2399:1 2462:1 2744:1 2831:1 2973:1 2992:1 2993:1 2994:1 2995:1 2996:1 #
-0.0010000000000000000208166817117217 3:1 20:1 22:1 28:1 44:1 48:1 78:1 81:1 122:1 169:1 174:2 215:1 235:1 275:1 296:1 409:1 438:1 474:1 580:1 746:2 751:1 874:1 919:1 944:1 1268:1 1283:1 1416:1 1618:1 1629:1 1673:1 1946:1 2754:1 4811:1 4812:1 4813:1 4814:1 4815:1 4816:1 4817:1 4818:1 4819:1 4820:1 4821:1 4822:1 #
0.0010000000000000000208166817117217 4:1 10:1 20:1 28:2 51:1 59:1 78:4 96:3 106:1 124:1 156:1 206:1 234:1 236:1 265:1 310:2 311:1 371:1 420:1 457:1 516:1 536:1 567:3 589:1 613:1 689:1 717:1 803:1 874:1 887:1 902:1 927:1 950:1 1010:1 1055:1 1204:1 1281:1 1343:1 1538:1 1584:1 2071:1 2072:1 2346:1 2436:1 2815:1 2994:1 3025:1 5091:1 6040:1 7197:1 7198:1 7199:1 #
0.0010000000000000000208166817117217 10:1 11:1 22:1 28:4 34:3 46:2 66:1 80:1 89:1 96:4 102:1 118:1 141:1 145:1 150:1 152:1 161:1 166:1 168:1 171:1 174:1 204:1 205:1 211:1 228:1 265:1 294:1 304:1 305:1 367:1 388:1 410:1 457:1 467:1 528:1 536:1 537:1 581:1 582:1 594:1 640:1 644:1 687:1 698:1 727:1 736:1 790:1 903:1 919:1 922:2 1007:3 1159:1 1224:1 1298:1 1312:1 1391:1 1419:1 1475:1 1521:1 1697:1 1870:1 1904:1 2050:1 2389:1 2533:1 2928:1 2980:1 3185:1 3198:1 3199:1 3200:1 3201:1 3202:1 #
0.0010000000000000000208166817117217 5:1 10:1 11:3 13:1 20:1 28:4 34:1 38:1 48:1 67:1 71:1 82:1 96:3 104:3 106:1 116:1 122:1 123:1 129:1 133:1 145:1 168:2 174:1 194:1 211:1 220:1 226:1 228:1 265:1 278:1 294:1 299:2 304:1 386:1 390:1 438:1 439:1 456:1 459:1 494:1 507:1 536:1 547:1 594:1 629:1 660:1 671:2 715:1 749:1 852:1 864:1 877:1 887:1 1026:1 1037:1 1222:1 1338:1 1457:1 1543:1 1694:1 1962:1 2233:1 2247:1 2464:1 2744:2 2788:1 2974:1 3016:1 3123:1 3269:1 4357:1 5966:1 6130:1 7408:1 7462:1 7463:1 7464:1 7465:1 7466:1 #
0.0010000000000000000208166817117217 10:1 20:2 28:5 38:1 44:1 59:1 66:1 78:2 79:1 96:3 112:1 116:1 129:1 131:1 174:2 200:2 201:1 220:1 226:1 230:1 236:1 276:1 371:1 388:1 452:1 474:1 507:1 547:1 552:1 567:2 575:1 619:1 651:1 905:1 919:1 1231:1 1254:1 1338:1 1379:1 1649:1 1750:1 1842:1 2246:1 2550:1 2791:1 2917:1 2919:1 3099:1 3330:1 4328:1 4380:1 5034:1 7204:1 7205:1 7206:1 7207:1 #
0.0010000000000000000208166817117217 10:1 14:1 25:1 28:4 34:1 66:2 78:1 96:4 104:1 112:1 130:1 165:1 171:1 174:1 220:1 235:1 259:1 260:1 264:1 310:1 318:1 386:1 410:1 473:1 479:1 486:1 496:1 505:1 537:1 609:1 623:1 666:1 708:1 715:1 797:1 813:1 824:1 828:1 856:1 861:1 919:1 948:1 993:1 1026:1 1028:1 1062:1 1073:1 1211:1 1290:1 1404:1 1618:1 1670:1 1809:1 1811:1 1826:1 2005:1 2443:1 2782:1 2898:1 3715:1 5277:1 5550:1 5615:1 6688:1 6689:1 6690:1 6691:1 6692:1 6693:1 #
-0.0010000000000000000208166817117217 10:1 15:1 24:1 28:4 29:1 34:1 39:1 53:1 66:2 78:1 82:1 88:1 96:4 102:1 107:1 108:1 112:1 121:1 129:2 161:1 174:1 201:2 259:1 276:1 281:1 291:1 337:1 380:1 385:1 386:1 413:1 444:2 457:1 466:1 482:1 496:1 501:1 528:1 567:1 620:1 638:1 694:1 824:1 836:1 877:1 909:1 914:1 937:1 998:1 1119:1 1140:1 1152:1 1204:1 1287:1 1382:1 1457:1 1461:3 1464:1 1618:1 1686:3 1830:1 1850:2 1907:1 2139:1 2214:1 2267:1 2295:1 2804:1 2997:1 3520:1 3875:1 3876:1 3877:1 3878:1 3879:1 3880:1 3881:1 3882:1 #
-0.0010000000000000000208166817117217 6:1 10:1 26:1 28:1 34:1 96:2 108:1 150:1 174:1 265:1 305:1 567:1 623:1 727:1 828:1 948:1 1047:1 1165:1 1573:1 1606:1 1704:1 1962:1 2437:1 2617:1 2667:1 2835:1 3231:1 6817:1 7604:1 7605:1 7606:1 7607:1 #
-0.0010000000000000000208166817117217 8:1 11:3 14:1 28:3 61:1 77:2 96:1 103:1 104:1 106:1 134:1 157:1 169:1 171:1 249:1 267:1 336:1 342:1 351:2 399:1 438:1 456:1 501:1 559:1 609:1 663:1 683:1 695:1 710:1 803:1 877:1 880:1 892:1 920:1 934:1 1073:1 1088:1 1188:1 1373:1 1411:1 1582:1 1618:1 1686:1 1836:1 1840:1 1851:1 1912:1 2156:1 2171:1 2431:1 3231:1 3311:1 3985:1 4435:1 4499:1 5163:1 6741:1 6742:1 6743:1 6744:1 6745:1 6746:1 6747:1 #
-0.0010000000000000000208166817117217 11:2 14:1 15:1 20:1 26:1 28:2 34:1 68:2 81:1 96:5 100:2 104:1 110:1 116:1 130:1 174:1 200:1 228:1 241:1 247:1 278:1 291:1 296:1 320:1 327:1 336:1 405:1 410:1 464:1 496:1 516:1 553:1 762:1 788:1 843:1 880:1 1030:1 1087:1 1152:1 1285:1 1603:1 1708:1 1740:1 1775:1 1830:1 1876:1 2019:1 2055:1 2072:1 2113:3 2234:1 2744:1 2769:1 2789:1 2994:1 3196:1 3757:1 4143:1 5671:1 5677:1 5678:1 5679:1 5680:1 5681:1 5682:2 5683:1 5684:1 5685:1 5686:1 5687:1 5688:1 #
-0.0010000000000000000208166817117217 15:2 28:2 29:1 34:2 38:1 46:1 47:1 66:1 67:2 96:3 104:1 106:1 171:1 174:2 229:1 242:1 264:2 294:1 299:1 325:1 423:2 489:1 496:2 554:1 570:1 598:1 636:1 648:1 654:1 682:1 687:2 689:1 773:2 821:1 862:1 878:2 883:2 909:1 977:1 1087:1 1126:1 1165:1 1457:1 1670:2 1723:1 1842:1 2383:1 2674:1 2676:1 2902:1 3623:1 4863:1 6148:1 6149:1 6150:1 6151:1 6152:1 6153:1 6154:1 6155:1 6156:1 #
0.0010000000000000000208166817117217 14:1 19:1 28:2 34:1 52:1 86:1 96:3 104:1 113:1 118:1 123:1 156:1 201:1 211:1 216:1 229:3 279:1 296:1 337:1 339:1 348:1 365:1 369:1 402:1 409:1 410:1 454:1 473:1 482:1 501:2 540:1 545:1 565:1 572:1 575:1 627:2 648:1 663:2 698:1 706:1 746:1 759:1 847:1 872:1 877:3 880:1 924:2 927:1 984:1 985:1 998:1 1062:1 1105:1 1211:1 1213:1 1226:1 1322:1 1533:1 1568:1 1682:1 2071:1 2076:1 2165:1 2169:1 2462:1 2626:1 3134:1 3306:1 4371:1 4511:1 4512:1 4513:1 4514:1 4515:1 4516:1 #
0.0010000000000000000208166817117217 11:1 28:3 66:1 67:1 78:2 85:1 89:1 102:1 112:1 130:1 154:1 168:1 174:2 203:1 222:1 234:1 237:1 259:1 265:2 276:1 280:1 299:1 404:1 452:2 457:1 505:1 559:1 567:1 572:1 625:1 639:1 652:1 695:1 772:1 803:1 880:1 1010:1 1062:1 1138:1 1211:1 1231:1 1269:1 1419:1 1913:1 1914:1 2518:1 2571:1 3285:1 3439:1 3505:1 4018:1 4279:1 4280:1 4281:1 #
0.0010000000000000000208166817117217 12:1 28:1 58:1 66:1 104:1 171:1 195:1 234:2 279:1 351:1 367:1 425:1 429:1 482:1 496:1 541:1 557:1 562:1 579:1 592:1 604:1 618:1 623:1 823:1 880:1 985:1 1114:1 1256:1 1410:1 1427:1 1706:1 1709:1 1856:1 2007:1 2015:1 2755:1 2921:1 2973:1 3104:1 4132:1 4133:1 4320:1 4807:1 7272:1 7273:1 7274:1 7275:1 7276:1 7277:1 7278:1 7279:1 7280:1 7281:1 7282:1 7283:1 7284:1 #
0.0010000000000000000208166817117217 3:2 9:1 13:1 18:1 20:1 22:2 28:4 30:1 59:1 63:2 78:1 87:1 89:1 96:1 97:1 129:1 174:2 185:1 239:1 256:3 259:1 265:1 294:1 318:1 410:1 438:2 444:1 468:1 486:1 505:1 536:1 540:1 567:1 572:2 635:1 636:1 644:1 729:2 746:1 921:1 922:1 990:1 1067:1 1307:1 1312:1 1314:2 1352:1 1457:1 1534:1 1575:1 1634:1 1719:1 1763:1 2021:1 2071:1 2072:1 2126:1 2235:1 2290:1 2462:1 2651:1 2925:1 3748:1 3902:1 4383:1 4717:1 5654:1 6415:1 7434:1 7435:1 7436:1 #
0.0010000000000000000208166817117217 28:1 38:1 42:1 102:1 145:1 168:1 174:1 205:1 265:1 385:1 410:1 473:1 576:1 985:1 1475:1 1542:1 2013:1 3484:1 4135:1 6979:1 #
-0.0010000000000000000208166817117217 5:1 11:1 13:1 24:1 28:3 31:1 34:1 87:1 96:1 104:1 118:1 123:1 145:1 174:1 214:1 220:1 256:1 265:1 278:1 320:1 325:1 353:1 373:1 439:1 505:2 523:1 551:1 567:1 572:1 629:1 688:1 918:1 1010:1 1018:1 1164:1 1211:1 1258:1 1324:1 1410:1 1453:2 1455:1 2683:1 2962:1 2963:1 2964:1 2965:1 2966:1 2967:1 2968:1 2969:1 2970:1 #
-0.0010000000000000000208166817117217 3:1 10:1 28:3 34:1 38:1 48:1 77:1 78:2 94:1 96:2 103:1 110:1 114:1 145:3 150:1 156:2 159:2 198:1 204:1 205:1 225:1 228:1 233:1 234:1 265:1 274:1 278:1 296:2 312:1 331:1 358:1 367:1 410:3 425:5 438:1 463:1 471:1 521:1 540:1 569:1 574:1 601:1 791:1 797:7 814:1 824:1 839:1 971:1 1007:1 1018:1 1062:2 1211:1 1307:1 1381:2 1475:1 1542:1 1619:1 1629:1 1638:1 1673:1 1692:3 1709:1 1725:1 1812:1 2056:1 2162:1 2345:1 2408:1 2437:1 2740:1 2902:1 2917:1 3213:1 3756:1 3885:1 5461:1 5572:1 5948:1 5967:1 6917:1 7583:1 8551:1 8552:1 #
-0.0010000000000000000208166817117217 13:2 18:1 20:2 28:3 71:1 78:1 87:1 96:1 100:1 104:2 114:1 121:1 144:1 149:3 195:1 220:1 245:1 252:1 255:1 331:1 372:1 400:1 425:1 471:1 507:1 545:1 553:1 554:1 623:1 627:1 631:1 654:1 658:1 667:1 673:1 720:1 773:1 876:1 880:1 959:1 984:1 1061:1 1062:1 1077:1 1178:1 1204:1 1303:1 1366:1 1390:1 1427:1 1444:1 1538:1 1570:1 1598:1 1606:1 1608:1 2018:1 2192:1 2290:1 2353:1 2542:1 2544:1 2580:1 3007:1 3061:1 3361:1 4298:1 4469:1 5372:1 6443:1 6444:1 6445:1 6446:1 6447:1 6448:1 6449:1 6450:1 #
-0.0010000000000000000208166817117217 10:1 28:4 49:1 66:1 78:2 96:2 98:1 104:1 145:1 174:1 189:1 205:1 269:1 337:1 351:1 385:3 394:1 406:1 473:1 479:1 484:1 552:1 567:1 594:1 698:1 746:1 779:1 843:1 880:1 922:1 924:1 929:1 1128:1 1231:1 1637:1 1770:1 1845:1 1859:1 1879:1 2118:1 2169:1 2215:1 2329:1 2416:1 2732:1 2831:1 2930:1 3459:1 3592:1 3751:1 4090:1 4978:1 5344:1 6828:1 7440:1 7441:1 7442:1 7443:1 7444:1 7445:1 #
-0.0010000000000000000208166817117217 15:1 28:2 34:1 66:1 90:1 96:1 102:1 166:1 174:1 191:1 197:1 200:1 265:1 289:1 410:1 425:1 488:1 505:1 568:1 697:1 715:1 738:1 863:1 872:1 989:1 1067:1 1238:1 1350:1 1391:1 1472:1 2415:1 2416:1 2417:1 2418:1 2419:1 2420:1 #
0.0010000000000000000208166817117217 13:1 30:1 34:3 88:1 89:1 96:5 129:1 228:1 245:1 246:1 254:1 299:1 339:1 452:1 506:1 516:1 687:1 785:1 834:1 877:1 948:1 967:1 1002:1 1161:1 1226:1 1381:1 1555:1 1604:1 1686:4 1688:1 1815:1 1850:3 2267:2 2281:1 2403:1 2743:1 2898:1 3075:1 5370:1 5582:1 5583:1 5584:1 5585:1 5586:1 5587:1 5588:1 5589:1 5590:1 5591:1 #
0.0010000000000000000208166817117217 11:1 13:1 15:2 28:3 68:1 96:3 104:2 155:1 174:2 205:1 226:2 249:1 265:1 273:1 285:1 292:1 296:1 336:1 406:1 444:2 457:1 528:1 586:1 636:1 727:1 891:1 924:1 1204:1 1231:1 1318:1 1370:1 1457:1 1475:1 1608:1 1710:1 1809:1 1879:1 1983:1 2085:1 4270:1 4846:1 5913:1 5914:1 #
0.0010000000000000000208166817117217 10:1 26:2 29:1 34:2 40:1 44:1 50:1 51:1 88:1 96:2 113:2 161:1 168:1 203:1 212:1 228:1 242:1 276:2 294:1 299:1 380:1 386:1 473:1 486:1 496:1 541:1 548:1 570:1 622:1 648:1 670:1 687:1 731:1 790:1 874:1 877:3 879:1 916:1 1016:1 1105:1 1127:1 1226:1 1245:1 1281:1 1457:1 1533:1 1603:2 1630:1 1637:1 1675:1 1966:1 2021:1 2171:1 2788:1 2976:1 3155:1 3176:1 3177:1 4162:1 4841:1 4881:1 6305:1 6403:1 7496:1 7497:1 7498:1 7499:1 7500:1 7501:1 7502:1 7503:1 7504:1 7505:1 7506:1 7507:1 #
0.0010000000000000000208166817117217 5:1 6:1 12:1 13:1 24:1 28:1 31:1 34:1 44:1 52:1 56:1 77:1 96:4 104:1 112:1 121:1 122:1 129:1 150:1 174:4 200:1 201:1 211:1 214:1 215:1 216:1 225:1 232:1 296:2 367:1 369:1 386:1 494:2 496:1 520:1 536:1 545:1 627:1 659:1 687:1 689:1 847:1 905:1 971:1 1002:3 1029:1 1533:1 1686:1 1701:1 1850:1 2005:1 2281:1 2437:1 2788:1 3059:1 3376:1 4334:1 5402:1 5403:1 5404:1 5405:1 5406:1 5407:1 5408:1 5409:1 5410:1 5411:1 5412:1 #
0.0010000000000000000208166817117217 24:1 34:2 48:1 71:1 77:1 78:2 87:1 96:5 100:1 104:2 123:1 129:1 161:1 166:1 174:3 235:1 285:1 371:1 400:1 425:2 452:1 454:1 457:2 496:1 537:2 552:1 559:1 576:1 588:1 590:1 620:1 628:1 644:1 682:1 720:1 749:1 824:1 828:1 839:1 882:1 918:1 1041:1 1053:1 1067:1 1184:1 1309:1 1325:1 1326:1 1404:1 1458:1 1474:1 1521:1 1619:1 1629:1 1979:1 1983:1 2994:1 4284:1 6040:1 6146:1 6147:1 #
-0.0010000000000000000208166817117217 3:2 14:1 22:3 34:2 40:1 63:2 66:1 71:1 76:2 77:1 78:2 88:1 96:4 102:1 121:1 122:1 123:1 149:1 174:4 200:1 235:1 282:1 299:1 320:1 335:1 338:1 407:1 427:1 454:1 466:1 473:1 478:1 482:1 486:1 536:1 627:4 638:1 682:1 687:1 708:1 709:1 828:1 880:1 902:1 944:1 1062:1 1226:1 1272:1 1312:2 1394:1 1533:1 1563:1 1575:1 1603:2 1861:1 2168:1 2445:1 2715:1 3313:1 6461:1 7379:1 8414:1 8415:1 #
-0.0010000000000000000208166817117217 28:1 34:2 76:1 93:1 96:3 129:1 174:3 326:1 402:1 667:1 713:1 906:1 1527:1 1603:1 1690:2 1736:1 1766:1 2617:1 2632:1 3231:1 3690:1 4905:1 6460:1 6787:1 6897:1 6898:1 6899:1 6900:1 6901:1 6902:1 #
-0.0010000000000000000208166817117217 3:1 9:1 10:2 14:1 15:2 24:3 25:2 34:1 63:1 67:2 77:1 78:2 96:2 104:1 108:1 112:2 129:2 130:1 156:2 174:2 201:3 209:1 211:1 259:1 260:3 275:1 289:1 304:1 319:1 336:3 369:1 438:2 444:1 505:2 528:1 595:1 623:1 643:1 644:1 652:1 700:1 848:1 853:1 899:2 1012:2 1310:1 1383:1 1395:1 1618:1 1661:1 1738:1 2037:1 2159:1 2184:3 2235:1 2539:1 2659:1 2754:1 3118:1 3125:1 3210:1 3504:2 3680:1 4238:1 4594:1 5143:1 5346:1 5841:1 6630:1 6744:1 7568:1 7810:1 7811:1 7812:2 7813:1 7814:1 7815:1 7816:1 7817:1 7818:1 7819:1 7820:1 7821:1 7822:1 7823:1 7824:1 7825:1 7826:1 7827:1 #
-0.0010000000000000000208166817117217 5:1 10:1 11:1 13:1 15:1 19:1 40:1 52:2 59:1 68:1 85:1 96:5 110:1 112:1 116:1 156:1 168:1 173:1 174:1 204:1 232:1 259:1 269:1 282:2 301:1 302:1 303:1 368:1 373:1 388:1 410:1 418:1 452:1 456:1 482:1 509:1 547:1 555:1 638:1 654:1 711:1 727:1 880:1 997:1 1000:1 1077:1 1231:1 1705:1 1741:1 2131:1 3028:1 3285:1 3613:1 4278:1 4945:1 4946:1 4947:1 4948:1 4949:1 4950:1 4951:1 4952:1 4953:1 4954:1 #
-0.0010000000000000000208166817117217 12:1 19:1 24:3 28:2 34:1 45:1 96:3 104:1 121:1 129:1 156:1 161:2 170:1 174:1 175:1 189:1 222:1 227:1 229:1 239:1 245:1 301:1 308:1 393:1 439:1 445:1 454:1 531:1 541:1 638:2 660:1 670:1 678:1 775:1 878:1 880:1 916:1 958:1 982:1 983:1 1007:1 1067:1 1100:1 1101:1 1102:1 1103:1 1104:1 1105:1 1106:1 1107:1 1108:1 1109:1 1110:1 1111:1 1112:1 1113:1 1114:1 1115:1 1116:1 1117:1 1118:1 1119:1 1120:1 1121:1 1122:1 1123:1 1124:1 1125:1 1126:1 1127:1 1128:1 1129:1 1130:1 1131:1 1132:1 1133:1 1134:1 1135:1 1136:1 1137:1 1138:1 1139:1 1140:1 1141:1 1142:1 #
0.0010000000000000000208166817117217 4:1 5:2 10:1 11:1 26:1 28:4 44:2 48:1 66:1 78:1 94:1 116:1 129:1 131:1 149:1 161:1 168:1 171:1 174:1 183:1 189:1 200:1 203:1 204:1 205:1 225:1 228:1 230:1 252:1 264:1 325:1 330:1 345:2 351:1 369:1 410:3 438:1 452:1 482:1 505:1 510:1 551:1 590:1 720:1 737:1 959:1 985:1 1012:1 1031:1 1075:1 1080:1 1107:1 1146:1 1416:1 1520:1 1606:1 1649:1 1698:1 1804:1 1812:2 1830:1 1955:1 2297:1 2695:1 2841:1 3176:1 3202:1 3417:1 3662:1 3733:1 4533:1 4816:1 7839:1 7854:1 7855:1 7856:1 7857:1 7858:1 7859:1 7860:1 7861:1 #
0.0010000000000000000208166817117217 3:2 10:2 13:1 15:1 28:2 34:1 41:1 58:2 66:1 87:1 96:1 109:1 147:1 174:1 190:1 200:1 205:1 327:1 379:1 386:1 403:1 410:1 501:1 504:1 505:1 528:1 572:1 575:2 591:1 625:1 665:1 673:1 698:1 749:1 797:2 955:1 1018:1 1026:1 1056:1 1108:1 1128:1 1256:1 1359:1 1370:1 1395:3 1605:1 1709:2 1812:1 2204:1 2698:1 3070:1 3324:1 3406:1 3407:1 4207:1 4209:1 4252:1 4334:1 4571:1 4884:1 5133:1 5572:1 6110:1 6349:1 6450:1 8802:1 8803:1 8804:1 8805:1 8806:1 8807:1 #
0.0010000000000000000208166817117217 3:1 10:1 15:1 19:1 20:1 25:1 28:5 34:1 38:1 39:1 66:1 78:1 79:1 81:1 87:1 89:1 96:1 104:2 116:1 117:1 122:2 129:2 147:2 169:1 174:2 182:1 197:1 201:1 208:1 211:1 230:1 259:1 299:1 320:1 326:1 331:1 335:1 351:1 405:1 406:2 410:1 456:3 465:1 482:1 500:1 501:1 516:1 545:1 623:1 653:1 666:1 667:1 690:1 708:1 746:1 753:1 755:1 805:1 821:1 930:1 948:1 950:1 1063:1 1074:1 1119:1 1146:1 1161:1 1170:1 1301:1 1364:1 1411:1 1461:1 1484:1 1530:1 1606:1 1618:1 1630:1 1657:1 1663:1 1824:1 2021:1 2230:1 2345:1 2477:1 2656:1 2744:1 2752:1 2759:1 2760:1 2855:1 2905:1 3313:1 3428:2 3439:1 3514:1 3686:1 3698:1 3739:1 3910:1 4049:1 4321:1 4322:1 4323:1 4324:1 4325:1 4326:1 4327:1 4328:1 4329:1 4330:1 4331:1 4332:1 4333:1 4334:1 4335:1 4336:1 4337:1 4338:1 4339:1 4340:1 4341:1 4342:1 4343:1 #
0.0010000000000000000208166817117217 28:3 44:1 66:1 67:1 82:1 104:1 122:1 161:1 169:1 174:2 185:1 234:1 256:1 259:1 265:1 310:1 351:1 410:2 438:1 486:1 501:1 518:1 538:1 764:1 828:1 954:1 985:1 1042:1 1062:1 1350:1 2775:1 2908:1 3233:1 3751:1 6202:1 8407:1 #
0.0010000000000000000208166817117217 5:1 28:2 68:1 89:1 96:1 104:1 147:1 206:1 278:1 285:1 410:1 575:1 652:1 790:1 1170:1 1192:1 1812:1 2193:1 2194:1 2195:1 #
-0.0010000000000000000208166817117217 19:2 28:2 34:1 66:1 74:1 96:1 123:1 129:1 174:2 201:1 234:1 380:1 405:1 410:1 482:1 494:2 496:1 506:1 545:1 601:1 607:1 623:1 698:1 806:1 863:1 1140:1 1257:1 1293:1 1309:1 1461:1 1599:1 1625:1 1765:1 1899:1 3710:1 3747:1 4864:1 5068:2 8539:1 8540:1 8541:1 8542:1 #
-0.0010000000000000000208166817117217 10:1 19:1 28:1 147:1 208:1 259:1 373:1 400:1 496:1 824:1 874:1 985:1 1424:1 1568:1 1616:1 1625:1 3740:1 4049:1 4467:1 5147:1 7802:1 #
-0.0010000000000000000208166817117217 15:1 24:1 28:1 34:1 38:1 41:1 42:1 53:1 67:1 81:1 107:1 110:2 129:1 132:1 153:1 154:1 174:1 190:1 227:2 236:1 264:1 285:1 318:1 410:1 439:2 457:2 510:1 536:1 562:1 598:1 636:1 648:1 650:1 698:1 758:1 762:1 779:1 862:1 927:1 1030:1 1056:1 1069:1 1213:1 1256:1 1289:1 1290:1 1308:1 1421:1 1523:1 1542:1 1594:1 1599:1 1603:1 1694:1 1720:1 1757:1 1894:1 2087:1 2247:1 2298:1 2409:1 2443:1 2918:1 3161:1 3189:1 3220:1 3297:1 3304:1 4379:1 5033:1 5512:1 6487:1 7952:1 8262:1 8263:1 8264:1 8265:1 8266:1 8267:1 8268:1 8269:1 8270:1 8271:1 #
-0.0010000000000000000208166817117217 15:1 20:1 28:4 34:1 58:1 66:1 81:1 110:1 140:1 150:1 174:2 195:1 214:1 225:1 226:1 233:1 265:1 318:1 410:2 427:1 456:1 473:1 537:1 567:1 607:1 636:1 728:1 739:1 994:1 1028:1 1041:1 1062:1 1063:1 1211:1 1212:1 1285:1 1584:1 1709:1 1800:1 1948:1 2085:1 2172:1 2290:1 2438:1 2553:1 2626:1 2703:1 2730:1 2788:1 3246:2 4717:1 5493:1 5494:2 5495:1 #
-0.0010000000000000000208166817117217 11:3 15:1 28:3 42:1 76:1 78:1 94:1 96:1 104:2 116:1 169:1 182:1 231:1 262:1 264:1 279:1 311:1 369:1 393:1 456:1 468:1 531:1 567:2 644:1 666:1 671:1 929:1 945:2 1226:1 1326:1 1566:1 1567:1 1568:1 1569:1 1570:1 1571:1 1572:1 1573:1 1574:1 1575:1 #
0.0010000000000000000208166817117217 13:1 24:1 34:1 72:1 87:1 96:6 108:2 122:1 265:1 376:1 403:1 407:1 425:2 452:2 541:2 576:1 623:1 687:1 697:1 704:1 876:1 880:1 1043:1 1239:1 1294:1 1324:1 1444:1 1630:1 2015:1 2023:1 3447:1 3570:1 4968:1 6196:1 6197:1 #
0.0010000000000000000208166817117217 20:1 34:2 47:1 78:1 95:1 96:4 104:1 129:1 172:1 174:1 190:3 212:1 220:2 234:1 255:1 256:1 385:1 388:1 410:1 439:1 545:2 569:1 612:1 636:1 652:1 683:1 698:1 729:2 762:1 772:1 878:1 880:1 887:1 899:2 1066:1 1073:1 1088:2 1147:1 1167:1 1231:1 1290:1 1312:1 1381:1 1455:1 1582:1 1763:1 1909:1 1957:1 2021:1 2233:1 2736:1 2916:1 3064:1 3218:1 3219:1 3220:1 3221:1 3222:1 3223:1 3224:1 #
0.0010000000000000000208166817117217 24:2 25:1 28:1 76:1 96:2 104:1 117:1 121:1 159:1 168:1 174:1 202:1 259:1 267:1 289:1 299:1 320:1 405:1 409:1 508:1 516:1 555:1 569:1 620:1 654:2 697:1 708:1 727:1 737:1 746:1 872:1 904:1 924:1 954:1 998:1 1165:1 1187:1 1269:1 1305:1 1406:4 1427:1 1457:1 1502:1 1603:1 1647:1 2081:1 2116:1 2165:1 2193:1 2218:1 2744:1 2767:1 4082:1 4139:1 4584:1 4585:1 4586:1 4587:1 4588:1 4589:1 4590:1 #
0.0010000000000000000208166817117217 3:3 5:1 15:1 24:2 26:1 28:3 34:2 39:1 46:1 58:1 59:1 61:1 63:1 76:1 96:3 98:1 104:1 122:1 123:1 131:1 156:1 170:1 180:1 204:1 214:1 229:2 303:1 325:1 332:1 334:1 339:1 344:1 407:1 410:1 454:1 456:1 467:1 505:1 510:1 545:2 551:1 562:1 567:1 569:2 571:1 652:1 659:1 660:1 678:1 720:1 813:1 823:1 824:1 907:1 924:1 944:2 998:1 1012:1 1075:1 1110:1 1187:1 1236:1 1285:1 1566:1 1603:1 1663:1 1879:1 2020:1 2041:1 2085:1 2411:1 2437:1 2511:1 2538:1 2593:1 2620:1 3064:1 3817:1 3869:1 4003:1 4213:1 4214:1 4215:1 4216:1 4217:1 4218:1 4219:1 4220:1 4221:1 #
0.0010000000000000000208166817117217 28:1 34:1 39:1 96:3 102:1 104:2 108:1 109:1 156:1 169:1 174:3 197:1 229:1 235:1 265:1 291:1 539:1 574:1 576:1 625:1 691:2 708:1 720:1 806:1 828:1 881:1 969:1 1167:1 1237:1 1312:1 1387:1 1427:1 1830:1 1916:1 2550:1 2730:1 6955:1 6956:1 6957:1 6958:1 #
-0.0010000000000000000208166817117217 3:1 6:1 24:1 28:3 34:2 36:1 81:1 90:1 96:3 104:2 106:2 108:1 129:1 144:1 147:1 150:1 152:1 156:1 171:1 174:3 214:1 222:1 225:1 265:2 267:1 299:1 310:2 313:1 380:1 388:1 410:1 425:1 437:1 452:1 486:1 545:1 611:1 652:1 654:2 687:1 828:2 877:1 909:1 990:1 1105:1 1387:1 1415:1 1457:1 1629:1 1649:1 1708:1 1879:1 1891:1 1894:1 2172:1 2289:1 2297:1 2335:1 2798:1 2866:1 3447:1 4014:2 4367:1 4990:1 4991:1 4992:1 4993:1 4994:1 4995:1 4996:1 #
-0.0010000000000000000208166817117217 4:1 11:1 13:1 28:2 34:1 38:1 44:1 46:1 68:1 96:4 104:1 108:1 123:1 129:1 145:1 198:1 200:1 234:1 242:1 259:1 265:2 299:1 410:1 420:1 437:1 452:1 474:1 545:1 547:1 678:1 697:1 720:1 768:1 836:1 857:1 862:1 876:1 878:1 916:1 1023:1 1080:1 1153:1 1193:1 1239:1 1408:1 1520:1 1525:1 1649:1 1778:1 1897:1 1900:1 2049:1 2165:1 2295:1 2297:1 2513:1 2514:1 2515:1 2516:1 2517:1 2518:1 2519:1 2520:1 2521:1 #
-0.0010000000000000000208166817117217 4:1 9:1 10:1 24:1 28:3 38:1 47:1 67:1 75:1 78:1 96:5 104:2 106:1 129:1 145:1 149:1 152:1 169:1 171:1 174:2 190:1 195:1 228:1 259:1 289:1 404:1 410:3 412:1 426:1 435:1 478:1 491:1 494:1 562:1 572:1 635:1 654:1 688:1 758:1 876:1 878:1 886:1 895:1 1087:1 1127:1 1204:1 1291:1 1370:1 1475:1 1545:1 1634:1 1725:1 1770:1 1828:1 1861:1 1972:1 2075:1 2156:1 2518:1 2741:1 2742:1 2743:1 2744:1 2745:1 2746:1 2747:1 2748:1 2749:1 2750:1 2751:1 2752:1 2753:1 2754:1 2755:1 2756:1 #
-0.0010000000000000000208166817117217 20:1 28:3 72:1 96:3 104:4 122:1 147:1 174:3 252:1 259:1 406:1 413:1 464:1 466:1 505:1 531:1 660:1 667:1 698:1 862:1 1212:1 1397:1 1459:1 1493:1 1682:1 1686:2 1766:1 1850:1 1900:1 1905:1 1908:1 2788:1 2997:1 2998:1 2999:1 3000:1 3001:1 3002:1 3003:1 3004:1 3005:1 3006:1 3007:1 3008:1 3009:1 3010:1 3011:1 3012:1 3013:1 3014:1 #
-0.0010000000000000000208166817117217 10:1 11:1 15:1 26:2 28:2 34:2 96:4 122:1 124:1 126:1 155:1 162:1 166:1 169:2 173:1 174:1 211:1 299:2 301:1 302:1 304:1 334:1 349:1 456:1 540:1 636:3 654:1 729:1 1056:1 1211:1 1307:1 1318:1 1430:1 1457:1 1603:1 1610:1 2149:1 2608:1 2757:1 2758:1 2759:1 2760:1 2761:1 2762:1 2763:1 #
0.0010000000000000000208166817117217 19:1 24:1 28:4 34:3 80:1 96:1 98:1 100:1 104:1 107:1 129:1 130:1 142:1 149:1 174:3 204:1 205:1 206:1 234:2 239:1 296:1 330:1 334:1 337:1 367:1 369:2 373:1 395:1 444:1 464:1 473:1 474:1 531:1 547:1 580:1 623:1 736:1 832:1 905:1 1056:3 1067:1 1128:2 1211:1 1255:1 1563:1 1605:1 1616:1 1625:1 1800:2 1885:1 2033:1 2193:1 2313:1 2330:1 2335:1 2645:1 2678:1 3211:1 3300:1 3698:1 3927:1 4245:1 4881:1 4882:1 4883:1 4884:1 4885:1 4886:1 #
0.0010000000000000000208166817117217 10:1 15:1 19:1 28:1 34:3 59:1 94:1 96:1 102:3 106:1 152:1 153:1 154:1 157:1 174:2 231:1 299:2 438:1 453:1 479:1 504:1 627:2 629:1 709:1 790:1 984:1 1127:1 1585:1 1603:3 2004:1 2797:1 3047:1 3322:1 4207:1 4376:1 4379:1 4454:1 #
0.0010000000000000000208166817117217 3:1 11:1 15:1 28:2 46:1 51:1 66:1 78:2 80:1 81:1 96:1 108:2 116:1 145:1 150:1 161:1 170:1 174:1 180:1 183:1 203:2 205:1 216:1 218:1 225:1 235:1 236:1 265:1 285:1 310:1 312:1 325:1 345:1 367:2 373:1 386:1 431:1 432:1 444:1 473:1 496:1 505:2 552:1 559:1 560:1 567:1 575:1 623:1 636:1 695:1 749:1 841:1 921:1 948:1 957:1 965:1 1023:1 1051:2 1052:2 1070:1 1097:1 1188:1 1226:1 1416:1 1442:1 1470:1 1475:1 1516:1 1812:1 1848:1 2046:1 2050:1 2085:1 2245:1 2330:1 2454:1 2624:1 3142:1 3143:1 3144:1 3145:1 3146:1 3147:1 3148:1 3149:1 3150:1 3151:1 #
0.0010000000000000000208166817117217 3:1 11:1 15:1 22:1 24:1 25:1 28:1 51:1 96:1 117:1 150:1 161:1 174:2 236:1 249:1 280:1 330:1 410:1 508:1 948:1 1062:1 1074:1 1171:1 1213:1 1416:1 1475:1 4887:1 #
0.0010000000000000000208166817117217 10:1 15:1 28:1 34:1 38:1 96:1 183:1 259:1 405:1 410:1 496:1 638:1 652:1 694:2 695:1 773:1 1028:1 1308:1 1355:1 1418:1 2200:1 2230:1 2858:1 5330:1 8298:1 8299:1 #
-0.0010000000000000000208166817117217 15:1 19:1 34:2 38:1 39:1 96:1 108:1 110:1 116:1 130:1 140:1 174:1 200:1 204:1 205:1 211:4 229:1 232:1 242:1 256:1 327:1 369:2 528:1 632:1 682:1 771:1 827:1 880:1 891:1 904:1 1031:1 1040:1 1098:1 1203:1 1281:2 1338:1 1394:1 1483:1 1634:1 1722:1 1996:1 2594:1 2659:1 2686:1 3576:1 3679:1 4503:1 4504:1 4505:1 4506:1 4507:1 4508:1 4509:1 4510:1 #
-0.0010000000000000000208166817117217 28:1 96:1 116:1 195:2 299:1 372:1 501:1 508:1 715:1 847:1 910:1 1305:1 1411:1 1448:1 1458:1 3358:1 3370:1 3652:1 3947:1 4174:1 4175:1 4176:1 4177:1 4178:1 #
-0.0010000000000000000208166817117217 28:1 34:2 50:1 78:1 80:1 108:1 173:1 174:1 211:1 259:1 298:1 299:1 320:1 388:1 404:1 454:1 464:1 510:1 557:1 667:1 708:1 712:1 727:1 768:1 880:1 881:1 919:1 945:1 1121:1 1127:1 1203:1 1218:1 1219:1 1220:1 1221:1 1222:1 1223:1 1224:1 1225:1 1226:1 1227:1 1228:1 #
-0.0010000000000000000208166817117217 3:1 5:1 10:1 22:1 28:1 106:1 168:1 174:2 211:2 216:1 228:1 265:1 541:2 720:2 790:1 824:1 954:1 1127:1 1145:1 1304:1 1338:1 2171:1 2379:1 4303:1 5753:1 5754:1 #
-0.0010000000000000000208166817117217 3:1 28:2 61:1 62:1 80:1 81:1 96:1 129:1 130:1 149:1 161:1 175:1 204:1 205:1 342:1 386:1 405:1 410:1 468:1 545:1 552:1 569:1 625:1 671:1 880:1 881:1 964:1 1374:1 1605:1 1768:1 1800:1 1812:1 2334:1 3747:1 #
0.0010000000000000000208166817117217 5:1 11:1 28:3 34:2 58:2 61:1 81:1 96:3 121:1 124:1 157:1 171:1 174:3 216:1 231:1 235:1 245:1 278:1 298:1 305:1 373:1 454:1 473:1 494:1 496:1 504:1 567:1 667:1 697:1 698:1 823:1 832:1 1170:1 1231:1 1618:1 2014:1 2242:1 2290:1 2408:1 2538:1 2659:1 3114:1 4952:1 5033:1 7044:1 7670:1 7671:1 #
0.0010000000000000000208166817117217 3:1 4:1 10:1 11:1 12:1 25:1 26:2 28:2 39:1 41:1 59:1 90:1 93:1 96:3 104:3 114:1 116:1 122:1 129:1 134:1 141:1 145:1 149:1 155:1 156:1 169:2 173:2 174:1 175:1 197:1 221:1 228:1 234:1 265:2 269:1 276:1 289:1 316:1 325:1 376:1 388:1 426:1 501:1 505:1 554:1 568:1 600:2 624:2 665:1 694:1 697:1 708:1 720:1 768:1 775:1 878:1 881:2 920:1 998:1 1031:1 1056:1 1293:1 1338:1 1370:1 1411:1 1484:1 1618:1 1633:1 1670:2 1742:1 1856:1 1972:1 2139:1 2401:1 2437:1 2454:1 2461:1 2656:1 3110:1 3899:1 4156:1 4645:1 5153:1 6138:1 6204:1 6628:1 7040:1 7794:1 7795:1 7796:1 7797:1 7798:1 7799:1 7800:1 7801:1 #
0.0010000000000000000208166817117217 28:2 31:1 34:1 43:1 56:1 71:1 78:3 81:1 89:1 96:3 100:1 108:1 112:1 117:1 122:1 129:2 130:1 161:1 168:1 204:1 211:1 259:1 265:1 318:1 326:1 379:1 410:1 426:1 437:1 439:1 478:1 494:1 496:1 505:1 567:1 580:1 628:1 739:1 985:2 1097:1 1211:1 1408:1 1603:1 1812:1 2033:1 2082:1 2562:1 2755:1 2930:1 4162:1 4459:1 5269:1 6464:2 8382:1 8383:1 8384:1 8385:1 8386:1 8387:1 #
0.0010000000000000000208166817117217 3:1 9:1 10:1 12:1 19:1 20:1 28:5 34:2 42:1 51:1 58:1 96:2 100:1 104:2 109:1 118:1 122:1 123:1 147:2 153:2 154:1 169:1 174:2 177:1 180:2 222:1 230:1 234:1 265:1 299:1 304:2 312:1 320:1 335:1 410:2 420:1 459:1 482:1 501:1 506:1 518:1 567:2 613:1 625:1 629:1 636:1 644:1 654:1 667:1 672:1 687:1 698:2 824:1 828:2 846:1 874:2 880:1 982:1 983:1 990:1 1074:1 1165:1 1170:1 1195:1 1211:1 1397:1 1400:1 1416:1 1453:1 1455:1 1601:1 1671:1 1739:1 1755:1 1972:1 2014:1 2022:1 2112:1 2159:1 2378:1 2389:1 2404:1 2705:1 3226:1 3343:1 3392:1 3398:1 3498:1 3739:1 4325:1 4527:1 4858:1 4859:1 4860:1 4861:1 4862:1 4863:1 4864:1 4865:1 4866:1 4867:1 #
0.0010000000000000000208166817117217 10:1 15:3 28:1 58:1 59:1 77:1 89:1 96:4 103:1 104:1 128:1 129:1 147:1 205:1 265:1 296:1 299:1 310:1 312:1 330:1 438:1 464:2 536:1 567:2 580:1 591:1 636:1 671:1 678:1 689:1 763:1 824:1 863:1 881:1 909:2 985:1 994:1 1063:1 1116:1 1119:1 1143:1 1153:1 1173:1 1293:1 1394:2 1401:1 1484:1 1972:1 2159:1 2469:1 2500:1 2744:1 2900:1 3308:1 3871:1 4635:1 4636:1 4637:1 4638:1 4639:1 4640:1 4641:1 4642:1 4643:1 4644:1 4645:1 4646:1 4647:1 #
-0.0010000000000000000208166817117217 3:1 5:1 7:1 11:1 24:1 28:3 34:2 78:1 80:1 81:2 87:1 89:1 96:3 104:1 112:1 114:1 123:1 200:1 236:1 247:1 265:1 277:1 279:1 308:1 330:1 336:1 351:1 358:1 400:1 410:1 438:1 453:1 494:1 501:1 509:2 510:1 576:1 803:1 874:1 878:2 918:1 924:1 933:1 945:1 965:1 1019:1 1165:1 1268:1 1269:1 1294:2 1295:1 1379:1 1401:1 1426:1 1534:1 1618:1 1693:1 1722:1 1820:1 1976:1 2241:1 2386:1 2518:1 2559:1 2964:1 3019:1 3929:1 4016:1 4025:1 4203:1 5373:1 5609:1 6542:1 6673:1 6674:1 6675:1 6676:1 6677:1 6678:2 6679:1 6680:1 6681:1 6682:1 #
-0.0010000000000000000208166817117217 3:3 9:1 15:1 20:2 34:2 43:2 47:1 51:1 87:1 94:1 96:4 100:1 116:1 152:1 171:1 174:1 200:1 225:1 228:1 234:2 235:1 265:2 296:1 317:1 328:1 330:1 360:1 388:1 399:1 404:1 523:1 568:2 588:1 629:1 779:1 874:1 880:1 921:1 965:2 1007:1 1165:1 1282:1 1314:1 1401:1 1665:1 1730:2 2165:1 2462:1 2994:1 7993:1 7994:1 #
-0.0010000000000000000208166817117217 3:1 14:1 19:1 28:1 34:3 47:1 59:1 66:2 80:1 87:1 96:4 145:1 161:3 174:2 183:1 235:1 236:1 259:2 265:1 278:1 312:1 318:1 334:1 336:1 351:1 367:2 501:1 505:1 528:1 547:1 567:1 619:1 828:1 830:1 905:1 924:1 975:1 1293:1 1452:1 1587:1 1640:1 1693:1 1879:1 1897:1 2017:1 2394:1 2656:1 2885:1 3221:1 3985:1 4101:1 4826:1 5101:1 8337:1 8338:1 8339:1 #
-0.0010000000000000000208166817117217 13:1 28:3 34:3 48:1 51:1 67:1 96:2 102:1 104:3 109:1 150:1 153:2 154:2 174:2 211:1 265:1 281:1 294:1 299:1 310:2 312:1 505:1 506:1 540:1 554:1 611:1 626:1 667:1 828:1 847:1 855:2 886:1 1178:1 1179:1 3313:1 3592:1 4187:1 5355:1 #
-0.0010000000000000000208166817117217 3:2 14:1 20:1 28:1 38:1 39:1 56:1 58:1 61:2 62:1 63:1 66:1 73:1 78:1 80:1 81:1 96:2 104:1 118:1 129:1 140:1 149:1 150:1 156:1 165:1 171:1 191:1 200:1 201:1 203:2 204:1 205:1 235:2 242:1 260:1 264:1 279:1 281:1 284:1 285:1 299:1 304:1 320:1 326:1 331:1 335:1 350:1 351:2 369:1 385:1 388:1 404:1 410:1 426:1 482:1 506:1 537:1 538:1 588:1 592:1 609:1 628:1 643:1 644:1 678:1 712:1 738:1 803:2 869:1 922:1 924:2 1010:1 1029:1 1066:1 1204:1 1222:1 1268:1 1285:1 1286:1 1338:3 1343:1 1419:2 1457:1 1775:1 1777:1 1845:1 2022:1 2051:1 2093:1 2139:1 2206:1 2557:1 2620:1 2683:1 2831:1 2841:1 3169:1 3751:1 4795:1 5028:1 5096:1 5143:2 5577:1 6686:1 6718:1 7382:1 7383:1 7384:1 7385:1 7386:1 7387:1 7388:1 7389:1 7390:1 7391:1 7392:1 #
0.0010000000000000000208166817117217 67:1 80:1 96:1 145:1 149:1 174:2 211:1 399:1 410:1 478:1 501:1 589:1 620:1 720:1 881:1 1077:1 1229:1 1230:1 1231:1 1232:1 1233:1 1234:1 1235:1 1236:1 #
0.0010000000000000000208166817117217 19:1 34:1 108:1 109:1 156:1 299:1 373:1 437:1 468:1 687:1 921:1 937:1 2815:1 4539:1 4540:1 #
0.0010000000000000000208166817117217 27:1 81:1 108:1 109:1 129:1 246:1 299:1 318:1 386:1 410:1 513:1 798:1 948:1 1073:1 1211:1 1364:1 1630:1 1663:1 1834:1 1835:1 1836:1 1837:1 1838:1 1839:1 1840:1 1841:1 1842:1 1843:1 #
0.0010000000000000000208166817117217 10:3 19:1 28:2 34:1 52:1 93:1 96:1 129:1 156:1 168:1 171:1 183:1 211:1 279:1 289:1 304:1 480:1 496:1 545:1 619:1 636:1 659:1 751:1 1063:1 1187:1 1370:1 1457:1 1458:1 1652:1 1962:1 3053:1 3054:1 3055:1 3056:1 3057:1 3058:1 3059:1 #
0.0010000000000000000208166817117217 10:1 14:1 24:1 25:1 27:1 28:1 96:2 104:1 174:1 183:1 195:1 204:1 229:1 242:1 259:1 260:1 351:1 368:1 370:1 427:1 480:1 486:1 709:1 759:1 873:1 919:1 1088:1 1187:2 1211:1 1785:1 2184:1 3259:1 3260:1 3261:1 3262:1 3263:1 3264:1 3265:1 3266:1 3267:1 3268:1 3269:1 #
-0.0010000000000000000208166817117217 10:2 11:1 25:1 31:2 34:1 56:1 96:2 100:1 114:1 116:1 118:1 129:1 154:1 156:1 166:1 168:1 174:1 267:1 304:1 337:1 368:1 435:1 466:1 467:1 482:1 516:1 648:1 698:1 763:1 791:1 792:1 809:1 824:1 905:1 1018:1 1177:1 1211:1 1263:1 1321:1 1328:1 1330:1 1338:1 2295:1 2389:1 2898:1 3069:1 3195:1 3216:1 3322:1 3573:1 3663:1 3882:1 4177:1 4307:1 5576:1 6722:1 6723:1 6724:1 6725:1 6726:1 6727:1 6728:1 6729:1 6730:1 6731:1 #
-0.0010000000000000000208166817117217 10:1 15:1 36:1 96:1 129:1 165:1 173:1 225:1 273:1 296:2 325:1 402:1 425:1 482:1 495:1 547:1 580:1 625:1 1380:1 1406:1 1493:1 1497:1 1518:1 1691:1 2701:1 3383:1 3384:1 3385:1 3386:1 3387:1 3388:1 3389:1 #
-0.0010000000000000000208166817117217 58:1 96:1 116:1 130:1 140:1 145:1 166:1 168:1 174:1 175:2 177:1 195:1 235:1 239:1 245:1 282:1 285:1 304:1 350:1 426:1 467:2 500:1 536:1 604:1 697:2 776:1 790:1 927:1 1036:1 1062:1 1319:1 1352:1 1861:1 2000:1 2193:1 2550:1 2826:1 3195:1 3220:1 3454:1 3629:1 3853:1 4644:1 5760:1 7095:1 8351:1 8352:1 8353:1 8354:1 8355:1 8356:1 8357:1 #
-0.0010000000000000000208166817117217 28:1 85:1 96:1 102:1 174:1 190:1 222:1 245:1 277:1 508:1 644:1 660:1 853:1 1028:1 1458:1 1741:1 1742:1 1753:1 2394:1 2462:1 3693:1 4163:1 6761:1 7032:1 7033:1 7034:1 7035:1 7036:1 #
-0.0010000000000000000208166817117217 10:1 15:1 23:1 28:1 66:2 67:1 108:1 168:1 175:1 230:1 254:1 335:1 343:2 373:1 384:1 435:1 439:1 621:1 727:1 779:1 815:1 910:1 982:1 983:1 999:1 1000:1 1475:1 1648:1 1649:1 1650:1 1651:1 1652:1 1653:1 1654:1 1655:1 1656:1 1657:1 1658:1 1659:1 1660:1 1661:1 #
0.0010000000000000000208166817117217 11:1 20:1 28:1 34:3 48:1 96:4 104:1 129:2 145:2 161:1 166:1 201:3 279:1 285:1 296:1 303:1 312:1 317:1 358:1 369:1 410:1 444:1 454:1 473:1 505:2 806:1 821:1 918:1 992:1 1062:1 1097:1 1258:1 1964:1 2037:1 2489:1 2772:1 6337:1 6338:1 6339:1 #
0.0010000000000000000208166817117217 11:1 15:1 22:1 26:1 28:3 34:2 66:1 68:1 77:1 81:2 82:1 96:4 102:1 104:1 107:1 129:1 134:1 138:1 142:2 150:1 154:1 174:3 200:1 211:1 212:1 259:1 299:1 337:1 369:1 403:1 405:1 423:1 427:1 428:1 468:1 473:2 486:1 494:1 496:1 516:3 536:1 557:2 569:1 575:1 582:1 635:1 644:1 694:1 697:1 736:1 771:1 775:1 811:1 836:1 877:1 880:1 957:1 993:2 1016:1 1017:1 1029:1 1062:1 1213:1 1226:1 1305:1 1324:1 1339:1 1426:1 1714:1 1755:1 1827:1 2263:1 3008:1 3017:1 3166:1 3463:1 3467:1 3726:1 3969:1 4196:1 4197:1 4198:1 4199:1 4200:1 4201:1 4202:1 4203:1 #
0.0010000000000000000208166817117217 26:1 28:2 34:1 58:1 78:2 96:2 112:1 116:1 140:1 150:1 168:3 174:1 201:1 225:1 228:2 259:1 265:1 269:1 285:1 296:1 349:1 384:1 386:1 410:2 457:1 468:1 480:1 572:1 654:1 687:1 715:1 764:1 772:1 828:1 832:1 857:1 954:1 1029:1 1100:1 1124:1 1269:1 1294:1 1304:1 1338:1 1444:1 1577:1 1599:1 1784:1 1815:1 1861:1 2019:1 2082:1 2172:1 2462:1 2811:1 2827:1 3207:1 3330:1 5490:1 6698:1 7467:1 7468:1 7469:1 7470:1 7471:1 #
0.0010000000000000000208166817117217 4:1 9:1 34:2 78:1 87:1 96:5 147:1 156:1 200:1 265:1 410:2 553:1 607:1 857:1 918:3 933:1 1146:1 1384:1 1483:1 1516:1 1762:1 1763:1 1812:1 1835:1 1836:3 1850:1 6125:1 6126:1 6127:1 #
0.0010000000000000000208166817117217 4:1 6:1 25:1 28:1 34:2 58:1 72:1 85:1 87:1 96:3 129:1 149:1 168:1 174:5 228:1 289:1 325:1 336:1 403:1 410:1 420:1 437:1 439:1 444:1 510:1 536:1 541:1 591:1 627:2 654:1 660:1 665:1 685:1 709:1 905:1 919:1 922:1 950:1 986:1 1062:1 1230:1 1350:1 1441:1 1879:1 1916:1 2004:1 2015:1 2157:2 2388:1 2462:1 3171:1 3779:1 4968:1 5521:1 5522:1 5523:1 5524:1 #
-0.0010000000000000000208166817117217 4:1 23:1 24:1 28:2 34:3 46:1 49:1 77:1 78:1 96:5 129:1 132:1 133:1 152:1 174:1 229:2 299:1 304:2 320:1 403:3 407:1 507:1 572:1 660:1 665:1 687:1 719:1 864:1 906:2 971:1 1031:1 1077:1 1153:1 1204:1 1211:1 1224:1 1231:1 1303:1 1334:1 1336:1 1411:1 1604:1 1625:1 1676:1 1679:1 1741:1 1996:1 2157:1 2440:1 2498:1 2526:1 2761:1 3034:1 3334:1 3570:1 3619:1 3929:1 4309:1 4348:1 5518:1 5684:1 5847:1 5848:1 5849:1 5850:1 5851:1 5852:1 5853:1 #
-0.0010000000000000000208166817117217 4:1 14:2 15:1 28:2 61:1 73:1 76:1 78:3 96:5 104:1 116:1 129:3 143:1 156:1 174:1 203:1 241:1 299:2 320:3 321:1 420:1 436:1 437:1 482:1 496:1 516:2 609:1 697:1 710:1 715:1 809:1 848:1 862:1 866:1 909:1 915:1 959:1 1305:1 1579:1 1697:1 1907:1 1980:1 2181:1 2183:1 2280:1 2463:1 2744:1 2824:1 3128:1 3527:1 3694:1 4595:1 5627:1 5803:1 7251:1 8424:1 8425:1 8426:1 8427:1 8428:1 8429:1 8430:1 #
-0.0010000000000000000208166817117217 6:1 20:1 21:1 24:1 28:2 59:1 61:1 96:2 122:1 123:1 174:3 185:1 190:1 200:1 454:1 494:2 496:2 510:1 557:3 584:1 613:1 729:1 739:1 862:1 866:1 964:1 993:1 1007:1 1016:1 1047:1 1051:1 1052:1 1056:1 1063:1 1079:2 1118:1 1138:1 1165:1 1199:1 1300:1 1306:1 1397:1 1411:1 1412:1 1575:1 1605:1 1674:1 1842:1 2019:1 2295:1 2329:1 2331:1 2471:1 3018:1 3311:1 3927:1 4093:1 4352:1 6268:1 6689:1 7037:1 7038:1 7039:1 7040:1 7041:1 7042:1 7043:1 7044:1 7045:1 7046:1 7047:1 #
-0.0010000000000000000208166817117217 6:1 15:1 28:3 31:1 34:3 96:4 161:2 168:2 174:2 229:2 254:1 289:1 299:1 305:1 326:1 336:1 496:1 505:1 531:1 567:1 568:1 632:1 654:1 687:2 689:1 720:1 803:1 820:1 863:1 874:1 933:1 971:1 1079:1 1126:1 1157:1 1162:1 1203:1 1211:1 1709:1 2658:1 2824:1 3370:1 4031:1 8471:1 8472:1 8473:1 8474:1 #
-0.0010000000000000000208166817117217 15:1 19:1 28:1 46:1 50:1 82:1 87:1 96:5 104:2 106:1 121:1 130:1 141:1 156:1 174:4 185:1 200:1 220:1 226:1 229:1 235:3 257:1 325:1 345:1 404:1 410:1 426:1 438:1 484:1 496:1 509:1 510:1 537:1 553:1 572:1 574:1 595:1 654:1 667:1 683:1 697:1 715:1 790:1 862:1 907:1 927:1 964:1 1043:1 1113:1 1143:1 1211:1 1227:1 1231:1 1235:1 1236:1 1373:1 1605:1 1612:1 1621:1 1962:1 2133:1 2191:1 2388:1 2980:1 3081:1 3817:1 4041:1 5431:1 5432:1 5433:1 5434:1 5435:1 5436:1 5437:1 5438:1 5439:1 #
0.0010000000000000000208166817117217 28:1 51:1 96:1 104:1 108:1 171:3 175:1 410:1 629:1 846:1 1000:1 1068:1 1812:1 2254:1 3576:1 3822:1 4736:1 5872:1 #
0.0010000000000000000208166817117217 10:1 11:1 22:1 28:2 34:1 66:1 71:1 78:1 82:1 96:2 118:1 121:1 123:1 171:1 175:1 208:1 252:1 403:1 425:1 505:1 613:1 629:1 644:1 659:1 687:1 697:1 858:1 989:1 1000:1 1226:1 1565:1 1644:1 1765:1 1900:1 2165:1 3269:1 3430:1 4968:1 4969:1 4970:1 #
0.0010000000000000000208166817117217 3:1 10:1 11:2 19:1 28:1 34:1 44:1 96:2 100:1 116:1 122:1 145:1 152:1 161:1 174:1 301:1 404:1 570:1 634:1 880:1 916:1 1119:1 1221:1 1256:1 1594:1 2960:2 4075:1 6559:1 7879:1 #
0.0010000000000000000208166817117217 28:2 34:2 68:1 96:1 149:1 171:2 225:1 325:1 337:1 435:1 454:1 510:1 607:1 654:1 1038:1 1039:1 1041:1 1211:1 1308:1 1381:1 1467:2 1496:1 1630:1 1686:1 1850:1 2109:2 2223:1 2462:1 2522:1 2523:1 2524:1 2525:1 2526:1 #
