SVM-light Version V6.02
0 # kernel type
3 # kernel parameter -d 
1 # kernel parameter -g 
1 # kernel parameter -s 
1 # kernel parameter -r 
empty# kernel parameter -u 
8831 # highest feature index 
1124 # number of training documents 
635 # number of support vectors plus 1 
0.068799335 # threshold b, each following line is a SV (starting with alpha*y)
0.057019594376202936691910849731357 13:1 14:1 34:2 44:1 67:1 93:1 96:2 117:1 130:1 147:1 301:1 494:1 541:1 634:2 660:1 720:1 721:1 736:1 934:1 1051:2 1052:2 1682:1 1900:1 3715:1 4841:1 6714:1 6860:1 #
0.043017161584858430722899669262915 28:1 48:1 49:1 51:1 67:1 78:1 89:1 96:1 104:1 130:2 149:1 204:1 205:1 227:1 228:1 265:1 285:1 335:1 369:1 569:1 636:1 644:1 660:1 678:1 790:1 907:1 1159:1 1457:1 1766:1 2295:1 2443:1 2542:1 2892:1 3092:1 3351:1 3618:1 3751:1 3990:1 4823:1 4824:1 4825:1 4826:1 4827:1 4828:1 #
0.041086422911199071972276897213305 11:2 19:1 28:2 34:1 38:2 96:1 129:1 130:1 156:1 161:2 166:1 198:1 230:1 234:1 236:1 325:1 369:1 385:1 410:1 456:1 463:1 567:1 574:1 580:1 689:1 694:1 720:1 729:1 736:1 1127:1 1375:1 1457:1 2076:1 2507:1 2704:1 2844:1 2845:1 2846:1 2847:1 2848:1 2849:1 2850:1 2851:1 #
0.024947919705690463354486041680502 20:1 28:1 47:1 102:1 129:1 145:1 149:1 203:2 211:1 251:1 265:1 274:1 275:1 284:1 285:2 318:1 402:1 476:1 555:1 710:1 843:1 927:1 1221:1 1236:1 1338:1 1349:1 1384:1 1411:1 1709:1 1760:1 2438:1 2463:1 2554:1 2555:1 2556:1 2557:1 2558:1 2559:1 2560:1 #
-0.0079497439041603182308115549403738 10:1 11:2 19:1 20:1 96:4 107:1 108:1 114:1 117:1 130:1 161:1 174:2 175:1 220:1 230:1 231:1 236:1 265:1 304:2 330:1 358:1 400:2 410:2 545:1 569:1 621:1 632:1 654:1 720:1 758:1 877:1 881:1 1236:1 1467:1 1474:1 1623:1 1643:1 1682:1 1694:1 1929:1 1979:1 1983:1 2065:1 2192:1 2235:1 3017:1 3727:1 7063:1 #
-0.0061169198243443212784087315014858 3:1 4:1 11:2 15:1 24:1 28:2 34:3 38:1 43:1 46:1 47:2 51:1 72:2 80:1 81:2 82:1 96:3 104:3 114:1 116:1 130:1 136:1 145:1 149:1 152:1 161:1 168:1 174:1 185:1 197:2 201:1 204:1 205:1 215:1 222:1 233:1 262:1 265:1 267:1 281:1 284:1 288:1 305:1 325:1 337:1 351:1 383:1 388:1 410:2 416:1 465:1 487:1 505:1 536:1 545:1 568:1 569:2 574:1 600:1 626:1 638:1 660:1 667:1 762:1 775:1 792:1 924:1 927:2 977:1 1087:1 1165:1 1196:1 1197:1 1416:1 1467:1 1529:1 1542:1 1630:1 1637:1 1916:2 2109:1 2389:1 2683:1 2743:1 3008:1 3938:1 4294:1 4455:1 4456:1 4457:1 #
-0.032384856812364776201818017398182 3:1 5:1 8:1 26:1 28:3 34:1 38:1 43:1 66:1 68:1 80:1 96:2 145:1 152:1 174:1 201:1 203:1 225:1 228:1 278:1 285:1 294:1 310:1 335:1 351:1 360:1 410:1 538:1 768:1 874:1 881:1 921:1 927:1 1126:1 1143:1 1151:1 1221:1 1484:1 1623:1 1775:1 1850:1 2165:1 2230:1 2625:1 2956:1 2957:1 2958:1 2959:1 2960:1 2961:1 #
-0.0024256945124786874652678125841021 5:1 10:2 15:1 19:1 22:1 24:1 26:1 28:2 41:1 81:2 104:3 106:1 145:1 147:2 150:1 161:1 175:2 198:1 218:1 234:1 251:1 265:2 269:1 278:1 292:1 295:1 303:1 320:1 321:1 336:1 379:1 385:1 420:1 437:1 466:1 507:1 510:1 545:1 567:1 574:1 654:1 688:1 697:3 720:2 739:1 762:1 772:1 779:1 813:1 855:1 863:1 920:1 969:1 1211:1 1256:1 1290:2 1411:1 1453:2 1471:1 1499:1 1505:1 1692:1 1693:1 1800:1 1830:1 2277:1 2562:1 2624:1 2775:1 2994:1 3253:1 3629:1 3921:1 3929:1 3970:1 3992:1 5758:1 6040:1 8433:2 8434:1 #
0.016994262791777996896014357730564 28:1 44:1 96:1 116:1 150:1 165:1 235:1 259:1 265:1 278:1 337:1 351:1 360:1 410:1 629:1 929:1 930:1 931:1 932:1 933:1 934:1 935:1 936:1 937:1 938:1 939:1 940:1 941:1 942:1 943:1 944:1 945:1 #
-0.036964619059477316076467445782328 24:1 25:1 34:3 44:1 56:1 78:1 87:1 96:3 103:1 112:1 117:1 129:1 171:1 174:4 234:1 265:2 299:1 301:1 302:1 367:1 371:2 385:1 410:1 436:1 437:1 516:1 553:1 575:1 576:1 706:1 772:1 797:2 828:1 914:1 918:1 1047:1 1590:1 1591:1 1592:1 1593:1 1594:1 #
-0.022260750402480579401842675224543 5:1 12:1 19:1 28:2 34:1 42:1 90:1 96:1 140:1 169:1 225:1 264:1 304:1 360:1 371:1 425:1 468:1 474:1 775:2 920:1 993:1 1080:2 1100:1 1359:1 1370:1 1670:1 1927:1 2085:1 2230:1 2695:1 3598:1 3772:1 4330:1 8631:1 8632:1 #
-0.030097650491255206750551565164642 25:1 28:3 31:1 34:1 96:1 108:1 129:1 166:1 171:1 174:1 204:1 205:1 206:1 211:1 222:1 225:1 235:1 291:1 296:1 318:1 369:2 406:1 410:1 438:1 445:1 452:1 494:1 505:1 547:1 554:1 559:1 567:1 568:1 575:2 607:1 682:2 683:1 849:1 856:1 857:1 1026:1 1031:1 1067:1 1221:1 1381:1 1394:2 1934:1 2815:1 2889:1 3656:1 3871:1 4203:1 6618:1 6684:1 #
-0.064703726727612737024131206453603 28:1 34:2 50:1 78:1 80:1 108:1 173:1 174:1 211:1 259:1 298:1 299:1 320:1 388:1 404:1 454:1 464:1 510:1 557:1 667:1 708:1 712:1 727:1 768:1 880:1 881:1 919:1 945:1 1121:1 1127:1 1203:1 1218:1 1219:1 1220:1 1221:1 1222:1 1223:1 1224:1 1225:1 1226:1 1227:1 1228:1 #
0.014235611431042913613276290618614 26:1 28:1 34:1 66:1 78:1 121:1 150:1 174:2 183:1 185:1 259:1 265:1 410:1 457:1 473:1 480:1 496:1 575:2 619:1 625:1 667:2 737:1 749:1 806:1 839:1 919:1 969:1 985:1 1029:1 1186:1 1504:1 1625:1 2171:1 2426:1 2872:1 3220:1 3910:1 4217:1 4284:1 5299:1 5379:1 5380:1 5381:1 #
0.093782753619419567669979187485296 12:1 34:1 67:2 122:1 141:1 171:2 256:1 299:1 301:1 302:1 426:1 454:1 544:1 697:1 698:1 752:1 1231:1 1441:1 1572:1 1905:1 1925:1 1926:1 1927:1 1928:1 1929:1 #
0.033117617947011360191034157196555 19:2 43:1 87:2 96:3 110:1 129:1 130:1 134:1 141:1 147:2 174:3 175:1 203:1 234:1 265:1 269:1 303:1 320:1 334:1 397:1 400:1 407:1 436:1 489:1 497:1 553:1 567:1 581:1 643:1 652:1 660:1 697:2 707:1 720:1 725:1 874:1 878:1 918:1 989:1 995:1 1274:1 1667:1 1709:1 2132:1 2237:1 2652:2 3109:1 3110:1 3111:1 3112:1 3113:1 #
0.0054230035252143104357314129515544 3:1 15:1 20:2 28:4 48:3 58:1 73:1 96:2 102:1 108:1 129:2 141:1 145:1 149:1 161:1 166:1 168:2 173:1 174:2 201:1 203:2 218:1 241:1 249:1 265:1 276:1 284:1 285:1 294:1 296:2 334:1 337:1 369:2 402:1 454:2 456:1 473:1 516:2 567:1 580:1 652:1 698:1 717:2 726:1 739:1 863:1 902:1 1000:3 1010:1 1015:1 1135:1 1187:1 1220:1 1265:1 1296:1 1305:1 1326:1 1571:2 1580:1 1639:1 1665:1 1722:1 1741:1 1988:1 2353:1 2437:1 2536:1 2730:1 3590:1 3591:1 3592:2 3593:1 3594:1 3595:1 3596:1 3597:1 #
-0.041065112083343721649519864058675 5:1 20:1 24:1 25:1 28:1 34:3 44:1 52:1 67:1 80:1 96:2 109:1 161:1 168:1 171:1 174:2 259:1 265:1 276:1 278:1 299:1 330:1 403:1 410:1 425:1 426:1 434:1 496:1 510:1 559:1 560:1 652:1 683:1 687:1 697:1 727:1 921:1 985:1 1051:1 1052:1 1062:1 1258:1 1290:1 1444:1 1475:1 1623:1 1809:1 1952:1 2289:1 4968:1 #
-0.016602659842978602366958540414998 5:1 6:1 11:1 13:1 28:1 39:1 58:2 96:4 108:1 140:2 145:1 168:1 174:1 223:1 229:1 265:1 299:1 312:1 385:1 386:1 410:1 438:1 456:1 569:1 623:1 636:1 682:1 690:1 840:1 985:1 1047:1 1230:1 1293:1 1307:1 1394:1 1533:1 1612:1 1755:1 1760:1 3203:1 3204:1 3205:1 3206:1 3207:1 #
-0.0046463257699633289665719360073126 4:1 10:1 15:1 24:1 28:2 34:1 44:2 58:1 67:1 72:1 80:1 96:5 102:1 104:1 108:1 114:1 130:1 145:1 174:4 198:1 221:1 229:2 288:1 305:1 327:1 351:1 439:1 444:1 452:1 454:2 465:1 473:1 508:1 651:1 690:1 709:1 746:1 828:2 849:1 880:1 1028:1 1062:1 1063:1 1067:1 1146:1 1204:1 1227:1 1304:1 1309:1 1421:1 1516:1 1690:2 1741:1 1916:1 2087:2 2476:1 3055:1 3061:1 3098:2 3153:1 3917:1 5200:2 8235:1 8236:1 8237:1 #
0.03983347009365149210546874769534 3:1 10:1 11:2 19:1 28:1 34:1 44:1 96:2 100:1 116:1 122:1 145:1 152:1 161:1 174:1 301:1 404:1 570:1 634:1 880:1 916:1 1119:1 1221:1 1256:1 1594:1 2960:2 4075:1 6559:1 7879:1 #
0.069363656335516429840559737840522 24:1 25:1 26:2 28:1 39:1 40:1 66:1 77:1 80:1 82:1 106:1 171:2 174:3 175:1 198:1 226:1 236:1 265:1 320:1 370:1 400:1 402:1 410:1 439:1 456:1 516:1 572:1 574:1 587:1 619:1 855:1 980:1 1285:1 1350:1 1812:1 4053:3 5333:1 8155:1 8156:1 #
0.029688241754428430080325895801252 3:1 10:1 15:1 26:1 27:1 28:1 34:2 39:1 58:1 61:1 71:1 77:2 81:1 96:3 98:1 108:1 116:1 123:1 129:1 136:1 156:1 169:1 174:3 185:1 204:1 205:1 208:1 218:1 222:1 234:1 242:1 247:1 259:1 269:1 280:1 299:1 371:1 410:2 425:2 456:1 473:1 486:1 496:1 510:2 625:1 634:1 665:1 709:1 719:1 729:1 862:1 899:1 924:1 1003:1 1022:1 1073:2 1141:1 1146:1 1147:1 1226:1 1256:1 1269:1 1294:2 1404:1 1461:1 1475:1 1524:1 1606:1 1652:1 1706:1 1710:1 1788:1 1907:1 1918:1 2099:2 2281:1 2643:1 3411:1 3582:1 4063:1 4614:1 4642:1 4671:1 4885:1 5938:1 6126:1 6259:1 6479:1 6480:1 6481:1 6482:1 6483:1 6484:1 6485:1 6486:1 6487:1 6488:1 6489:1 #
-0.010441358107292825208034514616884 28:1 34:1 39:1 77:1 78:1 87:1 96:1 118:1 145:1 171:1 174:4 279:1 331:1 335:1 437:1 439:1 452:1 479:1 569:1 575:1 589:1 597:1 623:1 667:1 797:1 874:1 982:1 983:1 1079:1 1122:1 1213:1 1307:1 1318:1 1395:1 1455:1 2089:1 2672:1 4248:1 6723:1 7255:1 7256:1 #
-0.084832250596244315743454933453904 5:1 28:1 34:1 38:1 53:1 67:1 78:1 82:1 96:4 108:1 166:1 168:2 169:1 185:1 198:1 230:1 264:1 279:1 299:2 308:1 403:1 410:1 425:1 494:1 537:1 543:1 545:1 595:1 628:1 660:1 687:1 697:1 720:2 731:1 883:1 985:1 1062:1 1416:1 1444:1 1543:1 1569:1 1603:1 2021:1 2415:1 3921:1 4217:1 4420:1 5916:1 5917:1 5918:1 #
0.0081875767139351560142124242247519 3:1 11:1 24:1 28:3 43:4 48:1 77:1 78:2 80:1 81:3 89:1 103:1 129:1 147:1 149:1 157:1 161:3 165:1 174:4 203:1 204:2 205:2 225:1 234:1 235:2 259:2 262:1 264:1 265:2 277:1 279:2 285:1 296:1 332:1 337:1 351:2 360:1 367:1 368:1 427:1 443:1 506:1 557:1 567:2 572:1 613:1 773:1 823:1 945:1 1010:2 1031:1 1376:1 1401:1 1457:1 1461:2 1484:1 1542:1 1588:1 1631:1 1639:1 1813:1 2050:1 2051:1 2054:1 2281:1 2290:1 2422:2 2702:1 2804:1 2841:2 3158:1 3497:2 3498:1 3499:1 3500:1 3501:1 3502:1 3503:1 3504:1 3505:1 3506:1 3507:1 3508:1 #
0.027121238899480884509962663742044 3:1 10:1 20:1 24:1 28:2 42:1 75:1 90:2 96:4 116:1 122:1 150:1 161:1 166:1 168:1 174:2 177:1 200:1 220:1 259:1 262:1 264:2 265:2 267:1 279:2 282:1 299:1 320:1 330:2 370:1 410:1 420:1 422:1 484:1 486:1 488:1 489:1 510:1 516:1 536:1 591:1 624:1 626:1 637:1 648:1 682:1 683:1 688:1 690:1 698:1 727:2 924:1 1164:1 1178:1 1186:1 1256:1 1297:1 1312:1 1426:1 1427:1 1457:1 1533:1 1569:1 1575:1 1581:1 1603:1 1697:1 2022:1 2159:1 2221:1 2872:2 2994:1 3101:1 3941:1 4177:1 4517:1 5067:1 5068:1 5069:1 5070:1 5071:1 5072:1 5073:1 5074:1 5075:1 5076:1 #
0.0084780824778558170479181299583615 10:1 28:1 63:1 66:1 87:1 96:2 116:1 171:2 265:1 276:1 310:1 336:1 386:1 410:1 445:1 473:2 493:1 552:1 749:1 1056:1 1077:1 1084:1 1128:1 1173:1 1174:1 1175:1 1176:1 1177:1 1178:1 1179:1 1180:1 1181:1 1182:1 1183:1 1184:1 1185:1 1186:1 1187:1 1188:1 1189:1 1190:1 1191:1 #
-0.0092577661911055937615788735683964 10:2 12:1 13:1 27:1 28:2 31:1 34:1 39:1 44:1 67:1 77:1 80:1 85:1 96:1 103:1 104:2 130:1 153:2 154:1 170:1 173:1 174:1 203:1 218:1 222:1 235:1 241:1 249:1 265:1 330:1 367:1 510:1 553:1 568:1 575:1 608:1 636:1 712:1 749:1 823:1 878:1 1031:1 1100:1 1146:1 1318:1 1374:1 1433:1 1605:1 1694:1 1812:1 2088:1 2230:1 2486:1 2804:1 2811:1 2839:1 2840:1 2841:1 #
0.0031849513634760471050832997264024 3:1 13:1 14:1 18:1 24:1 28:2 31:1 39:1 44:2 58:1 82:1 85:1 96:2 104:2 109:1 116:2 129:1 130:1 140:1 145:1 161:3 168:1 171:2 198:2 204:1 205:2 222:1 230:1 235:2 276:1 279:1 285:1 330:2 345:1 386:2 408:1 410:1 438:1 456:1 516:1 541:1 554:1 573:1 574:1 613:1 636:1 699:1 821:2 824:1 832:1 881:1 1039:1 1097:1 1140:1 1359:1 1401:1 1403:1 1437:1 1457:1 1551:1 1804:2 1934:1 2078:1 2156:1 2466:1 2494:1 2495:1 2496:1 2497:1 2498:1 2499:1 2500:1 2501:1 2502:1 2503:1 2504:1 2505:1 2506:1 2507:1 #
0.012366125045079251476565218581527 30:1 38:1 48:1 68:1 96:4 102:1 166:1 222:1 225:1 235:1 249:1 251:1 269:1 285:1 299:1 305:1 311:1 318:1 320:1 336:1 404:1 420:1 457:1 494:2 510:2 528:2 555:1 567:1 587:1 595:1 635:1 689:2 690:1 731:1 746:1 758:1 819:1 878:1 1018:1 1286:1 1376:1 1384:2 1421:1 1470:1 1495:1 1520:1 1521:1 1605:1 1618:1 1790:1 1791:1 1792:1 1793:1 1794:1 1795:1 1796:1 1797:1 1798:1 1799:1 1800:1 1801:1 1802:1 1803:1 1804:1 1805:1 1806:1 1807:1 #
-0.0041553392516962255748280696820984 7:2 10:1 26:1 28:1 29:1 38:3 61:1 62:1 63:1 81:2 87:1 96:1 102:1 168:1 173:1 174:2 200:1 203:1 265:1 278:1 285:1 410:1 438:1 505:2 506:1 528:1 537:1 567:2 632:1 709:1 720:1 772:1 828:1 880:1 969:1 1153:1 1603:1 1766:1 2659:1 4023:1 4311:1 4717:1 5047:1 5143:1 6323:1 6983:1 7651:1 #
-0.0072223145763185298690034485957767 10:2 11:1 25:1 31:2 34:1 56:1 96:2 100:1 114:1 116:1 118:1 129:1 154:1 156:1 166:1 168:1 174:1 267:1 304:1 337:1 368:1 435:1 466:1 467:1 482:1 516:1 648:1 698:1 763:1 791:1 792:1 809:1 824:1 905:1 1018:1 1177:1 1211:1 1263:1 1321:1 1328:1 1330:1 1338:1 2295:1 2389:1 2898:1 3069:1 3195:1 3216:1 3322:1 3573:1 3663:1 3882:1 4177:1 4307:1 5576:1 6722:1 6723:1 6724:1 6725:1 6726:1 6727:1 6728:1 6729:1 6730:1 6731:1 #
-0.015316063205327539245570456216683 22:2 28:2 34:1 38:1 61:1 62:1 68:1 78:1 80:1 82:1 96:2 110:1 122:1 142:1 150:1 174:3 203:1 204:2 205:2 211:1 239:1 245:1 254:1 278:1 299:1 338:1 380:1 386:1 405:1 407:1 410:2 463:1 468:1 478:1 491:1 510:1 554:1 567:1 621:1 652:1 711:1 728:1 840:1 924:1 969:1 1000:1 1167:1 1203:1 1211:2 1248:1 1329:1 1412:1 1493:1 1509:1 1534:1 1625:1 1693:1 1800:1 2172:1 2290:1 2295:1 2804:1 3154:1 3514:1 4352:1 4426:1 5143:1 6187:1 7301:1 7302:1 7303:1 7304:1 7305:1 7306:1 7307:1 7308:1 7309:1 #
0.027776063771397838109145084217744 20:1 34:2 47:1 78:1 95:1 96:4 104:1 129:1 172:1 174:1 190:3 212:1 220:2 234:1 255:1 256:1 385:1 388:1 410:1 439:1 545:2 569:1 612:1 636:1 652:1 683:1 698:1 729:2 762:1 772:1 878:1 880:1 887:1 899:2 1066:1 1073:1 1088:2 1147:1 1167:1 1231:1 1290:1 1312:1 1381:1 1455:1 1582:1 1763:1 1909:1 1957:1 2021:1 2233:1 2736:1 2916:1 3064:1 3218:1 3219:1 3220:1 3221:1 3222:1 3223:1 3224:1 #
0.022379510055353570713299049543821 11:1 28:1 34:1 98:1 108:1 109:1 147:1 161:1 166:2 171:3 174:2 201:1 230:1 264:1 289:1 299:1 388:1 410:1 412:1 439:1 445:1 467:2 486:1 496:1 510:1 565:1 572:1 575:1 627:1 666:1 667:1 821:1 922:1 969:1 993:1 1088:1 1173:1 1248:1 1663:2 1812:1 1859:1 1879:1 2146:1 2169:1 2233:1 2462:1 2620:1 3268:1 5855:1 5856:1 5857:1 5858:1 5859:1 5860:1 5861:1 5862:1 5863:1 5864:1 5865:1 #
-0.00085653185370763041533992421250332 19:1 28:3 34:1 38:1 51:1 81:1 96:1 100:1 104:2 105:1 169:1 200:1 214:1 229:1 230:2 264:1 296:1 299:2 304:2 386:1 390:1 407:1 434:1 473:1 526:2 531:1 536:1 545:1 553:1 588:1 659:1 674:1 687:1 758:1 846:1 902:1 919:1 948:1 993:1 998:1 1068:1 1153:1 1157:1 1226:1 1249:1 1290:1 1475:1 1505:1 1560:1 1795:1 2678:1 2693:1 2699:2 2960:1 3030:1 3046:1 3161:1 3910:1 3947:1 4304:1 4305:1 4306:1 4307:1 4308:1 4309:1 4310:1 4311:1 4312:1 4313:1 4314:1 4315:1 #
0.03850811572695287537948516387587 13:3 19:1 28:1 31:1 61:2 66:1 80:1 96:2 129:1 130:1 174:1 241:1 320:1 321:1 330:1 388:1 406:1 486:1 489:1 537:1 574:1 683:1 712:1 720:1 824:1 855:1 862:1 880:1 914:1 924:1 1231:1 1306:1 1318:1 1336:1 1797:1 1817:1 1845:1 1924:1 2069:1 2165:1 2298:1 2386:1 2454:1 2888:1 2980:1 3408:1 3435:1 6296:1 7646:1 7647:1 7648:1 7649:1 7650:1 #
0.051006848199825399747808774009172 11:1 24:2 28:3 58:1 104:1 118:1 161:1 171:1 215:1 299:1 467:1 569:1 622:1 729:1 994:1 1170:1 1470:1 1849:1 1903:1 2251:1 2289:1 2508:1 2509:1 2510:1 2511:1 2512:1 #
-0.035230934516013855117844144615447 24:2 28:2 34:1 82:1 96:1 104:1 147:1 234:1 235:1 236:1 241:1 242:1 247:1 259:1 285:1 325:1 467:1 468:1 505:2 553:1 790:1 877:1 916:1 1101:1 1456:1 1637:1 1809:1 2126:1 2236:1 2994:1 3241:1 #
0.026430752454326883471580345030816 28:1 66:3 78:2 81:1 96:1 129:1 149:1 152:1 165:1 174:1 175:1 200:1 239:1 249:1 255:1 265:1 296:1 331:1 386:1 402:1 407:1 410:1 427:1 444:1 473:2 510:1 545:1 553:1 580:1 613:1 625:1 626:1 627:1 651:1 731:1 883:1 905:1 927:1 1000:1 1287:1 1324:1 1383:1 1509:2 1538:1 1580:1 1676:1 1691:1 1750:1 1812:1 1966:1 2044:1 2157:1 2223:1 2341:1 2409:1 2514:1 2579:1 2754:2 2797:1 3216:1 3546:1 3888:1 4069:2 4141:1 4905:1 5200:1 5435:1 5985:1 6608:1 7412:1 7413:1 7414:1 7415:1 7416:1 7417:1 7418:1 7419:1 7420:1 #
-0.035449110656359826554417935540187 28:1 96:1 109:1 136:1 171:1 182:1 249:1 410:1 436:1 437:1 505:1 706:1 876:1 985:1 1231:1 1408:1 1812:1 2000:1 2490:1 2705:1 3017:1 3267:1 3397:1 3406:1 3969:1 4882:1 4900:1 5185:1 5926:1 5927:1 5928:1 5929:1 #
-0.065288722021264095074499778093013 5:1 28:1 34:1 56:1 66:1 87:1 90:1 96:1 168:1 171:1 174:2 211:1 265:1 278:1 437:1 575:1 619:1 704:1 749:1 779:1 985:1 993:1 1237:1 1395:1 1428:1 1481:1 2449:1 3700:1 #
-0.038265330448457417211738373907792 10:1 13:1 34:2 44:1 58:1 94:1 96:6 102:1 128:1 129:1 141:1 145:1 149:1 174:2 204:1 235:1 241:1 242:1 265:1 312:1 330:1 351:1 410:1 452:2 486:1 505:1 589:2 594:1 630:1 671:2 698:1 708:1 729:1 828:1 880:1 904:1 915:1 918:2 970:1 1062:1 1146:1 1192:1 1301:1 2475:1 4243:1 4244:1 #
-0.03057898914485616265190870421975 4:1 34:2 80:1 81:1 89:1 96:1 104:2 106:2 108:1 118:1 140:1 161:2 171:1 201:1 211:1 220:1 232:1 235:1 291:1 296:1 298:1 316:1 317:1 320:1 567:1 572:1 585:1 601:1 623:1 659:1 689:1 690:1 751:1 762:1 803:1 843:1 1062:1 1063:1 1118:1 1166:1 1231:1 1235:1 1285:1 1303:1 1307:1 1391:1 1736:1 1886:1 2017:1 2021:1 2230:1 2277:1 2287:1 2288:1 2289:1 2290:1 2291:1 2292:1 2293:1 2294:1 2295:1 2296:1 2297:1 2298:1 2299:1 2300:1 2301:1 2302:1 2303:1 2304:1 #
-0.0019143986211182621726134556183752 5:1 34:1 46:1 96:4 108:1 168:1 171:1 174:1 262:1 265:1 299:1 410:1 438:1 452:1 501:1 559:1 576:1 612:1 683:1 687:1 701:1 709:1 772:1 924:1 952:1 1028:1 1047:1 1062:1 1231:1 1293:1 1324:2 1416:1 2263:1 7681:1 8288:1 #
-0.032029412407964440168139930165125 5:1 11:1 28:3 34:2 58:2 61:1 81:1 96:3 121:1 124:1 157:1 171:1 174:3 216:1 231:1 235:1 245:1 278:1 298:1 305:1 373:1 454:1 473:1 494:1 496:1 504:1 567:1 667:1 697:1 698:1 823:1 832:1 1170:1 1231:1 1618:1 2014:1 2242:1 2290:1 2408:1 2538:1 2659:1 3114:1 4952:1 5033:1 7044:1 7670:1 7671:1 #
-0.021145856552652980003825788912764 3:2 10:1 19:1 24:1 28:2 29:1 34:1 38:1 74:1 77:1 96:1 104:2 156:2 174:1 185:1 201:1 203:1 226:1 235:1 248:2 267:1 296:2 386:1 426:2 438:1 467:1 494:1 503:1 589:1 598:1 601:1 652:1 660:1 717:1 751:1 775:1 891:1 965:2 995:1 1146:1 1170:1 1295:1 1305:1 2226:1 2620:2 3088:2 4505:1 6340:1 6903:1 6904:1 6905:1 6906:1 6907:1 #
0.1112823101026678557223803522902 34:1 46:1 165:1 230:1 254:1 259:1 435:1 452:1 496:1 505:1 551:1 650:1 877:1 1201:1 1603:1 1900:1 2296:1 3956:1 4372:1 4373:1 4374:1 4375:1 #
0.058239454136485194202244031203008 11:2 28:1 44:1 486:1 494:1 570:1 589:1 698:1 832:1 948:1 1803:1 1985:1 2165:1 2290:1 2425:1 2782:1 5475:1 8172:1 8173:1 8174:1 8175:1 8176:1 #
-0.032491039011700986738340191095631 3:1 12:1 24:1 25:1 28:2 34:1 42:1 43:1 48:1 51:1 61:1 73:1 78:1 104:1 117:1 129:2 140:1 147:1 150:1 171:1 174:1 175:2 203:1 208:1 215:1 220:1 225:1 234:1 265:1 275:2 278:1 304:2 326:1 360:1 373:2 473:1 496:1 505:1 508:1 545:3 553:1 586:1 588:1 604:1 629:1 638:1 654:1 674:1 698:1 725:1 842:1 1010:1 1080:1 1195:1 1199:1 1221:1 1231:1 1283:1 1321:2 1325:1 1339:1 1397:1 1546:1 1676:1 1692:1 1722:1 1802:1 1836:1 2223:2 2389:1 2403:1 3794:2 4121:1 4730:1 5101:1 5454:1 5576:1 7429:1 8555:1 8556:1 8557:1 8558:1 8559:1 #
-0.012271759419165400445406177709629 3:1 13:1 15:1 28:3 34:1 48:1 61:1 62:1 66:2 73:1 78:1 80:1 82:1 89:2 90:1 96:2 102:1 104:2 107:1 116:1 129:1 136:1 141:1 150:1 162:1 166:1 168:1 174:3 200:1 202:1 203:1 214:1 215:1 230:1 234:1 235:1 241:1 249:1 251:2 281:1 289:1 325:2 330:1 336:1 345:1 379:1 386:1 468:1 478:1 505:1 528:1 545:1 547:1 553:1 567:1 580:1 598:1 654:1 660:1 683:1 694:1 746:1 813:1 847:1 864:1 874:2 878:2 904:1 905:1 924:1 934:1 1105:1 1122:1 1159:1 1244:1 1245:1 1258:1 1287:1 1338:1 1629:1 1643:1 1663:1 1760:1 1856:1 2021:1 2076:1 2268:1 2437:1 2625:1 2632:1 3802:1 4189:1 5143:1 5534:1 5535:1 5536:1 5537:1 5538:1 #
-0.012711392342463941063090970828853 11:1 13:1 28:1 34:1 47:1 61:1 74:1 77:1 78:1 89:1 96:1 108:1 152:1 171:1 174:2 200:1 204:1 205:1 224:1 243:1 278:1 303:1 318:2 350:1 359:1 372:1 386:2 394:1 454:1 473:1 536:1 574:1 671:1 823:1 849:1 863:1 927:2 1000:1 1072:1 1179:1 1220:1 1318:1 1580:1 1618:1 1690:1 1698:1 1719:1 1720:1 1983:1 2085:1 2093:1 2900:1 2994:1 3297:1 4238:1 4583:1 6207:1 6426:1 7366:1 7367:1 #
-0.0097149393615704009163902554746528 7:1 22:1 24:1 26:1 27:1 28:1 34:2 58:1 78:2 80:1 87:1 89:1 96:3 104:1 112:1 116:2 129:2 147:1 149:1 168:2 171:1 174:2 203:1 223:1 255:1 278:3 282:1 285:1 288:1 320:1 331:1 334:1 335:1 351:1 400:1 402:2 409:1 420:1 438:1 454:1 501:3 507:1 510:1 516:2 552:1 554:1 574:1 575:2 580:1 588:1 625:1 629:1 650:1 665:1 690:1 698:2 708:1 721:1 832:1 836:1 856:1 861:1 874:1 899:1 924:1 982:1 983:1 985:1 1047:1 1049:1 1188:1 1221:1 1293:1 1379:1 1416:1 1535:1 1582:1 1804:1 1955:1 2013:1 2022:1 2408:1 2426:1 2538:1 2668:1 2669:1 2670:1 2671:1 2672:1 2673:1 2674:1 #
-0.010994296973718824944610261695743 46:1 59:1 77:1 96:2 108:1 140:1 161:1 168:2 171:2 174:1 182:1 211:3 276:1 278:1 279:1 299:1 301:1 305:1 334:1 369:1 426:1 427:1 482:1 501:1 567:1 634:1 643:1 651:1 790:1 824:3 835:1 880:2 907:1 922:1 924:1 948:1 1051:1 1052:1 1063:1 1111:1 1127:1 1248:1 1308:1 1324:1 1387:1 1395:1 1667:1 2056:1 2620:1 4067:1 4207:1 5281:1 6908:1 6909:1 6910:1 6911:1 6912:1 6913:1 #
0.036427481810936995776373237276857 3:2 15:1 27:2 28:3 46:1 66:1 96:3 102:1 109:2 136:1 150:1 161:2 168:1 171:3 174:2 189:1 192:1 252:1 259:1 265:1 276:1 299:1 318:1 336:1 452:1 467:1 468:1 473:1 494:1 496:1 559:1 560:1 595:1 619:1 665:1 683:1 727:1 921:1 927:1 930:1 1023:1 1419:1 1528:1 2000:1 2290:1 2294:1 2447:1 2671:1 4383:1 4471:1 4644:1 6253:1 7155:1 #
-0.0097429071292402334020232856914845 10:1 13:1 28:3 36:1 39:1 62:1 96:2 174:1 200:1 235:1 252:1 265:1 326:1 336:1 360:1 410:1 537:1 545:1 626:1 688:1 758:1 763:1 779:1 1146:1 1222:1 1545:1 1585:1 1588:1 1686:1 1766:1 1905:1 1916:1 2165:1 2290:1 2386:1 2705:1 2980:1 2997:1 6579:1 #
0.055083984719732373425138405309553 4:1 28:1 34:3 58:2 66:1 109:1 122:1 174:3 190:1 222:1 235:2 236:1 259:1 264:1 279:1 373:1 406:1 423:1 445:1 454:1 482:1 579:1 664:1 719:1 824:1 1163:1 1195:1 1211:1 1373:1 1475:2 1538:1 1670:1 1788:1 2172:1 4591:1 #
-0.080143772941289159739142178295879 28:1 34:1 46:1 59:1 78:1 81:1 89:1 96:2 122:1 123:1 129:1 131:1 169:1 171:2 174:3 183:1 189:1 299:1 373:1 427:1 438:1 439:1 557:1 623:1 650:1 679:1 687:1 954:1 1028:1 1226:1 1444:1 1475:1 1694:1 1820:1 2173:1 3053:1 3673:1 3846:1 4355:1 4916:1 #
-0.038082855206435395345465622085612 5:1 11:2 12:1 26:1 28:2 34:1 43:1 48:1 51:1 85:1 96:2 118:1 121:1 150:1 203:1 234:1 235:1 239:1 259:1 265:2 369:1 427:1 474:1 480:1 501:2 516:1 600:1 761:1 763:1 787:1 824:1 880:2 887:1 1062:1 1211:1 1318:1 1470:1 1516:1 1581:1 2277:1 2449:1 3136:1 3528:1 4629:1 4630:1 4631:1 4632:1 4633:1 4634:1 #
-0.0087243381334585531211578413035568 4:1 9:1 10:1 15:1 19:1 28:3 31:1 34:1 38:1 43:1 58:1 66:3 77:2 89:1 96:4 102:2 104:1 116:2 129:1 140:1 145:2 149:1 150:1 161:1 174:4 185:1 189:4 203:2 204:1 205:1 211:1 222:1 251:1 265:2 274:1 280:1 289:1 299:1 308:1 317:1 318:1 400:1 406:1 427:3 454:2 467:1 468:1 471:1 473:1 474:1 528:1 530:1 535:1 536:1 537:1 587:3 598:1 608:1 650:1 682:2 687:1 715:1 746:2 771:2 775:2 843:1 857:1 874:2 927:1 945:1 950:2 1146:1 1195:1 1314:3 1376:2 1394:2 1427:1 1616:1 2017:1 2408:1 2632:1 2773:1 2994:1 3017:1 3026:1 3322:1 3760:1 4291:1 4492:1 6226:1 7939:1 7940:1 7941:1 7942:1 7943:1 7944:1 #
-0.026767156036589589279683920608477 11:1 12:1 18:1 34:1 67:1 81:1 87:1 89:1 96:2 109:1 118:1 129:1 156:1 174:1 211:1 265:1 318:1 369:1 393:2 436:1 437:1 442:1 478:1 553:1 620:1 671:1 708:1 760:1 797:2 828:1 877:1 962:1 1075:1 1381:1 1401:1 1698:1 1820:1 1857:1 2143:1 2144:1 2486:1 3343:1 3398:1 3708:1 3883:1 5611:1 6048:1 6160:1 6573:1 6574:1 6575:1 6576:1 #
-0.0295961655048956641389512611795 4:1 9:1 34:2 78:1 87:1 96:5 147:1 156:1 200:1 265:1 410:2 553:1 607:1 857:1 918:3 933:1 1146:1 1384:1 1483:1 1516:1 1762:1 1763:1 1812:1 1835:1 1836:3 1850:1 6125:1 6126:1 6127:1 #
0.026177069960263168318936877199121 6:1 10:1 28:4 31:1 38:1 58:1 67:1 81:1 89:1 96:2 104:3 106:2 129:1 131:1 143:1 145:4 174:1 183:2 185:1 201:1 204:1 205:1 230:1 255:1 265:1 304:1 308:1 325:1 326:1 337:1 373:2 438:1 445:1 482:1 505:2 627:1 629:1 685:1 697:1 708:2 746:1 748:1 759:1 763:1 778:1 790:1 843:1 874:1 877:1 878:1 929:1 945:2 1143:1 1184:2 1195:1 1415:1 1444:1 1543:1 1545:1 1802:1 1876:1 2014:1 2292:1 2388:1 2389:1 2390:1 2391:1 2392:1 2393:1 2394:1 2395:1 2396:1 2397:1 2398:1 2399:1 2400:1 2401:1 #
-0.0022097875981964727742923315645385 34:1 44:1 45:1 96:2 104:1 144:1 149:1 161:1 174:2 211:1 212:1 322:1 454:1 464:1 479:2 493:2 553:1 566:1 567:1 575:1 589:1 691:1 698:1 720:1 828:1 1027:1 1323:1 1350:1 1589:1 2021:1 2295:1 2832:1 3817:1 8275:1 8276:1 8277:1 8278:1 #
0.0048006554993400649827828274851527 3:1 20:1 26:1 28:4 34:1 38:2 56:2 58:1 59:1 77:1 80:2 85:1 96:2 100:1 108:1 117:1 140:2 150:1 152:1 168:1 169:2 171:1 195:1 200:2 205:1 237:1 255:1 277:1 279:1 282:1 285:1 286:1 351:2 404:1 405:1 475:1 482:1 486:1 580:2 659:1 685:1 698:1 712:1 727:1 763:1 797:1 843:1 862:1 876:1 886:1 918:1 921:2 924:1 950:1 964:1 1028:1 1143:1 1184:1 1268:1 1269:1 1276:1 1314:1 1343:1 1379:1 1416:1 1461:2 1541:1 1573:1 1603:1 1625:2 1643:1 1665:1 1722:1 1859:1 1962:1 2046:1 2148:1 2262:1 2296:1 2313:1 2518:1 2532:1 2624:2 2656:1 2871:1 2898:1 3025:1 3574:1 3594:1 3880:1 3922:1 4118:1 4187:1 4776:1 5068:1 6111:1 6348:1 6683:1 7533:1 7534:1 7535:1 7536:1 7537:1 7538:1 7539:1 7540:1 7541:1 7542:1 7543:1 7544:1 7545:1 7546:1 7547:1 7548:1 7549:1 7550:1 7551:1 7552:1 7553:1 7554:1 #
-0.034015745319644213884302530459536 9:1 15:2 22:3 28:1 51:1 58:2 82:1 89:1 96:1 116:2 150:1 163:1 169:1 204:1 205:1 264:1 285:1 289:1 294:1 296:1 336:1 338:1 407:1 410:1 494:1 496:2 518:1 530:1 569:1 574:1 587:1 632:1 698:1 779:1 874:1 1211:2 1213:2 1295:1 1870:1 2188:1 2511:1 3681:1 3742:1 3745:1 4894:1 #
-0.0056342191244041668618525164902167 15:1 24:1 28:1 34:1 38:1 41:1 42:1 53:1 67:1 81:1 107:1 110:2 129:1 132:1 153:1 154:1 174:1 190:1 227:2 236:1 264:1 285:1 318:1 410:1 439:2 457:2 510:1 536:1 562:1 598:1 636:1 648:1 650:1 698:1 758:1 762:1 779:1 862:1 927:1 1030:1 1056:1 1069:1 1213:1 1256:1 1289:1 1290:1 1308:1 1421:1 1523:1 1542:1 1594:1 1599:1 1603:1 1694:1 1720:1 1757:1 1894:1 2087:1 2247:1 2298:1 2409:1 2443:1 2918:1 3161:1 3189:1 3220:1 3297:1 3304:1 4379:1 5033:1 5512:1 6487:1 7952:1 8262:1 8263:1 8264:1 8265:1 8266:1 8267:1 8268:1 8269:1 8270:1 8271:1 #
0.016065357365861270694251672352948 11:1 15:2 19:1 26:1 28:4 34:1 51:1 66:1 78:1 96:1 110:1 141:1 145:1 169:1 195:1 303:1 327:1 335:1 372:1 379:1 403:1 463:1 491:1 526:1 660:2 685:1 697:1 728:1 848:1 880:1 905:2 909:1 982:1 1073:1 1195:1 1213:1 1231:1 1276:1 1444:1 1484:1 1694:1 1916:1 2014:1 2069:1 2075:1 2193:1 2354:1 2571:1 2777:1 3716:1 3724:1 4050:1 4334:2 4570:1 4841:1 5194:1 5695:1 5696:1 5697:1 5698:1 5699:1 5700:1 5701:1 5702:1 5703:1 5704:1 5705:1 5706:1 5707:1 5708:1 5709:1 5710:1 5711:1 5712:1 5713:1 5714:1 5715:1 5716:1 5717:1 5718:1 5719:1 5720:1 #
0.0047108571793754100767714909636652 10:1 15:1 28:1 34:1 76:2 78:1 81:1 100:1 102:1 106:1 129:1 140:1 142:1 150:1 161:1 174:3 232:1 264:1 265:1 286:1 303:1 320:1 327:1 385:1 405:1 439:1 580:1 626:1 746:1 823:1 857:1 909:1 924:1 1111:1 1127:1 1211:1 1305:1 1336:1 1338:1 1444:1 1528:1 1817:1 2126:1 2318:1 2456:1 2457:2 2458:1 2459:1 2460:1 2461:1 2462:1 2463:1 2464:1 2465:1 2466:1 2467:1 2468:1 2469:1 #
-0.0012445226304119948179671695243087 3:1 26:1 28:1 34:2 78:2 94:1 96:2 97:2 98:1 122:1 171:1 174:2 216:1 222:1 256:1 296:1 334:1 368:1 376:1 410:1 472:1 505:1 552:1 607:2 625:1 667:1 712:1 739:1 771:1 828:1 835:1 950:1 968:1 990:1 1067:2 1074:1 1097:1 1398:1 1411:1 1496:1 1641:1 1827:1 1878:1 2449:1 3103:1 3406:1 3561:1 4303:1 5101:1 5506:1 7285:1 7286:1 7287:1 #
-0.014058244065402117004004445277587 4:1 11:1 20:1 24:2 28:1 34:1 38:1 51:1 67:1 71:1 78:4 82:1 87:1 89:1 96:4 134:1 147:2 149:1 161:1 168:1 174:1 204:1 205:1 211:1 294:1 326:1 330:1 371:1 406:1 479:1 494:1 505:1 516:2 537:1 540:1 557:1 567:1 568:1 577:1 591:1 639:1 671:1 698:1 727:1 860:1 876:1 877:1 919:1 930:1 950:3 1256:1 1380:1 1410:2 1533:1 1842:1 2000:1 2671:1 3091:1 3099:1 3175:1 3662:1 3663:1 3726:1 5131:1 5210:1 5211:1 5212:1 5213:1 #
-0.016949398933482157092456077407405 3:1 10:1 28:3 34:1 38:1 48:1 77:1 78:2 94:1 96:2 103:1 110:1 114:1 145:3 150:1 156:2 159:2 198:1 204:1 205:1 225:1 228:1 233:1 234:1 265:1 274:1 278:1 296:2 312:1 331:1 358:1 367:1 410:3 425:5 438:1 463:1 471:1 521:1 540:1 569:1 574:1 601:1 791:1 797:7 814:1 824:1 839:1 971:1 1007:1 1018:1 1062:2 1211:1 1307:1 1381:2 1475:1 1542:1 1619:1 1629:1 1638:1 1673:1 1692:3 1709:1 1725:1 1812:1 2056:1 2162:1 2345:1 2408:1 2437:1 2740:1 2902:1 2917:1 3213:1 3756:1 3885:1 5461:1 5572:1 5948:1 5967:1 6917:1 7583:1 8551:1 8552:1 #
-0.024143483470972757626293869748224 13:1 20:1 25:1 34:2 68:1 87:1 96:2 104:1 108:1 117:1 130:1 145:1 171:1 174:2 265:1 331:1 386:1 436:1 437:1 479:1 505:1 508:1 576:1 636:1 687:1 726:1 828:1 839:1 918:1 921:1 1029:1 1457:1 1516:1 1526:1 3876:1 5358:1 6995:1 6996:1 #
0.019441348390308206550702863069091 10:1 19:1 28:1 81:1 116:1 169:1 174:1 233:1 241:1 486:1 510:1 565:1 727:1 768:1 772:1 881:1 929:1 1178:2 1226:1 1397:1 1640:1 1913:1 2346:1 2462:1 2882:1 2995:1 3927:1 4844:1 5879:1 5880:1 5881:1 5882:1 5883:1 #
0.034277787290896567784503901066273 3:1 11:4 13:1 28:2 34:1 39:1 81:1 96:2 171:1 200:1 251:1 269:1 285:1 296:1 299:1 320:1 335:1 427:1 454:1 456:1 457:1 487:1 496:1 508:1 516:1 551:2 600:1 607:1 628:2 654:1 694:1 1188:1 1318:1 1483:1 1824:1 3114:1 3891:1 3957:1 3958:1 3959:1 3960:1 3961:1 3962:1 3963:1 3964:1 3965:1 3966:1 #
0.039651694486261615524291812562296 3:1 24:1 28:4 38:1 48:1 61:1 62:1 63:1 66:1 67:1 71:1 77:1 78:4 80:1 81:1 89:1 104:1 157:3 159:1 161:1 174:1 189:1 205:1 206:1 211:1 235:3 236:1 242:2 243:1 274:1 304:1 325:1 410:1 540:1 545:1 567:1 607:1 644:1 652:1 654:1 697:1 834:1 872:1 907:1 950:1 967:2 1031:1 1127:1 1135:1 1416:2 1495:1 1634:1 2354:1 2532:1 2625:1 2994:1 3125:1 3169:1 3210:1 3612:1 3613:2 3614:1 3615:1 3616:1 3617:1 3618:1 #
0.0078844224836611097317895513469921 28:2 34:1 44:1 46:1 63:1 87:1 96:2 129:1 171:1 174:1 201:1 259:1 265:1 299:1 304:1 336:1 373:1 437:1 480:1 494:1 508:1 559:1 567:1 570:1 612:1 636:1 687:1 695:1 699:1 920:1 1023:1 2822:1 5416:1 6540:1 #
-0.0498955032002792453482697965228 4:1 11:1 13:1 28:2 34:1 38:1 44:1 46:1 68:1 96:4 104:1 108:1 123:1 129:1 145:1 198:1 200:1 234:1 242:1 259:1 265:2 299:1 410:1 420:1 437:1 452:1 474:1 545:1 547:1 678:1 697:1 720:1 768:1 836:1 857:1 862:1 876:1 878:1 916:1 1023:1 1080:1 1153:1 1193:1 1239:1 1408:1 1520:1 1525:1 1649:1 1778:1 1897:1 1900:1 2049:1 2165:1 2295:1 2297:1 2513:1 2514:1 2515:1 2516:1 2517:1 2518:1 2519:1 2520:1 2521:1 #
0.0081639179396389965209790418043667 3:1 13:1 28:1 34:2 47:1 58:1 72:1 96:3 102:1 104:1 116:1 121:1 129:1 141:1 149:1 156:1 168:1 174:1 211:1 256:1 259:4 279:2 310:2 320:1 337:1 358:1 406:1 410:1 426:1 454:1 493:1 510:1 516:1 569:1 575:2 629:1 660:1 690:1 697:1 739:1 872:1 874:1 1029:1 1063:2 1080:1 1173:1 1211:1 1279:1 1350:1 1423:1 1581:1 1622:1 1637:1 2204:1 2498:1 2804:1 2880:2 3017:2 3593:1 4335:1 4834:1 5879:1 7835:1 7836:1 #
0.0067626447589708444524392305652327 6:1 14:1 26:1 28:2 59:2 71:1 78:1 96:1 106:1 117:1 129:1 161:1 256:1 310:1 331:1 373:1 468:1 486:1 493:1 518:1 572:1 689:1 753:1 847:1 862:1 877:1 1041:1 1063:1 1077:1 1338:1 1411:1 1436:1 1457:1 1458:1 1520:1 1603:1 2051:1 2071:1 2072:1 2120:1 2369:1 2518:1 2769:1 3161:1 3197:1 3331:1 3419:1 3432:1 4298:2 4546:1 4847:1 5347:1 7884:1 7885:1 7886:1 7887:1 7888:1 #
-0.0081663575253349222210497160290288 15:1 20:1 25:1 28:1 34:1 52:1 66:1 87:1 96:1 108:1 140:1 149:1 174:1 200:1 208:1 211:1 218:1 235:1 252:1 253:1 259:1 260:1 265:1 278:2 337:1 467:1 607:1 655:1 797:1 878:1 918:1 1067:1 1138:1 1226:1 1770:1 1927:1 2051:1 2571:1 3092:1 3158:1 3655:1 4017:1 4068:1 4690:1 5445:1 6121:1 6131:1 7446:1 7447:1 7448:1 7449:1 7450:1 7451:1 7452:1 7453:1 7454:1 #
-0.018885752337260121314077565557454 3:1 4:1 10:4 11:1 15:1 28:4 34:1 44:1 58:1 66:1 81:2 82:1 89:1 96:4 109:3 112:2 136:1 140:1 146:1 149:1 161:4 168:1 171:1 174:2 175:1 200:1 229:1 230:1 234:1 241:1 247:1 278:1 279:1 291:1 296:2 303:1 305:2 330:2 425:1 438:2 482:1 508:1 580:2 619:1 623:1 629:1 654:1 659:1 660:1 666:1 711:1 712:1 746:1 806:1 813:1 824:1 839:1 857:1 863:1 877:3 910:1 917:1 1037:1 1112:1 1146:1 1161:1 1210:1 1211:1 1212:1 1321:1 1338:1 1339:1 1397:1 1401:1 1457:1 1461:1 1483:1 1525:1 1606:1 1643:1 1709:2 1809:1 2065:1 2084:1 2240:1 2281:1 2363:1 2364:1 2365:1 2366:1 2367:1 2368:1 2369:1 2370:1 2371:1 2372:1 2373:1 2374:1 2375:1 2376:1 2377:1 2378:1 2379:1 2380:1 2381:1 2382:1 2383:1 2384:1 2385:1 2386:1 2387:1 #
0.04187044293026700308990584176172 11:1 15:1 28:1 34:3 80:2 96:2 116:1 169:1 171:1 174:1 299:1 301:1 439:1 452:1 496:1 559:1 634:1 698:2 699:1 821:1 868:1 919:1 980:1 1030:1 1236:1 1279:1 1464:1 1475:1 1535:1 1742:1 2191:1 2588:1 5671:1 8040:1 8041:1 #
-0.023180465588147881883518408585587 3:1 10:1 13:1 19:1 22:1 28:2 30:1 35:1 38:1 44:1 46:2 48:1 56:1 58:1 63:1 66:1 67:1 78:1 96:2 104:3 106:1 122:1 147:1 168:1 177:1 200:1 265:1 299:1 320:1 330:1 336:1 410:1 426:1 505:1 567:2 588:1 632:1 654:4 683:1 768:1 824:1 864:1 881:1 902:1 906:2 945:2 1000:1 1056:1 1128:2 1146:1 2000:2 2272:1 2732:1 2834:1 3698:1 4918:1 7472:1 #
-0.021176183003756243045101470556801 14:1 19:1 27:1 28:2 34:2 66:1 77:2 78:1 96:1 116:1 145:1 149:1 171:1 195:1 262:1 285:1 459:1 496:1 510:1 552:1 620:1 652:1 760:1 821:1 824:1 872:1 930:1 1256:1 1962:1 2376:1 2659:1 2667:1 4178:1 7057:1 7370:1 8203:1 8388:1 #
0.030940825677072607974293916299757 6:1 28:3 34:1 39:1 44:1 49:1 73:1 96:3 112:1 140:1 149:1 161:2 166:1 174:1 203:1 212:1 215:1 285:1 289:1 321:1 342:2 343:1 404:1 457:1 467:1 506:2 528:1 545:2 559:1 587:1 681:1 695:1 698:2 712:1 720:1 727:1 790:1 857:1 892:1 924:1 985:1 998:1 1161:1 1167:1 1211:1 1266:1 1330:1 1419:1 1421:1 1458:1 1496:1 1509:1 1589:1 1634:2 1653:1 1676:1 1840:1 1900:1 2959:1 2995:1 3548:1 3740:1 3741:1 3742:1 3743:1 3744:2 3745:1 3746:1 #
0.048935211888951737901898297877779 20:1 28:2 44:1 96:2 106:1 171:2 204:1 205:1 230:1 236:1 458:1 494:1 572:1 671:1 706:1 918:1 957:1 1077:1 1241:1 1474:1 4320:1 7664:1 7665:1 #
-0.0067288560912820011283841381555249 10:1 34:2 59:1 66:1 80:1 96:1 100:1 108:1 112:1 129:1 145:1 150:1 174:2 200:1 228:1 298:2 299:1 301:1 369:1 386:1 410:1 425:1 438:1 454:1 494:1 607:1 619:1 620:1 634:1 644:1 719:1 813:1 828:1 985:1 1138:1 1146:1 1290:1 1475:1 1765:1 1766:1 2131:1 3099:1 3297:1 3483:1 3484:1 3485:1 3486:1 3487:1 #
0.011678713538515114733762345622381 10:1 28:3 48:1 201:2 249:1 259:1 260:3 264:2 326:1 337:1 373:1 457:1 609:1 619:1 843:1 880:1 924:1 1152:1 1188:1 1256:1 1421:1 1459:1 1603:1 1775:1 1856:1 1912:1 2744:1 3086:1 3119:1 3243:1 3723:1 3929:1 5096:1 7448:1 8582:1 8583:1 8584:1 8585:1 8586:1 #
-0.013228623688504276278976590219827 10:1 28:2 39:1 49:1 66:1 67:1 96:3 104:1 108:1 129:2 130:1 157:1 166:1 174:1 184:1 191:1 201:1 252:1 259:1 265:2 269:1 294:1 310:1 345:1 484:1 537:1 567:1 626:1 660:1 715:1 758:1 790:1 821:1 855:1 864:1 869:1 881:1 1140:1 1231:1 1244:1 1524:1 1581:1 1585:1 1587:1 1845:1 1937:1 1992:1 2000:1 2193:1 2698:1 3628:1 4420:1 4469:1 5499:1 5500:1 5501:1 5502:1 #
-0.0044058479981017861781822375633055 28:1 34:1 87:1 96:4 106:1 117:2 147:1 168:1 171:1 174:2 180:1 220:1 265:1 295:1 330:1 385:1 410:1 426:1 434:1 463:1 486:1 505:1 510:1 576:1 629:1 840:1 990:1 1002:1 1211:1 1556:1 1686:1 2511:1 2977:1 3030:1 3580:1 3928:1 4796:1 4797:1 4798:1 4799:1 4800:1 4801:1 #
-0.10504158229482754571826319534011 12:1 15:1 20:1 26:1 28:1 44:1 58:1 59:1 80:1 87:1 89:1 96:1 98:1 108:1 109:1 145:1 171:1 174:2 211:1 299:1 337:1 407:1 410:1 448:1 453:1 505:1 576:1 595:1 620:1 623:1 665:1 708:1 1077:1 1324:1 2815:1 4991:1 5746:1 #
0.0099579148773591905086099984600878 6:1 22:1 28:1 31:1 44:1 46:1 59:1 66:1 77:1 89:1 90:1 96:2 103:1 109:1 121:1 152:1 170:1 171:2 173:1 174:2 234:1 259:1 264:1 276:1 301:1 302:1 439:1 467:1 493:1 496:1 536:1 570:1 623:1 691:1 706:1 729:1 772:1 873:1 910:1 919:1 963:1 993:1 1020:1 1178:2 1285:1 1411:1 1575:1 4655:1 5133:1 6058:1 6232:1 6384:1 7696:1 8366:1 8367:1 #
-0.033992690468555061822364393719909 10:1 24:1 25:1 28:1 34:2 39:1 56:1 78:1 80:1 90:1 96:2 106:1 140:1 145:1 174:1 204:1 205:1 220:2 312:1 410:1 516:1 534:1 660:1 674:1 698:1 831:1 843:1 858:1 921:1 984:1 985:2 1018:1 1203:1 1292:1 1443:1 1469:1 1470:1 1471:1 1472:1 1473:1 1474:1 1475:1 1476:1 1477:1 1478:1 1479:1 1480:1 1481:1 1482:1 1483:1 1484:1 1485:1 1486:1 1487:1 #
0.048763725838250567001797008970243 11:1 15:1 20:1 24:1 34:1 46:1 56:1 58:1 67:1 96:2 118:2 142:1 150:1 174:1 204:1 205:1 234:1 325:1 326:1 340:1 494:3 536:1 580:1 644:1 654:1 660:1 685:1 689:1 731:1 750:1 905:2 908:1 924:1 990:1 1161:1 1376:1 1457:1 1797:2 1885:1 2037:1 2514:1 3310:1 3574:1 3618:1 4308:1 4567:1 4703:1 6456:1 6457:1 6458:1 6459:1 6460:1 6461:1 #
-0.02127692824555428227628617321443 38:1 96:2 102:1 104:1 122:1 149:1 174:1 222:1 241:1 257:1 285:1 297:1 304:1 505:1 673:1 708:1 715:1 1000:1 1560:1 1603:1 1766:1 2013:1 2158:1 2804:1 3069:1 5531:1 7367:1 8676:1 8677:1 8678:1 8679:1 8680:1 8681:1 #
-0.035298394455892043164446647551813 4:1 11:1 19:2 28:5 34:2 76:1 80:2 96:3 108:1 122:1 129:1 145:3 147:1 161:1 165:1 176:1 198:1 201:1 203:1 231:1 259:1 278:1 289:1 296:1 299:1 300:1 302:1 331:1 335:1 336:1 373:2 379:1 388:1 410:1 489:1 496:3 505:1 528:1 540:1 545:2 547:1 572:1 629:1 654:1 660:1 685:1 689:1 694:1 697:1 720:1 768:1 786:1 788:1 843:2 857:1 871:1 897:2 945:1 964:1 1000:1 1126:1 1161:1 1309:1 1370:1 1484:1 1575:1 1634:1 1839:1 1850:1 2133:1 2432:1 2544:1 2573:1 3017:1 3539:1 3546:1 3618:1 4160:1 4455:1 4645:1 7773:1 8105:1 8106:1 8107:1 #
-0.033517614052250538358990183951391 3:1 18:1 28:1 34:1 43:1 96:1 201:1 265:2 285:1 296:1 320:2 531:1 541:1 553:1 572:1 628:1 690:2 1235:1 1345:1 1410:1 1578:1 1686:1 1848:1 1850:1 2280:1 2698:1 2834:1 3060:1 3061:1 #
-0.022420014909405372449668902845588 24:2 28:4 34:1 35:1 39:2 51:2 72:1 77:2 81:1 96:1 102:1 112:1 118:1 161:3 168:1 173:1 174:1 190:1 203:1 204:2 205:2 225:1 234:1 251:3 259:1 265:1 275:1 276:1 278:1 279:1 280:1 285:2 337:1 369:2 370:1 388:1 394:1 400:1 402:1 454:2 467:1 473:3 482:1 506:1 508:1 607:2 644:1 746:2 753:1 762:1 823:1 853:1 857:1 892:1 905:1 1010:2 1068:1 1165:1 1332:1 1416:2 1458:1 1663:1 1698:1 1839:1 2290:1 2437:1 3505:1 3573:1 3747:1 3821:1 4106:1 4173:1 4220:1 4397:1 8739:1 8740:1 8741:1 8742:1 8743:2 8744:1 8745:1 #
-0.04361653078197550575945129480715 2:1 15:1 28:2 34:1 78:1 96:2 100:1 122:1 150:1 166:1 174:2 182:1 195:1 208:1 259:1 265:1 435:1 453:1 501:1 505:1 516:2 534:1 580:1 697:2 698:1 828:1 917:1 919:1 920:1 924:1 984:1 987:1 1063:1 1127:1 1153:1 1195:1 1565:1 2289:1 2426:1 3921:1 3969:1 4066:1 5093:1 5281:1 6643:1 7139:1 7398:1 8663:1 8664:1 #
-0.030863423807819485855663543816263 11:1 14:2 15:3 16:1 24:1 28:4 38:1 48:1 50:1 51:1 78:1 90:1 96:2 104:1 129:1 130:1 136:1 145:1 150:1 165:2 166:1 169:2 216:1 218:1 228:1 230:1 232:1 235:1 265:1 278:1 325:1 330:1 331:1 386:1 388:1 410:1 435:1 444:1 486:1 505:1 552:1 605:1 680:1 698:1 717:1 720:1 728:1 790:1 824:1 880:1 920:1 927:1 1067:1 1153:1 1161:1 1165:1 1211:1 1231:1 1289:1 1314:1 1397:1 1458:1 1552:1 1575:1 1682:1 1693:1 1804:1 1879:1 1987:1 1988:1 2062:1 2066:1 2165:1 2593:1 3016:1 3064:1 3096:1 3161:1 3598:1 3756:1 3759:1 4384:1 4727:1 5341:1 5518:1 6217:1 6218:1 6219:1 6220:1 6221:1 6222:1 6223:1 6224:1 6225:1 #
-0.012128346557816064091306351713229 10:2 11:1 28:2 29:1 35:1 38:1 52:1 81:1 96:1 116:2 185:1 200:1 233:1 236:1 261:1 265:2 482:1 554:1 659:1 691:1 824:3 948:1 1027:1 1120:1 1457:1 1470:1 1473:1 1484:1 1603:1 2551:1 2648:1 2868:1 3101:1 3573:1 4049:1 5964:5 6764:1 6765:1 6766:1 #
-0.01780767608137508867249820809775 3:1 20:1 28:1 34:3 40:1 90:1 96:3 117:1 122:1 129:1 130:1 166:1 214:2 228:1 231:2 251:1 259:1 289:1 305:1 327:1 402:1 410:1 567:1 697:1 720:1 749:1 768:1 828:1 877:1 934:1 992:1 1026:1 1063:1 1111:1 1298:1 1308:1 1929:2 2062:1 3091:1 5173:1 5296:1 5297:1 5298:1 5299:1 5300:1 5301:1 #
0.03122726152168298768829757250387 5:1 28:2 38:1 44:1 78:1 96:3 113:1 129:1 165:1 171:1 183:1 201:1 203:1 205:1 225:1 247:1 310:1 337:1 379:1 393:1 405:1 444:1 468:2 493:1 572:1 627:1 636:3 678:1 687:1 753:1 761:1 773:1 775:1 824:1 829:1 832:1 855:1 924:1 940:1 998:1 1126:1 1146:2 1152:1 1187:1 1318:2 1526:1 1559:1 1600:1 1695:1 1775:1 1850:1 1948:1 2019:1 2687:1 2800:1 5357:1 7025:1 8029:1 8030:1 8031:1 8032:1 8033:1 8034:1 #
0.028669166723325947149225711996223 22:1 28:1 50:1 73:1 89:1 93:1 96:5 104:1 108:1 141:1 169:1 174:3 233:1 238:1 286:2 402:1 473:1 567:1 697:1 821:1 848:1 849:1 850:1 851:1 852:1 853:2 854:1 855:1 856:1 857:1 858:2 859:1 860:1 861:1 862:2 863:1 864:1 #
-0.019363633482637598176578919151325 24:1 34:2 51:1 71:1 93:2 96:4 104:1 107:1 133:1 141:1 168:1 174:1 182:1 200:2 229:1 251:1 298:1 299:1 301:1 426:1 436:1 437:1 459:1 467:1 510:1 567:1 634:1 648:1 652:1 698:1 846:1 877:1 880:1 907:1 1127:1 1211:1 1339:1 1408:1 1692:1 1706:1 1713:1 2159:1 2273:1 2490:1 2620:1 2788:1 2815:1 2977:1 3018:1 3446:1 3618:1 3922:1 4980:1 5472:1 5473:1 5474:1 5475:1 5476:1 #
0.001237928947665956893806060712393 19:1 24:1 25:1 28:1 34:1 38:1 46:1 47:1 66:1 67:1 106:1 129:1 143:1 168:1 170:1 174:1 180:1 189:1 201:1 259:1 265:1 303:1 310:1 326:1 335:1 351:1 400:1 410:1 435:1 438:1 486:1 567:2 572:1 585:1 623:1 636:1 665:1 678:1 687:1 697:1 731:1 809:1 833:1 863:2 989:1 1056:1 1128:1 1148:1 1470:1 1516:1 2000:1 2014:2 2023:1 2728:1 3050:1 3061:1 4171:1 4244:1 5168:1 5169:1 5170:1 5171:1 5172:1 5173:1 5174:1 5175:1 #
0.003926890765274972452947288559244 34:2 44:1 59:1 96:1 100:1 117:1 153:1 171:1 174:1 212:1 265:1 299:2 301:1 302:1 334:1 423:1 456:1 463:1 478:1 494:1 508:1 570:1 575:1 671:1 687:1 702:1 719:1 753:1 1001:2 1122:1 1143:1 1318:1 1350:1 1406:1 1416:1 1475:1 2033:1 2051:1 2073:1 2131:1 3385:1 4875:1 5398:1 7989:1 7990:1 7991:1 7992:1 #
0.016622973654790127590041848293367 3:1 10:1 19:1 28:5 58:1 59:1 67:1 78:1 96:4 116:1 118:1 145:1 150:1 174:3 190:1 195:1 211:1 225:1 230:1 247:1 265:2 279:1 289:1 291:1 351:1 402:1 403:1 410:1 526:1 559:2 644:1 654:1 680:1 695:1 720:1 808:1 821:1 828:2 832:1 874:1 907:1 992:1 1000:1 1146:1 1195:1 1400:1 1426:1 1528:1 1804:1 1827:1 2002:1 3007:1 3032:1 3618:1 4165:1 5252:1 6349:1 7227:1 8096:1 8097:1 #
-0.0017696997419512951188469429553152 4:2 11:3 15:1 25:1 28:4 34:1 51:1 66:2 78:4 81:1 94:1 96:3 98:1 100:1 104:1 107:1 108:2 110:2 124:1 129:1 145:2 156:1 166:1 197:1 198:1 214:1 215:1 218:1 220:1 225:1 226:3 228:3 234:1 242:1 251:1 265:2 289:4 296:1 310:1 318:2 325:1 369:1 388:1 426:1 464:1 473:1 493:1 531:1 547:1 554:1 607:1 636:1 654:1 762:1 763:2 830:1 843:2 849:1 862:1 880:1 930:1 937:1 1062:3 1063:1 1084:1 1129:1 1159:1 1194:1 1211:1 1258:1 1416:1 1421:1 1457:1 1470:1 1520:1 1547:1 1605:1 1637:1 1842:2 1946:1 1994:1 2001:1 2120:1 2234:1 2279:1 2490:1 2620:2 2656:1 2898:1 3017:1 3419:1 3662:1 4048:1 4617:1 4974:1 5184:1 5185:1 5186:1 5187:1 5188:1 5189:1 5190:1 #
0.002925811323069064072421863187401 28:5 59:1 61:1 68:1 71:1 75:1 82:1 87:2 96:3 97:3 147:1 166:1 168:1 173:1 174:3 185:1 228:1 233:2 259:2 260:4 262:1 265:3 269:1 318:1 326:1 464:3 484:1 486:2 505:1 508:3 557:1 561:1 567:3 731:1 758:1 823:1 830:1 877:1 1165:2 1211:1 1608:1 1686:1 1690:5 1768:1 1840:1 1850:1 2010:1 2076:1 2800:1 2896:1 3428:1 3693:1 3715:1 3772:1 3947:1 4420:1 4463:1 4541:1 5143:1 5309:1 6826:2 7385:1 8658:1 8659:1 8660:1 8661:1 8662:1 #
0.0068367440021419468437757771539509 4:1 9:1 28:3 35:1 42:1 56:1 78:1 86:1 96:2 104:1 118:1 242:1 278:1 279:1 285:1 291:1 325:1 328:1 347:1 349:1 390:1 412:1 489:1 572:1 574:1 609:1 625:1 654:1 688:1 698:1 869:1 905:1 921:1 940:1 950:2 965:1 1013:1 1020:1 1041:1 1517:1 1549:1 1550:1 1588:1 1610:1 1722:1 2346:1 2388:1 2443:1 2557:1 2811:1 3030:1 3370:1 4836:1 5444:1 6881:1 6882:1 6883:1 6884:1 6885:1 6886:1 6887:1 6888:1 6889:1 6890:1 6891:1 #
0.011982806583489692686672611898757 28:1 96:1 116:1 195:2 299:1 372:1 501:1 508:1 715:1 847:1 910:1 1305:1 1411:1 1448:1 1458:1 3358:1 3370:1 3652:1 3947:1 4174:1 4175:1 4176:1 4177:1 4178:1 #
0.01078791746843080212592269617744 14:1 28:2 34:1 46:1 50:1 52:1 59:1 63:1 80:1 82:1 96:1 100:1 147:1 150:1 201:1 212:1 241:1 267:1 337:2 400:1 410:1 553:1 557:1 572:1 587:1 622:1 697:1 698:1 738:1 739:1 764:1 768:1 845:1 855:1 880:2 907:1 955:1 989:1 994:2 1079:1 1118:1 1444:1 1457:1 1471:1 1601:1 1674:1 1800:1 1898:1 1900:1 2074:1 2126:1 2263:1 2277:1 2289:1 2295:1 2329:1 2855:1 3056:1 3319:1 3593:1 3969:1 4253:1 4676:1 4802:1 5241:1 6017:1 6450:1 7064:1 7065:1 7066:1 #
-0.021430131056708261183540997762975 3:1 4:1 5:1 15:1 26:1 28:1 31:1 76:1 82:1 89:2 96:1 158:1 168:1 171:1 229:1 232:1 233:1 265:1 282:1 292:1 318:1 337:1 488:1 496:1 545:1 554:1 632:1 654:3 660:1 758:1 823:1 863:1 881:1 933:1 1000:2 1211:2 1213:1 1244:1 1258:1 1370:1 1416:1 1559:1 1766:1 1900:1 2000:1 2296:1 2346:1 2902:1 3114:1 3640:1 4467:1 8458:1 8472:1 8483:1 8484:1 #
0.0028596748649303274300570443244851 8:1 11:3 14:1 28:3 61:1 77:2 96:1 103:1 104:1 106:1 134:1 157:1 169:1 171:1 249:1 267:1 336:1 342:1 351:2 399:1 438:1 456:1 501:1 559:1 609:1 663:1 683:1 695:1 710:1 803:1 877:1 880:1 892:1 920:1 934:1 1073:1 1088:1 1188:1 1373:1 1411:1 1582:1 1618:1 1686:1 1836:1 1840:1 1851:1 1912:1 2156:1 2171:1 2431:1 3231:1 3311:1 3985:1 4435:1 4499:1 5163:1 6741:1 6742:1 6743:1 6744:1 6745:1 6746:1 6747:1 #
0.0041045719021645804547304692277976 11:1 15:1 22:1 26:1 28:3 34:2 66:1 68:1 77:1 81:2 82:1 96:4 102:1 104:1 107:1 129:1 134:1 138:1 142:2 150:1 154:1 174:3 200:1 211:1 212:1 259:1 299:1 337:1 369:1 403:1 405:1 423:1 427:1 428:1 468:1 473:2 486:1 494:1 496:1 516:3 536:1 557:2 569:1 575:1 582:1 635:1 644:1 694:1 697:1 736:1 771:1 775:1 811:1 836:1 877:1 880:1 957:1 993:2 1016:1 1017:1 1029:1 1062:1 1213:1 1226:1 1305:1 1324:1 1339:1 1426:1 1714:1 1755:1 1827:1 2263:1 3008:1 3017:1 3166:1 3463:1 3467:1 3726:1 3969:1 4196:1 4197:1 4198:1 4199:1 4200:1 4201:1 4202:1 4203:1 #
-0.068860334332251013633729996854527 28:1 49:1 52:1 96:1 104:1 129:1 171:1 180:1 414:1 663:1 671:1 952:1 985:1 1041:1 1416:1 1566:1 1640:1 2667:1 4001:1 4002:1 4003:1 #
0.049788830974053302491633132831339 96:3 118:1 142:1 150:1 169:1 174:2 217:1 265:1 278:1 296:1 425:1 575:1 589:1 607:1 729:1 828:1 985:1 1062:1 1165:1 1324:1 1355:1 1605:1 1643:1 1769:1 1907:1 1916:1 2168:1 2811:1 4093:1 4841:1 8403:1 #
-0.041718334952448817010139947569769 4:1 6:1 19:1 28:3 39:1 40:2 44:4 66:1 67:1 81:2 93:1 96:1 98:1 100:2 108:1 110:1 122:2 129:2 145:1 150:1 155:1 161:2 168:1 171:1 174:1 175:2 212:2 220:4 236:1 294:1 305:1 327:2 373:1 403:1 425:1 482:2 493:1 566:1 620:1 627:2 630:1 660:1 671:1 685:1 688:1 720:1 729:1 748:1 762:1 779:1 821:1 824:1 872:1 877:1 909:1 916:1 992:1 1211:1 1373:1 1441:1 1475:1 1538:1 1580:1 1589:3 1594:1 1595:1 1596:1 1597:1 1598:1 1599:1 1600:1 1601:1 1602:1 1603:1 1604:1 1605:1 1606:1 1607:1 1608:1 1609:1 1610:1 1611:1 1612:1 1613:1 1614:1 1615:1 1616:1 #
0.029472267392505593908147432102851 11:1 15:1 25:1 28:1 38:1 46:1 78:1 96:1 174:1 186:1 222:1 265:1 279:1 331:1 410:1 413:1 456:1 569:1 659:1 667:1 805:1 824:1 840:1 908:1 973:1 1097:1 1153:1 1239:1 1307:2 1397:1 1764:1 1948:1 2171:1 2267:1 2634:1 2907:1 3484:1 4717:1 5484:1 5485:1 5486:1 5487:1 5488:1 5489:1 5490:1 5491:1 5492:1 #
0.0028025616282336780413220189700496 13:2 15:1 24:2 26:1 28:1 34:1 43:1 51:1 67:1 76:2 78:1 90:1 96:2 100:1 104:1 129:1 144:1 150:1 161:1 168:2 169:1 173:1 198:1 201:1 203:1 204:1 205:2 211:1 220:1 237:1 267:1 277:2 278:1 284:1 285:1 308:2 330:1 335:1 372:1 383:1 405:1 420:2 475:1 496:1 506:1 550:1 626:1 627:1 634:1 660:1 698:2 717:2 732:1 746:1 772:1 775:1 787:1 806:1 924:1 1007:1 1041:1 1063:1 1138:1 1269:1 1296:1 1308:1 1390:2 1411:1 1430:1 1435:1 1444:1 1693:1 1786:1 2158:2 2295:1 2383:1 2423:1 3026:1 3080:1 3081:1 3082:1 3083:1 3084:1 3085:1 3086:1 3087:1 3088:2 3089:1 3090:1 3091:1 3092:1 3093:1 3094:1 3095:1 3096:1 #
0.02041190623331404913054498706515 15:1 28:1 34:2 59:1 87:1 96:2 106:1 112:1 121:1 122:1 171:2 174:3 211:1 227:1 265:2 299:2 318:1 372:1 410:1 437:1 464:1 493:1 508:2 559:1 569:1 572:1 625:1 695:1 877:1 881:1 909:1 915:1 1029:1 1067:2 1302:1 1372:1 1408:1 1534:1 1556:1 2131:1 2422:1 2822:1 3128:1 4062:1 6358:1 6500:1 6587:1 #
0.0020645050941547221125260680452129 3:1 9:1 11:1 19:1 22:3 28:1 34:4 39:1 42:1 43:1 44:2 56:1 66:1 73:1 96:3 112:1 116:2 124:1 131:1 156:1 157:3 168:1 174:1 175:1 214:1 242:1 273:1 292:1 299:1 312:1 326:1 327:1 330:1 337:1 407:1 420:1 437:1 452:1 473:1 480:1 488:1 567:1 619:1 638:1 687:2 690:1 698:2 715:1 720:1 729:1 760:1 772:1 779:1 821:1 832:1 874:1 881:1 920:1 921:1 971:1 994:1 1062:1 1097:1 1300:1 1308:1 1395:1 1499:1 1633:1 1820:1 1833:1 2014:1 2071:1 2172:1 2237:1 2298:1 3170:1 3457:1 3801:1 4141:1 4334:1 5341:1 5454:1 6427:1 7080:2 7398:1 7783:1 7784:1 #
0.035824259345008088728512518628122 4:1 5:1 10:1 20:1 26:2 28:3 34:1 44:1 52:1 66:3 78:1 94:1 96:4 104:1 122:1 149:1 171:2 203:1 204:1 205:1 212:1 218:1 230:1 234:1 235:1 265:1 280:1 296:1 299:1 350:1 369:1 452:1 454:1 505:1 537:1 545:1 567:1 572:2 590:1 607:2 619:1 639:1 654:1 828:1 874:1 904:1 918:2 927:1 948:1 1031:1 1358:1 1412:1 1416:1 1589:1 1630:1 1693:1 2191:1 2712:1 2713:1 2714:1 2715:1 2716:1 2717:1 2718:1 2719:1 2720:1 2721:1 2722:1 2723:1 2724:2 2725:1 2726:1 2727:1 2728:1 2729:1 #
0.0093859309853917879257201306586467 3:1 4:1 6:1 15:1 28:2 34:2 43:2 56:1 66:6 76:2 78:2 80:1 81:2 82:2 95:1 96:5 98:1 102:1 106:1 129:1 144:1 149:1 162:1 166:1 174:1 175:1 203:1 234:1 265:1 274:2 276:3 278:1 280:1 296:1 327:1 369:3 373:1 427:1 437:2 464:1 473:1 474:2 482:2 494:1 518:1 528:1 567:1 575:1 630:1 633:1 650:1 660:1 704:1 707:1 729:1 755:1 771:2 798:1 834:1 843:3 857:1 862:1 881:1 906:1 913:1 937:1 1010:1 1049:1 1086:1 1258:1 1290:1 1321:1 1383:3 1395:1 1408:1 1416:1 1419:1 1457:2 1649:1 1691:1 1839:1 1861:1 1871:1 2223:1 2277:1 2297:1 2722:1 2855:1 2996:1 3490:1 3889:1 4041:1 4689:1 5057:1 5803:1 5945:1 6497:1 6498:1 6499:1 6500:1 6501:1 #
-0.037671610004445632569058943772689 20:1 28:1 38:2 58:1 96:1 102:1 150:1 166:1 174:1 204:1 205:1 233:1 342:1 410:1 505:1 543:1 567:1 572:1 609:1 1184:1 1603:1 2093:1 3782:1 4565:1 6139:1 6140:1 6141:1 6142:1 6143:1 #
-0.011776762190368533084194879734241 10:1 28:1 48:1 66:1 77:1 132:1 145:1 203:1 204:1 205:1 222:1 241:1 304:1 335:1 379:1 410:1 438:1 467:1 505:1 536:1 568:1 580:1 824:1 829:1 927:1 952:1 1444:1 1535:1 1538:1 1543:1 1698:1 1797:1 1812:1 1861:1 1914:1 2378:1 2562:1 2667:1 4117:1 4825:1 7962:1 8186:1 8187:1 8188:1 8189:1 8190:1 8191:1 #
0.034225884320085046830239861037626 3:1 10:1 20:1 24:1 28:2 34:2 66:1 96:1 112:1 122:1 168:1 318:2 410:1 427:1 468:2 494:1 559:1 623:1 636:1 648:1 687:1 719:1 720:1 863:1 922:1 1035:1 1067:1 1314:1 1411:1 1577:1 1603:1 1618:1 3006:1 4088:1 5382:1 5383:1 5384:1 #
-0.044420742180158505341136532251767 11:1 15:2 20:1 24:1 28:1 31:1 34:2 36:1 43:1 51:1 61:1 78:1 80:1 95:1 96:1 122:1 131:1 145:1 149:1 174:2 180:1 200:1 201:1 218:1 234:1 242:2 337:1 371:1 406:1 410:1 454:1 526:1 545:1 559:1 614:1 697:1 698:1 708:1 750:1 905:1 909:1 924:1 985:1 1050:1 1051:1 1052:1 1053:1 1054:1 1055:1 1056:1 1057:1 1058:1 1059:1 1060:1 1061:1 1062:1 1063:1 1064:1 1065:1 1066:1 1067:1 1068:1 1069:1 1070:1 1071:1 1072:1 1073:1 1074:1 1075:1 1076:1 1077:1 1078:1 1079:1 1080:1 1081:1 1082:1 1083:1 1084:1 #
-0.0012786488111845070031469262517021 3:1 10:3 15:1 28:1 34:1 38:1 39:1 44:1 77:1 82:1 85:1 87:1 92:1 93:1 94:2 95:1 96:8 97:4 98:1 99:1 100:1 101:1 102:1 103:1 104:3 105:1 106:2 107:1 108:1 109:1 110:1 111:1 112:1 113:1 114:1 115:1 116:1 117:1 118:1 119:1 120:1 121:1 122:1 123:1 124:1 125:1 126:1 127:1 128:1 129:2 130:1 131:1 132:1 133:1 134:1 135:1 136:1 137:1 138:1 139:1 140:2 141:1 142:1 143:2 144:1 145:1 146:1 147:1 148:1 149:1 150:1 #
0.024754859842500247235630439490706 3:1 15:1 25:1 34:2 38:1 39:1 44:1 96:1 102:1 171:1 174:2 185:1 191:1 212:1 259:1 340:1 406:1 410:1 433:1 454:1 510:1 551:1 570:1 664:1 686:1 687:1 739:1 833:1 899:4 965:1 1112:1 1170:1 1193:1 1404:1 2000:1 2281:1 2544:1 2797:1 3940:1 5195:1 5544:1 5545:1 5546:1 #
0.028968612527202269174564364107027 3:1 15:1 28:2 34:1 48:1 61:2 96:2 102:1 143:1 150:1 168:1 174:2 203:1 276:1 279:1 454:1 464:1 468:1 484:1 528:1 620:1 622:1 688:1 712:2 720:1 755:2 791:1 1031:1 1056:1 1118:1 1122:1 1128:1 1186:1 1211:1 1412:2 1575:1 1674:1 1703:1 1827:1 2093:1 2188:1 2436:1 2620:1 2730:1 3821:1 4227:1 5143:1 5254:1 5930:1 #
0.040315802445616763516333946881787 10:1 20:2 28:1 44:2 81:1 96:3 118:2 168:2 171:2 174:1 236:1 242:1 301:1 302:1 406:2 445:1 496:2 560:1 567:1 572:1 623:1 663:1 739:1 824:1 957:1 1256:1 1358:1 1475:2 1533:1 2020:1 5200:1 8208:1 8209:1 #
0.018231493872966100106003395353582 28:1 53:1 66:1 95:1 96:1 108:1 109:1 171:1 259:1 269:1 410:1 504:1 589:1 709:1 727:1 821:1 824:1 957:1 1239:1 1809:1 1914:1 2172:1 2226:1 2267:1 2506:1 2658:1 3075:1 3076:1 3077:1 3078:1 3079:1 #
0.019139553962797498098957760248595 13:1 28:2 34:1 44:1 51:1 56:1 58:1 68:1 78:1 96:1 104:1 108:1 116:1 130:1 185:1 212:1 242:1 259:1 279:1 438:1 486:1 496:1 501:2 516:1 536:1 559:1 607:1 654:2 690:1 728:1 737:1 760:1 824:1 846:1 848:1 863:1 868:1 872:1 874:1 910:1 1053:1 1165:1 1195:1 1298:1 1603:1 1610:2 1661:1 1681:1 1835:1 1951:1 2014:3 2230:1 2290:1 2388:1 2408:1 2623:1 2624:1 2701:1 3021:1 3025:1 3210:1 3626:1 4895:1 8618:1 8619:1 8620:1 #
0.022221114812201930854840270512796 36:1 82:1 109:1 169:2 175:1 221:1 410:1 457:1 698:1 876:1 919:1 920:1 922:1 1264:1 1449:1 1555:1 1603:1 2776:1 4159:1 4277:1 4278:1 #
-0.11703453027303385713953076674443 20:1 28:1 34:1 44:1 147:1 168:1 234:1 299:1 403:1 406:1 410:1 443:1 504:1 505:1 727:1 922:1 1026:1 1962:1 2172:1 2195:1 4482:1 #
-0.0039650300866276065939186601383426 3:1 6:1 24:1 28:3 34:2 36:1 81:1 90:1 96:3 104:2 106:2 108:1 129:1 144:1 147:1 150:1 152:1 156:1 171:1 174:3 214:1 222:1 225:1 265:2 267:1 299:1 310:2 313:1 380:1 388:1 410:1 425:1 437:1 452:1 486:1 545:1 611:1 652:1 654:2 687:1 828:2 877:1 909:1 990:1 1105:1 1387:1 1415:1 1457:1 1629:1 1649:1 1708:1 1879:1 1891:1 1894:1 2172:1 2289:1 2297:1 2335:1 2798:1 2866:1 3447:1 4014:2 4367:1 4990:1 4991:1 4992:1 4993:1 4994:1 4995:1 4996:1 #
0.070165438793424877994553412463574 20:1 28:3 66:2 67:1 96:1 110:1 129:1 130:1 149:1 152:1 168:1 206:1 218:1 267:1 269:1 327:1 380:1 388:1 410:2 473:1 475:1 478:1 501:1 526:1 622:1 623:1 708:1 806:1 815:1 881:1 918:1 1000:1 1188:1 1272:1 1273:1 1314:1 1335:1 1397:1 1594:1 2470:1 2471:1 2472:1 2473:1 2474:1 2475:1 2476:1 2477:1 2478:1 2479:1 2480:1 2481:1 2482:1 2483:1 2484:1 2485:1 #
0.0039340751186819284193618706524376 3:1 4:1 5:1 9:1 11:1 16:1 22:1 24:2 28:11 34:1 43:2 44:2 46:1 52:1 53:1 58:1 66:7 67:1 76:1 78:2 80:1 81:1 88:1 89:1 96:9 102:1 104:3 106:1 112:1 116:1 122:1 129:4 134:1 144:1 145:1 150:2 152:1 153:1 155:1 161:5 166:1 169:2 173:1 174:4 189:3 203:1 204:1 215:1 216:1 230:1 232:1 235:1 236:2 243:1 265:5 278:3 285:1 296:1 308:1 320:3 325:1 327:1 337:1 347:1 369:1 423:1 427:3 445:1 452:1 453:1 482:1 496:1 501:1 523:1 531:1 538:1 547:1 567:3 570:1 575:1 613:1 627:1 628:1 629:1 650:1 651:1 654:1 660:1 663:1 671:1 676:1 682:1 689:1 691:1 697:1 711:1 712:1 720:4 725:1 731:1 746:1 806:1 819:1 824:1 834:1 855:1 863:1 877:5 880:1 881:2 921:2 924:2 944:1 993:1 1000:1 1010:1 1017:1 1041:1 1051:1 1052:2 1080:1 1118:1 1152:1 1177:1 1204:1 1213:3 1217:1 1221:1 1231:1 1290:2 1335:1 1416:1 1427:1 1457:1 1458:1 1528:1 1603:2 1610:1 1648:1 1692:1 1697:1 1722:1 1802:1 1830:1 1850:1 1955:1 2146:1 2159:1 2163:1 2346:1 2454:2 2462:1 2464:1 2625:1 2773:1 2890:1 2898:1 2925:1 2998:1 3062:1 3092:1 3134:1 3154:1 3211:1 3358:1 3457:1 3610:1 4156:1 4570:2 4739:1 4750:1 4754:3 4762:1 4886:1 5103:1 5104:1 5105:1 5106:1 5107:1 5108:1 5109:1 5110:1 5111:1 5112:1 5113:1 5114:1 5115:1 5116:1 5117:1 5118:1 5119:1 5120:1 5121:1 5122:1 5123:1 5124:1 5125:1 5126:1 5127:1 5128:1 5129:1 5130:1 5131:1 5132:1 #
-0.087306853107388240897712705645972 34:1 147:1 149:1 150:1 168:1 171:1 174:2 204:1 205:1 211:2 337:1 454:1 457:1 496:1 575:1 1026:1 1062:1 1376:1 1475:1 2172:1 2507:1 4615:1 4647:1 4856:1 4857:1 #
-0.078818552621537141256169434200274 28:1 34:1 174:1 265:1 330:1 410:1 508:1 698:1 1007:1 1026:1 1475:1 1671:1 4001:1 #
0.084257503558117063935384294381947 14:1 24:1 28:1 77:1 87:1 96:1 171:3 174:1 205:1 242:1 259:1 265:1 278:1 279:1 299:1 410:1 433:1 438:1 454:1 501:1 575:1 650:1 665:1 700:1 924:1 954:1 1028:1 1048:1 1188:1 1190:1 1390:1 1670:1 2815:1 3050:1 4178:1 4887:1 4888:1 4889:1 4890:1 4891:1 #
0.021060581620517829920524732756348 3:1 14:1 20:1 25:2 34:1 35:1 68:1 89:1 96:3 116:1 141:1 145:1 156:1 174:4 189:1 211:2 215:1 220:1 242:1 255:1 304:1 305:1 372:1 402:2 403:1 463:1 464:1 473:1 498:1 509:1 665:1 763:1 948:1 1073:1 1118:1 1119:1 1279:1 1304:1 1499:1 1713:1 1742:1 1879:1 2061:1 2294:1 3453:1 4063:1 4067:1 4165:1 4927:1 6038:1 7335:1 7559:1 7560:1 7561:1 7562:1 7563:1 7564:1 7565:1 #
-0.0034954750263216562838897161213936 10:1 11:1 19:1 28:2 34:2 38:3 39:1 74:1 77:1 82:2 96:2 107:1 114:1 129:1 147:1 149:1 171:1 174:1 279:1 296:1 299:1 388:1 452:1 468:1 496:1 506:1 536:1 545:1 567:1 569:1 587:1 618:1 636:2 659:1 729:1 732:1 763:1 772:1 779:1 862:1 881:1 891:1 895:1 1107:1 1129:1 1305:1 1575:1 1652:1 1671:1 1690:1 1723:1 1748:1 1850:1 2000:1 2192:1 2393:1 2532:1 2632:1 2933:1 3918:1 4657:1 4658:1 4659:1 4660:1 4661:1 4662:1 4663:1 4664:1 4665:1 4666:1 4667:1 4668:1 4669:1 4670:1 #
0.03066240562531129254519868254647 4:1 10:1 28:3 44:1 66:1 82:1 96:3 98:1 118:1 150:1 161:1 169:1 174:4 246:1 254:1 282:1 380:1 516:1 538:1 555:1 697:1 761:1 843:1 846:1 927:1 1184:1 1542:1 1879:1 2290:1 2295:1 2812:1 3253:1 3435:1 3457:1 3472:1 4048:1 4228:1 4229:1 4230:1 4231:1 4232:1 4233:1 4234:1 4235:1 4236:1 #
0.025482889611900261250809762714198 28:5 34:2 66:1 81:1 89:1 95:1 96:4 104:2 106:1 141:1 161:1 173:1 174:3 200:1 218:2 222:2 228:1 241:1 259:2 265:2 269:1 285:1 318:1 386:1 388:1 410:1 505:1 510:1 537:1 554:1 557:1 588:1 609:1 654:1 687:2 712:1 830:1 880:1 881:1 934:1 1080:1 1204:1 1211:1 1311:1 1493:1 1497:1 1571:1 1770:1 1861:1 1916:1 1988:1 2000:1 2290:1 2677:1 2941:2 3173:1 3404:1 3867:1 3868:1 3869:1 3870:2 3871:2 3872:1 3873:1 3874:1 #
0.027632330823484988618909952151625 3:1 15:2 24:1 28:2 39:1 80:1 81:1 96:7 149:1 222:1 228:1 234:1 269:1 280:1 296:2 312:1 345:1 391:1 402:1 508:1 547:1 687:1 828:1 863:1 937:1 1029:1 1097:1 1211:1 1563:1 1605:1 1649:1 1722:1 2188:1 2451:1 2898:1 5091:1 8257:1 8258:1 8259:1 8260:1 8261:1 #
-0.054540520435538149268683838499783 28:1 34:2 80:1 145:1 168:1 174:1 299:1 410:1 687:1 697:1 828:1 919:1 952:1 1256:1 1475:1 2078:1 5896:1 #
-0.022128309753105420559782245959468 3:3 4:1 15:2 18:1 28:5 31:1 34:1 43:2 78:2 80:1 81:1 96:4 104:1 108:1 140:1 152:1 161:1 165:1 174:3 198:1 200:1 201:1 203:1 218:1 227:1 230:1 242:1 264:1 265:1 269:1 275:1 277:1 278:1 279:6 305:1 325:1 360:1 370:1 386:2 410:1 444:1 475:1 494:1 496:1 506:3 535:1 540:1 545:1 547:1 587:1 627:1 649:1 720:1 788:1 857:1 862:1 866:1 869:1 880:2 910:1 918:2 920:2 924:2 1126:1 1146:1 1167:1 1293:1 1314:3 1380:1 1479:1 1484:1 1509:1 1647:1 1673:1 1677:1 1872:1 1912:1 2059:1 2620:1 2767:1 3035:1 3723:1 3751:1 4835:1 4912:1 4913:1 4914:1 4915:1 #
0.052471108495303321606062496584855 6:1 9:1 15:1 19:2 34:1 44:1 46:2 80:1 96:2 141:1 174:2 228:1 232:1 264:1 308:1 369:1 388:1 516:1 689:2 720:1 874:1 880:1 910:1 1286:1 1447:1 1516:1 1776:1 2188:1 2290:1 2561:1 2562:1 2563:1 2564:1 2565:1 2566:1 2567:1 2568:1 2569:1 2570:1 2571:1 2572:1 2573:1 2574:1 2575:1 2576:1 2577:1 2578:1 #
-0.24843091713026455025215000205208 34:1 96:1 104:1 141:1 171:1 241:1 410:1 452:1 496:1 739:1 1028:1 1686:1 1850:1 8431:1 8432:1 #
0.013731322210375937822868230853146 4:1 5:1 11:1 25:2 28:3 44:1 66:1 78:1 96:2 104:1 109:1 121:2 130:1 145:2 174:1 200:1 262:1 299:1 310:1 311:1 370:1 399:1 410:1 433:1 438:1 474:1 593:1 619:1 877:1 919:1 921:1 934:1 1067:1 1187:1 1188:1 1203:2 1480:1 1686:1 1694:1 1812:1 1850:1 2085:1 2202:1 2450:1 3165:1 3457:1 4036:1 4067:1 8694:1 8695:1 8696:1 #
0.016708943632620740921135293888256 4:1 28:2 34:1 39:1 46:2 66:1 72:1 81:1 87:1 93:1 96:3 97:1 107:1 108:1 123:2 124:1 130:1 141:1 171:5 174:2 175:1 242:1 265:1 350:1 369:1 468:1 486:1 494:2 580:1 595:1 644:1 671:2 687:2 690:1 699:2 763:1 790:1 876:1 906:1 933:1 1010:1 1444:1 1528:1 1577:1 1599:1 1748:3 1777:1 2179:1 2223:2 2658:1 3285:1 3447:1 3463:1 3662:1 4138:1 6460:1 7699:1 7790:1 7791:1 7792:1 7793:1 #
0.030576343434355550410241875169959 15:1 24:1 28:4 34:2 38:1 41:1 42:1 51:2 52:1 53:3 73:1 77:1 78:1 80:2 96:1 104:1 108:1 130:1 145:1 150:1 161:1 165:1 174:1 200:1 201:2 203:2 218:2 235:1 254:3 262:1 265:1 279:1 312:1 337:1 367:1 368:1 403:1 404:1 410:1 454:1 501:1 509:1 516:1 523:1 547:1 554:1 567:1 621:1 772:2 773:1 786:1 824:1 849:1 881:1 904:2 920:1 924:2 927:1 929:1 1063:1 1146:1 1165:1 1427:1 1484:1 1605:2 1625:1 1800:1 1812:1 1851:1 1861:2 1874:1 1966:1 2467:1 2507:1 2624:1 3025:1 3105:1 3953:1 4138:1 5044:1 6010:1 6012:1 6187:1 6847:1 7134:1 7256:1 7334:1 #
0.044693737588578821839924160030932 11:2 20:1 34:2 58:1 87:1 90:1 96:2 104:1 129:2 134:1 144:1 150:1 174:1 222:1 265:1 385:1 410:2 438:1 457:1 482:1 553:2 575:1 576:1 697:1 779:1 828:1 874:1 922:1 933:1 1029:1 1074:1 1380:1 1444:1 1603:1 2053:1 2788:1 3818:1 4369:1 4525:1 6468:1 6469:1 6470:1 #
0.11262156669723474844424515595165 19:1 34:1 108:1 109:1 156:1 299:1 373:1 437:1 468:1 687:1 921:1 937:1 2815:1 4539:1 4540:1 #
0.018865857243525088748903328905726 24:1 25:1 34:1 42:1 68:1 78:1 96:3 98:1 104:1 112:1 121:1 168:1 174:1 204:1 205:1 299:1 330:1 369:1 390:1 453:1 464:1 557:1 559:1 566:1 654:1 764:1 882:1 957:1 1047:1 1053:1 1086:1 1087:1 1211:1 1381:2 1387:1 1412:1 1524:1 1533:1 1686:1 1850:1 1962:1 2056:1 2452:1 2789:1 3995:1 3996:1 3997:1 3998:1 3999:1 4000:1 #
0.09113402938604538150446643385294 24:1 28:2 96:1 104:1 116:1 145:1 201:1 264:1 286:1 289:1 318:1 508:1 815:1 855:1 995:1 1381:1 1475:1 1566:1 1623:1 2980:1 5723:1 5724:1 #
0.003236056010977535896122603276126 10:1 15:1 19:1 24:2 28:5 38:2 43:1 48:1 61:1 66:1 67:1 71:1 73:2 75:1 78:1 108:1 140:1 144:1 154:1 161:1 165:1 175:1 198:1 200:2 201:1 203:2 204:1 205:1 211:1 221:1 234:1 249:1 256:2 259:1 265:1 276:1 278:1 289:2 292:1 299:1 325:1 335:2 338:1 351:1 372:1 380:1 409:1 464:1 473:1 545:1 547:1 570:1 609:1 620:1 623:1 624:1 635:1 694:1 715:1 717:1 726:1 775:1 787:1 924:1 950:1 1010:1 1037:1 1065:1 1067:1 1098:1 1211:1 1285:1 1295:1 1391:1 1417:1 1427:1 1545:1 1850:2 1900:1 2378:1 2624:1 2640:1 2773:1 2931:1 3191:1 3592:1 3715:1 3887:1 5034:1 5277:1 5525:1 5526:1 5527:1 5528:1 5529:1 5530:1 5531:1 5532:1 5533:1 #
-0.012490665056563121995680809561691 3:1 15:1 24:1 25:2 26:1 28:3 34:3 44:3 58:1 87:1 96:3 109:1 110:1 116:1 122:1 129:2 168:2 169:1 171:1 189:1 200:1 212:1 229:1 235:1 236:1 265:2 299:1 312:1 330:1 331:1 368:1 369:1 403:2 410:1 453:1 486:1 496:1 548:1 549:1 550:1 551:1 552:1 553:1 554:1 555:1 556:1 557:1 558:1 559:1 560:2 561:1 562:1 563:1 564:1 565:1 566:1 567:1 568:1 569:1 570:1 571:1 572:1 573:1 574:1 575:1 576:1 577:1 #
-0.025824569268054847759330527878774 3:1 5:1 10:1 22:1 28:1 106:1 168:1 174:2 211:2 216:1 228:1 265:1 541:2 720:2 790:1 824:1 954:1 1127:1 1145:1 1304:1 1338:1 2171:1 2379:1 4303:1 5753:1 5754:1 #
-0.0044316285847528702132591682527618 4:1 6:1 25:1 28:1 34:2 58:1 72:1 85:1 87:1 96:3 129:1 149:1 168:1 174:5 228:1 289:1 325:1 336:1 403:1 410:1 420:1 437:1 439:1 444:1 510:1 536:1 541:1 591:1 627:2 654:1 660:1 665:1 685:1 709:1 905:1 919:1 922:1 950:1 986:1 1062:1 1230:1 1350:1 1441:1 1879:1 1916:1 2004:1 2015:1 2157:2 2388:1 2462:1 3171:1 3779:1 4968:1 5521:1 5522:1 5523:1 5524:1 #
0.014174947391924437589683094529391 11:1 15:2 28:2 29:2 34:1 44:1 52:1 53:1 90:1 96:1 104:1 106:1 108:1 116:1 122:1 123:2 140:1 156:1 161:1 165:1 166:1 174:1 175:1 237:1 241:1 260:1 265:1 299:1 337:1 464:1 473:1 494:2 559:1 567:1 580:1 624:1 694:1 695:1 698:1 768:1 797:1 887:2 918:1 929:1 944:1 990:1 1024:1 1143:1 1165:1 1575:1 1643:1 1686:1 1710:1 1850:2 1885:1 1952:1 2021:1 2051:1 2113:1 2515:1 2885:1 3396:1 3610:1 3696:1 4319:1 4420:1 4555:1 5884:1 5885:1 5886:1 5887:1 5888:1 5889:1 5890:1 5891:1 5892:1 5893:1 5894:1 5895:1 #
0.059386117365068762097290999690813 5:1 15:1 30:1 34:2 44:2 87:1 89:1 96:3 104:1 106:1 116:1 121:1 171:1 174:1 211:1 212:1 265:1 299:1 337:1 403:1 425:1 508:1 570:1 576:1 589:1 604:1 680:1 690:1 828:1 930:1 1128:1 1204:1 1324:1 1406:1 1458:1 1467:1 1563:1 1694:1 1827:1 1952:1 2193:1 2732:1 2908:1 3619:1 3818:1 5055:1 5235:1 5878:1 #
0.040412414924187164966262741927494 3:1 9:1 12:1 15:1 19:1 39:2 59:1 85:1 137:1 212:1 235:2 305:1 330:1 410:1 452:1 493:1 557:1 697:1 698:1 768:1 969:1 1211:1 1416:1 1467:1 1538:1 2159:1 2398:1 2676:1 2944:1 2945:1 2946:1 2947:1 2948:1 2949:1 2950:1 2951:1 2952:1 2953:1 2954:1 2955:1 #
-0.011835560854681842837821115210772 4:1 24:3 25:1 27:1 28:2 34:1 39:1 41:2 67:1 77:1 78:2 81:2 87:1 96:2 109:1 123:1 129:2 130:1 147:1 149:1 168:1 169:1 200:1 218:1 279:1 337:1 369:1 372:1 402:1 410:1 452:3 478:1 493:1 494:1 495:1 559:1 574:1 607:1 623:1 625:2 627:1 690:1 691:2 697:1 698:1 708:1 762:1 821:1 872:1 877:1 882:1 990:1 996:1 997:2 1026:1 1027:2 1028:1 1029:1 1030:1 1031:2 1032:1 1033:1 1034:1 1035:1 1036:1 1037:1 1038:1 1039:1 1040:1 1041:2 1042:1 1043:1 1044:1 1045:1 1046:1 1047:1 1048:1 1049:1 #
-0.048797345370849461165807525730997 28:1 38:1 90:1 96:1 108:1 129:1 203:1 231:1 232:1 239:1 245:1 278:1 289:1 292:1 296:1 337:1 367:1 390:1 601:1 607:1 632:1 728:1 933:1 1066:1 1067:1 1152:1 1211:1 1324:1 1325:1 1326:1 1327:1 1328:1 1329:1 1330:1 #
-0.007003505958804057129896136757452 3:1 9:1 10:2 11:1 13:1 17:1 24:3 28:4 34:2 35:1 38:2 39:1 56:1 80:2 96:3 108:2 129:1 141:1 149:1 161:1 166:1 168:1 174:1 200:1 203:1 204:1 205:2 230:1 231:1 234:1 235:3 236:1 251:1 265:2 269:1 278:1 285:1 291:1 325:1 369:1 376:1 404:1 545:1 553:1 598:1 622:2 629:1 712:1 720:1 739:1 758:1 789:2 790:1 803:1 824:1 855:1 899:2 924:1 985:1 994:1 1063:1 1150:1 1318:1 1376:1 1416:1 1427:2 1770:1 1830:2 1962:1 2172:1 2179:1 2290:1 2673:1 2773:1 2848:2 2957:1 2994:1 3170:1 3212:1 3670:1 3671:1 3672:1 3673:1 3674:1 3675:1 3676:1 3677:1 3678:1 3679:1 3680:1 #
-0.003529353825754859286245590510589 20:1 28:3 72:1 96:3 104:4 122:1 147:1 174:3 252:1 259:1 406:1 413:1 464:1 466:1 505:1 531:1 660:1 667:1 698:1 862:1 1212:1 1397:1 1459:1 1493:1 1682:1 1686:2 1766:1 1850:1 1900:1 1905:1 1908:1 2788:1 2997:1 2998:1 2999:1 3000:1 3001:1 3002:1 3003:1 3004:1 3005:1 3006:1 3007:1 3008:1 3009:1 3010:1 3011:1 3012:1 3013:1 3014:1 #
0.019247001778083628470428223522504 13:1 15:2 19:1 20:1 24:1 28:3 34:1 59:1 78:2 94:1 96:7 106:1 108:1 110:2 114:1 116:2 117:3 122:1 129:1 140:1 161:1 168:2 174:2 201:1 203:1 204:1 205:2 230:1 231:3 232:1 252:1 265:1 275:1 285:2 291:1 304:2 325:2 337:1 360:1 379:1 386:1 390:1 407:1 408:1 494:1 496:2 509:1 545:2 557:1 559:1 567:2 576:1 592:1 619:1 683:1 687:3 694:2 720:1 729:1 738:1 746:1 788:1 819:1 821:3 824:1 850:1 909:1 921:1 964:1 965:1 992:2 1000:2 1007:2 1016:2 1035:1 1145:1 1165:1 1179:1 1269:1 1300:1 1301:1 1302:1 1303:1 1304:1 1305:2 1306:1 1307:1 1308:2 1309:1 1310:1 1311:1 1312:1 1313:1 1314:1 1315:1 1316:1 1317:1 1318:1 1319:1 1320:1 1321:1 1322:1 1323:1 #
-0.012697935794095806943948545608691 11:1 13:1 26:1 28:4 34:1 38:2 39:1 46:1 67:1 80:1 96:4 104:1 107:2 108:1 117:2 145:1 174:2 183:1 200:1 203:2 235:3 236:2 251:1 259:1 294:1 304:2 318:1 325:2 367:1 376:1 399:1 434:1 505:1 526:2 536:1 545:1 547:1 567:1 598:1 608:1 613:1 691:1 883:1 903:1 904:1 924:2 937:1 955:1 1062:1 1143:2 1144:1 1145:1 1146:1 1147:1 1148:1 1149:1 1150:1 1151:1 1152:1 1153:3 1154:1 1155:1 1156:1 1157:1 1158:1 1159:1 1160:1 1161:1 1162:1 1163:1 1164:1 1165:1 1166:1 1167:1 1168:1 1169:1 1170:2 1171:1 1172:1 #
-0.0079823959869767622393732509067377 10:1 28:4 43:1 44:1 49:1 66:1 77:1 89:1 169:1 211:1 222:1 225:1 231:1 235:1 236:2 242:1 252:1 259:1 265:1 278:1 285:1 317:2 332:1 386:1 392:1 409:1 441:1 474:2 486:1 505:1 507:1 537:3 589:1 609:1 610:1 650:1 678:1 828:1 853:1 878:1 881:1 990:1 1073:1 1190:1 1204:1 1211:3 1308:1 1326:1 1382:1 1564:1 1624:1 1641:1 1665:1 1692:1 1884:1 1924:1 1936:1 2351:1 2437:1 2443:1 2573:1 2623:1 2800:1 3028:1 3627:1 4517:2 6852:1 8068:1 8069:1 8070:1 8071:1 #
-0.018228642358333203149500789663762 3:1 4:2 9:1 15:1 28:2 34:2 38:2 46:2 58:1 61:2 67:1 77:1 82:1 89:2 96:4 102:1 108:1 114:1 122:1 129:1 149:1 157:1 161:1 165:1 168:1 174:3 197:1 200:1 203:2 204:1 205:1 208:1 235:1 236:1 252:1 265:1 285:1 304:1 318:2 336:1 347:1 351:1 367:1 368:1 388:1 433:1 444:1 454:1 484:1 531:1 538:1 547:1 569:1 572:1 575:1 586:2 609:1 659:1 691:1 734:1 762:2 773:1 797:1 824:1 853:1 874:1 880:1 994:2 1027:1 1037:1 1140:1 1210:1 1311:1 1736:1 1770:1 1856:1 2126:1 2217:1 2290:1 2562:1 2687:1 2754:1 2841:1 2866:1 3105:1 3358:1 3592:1 3760:1 4203:1 5156:1 5530:1 6744:1 6919:1 8542:1 8699:1 8700:1 8701:1 8702:1 8703:1 #
0.04690134803379469169426485564145 15:1 28:1 34:1 36:1 58:1 66:1 96:1 129:1 134:1 171:2 174:3 200:2 201:1 214:1 215:1 233:1 251:1 265:1 330:1 371:1 385:1 400:1 405:1 407:1 410:1 501:1 510:1 619:1 623:1 665:1 697:1 706:1 755:1 756:1 779:1 880:1 919:1 1173:1 1538:1 1976:1 2330:1 2703:2 3751:1 4395:1 4482:1 8092:1 8093:1 8094:1 8095:1 #
-0.0096564223767690530314533603473137 5:1 10:2 13:1 15:1 24:1 28:2 38:1 46:1 66:1 80:2 81:1 89:1 96:2 104:2 108:1 118:1 124:1 129:2 149:2 156:1 161:2 173:1 198:2 227:1 235:1 241:1 248:1 249:1 262:1 281:1 285:2 289:1 304:1 308:1 317:1 337:1 345:1 348:1 349:1 350:1 351:4 400:1 484:1 506:2 555:1 574:1 617:1 626:2 644:2 682:1 732:1 749:1 775:1 862:1 881:1 905:1 907:2 912:1 950:1 1010:1 1211:1 1366:1 1394:1 1410:1 1416:1 1427:1 1433:1 1475:1 1538:1 1575:1 1673:1 1766:1 1879:1 1988:1 2191:1 2364:1 2462:1 2468:1 2683:1 2775:1 3136:1 3351:1 3698:1 3715:1 4100:1 5156:1 6130:1 7260:1 8216:1 8217:1 8218:1 8219:1 8220:1 8221:1 #
-0.091778967242126835435200860047189 28:1 30:1 39:1 96:1 140:1 255:1 299:1 330:1 410:2 422:1 438:1 494:1 505:1 619:1 671:1 919:1 964:1 1171:1 1239:1 1543:1 1603:1 1722:1 3270:1 3271:1 #
-0.0016925218800601157104201988090608 19:1 24:1 25:1 28:2 32:2 34:1 63:1 78:1 81:1 107:1 129:1 174:1 269:1 292:1 301:1 336:1 410:1 437:1 634:1 666:1 689:1 797:1 862:1 882:1 904:1 920:1 954:1 1127:1 1211:1 1226:1 1269:1 1408:1 1412:1 1481:1 1694:1 1857:1 1916:1 2298:1 2437:1 3069:1 3514:1 4020:1 4334:1 5874:1 6552:1 6594:1 6595:1 6596:1 6597:1 #
-0.014928718679714599384955597827229 3:1 13:1 26:1 28:8 34:1 38:1 39:1 49:3 78:3 81:2 87:1 89:2 96:6 100:1 102:1 104:1 129:1 149:1 152:1 161:2 168:1 174:6 200:2 201:1 208:1 211:1 225:1 230:1 233:1 251:2 254:1 265:2 318:1 325:1 330:1 360:1 373:1 402:1 404:1 471:2 501:1 547:1 568:1 580:1 585:1 598:1 709:1 726:1 758:1 772:1 775:2 779:1 793:1 855:1 1007:1 1010:2 1047:1 1084:1 1221:1 1290:1 1338:2 1376:1 1470:1 1599:1 1634:1 1702:1 1708:1 1755:1 1862:1 1871:1 1996:1 2033:1 2037:1 2277:1 2524:1 2620:1 2955:1 3176:1 3211:1 3720:1 3846:1 3848:1 3881:1 4286:1 4730:1 5538:1 5625:1 6128:1 6129:1 6130:1 6131:1 #
0.0040372594150097093970708250765256 28:1 34:2 46:1 74:1 78:1 80:1 94:1 96:1 117:1 122:1 161:1 171:1 174:2 185:1 201:1 211:1 216:1 228:1 262:1 298:1 301:1 302:1 310:1 330:1 452:1 456:1 480:1 481:1 575:1 619:1 671:1 678:1 727:1 868:2 1031:1 1051:1 1052:1 1067:1 1254:1 1294:1 1426:1 1533:1 2074:1 2120:1 2471:1 2740:1 2815:1 3210:1 3446:1 4697:1 5398:1 5982:1 6942:1 8408:1 8409:1 8410:1 8411:1 8412:1 8413:1 #
0.062419341484277551801440608869598 24:1 34:2 48:1 71:1 77:1 78:2 87:1 96:5 100:1 104:2 123:1 129:1 161:1 166:1 174:3 235:1 285:1 371:1 400:1 425:2 452:1 454:1 457:2 496:1 537:2 552:1 559:1 576:1 588:1 590:1 620:1 628:1 644:1 682:1 720:1 749:1 824:1 828:1 839:1 882:1 918:1 1041:1 1053:1 1067:1 1184:1 1309:1 1325:1 1326:1 1404:1 1458:1 1474:1 1521:1 1619:1 1629:1 1979:1 1983:1 2994:1 4284:1 6040:1 6146:1 6147:1 #
-0.018826715547677085049738110456019 4:3 10:1 11:1 19:1 52:1 96:4 107:1 116:3 152:1 160:1 161:1 166:1 229:1 294:1 403:1 444:1 471:1 482:1 488:2 528:1 623:1 629:1 746:1 779:1 790:2 806:1 834:1 874:1 904:1 1056:1 1120:1 1128:1 1387:2 1797:1 1952:1 2018:1 2667:1 2788:1 4452:1 5428:1 5429:1 5430:1 #
-0.015888789295288165831498972124791 4:1 28:1 34:1 96:1 104:1 107:1 122:1 130:1 131:1 171:1 235:1 265:1 318:1 439:1 467:1 495:1 567:1 575:1 588:1 763:1 835:1 1049:1 1237:1 1238:1 1239:1 1240:1 1241:1 1242:1 #
0.0025586295231936665404981479099433 10:1 11:1 13:2 19:1 24:1 28:7 34:1 38:1 42:1 61:1 62:1 66:2 77:2 78:2 80:1 93:1 96:7 102:2 104:4 108:1 116:1 117:2 129:2 141:1 145:3 147:1 149:1 152:1 156:1 161:1 168:1 174:2 197:1 200:1 203:2 204:6 205:5 206:1 207:2 216:1 220:1 221:1 222:2 225:1 226:2 230:1 233:1 235:1 251:1 252:1 265:2 273:1 279:1 285:4 290:1 295:1 304:1 319:1 342:1 351:1 358:1 367:1 371:1 373:1 397:1 410:2 433:1 448:1 468:3 493:1 505:1 506:3 524:1 537:1 538:1 543:2 545:1 552:1 553:2 567:1 568:1 658:1 712:1 719:1 720:1 772:1 839:1 862:1 950:1 968:1 981:1 985:1 1024:1 1159:1 1184:1 1255:1 1263:1 1285:1 1294:1 1376:1 1411:1 1417:1 1609:1 1613:1 1618:1 1623:1 1676:1 1678:1 1870:1 1983:1 2050:1 2058:3 2065:1 2220:1 2322:1 2323:1 2324:1 2325:1 2326:1 2327:1 2328:1 2329:1 2330:2 2331:1 2332:1 2333:1 2334:1 2335:1 2336:1 2337:1 2338:1 2339:1 2340:1 2341:1 2342:1 2343:1 2344:1 2345:1 2346:1 2347:1 2348:1 2349:1 2350:1 2351:1 2352:1 2353:1 2354:1 #
-0.0043296595551441307767048805033028 3:2 4:1 13:1 15:1 28:1 34:2 44:1 51:1 74:1 78:1 81:2 90:1 96:1 98:1 110:1 140:1 145:1 156:2 200:1 225:1 226:1 228:2 234:1 276:1 289:1 296:1 331:1 454:1 464:1 482:1 528:1 540:1 547:1 575:1 604:1 772:2 775:1 853:1 857:1 1067:1 1077:1 1080:1 1084:4 1220:1 1338:1 1374:1 1671:2 1688:1 2120:3 2355:1 2620:1 2800:1 2901:1 3212:1 3611:1 4790:1 4791:2 4792:1 4793:1 4794:1 4795:1 #
-0.0038868374698248402479561214306614 10:1 12:1 15:1 28:3 34:1 50:1 51:1 58:1 78:1 96:1 104:1 126:2 145:1 150:1 161:2 174:2 211:1 233:1 252:1 265:2 299:1 304:1 318:2 325:1 327:1 482:1 486:1 496:1 501:1 516:1 574:1 586:1 618:1 625:1 632:1 690:1 720:1 971:1 985:1 1000:1 1018:1 1068:1 1239:1 1293:1 1415:1 1467:1 1649:1 1690:1 1748:1 1850:1 1918:1 2166:1 2376:1 2532:1 2935:1 2995:1 3672:1 4253:1 4419:1 4521:1 4524:1 5235:1 6732:1 7365:1 7766:1 7767:1 7768:1 7769:1 7770:1 7771:1 #
-0.075415276684701978981983927496913 3:1 4:1 11:1 18:1 28:1 34:1 56:1 63:1 96:1 102:1 150:1 155:1 166:1 171:1 265:1 313:1 320:1 321:2 456:1 468:1 629:1 697:1 855:1 1000:1 1336:1 1453:1 1603:1 1704:1 2773:1 4717:1 #
0.043585849353876174316901881411468 26:1 28:2 29:1 78:1 89:1 90:1 132:1 141:1 171:1 279:1 365:1 373:1 384:1 410:1 454:1 465:1 508:1 527:1 562:1 652:1 762:1 863:1 907:1 985:1 1024:1 1062:1 1308:1 2221:1 2298:1 3716:1 4472:1 4473:1 #
-0.014143892649705943481697190122759 10:1 20:1 28:3 38:1 51:1 71:1 78:1 96:2 102:1 108:1 109:1 129:1 150:1 166:1 171:1 174:1 203:1 211:1 234:1 252:1 256:1 259:1 265:1 275:1 296:1 318:1 330:1 370:1 386:1 410:1 456:1 468:1 496:1 506:1 510:1 538:1 580:1 601:1 610:1 772:1 862:1 863:1 880:1 881:1 1010:1 1314:1 1318:1 1471:1 1475:1 1521:1 1643:1 1682:1 2057:1 2724:1 3017:1 3820:2 5572:1 6028:1 7062:1 7063:1 #
0.015125341995625912056011586059867 11:1 15:1 20:1 28:3 34:2 81:1 87:1 96:2 104:1 112:1 117:1 122:1 169:1 170:1 171:1 195:1 211:1 228:1 259:1 279:1 298:1 299:1 301:1 312:1 373:1 390:1 396:1 410:1 420:1 437:1 438:2 454:1 473:1 493:1 496:1 498:1 501:1 559:1 634:1 671:2 686:1 697:1 698:2 720:1 874:2 877:1 880:1 909:1 993:2 1053:1 1187:1 1211:1 1226:1 1408:1 1442:1 1448:1 1569:1 1610:1 1649:1 1657:2 1713:1 1951:1 2127:1 2294:1 2801:1 3027:1 3397:1 4161:1 4525:1 5093:1 6179:1 6195:1 7107:1 7108:1 7109:1 7110:1 7111:1 7112:1 7113:1 7114:1 7115:1 7116:1 7117:1 7118:1 #
-0.0037116704360716148286547522161527 3:1 5:1 24:3 28:1 34:2 39:1 44:1 46:1 76:1 78:2 87:1 96:6 104:1 112:1 147:1 150:1 168:1 176:1 185:1 211:1 212:1 228:1 265:1 285:1 295:1 299:1 305:1 311:1 320:1 340:1 369:1 410:1 438:1 448:1 494:2 505:1 509:1 510:2 551:1 567:1 570:1 576:1 620:2 635:1 644:1 828:1 862:1 907:1 918:1 921:1 922:1 933:1 965:1 1237:1 1294:1 1395:1 1467:2 1533:1 1671:2 2076:1 2177:1 2223:1 2559:1 2608:1 2804:1 3064:1 3092:1 3618:1 4024:1 4025:1 4026:1 4027:1 4028:1 4029:1 4030:1 4031:1 #
-0.013330420248640662689298963528017 4:1 15:1 16:1 24:1 28:3 31:2 34:1 41:1 43:1 67:1 73:1 80:1 81:1 87:1 89:1 96:3 108:1 116:1 130:1 140:1 152:1 157:1 161:1 174:2 197:1 203:1 204:1 205:1 228:1 235:2 247:1 248:1 258:1 265:1 269:1 275:2 277:1 280:1 285:2 291:2 296:1 337:1 351:1 360:1 369:1 413:1 505:1 508:1 510:1 565:1 567:1 594:1 598:1 604:1 620:1 732:1 746:1 821:1 877:1 983:1 1140:1 1376:1 1411:1 1416:2 1421:1 1427:1 1543:1 1634:1 1708:1 1766:1 2158:1 2626:1 2632:2 2941:1 3178:1 3246:1 4023:1 4246:1 4278:1 5196:1 5281:1 5523:1 5529:1 5765:1 6600:1 6745:1 6919:1 7781:1 8751:1 8752:1 8753:1 8754:1 8755:1 8756:1 #
-0.11061230468187949194103225636354 20:1 28:1 87:1 100:1 106:1 108:1 117:1 147:1 168:1 299:2 330:1 385:1 410:1 505:1 576:1 1047:1 1413:1 1951:1 2002:1 2131:1 3334:1 4864:1 8086:1 #
0.020901535887186725726216707244021 4:2 15:3 28:3 43:3 78:3 87:1 88:1 89:1 94:2 96:3 102:2 103:1 129:1 140:1 147:1 166:1 174:1 190:1 211:2 218:1 228:1 265:1 279:1 298:2 318:1 360:1 369:1 400:1 407:1 471:1 479:1 547:1 576:1 604:1 736:1 749:1 763:1 880:1 1043:1 1080:1 1165:1 1416:1 1498:1 1530:1 1619:1 1634:1 1722:1 1836:3 1842:1 1903:1 1991:1 2702:1 2773:1 2879:1 3889:1 4078:1 4090:1 4129:1 4402:1 4450:1 6160:1 6449:1 6983:1 7803:1 7804:1 7805:1 7806:1 7807:1 7808:1 7809:1 #
-0.071447749520773096154613313046866 15:1 28:3 34:2 66:1 96:3 104:2 112:1 122:1 145:1 150:1 161:1 171:2 174:3 265:1 296:1 299:1 303:1 330:1 410:1 420:1 452:1 463:1 473:1 494:1 510:1 553:1 575:1 589:1 623:1 706:1 736:1 821:1 992:1 1827:1 2338:1 3097:1 3098:1 3099:1 3100:1 3101:1 3102:1 3103:1 #
0.058484460883276773168759632426372 10:1 20:1 28:1 34:1 36:1 96:3 106:1 108:1 145:1 171:1 174:2 222:2 265:1 278:1 279:1 299:1 304:1 318:1 350:1 410:1 457:1 510:1 594:1 623:3 682:1 830:1 922:1 1119:1 1392:1 1393:1 1394:1 1395:1 1396:1 1397:1 1398:1 1399:1 1400:1 1401:1 1402:1 1403:1 1404:1 #
-0.013309832915896008947997941618269 22:1 24:1 27:1 28:3 45:1 66:1 100:1 116:2 132:1 133:1 220:1 316:1 372:1 403:1 410:1 437:1 486:1 507:1 623:1 635:1 652:1 698:2 821:1 823:1 916:1 948:1 1056:1 1395:1 1397:2 1424:1 1612:2 1764:1 1812:1 1894:1 2279:1 2788:2 3063:1 4187:1 4188:1 4245:1 4246:1 4247:1 4248:1 4249:1 4250:1 4251:1 4252:1 4253:1 4254:1 4255:1 4256:1 4257:1 #
0.029762117916022498564920795161015 7:1 12:1 13:1 15:2 26:1 28:1 61:1 66:2 67:1 78:1 96:1 104:1 118:1 232:1 368:1 536:1 567:2 619:1 654:1 775:1 855:1 994:2 1128:1 1419:1 1509:1 1648:1 1750:1 2014:1 2293:1 2392:1 2408:1 2530:1 2562:1 2831:1 2885:1 3099:1 3475:1 5078:1 5531:1 5827:1 5946:1 6758:1 7880:1 7881:1 7882:1 7883:1 #
-0.049894031922018272640073632828717 27:1 81:1 108:1 109:1 129:1 246:1 299:1 318:1 386:1 410:1 513:1 798:1 948:1 1073:1 1211:1 1364:1 1630:1 1663:1 1834:1 1835:1 1836:1 1837:1 1838:1 1839:1 1840:1 1841:1 1842:1 1843:1 #
-0.03424695876158371371511535130594 3:2 19:1 28:3 34:1 46:1 52:2 66:2 78:1 81:1 96:1 108:1 116:1 169:2 171:2 174:1 195:1 205:1 221:1 228:1 230:1 269:1 281:1 289:1 318:1 420:1 496:1 520:1 557:1 560:1 572:1 580:1 585:1 689:1 691:1 711:1 723:1 728:1 813:1 815:1 819:1 852:1 876:1 902:1 944:1 964:1 1390:1 1543:1 1603:1 1618:2 2019:1 2021:1 2044:2 2214:1 2233:1 2562:1 2656:1 2706:1 2877:1 3050:1 3053:1 3285:1 4178:1 4746:1 #
0.014679043807796818277289219167869 13:1 19:1 26:2 28:2 34:2 44:1 46:2 66:1 78:2 80:1 87:1 96:6 110:1 112:1 141:1 147:1 161:1 168:1 201:2 299:1 351:1 427:1 510:1 545:1 557:1 559:1 568:3 572:1 589:1 607:2 671:1 683:1 694:1 697:3 711:1 727:1 763:1 834:1 872:1 878:1 930:1 989:1 1170:1 1416:1 1545:1 1594:1 1637:1 1677:1 1701:1 1900:1 1951:1 2015:1 2023:1 2027:1 2277:1 2422:1 2447:1 2469:1 2715:1 2811:1 3173:1 3394:1 3921:1 4155:1 4160:1 4452:1 5034:1 5451:1 6854:1 7088:1 7089:2 7090:1 7091:1 7092:1 #
-0.014879671873657790773237685755248 5:1 10:1 18:2 22:2 28:4 44:2 52:1 58:1 96:3 104:1 108:1 112:1 114:1 130:1 136:1 152:1 168:2 174:2 201:1 204:3 205:2 226:1 230:1 259:1 265:1 289:1 321:1 338:1 345:1 358:1 373:1 408:1 471:1 501:1 526:1 574:1 586:1 588:1 595:1 598:1 607:1 625:1 642:1 659:1 683:1 697:1 727:1 748:1 775:1 779:1 823:1 1153:1 1165:1 1193:1 1374:1 1733:1 2092:1 2220:1 2232:1 2378:1 2817:1 2819:1 2980:1 3075:1 3382:1 4067:1 4187:1 4458:1 4459:1 4460:1 4461:1 4462:1 4463:1 4464:1 #
-0.050480603345084161526212795934043 10:1 11:2 29:1 81:1 89:1 174:2 264:1 276:1 278:1 299:1 388:1 513:1 536:1 537:1 557:1 560:1 629:1 688:1 694:1 790:1 819:1 843:1 910:1 1016:1 1285:1 1308:1 1352:1 1457:1 1535:1 1569:1 1988:1 2757:1 3463:1 3472:1 3633:1 7931:1 8139:1 8345:1 8346:1 #
0.0600573111793612571251976817166 3:1 15:1 24:1 28:2 58:1 66:1 76:1 129:1 166:1 174:1 190:1 220:1 239:1 259:1 265:1 291:1 305:1 320:1 348:1 368:1 410:1 413:1 475:1 484:1 501:1 527:1 568:1 569:1 586:1 622:1 624:1 819:1 855:1 883:1 887:1 929:1 1177:1 1178:1 1211:1 1285:1 1318:1 1411:1 1543:1 1844:1 1845:1 1846:1 1847:1 1848:1 1849:1 1850:1 1851:1 1852:1 1853:1 #
-0.043834486079553043602619055718606 13:1 34:1 77:1 81:1 87:1 94:1 96:3 117:1 144:1 145:1 147:1 165:1 171:1 174:2 183:1 303:1 304:1 410:1 452:1 454:2 510:1 536:1 687:1 698:2 832:1 880:2 905:1 924:1 1041:1 1107:1 1391:1 1667:1 1762:1 1929:1 2320:1 2822:1 3726:1 4105:1 5303:1 5570:1 6451:1 6452:1 6453:1 6454:1 6455:1 #
0.020033842314860293709610772339147 3:1 9:1 10:2 14:1 15:2 24:3 25:2 34:1 63:1 67:2 77:1 78:2 96:2 104:1 108:1 112:2 129:2 130:1 156:2 174:2 201:3 209:1 211:1 259:1 260:3 275:1 289:1 304:1 319:1 336:3 369:1 438:2 444:1 505:2 528:1 595:1 623:1 643:1 644:1 652:1 700:1 848:1 853:1 899:2 1012:2 1310:1 1383:1 1395:1 1618:1 1661:1 1738:1 2037:1 2159:1 2184:3 2235:1 2539:1 2659:1 2754:1 3118:1 3125:1 3210:1 3504:2 3680:1 4238:1 4594:1 5143:1 5346:1 5841:1 6630:1 6744:1 7568:1 7810:1 7811:1 7812:2 7813:1 7814:1 7815:1 7816:1 7817:1 7818:1 7819:1 7820:1 7821:1 7822:1 7823:1 7824:1 7825:1 7826:1 7827:1 #
-0.0026060877687106823348550665997436 10:1 24:1 26:1 56:1 77:1 80:1 96:2 104:1 108:1 129:1 174:2 177:1 204:1 205:1 222:1 230:1 265:1 299:1 310:1 311:1 320:1 330:2 386:1 400:1 406:1 452:1 454:1 482:1 620:1 623:1 667:1 682:1 690:1 698:1 749:1 758:1 803:1 849:1 857:1 904:1 924:2 1073:1 1097:1 1211:1 1220:1 1358:1 1373:1 1394:1 1416:1 1761:1 1916:1 2193:1 2228:1 2474:1 2490:1 3229:1 3385:1 3416:2 3910:1 6707:1 7839:1 7840:1 7841:1 7842:1 7843:1 7844:1 7845:1 #
0.02114125861691468558078987882709 9:1 34:1 81:1 86:1 98:2 102:1 129:1 145:2 171:1 173:2 174:4 211:1 265:2 337:1 371:2 385:1 425:1 452:1 501:1 568:2 687:1 697:1 698:3 749:1 775:1 874:1 914:2 924:1 965:1 1009:1 1080:1 1395:1 1410:3 1441:1 1667:1 2133:1 2797:1 3427:1 4227:1 5166:1 5994:1 6628:1 6629:1 6630:1 6631:1 6632:1 #
-0.01450927509068318521645579721735 4:1 12:1 15:1 19:1 28:2 34:2 89:1 96:1 102:1 118:1 129:1 144:1 149:1 150:1 168:1 174:2 221:1 278:1 330:2 336:1 373:1 388:1 402:1 425:1 426:1 471:2 494:1 516:1 527:1 619:1 638:1 663:2 697:1 790:1 828:1 863:1 916:2 989:1 1062:1 1916:1 2000:1 2171:1 2562:1 2569:1 4968:1 5175:1 7320:1 #
0.042166737658867317617428227549681 28:2 31:1 34:1 43:1 56:1 71:1 78:3 81:1 89:1 96:3 100:1 108:1 112:1 117:1 122:1 129:2 130:1 161:1 168:1 204:1 211:1 259:1 265:1 318:1 326:1 379:1 410:1 426:1 437:1 439:1 478:1 494:1 496:1 505:1 567:1 580:1 628:1 739:1 985:2 1097:1 1211:1 1408:1 1603:1 1812:1 2033:1 2082:1 2562:1 2755:1 2930:1 4162:1 4459:1 5269:1 6464:2 8382:1 8383:1 8384:1 8385:1 8386:1 8387:1 #
-0.0046953648380544700524641399397296 3:1 10:1 11:2 14:2 19:2 24:1 28:5 34:2 38:1 78:1 85:1 89:1 95:1 96:8 104:1 106:1 108:1 123:1 150:2 161:4 168:1 175:1 214:1 220:1 229:3 254:1 299:1 320:1 360:1 380:1 410:1 435:1 444:3 456:1 463:1 464:2 468:1 471:2 482:1 484:1 507:1 545:1 554:1 567:1 569:2 609:1 618:1 621:1 624:1 629:1 632:1 660:2 750:1 758:1 824:1 842:1 862:1 872:1 874:1 877:4 880:2 881:1 902:1 905:3 964:1 965:1 1063:1 1146:1 1178:1 1330:1 1483:1 1563:1 1594:2 1610:1 1627:1 1638:1 1697:1 1756:1 1777:1 1885:2 2013:1 2017:1 2437:1 2471:1 3554:1 4180:1 5445:1 5801:1 6195:1 6904:1 7257:1 7258:1 7259:1 7260:1 7261:1 7262:1 7263:1 #
-0.0062209778071547613617631178328793 3:1 28:6 34:1 43:2 80:1 96:1 102:1 104:1 116:1 129:1 136:2 149:1 150:1 161:1 203:2 205:2 218:1 228:2 235:1 242:1 251:1 325:1 337:1 395:1 407:1 427:1 467:1 473:1 538:1 540:1 553:1 588:1 589:1 604:1 650:1 651:1 698:1 713:1 760:1 797:1 832:1 892:1 905:1 924:1 945:1 1295:1 1366:1 1376:1 1416:1 1427:1 1855:1 1912:1 1967:1 2065:2 2066:2 2139:1 2286:1 2295:1 2677:1 2841:1 2994:1 3883:2 3884:1 3885:1 3886:1 3887:1 3888:1 3889:1 3890:1 3891:1 #
0.059713165165590768868053572759891 10:1 11:1 13:1 28:1 30:1 34:1 42:1 96:1 112:1 168:1 171:1 174:2 236:1 265:1 276:1 294:1 299:1 410:1 487:1 496:1 505:1 681:2 1201:1 1202:1 1203:1 1204:1 1205:1 1206:1 1207:1 1208:1 1209:1 1210:1 1211:1 1212:1 1213:1 1214:1 1215:1 1216:1 1217:1 #
-0.026765082213137073030573276355426 3:1 8:1 12:1 20:1 25:1 67:1 77:1 78:1 81:1 87:1 94:1 96:3 100:1 112:1 168:1 218:1 235:1 265:1 294:1 299:1 325:1 493:1 494:2 497:1 510:1 552:1 559:1 576:1 577:1 607:1 665:1 667:1 690:1 824:1 845:1 872:1 883:1 1053:1 1085:1 1387:1 1412:1 1533:1 2074:1 2263:1 2486:1 2487:1 2488:1 2489:1 2490:1 2491:1 2492:1 2493:1 #
-0.036096145958971349865240796361832 28:1 51:1 96:1 104:1 108:1 171:3 175:1 410:1 629:1 846:1 1000:1 1068:1 1812:1 2254:1 3576:1 3822:1 4736:1 5872:1 #
-0.066017835581076905748787453376281 11:1 28:2 34:1 52:1 66:1 89:1 96:2 100:1 104:2 110:1 145:2 166:1 168:1 171:1 174:2 205:1 211:1 235:1 259:1 264:1 265:1 269:1 279:2 294:1 299:1 310:1 317:1 335:1 373:2 456:1 482:1 486:1 501:1 527:1 557:2 559:1 569:2 634:1 694:1 695:1 697:1 924:1 933:1 969:1 1000:1 1013:1 1041:1 1063:1 1187:1 1188:1 1285:1 1350:1 1390:1 1457:1 1563:1 1568:1 1682:1 2014:1 2171:1 2432:1 2815:1 4298:1 4470:1 4739:1 4832:1 5200:1 6037:1 6413:1 6414:1 8105:1 8110:1 8111:1 8112:1 8113:1 8114:1 8115:1 8116:1 8117:1 8118:1 8119:1 #
0.03811134317846721908384921562174 20:1 34:1 68:1 96:2 117:1 129:1 171:1 173:1 278:1 410:1 464:1 505:1 510:1 551:1 552:1 567:1 575:1 687:1 792:1 794:1 965:1 1239:1 1457:1 1603:1 1695:1 1722:1 2573:1 2841:1 2932:1 2933:1 2934:1 2935:1 2936:1 2937:1 2938:1 2939:1 2940:1 2941:1 2942:1 2943:1 #
0.054408408886883863342376344007789 4:2 10:1 14:2 24:1 28:1 34:1 96:2 149:1 171:1 299:1 325:1 351:1 410:2 457:1 510:1 551:1 673:1 904:1 922:2 954:1 1203:1 1236:1 1326:1 1467:1 1475:1 2024:1 2165:1 #
-0.04089428720967012986786670580841 11:1 14:1 28:1 59:1 96:2 98:1 104:1 109:1 156:1 174:1 337:1 400:1 410:1 422:1 452:1 457:1 472:1 575:1 623:1 687:1 772:1 828:1 1049:1 1079:1 1192:1 1381:1 1709:1 1812:1 2002:1 2289:1 3307:1 4028:1 5721:1 5722:1 #
0.031993701055044267145266445595553 10:1 15:2 20:1 28:6 44:1 48:1 49:1 59:1 71:1 75:1 77:1 78:4 96:1 102:1 104:1 108:3 112:1 129:1 142:2 147:1 150:1 156:1 174:4 195:1 203:1 204:1 205:2 242:1 259:1 265:2 269:1 275:1 277:1 330:1 336:1 359:1 370:1 388:1 410:1 508:1 553:1 580:2 600:1 629:1 720:1 779:2 790:1 828:1 874:1 878:1 886:1 1049:1 1167:1 1211:1 1272:1 1287:1 1293:1 1299:1 1305:2 1338:1 1352:1 1639:1 1782:1 1842:1 1886:1 2172:1 2192:1 2443:1 2753:1 3032:1 3110:1 3870:1 3871:1 4087:1 4737:1 5370:1 5930:1 6595:1 7358:1 7359:1 7360:1 7361:1 #
0.052281013439874339521207247116763 25:1 28:4 74:1 96:2 104:1 108:1 144:1 173:1 174:1 195:1 204:1 205:1 259:1 330:1 369:1 410:1 464:1 466:1 496:1 505:1 508:1 569:1 663:1 671:1 689:1 691:1 749:1 874:1 895:1 1184:1 1245:1 1324:1 1516:1 1901:1 2050:1 2379:1 2520:1 2633:1 2634:1 2635:1 2636:1 2637:1 2638:1 2639:1 2640:1 2641:1 2642:1 #
0.019331674284164535732033485260217 3:1 28:1 29:1 43:1 51:1 59:2 66:3 90:2 102:1 118:1 121:1 129:1 140:1 264:1 265:1 275:1 279:2 325:1 326:1 335:1 342:1 365:1 370:1 410:1 427:1 454:1 455:1 456:1 457:1 458:1 459:1 460:1 461:1 462:1 463:1 464:1 465:1 466:1 467:1 468:1 469:1 470:1 471:1 472:1 473:1 474:1 475:1 476:1 477:1 478:1 479:1 480:1 481:1 482:1 483:1 484:1 485:1 486:1 487:1 488:1 489:1 490:1 491:1 #
0.12368020727356612842307015398546 28:1 38:1 42:1 102:1 145:1 168:1 174:1 205:1 265:1 385:1 410:1 473:1 576:1 985:1 1475:1 1542:1 2013:1 3484:1 4135:1 6979:1 #
-0.0026628619152361410887808190750548 12:1 28:1 34:1 50:1 76:1 82:1 90:1 96:1 104:2 129:1 140:1 177:1 201:1 205:1 235:1 236:1 282:1 285:1 338:1 376:1 393:1 403:1 438:1 482:1 553:1 567:1 604:1 636:1 697:1 712:1 878:2 971:1 1146:1 1290:1 1318:1 1319:1 1366:1 2020:1 2247:1 2405:1 2632:1 2687:2 2728:2 2925:1 3017:1 4391:1 6898:1 7142:1 7143:1 #
0.04570100634737385425498956692536 3:1 4:1 28:1 44:1 59:1 61:1 62:1 63:1 90:1 122:1 124:1 126:1 130:1 165:1 214:1 289:1 464:1 547:1 570:1 654:1 715:1 719:1 768:1 877:1 910:1 945:1 964:1 1194:1 1318:1 1416:1 1427:1 2131:1 2172:1 2608:1 2926:1 2927:1 2928:1 2929:1 2930:1 2931:1 #
-0.07540735088140117226007674844368 11:1 15:1 20:1 28:2 48:1 62:1 66:1 67:1 71:1 96:1 106:1 145:1 228:1 279:1 299:1 335:1 336:1 343:1 410:1 413:1 459:1 468:1 501:1 513:1 567:1 619:1 689:1 690:1 758:1 830:1 855:1 862:1 921:1 948:1 1239:1 1348:1 1856:1 2159:1 2233:1 2757:1 2761:1 2777:1 2995:1 3457:1 6541:1 6542:1 6543:1 6544:1 6545:1 #
-0.041455537213753418379624804401828 6:1 10:1 13:1 28:2 58:1 66:1 85:1 89:1 106:1 129:1 141:1 149:1 166:2 171:2 242:1 252:1 299:1 410:1 467:1 496:1 619:1 629:1 708:1 726:1 886:1 964:1 1230:1 1397:1 1618:1 1812:1 1849:1 1918:1 2065:3 2263:1 2443:1 2898:1 2943:1 4068:1 4069:1 4070:1 4071:1 #
0.03362913701650172004775640743901 5:1 28:1 34:1 44:1 87:1 89:1 93:1 96:4 104:2 117:1 147:1 171:2 174:1 197:1 200:1 235:1 236:1 278:1 301:1 493:1 496:1 501:1 557:1 567:1 585:1 634:1 665:1 681:1 985:2 1016:1 1017:1 1051:1 1052:1 1077:1 1258:1 2027:1 2044:1 2263:1 6135:1 #
-0.11701050750163612124143952541999 15:1 24:2 25:1 26:1 28:2 44:1 46:1 51:1 59:1 77:1 78:1 82:1 110:1 171:2 174:1 299:1 473:1 496:1 570:1 575:1 634:1 644:1 691:1 727:1 763:1 868:1 876:1 1305:1 1324:1 1457:1 1484:1 1618:1 2015:1 2073:1 2283:1 2449:1 2550:1 3050:1 3125:1 4267:1 4476:1 8505:1 #
-0.025320599865735735761740343718884 12:1 19:1 25:2 28:1 34:1 42:1 78:2 96:2 117:1 121:1 154:1 174:3 222:1 228:1 254:1 310:1 330:1 335:1 410:1 413:1 439:1 462:1 507:1 567:1 698:1 876:1 950:1 955:1 982:1 983:1 985:1 1108:1 1210:1 1395:1 1404:1 1725:1 1775:1 2004:1 2698:1 3258:1 3941:1 4020:1 4046:1 4376:1 4377:1 4378:1 4379:1 4380:1 4381:1 4382:1 4383:1 4384:1 #
0.011161683585513986621817750233276 4:1 10:2 11:2 13:1 23:1 28:5 34:1 43:1 56:1 58:1 63:1 76:1 78:2 85:1 96:2 100:1 102:2 129:1 140:1 141:2 145:1 147:1 149:1 150:1 156:1 168:3 171:1 177:1 225:1 233:2 234:1 282:1 299:1 317:1 348:1 367:1 482:3 509:1 510:1 553:1 554:1 567:1 568:2 595:1 604:1 627:1 644:1 653:1 709:1 710:1 758:1 762:1 764:1 788:1 833:1 881:1 905:1 950:1 1000:1 1161:1 1293:1 1338:1 1390:1 1395:2 1498:1 1629:1 1720:1 1870:1 1891:1 1929:1 1966:1 2165:1 2188:1 2449:1 2702:1 2797:2 2826:1 2898:1 3030:1 3086:1 4291:1 6252:1 6306:1 6988:1 7785:2 7786:1 7787:1 7788:1 7789:1 #
-0.026029786651619927356771100335209 3:1 4:1 5:1 11:1 13:1 14:1 26:1 28:1 34:2 39:1 44:1 46:1 49:1 59:1 81:1 88:1 112:1 124:1 152:1 161:1 168:1 175:1 232:1 463:1 548:1 567:1 701:1 844:1 1016:1 1017:1 1318:1 1821:1 2851:1 5322:1 7200:1 7201:1 7202:1 7203:1 #
-0.0031814512829795907854213421472878 28:3 34:2 58:1 59:1 66:1 72:1 77:1 78:2 80:1 96:1 108:1 124:1 161:1 168:1 171:2 174:1 204:1 205:1 206:1 234:1 256:1 262:1 296:1 299:1 312:1 406:1 410:2 445:1 468:1 473:1 474:1 482:1 496:1 510:1 568:1 623:1 663:1 682:2 755:1 775:1 849:1 905:1 930:1 968:1 1084:1 1350:1 1391:1 1394:1 1533:1 2021:1 2120:1 2127:1 2388:1 2608:2 2722:1 2723:1 2884:1 4142:1 4208:1 6826:1 6941:1 6942:1 6943:1 6944:1 6945:1 6946:1 6947:1 6948:1 6949:1 6950:1 6951:1 6952:1 6953:1 6954:1 #
-0.10180828751851295210784087430511 10:1 18:1 20:2 42:1 96:2 121:1 145:1 156:1 174:2 220:1 299:1 330:1 410:1 516:1 604:1 630:1 803:1 922:1 1203:1 1390:1 2078:1 2156:1 2159:1 2698:1 4412:1 4669:1 5539:1 5540:1 5541:1 5542:1 5543:1 #
0.0011590824546942870773569289610805 15:3 28:2 42:1 43:1 48:1 56:1 81:1 156:1 161:2 173:1 174:2 177:1 200:2 239:1 269:1 276:1 350:1 463:1 464:1 471:1 473:1 494:1 496:1 501:1 557:1 565:1 587:1 595:1 604:1 623:1 625:1 629:1 694:1 697:1 750:1 772:1 773:1 775:1 806:1 863:2 874:1 950:1 969:1 1000:1 1028:1 1065:1 1068:1 1097:1 1211:1 1305:1 1312:1 1343:1 1550:1 1643:1 1939:1 2088:1 2241:1 2698:1 2769:1 3210:1 3241:1 4348:1 4812:1 6226:1 6259:1 7380:1 7416:1 8682:1 8683:1 8684:1 8685:1 8686:1 8687:1 8688:1 8689:1 8690:1 #
-0.010483244764687118383283959133223 10:2 19:1 25:1 28:5 34:1 78:1 94:2 96:3 174:1 186:1 203:1 204:1 205:1 249:2 265:2 285:1 304:1 388:1 486:1 506:1 524:1 528:1 538:1 545:1 622:2 691:1 715:1 763:1 779:1 863:1 883:1 927:1 950:1 1027:1 1146:1 1211:1 1265:1 1366:1 1555:1 1842:1 1848:1 1922:1 2019:1 2088:1 2118:2 2393:1 2443:1 2998:1 3017:1 3062:1 3092:1 3424:1 3718:2 3904:2 4391:1 4402:1 4976:4 5413:1 5414:1 #
-0.037931512166198479152345868214979 4:1 10:1 13:1 14:1 26:1 28:3 34:3 42:1 59:2 67:1 87:1 88:1 96:7 117:1 122:5 128:1 129:1 131:1 134:1 171:2 205:1 211:1 216:1 230:1 254:1 265:1 299:1 304:1 320:1 335:2 351:1 358:1 368:1 385:3 406:1 410:2 420:1 422:1 426:1 467:1 493:2 505:1 507:1 516:3 531:1 553:1 559:1 561:1 567:2 569:1 582:1 634:1 665:1 671:1 686:1 697:1 699:1 820:1 824:1 828:1 876:2 927:1 982:1 983:1 985:1 994:1 1018:1 1022:1 1035:1 1050:1 1068:1 1211:6 1231:1 1401:1 1411:1 1475:1 1509:1 1521:1 1533:1 1545:1 1649:1 1694:1 1859:1 2002:1 2004:1 2014:1 2233:1 2290:1 2361:1 2543:1 2571:1 2608:1 2976:1 3576:1 4348:1 4461:1 4517:1 4518:1 4519:1 4520:1 4521:1 4522:1 4523:1 4524:1 4525:2 4526:1 4527:1 4528:1 4529:1 4530:1 4531:1 4532:1 4533:1 4534:1 4535:1 #
0.026950882114249664206484524697771 9:1 11:1 12:1 28:5 34:2 38:1 46:1 82:1 96:3 104:1 121:1 129:1 144:1 155:1 170:1 174:3 183:1 197:1 204:1 205:1 234:2 242:1 262:1 294:1 299:2 310:1 318:1 321:1 325:1 330:1 350:1 373:1 385:1 400:1 404:1 410:3 420:1 453:1 493:1 496:1 505:1 509:1 559:2 587:1 636:1 664:1 665:1 666:1 667:1 668:1 669:1 670:1 671:1 672:1 673:1 674:1 675:1 676:1 677:1 678:1 679:1 680:1 681:2 682:1 683:1 684:1 685:1 686:1 687:1 688:1 689:1 690:1 691:2 692:1 693:1 694:1 695:1 696:1 697:1 698:1 699:1 700:1 701:1 702:1 #
-0.0050460182772155207087116934872029 13:1 30:1 34:3 88:1 89:1 96:5 129:1 228:1 245:1 246:1 254:1 299:1 339:1 452:1 506:1 516:1 687:1 785:1 834:1 877:1 948:1 967:1 1002:1 1161:1 1226:1 1381:1 1555:1 1604:1 1686:4 1688:1 1815:1 1850:3 2267:2 2281:1 2403:1 2743:1 2898:1 3075:1 5370:1 5582:1 5583:1 5584:1 5585:1 5586:1 5587:1 5588:1 5589:1 5590:1 5591:1 #
0.021615161434012836877416319225631 3:1 5:1 11:1 14:1 15:2 19:1 20:1 28:10 29:1 34:2 43:1 51:1 59:1 63:1 66:1 73:1 76:2 77:1 78:2 80:1 81:3 89:1 96:4 98:1 100:1 104:4 122:1 133:1 140:1 145:1 149:1 150:1 156:1 161:1 168:1 174:2 200:1 201:1 203:2 222:1 225:2 228:1 234:2 236:2 237:1 242:1 258:1 265:1 273:2 285:1 304:2 311:1 313:1 318:1 325:1 327:1 336:1 376:1 386:1 403:1 410:1 420:1 437:1 438:1 441:2 443:1 444:1 463:1 506:1 507:3 510:2 521:1 553:1 555:1 620:2 623:1 660:1 672:1 717:1 725:1 753:1 848:1 873:1 879:1 880:1 909:2 924:1 937:3 942:2 969:1 973:1 1010:2 1157:3 1169:1 1234:1 1248:2 1293:1 1325:1 1339:1 1374:1 1411:1 1416:1 1518:1 1528:1 1603:1 1618:1 1667:1 1692:1 1693:2 1840:2 1886:1 2014:4 2088:1 2159:1 2162:1 2193:1 2230:1 2403:1 2458:1 2557:1 2682:1 2728:1 3183:1 3184:1 3185:1 3186:1 3187:2 3188:1 3189:1 3190:1 3191:2 3192:1 3193:1 3194:1 3195:1 3196:1 3197:1 #
-0.0061645948710442460827252375565877 13:2 18:1 20:2 28:3 71:1 78:1 87:1 96:1 100:1 104:2 114:1 121:1 144:1 149:3 195:1 220:1 245:1 252:1 255:1 331:1 372:1 400:1 425:1 471:1 507:1 545:1 553:1 554:1 623:1 627:1 631:1 654:1 658:1 667:1 673:1 720:1 773:1 876:1 880:1 959:1 984:1 1061:1 1062:1 1077:1 1178:1 1204:1 1303:1 1366:1 1390:1 1427:1 1444:1 1538:1 1570:1 1598:1 1606:1 1608:1 2018:1 2192:1 2290:1 2353:1 2542:1 2544:1 2580:1 3007:1 3061:1 3361:1 4298:1 4469:1 5372:1 6443:1 6444:1 6445:1 6446:1 6447:1 6448:1 6449:1 6450:1 #
0.016865760837552375150938388514987 11:1 12:1 22:2 25:1 28:1 44:1 59:1 93:1 96:1 108:1 116:1 134:2 211:3 216:1 299:1 337:1 406:1 468:1 493:2 562:1 567:1 671:1 1165:1 1258:1 1618:1 1934:1 2340:2 3662:1 3665:1 5347:1 #
0.023025113922730024162977002788466 10:1 14:1 28:2 34:1 66:2 78:3 89:1 154:1 161:1 189:1 198:1 225:1 265:1 275:1 305:1 326:2 360:1 384:1 386:1 410:1 425:1 427:1 553:1 567:1 623:1 671:1 701:1 746:1 775:1 922:1 998:1 1010:1 1538:1 1563:2 1691:1 1832:1 1836:1 1865:1 2378:1 2744:1 4539:1 6584:1 6589:1 7093:1 7094:1 7095:1 7096:1 7097:1 7098:1 #
-0.016215862069311595683451798777241 4:2 10:2 26:1 28:3 31:1 34:1 38:2 40:1 42:1 43:1 59:1 71:1 77:1 80:1 81:2 96:4 100:1 104:2 116:1 123:1 129:2 130:1 141:1 143:1 144:1 147:1 149:1 161:1 166:3 168:1 169:1 174:3 201:1 203:2 205:1 225:1 231:2 239:2 242:2 278:1 285:1 296:1 299:2 304:1 305:1 312:1 325:1 326:1 348:1 351:1 380:2 387:1 400:1 410:2 413:1 433:1 437:1 456:1 463:1 473:1 547:1 554:1 588:1 607:2 644:1 652:1 671:1 673:1 698:2 708:1 746:1 824:1 862:1 910:1 927:1 998:1 1000:1 1068:1 1079:1 1080:2 1146:2 1152:1 1170:1 1184:1 1304:2 1338:1 1376:1 1379:1 1416:1 1458:1 1499:1 1524:1 1599:1 1722:1 1757:1 1788:1 1983:1 2016:1 2281:1 2347:1 2348:1 2536:1 3127:1 3173:3 3305:1 3432:1 3652:1 4387:1 4490:1 4681:1 4917:1 5920:1 7024:1 7025:1 #
-0.087845955166295869309678323588741 9:1 28:1 66:1 96:2 122:1 129:2 174:1 211:1 236:1 262:1 265:1 330:1 410:1 444:1 479:1 496:1 510:1 575:1 590:1 671:1 696:1 772:1 922:1 1024:1 1416:1 1538:1 2040:1 2823:1 3224:2 5870:1 5871:1 #
-0.01085227534810835441081433572208 3:1 7:1 10:2 15:1 28:3 34:1 39:2 66:1 85:1 87:1 96:5 108:1 109:1 118:1 173:1 174:2 201:1 230:1 265:2 285:1 294:1 410:1 494:1 496:1 508:1 665:1 690:1 727:1 760:1 828:1 874:2 877:1 905:1 954:1 993:1 1256:1 1350:1 1475:1 1533:1 1605:1 1705:1 1708:1 1765:1 2732:1 3700:1 3701:1 3702:1 3703:1 3704:1 3705:1 3706:1 3707:1 3708:1 #
-0.04111243462866454034809748918633 10:1 20:2 28:5 38:1 44:1 59:1 66:1 78:2 79:1 96:3 112:1 116:1 129:1 131:1 174:2 200:2 201:1 220:1 226:1 230:1 236:1 276:1 371:1 388:1 452:1 474:1 507:1 547:1 552:1 567:2 575:1 619:1 651:1 905:1 919:1 1231:1 1254:1 1338:1 1379:1 1649:1 1750:1 1842:1 2246:1 2550:1 2791:1 2917:1 2919:1 3099:1 3330:1 4328:1 4380:1 5034:1 7204:1 7205:1 7206:1 7207:1 #
0.06963359033276071696771936103687 4:1 24:1 28:1 66:1 76:1 96:1 102:1 146:1 149:1 177:1 198:1 201:1 265:1 305:1 318:2 327:1 410:1 437:1 456:1 501:1 516:1 540:2 545:1 567:1 638:1 660:2 703:1 823:1 828:1 880:1 924:1 955:1 964:2 1000:1 1108:1 1193:1 1335:1 1636:1 1686:2 1797:1 1850:2 1929:1 2296:1 2416:1 2611:1 2698:1 2799:1 2995:1 3071:1 3072:1 3073:1 3074:1 #
-0.037779414356690244058967209639377 9:1 11:1 12:1 15:1 19:2 28:1 51:1 67:1 87:1 96:3 104:1 108:1 114:1 130:1 133:2 149:1 161:1 169:1 171:1 177:1 211:1 218:1 243:2 251:1 262:1 265:1 269:1 279:1 305:2 326:1 337:1 453:1 482:1 507:1 516:2 625:1 697:1 698:2 764:1 846:1 876:1 877:1 880:1 924:1 1079:1 1231:1 1309:1 1444:1 1455:2 1496:1 1697:1 1824:1 2078:1 2285:1 2698:1 2800:1 3048:1 5572:1 5748:1 5749:1 5750:1 5751:1 5752:1 #
-0.013269977460766125415547733723542 3:1 9:1 15:1 28:2 34:1 45:1 96:2 104:1 107:1 116:1 150:1 169:1 174:2 177:1 229:1 233:1 252:1 265:2 274:1 279:1 299:1 303:1 318:1 553:1 604:1 739:1 782:1 803:1 805:1 874:1 904:1 937:1 1114:1 1120:1 1309:1 1387:1 1426:1 1484:1 1612:1 1643:1 1647:1 1690:1 1812:1 1848:1 2608:1 2762:1 2963:1 3086:1 3246:1 3694:1 5931:1 5932:1 5933:1 5934:1 5935:1 5936:1 #
-0.022759024562549030890057366605106 10:1 28:2 34:1 59:1 87:1 96:2 121:1 147:1 174:3 189:1 223:1 226:1 264:1 265:1 276:1 410:1 423:1 427:1 445:1 505:1 510:1 559:1 654:1 683:1 708:1 922:1 954:1 1018:1 1563:1 1606:1 1622:1 1667:1 2000:2 2273:1 2703:1 4333:1 5068:1 8321:1 8322:1 #
-0.011451624438270755282354151916024 28:1 34:2 52:1 80:1 81:1 96:1 104:1 171:2 174:1 225:1 281:1 299:1 308:2 338:1 368:1 404:1 418:2 494:1 510:1 553:1 568:1 574:1 580:1 625:1 641:1 697:1 708:1 763:2 797:2 863:1 877:1 897:1 933:1 1062:2 1208:1 1484:1 1663:1 1698:1 1813:1 2108:1 2109:1 2110:1 2111:1 2112:1 2113:1 2114:1 2115:1 2116:1 2117:1 2118:1 2119:1 2120:1 2121:1 2122:1 2123:1 #
-0.058173047319893922413314157893183 3:1 9:2 15:1 19:1 24:1 34:1 58:1 96:2 129:1 144:2 165:1 171:2 174:1 395:1 399:1 410:1 454:1 504:1 551:1 554:1 575:1 604:1 652:1 753:1 758:1 835:1 836:1 837:1 838:1 839:1 840:1 841:1 842:1 843:1 844:1 845:1 846:1 847:1 #
